1282 16
150 0.6352888 0.06876117 -1.871062 0.5562696 0.59516114 0.37930134 -0.7465082 2.068102 0.1989475 -0.09448741 -1.4469208 -0.45115146 0.32586125 -0.7435557 0.5350112 -0.34205306
120 0.8845942 0.76794314 -0.9908936 0.17360952 0.87997484 0.71271586 -0.7316842 -0.39336595 -1.1021036 -2.0398083 0.1724614 -1.073621 -0.07149113 -1.4765869 -1.2146 -1.6971946
1125 0.16612983 1.2924324 -0.6484709 -0.86082083 0.5280473 -0.2895451 -1.3518162 0.27044913 -0.23625353 1.5024413 0.40482536 -0.6918542 -1.3458886 0.056874372 0.13067415 -1.2532233
1193 0.031469468 0.54663634 0.43066257 -1.097449 2.0470529 1.0768257 -0.95567477 -0.08696906 -0.36909065 -0.0214873 -0.9375798 0.60474014 0.24280319 -0.5300532 -0.8186213 0.38927698
955 0.86891115 0.74033624 -0.94833153 0.15752187 0.84403497 0.6234164 -0.6638976 -0.38097662 -1.0002989 -1.9855819 0.14731844 -1.1383619 -0.033676434 -1.4693487 -1.1680341 -1.7249835
573 0.6613612 0.10474483 -1.9224688 0.64601 0.66105694 0.44952118 -0.8937588 2.256039 0.1721796 -0.07557372 -1.4860646 -0.66478914 0.29931748 -0.7179157 0.5627836 -0.43928286
456 0.08173088 1.4077735 -0.6857141 -0.92115855 0.51578856 -0.3782999 -1.4530506 0.24747278 -0.18085356 1.4749192 0.36611322 -0.6780765 -1.4532478 0.13140488 0.042433925 -1.2949226
1071 -1.0385346 0.5555701 -0.32340717 -0.37896737 1.0151534 -0.43026397 0.6289582 0.73926276 1.7286508 0.16339625 0.17818008 -0.5183253 -0.26832086 -1.7526902 -0.7488402 -0.7637667
490 -0.28687537 2.3313212 1.0666472 0.62008107 0.4659602 0.22061318 -0.28063434 0.5181385 0.67902863 -0.65065205 -0.86317647 -0.38089204 0.6211118 0.07648053 0.58022416 -0.5028292
554 0.8171099 0.7995382 -1.0114996 0.114186384 0.8135645 0.64135027 -0.6913405 -0.36759326 -1.0936254 -1.9871022 0.14473654 -1.0197022 -0.036347277 -1.5475131 -1.1568658 -1.7124403
1202 -0.47410184 0.38825652 -0.32616782 0.011456958 1.2941895 -0.573934 1.1121193 0.5641196 1.8171622 0.47932494 0.34982467 -0.86576855 -0.14136145 -1.9402418 -0.75714207 -0.77434665
1065 -0.85852313 0.61389613 -0.28439146 -0.34469715 1.0287635 -0.6095932 0.8416736 0.8282228 1.7577165 0.29191616 0.12917364 -0.6744714 -0.124022484 -1.6796932 -0.7512318 -0.5775824
426 0.00640968 0.614336 0.4141088 -1.0401243 2.0203648 1.0902393 -0.9601256 -0.14395836 -0.32585317 0.07261937 -1.0144322 0.5372947 0.24892446 -0.47191784 -0.9021184 0.3979043
290 0.59813166 0.07504606 -1.9792427 0.68807894 0.7640028 0.37495458 -0.8499937 2.2908964 0.061995495 -0.15623337 -1.3912132 -0.6786287 0.20039502 -0.59683233 0.5862956 -0.4040479
160 0.0071675703 0.61094075 0.4257255 -1.1001387 2.0349565 1.1329051 -1.0142064 -0.1843554 -0.33157957 0.023513362 -0.98643017 0.54316455 0.20620097 -0.41357252 -0.82162 0.39714637
703 1.9684318 1.3198597 0.34999338 -0.9019204 -0.21417326 0.8728361 0.70371085 0.08484516 1.0545917 0.047030106 -0.58287877 -0.19502282 -0.8723286 -0.49830928 -0.5823595 0.37064263
1233 0.6193437 0.047012936 -1.9616117 0.666047 0.81337535 0.43795654 -0.841428 2.3493564 -0.0014488003 -0.24295235 -1.3696419 -0.73577636 0.28039923 -0.62341535 0.6294595 -0.451123
690 0.16914733 1.4929051 -0.7951082 -0.87297875 0.5565662 -0.4877855 -1.4300212 0.26053888 -0.18490928 1.5866228 0.4410967 -0.7009596 -1.4285748 0.05184923 0.05673912 -1.186189
13 -0.26407304 1.1981026 0.46377933 -0.3685485 0.84136474 -1.0353729 0.7622748 0.39247712 -0.86241066 -0.7082696 -1.8904948 -1.0750252 -0.4147175 0.049124137 0.35350618 -0.0325672
1187 1.2100351 1.390346 -0.36859187 -0.008118787 1.0765008 -0.91008526 0.46210098 0.32624933 -0.4265002 -0.31067786 -0.13999002 1.864586 -0.97020936 -0.95547354 0.58212554 -0.5029756
144 0.82305866 0.7406781 -0.92244077 0.32133973 0.88609487 0.72868156 -0.6142025 -0.37965345 -1.0273491 -2.0433056 0.18427259 -1.0747442 -0.008455552 -1.444325 -1.1502187 -1.64397
688 1.0289525 0.9401444 -0.19094239 0.42070615 1.0402567 -0.5453925 0.6628014 0.18383251 -0.4186215 0.089557916 -0.41751045 1.723634 -1.0787139 -1.2060117 0.5547268 -0.6273841
90 0.42613092 0.9741439 -0.5059678 0.19348964 0.9363421 0.12947921 0.82952046 -0.084066324 -0.043757256 0.1705553 -0.6713947 1.4203597 -1.2874277 -0.6587559 0.078369595 0.014412965
549 0.1723894 0.38542685 0.08459575 -0.99479485 2.1529565 -0.07559266 -0.6884978 0.36810625 0.030064749 -0.8479037 0.5519481 -0.5454155 0.023735316 -0.8843647 0.5869565 1.4003842
1265 1.8715848 1.5103666 -0.072018154 -0.92423415 -0.24944243 0.7816452 0.17451137 0.29846445 0.98196644 -0.052618526 -0.6458877 0.15439329 -0.65831685 -0.3188662 -0.46460474 0.52455664
113 1.8432752 1.4875802 0.004247355 -0.90630215 -0.29599056 0.81698185 0.2075452 0.33032304 0.9477131 -0.023598604 -0.71840334 0.17208838 -0.7099281 -0.35135448 -0.46822134 0.51539886
212 -0.41343144 0.48700196 -0.30723622 0.061333142 1.2097173 -0.50907403 1.1361258 0.60931325 1.8957671 0.5353231 0.28135434 -0.84879076 -0.0068062576 -1.9030582 -0.7582621 -0.785564
386 -0.9665764 0.6126829 -0.27330697 -0.36927792 0.9245921 -0.5145507 0.685491 0.85911703 1.7615681 0.22442763 0.18820758 -0.5514049 -0.24138786 -1.6417469 -0.6181227 -0.7362344
1100 -0.5206676 0.4228515 -0.3532392 0.07694447 1.3002759 -0.4267357 1.0890836 0.47756895 1.790165 0.5491643 0.3043332 -0.9201463 -0.021364557 -1.9008894 -0.8310188 -0.6755381
148 0.36467397 0.93342465 -0.32764065 0.3948655 1.0028661 0.1155488 0.74023336 -0.07276524 -0.16713671 0.16528884 -0.571455 1.4736353 -1.4288936 -0.76464343 0.42081514 -0.12739368
1124 -0.38956735 1.509502 0.22323234 0.081570804 1.1263804 -0.7186992 0.8602863 0.033914436 -0.7017522 -0.18576322 -1.7625747 -1.0940624 -0.48390672 0.5900711 0.016384235 -0.24428889
480 0.015622633 0.6269045 0.44595355 -1.0326302 2.02621 1.1870571 -0.98008466 -0.19764858 -0.31789142 0.058661073 -0.99956983 0.4975584 0.2956441 -0.44505605 -0.9118884 0.32704353
905 0.4941424 -0.13580385 0.93320537 -0.5255516 2.2790978 0.18047675 -0.9849786 0.23448977 0.02862375 0.12652425 -0.32251215 -0.34700894 -0.44091287 -0.86755306 -0.02855642 0.5222506
265 -0.14312878 1.6788336 -0.20951724 -0.13410605 -0.029890519 0.46182093 -0.1631381 -0.34082478 -0.9541113 1.4731345 0.32103822 -0.815537 0.40268144 -1.3249245 0.64253926 -0.25209093
1221 -0.3624827 1.5409372 0.26142192 0.11051283 1.0412132 -0.73889565 0.80360913 0.06909177 -0.63296115 -0.21230775 -1.7405648 -1.0582144 -0.38564882 0.5099354 0.08905557 -0.23051627
995 0.13234937 0.31354716 0.62887347 -0.3138195 2.0950232 0.6218691 -1.0836866 -0.1400639 -0.1684742 0.3488579 -0.7630972 -0.044464093 -0.2119839 -0.5556515 -0.7113782 0.4549239
252 -0.20025547 0.9943836 0.31069452 -0.34251514 0.41039628 -0.95313567 0.9322808 0.3942683 -0.8722878 -0.39863473 -1.9102049 -1.1976821 -0.30354506 -0.44982055 0.56836766 -0.111975074
744 0.08031365 1.0725789 -0.5099895 -1.1053362 0.42548445 -0.3106048 -1.2901776 0.33480495 -0.102442846 1.1751353 0.30984712 -0.71731764 -1.5953716 0.14779255 0.2573099 -1.3307866
67 1.1995535 1.0427476 -0.17969523 0.4374544 1.1973084 -0.56745374 0.583761 0.26681828 -0.40064338 -0.2091385 -0.11444427 1.8353052 -1.0831285 -1.1914874 0.72165257 -0.6076452
301 1.4236833 1.3240107 -0.20278196 0.05150088 1.1397855 -0.91434187 0.49315107 0.35962412 -0.53458434 -0.4002672 -0.0019635118 1.966605 -1.0237193 -1.277153 0.8100642 -0.6020873
128 -0.077384606 0.5480541 0.822172 -0.9562286 0.5171912 1.2148875 0.7283786 1.3186505 -0.6081271 0.22227278 0.34513462 -0.70316005 -0.46714753 -0.30695412 1.1340885 -1.4995424
285 -1.2961273 0.59061444 -0.4229034 -0.4857925 0.9433838 -0.30695966 0.49838156 0.6457164 1.6754779 0.12309598 0.0213856 -0.39406046 -0.3454097 -1.8303131 -0.8090298 -0.79010504
182 0.5984942 1.1839005 -0.6240257 0.12846571 -0.016663684 1.5423774 0.71518403 0.24851447 0.4386011 -0.58692384 -0.1226395 -0.31015036 -2.1717374 -0.58754474 -0.3700894 0.7079608
1201 1.0379399 0.9653079 -0.3295982 0.3424133 1.0940006 -0.69447297 0.6818123 0.13204956 -0.3381911 0.18815626 -0.4559485 1.7271724 -1.0086782 -1.1508093 0.41168624 -0.673231
816 1.0441905 1.2741569 -0.28275603 0.2339289 1.0978334 -0.54410034 0.4574551 0.37480235 -0.31515434 -0.6335229 0.082547575 1.7559261 -1.3160275 -0.9701671 0.8539185 -0.25731957
304 0.5001432 0.30279496 -1.8677697 -1.2840432 1.2805533 0.211192 0.1510188 -2.0953608 1.4322481 -0.7688343 -1.2335658 -0.13101068 0.24613456 -0.8089301 2.0070956 -0.84176826
719 1.9899262 1.2259198 0.35620514 -0.7698888 -0.17396596 0.9085082 0.737894 0.05077526 0.964654 0.07720821 -0.6161504 -0.29413852 -1.0726311 -0.51241016 -0.5923827 0.3667685
1158 0.18965341 0.9691684 -0.33990422 -0.9680971 0.42964244 -0.23061083 -1.1232603 0.41738072 -0.25481272 1.1150997 0.3620107 -0.7490678 -1.3769245 0.056710627 0.33428025 -1.3506113
1060 0.64753246 1.1391138 -0.44278532 0.5167225 0.9465073 -0.12533374 0.41761157 0.20541051 -0.19542743 -0.3641121 -0.05593941 1.5618085 -1.4736489 -0.87356526 0.74481684 -0.1704332
621 0.43380272 0.28217325 -1.7801692 -1.2330879 1.1642487 0.20223624 0.07498823 -1.8794353 1.2633322 -0.6355882 -1.0674921 -0.08003661 0.30452 -0.78533536 1.8447894 -0.75832367
248 -0.5950518 0.56625485 -0.22313121 -0.11894067 1.2441767 -0.6640668 1.0731181 0.9919687 1.8072196 0.34204382 0.32885453 -0.7753495 0.030208271 -1.6920851 -0.6139817 -0.5712441
882 -0.31434765 1.3399311 0.37506652 -0.25639638 0.82868075 -0.9980247 0.8191045 0.39066607 -0.80661017 -0.83645856 -1.9497155 -1.0274866 -0.4750481 0.14498103 0.24730483 -0.050652083
406 1.0642114 -0.25465682 0.68125904 0.33147183 1.7098866 0.13395178 -0.89379275 -0.14892302 0.24813902 0.17032689 -0.25940293 -1.5390242 -0.71275365 -1.0854104 0.7836153 0.67167294
224 0.5044064 0.3458052 -1.8412982 -1.4036416 1.2789866 0.2774904 0.11248413 -2.0985405 1.4700574 -0.69613826 -1.1700128 -0.021860806 0.32843617 -0.87032056 1.9463687 -0.8001186
556 -1.6658882 0.96380264 -0.44885707 -0.6442359 0.79798084 -0.30158696 0.31047517 0.9529333 1.8016343 -0.10339417 -0.045300186 -0.25249982 -0.4540937 -1.6886259 -0.80203795 -0.66569334
282 0.7165294 1.185019 -0.5969241 0.04295074 0.9334948 -0.50701624 0.72401595 0.06841454 -0.24745089 0.030139497 -0.5239608 1.6454383 -1.0481923 -0.86574125 0.28350735 -0.26948842
674 -0.23294373 1.1012703 0.49750766 -0.43262646 0.6287727 -1.0631442 0.79346806 0.501066 -0.78721464 -0.843828 -1.8642617 -1.1421272 -0.44427678 -0.15257053 0.5016178 -0.040808164
1162 0.24162236 0.99869937 -0.60829854 0.37455842 0.879348 0.310939 0.87823516 -0.166974 -0.022901697 0.17712443 -0.6605326 1.2423035 -1.5194684 -0.6193798 0.26657924 0.17526707
772 -0.25823227 1.0745753 0.20955189 -0.46374044 0.7195748 -1.0626409 0.9770467 0.29411522 -1.0580351 -0.49556702 -1.9758828 -1.1267473 -0.4549107 -0.16319393 0.33166257 -0.009793589
475 -0.2554657 1.1699156 0.40446615 -0.33177876 0.78383094 -0.98236924 0.9076687 0.3530867 -0.92191213 -0.57495755 -1.9764955 -1.1094486 -0.4306259 -0.014513171 0.21866506 -0.06902894
1096 0.55425704 0.28704247 -1.8575443 -1.3352431 1.3315467 0.31709343 0.13174616 -2.0936391 1.4238926 -0.7478054 -1.1178895 -0.13910288 0.27966934 -0.8285234 1.9251413 -0.9137919
1091 -0.27368638 1.0084287 0.31386468 -0.29659975 0.52433836 -0.95178074 0.979631 0.26203173 -0.9333488 -0.2591803 -1.9706249 -1.2618663 -0.3547677 -0.3633448 0.5429348 -0.16949272
1082 0.6699737 -0.07364853 -1.964518 0.65117145 0.87724346 0.45294142 -0.75885034 2.3814902 -0.028935486 -0.28695762 -1.4496318 -0.8982958 0.27030915 -0.60906297 0.7703488 -0.50892127
694 -0.29373512 2.2999086 1.1310443 0.66884935 0.45503813 0.1983687 -0.2869335 0.50746614 0.6717947 -0.68347657 -0.7803414 -0.41798475 0.62467855 0.0068406635 0.5831406 -0.5001108
425 0.8539465 1.0361865 -0.5008113 0.059539806 -0.04784327 1.5485004 0.78107053 0.27114975 0.47814775 -0.49122688 -0.2810725 -0.4759412 -2.1481655 -0.71786904 -0.528617 0.63201094
876 0.8579164 0.8438028 -0.86966026 -0.008422545 0.858695 0.82154626 -0.91153 -0.4347601 -1.0419512 -2.0767548 0.1881234 -1.2149862 -0.045521416 -1.3394672 -1.1885288 -1.733551
947 -1.4730794 0.6687696 -0.45257676 -0.5094542 0.82926154 -0.13338351 0.3926581 0.72665846 1.7777151 -0.06448529 -0.014886665 -0.24825107 -0.45440182 -1.8155057 -0.707432 -0.8977107
1149 0.437708 0.23381285 -1.8329412 -1.3374425 1.3304042 0.30735427 0.15696065 -2.0237868 1.4358741 -0.68599087 -1.231795 -0.10073852 0.2645734 -0.76557577 1.8855702 -0.8943376
1086 -0.20940743 1.013574 0.43664166 -0.16666327 0.4747794 -0.85745275 0.8972105 0.31592274 -0.813753 -0.24277319 -1.93819 -1.1409788 -0.30413866 -0.2591979 0.52605647 -0.31188503
429 -0.16083147 1.7542231 -0.19394279 -0.105077 0.03152687 0.49836436 -0.16531788 -0.41319528 -1.0828781 1.4716688 0.32223418 -0.78867114 0.39628756 -1.3244916 0.5904276 -0.30397037
142 -0.35458937 1.1943368 0.2213082 -0.0037918724 0.57545066 -0.6522323 0.94588923 0.09915092 -0.75213206 0.068346925 -1.775554 -1.1432418 -0.25691718 -0.062227994 0.31028742 -0.27657178
1009 -0.04526023 0.494046 0.4965879 -0.6901891 2.2107487 0.55788016 -1.0569758 -0.19270854 -0.18072942 0.16216956 -0.70997614 0.13771743 -0.07720571 -0.46732822 -0.76005524 0.5989365
296 0.51601815 0.27882147 0.26014793 -0.23884383 1.789405 -0.19559157 -0.8965744 0.22799706 0.22000872 -0.605517 0.46735415 -1.1930206 -0.44971147 -0.997348 0.9148529 1.3766577
1123 -0.05264771 1.0397428 -0.47860688 0.87725466 0.85863334 0.8886026 0.5625263 -0.103853896 0.042799108 -0.21995887 -0.19230938 0.8979716 -2.0238328 -0.5286983 0.6073943 0.36873165
583 -0.011615598 1.2411075 -0.65544784 -1.2000418 0.5387871 -0.38358504 -1.4377351 0.40818447 -0.09219154 1.2066009 0.22633287 -0.7008207 -1.7666221 0.24908881 0.2743534 -1.2461745
251 0.85562235 0.7670335 -0.98510456 0.09473411 0.8007407 0.57418877 -0.6989724 -0.4116305 -1.0509603 -1.9124199 0.07475063 -1.0235112 0.016752727 -1.4247476 -1.1670257 -1.6960686
737 1.4160335 1.3169559 -0.23573504 0.101200774 1.1409885 -0.97903967 0.4817327 0.34614843 -0.5293896 -0.33092132 -0.14088164 1.9314317 -0.94297755 -1.1568376 0.73688173 -0.61480606
1145 0.07061169 0.98728555 -0.49099168 0.9032517 0.7988847 0.9146809 0.57399267 -0.047789533 -0.0086924 -0.209136 -0.03662438 0.8075066 -1.961159 -0.575341 0.72809744 0.3504834
871 1.3171595 1.320653 -0.21550936 0.16148113 1.146873 -0.77353084 0.4233948 0.32508463 -0.4274788 -0.5221372 0.07352678 1.8925239 -1.0334196 -1.15663 0.87371516 -0.5041753
1026 1.0846719 0.92869586 -0.0499474 0.58359617 1.1298671 -0.3832447 0.6610222 0.23544873 -0.30775106 0.016434627 -0.10897154 1.7483655 -1.2276574 -1.2743267 0.79163605 -0.5563653
1275 -0.08378451 1.2451099 -0.51192725 -1.2585951 0.44535592 -0.37814286 -1.4348575 0.29378182 0.004601626 1.1083375 0.18200691 -0.71402603 -1.5599056 0.20723738 0.30717716 -1.1972879
930 0.008064726 0.2638233 0.5226775 -0.9779101 2.2388918 0.14967276 -0.9852925 0.09216068 -0.078889795 -0.17252411 -0.24662307 -0.0018979538 -0.29925343 -0.6617771 -0.17768927 0.8537844
1036 0.5248678 -0.10017739 0.9632918 -0.5382256 2.3613825 0.18951078 -1.0188241 0.3154694 0.01732775 0.17711794 -0.32440975 -0.2603912 -0.29321218 -0.91383207 0.13349536 0.5504653
250 -0.6595953 0.4704168 -0.3097715 -0.0143716475 1.2620741 -0.39788958 0.9734077 0.46542233 1.7349051 0.5260547 0.31076282 -0.830196 -0.047024433 -1.937558 -0.83083135 -0.71100855
584 -0.17259812 1.3720268 -0.5079396 -1.276438 0.35227826 -0.4312244 -1.4059997 0.23244303 -0.053635776 0.97701037 0.22348227 -0.7194675 -1.4631377 0.16924627 0.4238367 -1.0761893
155 0.47907862 0.35352796 0.20412946 -0.3402354 1.8720775 -0.25568035 -0.9005674 0.23792422 0.1463865 -0.7190837 0.56270844 -1.2677783 -0.3327182 -0.98520803 0.8650414 1.4349688
1087 0.07666997 0.59655017 0.54675174 -1.1371678 0.46400565 1.101513 0.7358355 1.3580532 -0.62931716 0.1421621 0.7344313 -0.8366389 -0.5495183 -0.31581828 1.0679376 -1.5895517
925 2.0468867 1.5754062 0.060257398 -0.98230803 -0.12853415 0.6789683 0.23555751 0.23150904 1.0886198 0.016266037 -0.7949501 0.24947992 -0.56170183 -0.3015724 -0.56016773 0.43145174
929 0.015386834 0.43409726 0.4616264 -1.10651 2.2159307 0.4111065 -1.0039085 0.099114455 -0.10520355 -0.17965451 -0.26090932 0.17806634 -0.13609909 -0.60340416 -0.25265506 0.949021
255 0.30729902 1.0322406 -0.52443975 0.37248978 0.92465127 0.11485707 0.648663 -0.06085513 -0.055158414 -0.03080421 -0.48015833 1.3380876 -1.4483014 -0.6270618 0.34040284 0.14664966
140 0.5444137 0.54903704 -2.2096605 0.5513561 0.3734741 0.43429735 -0.9444859 2.315006 0.26669577 -0.2290413 -1.7150905 -0.30748567 0.36391893 -0.730076 0.56078726 -0.17826268
736 -0.34653866 1.4363958 0.15854165 -0.19247562 1.1017783 -1.0040405 0.9325136 0.22841318 -0.8566982 -0.6259928 -1.928773 -1.1137707 -0.5142199 0.38715583 0.02688828 -0.011928547
1137 -0.3145967 0.88600934 0.24568367 -0.4825801 0.22250204 -0.87425554 0.89331174 0.39191762 -0.9722702 -0.23303474 -1.9225826 -1.2597808 -0.20561491 -0.66522753 0.6640412 -0.056776542
1006 -0.37891513 1.5685756 0.33593214 -0.05957368 0.9971298 -0.8290377 0.7012691 0.23862326 -0.5865147 -0.56307596 -1.7760795 -1.0179812 -0.38868722 0.47426122 0.18493025 -0.21271193
499 0.81494004 1.0804402 -0.6398612 -0.21501553 -0.15412633 1.3882467 0.7088779 0.29458147 0.34672046 -0.44903606 -0.35986143 -0.41796243 -1.886188 -0.6597294 -0.659086 0.7777659
1138 0.57472414 0.48546103 -2.1182556 0.4514645 0.39366847 0.3310317 -0.9001931 2.278342 0.31325972 -0.19602704 -1.6865374 -0.30663556 0.36666924 -0.7633029 0.6336434 -0.108480945
526 0.9018856 0.82685953 -0.8592859 -0.05875637 0.808709 0.68983495 -0.84676254 -0.41670376 -1.029641 -2.1033385 0.2005946 -1.1957443 0.086835176 -1.3487681 -1.0834 -1.7045249
519 0.85874605 0.5841225 -0.9183818 0.4399134 0.9388969 0.7256288 -0.59306806 -0.37525502 -1.0223805 -1.8879867 0.05852112 -1.036645 -0.09613448 -1.6067842 -1.1720326 -1.576681
1155 0.22592343 0.28465024 0.8708281 -0.26812676 1.9318618 0.9091047 -1.0961356 -0.14132947 -0.091217026 0.50096196 -0.96606493 0.028254716 -0.09951123 -0.52786666 -0.7648241 0.17814656
960 -0.1647956 1.2817374 -0.6985001 0.8463196 0.68736076 1.0657033 0.5373789 -0.15195224 0.14910495 -0.424205 -0.14059637 0.62311065 -1.9481565 -0.27753824 0.42662424 0.5787806
303 0.38395277 0.38330084 -1.8028584 -1.3340812 1.3180408 0.30683833 0.15238449 -2.0638137 1.4365463 -0.7617063 -1.2643633 -0.06495041 0.34908298 -0.7579424 1.9396292 -0.90151
936 0.8632096 0.9119681 -1.116092 -0.13661894 0.7442661 0.4950799 -0.8145025 -0.39010763 -1.0984812 -2.0629354 0.11832553 -1.0102143 0.13472942 -1.4574133 -1.0370103 -1.7194724
629 0.36968175 0.99842596 -0.37342313 -0.717611 0.49376625 -0.17256457 -0.9950836 0.43355882 -0.26507312 1.1762213 0.6526569 -0.71701884 -1.430139 -0.034373473 0.2109612 -1.5412055
775 -0.42129657 0.3541895 -0.27920225 0.019303882 1.2485315 -0.46965206 0.9804643 0.5551209 1.8066502 0.54878527 0.36787692 -0.9245997 -0.10491372 -2.0019565 -0.7653986 -0.85986656
777 -0.099206425 1.3514429 -0.4770722 -1.2916013 0.3721223 -0.45831224 -1.3949913 0.11727349 -0.19510676 1.1111578 0.22009517 -0.704386 -1.3361552 0.0508101 0.32684678 -1.0987349
608 -0.10943143 0.55323607 0.7799984 -1.037819 0.40093467 1.162234 0.6239286 1.287254 -0.6562425 0.23255296 0.37277701 -0.8032329 -0.6215205 -0.3796671 1.1946249 -1.5418847
911 1.4457033 0.8883278 0.2981165 -0.17747691 -0.106821276 1.4218115 0.8809787 0.034902815 0.71145236 -0.18613976 -0.47142613 -0.5197483 -1.5680659 -0.7248913 -0.5732923 0.30016917
1072 -0.46870404 1.6835011 0.15766251 0.042940237 1.2462361 -0.77552557 0.85323244 0.025413403 -0.68953407 -0.29998562 -1.6564515 -1.0966148 -0.41887906 0.6566186 -0.02172731 -0.104574054
711 0.7880994 1.0047709 -0.42581412 0.1696642 0.98112595 -0.58357525 0.7958261 0.11045905 -0.3728842 0.28137833 -0.5934606 1.685707 -0.9883949 -1.1868244 0.3177418 -0.52556
536 0.6196448 0.20327973 -2.0578995 0.71703154 0.77434784 0.43022346 -0.8971749 2.3823907 0.05605479 -0.32680678 -1.3593966 -0.5261925 0.316844 -0.6484474 0.71613944 -0.31568232
996 -0.30957922 0.54797095 0.88729936 -0.933589 0.44291124 1.4733655 0.5145327 1.2144103 -0.5164613 0.16839844 -0.0072482345 -0.6198934 -0.5102305 -0.2965673 1.3392065 -1.5379453
470 0.052743502 0.96268344 -0.44564602 0.8313227 0.911571 0.69201195 0.623947 -0.11114936 0.00041689075 -0.014494914 -0.36529508 1.0820621 -1.8034295 -0.57045645 0.47859108 0.20368576
396 0.80555797 0.76182914 -0.9133481 0.31041464 0.9155986 0.9431836 -0.65771335 -0.38793388 -1.032876 -2.0288107 0.18398339 -1.154358 0.005533701 -1.4591123 -1.1755118 -1.6294237
754 0.13236251 0.4477827 0.5849932 -0.37969807 1.8753113 0.99769604 -1.077214 -0.26843247 -0.16088924 0.44087148 -0.9770487 0.11641966 -0.03917434 -0.5385475 -0.9921506 0.31581792
488 0.7186739 -0.04250569 -2.0021365 0.7515715 0.989639 0.45791113 -0.8554767 2.4222696 -0.015168443 -0.30049026 -1.2972249 -1.0531472 0.28520358 -0.5658731 0.7448405 -0.5406959
151 1.9567013 1.3547256 0.31304348 -0.8374338 -0.1045615 0.8875554 0.7252666 0.11822575 1.2268784 -0.07339303 -0.75984824 0.008663839 -0.970771 -0.3563884 -0.44468862 0.34727755
757 0.07142933 0.30163872 0.66752464 -0.3448611 2.1842334 0.6867769 -1.1068726 -0.21077679 -0.15721002 0.4336786 -0.79319125 -0.055472206 -0.21062745 -0.5764569 -0.7434765 0.39101627
1109 0.43094206 1.0187359 -0.6290165 -0.85023725 0.51786286 -0.26851398 -1.0237421 0.5867771 -0.13470641 1.2725823 0.6993277 -0.72480863 -1.5701207 0.03814434 0.23232947 -1.4799246
1048 0.5479552 0.32326356 -1.8738692 -1.3609759 1.2621733 0.19486105 0.013064223 -2.092916 1.4586087 -0.56195265 -1.1813369 -0.010044981 0.20611885 -0.7492072 1.8231497 -0.78627145
713 0.37158033 0.2923655 -1.8340731 -1.3495371 1.2238137 0.316361 0.2203168 -2.0391703 1.4215002 -0.75109124 -1.1802237 -0.06708203 0.25137842 -0.9081747 1.9867349 -0.8815409
628 -0.27116302 0.5484122 0.8652296 -0.89780134 0.37331566 1.439418 0.5377397 1.1515652 -0.5677953 0.25887984 0.0024551293 -0.6681487 -0.48421177 -0.30207786 1.2650414 -1.4902662
74 -0.7704219 0.6111113 -0.2810919 -0.31329268 1.0168864 -0.62812936 0.8954372 0.86499834 1.8453072 0.30882853 0.28183192 -0.6513941 -0.25832695 -1.7310371 -0.6793652 -0.76700634
37 -0.20470501 2.334258 1.1439058 0.68963724 0.48362 0.4543246 -0.24067755 0.5918417 0.8122786 -0.7073418 -0.73808306 -0.3134133 0.6880677 0.09681789 0.6176673 -0.5587626
746 0.49331895 0.29321283 -1.8780115 -1.3670875 1.2667984 0.22423056 0.20123361 -2.1265125 1.4204661 -0.75967157 -1.1951236 -0.10755487 0.27377865 -0.8722557 1.9423419 -0.865207
1037 0.9065736 1.0483588 -0.21637696 0.61307967 1.130127 -0.21792583 0.5372417 0.21394588 -0.36367482 -0.313433 0.13586633 1.6067479 -1.479651 -1.1601089 0.9661739 -0.26701865
45 0.5144684 -0.07678498 0.9938664 -0.6181324 2.318234 0.22994459 -0.9885067 0.20286691 -0.05050695 0.1960136 -0.44600332 -0.09817173 -0.34500656 -0.8720671 -0.051177338 0.3846973
630 -0.14214128 0.52035445 0.824903 -0.9436854 0.40077102 1.1640433 0.5483493 1.301895 -0.6285326 0.20595045 0.25052947 -0.81239 -0.6690816 -0.28679448 1.1912571 -1.5653163
1099 0.8654239 0.87896395 -0.898529 0.036419626 0.86381173 0.839546 -0.91628706 -0.43092534 -1.0705384 -2.174508 0.2566905 -1.2669234 -0.10593786 -1.3270593 -1.1345046 -1.7008021
473 1.216741 1.1923791 -0.36940408 -0.63883746 -0.28257498 1.010624 0.31629968 0.29475075 0.6876827 -0.3470998 -0.5833668 -0.11533204 -1.260561 -0.40763122 -0.5522562 0.6418461
486 2.0169487 1.3479409 0.23516373 -0.9135286 -0.27110916 0.8115973 0.5049793 0.14166303 0.8776046 0.15522061 -0.5044286 -0.36204287 -0.9860979 -0.4654491 -0.61288345 0.52332085
185 0.90457284 0.62483716 -1.0248607 0.3348177 0.9142213 0.61720276 -0.67727834 -0.40211147 -1.0328778 -1.8788662 0.0028693804 -1.0252523 -0.05876065 -1.505978 -1.1300923 -1.6756524
89 -0.63349336 1.346667 -0.3826063 -0.82861847 -0.47188422 0.049466077 0.18385607 0.31923595 -0.84007674 1.024198 -0.8685121 -0.897093 0.17079034 -1.469444 0.9212588 0.3678518
178 -0.41561157 0.49722657 -0.29189205 0.02540659 1.2520822 -0.51411295 1.1134155 0.6145153 1.8796573 0.5478549 0.3832835 -0.83348536 -0.09640302 -1.9406786 -0.75560284 -0.8501064
706 -1.4603393 0.9299063 -0.3605824 -0.5777046 0.8453696 -0.41606274 0.33881694 1.0173024 1.8235728 -0.064915754 0.021509508 -0.36542416 -0.39669955 -1.5835867 -0.7980066 -0.5932768
531 0.09676085 0.7462649 0.4169992 -1.2347142 2.0603423 1.3415854 -1.0023558 -0.07944491 -0.36036393 0.020428216 -1.0880702 0.6483125 0.46238312 -0.5251943 -0.83823943 0.39869395
623 0.67699075 -0.15862465 1.0528772 -0.39820275 2.417225 0.17172942 -0.93908995 0.22452024 0.064970456 0.20173019 -0.32995942 -0.35679388 -0.35209802 -0.93987095 0.18554415 0.5064317
27 0.5117646 0.8105033 0.051628236 -1.0400447 0.7277578 0.52022105 1.0469117 1.2516277 -0.8412748 0.38175637 1.186067 -0.8513632 -0.107879505 -0.26994717 0.58979326 -1.2075521
798 -0.26710173 0.9153651 0.79314965 -0.769357 -0.010776229 1.3287371 0.21460518 0.36607435 -0.64855796 0.4653086 -0.01718608 -0.834174 -0.163118 -0.6823157 1.1810135 -1.314123
448 1.2030519 -0.27185312 0.7538775 0.606356 1.7541519 0.2102492 -0.88424045 -0.41029084 0.23208897 0.315188 -0.46236867 -1.7341095 -0.7274198 -1.2509856 0.90106195 0.57870805
351 -0.34285477 0.8082558 0.8555107 -0.7787046 0.045321327 1.2662494 0.09702229 0.44196996 -0.5752849 0.4533241 -0.066884786 -0.8356881 -0.4108559 -0.61685807 1.2960887 -1.380165
790 0.34236148 0.86503166 -0.20433918 0.74432826 1.0846215 0.3116933 0.6576718 0.0034646015 -0.16420655 0.21199326 -0.33818898 1.3956519 -1.6379197 -0.80059916 0.56747735 -0.107246704
81 -0.31904224 1.2958566 0.4181152 -0.39366546 0.8418099 -1.1196433 0.7665084 0.41396797 -0.81452376 -0.89613 -2.0152829 -1.0387683 -0.45898658 0.07294976 0.27507004 -0.0054636383
838 -0.0249399 0.45032746 0.293453 -1.4666657 2.2712026 0.8399747 -0.8116076 0.0038744065 -0.2841373 -0.35842425 -0.56305194 0.5694157 0.33638662 -0.87320185 -0.41532436 0.78259766
156 -0.24574901 1.3033442 -0.64125896 0.8382392 0.5764129 1.2943879 0.53845626 -0.12321422 0.2626648 -0.490082 -0.037638698 0.4571193 -2.1341484 -0.3016879 0.44283563 0.48168996
537 0.47490653 0.29124808 -1.8581506 -1.3822833 1.2173743 0.27218014 0.23236811 -2.0202398 1.4594253 -0.8363274 -1.1599338 -0.07933932 0.20099801 -0.7696819 1.9267496 -0.9505555
95 0.5253703 1.1719251 -0.5543494 -0.5643765 0.6425023 -0.2624513 -0.8370525 0.52152 -0.41330278 1.4055835 0.90782106 -0.74447864 -1.1611174 -0.1071315 0.20213379 -1.5492561
117 0.3287476 1.0860308 -0.55802786 -0.2845509 1.5625191 1.160562 1.4920613 0.7490666 0.016067898 0.7063902 0.25321776 -0.66141784 0.7098018 0.84903 0.7282827 -0.47450006
362 0.65316284 0.977762 -0.10435512 0.7535145 1.0656171 0.0032329946 0.5221106 0.25608522 -0.272707 -0.25121143 0.14096802 1.4469091 -1.6109453 -1.0457182 1.0230169 -0.16754884
1097 0.54708636 0.491933 -2.1884449 0.6268312 0.502127 0.2784737 -0.97945756 2.2708051 0.30139303 -0.24121098 -1.7097667 -0.37512103 0.33465043 -0.7359098 0.6352114 -0.1649296
165 0.20997176 0.46609095 0.59505105 -1.2390547 2.0319884 1.0395657 -0.8507187 0.062081844 -0.23420243 -0.22348545 -0.8043603 0.6623359 0.5166015 -0.7623592 -0.35560212 0.39790353
842 0.15895538 0.93259317 -0.39136103 0.882131 0.9927342 0.56615794 0.48458058 -0.02541513 -0.16814823 -0.17144772 -0.009814754 1.0292392 -1.890213 -0.6493562 0.7740025 0.22291127
147 -0.278648 0.46188074 1.0135512 -0.8417067 0.33468583 1.5188125 0.43261456 1.0605435 -0.39273554 0.19547462 -0.18561791 -0.6241065 -0.55172306 -0.313843 1.35828 -1.5271918
209 -0.81260955 0.58283925 -0.31203595 -0.19082457 0.9695593 -0.4803684 0.768991 0.55471903 1.9371433 0.2770481 0.2683029 -0.5629131 -0.2863127 -1.947266 -0.64044785 -0.8961517
436 0.2863731 1.0270671 -0.5373559 0.38616484 0.87158376 0.3609883 0.7727762 -0.09380533 0.00999548 0.19248495 -0.6981572 1.3227979 -1.4774345 -0.67113507 0.21766664 0.22588408
1040 0.26829657 0.85842365 -0.2925822 -1.0252032 0.41632906 -0.08112216 -1.1340375 0.5043808 -0.12418416 1.038392 0.32285106 -0.7953633 -1.6486461 0.16771303 0.37842962 -1.5582322
1098 -0.6907862 1.7018038 -0.51284665 -0.8956665 -0.47765043 0.20988128 -0.12691014 0.07671316 -0.87646943 1.1708914 -0.31551486 -0.67898583 0.04032969 -1.5832864 0.81127656 0.3272645
1227 0.33021837 1.1125087 -0.46202472 -0.1957128 1.563085 1.1726221 1.441807 0.6699048 -0.037985284 0.7443977 0.15626195 -0.7238768 0.6395199 0.82751966 0.8516611 -0.49045977
1044 1.8664558 1.6286998 -0.02933232 -0.9878587 -0.18914166 0.6710714 0.09458404 0.29281142 0.9614279 -0.017993018 -0.7703557 0.30362138 -0.60978585 -0.32951486 -0.5362529 0.51769674
979 0.98915684 0.7606069 -1.1499109 0.033874623 0.903842 0.36825827 -0.64260745 -0.3503877 -1.0073785 -2.0358877 0.06507528 -0.9841635 0.06519983 -1.6821198 -1.2465359 -1.87841
202 0.1659933 0.5675905 0.6366852 -1.1912967 0.44744396 0.89192677 0.70278 1.4488469 -0.5760756 0.16691928 0.6932017 -0.9828753 -0.6451096 -0.26096675 0.96315396 -1.6214987
505 0.3547625 0.7242072 0.21659024 -1.0900679 0.59964406 0.7520869 0.99473864 1.334162 -0.79779416 0.3482932 1.0631567 -0.9191171 -0.30985358 -0.35679898 0.64558667 -1.3533465
759 -0.08453146 1.1175301 0.5229659 -0.24212265 0.16303732 -0.88131267 0.6965604 0.5819875 -0.58335215 -0.6853984 -1.8199463 -1.1213893 -0.21448047 -0.44857836 0.81223315 -0.061995022
707 1.1002172 1.3480785 -0.3227628 0.16785094 1.0415423 -0.49782175 0.30468848 0.44670716 -0.31179237 -0.70493466 0.19852473 1.7386057 -1.3648628 -0.9654796 0.9991508 -0.11944892
1263 0.43056056 -0.16889168 0.6837142 -0.966001 2.4185672 0.2522524 -0.7576499 0.42050278 -0.012305458 -0.29472616 -0.16734752 -0.06932485 -0.109256566 -0.9683365 0.36820537 0.6662399
111 -0.81049037 1.686359 -0.67314607 -1.0904456 -0.4727064 0.20102642 -0.08007396 0.17279758 -0.95372105 1.1367998 -0.47871557 -0.6977303 0.12504183 -1.6635392 0.9768315 0.45344314
354 0.12941274 0.5320324 0.40564564 -1.3199829 2.1238995 1.1103667 -0.8717537 0.04279446 -0.28312376 -0.17907946 -0.85285234 0.6943223 0.49907213 -0.72671694 -0.46125975 0.54539555
121 -0.20087446 2.3933249 1.1697825 0.62842345 0.51368755 0.3111657 -0.29858744 0.61516243 0.7657173 -0.80545807 -0.7043601 -0.3735849 0.6980466 0.035421126 0.63614815 -0.49072823
529 -0.050446186 0.5036307 0.748675 -1.0996027 0.3841112 1.2277482 0.60166734 1.4678941 -0.52808845 0.15727647 0.27702183 -0.8233339 -0.62271774 -0.23835872 1.1875734 -1.5965015
1079 0.07333042 0.3650656 0.43573487 -1.4255382 2.3106058 1.0567752 -0.7760786 0.07403219 -0.31761086 -0.21362484 -0.720087 0.71130747 0.5406682 -0.9763842 -0.3180846 0.5576764
1231 0.41163707 -0.02807368 0.9565808 -0.30837637 2.3070738 0.35513893 -1.071752 -0.018215077 -0.055279113 0.453464 -0.6838511 -0.1872006 -0.39930958 -0.8425496 -0.35294935 0.38218734
283 -0.90266967 1.6500672 -0.3815482 -1.3207134 -0.47145593 0.21200177 -0.16060594 0.2358046 -0.7953469 0.9342951 -0.53343093 -0.8275214 -0.03834099 -1.3753701 1.1260418 0.19220373
845 2.2486544 1.3726984 0.6022347 -0.9640759 -0.17100553 0.6417634 0.8191426 0.054771718 1.0599371 0.10242355 -0.5877893 -0.2761867 -0.7602836 -0.5626896 -0.6215041 0.30174652
341 1.7722317 1.1045655 0.33862004 -0.5271774 -0.14430831 1.1416452 0.8798449 -0.004585954 1.0022326 0.025195625 -0.67998284 -0.2700255 -1.3301351 -0.65117157 -0.6895998 0.22710207
760 1.4644438 1.4163468 -0.15242386 0.21766064 1.2780788 -0.84907144 0.36160937 0.39925206 -0.6016244 -0.5907093 0.29859018 1.9010296 -1.1157681 -1.3201652 1.053756 -0.48202524
673 0.0052501075 1.3043387 -0.6062055 -1.281815 0.47828755 -0.48741904 -1.5257874 0.32783288 0.03504773 1.1451677 0.14583938 -0.815672 -1.750244 0.3300133 0.31947383 -1.1570084
778 -0.032624878 0.5895159 0.7985582 -0.8494731 0.5043738 1.2381997 0.8053891 1.254661 -0.6054561 0.19846863 0.3074579 -0.78920835 -0.35945076 -0.28275612 1.1005987 -1.4682747
921 0.82155913 0.14141046 -2.0292716 0.5431914 0.5833336 0.41315603 -0.8458879 2.3322177 0.04408363 0.116315186 -1.554051 -0.5752923 0.34212884 -0.83535117 0.43389744 -0.47388926
1234 0.17297843 0.30120063 0.4800144 -1.4212275 2.274241 0.8525951 -0.78396255 0.18701863 -0.24165891 -0.25059623 -0.68906546 0.7508009 0.49323773 -0.9665498 -0.28080973 0.44217688
1062 -0.45351186 0.55728996 -0.31187907 0.013527617 1.2802947 -0.5720062 1.1701547 0.7533189 1.8279203 0.48832685 0.29268718 -1.0096784 0.037814565 -1.7067674 -0.83077055 -0.563302
779 -0.19093885 0.5204726 0.19679746 -0.989644 2.2110686 0.7909073 -0.93501323 -0.15614526 -0.2728853 0.010548729 -0.7454878 0.27935103 0.07965472 -0.486318 -0.8532327 0.6840599
743 0.4405625 0.19824311 -1.8262312 -1.2940844 1.337955 0.26249143 0.31797665 -2.019263 1.3234707 -0.7475596 -1.1351807 -0.123814285 0.20863266 -0.84044063 2.0441055 -0.9619057
60 1.3559855 1.3006196 -0.29279405 -0.75697726 -0.14286566 0.9383638 0.41540158 0.22130813 0.90942633 -0.3112449 -0.7824513 0.2679172 -1.1727049 -0.3659983 -0.53401434 0.54666245
1167 0.96156925 0.76456904 -1.2146412 0.031052101 0.8773156 0.29248562 -0.56158644 -0.39350373 -0.98402643 -1.9608026 0.09476979 -0.9931718 0.10890928 -1.641446 -1.1706314 -1.7369963
563 0.7883363 0.40565535 -2.0563467 0.40387323 0.418934 0.34071034 -0.904569 2.2812257 0.21779162 0.14359877 -1.7277114 -0.2677723 0.41645506 -0.7684124 0.34362307 -0.21690655
405 -0.78362215 0.5109118 -0.27836207 -0.22739956 1.0381055 -0.43942183 0.8030975 0.52773935 1.8704166 0.2941604 0.31354526 -0.60740894 -0.3276842 -1.7808418 -0.61898863 -0.9290099
62 0.6478885 -0.21276137 0.98294675 -0.7226123 2.4437063 0.23791966 -0.88716656 0.35479322 0.06665062 0.011920817 -0.3004636 -0.19053122 -0.17354608 -0.92343944 0.23886244 0.4048729
443 -0.7726912 1.457367 -0.22051863 -1.447583 -0.4645886 0.08810269 -0.3036857 0.20954962 -0.6653789 0.7770674 -0.4832024 -0.859522 -0.24388696 -1.1113594 1.1323115 -0.024460733
133 0.57279015 -0.18356214 0.84951484 0.05502631 2.20893 0.23694731 -1.0315303 0.057596277 0.03793524 0.518435 -0.57076764 -0.79032785 -0.5871839 -0.9414701 0.054504585 0.6668012
6 -0.19216695 1.259303 0.69674057 -0.18833442 0.396082 -0.90863544 0.6096 0.47254407 -0.67529535 -0.66896904 -1.949595 -1.0808098 -0.21514137 -0.3335349 0.6470965 -0.17725326
229 -0.01797358 1.0041329 -0.43064794 0.89801186 0.84466475 0.9870449 0.54575163 -0.16644867 0.07851791 -0.18498084 -0.23611566 0.7949559 -1.9712232 -0.44633135 0.5584534 0.4027204
398 0.79401964 1.116673 -0.595143 -0.124355435 1.0510384 -0.61896956 0.8088797 0.1118562 -0.23278233 -0.066374615 -0.4994369 1.6662315 -1.0538132 -0.8558914 0.26095212 -0.3423537
963 0.16386181 0.3376923 0.39586067 -1.4779317 2.2869763 1.0322845 -0.776818 0.086018816 -0.30873498 -0.32802522 -0.6664647 0.6711097 0.5260405 -0.94025713 -0.262474 0.5883609
76 -0.23170346 2.2987084 1.1808273 0.7018299 0.48411122 0.57997334 -0.24818254 0.5772785 0.8109952 -0.5995438 -0.6962026 -0.32355654 0.7432538 0.07395615 0.7622549 -0.6369449
828 -0.036390424 0.3887693 0.20410173 -1.48655 2.2623365 0.72328407 -0.7134706 0.0036293261 -0.26033676 -0.39942735 -0.45442355 0.44550386 0.3750647 -0.96281743 -0.24655408 0.86902386
602 -0.49401382 1.4628065 -0.16621487 0.34821403 1.2256365 -0.1275182 0.9806185 -0.18189499 -0.49432278 0.4808599 -1.3550282 -1.2038529 -0.2003539 0.7427234 0.018182777 -0.45243675
1035 -1.3772 0.6298627 -0.3761325 -0.48128182 0.8062248 -0.25575382 0.43125975 0.6872012 1.8296044 -0.1211731 0.031856406 -0.33889243 -0.564578 -1.8075286 -0.58855087 -0.8954699
332 0.31152126 0.115854554 0.8995823 -0.28033048 2.133144 0.6958962 -1.186201 -0.097413376 -0.08983742 0.5118588 -0.8474058 0.0087243365 -0.22354743 -0.759034 -0.66022587 0.16280492
780 0.045251768 2.388204 0.89505154 0.49186495 0.507542 0.42669016 -0.5465624 0.49718058 0.87290734 -0.80667996 -0.5704287 -0.11678098 0.78157634 0.15114513 0.33428562 -0.24344872
561 1.8491958 1.0782679 0.6241197 -0.33492324 0.0068184813 1.0814731 1.0780544 -0.10387627 1.1631142 -0.04780808 -0.6542822 -0.24348259 -1.2234106 -0.58952254 -0.42626604 0.052176096
131 0.47507447 0.8218776 0.107847884 -1.0237997 0.7237286 0.5596603 0.9687938 1.3410368 -0.8707735 0.37025705 1.2569067 -0.84352595 -0.14350379 -0.3785082 0.6256763 -1.1626612
298 1.4460484 1.354932 -0.15280761 -0.75023496 -0.22097911 0.9320605 0.3046862 0.27474785 0.9194382 -0.3013756 -0.76097935 0.19448894 -1.1862798 -0.33164805 -0.5196474 0.5530911
916 -0.1366166 2.2703924 1.1838318 0.6657901 0.50965714 0.295131 -0.30802065 0.6037891 0.76544124 -0.68168104 -0.74954623 -0.2962227 0.65165895 0.044050403 0.64461786 -0.50793177
1243 -0.394407 0.5720316 -0.1957211 0.040650137 1.2731408 -0.69023544 1.2112523 0.75441635 1.8534875 0.4027687 0.28154337 -0.96780556 -0.02963536 -1.6592426 -0.7340382 -0.60913146
307 -0.9277176 0.5713938 -0.23690769 -0.30911946 1.1487714 -0.6016733 1.0446336 0.8936737 1.5945783 0.26125816 0.14235906 -0.7639477 -0.01567519 -1.6486472 -0.81562155 -0.54012114
795 -0.7848215 1.2786734 -0.2690896 -1.3204944 -0.55396533 0.12820959 0.1380574 0.3962021 -0.70786184 0.748108 -0.91517514 -0.84206885 0.1126315 -1.3119982 1.1362838 0.1333962
9 -1.0046651 0.37879717 -0.36845946 -0.3536695 1.0067692 -0.31633663 0.60085124 0.5712258 1.665904 0.17332138 0.1596644 -0.4597772 -0.430221 -2.0194125 -0.74682385 -1.0155772
1156 0.013115857 0.6397648 0.45608568 -1.4263213 2.2067153 1.1810733 -1.020834 0.002207289 -0.36429247 -0.10765438 -0.89734656 0.651304 0.39402592 -0.64936084 -0.7344381 0.5595249
299 1.9411947 1.5031168 0.13979666 -1.0827591 -0.2588901 0.6375164 0.1463606 0.27013204 0.9338915 0.06741969 -0.707136 0.002651562 -0.52808464 -0.3439509 -0.5529643 0.52046967
319 -0.6425398 1.5426372 -0.06625288 -1.0275766 -0.45419332 0.4722415 -0.13283034 -0.08040126 -0.8030204 0.85708004 -0.30671194 -0.88683444 0.01440414 -1.0973378 1.074666 -0.38612136
969 1.3514725 1.3871479 -0.18072154 0.22763313 1.1064672 -0.6797526 0.28584272 0.42742965 -0.43326488 -0.6879495 0.26485732 1.8613818 -1.2971519 -1.283399 1.1584945 -0.38430762
1180 0.11060923 0.25151464 0.58451384 -0.9026626 2.3021202 0.067561254 -1.0402931 0.1513772 -0.046696708 -0.17656116 -0.23876138 -0.03824741 -0.33612427 -0.70365655 -0.15628804 0.85907894
899 1.5570945 1.3321295 -0.0975069 0.24716479 1.1926256 -0.9701452 0.5240679 0.32749844 -0.597665 -0.19937417 -0.022584474 1.9578487 -0.887178 -1.3991214 0.8308596 -0.7908961
338 0.31356293 1.2767149 -0.9204284 -0.36021867 1.7303941 1.2057008 1.6839216 0.79304284 -0.21356533 0.8625298 0.33479697 -0.7577263 0.7337045 0.83368695 0.70452046 -0.366148
1173 2.3654351 1.5096819 0.48495635 -0.94673955 -0.031723186 0.68042594 0.83628196 -0.0112829385 1.3410168 0.13129951 -0.54808587 -0.16807799 -0.6765015 -0.46425813 -0.56132853 0.20068789
180 0.56131834 0.31141412 -1.8308675 -1.3809208 1.3024855 0.2873839 0.116536066 -2.0940695 1.5866886 -0.5610907 -1.339789 -0.014467634 0.21544984 -0.76203096 1.8593894 -0.94084436
326 -0.4976899 1.0807765 -0.07210444 0.088058814 0.66979474 -0.45739925 1.0342919 -0.10117512 -0.8421036 0.42316896 -1.6280022 -1.1692804 -0.28114644 -0.07176787 0.09077873 -0.2506782
1248 0.0102880625 1.8260244 -0.3137942 -0.030329922 0.1812012 0.33758992 -0.33971626 -0.32702747 -1.0619617 1.6769766 0.5635518 -0.8724944 0.36252746 -1.2266243 0.4334317 -0.39715007
297 0.0073157 0.93215334 -0.34994018 1.001289 0.9767404 1.0118251 0.6413152 -0.1891934 0.11358509 0.064415365 -0.35264808 0.9163823 -1.9942732 -0.5479589 0.5695355 0.27096832
968 -0.5857492 1.4301817 -0.5375612 -0.37973002 -0.2543929 0.16207424 0.284242 0.07970682 -0.9843904 1.2139225 -0.78330207 -0.84059554 0.25324243 -1.3532841 0.56752634 0.46065584
740 2.5116725 1.6135821 0.48615414 -1.1663859 -0.13908054 0.5899976 0.74066186 0.081625335 1.1681849 0.20100655 -0.5963528 -0.22082865 -0.6768307 -0.5595903 -0.58342475 0.31828505
835 -0.46863884 1.5778586 -0.13001636 -0.6540451 -0.34386092 0.4968638 -0.23087695 -0.22604719 -0.8714696 1.0763665 -0.109850354 -0.77662 0.13998145 -1.2093942 0.9104782 -0.2393057
328 -0.006289907 1.6488937 -0.046633106 -0.07409242 0.13714083 0.35682577 -0.3953651 -0.39020735 -0.9771794 1.5033745 0.5252901 -0.9451763 0.2526926 -1.1930419 0.62550694 -0.6908879
642 1.0608523 0.87163895 -0.048962798 0.63444424 1.1160072 -0.35832417 0.63349074 0.21486947 -0.35231933 0.020442482 -0.19153629 1.7040536 -1.2491149 -1.2950339 0.8233856 -0.54744935
821 0.3588872 1.7892693 -0.3276658 -0.15967351 0.33749062 0.038035654 -0.40400255 -0.033736248 -0.99370563 1.6427308 0.9182606 -0.7297346 0.23046972 -0.94457173 0.29253295 -0.6562604
874 0.5135059 -0.08076817 1.0032885 -0.9997032 2.26117 0.45741132 -0.9834471 0.34467164 -0.07208689 0.036060147 -0.41491985 0.10519213 -0.03815232 -0.86602825 0.049933694 0.2564114
394 -0.33826974 2.1961975 0.8160331 0.52675164 0.62010723 0.14295748 0.13161144 0.48677143 0.5260352 -0.5951479 -0.99031806 -0.5243857 0.5242816 0.46261993 0.5034684 -0.6556912
408 0.23804498 1.5157709 -0.54931694 -0.590148 0.44654623 -0.4027609 -1.1871116 0.20648177 -0.5993761 1.6665839 0.69810975 -0.7262864 -0.7776579 -0.36763373 0.18342303 -1.2245289
817 -0.5485412 1.11572 -0.08845813 0.12562422 0.5716507 -0.42994723 0.99931306 -0.09663912 -0.78322375 0.48619276 -1.5239927 -1.1253878 -0.24289101 -0.08802511 0.17420393 -0.25321925
671 1.1646239 0.906815 -0.06201671 0.61031157 1.2169951 -0.38945544 0.6466467 0.1709264 -0.42829806 0.04604958 -0.14271685 1.7608104 -1.2785565 -1.3491457 0.80821085 -0.6133568
567 -1.3975474 0.80058366 -0.40377057 -0.5074978 0.9002302 -0.40410978 0.66040033 1.0179498 1.7912594 0.031174906 0.051624443 -0.39640534 -0.36122903 -1.6244575 -0.7317524 -0.5453239
284 1.2197587 -0.22169083 0.5830169 0.65495676 1.7113769 0.15331188 -0.8972847 -0.36903155 0.29509124 0.14635673 -0.30922055 -1.7933568 -0.8137687 -1.2071626 0.93092203 0.72299397
440 -0.15947345 2.2843535 1.1233737 0.66005 0.5101259 0.49947608 -0.32398698 0.57403743 0.8317333 -0.718487 -0.6926742 -0.3141304 0.74978477 0.059136875 0.5689988 -0.52527267
586 0.36115566 0.07714861 1.0436124 -0.61571217 2.2956371 0.46112126 -1.1478281 0.15631858 -0.15884784 0.39022377 -0.75847584 0.031237999 -0.25021887 -0.75114703 -0.33104032 0.27884087
1151 0.5295643 1.0436194 -0.5166835 -0.65094745 0.58674425 -0.2753317 -0.75289875 0.5335708 -0.46896592 1.2580925 0.800263 -0.7057397 -1.2844878 -0.04931199 0.21412118 -1.6254575
73 1.0065484 1.1553334 -0.67611325 -0.2486445 -0.16330083 1.5076146 0.7118762 0.33539566 0.34737787 -0.43923047 -0.4376137 -0.5627519 -2.023707 -0.7713778 -0.76742095 0.8279172
912 -0.43864506 1.619742 0.16825244 0.031359017 1.3362973 -0.69669664 0.81540245 0.11943042 -0.64199877 -0.30656484 -1.4801507 -1.0507755 -0.42650673 0.82991874 -0.05706075 -0.12403475
714 0.91007173 0.55151635 -0.9735866 0.2501348 0.919875 0.66408557 -0.7086015 -0.40418938 -1.00075 -1.9042006 -0.05587647 -1.0599706 0.028801994 -1.6117729 -1.1357088 -1.7138771
211 0.28651273 1.6222379 -0.35818917 -0.10261849 0.30262175 0.19892599 0.037198417 -0.056267384 -1.0785276 1.4030284 0.9843985 -0.6456024 0.42779 -1.0933579 0.3346361 -0.31609365
618 0.14043579 2.4199111 0.76375973 0.4215604 0.6138747 0.28434852 -0.46539706 0.44214943 0.7854648 -0.9375263 -0.5871282 -0.26666668 0.6801728 0.40011716 0.23493826 -0.14592552
599 -0.29405522 1.7791308 -0.3800102 -0.08755243 -0.0015558025 0.484102 -0.063737124 -0.3083642 -0.99954385 1.5383958 0.1238693 -0.82763296 0.41272858 -1.3159266 0.5333289 0.049061764
983 -0.31134132 0.8771012 0.14191428 -0.7575754 0.13526742 -0.98955977 0.8644736 0.5899133 -0.9695115 -0.31497142 -1.8878249 -1.2445434 -0.28278497 -0.73986155 0.6743938 0.07030841
650 0.81470066 -0.3146071 1.1805801 0.07675695 2.2132144 0.34057462 -0.9407534 0.0490155 0.15644692 0.600897 -0.62047136 -0.7075004 -0.55230707 -1.0524828 0.14848863 0.42571783
1104 0.6507081 0.5834034 -0.006886553 -0.24860144 1.8235571 -0.33210614 -0.8071792 -0.024708085 0.25739518 -0.79975986 0.59947413 -2.0021122 -0.3597703 -1.0034218 1.0839964 1.6465302
788 -0.1406071 1.6113861 0.05620679 -0.02446906 0.008125331 0.7415725 0.044177577 -0.4314447 -1.0164526 1.3636096 0.17896321 -0.8912602 0.42018738 -1.2878915 0.70547235 -0.5505475
971 -0.20095211 0.544574 0.96199816 -0.86790925 0.34089005 1.5930337 0.42357206 1.2239339 -0.23416047 0.06751385 -0.15449865 -0.5146916 -0.46223095 -0.1846387 1.32746 -1.5151005
832 -0.39544368 1.7868288 0.35656384 0.096928254 1.1609637 -0.6984706 0.6948088 0.08397561 -0.39076737 -0.2566224 -1.6079069 -1.0131984 -0.36486748 0.79605466 -0.037133988 -0.23931839
918 0.0432918 0.6901732 0.43520835 -0.9156079 2.0233939 1.0941329 -1.080446 -0.21129669 -0.3534122 0.18380977 -1.0533961 0.48105562 0.2014751 -0.37872759 -1.0519836 0.3115705
230 0.04786948 2.47739 0.8540116 0.526158 0.577197 0.24785703 -0.53852886 0.5291082 0.8686522 -1.0172387 -0.6332875 -0.21195251 0.6753393 0.1837955 0.3786229 -0.22430997
756 0.81138647 -0.26964536 0.7363533 0.27990553 1.9060221 0.2792034 -0.9512188 -0.083162494 0.03848099 0.57141954 -0.56943065 -1.132339 -0.7088286 -1.1785473 0.26549447 0.791559
29 -0.33701757 2.055259 1.1448514 0.7869916 0.25371632 0.3282434 -0.07746093 0.60161483 0.6332259 -0.5552307 -1.015915 -0.44789305 0.46707156 -0.17483069 0.7590241 -0.75229126
245 0.41619334 0.12365619 0.75484633 -1.1182609 2.2071927 0.5859695 -0.85809 0.39851943 -0.08492432 -0.12914982 -0.51354337 0.56071025 0.31718308 -0.906729 -0.024356704 0.30110347
913 0.6278364 0.098733634 -2.0048947 0.8032735 0.9898171 0.46539366 -0.9042047 2.3824124 0.029074665 -0.39121708 -1.387872 -0.76529783 0.19237137 -0.40974343 0.8205799 -0.43432984
186 -0.011291643 1.3532097 -0.96860754 0.49953973 0.3868517 1.0670053 0.43027544 0.14377923 0.13551088 -0.6712509 0.14684094 0.3358683 -1.9317933 -0.3720373 0.21585223 0.8196098
432 0.20374347 1.097919 0.49110058 -0.6629242 1.3344206 1.0551101 -0.96244603 0.04125277 -0.21469815 -0.16598079 -0.9492495 0.3678881 0.56826466 -0.05946735 -0.7837233 0.21250813
734 -0.32826045 0.73727775 0.914003 -0.3405265 0.17696393 1.2981791 0.34052998 0.58984965 -0.31402948 0.27273414 -0.507177 -0.6126862 -0.029389225 -0.30889878 1.1947474 -1.2400001
800 1.4485765 1.2400538 -0.21155268 -0.53261924 -0.39688566 1.1132313 0.3764258 0.22229356 0.45061916 -0.07861799 -0.5300662 -0.3711481 -1.4523362 -0.665918 -0.79286015 0.66565275
286 0.92028224 0.37005845 -2.0254436 0.44331023 0.3896185 0.4373437 -0.80640876 2.4365153 0.2589669 0.09079136 -1.6825058 -0.43445638 0.6287286 -1.0110422 0.4372048 -0.3669448
1256 -1.6613529 0.88588864 -0.49249482 -0.7014134 0.83677846 -0.34621212 0.32476026 0.99103606 1.8146183 -0.2284854 -0.008643872 -0.30279642 -0.5934887 -1.7399061 -0.7547325 -0.76512283
231 -0.13824572 1.0466 -0.28064463 0.9590604 0.6792494 1.4376106 0.6536514 -0.17591378 0.33306688 -0.30774912 -0.1550835 0.3689379 -2.2723172 -0.33387265 0.46807998 0.39733833
856 1.2569405 -0.29646146 0.6519555 0.49698657 1.8487726 0.056369264 -0.8581293 -0.26162514 0.21961759 0.24467616 -0.2867232 -1.7219256 -0.6952229 -1.2410004 0.90351224 0.62954414
933 -0.5962193 1.469247 -0.46859238 -0.5381729 -0.32682118 0.15885465 0.15380414 0.10242542 -0.9644856 1.2722125 -0.5786865 -0.762731 0.1782999 -1.4925919 0.7398272 0.4021997
847 -0.37162384 1.6324629 1.002982 0.6735713 0.1125992 0.47310913 0.13266133 0.4657256 0.25941315 -0.11844542 -1.0584373 -0.53977716 0.44797507 -0.24906503 0.8869646 -0.80286163
502 2.283346 1.570602 0.33495295 -1.0731564 -0.2715645 0.56564015 0.31350863 0.199086 0.9800071 0.19097354 -0.4947602 -0.025266103 -0.46524152 -0.4795672 -0.4431961 0.41415402
1045 0.24982613 0.19516258 0.5434488 -1.3780298 2.3222423 0.76962477 -0.73109734 0.31388012 -0.17413482 -0.2943935 -0.5589598 0.65294325 0.4816369 -1.0234867 -0.043723352 0.4587202
320 0.8232092 0.85590243 -0.89400595 0.034102067 0.9046157 0.96770984 -0.827005 -0.38097417 -1.1298101 -2.165609 0.24748702 -1.2382374 -0.011716474 -1.3503531 -1.1426281 -1.7220662
667 -0.31239232 1.3142678 0.36194086 -0.37016866 -0.11367495 0.855065 0.07989786 -0.2770896 -0.8801884 0.89883107 -0.214762 -0.8463599 0.28319046 -0.9658097 0.9381194 -0.8177547
31 -0.42148674 1.7757684 0.3511912 0.029555287 1.2683945 -0.8025062 0.692841 0.13864243 -0.5184033 -0.5186608 -1.6259047 -1.0206689 -0.29601055 0.77871555 -0.018398913 -0.19173576
951 0.59096235 0.79560727 -0.3864477 0.4777652 1.0550183 -0.11797842 0.8915424 0.083635606 -0.26671255 0.4215643 -0.70441777 1.5852278 -1.1868783 -1.0589569 0.4604957 -0.45107532
585 0.40808004 0.29704013 -1.7242551 -1.3797857 1.2913754 0.30310163 0.19709186 -2.0096767 1.4684383 -0.8874722 -1.1780173 -0.088149846 0.25189403 -0.77545923 1.9905347 -0.93177897
18 1.2809683 -0.30200845 0.7396381 0.72614926 1.8390888 0.22313476 -0.85019183 -0.434106 0.32459602 0.33784935 -0.49276993 -1.8521891 -0.6904337 -1.2737737 0.8845725 0.5355155
361 1.0963602 -0.20325741 0.8721525 0.7439515 1.8296555 0.33653817 -0.8687037 -0.3910711 0.20969735 0.60249144 -0.74924225 -1.6607106 -0.74061275 -1.1935531 0.5156288 0.6672577
235 -0.11016914 1.2226181 -0.75906163 0.7114074 0.6005338 1.16517 0.5259131 -0.15672328 0.25076947 -0.44252682 -0.24637917 0.55565506 -1.9683179 -0.23821752 0.2741324 0.5371651
855 0.5144628 0.27628234 -1.866309 -1.276544 1.3669337 0.28098118 0.13716818 -2.0770817 1.3888584 -0.83548605 -1.2133018 -0.081897594 0.25390458 -0.881541 2.0396974 -0.8714316
812 0.27229545 1.0623006 0.47528118 -0.6359334 1.3003212 1.0252033 -0.8959419 0.0042469925 -0.1641404 -0.108037196 -0.9698199 0.3840114 0.54402363 0.042538896 -0.7910858 0.1924066
518 0.013479978 1.172204 -0.6583852 -1.3340032 0.52757996 -0.42078105 -1.3748403 0.36632404 0.015762351 1.1521147 0.22878835 -0.70632595 -1.8156946 0.28012517 0.26913178 -1.245738
823 0.02950596 0.3909483 0.33181277 -1.4248499 2.3673828 1.1218091 -0.6911955 0.024570374 -0.36844918 -0.30710924 -0.66696095 0.74037486 0.5577476 -0.9384981 -0.4249374 0.56554854
242 -0.6161126 1.3908653 0.09698228 -1.2232451 -0.42861772 0.4453634 -0.34441212 -0.024429146 -0.6957227 0.7348538 -0.33806902 -0.96320224 -0.18742478 -0.95543015 1.2307861 -0.60636014
383 1.3288215 1.0281094 0.21737532 -0.059669506 -0.13037725 1.4884158 0.9161162 0.06169034 0.9005827 -0.28086817 -0.5940963 -0.21706069 -1.7014757 -0.6944371 -0.40158507 0.24003543
455 -0.50825864 1.0210354 0.020611715 0.04717356 0.4269019 -0.34753504 0.9493088 -0.09265588 -0.82946706 0.50518924 -1.5633413 -1.1629734 -0.18031116 -0.3763614 0.2634666 -0.26753095
173 -0.24260405 1.3342845 -0.55750406 -1.5005913 0.37601158 -0.49966034 -1.4385642 0.15924497 -0.061301406 1.042086 0.07340944 -0.7750982 -1.5084914 0.14992973 0.43683127 -1.0298454
914 -0.27809295 1.0764688 0.279822 -0.5939262 0.666564 -1.146431 1.0120689 0.48881444 -1.0466238 -0.9028945 -2.0163147 -1.1333003 -0.4999916 -0.2839899 0.5079636 0.11208689
329 -0.34775227 0.64357126 0.92874104 -0.60748976 0.3942707 1.566291 0.40561384 0.9273711 -0.37033385 0.23203489 -0.40007338 -0.5230956 -0.31312937 -0.18321604 1.3682998 -1.4415847
424 0.066667214 0.9240282 -0.31047034 0.9769213 1.0060134 1.0307056 0.7103855 -0.1429135 0.062460724 0.02065794 -0.3456326 0.95895845 -1.8780348 -0.51998645 0.5733681 0.2287422
922 0.6632724 -0.11466578 0.61000484 0.29526317 1.866162 0.1783885 -0.9640507 -0.14572176 0.0448391 0.389763 -0.41561595 -1.1778418 -0.7149863 -1.119209 0.34959942 0.9251152
924 -0.27658206 1.616105 0.33706945 -0.20689128 1.148478 -1.1492778 0.76228315 0.34066293 -0.7152949 -0.7504442 -1.740023 -0.99886554 -0.38481256 0.44548655 0.13630024 -0.010961616
604 -1.390333 0.6128155 -0.36675742 -0.44645095 0.969572 -0.28106388 0.4346935 0.63017505 1.7552028 0.018177953 0.09725502 -0.31732306 -0.49531153 -1.8906201 -0.72175986 -1.0034809
259 -0.20637868 0.55292153 0.9578857 -0.9219545 0.2421122 1.4341818 0.17969707 1.0675445 -0.56927866 0.36246157 -0.046245605 -0.79629904 -0.67191213 -0.48837706 1.3736719 -1.6265866
655 -0.24921004 0.58400726 0.9305822 -0.940368 0.11714291 1.3831398 0.05601775 0.9294207 -0.5184141 0.26706067 -0.063454926 -0.75117546 -0.6287088 -0.45646334 1.4383616 -1.558301
786 0.26340476 0.10418212 0.68607354 -0.990039 2.4402423 0.076149836 -0.9450462 0.31888497 -0.07032944 -0.22465461 -0.19405879 0.028430693 -0.18970956 -0.91746575 0.07125327 0.7518557
1185 1.1783454 0.8801538 0.027509553 -0.13020727 -0.17670402 1.3838265 0.8552268 0.13092767 0.5667518 -0.3162094 -0.4847854 -0.51487565 -1.8802857 -0.7124416 -0.5635218 0.27786505
781 0.15542677 0.59441555 0.5263405 -1.2072926 2.064119 1.1501316 -0.9727085 0.028882764 -0.23894031 -0.04617424 -0.89328974 0.8006078 0.5100957 -0.7421021 -0.524245 0.37761834
547 0.6060079 0.2504121 -1.9602983 -1.2980462 1.4037199 0.22631977 -0.011660333 -2.171687 1.4970616 -0.49162307 -1.2582827 -0.15497223 0.19958192 -0.82752234 1.8622068 -0.8807422
1095 1.0785565 -0.061978657 0.30264717 0.50973034 1.5653212 0.056323513 -0.87194425 -0.34787408 0.284921 -0.05253581 -0.0707266 -1.9754035 -0.7511939 -1.1862357 0.9223371 0.92667764
1182 -0.03027323 0.9501781 -0.3397755 0.97547394 0.9814404 0.86716366 0.792994 -0.19530585 -0.037482426 0.123410456 -0.3924192 1.0470401 -1.9364476 -0.6155625 0.5742041 0.17665038
520 -0.21025157 1.2723193 0.21789664 -0.3931556 1.062128 -1.2086987 0.9557252 0.38089985 -0.8877454 -0.6208639 -1.8819929 -1.0391973 -0.48150873 0.2602637 0.018114222 0.0023881136
1264 0.38705832 1.1989369 -0.67304385 -0.0010498267 0.70116335 0.34493992 0.76144385 0.024877178 0.12260369 0.030643715 -0.8075823 1.3148115 -1.2477384 -0.45178866 -0.1159154 0.21207324
1114 1.7293798 1.5374115 -0.12018407 -0.825279 -0.037286855 0.7018795 0.23781966 0.27900282 1.0261655 -0.06579004 -0.79149 0.5010233 -0.46551424 -0.26115504 -0.4640049 0.37321755
633 0.99986833 1.0209842 -0.281646 0.3079336 1.0783045 -0.69715095 0.76696676 0.17501646 -0.46268412 0.23569873 -0.5768978 1.7640356 -0.97155946 -1.2713851 0.48423126 -0.74264365
865 -0.27280518 1.1617019 -0.27531332 -1.4446487 0.20987782 -0.27191666 -1.3052243 0.31909725 -0.16096574 0.6923218 0.0773975 -0.82776767 -1.4705232 0.15112022 0.5913148 -1.0993034
1203 1.8473501 1.5209948 0.09280972 -1.0577066 -0.39094386 0.7691782 0.21096471 0.25780538 0.8081186 0.046522643 -0.5120309 -0.109121665 -0.5888421 -0.44644913 -0.5672084 0.62883097
1019 -0.24803075 0.90249974 0.37120265 -0.6927964 0.3187983 -1.0233865 0.96271336 0.6654862 -1.022677 -0.7192615 -2.0756364 -1.274282 -0.3351729 -0.65132344 0.6709963 0.096955605
907 2.425 1.6577942 0.29578105 -1.1531973 -0.06058821 0.6263239 0.3923027 0.17769201 1.1688355 0.1898379 -0.6834536 0.0528282 -0.3990393 -0.2834424 -0.5769157 0.36224023
957 1.5183108 1.1996864 -0.26104027 -0.5872644 -0.4025617 1.0985748 0.45253682 0.2651961 0.48239133 -0.12096498 -0.59355944 -0.33951387 -1.449769 -0.6906332 -0.77545315 0.66087174
538 -0.6170806 1.5838251 -0.5343181 -0.47122633 -0.29219386 0.24900667 -0.01651867 0.01751982 -0.9286228 1.4001269 -0.4136094 -0.61356014 0.2009787 -1.5740778 0.62371993 0.40579626
710 0.41562405 -0.15352592 0.54568344 -1.0486878 2.3453195 0.21000887 -0.6595019 0.36845902 -0.0104828095 -0.44224647 0.03607633 -0.063503236 -0.0009846245 -1.0744528 0.48054722 0.73486394
559 -0.41842502 1.6971216 -0.5220439 -0.110195294 -0.15305056 0.332694 -0.0046733627 -0.21876574 -1.0317078 1.4031584 -0.15462694 -0.6634925 0.36516538 -1.2806466 0.51285917 0.21647039
624 1.0175593 -0.18675731 0.8353122 0.62934625 1.736422 0.31935954 -0.94291836 -0.3996126 0.09443415 0.5148465 -0.8032372 -1.5160879 -0.76640993 -1.1440004 0.46383783 0.64674044
439 0.5330194 0.358924 -1.98958 -1.3762853 1.2880558 0.24197273 -0.087226845 -2.0866096 1.5217949 -0.58347195 -1.2247164 -0.102046855 0.22548214 -0.78381115 1.8591114 -0.82666886
959 -0.4778173 1.1148015 -0.157583 -0.46882468 -0.20332019 -0.34765556 0.7664717 0.22979555 -0.84435135 0.57217526 -1.3889111 -1.2398626 0.14065152 -0.9871304 0.85577327 0.05930299
975 0.8877764 0.29939976 0.083565205 -0.17922632 1.7925647 -0.42252284 -0.8086885 0.12144983 0.2918151 -0.84112674 0.6355575 -1.5372055 -0.39380273 -1.1518109 1.083228 1.4783089
1245 0.62254024 0.55466944 -2.1959374 0.4063862 0.34832194 0.35751647 -0.9766622 2.2290912 0.32032692 -0.016835732 -1.8935616 -0.24237432 0.3983694 -0.9991484 0.33510607 -0.11128045
1242 -0.2553468 0.9346677 0.45306534 -0.32685122 -0.05898434 -0.6021806 0.74500626 0.44457948 -0.76604563 -0.08684829 -1.7555496 -1.2384733 -0.120788686 -0.753891 0.93511647 -0.2939268
1266 -0.25887144 1.6383952 -0.0400357 -0.22409917 -0.18473688 0.56925535 -0.20731956 -0.44508782 -0.9714405 1.3106194 0.03223127 -0.8132498 0.29490796 -1.3031595 0.77561843 -0.4920472
815 -0.20754132 1.0151503 0.5735195 -0.22651544 0.1627281 -0.8266792 0.6333027 0.56478506 -0.68822956 -0.65166056 -1.7689891 -1.0675836 -0.17166375 -0.5733029 0.81050694 -0.143944
553 -0.3997122 1.7343546 0.23336829 0.036775194 1.3220674 -0.7134182 0.7076125 0.20697743 -0.57609516 -0.39139664 -1.5288199 -1.0105563 -0.32066047 0.86004406 -0.049245697 -0.13099255
4 0.59988636 0.9349619 -0.042931616 -0.9562901 0.72775215 0.48508972 1.0106202 1.1925496 -0.9053576 0.35368302 1.2811296 -0.84566647 -0.012278213 -0.30668196 0.56931156 -1.0876728
766 0.16120453 1.5303588 -0.828825 -0.71969104 0.57941705 -0.56522065 -1.3428913 0.1970077 -0.298162 1.7107372 0.5117201 -0.69950914 -1.205623 -0.07050452 0.024047287 -1.254278
78 0.57251275 0.72271204 -0.11723546 -0.98819906 0.6776193 0.1860886 0.24160258 0.9553656 -0.66745836 0.714464 1.1330965 -0.9591925 -0.69933397 -0.14374116 0.42863333 -1.5556331
941 0.07825982 0.91803247 -0.03549794 -0.75463444 2.3320198 -0.38487566 -1.0126538 0.16749547 0.08150575 -0.87877136 0.7104022 -1.1418595 -0.21981548 -0.9044889 0.5312081 1.8494879
1038 1.008933 0.952711 0.14130056 -0.023899214 -0.033698108 1.432145 0.8155656 0.07813454 0.8226647 -0.33253124 -0.5628884 -0.08556164 -1.6833652 -0.60074955 -0.39135316 0.21551788
137 0.59036523 -0.14469187 1.200386 -0.35798228 2.2540398 0.47220632 -1.0912749 0.1361042 -0.05324952 0.60273415 -0.7330252 -0.18917003 -0.34107697 -1.003707 -0.31084797 0.16352525
809 -0.024742626 1.3402629 -0.61229205 0.18649565 1.5403217 0.9381293 1.505873 0.2831463 0.06317909 0.77723867 -0.42259058 -0.9942274 0.611147 0.9214119 0.5552806 -0.5683168
935 0.15453883 2.4247289 0.7656492 0.38241455 0.673178 0.15635201 -0.48793876 0.40751335 0.73587656 -0.9675483 -0.6801858 -0.24416736 0.685632 0.29829988 0.18672791 -0.08957765
12 0.060680393 1.098655 -0.47830072 -1.3009241 0.3924392 -0.34837866 -1.3727564 0.37681592 0.05176539 1.006962 0.15213521 -0.712419 -1.6988537 0.23024324 0.35525608 -1.283902
1189 1.6798936 1.0011957 0.5969625 -0.27789506 -0.056988504 1.1994114 0.9735209 -0.06858573 0.98853314 -0.08903815 -0.63770574 -0.32185772 -1.3481804 -0.63488823 -0.46415928 0.05852363
241 0.24565804 1.0140808 0.3937078 -0.43383035 1.1879294 0.9716259 -0.95846355 0.013685884 -0.1555211 -0.031525552 -0.92455834 0.35704127 0.52706236 0.024449788 -0.7644584 0.13063164
1253 1.1812142 1.3122385 -0.41283393 -0.6372149 -0.2660306 0.8438928 0.25529036 0.28754225 0.697721 -0.30524585 -0.47984695 0.035440367 -0.9714153 -0.4449731 -0.46398687 0.7948216
1274 -0.06272035 1.2498462 -0.6476112 0.8041405 0.4469543 1.4226761 0.5294371 -0.107820444 0.32310387 -0.6222563 0.11171215 0.19173722 -2.0573123 -0.3086948 0.47039798 0.5851844
985 0.79845506 0.778446 -0.98469454 0.47982085 0.9239365 0.9541708 -0.61541116 -0.42881787 -1.1522776 -1.9638367 0.15772839 -1.1015596 -0.12550859 -1.3835843 -1.2350767 -1.6905745
824 2.4043865 1.5142249 0.50718236 -1.0436623 -0.17980385 0.558702 0.7504442 0.06149714 1.0888349 0.16123086 -0.5513901 -0.16790262 -0.5758546 -0.61635506 -0.5676051 0.3878663
38 -0.32252815 1.1702243 -0.17936924 -1.4341214 0.15757212 -0.25547913 -1.3163376 0.26965737 -0.17605396 0.6822225 0.032824818 -0.8029351 -1.4308047 0.09581876 0.6751675 -1.1045445
1247 0.049153976 0.56456685 0.44384855 -0.7167107 2.1384573 0.7583875 -1.1465774 -0.20105737 -0.28513646 0.1943087 -0.9326149 0.2154249 -0.022732794 -0.44666502 -1.019355 0.46347094
244 0.559637 -0.16339107 1.2150927 -0.22444956 2.2186818 0.46984828 -1.0407854 0.07877845 -0.03893469 0.5573289 -0.7171286 -0.30522767 -0.4376855 -1.0294383 -0.27344918 0.2200021
479 1.3121738 1.6221212 -0.04877593 -0.55364394 -0.038468603 0.5010153 -0.32011047 0.34430575 0.7099723 -0.23157357 -0.6255011 0.24636225 0.0043200045 -0.019480562 -0.31383812 0.62805736
662 -0.15734434 0.6409878 0.78358525 -0.63724655 0.32135782 1.4528309 0.45795387 0.53362983 -0.73354137 0.58443546 0.0030994217 -0.7778716 -0.16078667 -0.60576135 1.1067196 -1.3875109
384 0.25125343 1.5040904 -0.11386801 -0.07881036 0.30997097 0.4621785 0.23635784 -0.09799109 -1.1323577 1.2630582 0.81132716 -0.8195501 0.5740454 -1.0685915 0.44890025 -0.4899622
195 0.2924634 1.0612135 0.491297 -0.6111214 1.3553473 1.0175707 -0.8951246 -0.05827582 -0.18094091 -0.120469324 -1.0289149 0.40725905 0.52957356 0.014284899 -0.80830365 0.1465573
548 0.67566043 1.0221372 -0.34915826 0.17537838 0.0011375928 1.589103 0.8074746 0.1541882 0.4117651 -0.54775715 -0.17228982 -0.46161225 -2.1872168 -0.6444787 -0.37122324 0.5142406
626 -1.2914437 0.76975244 -0.29712266 -0.5425007 0.8120134 -0.41656408 0.4500361 0.9804551 1.8450948 -0.12629418 0.14860171 -0.35153314 -0.3416525 -1.6486311 -0.5501187 -0.73922247
867 1.0904104 1.4278371 -0.40122488 -0.5351101 -0.0076543964 0.7998182 0.26712465 0.2265837 0.60370606 -0.2705026 -0.72278726 0.5337206 -0.77855146 -0.26260462 -0.50809675 0.6369957
1004 1.237825 -0.18844177 0.6434602 0.77877724 1.7282697 0.21304487 -0.84565556 -0.52078444 0.27094412 0.2678026 -0.5033572 -1.8890697 -0.8429074 -1.2480066 0.8688336 0.6886588
937 1.6677835 1.5862154 -0.174099 -0.93810344 -0.07271011 0.7053067 0.14150141 0.28490552 0.8929912 -0.10314204 -0.78689003 0.5120218 -0.55746394 -0.31591526 -0.5260539 0.49835867
948 0.34421775 1.1408494 -0.49618748 -0.23348913 1.6290061 1.159871 1.5352105 0.725718 -0.05249888 0.7498289 0.20844634 -0.71958745 0.75681394 0.8248542 0.82857645 -0.4943924
1018 1.2643596 -0.3893654 0.84462285 0.66930956 1.8299614 0.25089216 -0.8914596 -0.34621888 0.21583673 0.4790536 -0.6340358 -1.7006474 -0.7575229 -1.3502107 0.8206611 0.5211569
949 -1.7272 0.8347999 -0.46291298 -0.6923263 0.8771602 -0.21890342 0.26182917 0.86950105 1.7895296 -0.22508524 0.0015185972 -0.26229513 -0.5266985 -1.8738892 -0.70422 -0.797277
374 0.37974566 0.8062515 -0.1535631 -0.8489869 0.46335155 0.012364364 -0.62975323 0.5881716 -0.43138912 1.0533742 0.6142093 -0.77482253 -1.1759772 -0.07123884 0.46120614 -1.731252
141 0.44266924 0.3858061 -2.0649717 -1.4250947 1.3752227 0.27233705 0.0015918302 -2.1947875 1.4726436 -0.553026 -1.2661741 -0.07646748 0.27944374 -0.8096246 1.9096489 -0.8443189
82 -0.5379169 1.2363081 -0.2038925 -0.38978717 -0.2642911 -0.14124727 0.6256686 0.11678908 -0.8191209 0.7005664 -1.2244569 -1.0517505 0.20712043 -1.0441858 0.7114047 0.11612352
1172 0.6111545 0.60272247 -2.168233 0.36682326 0.43262184 0.38083574 -0.91790426 2.4014962 0.40283757 0.0549576 -1.9987383 -0.045509037 0.40330812 -0.9562467 0.36056912 -0.19665544
164 -0.12136895 1.5622106 -0.004346187 -0.089811064 -0.030385429 0.6717068 0.00936055 -0.39021596 -0.98531675 1.2651157 0.23110461 -0.84598047 0.42625156 -1.2585775 0.73816144 -0.55565065
1181 0.055559877 2.4538865 0.79940945 0.3534157 0.6306852 0.10835126 -0.48606214 0.40794072 0.7338679 -1.0473446 -0.6430715 -0.23271507 0.6774024 0.30631977 0.28045905 -0.15157312
288 -0.12373576 1.2655749 -0.44971073 0.16040103 1.3800687 1.029527 1.3666586 0.18503803 0.038988885 0.88815594 -0.4094506 -0.98480535 0.6108401 0.7755419 0.52270496 -0.6626576
207 -0.25132573 2.486386 0.79464453 0.37093693 0.90911114 -0.2578587 -0.33525524 0.45099837 0.4485592 -1.0186249 -0.8465778 -0.44750553 0.39432234 0.57698387 0.22828265 -0.19237298
765 1.143817 -0.21732259 0.51424605 0.5846601 1.6979793 0.13527475 -0.89321446 -0.4047977 0.24664068 0.08496361 -0.21971507 -1.7858392 -0.7462345 -1.2525519 0.9119133 0.7299654
1220 -1.3766426 0.94211704 -0.3634926 -0.4926658 0.7887981 -0.4735146 0.54447 1.0190399 1.894485 -0.0065461327 0.095178075 -0.35453856 -0.3036051 -1.63316 -0.5831545 -0.55234903
373 0.43316954 0.29970184 -1.9407989 -1.2679052 1.313421 0.26270542 0.20047225 -2.1111696 1.3348833 -0.83432674 -1.1724478 -0.17346826 0.29462314 -0.83917534 1.9809763 -0.89927506
1171 1.4542799 1.495919 -0.06875765 0.20479903 1.2506 -0.7840648 0.3223832 0.41718715 -0.5333863 -0.66788715 0.2349741 1.9690781 -1.3015565 -1.2935172 1.1364361 -0.5370075
419 0.036745533 0.3081992 0.47174904 -0.69582796 2.1477592 -0.055899344 -0.96703607 0.049125466 -0.12484055 -0.23835266 -0.12018462 -0.44254133 -0.4794385 -0.7468527 -0.045646913 1.1167475
228 -0.33599666 1.8052583 1.1623098 0.6472256 0.11893398 0.5132423 -0.030303434 0.7049492 0.4867362 -0.32654774 -0.79717094 -0.36590004 0.5072494 -0.26430222 0.92691445 -0.8366852
1136 0.4391588 -0.0053103855 0.86416507 -1.0061347 2.206692 0.5706802 -0.8936093 0.38789022 -0.07037395 -0.109061085 -0.406212 0.33506036 0.16897912 -0.8353527 0.024098506 0.2580435
1115 0.48670843 0.29047444 -1.7580827 -1.2159653 1.3898574 0.2436416 0.2234594 -2.0153446 1.404814 -0.92334646 -1.2250344 -0.06505703 0.24091883 -0.7917436 2.0048456 -0.960474
645 0.773597 0.5631328 -2.149602 0.3242457 0.31540084 0.3709457 -1.0059415 2.2518184 0.4106413 0.087260514 -1.9327343 -0.16874488 0.4870206 -0.9820655 0.3245938 -0.07792007
654 -1.6288447 0.8301147 -0.5041859 -0.72137254 0.81126994 -0.23808672 0.29112673 0.77345777 1.8904219 -0.31084466 -0.004119767 -0.12687133 -0.66138834 -1.7718781 -0.6049121 -0.81140655
892 -0.28378594 1.268401 0.54586273 -0.43948507 -0.08033867 1.0122802 0.09559274 -0.14981326 -0.8342344 0.8281253 -0.15509048 -0.8415336 0.18311727 -0.8784754 1.0599419 -1.0782092
592 -0.6667899 1.2276295 -0.014210174 -1.2107784 -0.58204 0.073685355 0.036364153 0.23102584 -0.6264041 0.63677907 -0.87772113 -1.0498724 -0.05023632 -1.1185201 1.1750088 -0.2219257
1 -0.59038687 1.4236553 0.17061779 -1.3152932 -0.45833823 0.36174482 -0.40897828 0.023182314 -0.6080534 0.6679601 -0.24449544 -1.0150753 -0.34953752 -0.8267773 1.1245947 -0.67230326
452 0.691122 -0.19008197 0.7657494 0.17776702 2.1632745 0.2710311 -0.9625377 -0.08513834 0.020161798 0.48511463 -0.45932165 -1.0008397 -0.722957 -1.0642741 0.20061772 0.8187861
854 2.1040845 1.3306893 0.25902164 -0.8631664 -0.32488707 0.81944215 0.5349994 0.09389754 0.69879115 0.10494274 -0.49854022 -0.4713037 -1.0370471 -0.5593284 -0.67386615 0.5021714
345 -0.26461947 1.342776 0.7886159 0.29187238 0.3508331 -0.5565032 0.48517126 0.42443615 -0.25312346 -0.32891864 -1.6492827 -0.947966 -0.0428289 -0.11756391 0.6412691 -0.6405601
1179 0.11105038 0.40012613 0.6729665 -0.61268485 2.2253435 0.67472476 -1.2267859 -0.100948006 -0.20909688 0.38202158 -0.8595241 0.10262602 -0.069785655 -0.44546646 -0.83917445 0.27649465
35 -0.29160723 0.48508447 0.9396211 -0.8824427 0.36180982 1.4990208 0.35903877 1.0753506 -0.49287057 0.26138172 -0.11219416 -0.7116089 -0.5342799 -0.39758906 1.3955765 -1.5043311
523 1.0329461 1.381252 -0.5635486 -0.40765783 0.13346682 0.62926567 0.31112322 0.23270734 0.49149784 -0.29202777 -0.742745 0.72757465 -0.683823 -0.33356267 -0.47850004 0.68988883
889 -0.44768864 1.1685795 0.6072532 -0.7705028 -0.21308471 1.009048 -0.13551423 0.0061032204 -0.711398 0.5516631 -0.14977835 -0.88738626 -0.06321127 -0.8820874 1.2946055 -0.96344465
136 0.5009313 0.96440303 -0.5369747 0.08312585 0.92299926 -0.01707442 0.9531108 -0.07652538 -0.15333506 0.41260856 -0.83313894 1.5229485 -1.2129422 -0.8520073 0.13619116 -0.22903968
1102 0.4537723 0.9578861 -0.19268936 0.89686805 1.011818 0.32449767 0.48894483 0.18520385 -0.23836996 -0.2849766 0.13415371 1.2744302 -1.8890148 -0.9250206 0.99128866 0.01061733
344 0.68656665 0.64890236 -2.2482338 0.36709753 0.28914827 0.47196814 -0.9519041 2.2772894 0.26246324 0.09398211 -1.8717388 -0.015916927 0.42029077 -1.0622112 0.35863447 -0.17260966
193 2.4342496 1.553425 0.3933427 -1.175628 -0.078443274 0.5382702 0.6877583 0.08547639 1.2826593 0.061467826 -0.5412889 -0.07476312 -0.6028986 -0.4343835 -0.5470516 0.29123557
1050 -0.22641885 0.5771846 0.9299031 -0.7109409 0.34832096 1.4078131 0.3922025 0.70930535 -0.62014097 0.38584518 -0.01713324 -0.73590547 -0.32701698 -0.48418942 1.2263741 -1.3949891
1255 -0.4692472 1.5642521 -0.07618435 0.3677758 1.0842508 -0.07042221 0.92322814 -0.18495536 -0.43009913 0.405038 -1.2806628 -1.1196743 -0.082819514 0.7076818 0.08837489 -0.4657237
481 0.87291986 -0.21207798 0.7909357 0.36857158 1.9369758 0.25011313 -0.9581622 -0.20084171 0.054273043 0.5514153 -0.560816 -1.1629137 -0.7468855 -1.1943572 0.27084222 0.78373706
589 0.10699739 2.423798 0.7163911 0.37814233 0.66450983 0.15952434 -0.45499086 0.3892382 0.7579043 -0.89213693 -0.6540766 -0.24327245 0.73264843 0.3469296 0.16504525 -0.10924751
648 0.15769158 0.2837109 0.33147174 -0.49981079 2.0813491 -0.24943042 -1.0197543 0.07633194 0.20818564 -0.37296858 0.120409116 -0.78291595 -0.5909123 -0.8265779 0.44011527 1.2693251
1200 0.3952592 1.475459 -0.6789468 -0.39692834 0.5827093 -0.33623603 -0.9955713 0.22993286 -0.6049863 1.7239211 0.916089 -0.75177455 -0.8054001 -0.35879344 0.14188193 -1.3182613
410 0.9300056 0.66158116 -0.8332498 0.25370175 0.8550323 0.91540855 -0.63098025 -0.37084135 -0.9543588 -1.9554952 0.20089337 -1.245484 -0.04997756 -1.4166417 -1.1474106 -1.7767907
717 1.0534463 1.4186611 -0.5020565 -0.44986492 0.088554256 0.68978167 0.24574982 0.26072502 0.5841042 -0.36788586 -0.64342016 0.6526801 -0.7399696 -0.31983083 -0.4628462 0.7327468
1146 1.702812 1.4621699 -0.080858216 -0.89125615 -0.08912707 0.7720726 0.3333536 0.2920221 1.013704 -0.017433343 -0.7964961 0.55246335 -0.64235646 -0.333324 -0.43906844 0.39062873
442 0.7233337 0.57400316 -2.2071116 0.39976525 0.27934912 0.46358305 -0.9618287 2.3782363 0.30648193 0.10318928 -1.9210235 -0.10271694 0.44202718 -1.0142763 0.47236988 -0.25179034
331 0.15876976 2.4461792 0.74808 0.4106653 0.7083878 0.22536461 -0.45092973 0.374687 0.77397287 -0.94261557 -0.6556748 -0.21035883 0.672552 0.3687105 0.14175583 -0.109960064
846 0.40030274 0.024389679 0.3530346 -0.8083748 2.1762369 -0.11366373 -0.75903785 0.25585747 -0.10287209 -0.46925822 0.25050202 -0.5233151 -0.30715585 -0.9748767 0.46699864 1.0933014
449 -0.3559945 2.1844254 0.83076286 0.5420406 0.6298434 0.22633904 0.16229674 0.50280446 0.51736367 -0.5926295 -0.981866 -0.4467231 0.53566664 0.46652249 0.5016448 -0.6132204
1186 -0.9880354 0.638679 -0.25842148 -0.38201904 0.9662487 -0.44343027 0.6518428 1.0457534 1.9378533 0.08827589 0.22224784 -0.41557685 -0.29322273 -1.7216469 -0.48979583 -0.726021
219 2.335664 1.6429085 0.22760262 -1.123022 -0.062115345 0.6351115 0.5274697 0.15487957 1.3281277 0.21583511 -0.6365949 0.07116978 -0.4920766 -0.3642029 -0.55509424 0.37412286
1175 -0.41275555 2.1083841 0.49436316 0.07794155 1.1168191 -0.6392639 0.30486113 0.3503106 -0.07720013 -0.7919308 -1.2547472 -0.8440849 -0.1625902 0.8434854 0.058319528 -0.15434699
47 0.98672605 0.7762696 -1.1515152 0.019389745 0.82317317 0.30028772 -0.5753446 -0.44544122 -1.0745503 -1.9008515 0.053153086 -0.93848073 0.08264577 -1.6665058 -1.2032515 -1.8235489
330 -0.20037787 1.1311823 0.651341 -0.29574478 0.22721374 -0.86784697 0.5827117 0.6720356 -0.61824733 -0.8408229 -1.8571571 -1.058748 -0.18115401 -0.50077045 0.82407355 -0.15488958
1199 -0.34045255 1.2030064 0.5282736 -0.2395324 -0.06503202 1.0574079 0.38960224 -0.06674125 -0.82288915 0.76714563 -0.33534116 -0.9259805 0.21059689 -0.8132476 1.0760406 -1.0213579
132 0.6247567 1.1953579 -0.7226831 -0.18515001 0.89097446 -0.31155953 0.7951383 0.07609092 -0.09993436 -0.070185 -0.58854026 1.5739864 -1.0178088 -0.66353905 0.078539945 -0.059716664
689 0.31697032 0.115862295 0.9244478 -0.67820275 2.1147041 0.530288 -1.1550967 -0.0012858607 -0.133724 0.35299295 -0.7001871 0.21332917 -0.08360031 -0.7566374 -0.44374344 0.11862729
220 -0.0019770553 2.1552541 0.535833 0.41567248 0.61594635 0.39436483 -0.05023887 0.42924878 0.6541732 -0.56740826 -0.6381864 -0.27559274 0.75487465 0.57311785 0.13463555 -0.29135647
1260 1.1689348 1.093389 -0.6180633 -0.35643467 -0.2364557 1.4484546 0.7440765 0.31996378 0.29292986 -0.3997576 -0.4408534 -0.61845714 -1.8620522 -0.8413868 -0.7497311 0.849445
454 1.4812313 0.79759634 0.24186544 -0.03244684 -0.036430705 1.3940061 0.9395129 0.0016338052 0.656376 -0.26291427 -0.4524423 -0.5615291 -1.7767907 -0.7363668 -0.5698565 0.22779228
1165 -0.010884578 2.1616395 0.6108321 0.35275504 0.66269875 0.38723138 -0.06226532 0.43466434 0.65246433 -0.6311414 -0.7226331 -0.18452653 0.7631296 0.55078936 0.1691675 -0.35351354
382 0.97264516 0.11326525 0.21753186 0.09916152 1.7284354 -0.29130226 -0.83429474 0.07100599 0.2571599 -0.61661214 0.3700111 -1.7421714 -0.58221394 -0.9687088 1.0338603 1.1265583
324 -0.4639747 1.2533829 0.4937559 -0.9358228 -0.2998274 0.74054384 -0.300891 -0.05826549 -0.6679795 0.68682015 -0.259751 -0.9964811 -0.25632712 -0.8346201 1.2387078 -0.9313375
423 0.10335195 1.2868345 0.29728767 -0.113417946 0.24683335 0.79628533 0.25928256 -0.005123121 -1.0152913 1.1573011 0.55791813 -0.8494377 0.31842887 -1.0185277 0.6959185 -0.90937793
279 0.77032924 1.2309396 -0.8158092 -0.31221732 -0.16442898 1.1878 0.362504 0.3040189 0.31612387 -0.57993 -0.40134028 -0.15494011 -1.6018492 -0.505159 -0.5802352 0.9010586
862 -0.3228368 1.4205713 -0.64960104 -1.4746661 0.41247508 -0.48293597 -1.4503847 0.1700944 -0.024838826 0.9136372 0.16248764 -0.805913 -1.6519195 0.29653248 0.5064674 -0.9443235
1047 0.8823258 0.8421821 -0.8463502 0.1828101 0.8931512 1.080008 -0.8036301 -0.30791813 -1.0183617 -2.1382396 0.1857555 -1.2295151 -0.061718386 -1.1753926 -1.1725553 -1.8169618
946 2.3371217 1.4389248 0.63780177 -0.9681105 -0.079984404 0.6816889 0.9457814 -0.05078273 1.1168468 0.09555043 -0.4975014 -0.1958488 -0.7205323 -0.5954829 -0.56436425 0.22799306
974 -0.20653139 0.38738695 -0.3033086 0.2264195 1.4540013 -0.5750027 1.3050711 0.54944384 1.7945608 0.66663903 0.33288926 -1.1976316 -0.05083351 -1.9440322 -0.8846008 -0.68291146
619 1.1465344 -0.14483157 0.65256894 0.6805018 1.6247247 0.1867538 -0.8147782 -0.4755872 0.2121854 0.12505017 -0.32919654 -1.9081293 -0.8394384 -1.3006293 0.9600915 0.71484894
1159 0.43406063 0.73611736 -0.010023651 -1.1105548 0.6616836 0.35699874 0.7183126 1.1159822 -0.9322421 0.4612187 1.2070358 -0.9418588 -0.26056385 -0.3775657 0.5458412 -1.2543683
1222 0.48960844 -0.21913247 0.64087194 -0.90538734 2.3231392 0.15964274 -0.69523036 0.36257738 0.056239672 -0.30993322 -0.114174694 -0.17453569 -0.13951474 -1.0263791 0.44987577 0.7272136
1070 0.40011144 0.70054024 0.11603722 -1.3425729 0.7084435 0.40739763 0.6659412 1.2757953 -0.73423296 0.30064616 1.1790128 -1.0373788 -0.65508896 -0.16059436 0.6633947 -1.6104947
1257 0.6422016 0.76721555 -0.34974253 -0.8271908 0.7657724 0.075258374 0.08388006 0.8035421 -0.54216653 0.85866666 1.1314648 -0.87104213 -0.89932317 -0.013522258 0.26417884 -1.4821204
606 0.8484853 0.7470307 -0.832629 0.4280474 0.85869884 0.9972434 -0.74930686 -0.40725344 -0.9914935 -1.9620003 0.19019149 -1.1210729 -0.14839637 -1.4939623 -1.1525136 -1.6649681
236 0.050910536 0.75521755 0.41010037 -1.3840675 2.0662332 1.3980712 -0.96412176 -0.1177207 -0.3595231 -0.16259731 -1.1131406 0.68236536 0.45614818 -0.5883842 -0.7457586 0.4568258
593 1.7347747 1.4358875 -0.083034344 0.19116984 1.281041 -1.1011018 0.55962867 0.38935053 -0.58623374 -0.35970607 -0.047351684 2.0866673 -1.0549421 -1.474202 0.91085166 -0.74420303
409 0.0011839467 1.3154268 -0.88883233 0.51342076 0.32514283 1.2343955 0.44074154 -0.021157783 0.30832124 -0.6466316 -0.12832089 0.47700414 -2.0076375 -0.34287885 0.24068944 0.56965595
17 -0.8025976 1.5837296 -0.6226892 -1.1063935 -0.47231853 0.10175627 0.0092330435 0.26030165 -0.8942939 1.0448751 -0.6629574 -0.796652 0.1379888 -1.6391883 0.9699005 0.49295565
791 0.13330422 0.7733808 -0.145838 -1.115798 0.3390529 -0.09286292 -0.9709127 0.5145028 -0.21289696 0.78543013 0.2654557 -0.7929938 -1.4670095 0.13251643 0.65504897 -1.5817293
1046 -0.13855265 0.56186825 0.8611142 -0.5082633 0.39475313 1.4351786 0.59341246 0.61543787 -0.5470717 0.490624 -0.11481277 -0.8212814 -0.19021648 -0.4706877 1.1747626 -1.3381423
988 0.7239416 1.0583454 -0.42541367 -0.7663545 1.122154 0.64878505 1.286631 1.0447849 -0.72463125 0.6195109 1.1444194 -0.6481392 0.5653162 0.07015143 0.38759977 -0.55749786
1069 0.813437 -0.21936755 -1.8952096 0.7488656 0.9939913 0.37312394 -0.79969853 2.437947 -0.012114636 -0.11424797 -1.3568416 -1.0211332 0.2211334 -0.6470423 0.6245428 -0.6013736
853 1.466596 1.6184468 0.037030477 -0.68900526 -0.06704754 0.55081797 -0.31072375 0.33570346 0.84832424 -0.15817635 -0.76327854 0.30222538 0.026147354 -0.0656093 -0.32464498 0.49862504
1262 0.84855694 -0.095487796 -2.0023024 0.8788709 0.99253565 0.4347946 -0.88703746 2.555053 -0.007367321 -0.18459454 -1.2445173 -1.0367085 0.19428127 -0.6406439 0.7645066 -0.67760956
1279 0.7415792 -0.42125127 0.73780155 -0.26263168 1.9376311 0.092569396 -0.8139939 0.21538763 0.22641903 -0.055886116 -0.042665232 -0.87451106 -0.5577757 -1.1279397 0.734337 0.7023039
764 0.056670964 0.7494675 0.53455114 -1.2100466 1.9739316 1.275821 -0.9587223 -0.1263097 -0.36723337 -0.10871104 -1.0555685 0.7184799 0.48148078 -0.5950981 -0.6697708 0.439613
1042 -0.26647478 0.5365296 1.0193938 -1.0283481 0.35346848 1.4132352 0.3711992 1.3360014 -0.347821 0.10097387 -0.0695183 -0.6656839 -0.58688927 -0.23115593 1.3484876 -1.5574819
462 -0.6718654 1.4086978 0.073902465 -1.3600364 -0.4839777 0.1977369 -0.30771634 0.06711878 -0.54480606 0.7076722 -0.40276104 -0.96245605 -0.28803787 -0.86548305 1.1564767 -0.48861668
994 0.90425193 0.02760168 -1.9601076 0.41109037 0.4800094 0.5245239 -0.7207073 2.2820027 0.10235356 -0.031570546 -1.5626601 -0.562916 0.34367192 -0.93012434 0.4294819 -0.4785372
187 0.035851832 0.7362792 0.4462293 -0.7703538 1.9940062 1.0897086 -1.0868355 -0.25911075 -0.32106224 0.16687429 -1.0586377 0.43180022 0.14060389 -0.30189842 -0.99296236 0.37746808
1133 -0.38747212 1.8896868 0.31336704 -0.049014755 1.3029671 -0.77767557 0.6202142 0.31379685 -0.5242331 -0.63629293 -1.5066541 -0.9487748 -0.32645765 0.8835341 -0.08429954 -0.01577439
175 0.48564118 0.234746 -1.7758553 -1.2873442 1.3358824 0.33204046 0.2276573 -2.0374124 1.3830521 -0.84674996 -1.2372316 -0.020964384 0.21316664 -0.78664 2.0817187 -1.0388813
1166 -0.46020198 1.0605103 0.038413074 -0.591792 -0.31566638 -0.2760891 0.6613307 0.32416636 -0.78741306 0.4813766 -1.3504063 -1.1396624 0.16140483 -1.048734 0.84944713 -0.05859127
749 -0.41508487 1.0692368 0.3815481 0.3551146 0.1589902 0.13225427 0.69228905 -0.02574305 -0.45783052 0.60809046 -1.4585236 -1.0790967 0.09151706 -0.42381698 0.63401765 -0.66622275
237 0.99769324 -0.15228161 0.90036964 0.6221508 1.8317598 0.30461004 -1.0181627 -0.3904395 0.12718323 0.54748195 -0.7245895 -1.5440049 -0.7660137 -1.2108507 0.50547075 0.7016909
352 0.97792906 0.9317065 -0.23287378 0.4751292 1.1036828 -0.5928718 0.71681803 0.07289231 -0.45019603 0.37014025 -0.51269436 1.7814133 -0.9991139 -1.4015207 0.6269315 -0.77963364
225 0.016635055 0.53538316 0.672596 -0.93517905 0.32883278 1.1008385 0.34989193 0.9451447 -0.66183895 0.444398 0.4092543 -0.815276 -0.717146 -0.34372807 1.1018763 -1.6059115
727 1.3241628 1.2356776 -0.7120776 -0.45453858 -0.20104626 1.3275714 0.61111844 0.38949287 0.21329297 -0.3455687 -0.4629136 -0.5798593 -1.7397026 -0.63319963 -0.8313806 0.94602954
363 0.01976363 1.0479205 -0.1439696 0.014775999 1.2815777 1.0946807 1.2377537 0.45334005 0.09759154 0.6858448 -0.18247385 -0.74845487 0.5242876 0.74032724 0.85702 -0.74574953
232 -0.41631597 0.5037535 -0.18797356 0.0027755303 1.3822958 -0.67894965 1.1765817 0.7779773 1.8047134 0.57259566 0.3002675 -1.2121665 0.03357049 -1.7396654 -0.83378685 -0.48995414
539 0.92209435 -0.46503022 1.0515461 0.069540665 2.261982 0.30374867 -0.9505202 0.08879907 0.15965945 0.38082814 -0.39802024 -0.7913879 -0.6408836 -1.0845554 0.53007823 0.36515594
997 -0.22798982 1.0223992 0.36895156 -0.5860574 0.551697 -1.1544743 0.97628796 0.55268234 -1.0628666 -0.78927934 -2.1548595 -1.3039224 -0.38391483 -0.54294205 0.73172206 0.018453304
897 1.4712186 1.6270957 0.07338849 -0.60888755 -0.10639642 0.5572043 -0.21843068 0.32558438 0.84173644 -0.09637558 -0.7924303 0.2334322 0.044885147 -0.04192272 -0.31523135 0.5427801
525 0.8747576 1.1901004 -0.44465408 -0.25330356 0.09351264 0.97262216 0.44381362 0.11153724 0.7296286 -0.307711 -0.8010602 0.6630022 -1.1435548 -0.3524023 -0.34747338 0.43669978
774 0.9248312 0.76581293 -1.2638507 0.008244127 0.8792361 0.33760494 -0.5352201 -0.38633683 -1.0893626 -1.9599463 0.04785672 -0.9379869 0.039286688 -1.7887045 -1.2611593 -1.7725339
833 -0.14896089 0.7257318 0.112248205 -0.91763395 2.1283312 -0.1409534 -0.91321737 0.049182415 -0.06676684 -0.60218585 0.21488856 -0.39469853 -0.16130501 -0.6468288 0.017453883 1.3860596
58 -0.7419692 1.4529959 -0.18920708 -1.4734347 -0.4374595 -0.014437622 -0.40687582 0.20236118 -0.57930064 0.73623616 -0.33867913 -0.8331948 -0.28998366 -1.0023426 1.1863744 -0.1583429
938 0.009826531 0.53258437 0.3322085 -1.4662408 2.2397478 1.0798048 -0.85828507 -0.0713322 -0.35150114 -0.22931078 -0.7566675 0.6818041 0.4927419 -0.825757 -0.52470905 0.5751732
637 0.8207736 1.3314359 -0.8588061 -0.38849655 -0.14512561 1.1476523 0.4041461 0.3271635 0.4365235 -0.5676899 -0.36340752 -0.14699541 -1.5730932 -0.64472514 -0.6951979 1.0745763
118 0.48494044 0.24896792 -1.9243942 -1.1959628 1.4212313 0.34862643 -0.018199181 -2.1198246 1.4695518 -0.56251806 -1.2607249 -0.08945041 0.2039556 -0.7907735 1.9250592 -0.8342189
30 0.06623987 0.48764732 0.35317838 -1.5478274 2.4416192 1.2066963 -0.7369161 0.010947843 -0.35577592 -0.18308924 -0.7856984 0.7178216 0.5280058 -0.8685272 -0.55722374 0.5886454
1216 -0.29605234 2.523108 0.8346358 0.33446857 1.0152446 -0.24616945 -0.185626 0.44501433 0.5603203 -0.9270122 -0.82217246 -0.50908184 0.29853758 0.778407 0.102762066 -0.24910827
1108 -0.3263229 1.4545856 0.4453933 -0.6936343 -0.1673247 0.7308473 -0.21464379 -0.24048764 -0.86490494 0.973921 -0.074231245 -0.92019427 0.034332305 -0.9686635 1.0184251 -1.0330554
306 1.1300596 1.4613749 -0.4633055 -0.15766612 1.0515699 -0.8468203 0.4919245 0.4410606 -0.26102743 -0.69803905 -0.071028285 1.8441195 -1.1856207 -0.8499858 0.7255017 -0.25018975
206 2.3107672 1.2350879 0.62232816 -0.6814721 -0.12269305 0.92065895 1.0142044 -0.08119554 1.0852 0.072144635 -0.5533972 -0.3852581 -1.0643252 -0.65652317 -0.5850249 0.10617742
504 -0.25567535 1.1042275 0.35145476 -0.6504514 0.7538454 -1.1620296 0.85611385 0.5722798 -0.8594192 -1.1405826 -1.9879433 -1.0994334 -0.5017724 -0.12254251 0.55484194 0.06622734
1268 -0.40513104 1.015104 -0.073870726 -0.24182422 -0.099641204 -0.3715586 0.7571308 0.14143716 -0.79803044 0.48602638 -1.3921522 -1.2414713 0.07368257 -0.87464786 0.7211159 -0.049459867
106 -0.21103907 0.95279753 0.507345 -0.35399228 -0.16990766 -0.6764505 0.58887255 0.63119125 -0.7019034 -0.26470053 -1.7266777 -1.1809179 -0.12870768 -0.8544023 0.9492723 -0.18994395
1278 1.2620418 -0.32334796 0.8929283 0.61758626 1.7741995 0.29956234 -0.899928 -0.41449183 0.24074794 0.5448814 -0.49467522 -1.6240665 -0.7143728 -1.3074162 0.8800675 0.5449948
1254 -0.23585033 1.3893178 -0.13521156 0.4123269 1.1612179 0.7415828 1.1372027 0.04832913 0.046162736 0.8262193 -0.8099287 -1.0044882 0.4316958 0.69554573 0.3635673 -0.8673943
993 1.4567709 0.82320124 0.39873424 -0.03743754 -0.06059076 1.409638 0.9208625 0.025633344 0.6871771 -0.18052779 -0.51435757 -0.53245735 -1.7403694 -0.7477348 -0.50070155 0.18956357
1007 -1.663746 0.8647615 -0.46267244 -0.6241714 0.8461262 -0.2614491 0.3508245 0.88090074 1.8064911 -0.24288547 -0.051735662 -0.2404049 -0.6316019 -1.8340232 -0.70717037 -0.78537893
1238 -0.45788872 1.7133349 -0.5223495 -0.23440205 -0.19268358 0.457948 -0.04351199 -0.15354593 -1.1150686 1.3944281 -0.1192782 -0.7353862 0.3330873 -1.449332 0.5848962 0.2712106
447 0.37397566 1.0100704 -0.75670666 -0.83291775 0.64802134 -0.29148012 -1.1414598 0.4442213 -0.080807 1.2978519 0.5689175 -0.7125649 -1.7819912 0.15360987 0.25691888 -1.3539389
233 0.556905 0.3963178 -2.155258 0.36332878 0.5251271 0.38047838 -0.9502143 2.237864 0.42474565 -0.29697037 -1.7516738 -0.34043664 0.54251176 -0.84587294 0.6653044 -0.09494716
601 0.07540498 0.7293526 0.55002934 -0.70867187 2.003288 1.0401683 -1.1742857 -0.2832339 -0.27773684 0.27621308 -1.2049298 0.30289578 0.17394464 -0.33504805 -1.115797 0.20674153
1000 -0.36148843 1.5134513 0.99544775 0.5869221 0.027261557 0.46547982 0.19070758 0.50236744 0.18870313 -0.07878497 -1.1344173 -0.5697313 0.2661299 -0.2896604 0.9360346 -0.86192405
413 -0.032351036 1.073842 0.0028786128 -0.96567 0.1394332 -0.053436212 -0.9454775 0.058868527 -0.3989998 1.015911 0.11492294 -0.6809639 -0.99172425 -0.08802814 0.55553627 -1.3495793
170 1.8383927 1.4882208 0.031366922 -1.0487448 -0.31870553 0.75644106 0.30365327 0.22629003 0.7181061 0.06682273 -0.48082155 -0.2382802 -0.63438386 -0.3893033 -0.5439926 0.6885264
900 1.5020083 1.5930398 0.07800212 -0.5756094 0.021586632 0.51603675 -0.2519464 0.31820023 0.75524163 -0.18264449 -0.83600324 0.2575924 0.050937563 -0.0028828918 -0.3322103 0.5524814
614 -0.3019559 1.4812064 -0.40103462 -1.3185837 0.1982417 -0.4797846 -1.3206948 0.08936913 -0.26325732 1.0540332 0.14744328 -0.72751963 -1.0845577 -0.10295504 0.4055912 -0.89962775
32 -1.6555064 0.8991436 -0.48782706 -0.5832326 0.8747259 -0.39071286 0.3837805 1.0062457 1.748991 -0.07064065 -0.06419717 -0.29875204 -0.4382929 -1.6653243 -0.81874937 -0.53515536
721 -0.39066014 0.7271996 1.0934793 -0.4292245 0.14341722 1.2576661 0.13671882 0.95521945 -0.16144824 -0.10009176 -0.4939889 -0.38684958 -0.15355292 -0.34771818 1.3021356 -1.4693087
544 -0.51383865 1.4629781 -0.27215928 0.3403751 1.3169496 0.07101852 1.0481561 -0.20536055 -0.4646895 0.5902502 -1.1903964 -1.1354531 -0.037326556 0.7426367 0.045825902 -0.415458
884 0.61893636 1.3002433 -0.98074746 -0.10836004 -0.019380262 1.0156902 0.43661824 0.30138877 0.35113743 -0.711791 -0.30014256 0.07254538 -1.6038744 -0.5180013 -0.5043438 1.0037646
558 0.11673379 0.4727497 0.6732329 -1.0673596 0.6344314 1.1463223 0.97546005 1.5682824 -0.47806203 0.06344617 0.43411276 -0.7439627 -0.4439572 -0.104886375 0.9858237 -1.4588622
337 1.066931 0.97049814 -0.030895786 0.6684195 1.2122386 -0.3629071 0.60262746 0.1616341 -0.38421544 -0.08942774 0.026817268 1.6921035 -1.3420858 -1.3202688 0.87974995 -0.48105225
198 -0.26488578 1.8301584 0.868095 0.656085 0.556176 0.72843736 0.20482843 0.56560796 0.61696327 -0.19357789 -0.7363543 -0.4539897 0.75342894 0.21143356 0.7645113 -0.7371822
616 0.6711901 0.54971606 -2.086995 0.47423416 0.4337639 0.34089595 -0.90438664 2.3470223 0.29766318 -0.08589836 -1.7021037 -0.11274562 0.43995035 -0.85159516 0.44193316 -0.047851734
895 0.1851551 0.7409142 -0.12971655 -1.0951536 0.28964606 0.00055971346 -0.8718069 0.464148 -0.246722 0.7429473 0.34201944 -0.88506997 -1.4558593 0.13569595 0.6292417 -1.5500683
1113 0.0027839548 2.1851525 0.6749438 0.4067571 0.66736686 0.3562992 -0.046627242 0.44664305 0.6674843 -0.6353561 -0.67548025 -0.26795644 0.73153746 0.5287587 0.22593024 -0.42127493
1027 -0.70351774 1.4352641 -0.09347145 -1.3817961 -0.41688865 0.106654525 -0.584589 0.084430106 -0.5745475 0.7218749 -0.1615309 -0.7927036 -0.37249762 -0.85622305 1.0478225 -0.35114968
792 0.44080377 0.84126645 -0.36450672 0.5081578 1.053457 0.16519636 0.9484042 -0.07100073 -0.15732966 0.49218974 -0.76116556 1.5073904 -1.3810483 -1.0142769 0.4774813 -0.31857428
986 -1.5721743 0.8247933 -0.4486465 -0.6935432 0.8534948 -0.23392329 0.28887457 0.96655536 1.7570152 -0.22736506 0.08428456 -0.25395757 -0.5341855 -1.7017932 -0.65851957 -0.7401629
437 0.20919071 1.150904 -0.81446314 -0.893072 0.6508287 -0.46171415 -1.2552217 0.3338353 0.009082246 1.3740848 0.43752885 -0.8034693 -1.7857352 0.20391408 0.091180846 -1.2455405
446 0.21782397 0.80240726 -0.30891374 0.7196432 1.0402743 0.5819913 0.9075029 -0.14451109 -0.10759215 0.38654515 -0.654816 1.2632962 -1.6660285 -0.7684745 0.41994557 -0.046047576
1020 -0.36805928 1.9470553 0.3534935 0.15909724 1.0940624 -0.24408609 0.4914542 0.29228055 -0.0069091506 -0.3786803 -1.083432 -0.80276144 0.11293473 0.9910955 -0.074126564 -0.28627202
223 0.47140244 -0.09117751 0.9313281 -1.0920713 2.4418092 0.48272797 -0.8775655 0.4676255 -0.051050317 -0.1307899 -0.37278587 0.33802238 0.11446962 -0.9457837 0.13370582 0.2462504
1164 0.38867888 1.2098713 -0.77026993 -0.32889104 1.8083782 1.0666453 1.5276155 0.82186085 -0.011993929 0.8045084 0.3867518 -0.7359068 0.87716925 0.87116265 0.6922306 -0.25976357
464 -0.035937663 1.4623275 -0.86839247 -1.1403167 0.5975331 -0.60355157 -1.5310285 0.25983888 -0.09132377 1.3934864 0.30526254 -0.7774989 -1.7177937 0.18093586 0.10058857 -1.1033795
501 2.3143806 1.3924557 0.6364386 -0.87616265 -0.12289845 0.81068194 0.92556435 0.005676796 1.1300826 0.039075367 -0.49262112 -0.2513647 -0.7836303 -0.5668431 -0.51138544 0.1744401
158 -0.87067175 1.5521287 -0.57488483 -1.1488899 -0.5190641 0.09262424 0.0672133 0.42611754 -0.94813055 1.0005966 -0.69319236 -0.84639734 0.04795011 -1.608333 1.0728838 0.44131207
1075 -0.41784546 0.6091062 -0.39873958 0.0055273264 1.1328216 -0.5662564 1.0793897 0.61150086 1.9601012 0.37544698 0.41358054 -0.6754678 -0.186313 -2.0382388 -0.72102267 -0.9704705
10 -0.83435255 1.4611045 -0.327165 -1.5299418 -0.44816545 -0.043341197 -0.40275294 0.33734357 -0.6276926 0.79023296 -0.31814057 -0.81270677 -0.28448167 -1.1479714 1.1575048 0.014569888
466 0.4263264 0.7847668 -0.32759327 0.40617782 1.0262258 0.08793311 0.9905766 -0.046079285 -0.19656807 0.4659469 -0.8060875 1.5222868 -1.2980485 -1.0016818 0.3881951 -0.35301638
1081 -0.29018185 1.365957 0.9963346 0.54744285 0.035156965 0.31436762 0.27877918 0.4447948 0.055678092 -0.073251866 -1.2240809 -0.6905966 0.29062542 -0.40637454 0.91469544 -0.8239897
134 -0.39373484 0.9986609 0.36122113 0.25097746 0.1698257 0.11533764 0.69110024 -0.0084 -0.5054545 0.62964517 -1.4118901 -1.063752 0.08179436 -0.44231203 0.65927404 -0.6060221
976 0.28224376 1.3287104 -0.8632054 -0.75047934 0.6617898 -0.46505576 -1.3753136 0.31557804 -0.18384154 1.6002741 0.6393017 -0.68593043 -1.547956 -0.022887345 0.10367312 -1.2254802
806 0.34550998 1.1548663 -0.8180469 0.028860921 0.5653244 0.4548175 0.5356419 0.056196935 0.1352271 -0.37388676 -0.5605218 1.0492489 -1.4061412 -0.33675125 -0.037028972 0.48394692
555 -0.32191634 1.8943229 1.0690663 0.75831455 0.21792066 0.19008803 0.045566052 0.57997054 0.475525 -0.49417573 -1.1789657 -0.49989069 0.4042988 -0.2076764 0.77184856 -0.76213056
982 -0.023695672 0.47226495 0.3581078 -0.39041907 2.1085577 0.69309765 -1.1093901 -0.26110905 -0.1820986 0.24903251 -0.70374084 -0.051456142 -0.22888365 -0.5802107 -0.8174857 0.7330336
1059 1.0531086 1.182067 -0.5297931 -0.03780724 0.9941132 -0.7650851 0.6491539 0.20825166 -0.25866532 -0.2652955 -0.37054932 1.6788197 -0.9763089 -0.8686813 0.35327137 -0.40282995
239 -1.6780343 0.75306344 -0.42802283 -0.73090005 0.9014106 -0.1834257 0.25922093 0.82641405 1.8192095 -0.2248574 -0.0063768853 -0.30057925 -0.64393514 -1.9034874 -0.71295345 -0.8860345
755 0.2938236 0.598459 0.041276574 -1.2112243 0.53436065 0.41189843 0.06659501 1.1391094 -0.56261325 0.5304651 0.8977104 -1.063894 -1.0797582 0.01740231 0.65717494 -1.7474377
312 0.34303093 0.2838367 -1.7547837 -1.3003267 1.3350511 0.31884992 0.29850554 -2.0079334 1.3555995 -0.90115607 -1.2043778 -0.03439496 0.29035836 -0.7694109 2.0218031 -0.9891471
253 -0.5139512 1.3706912 -0.15998831 0.13592799 1.1788989 -0.6103668 1.004372 -0.16551486 -0.85468966 0.22042489 -1.5708771 -1.0740849 -0.4612064 0.4487662 -0.1177873 -0.118009716
403 -0.43319303 1.8969902 0.37703854 -0.019358113 1.2638493 -0.8059265 0.41547948 0.35626101 -0.3542735 -0.71275496 -1.4199481 -0.8685156 -0.31644028 0.88256115 -0.02592549 -0.021184346
412 0.5771728 1.0256287 -0.13075915 0.41003752 0.14343753 1.5425444 0.7288128 0.007156254 0.6835414 -0.4778489 -0.45275825 0.085932866 -1.8822953 -0.42490643 -0.07422248 0.32028255
159 -0.20642364 1.447081 -0.66826946 -1.4037892 0.41865864 -0.58875793 -1.4072707 0.1772054 -0.050798137 1.0410683 0.1888147 -0.7997187 -1.39482 0.19754814 0.3554398 -0.9124943
1058 -0.093553476 1.3905405 -0.95816845 0.7066497 0.3435526 1.4476837 0.5237713 0.07213314 0.1902796 -0.62544745 0.24946909 0.092775345 -2.053859 -0.38023594 0.33615497 0.8643327
322 0.7895 0.69281405 -2.2473278 0.3926527 0.26564273 0.40925634 -0.9446857 2.2444036 0.31393826 0.0655918 -1.808511 -0.112880774 0.436381 -0.95532846 0.42244267 -0.12742248
1144 0.46659222 0.89103645 -0.4376494 0.23604017 0.96750695 0.09207126 0.9219292 -0.07927059 -0.094800875 0.42606586 -0.86124516 1.567185 -1.2570711 -0.965796 0.2746983 -0.25376305
1160 0.7629232 -0.16844556 -2.0317745 0.8813425 1.1907369 0.45031574 -0.8379779 2.5076647 -0.018132444 -0.44374642 -1.2701008 -1.0666314 0.2665193 -0.6866498 0.92221564 -0.5713137
917 0.048647128 0.45244908 0.33331603 -0.6865972 2.2068706 -0.30246812 -0.9152524 0.123717695 0.053848222 -0.39233938 0.16818981 -0.6552374 -0.44279155 -0.7810794 0.28334746 1.366763
476 0.117514305 0.53629315 0.5629214 -1.2575247 0.4355963 0.9177012 0.74452925 1.5573174 -0.5696111 0.15813945 0.59372777 -0.8897522 -0.7503686 -0.17882049 0.89824295 -1.6133345
200 0.57880384 -0.2316449 0.67385817 -0.7110739 2.3191721 0.002391306 -0.80046606 0.34417802 -0.00051500346 -0.12642232 -0.1049859 -0.416216 -0.40786275 -1.0093464 0.29111007 0.78645897
864 -0.45345655 0.46751264 -0.17272817 -0.022578903 1.3937799 -0.6727814 1.2751924 0.8457005 1.7844654 0.5250123 0.3378254 -1.1459675 0.039663102 -1.7292603 -0.7639384 -0.4443195
640 -0.43255073 1.8314838 0.20024234 -0.095337205 1.368244 -0.7767634 0.82392967 0.14524457 -0.62532574 -0.47342694 -1.5434401 -1.0032763 -0.41073498 0.90502506 -0.090215035 -0.12519325
349 -0.748992 1.560996 -0.5709211 -0.9412884 -0.4561945 0.07975751 0.053284835 0.27423483 -0.88547987 1.1440867 -0.70710236 -0.84547687 0.10249409 -1.6361109 0.9223737 0.49129027
28 0.81358594 0.8660052 -0.8474866 0.10206766 0.9170639 1.058487 -0.940746 -0.424721 -1.0776415 -2.1904464 0.25036496 -1.1766373 -0.08418132 -1.4125155 -1.1619235 -1.6965451
728 -0.23606972 1.9013094 1.1617144 0.612602 0.20587035 -0.045538615 0.10074711 0.68347955 0.4766342 -0.5985527 -1.2618909 -0.57033336 0.39808288 -0.23348492 0.8412198 -0.7388215
920 0.52203894 0.3103981 -2.0109787 -1.4402087 1.3807693 0.24851148 0.05115029 -2.1800866 1.4617361 -0.5545991 -1.277518 -0.112644285 0.26648745 -0.7499724 1.8076533 -0.8194706
246 0.071541525 0.46291363 0.3341804 -1.1040547 0.2724143 0.50223815 -0.17670579 0.97985417 -0.48101068 0.51911175 0.40022397 -0.9396696 -1.2504792 -0.12340963 0.8040799 -1.7110534
540 -0.20542055 1.3644904 -0.48433 0.25580454 1.3482615 0.6847965 1.3710178 0.007118255 -0.14010076 0.8917784 -0.51408875 -0.9974425 0.4267279 0.72506756 0.32820833 -0.65052736
2 1.3276564 -0.2391003 0.7010477 0.7579224 1.6621842 0.27057877 -0.804944 -0.54529977 0.29290795 0.32177982 -0.49398372 -2.0179918 -0.81925577 -1.3113432 0.93003005 0.62781405
1077 0.117101386 0.9945887 -0.20871398 0.73526144 0.5813665 1.3150392 0.7297407 -0.18222547 0.44712034 -0.24837174 -0.45996028 0.5073555 -1.9404837 -0.33673516 0.19509725 0.27540004
1051 0.80620116 -0.20509617 -2.0006225 0.69636047 1.1560042 0.43740687 -0.7765403 2.5944486 0.04134468 -0.34063244 -1.2850032 -1.1196421 0.26488537 -0.59004855 0.75544703 -0.5731638
107 -0.27432796 1.0419148 0.59801364 -0.9749721 -0.1781727 0.6994158 -0.48708427 0.1168963 -0.5278697 0.6231495 -0.0073304255 -0.7594748 -0.6041766 -0.4743344 1.0178199 -1.2118026
21 -0.22806336 1.5310407 -0.680802 -1.3191439 0.4626749 -0.6113393 -1.5077999 0.19897817 -0.11191047 1.0740708 0.20747621 -0.74980515 -1.4491707 0.25589252 0.323657 -0.91744924
607 -0.20817536 1.4836854 -0.38254902 0.23053317 1.3531415 0.66278 1.2441216 0.10902066 0.0071766945 0.61835647 -0.7457522 -1.1029499 0.47921085 0.95004106 0.2337104 -0.60712945
698 -0.22571751 2.4790888 0.8016638 0.33157137 0.88058937 -0.31208754 -0.22743714 0.45407987 0.48090485 -0.9694797 -0.76521546 -0.5149927 0.4678945 0.52055293 0.23735261 -0.1269448
257 0.4043293 0.017166387 1.0669317 -0.75890076 2.3743467 0.42244512 -1.160416 0.24462725 -0.008055328 0.22525898 -0.58685076 0.1367261 -0.17942972 -0.83292586 -0.21081553 0.23100397
1028 0.040414453 0.5123322 0.35233006 -1.1544244 0.13327178 0.5751127 -0.49153686 0.76251006 -0.48639733 0.5638126 0.21843603 -0.88118726 -1.2361504 -0.13573731 0.86032236 -1.6263847
1092 0.92424953 0.98545194 -0.9464812 -0.12859906 0.7544688 0.8269261 -0.808932 -0.45929876 -1.1252655 -2.23156 0.31544408 -1.2235254 -0.12036065 -1.3761768 -1.208268 -1.7726034
594 -0.45050988 1.6756672 0.021749724 0.20501587 1.4638156 -0.54156286 0.83868957 0.0144967325 -0.5674872 -0.051375523 -1.2850755 -1.092605 -0.31405157 0.96697485 -0.054827448 -0.19472316
873 -0.18509635 0.46222693 0.85877925 -0.68451625 0.51342356 1.5123726 0.6468687 1.0925118 -0.28466693 0.3129949 -0.23564602 -0.5212035 -0.33007157 -0.15053241 1.2328092 -1.4588388
1074 -0.35695818 1.4359641 -0.5508699 -1.4184557 0.38260448 -0.45329857 -1.5230879 0.23375061 0.020487927 0.8757717 0.18010476 -0.8749379 -1.6452974 0.26546243 0.5365951 -0.97192353
1219 0.5036113 -0.08528725 1.068747 -0.77025896 2.3231852 0.3848659 -1.0311981 0.2916449 -0.026506271 0.21873425 -0.42330733 0.014112242 -0.15183014 -0.8742693 -0.09918901 0.18498841
1142 0.5256948 0.33486313 -1.9362694 -1.3065857 1.2186016 0.24501239 0.09383757 -2.1771684 1.4794688 -0.5518456 -1.3054693 -0.045670956 0.22311442 -0.84402573 1.8877438 -0.8976011
805 -0.2909625 1.6704936 1.0179107 0.5244216 0.19041555 -0.20882404 0.075324476 0.55958027 0.25624046 -0.6541354 -1.3165419 -0.68653125 0.32511804 -0.28039336 0.7266919 -0.5903176
1168 0.07249616 0.5197762 0.4158998 -1.5014739 2.2858405 1.262629 -0.80275536 -0.054564696 -0.2953306 -0.285115 -0.76858294 0.72511804 0.56149524 -0.8892749 -0.49178508 0.52790004
417 0.65182817 0.74459714 -0.0086300215 -0.29812667 2.0004609 -0.4313217 -0.826382 0.106935054 0.17166887 -1.0722995 0.7990026 -1.9428612 -0.37890252 -1.1634395 1.1115552 1.8949671
524 0.38269266 1.7168264 -0.76014733 -0.38380033 0.6314318 -0.38030034 -1.1762241 0.10987946 -0.6768426 1.9640108 0.9452012 -0.76638854 -0.7299409 -0.52908987 0.05268365 -1.1914004
43 -0.6007819 1.5876077 -0.48769158 -0.4151962 -0.30925554 0.26908952 0.11838234 0.05543237 -0.9999062 1.3305703 -0.4807076 -0.7716133 0.19704926 -1.4876149 0.66408926 0.40784135
316 0.35526577 1.1460863 -0.5995205 0.5002089 0.8228973 0.2994223 0.27025765 0.23706083 -0.038850952 -0.6146698 0.29062545 1.1397376 -1.7064416 -0.5717303 0.89563984 0.27594253
404 -0.52645665 1.4841886 -0.054731064 0.17185828 1.4419917 -0.51798147 1.0748178 -0.20948178 -0.76762724 0.22532742 -1.5232152 -1.1596744 -0.46424678 0.6708181 -0.16983892 -0.20754147
1090 1.5289017 0.92760396 0.07735835 -0.30804008 -0.11512248 1.4130112 0.9261669 0.022531612 0.5818018 -0.088910036 -0.43028182 -0.70222074 -1.8074164 -0.8832864 -0.7355951 0.47519687
222 0.06183371 0.9592191 -0.3063928 1.0591663 0.98206365 0.89321035 0.54295886 -0.022284335 -0.030006705 -0.25208682 0.108416915 0.9590726 -2.0080307 -0.7971685 0.8538779 0.2552133
99 0.29511386 1.6557577 -0.77265525 -0.311739 0.6459449 -0.33371052 -1.0547632 0.05024476 -0.6558814 1.8452612 0.9850283 -0.72836345 -0.670931 -0.5173422 0.032721646 -1.1737158
784 -0.36704615 2.0335467 1.0042983 0.6037461 0.38338563 0.76091176 0.048125587 0.6411283 0.69625133 -0.41394252 -0.8996799 -0.31351206 0.7502866 0.014020708 0.7153945 -0.8109651
1272 0.85559267 0.9350467 -1.0438601 -0.2608226 0.72598577 0.5885347 -0.85567814 -0.3478524 -1.0628295 -2.143915 0.23767926 -1.0001752 0.068263285 -1.5220135 -1.1152917 -1.7943355
1141 0.016975066 2.4585443 0.95358515 0.54302526 0.523524 0.28646857 -0.54317486 0.5406231 0.9264893 -1.0038639 -0.62368417 -0.17894281 0.62623686 0.1608754 0.4389932 -0.2699357
489 1.1728753 1.5902562 -0.107012786 -0.4782816 -0.012625278 0.5264176 -0.34745798 0.31870744 0.7060195 -0.34070483 -0.60006475 0.3846815 -0.015567127 -0.07889531 -0.22848256 0.6564088
978 -0.0201447 1.4366592 -0.9481387 -1.1750737 0.58230937 -0.6354429 -1.5883964 0.16692045 0.040276818 1.2675558 0.2324074 -0.7511769 -1.7884223 0.24309069 0.20225778 -1.1240159
