1282 16
0 -0.871789 0.141860 -0.331890 0.253466 0.326519 -0.755397 0.286751 1.014593 0.156258 -0.109520 1.159816 -0.605543 -0.780808 0.783067 0.088271 0.128199 
1217 -0.086238 0.017595 0.044255 0.089206 0.040269 -0.029331 0.060064 0.077210 0.002274 0.027888 0.083537 -0.035347 -0.063146 0.124494 -0.048366 0.031900 
68 -0.917467 0.064775 -0.310377 0.380898 0.350380 -0.660572 0.316841 1.092216 0.234095 -0.114486 1.160182 -0.728153 -0.834940 0.861438 0.045968 0.124408 
1093 -0.558405 -0.100250 0.124104 0.481664 0.290436 -0.059816 0.370386 0.682478 0.266520 0.181217 0.676917 -0.533513 -0.484713 0.687388 -0.066201 0.223653 
968 -0.675663 -0.004112 -0.052107 0.273329 0.415521 -0.490698 0.124875 0.763556 0.104076 -0.132507 0.593561 -0.145451 -0.449248 0.675808 -0.101833 -0.062326 
461 -0.922201 0.108189 -0.265778 0.311993 0.556958 -0.794386 0.069535 1.135282 0.038569 -0.388659 0.911380 -0.191752 -0.666495 0.786241 -0.057115 -0.145860 
1166 -0.299370 -0.016612 0.122893 0.316800 0.243029 0.026113 0.227478 0.384716 0.154001 0.144682 0.391014 -0.235087 -0.197845 0.476892 -0.092032 0.145953 
271 -0.951352 -0.041296 -0.146373 0.461691 0.394576 -0.497464 0.602900 1.112177 0.335296 0.071534 0.917658 -0.726281 -0.690984 0.866289 -0.123400 0.050174 
17 -0.847693 0.079060 -0.474819 0.145027 0.458860 -0.964135 0.189772 1.209337 0.135875 -0.375647 1.256398 -0.533599 -0.900571 0.826607 -0.065602 -0.043760 
82 -0.915516 -0.039823 -0.231223 0.396116 0.307436 -0.521504 0.583419 1.140270 0.330306 0.061896 1.054820 -0.852007 -0.796684 0.895736 -0.016813 0.205371 
597 -0.818492 0.073899 -0.237626 0.273338 0.493705 -0.607947 0.041715 1.020609 0.085667 -0.313061 0.849535 -0.219849 -0.541597 0.720475 -0.060113 -0.113206 
1174 -0.039296 0.026587 0.013484 0.009473 0.031392 -0.002818 -0.000926 0.092504 -0.004054 0.022660 0.097485 -0.045046 -0.055389 0.136492 0.000008 0.014176 
89 -1.069382 0.100288 -0.344463 0.395401 0.503256 -0.941577 0.323153 1.453518 0.168267 -0.319754 1.383140 -0.680015 -0.985864 1.050534 -0.023783 0.074344 
538 -0.993102 0.115071 -0.194718 0.341704 0.700668 -0.933589 0.033263 1.132740 0.020274 -0.447201 0.774051 -0.092676 -0.718964 0.779461 -0.090479 -0.176410 
795 -0.688548 -0.011222 -0.132905 0.334671 0.338813 -0.235188 0.224773 0.894091 0.153818 0.012567 0.811160 -0.465380 -0.502450 0.706611 -0.022365 0.098220 
349 -1.027934 0.115688 -0.294342 0.308169 0.585792 -0.829625 0.174881 1.259458 0.100887 -0.373982 1.164656 -0.409827 -0.769036 0.910040 -0.032652 -0.073516 
158 -0.871103 0.156926 -0.329387 0.252899 0.391121 -0.722742 0.206742 1.185266 0.094562 -0.325535 1.160087 -0.431513 -0.707195 0.877181 0.012991 -0.025072 
933 -0.785753 0.023686 -0.147457 0.318938 0.416388 -0.568927 0.201482 0.898781 0.117078 -0.201532 0.696247 -0.264859 -0.532396 0.742974 -0.114494 -0.075474 
545 -0.840799 0.106996 -0.153196 0.272816 0.559900 -0.680767 0.113219 0.928434 0.073399 -0.292022 0.804010 -0.242019 -0.561374 0.683368 -0.034730 -0.118924 
34 -0.796354 0.017877 -0.328942 0.174227 0.302111 -0.691656 0.337570 1.242264 0.175217 -0.131735 1.303077 -0.720575 -0.853181 0.831349 0.013093 0.149835 
101 -0.765730 -0.380230 0.344562 0.802297 0.565443 0.089841 0.891266 0.884844 0.753886 0.508040 0.539180 -0.828593 -0.877471 0.947604 -0.261111 0.270709 
1170 -0.214033 0.056867 -0.025881 0.100964 0.148723 -0.077758 0.033954 0.214532 0.082170 -0.029459 0.265189 -0.049190 -0.097336 0.250205 -0.013984 -0.018562 
494 -0.836222 0.137006 -0.252659 0.239711 0.443779 -0.607105 0.175078 1.021051 0.129942 -0.215060 0.975124 -0.350958 -0.611102 0.746549 -0.017105 -0.059116 
111 -1.069677 0.136724 -0.385191 0.312518 0.639279 -1.021022 0.137126 1.434303 0.094927 -0.454907 1.266991 -0.364278 -0.909486 0.963265 -0.054242 -0.065369 
1268 -0.030693 -0.009490 -0.013935 0.023088 -0.004501 0.015169 -0.011629 -0.000821 0.015417 -0.019586 0.031101 -0.008214 -0.027637 0.013456 -0.003823 0.009271 
565 -0.840522 -0.201154 0.009771 0.596693 0.410483 -0.267129 0.562079 1.126384 0.302301 0.196030 1.032217 -0.844008 -0.911501 0.929402 -0.042960 0.299394 
57 -0.707660 -0.359867 0.159607 0.638053 0.264402 -0.128068 0.547697 0.851481 0.460060 0.322131 0.867950 -0.951090 -0.955500 0.815192 -0.086370 0.464365 
635 -0.877891 -0.009941 -0.095953 0.332854 0.664247 -0.731890 0.214949 0.963007 0.097601 -0.279872 0.695791 -0.177971 -0.596174 0.773283 -0.081913 -0.227531 
1276 0.006360 0.026426 0.021162 0.003577 -0.001922 -0.027819 -0.022466 -0.030302 0.015985 0.009452 -0.000962 -0.015378 -0.011611 0.001575 -0.004861 -0.011793 
61 -0.950341 0.122457 -0.349173 0.301790 0.374398 -0.776579 0.337900 1.126203 0.210106 -0.198117 1.136503 -0.598239 -0.821176 0.803750 0.065286 0.044403 
959 -0.604407 -0.103357 0.109277 0.567617 0.337838 -0.086419 0.390815 0.679745 0.277862 0.217754 0.675167 -0.601442 -0.589158 0.746513 -0.081631 0.246915 
1 -0.581382 -0.056571 -0.223769 0.072744 0.506061 -0.360965 0.049261 1.531596 -0.033615 -0.085650 0.896991 -0.406411 -0.692576 0.592116 -0.214474 -0.308579 
3 -0.962083 0.088600 -0.065300 0.199700 0.612411 -0.774988 -0.022867 1.600565 -0.265098 -0.447629 0.453812 -0.018626 -0.728650 0.724932 -0.424928 -0.576041 
324 -0.899615 0.125947 -0.186480 0.149833 0.352648 -0.187585 0.041856 1.697693 0.040888 -0.204494 0.880435 -0.504318 -0.445719 0.891327 -0.303147 -0.610503 
582 -0.733494 0.224805 -0.125855 0.048954 0.218097 -0.117482 0.079572 1.152461 0.115047 -0.154832 0.695677 -0.388309 -0.204780 0.767012 -0.282895 -0.494665 
10 -0.551625 -0.076532 -0.315949 0.002592 0.478712 -0.551344 0.114712 1.347990 0.046958 -0.100789 1.230351 -0.456989 -0.706287 0.661251 0.020202 -0.096622 
889 -0.445051 0.112262 0.012618 0.131718 0.252523 -0.141785 0.042627 0.711689 0.037374 -0.092471 0.347431 -0.076418 -0.107080 0.500477 -0.173529 -0.256795 
462 -0.558279 -0.034546 -0.117006 0.144592 0.481273 -0.228716 0.069793 1.284473 0.002514 -0.047964 0.914419 -0.403770 -0.448200 0.617545 -0.092152 -0.254379 
399 -0.969883 0.099053 0.007854 0.269797 0.668946 -0.744623 -0.004652 1.299697 -0.119377 -0.391513 0.476446 0.011412 -0.520189 0.743803 -0.389034 -0.492493 
592 -0.619803 -0.065078 -0.113628 0.345857 0.366833 -0.281937 0.229232 1.069301 0.134098 0.016083 0.965008 -0.549689 -0.558976 0.667016 -0.052065 0.103011 
1027 -0.147721 0.030232 0.012750 0.049551 0.145576 -0.069702 0.025477 0.250260 0.045175 -0.039464 0.241554 -0.032202 -0.133131 0.226834 -0.058060 -0.005738 
84 -0.782618 -0.079873 -0.300360 0.268122 0.385970 -0.442033 0.262803 1.452741 0.132790 0.019336 1.297778 -0.698267 -0.863700 0.775412 0.002115 0.011731 
149 -0.485658 -0.074736 -0.193026 0.074163 0.540132 -0.382472 0.061669 1.563452 0.024887 0.029123 1.186385 -0.511711 -0.656502 0.641020 -0.015286 -0.170525 
278 -0.400162 -0.194645 -0.027499 0.017688 0.575727 -0.029094 -0.145656 1.653082 -0.052350 0.163834 0.940241 -0.380902 -0.383054 0.663666 -0.030622 -0.378670 
153 -0.108777 -0.446514 0.175949 0.011034 0.821415 0.034787 -0.290453 1.732584 -0.070943 0.466345 1.011784 -0.243859 -0.197236 0.621826 0.150710 -0.303093 
793 -0.652929 -0.042480 -0.093795 0.321876 0.349397 -0.280751 0.184603 0.974982 0.098267 0.042853 0.886790 -0.478747 -0.502341 0.732881 0.003240 0.090808 
157 -0.114604 -0.429432 0.195042 0.002070 0.825554 0.093459 -0.250313 1.541417 -0.059122 0.495533 0.909468 -0.189603 -0.228277 0.557262 0.139148 -0.188856 
869 -0.224494 0.009869 0.008953 0.095186 0.272585 -0.025099 -0.027181 0.494769 -0.002380 0.009155 0.407973 -0.077633 -0.106107 0.368321 -0.032302 0.004747 
58 -0.580316 -0.043453 -0.277535 0.027622 0.476342 -0.526655 0.136955 1.446711 0.055716 -0.117553 1.220602 -0.497076 -0.706773 0.665395 -0.026182 -0.128589 
667 -0.829852 0.165799 -0.026608 0.177113 0.447995 -0.425485 0.027625 1.168321 0.006604 -0.292695 0.501270 -0.159843 -0.368309 0.725576 -0.369267 -0.486398 
357 -0.804018 0.228998 -0.150676 0.076063 0.221719 -0.116147 0.057012 1.323114 0.142499 -0.154632 0.779834 -0.484563 -0.256447 0.834510 -0.311578 -0.556458 
107 -0.497772 0.028284 -0.040994 -0.114748 0.321647 0.200477 -0.136437 1.888745 0.017213 0.043315 0.913225 -0.516379 -0.150785 0.876831 -0.225885 -0.841390 
1266 0.031050 -0.021375 -0.029684 -0.005862 0.002011 -0.006217 -0.025692 0.000619 0.006467 0.012153 -0.012744 0.009557 -0.006101 0.001683 0.024149 0.012079 
541 -0.024430 -0.426959 0.319933 0.059596 0.813869 0.211936 -0.380780 1.433786 -0.079341 0.443288 0.849223 -0.089476 0.044362 0.728308 0.222629 -0.238212 
347 -0.394814 -0.208270 0.015046 -0.027476 0.576753 -0.047916 -0.152604 1.565876 -0.086469 0.138503 0.911839 -0.334473 -0.345049 0.714996 0.001700 -0.373017 
242 -0.761078 -0.025856 -0.162988 0.118347 0.589652 -0.311798 0.048349 1.622669 -0.062619 -0.133770 0.953667 -0.420537 -0.628131 0.754035 -0.195613 -0.364541 
247 -0.898839 0.062499 -0.145310 0.160274 0.547625 -0.495281 -0.093734 1.843403 -0.167654 -0.278386 0.719638 -0.272548 -0.539344 0.836516 -0.351873 -0.625587 
56 -0.825296 0.017066 -0.207862 0.153240 0.419314 -0.336010 0.056277 1.653195 -0.094793 -0.212558 0.724823 -0.392126 -0.586779 0.722834 -0.339119 -0.516970 
1108 -0.417926 0.134026 0.052758 0.155324 0.272772 -0.173818 0.018078 0.588133 0.080500 -0.164358 0.325880 -0.066505 -0.107901 0.456927 -0.169848 -0.272414 
835 -0.937713 0.084119 -0.081103 0.299316 0.567121 -0.685182 0.027271 1.255070 -0.010542 -0.300914 0.671861 -0.128191 -0.553294 0.801575 -0.201133 -0.369801 
443 -0.663947 -0.020704 -0.224149 0.159924 0.500059 -0.406239 0.092163 1.282232 0.111207 -0.135062 1.102142 -0.386133 -0.603380 0.746085 0.015149 -0.082181 
892 -0.611081 0.160591 0.008002 0.130874 0.267013 -0.195315 -0.015983 0.797103 0.006259 -0.210055 0.484858 -0.113542 -0.163663 0.537013 -0.234127 -0.377161 
283 -0.910854 0.139747 -0.358455 0.236334 0.530634 -0.682897 0.140380 1.352995 0.116816 -0.284906 1.226922 -0.436264 -0.832543 0.895634 -0.047857 -0.070465 
319 -0.928031 0.067722 -0.237896 0.203399 0.583271 -0.459741 0.011635 1.649682 -0.078949 -0.297339 0.918489 -0.351362 -0.720573 0.782353 -0.255446 -0.376652 
2 -0.362951 0.115467 -0.077837 0.892071 -0.170148 -1.429936 -0.823130 0.448805 0.855140 0.681335 0.572156 1.009650 0.203143 1.301185 0.297681 0.459410 
448 -0.284341 0.179937 0.040853 0.931552 -0.195956 -1.420218 -0.940076 0.545088 0.860201 0.673044 0.726548 1.023217 0.184830 1.463195 0.124721 0.462219 
672 -0.194430 0.178125 -0.004478 0.715976 -0.090524 -0.860402 -0.555976 0.373011 0.602262 0.476308 0.496824 0.679505 0.157392 1.013746 0.024671 0.163044 
1218 -0.068969 0.062468 -0.005651 0.137992 -0.011272 -0.166671 -0.107381 0.088733 0.084157 0.051616 0.143947 0.098261 0.042781 0.220719 -0.031370 0.042124 
579 -0.310936 0.235700 0.030960 0.889894 -0.083890 -1.189732 -0.802075 0.472190 0.770799 0.657711 0.622366 0.956967 0.193266 1.347600 0.118382 0.305003 
406 -0.161404 0.411348 0.174335 0.904986 -0.230328 -1.555453 -1.148639 0.602703 1.054561 0.539723 0.834518 1.090852 0.172914 1.537336 -0.062729 0.493672 
391 -0.387565 0.174341 0.021889 0.943421 -0.088544 -1.377866 -0.851526 0.508559 0.848047 0.676867 0.665433 1.034631 0.281222 1.489789 0.229959 0.408089 
716 -0.120783 0.365060 0.137521 0.645484 0.003997 -1.016029 -0.782981 0.279040 0.871396 0.383469 0.563988 0.766248 0.087233 1.089525 -0.066288 0.306633 
109 -0.203339 0.146552 0.003235 0.796480 -0.252135 -1.290166 -0.883693 0.544600 0.621658 0.538890 0.648892 0.879036 0.191938 1.239682 0.017866 0.489436 
765 -0.197640 0.385446 0.124339 0.779558 0.035165 -1.126826 -0.722998 0.264320 0.868356 0.577532 0.583454 0.858443 0.170383 1.255320 0.126627 0.241721 
18 -0.308182 0.113099 -0.070131 0.961447 -0.211173 -1.490285 -0.956264 0.577654 0.811621 0.607736 0.722967 1.011652 0.231594 1.309577 0.095914 0.489126 
643 -0.212161 0.241820 0.101252 0.723171 0.017334 -0.988420 -0.638229 0.317971 0.689976 0.462641 0.521998 0.775322 0.173762 1.131983 0.133025 0.224523 
534 -0.294341 0.105011 0.001201 0.835364 -0.104633 -1.119626 -0.740506 0.459006 0.698999 0.598252 0.583337 0.915458 0.221454 1.293783 0.109990 0.314418 
471 -0.156610 0.298924 0.055468 0.714369 -0.044077 -1.180444 -0.830000 0.319427 0.928095 0.457769 0.566798 0.903789 0.124591 1.257282 -0.022162 0.366416 
856 -0.207273 0.341446 0.065474 0.665412 0.034544 -0.999351 -0.648389 0.327891 0.690808 0.487937 0.542896 0.757597 0.134497 1.115206 0.072029 0.212322 
284 -0.378540 0.317162 0.018284 0.942513 -0.111116 -1.518344 -0.909268 0.470112 0.940677 0.693632 0.640039 1.054363 0.305097 1.484707 0.250832 0.425872 
797 -0.202006 0.354107 0.145217 0.519860 0.192428 -0.807997 -0.406231 0.061819 0.747199 0.397422 0.384589 0.608586 0.148118 1.001158 0.212356 0.106374 
1119 -0.087844 0.044513 0.021163 0.201426 0.067815 -0.159506 -0.129250 0.111746 0.154368 0.144015 0.190051 0.189987 0.025756 0.313302 -0.001056 0.074449 
1120 0.014688 -0.022720 -0.007838 -0.015716 0.009380 0.013120 0.022579 -0.023355 -0.023168 -0.024137 -0.017355 -0.024914 -0.021518 -0.024210 0.006236 0.019167 
481 0.066185 0.343695 0.227304 0.650250 -0.216757 -1.056069 -0.999170 0.476748 0.729246 0.177760 0.739611 0.720423 0.009635 1.014779 -0.376098 0.422947 
619 -0.322465 0.275854 0.049845 0.935320 -0.071918 -1.273170 -0.792092 0.503749 0.842970 0.675093 0.670267 0.916202 0.206798 1.371556 0.170046 0.338742 
677 -0.248897 0.205534 0.041272 0.703517 -0.042084 -0.898742 -0.560709 0.341788 0.640034 0.459906 0.515866 0.698379 0.199213 1.046550 0.097952 0.220965 
361 -0.276168 0.209284 0.013525 0.940529 -0.182472 -1.392500 -1.065352 0.602103 0.920571 0.561989 0.757035 1.026909 0.151733 1.405840 -0.069893 0.508477 
1066 -0.115615 0.172449 0.071910 0.466311 0.016910 -0.619778 -0.455712 0.227186 0.471905 0.239531 0.386609 0.416719 0.045482 0.739085 -0.032952 0.132471 
1095 -0.138448 0.162101 0.119597 0.308941 0.127614 -0.358760 -0.234462 0.144452 0.384710 0.234143 0.255416 0.324588 0.053246 0.594693 0.019707 0.049757 
1004 -0.168798 0.174376 0.005333 0.557785 -0.020034 -0.741526 -0.465027 0.258986 0.481342 0.431964 0.432824 0.576124 0.157725 0.940826 0.018325 0.127888 
237 -0.205265 0.172160 0.016333 0.914720 -0.260823 -1.401855 -0.972726 0.562493 0.909063 0.530888 0.753586 1.006399 0.116332 1.309419 -0.077784 0.503311 
93 -0.350023 0.116844 -0.037695 0.952742 -0.177902 -1.547667 -0.895832 0.544418 0.828983 0.665896 0.675514 1.057486 0.217981 1.435425 0.225553 0.526935 
624 -0.185642 0.160520 0.019975 0.826468 -0.181742 -1.125257 -0.841685 0.485980 0.786705 0.474714 0.681949 0.853582 0.154154 1.201570 -0.088255 0.366086 
477 -0.309628 0.327748 0.105992 0.752924 0.103208 -1.118395 -0.603150 0.137305 0.908556 0.594629 0.431276 0.857556 0.219416 1.264710 0.234238 0.244968 
382 -0.212092 0.766520 0.372129 0.625004 0.253397 -1.300854 -0.650998 -0.035544 1.189625 0.339377 0.530378 0.943491 0.209016 1.308678 0.261779 0.180099 
1015 -0.182155 0.146300 0.023081 0.496720 -0.023208 -0.629341 -0.420837 0.244623 0.447401 0.371068 0.424762 0.487456 0.098885 0.790320 0.100495 0.088822 
1016 -0.157699 0.171885 0.013953 0.479656 0.029652 -0.558100 -0.333265 0.168981 0.386387 0.289409 0.341271 0.465414 0.114238 0.720628 0.004742 0.094720 
875 -0.211841 0.286755 0.108839 0.677109 0.053157 -0.890855 -0.589387 0.232020 0.715992 0.435854 0.508236 0.716011 0.135293 1.096866 0.032736 0.192995 
1018 -0.067562 0.142367 0.054496 0.344487 -0.012282 -0.405725 -0.339043 0.210055 0.350067 0.189297 0.323494 0.357288 0.061049 0.636815 -0.016546 0.103028 
189 -0.275854 0.154703 -0.027237 0.826132 -0.168154 -1.302130 -0.847818 0.529767 0.670395 0.674263 0.636613 0.972684 0.223655 1.278990 0.115924 0.375711 
1278 -0.022032 0.008437 -0.020250 -0.003356 0.011030 0.005284 -0.016422 0.030182 0.000026 -0.024229 -0.003688 0.023226 0.015638 -0.005725 0.006435 -0.006009 
639 -0.269648 0.218836 0.030134 0.818205 0.017464 -1.071993 -0.665052 0.384625 0.704934 0.589299 0.524738 0.872526 0.254876 1.245014 0.133687 0.263695 
384 -0.906850 0.335784 -0.064386 0.294875 0.724073 -1.190639 -0.344981 1.098996 -0.525129 -0.517918 0.771885 0.324380 -0.363947 0.809795 -0.405138 -0.624441 
837 -0.686330 0.181539 -0.042756 0.094088 0.261490 -0.256590 -0.008785 0.977949 0.009860 -0.190218 0.491531 -0.202485 -0.233413 0.646724 -0.350888 -0.452379 
902 -0.522746 0.138497 0.000050 0.200783 0.345331 -0.155429 0.161915 0.514794 0.129181 -0.085272 0.380510 -0.134860 -0.097667 0.480023 -0.197155 -0.338952 
328 -1.106166 0.092301 0.082010 0.280630 0.842994 -1.119813 -0.274141 1.446404 -0.438852 -0.372240 0.448826 0.268868 -0.574227 0.937826 -0.289838 -0.522041 
265 -1.290673 0.103163 -0.086360 0.439548 0.952242 -1.419224 -0.156719 1.496835 -0.303325 -0.620382 0.616741 0.238392 -0.956247 1.017211 -0.316130 -0.478837 
119 -1.031914 0.188058 -0.150815 0.133423 0.406312 -0.435006 -0.050453 1.590905 -0.118555 -0.459235 0.549931 -0.308588 -0.364483 0.793985 -0.512751 -0.751204 
273 -1.090427 0.235474 -0.129378 0.222159 0.587288 -0.708456 0.006388 1.448943 -0.145349 -0.494345 0.501749 -0.122010 -0.515111 0.774006 -0.511020 -0.714335 
599 -0.984416 0.070754 -0.094067 0.412545 0.779059 -1.030595 -0.036672 1.148832 -0.055627 -0.472850 0.707237 0.082028 -0.681737 0.831429 -0.255090 -0.349843 
351 -0.958856 0.459975 -0.165033 -0.091701 0.088348 0.066576 0.022180 1.469260 0.273650 -0.272562 1.008327 -0.678546 0.107756 1.133021 -0.557560 -0.947089 
1248 -0.080730 0.033332 0.026738 0.030762 0.079827 -0.062460 0.019212 0.193153 -0.014951 -0.037832 0.069622 0.037305 -0.052708 0.139381 -0.021584 -0.069569 
164 -1.090507 0.130666 -0.043374 0.342960 0.764719 -1.064731 -0.107864 1.501100 -0.268858 -0.625098 0.422286 0.141769 -0.787215 0.773898 -0.500531 -0.617345 
423 -1.021841 0.402824 -0.093919 0.097716 0.434979 -0.719708 -0.145488 1.371489 -0.214242 -0.464928 0.803850 -0.144360 -0.243706 0.818119 -0.482855 -0.771093 
429 -1.170015 0.107642 0.034922 0.417067 0.912545 -1.159779 -0.105436 1.372600 -0.280866 -0.565026 0.614494 0.195596 -0.745229 0.931086 -0.343538 -0.423215 
1199 -0.368743 0.083533 0.054824 0.084869 0.236583 -0.154389 -0.002033 0.490128 0.054858 -0.104005 0.285121 -0.043667 -0.106591 0.357130 -0.154071 -0.184853 
821 -0.503611 -0.064449 0.134243 0.226087 0.609343 -0.611457 -0.243042 0.816748 -0.247958 -0.010316 0.379687 0.218666 -0.097167 0.740005 -0.068082 -0.274252 
788 -0.908087 0.066537 0.058713 0.303418 0.615356 -0.680548 -0.090675 1.237612 -0.163428 -0.328844 0.501645 0.113994 -0.504052 0.783335 -0.296845 -0.443242 
1215 -0.176144 0.027364 0.041989 0.088724 0.169781 -0.117676 0.012227 0.217498 -0.030708 -0.052160 0.109149 0.015182 -0.051759 0.151183 -0.073003 -0.033863 
4 -0.173916 0.745180 -0.199167 0.013571 0.115782 -0.270725 -0.557438 0.387635 -0.326576 -0.283699 1.708956 -0.176714 0.879455 0.593813 -0.570236 -0.801939 
323 -0.366205 0.555472 -0.093809 0.095513 0.281878 -0.574726 -0.482497 0.536628 -0.425360 -0.272334 1.370341 0.122108 0.465990 0.706312 -0.523563 -0.710712 
260 -0.476026 0.739219 -0.152618 0.047578 0.318371 -0.448664 -0.349540 0.418060 -0.318164 -0.099145 1.612128 -0.014633 0.862326 0.725358 -0.683157 -1.010043 
839 -0.424269 0.380313 -0.003569 0.115497 0.439425 -0.377642 -0.011119 0.297327 -0.075822 0.079157 0.778165 0.195633 0.443119 0.570164 -0.393649 -0.603706 
521 -0.215648 0.546468 -0.093611 0.076037 0.235046 -0.282841 -0.442432 0.576332 -0.256390 -0.209544 1.563329 -0.009305 0.640292 0.757542 -0.536128 -0.858173 
458 -0.230552 0.367013 -0.042074 0.068804 0.354547 -0.480200 -0.521300 0.706120 -0.464086 -0.112123 1.150719 0.187386 0.334260 0.725841 -0.258974 -0.601446 
964 -0.094147 0.265966 0.062315 0.091294 0.202788 -0.084706 -0.291709 0.413803 -0.107542 -0.049208 0.889686 -0.007192 0.313464 0.495472 -0.303364 -0.329810 
78 0.209199 0.342151 -0.124596 -0.091336 0.382030 0.213945 -0.797602 1.075618 -0.331861 -0.099654 1.606004 0.001107 0.770155 0.795716 -0.197932 -0.931004 
79 -0.244601 0.669625 -0.183943 -0.131405 0.036228 0.226418 -0.369392 0.476921 0.141158 -0.360254 1.654097 -0.520958 0.658302 0.902247 -0.636962 -0.808375 
272 -0.652627 0.668032 -0.187641 0.168533 0.702401 -0.710752 0.069492 0.304371 -0.230732 0.148637 1.167955 0.385582 0.917683 0.755691 -0.645996 -1.102310 
465 -0.431891 0.596349 -0.185341 -0.077942 0.019410 0.295428 -0.327267 0.710594 0.196737 -0.328070 1.570617 -0.576318 0.558320 1.108333 -0.686086 -0.970582 
335 -0.448612 0.663277 -0.165133 -0.070093 0.132907 0.099101 -0.184929 0.428570 0.187107 -0.269789 1.484386 -0.463404 0.659883 0.961815 -0.641932 -0.974136 
131 -0.360122 0.844551 -0.202314 -0.048313 0.147597 -0.152057 -0.653328 0.564743 -0.209952 -0.408988 1.968075 -0.275056 0.780144 0.913510 -0.710898 -0.973685 
1230 -0.018752 0.054071 0.017161 0.039961 0.063559 0.034848 -0.034977 0.151981 -0.005738 -0.006679 0.277889 0.015186 0.084719 0.217469 -0.055718 -0.103885 
726 -0.253660 0.384085 -0.007853 0.105243 0.284263 -0.257311 -0.249671 0.391773 -0.204521 -0.079593 1.033362 0.055510 0.416793 0.542017 -0.388881 -0.499647 
87 -0.045857 0.470777 -0.128511 -0.103916 0.181717 0.238416 -0.645196 0.756531 -0.135494 -0.241503 1.680465 -0.306048 0.712689 0.830066 -0.460099 -0.894010 
1112 -0.114093 0.134658 0.001218 0.092812 0.121586 -0.100745 -0.109788 0.242399 -0.045608 -0.055874 0.447941 0.001680 0.126904 0.331011 -0.209917 -0.169645 
388 -0.201998 0.609211 -0.118619 -0.096441 0.084118 0.146865 -0.355701 0.491390 0.106278 -0.245333 1.572428 -0.397530 0.586829 0.919225 -0.578744 -0.827399 
27 -0.230393 0.883922 -0.257677 -0.039324 0.126810 -0.163375 -0.604844 0.447727 -0.297942 -0.327904 1.956046 -0.294144 0.870317 0.731936 -0.657165 -0.809489 
668 -0.285628 0.411055 -0.016646 0.095815 0.286400 -0.425181 -0.417942 0.552165 -0.399925 -0.175540 1.154948 0.084132 0.332387 0.668007 -0.408713 -0.570869 
52 -0.336629 0.704170 -0.184819 -0.142574 -0.022122 0.209448 -0.281058 0.437951 0.176640 -0.290739 1.553003 -0.569061 0.699957 0.882224 -0.644600 -0.832724 
482 -0.250588 0.533612 -0.118550 -0.045225 0.095521 0.149015 -0.403458 0.474773 0.049887 -0.272650 1.569422 -0.374869 0.547073 0.858861 -0.584343 -0.790999 
676 -0.361657 0.427470 -0.035651 0.159025 0.387995 -0.377300 -0.180775 0.394857 -0.159119 -0.021395 1.007411 0.178696 0.549982 0.578124 -0.463822 -0.600858 
1192 -0.020233 0.142990 0.064099 0.066214 0.127954 -0.001516 -0.142541 0.248704 -0.014953 -0.037730 0.486289 -0.007270 0.175983 0.376243 -0.165860 -0.193828 
796 -0.258554 0.324924 0.037783 0.082306 0.337148 -0.372909 -0.403415 0.518631 -0.341213 -0.082592 0.940280 0.150415 0.265082 0.659856 -0.312103 -0.460340 
1159 -0.076916 0.181358 0.015963 0.103786 0.136654 0.065774 -0.167160 0.326560 0.031440 -0.088930 0.691449 -0.049665 0.165140 0.439554 -0.198974 -0.274036 
988 -0.255687 0.240220 -0.004892 0.127409 0.311242 -0.250607 -0.059814 0.233860 -0.021463 0.040626 0.562598 0.127702 0.256752 0.409326 -0.239182 -0.307216 
1070 -0.091058 0.259030 -0.020127 0.068553 0.132061 0.072311 -0.210513 0.414128 -0.016745 -0.113181 0.819098 -0.078946 0.281897 0.559856 -0.285650 -0.356905 
49 -0.254284 0.708363 -0.192882 -0.102306 0.089766 0.151287 -0.427523 0.468124 0.085285 -0.317286 1.664262 -0.511676 0.721698 0.790646 -0.570277 -0.849262 
1139 -0.026510 0.123985 0.035364 0.047303 0.102753 0.009744 -0.151908 0.115431 -0.031887 -0.022403 0.321535 0.020635 0.103646 0.247345 -0.146703 -0.081861 
500 -0.532339 0.598724 -0.133508 0.147552 0.583734 -0.603967 -0.020495 0.332995 -0.168279 0.106397 1.067248 0.272723 0.814730 0.673543 -0.560850 -0.927306 
63 -0.222360 0.660075 -0.095456 0.055359 0.211804 -0.480908 -0.555360 0.547061 -0.496498 -0.211105 1.569346 0.072298 0.640900 0.583469 -0.491160 -0.737876 
1271 0.016332 -0.012195 -0.000119 -0.010669 -0.025293 0.009021 -0.014987 0.025963 -0.019781 -0.019813 0.008979 0.010938 -0.019319 -0.010036 0.019870 0.015892 
505 -0.281096 0.741186 -0.127487 -0.019898 0.155826 -0.007949 -0.512562 0.580507 -0.102362 -0.329813 1.843888 -0.327785 0.677816 0.964752 -0.701408 -0.992988 
1087 -0.076421 0.139919 0.051681 0.103971 0.082664 0.009935 -0.122329 0.176137 0.016803 -0.089389 0.509137 -0.024735 0.204196 0.336196 -0.155064 -0.163606 
202 -0.425485 0.691806 -0.258833 -0.167569 0.049936 0.387943 -0.459142 0.843273 0.257238 -0.326056 1.836296 -0.684041 0.634155 1.133639 -0.743120 -1.086254 
638 -0.309495 0.592593 -0.106742 -0.018879 0.163575 -0.192866 -0.398365 0.668901 -0.150372 -0.218194 1.429008 -0.147420 0.596386 0.801585 -0.542098 -0.836083 
191 0.029271 0.279166 0.033877 0.000538 0.301234 0.275535 -0.586442 0.814505 -0.234224 -0.077820 1.507633 -0.092100 0.599797 0.783064 -0.246330 -0.783031 
5 -0.728665 0.648500 -0.118515 0.233580 0.917740 -0.658465 0.301125 0.253419 -0.071419 0.379165 0.742161 0.332873 0.909839 0.653317 -0.498302 -1.078254 
1024 -0.320932 0.178816 0.031485 0.182055 0.369351 -0.248132 0.134926 0.224254 0.076364 0.136727 0.419488 0.144496 0.366329 0.449227 -0.235379 -0.404527 
1025 -0.210858 0.099945 0.012563 0.097573 0.213830 -0.147537 0.057513 0.166704 0.035403 0.051947 0.239345 0.062231 0.160477 0.272400 -0.136989 -0.172457 
435 -0.748416 0.547707 -0.067334 0.235043 0.870226 -0.679782 0.217563 0.355124 -0.029920 0.300085 0.941663 0.343728 0.907876 0.818394 -0.505648 -1.137585 
75 -0.769776 0.696372 -0.159231 0.263269 0.958681 -0.776632 0.209869 0.300237 -0.121397 0.334717 0.975238 0.406408 0.982460 0.739572 -0.565160 -1.216756 
904 -0.458006 0.330941 0.023060 0.249301 0.513667 -0.396564 0.106072 0.194305 0.043563 0.171610 0.640108 0.204284 0.488282 0.550792 -0.351055 -0.599445 
1227 -0.173880 0.098368 0.040951 0.117233 0.214585 -0.081076 0.060894 0.116583 0.104040 0.029193 0.158149 -0.003649 0.135244 0.318544 -0.095886 -0.179259 
1164 -0.387116 0.211739 0.026705 0.268481 0.413958 -0.235129 0.162688 0.163361 0.158306 0.142304 0.371114 0.098168 0.260806 0.478929 -0.183554 -0.336721 
333 -0.965108 0.550590 0.009477 0.416232 1.131940 -0.701057 0.501177 0.254187 0.277988 0.495753 0.563917 0.238829 0.832371 0.837929 -0.454201 -1.211292 
657 -0.738262 0.409734 0.048075 0.303022 0.865260 -0.462505 0.361151 0.322050 0.239784 0.340151 0.515372 0.164580 0.605469 0.705819 -0.348490 -0.886760 
338 -0.973982 0.682485 -0.058535 0.387673 1.100135 -0.734475 0.434112 0.273035 0.098663 0.517463 0.764886 0.339195 0.954068 0.881265 -0.603883 -1.314118 
603 -0.719080 0.423301 -0.052406 0.322999 0.864650 -0.561005 0.282430 0.271072 0.123009 0.343688 0.685010 0.281511 0.717883 0.743828 -0.394297 -0.935760 
378 -0.796028 0.631976 -0.109052 0.284836 0.995306 -0.696038 0.267707 0.360928 -0.026955 0.392428 0.941747 0.344068 0.992017 0.876775 -0.592080 -1.210475 
543 -0.822159 0.487340 -0.062144 0.383539 0.923467 -0.557992 0.364870 0.287268 0.132688 0.389588 0.641523 0.236096 0.787797 0.762322 -0.457382 -1.021088 
98 -0.670270 0.774434 -0.198746 0.178902 0.767471 -0.704973 0.093958 0.302779 -0.195016 0.204551 1.128496 0.332409 1.043830 0.774892 -0.602852 -1.160722 
923 -0.460190 0.227416 0.021775 0.194072 0.492165 -0.370281 0.158762 0.233261 0.098062 0.210060 0.464255 0.190895 0.429211 0.494696 -0.257610 -0.513809 
40 -0.792904 0.665874 -0.155076 0.279970 0.959164 -0.709754 0.346747 0.196746 -0.062117 0.395504 0.786298 0.362252 1.006807 0.727028 -0.576871 -1.169335 
1258 -0.022484 0.028910 -0.019931 0.014270 0.019781 0.003734 -0.023138 -0.019678 0.029932 0.002830 -0.011775 -0.030756 -0.001538 0.001905 -0.027962 0.003150 
750 -0.530140 0.331805 -0.014278 0.244750 0.597943 -0.432546 0.203481 0.228237 0.080677 0.226852 0.606760 0.223274 0.505546 0.586682 -0.382343 -0.693149 
392 -0.765474 0.638243 -0.120647 0.347617 0.967831 -0.731164 0.316233 0.329397 -0.003126 0.381894 0.821689 0.351074 0.938582 0.852638 -0.555517 -1.172162 
562 -0.700338 0.484796 0.015414 0.306332 0.927086 -0.597822 0.304110 0.251787 0.068337 0.338987 0.712416 0.312338 0.811657 0.776969 -0.478761 -1.001224 
819 -0.514132 0.294912 0.014083 0.211118 0.586729 -0.412992 0.152927 0.194972 0.108829 0.201340 0.511686 0.225828 0.504849 0.568607 -0.348317 -0.690183 
948 -0.532336 0.306652 0.060111 0.259531 0.508023 -0.300546 0.216551 0.193216 0.180989 0.122568 0.452753 0.009646 0.394705 0.579583 -0.261714 -0.536437 
117 -1.080086 0.794689 -0.112100 0.354675 1.156161 -0.750046 0.531855 0.226154 0.175179 0.465772 0.751067 0.254239 1.107427 0.912616 -0.558118 -1.437897 
566 -0.792956 0.448628 0.005564 0.341428 0.860192 -0.581449 0.316175 0.272611 0.169158 0.319508 0.579489 0.214987 0.707347 0.709661 -0.395693 -0.949464 
695 -0.729822 0.439493 0.000221 0.306866 0.805057 -0.527250 0.299531 0.253843 0.196733 0.275379 0.578178 0.217797 0.657010 0.722403 -0.359153 -0.841735 
634 -0.545697 0.400943 -0.055879 0.196310 0.578883 -0.458305 0.121157 0.251062 -0.016902 0.201790 0.774968 0.231577 0.673697 0.615866 -0.405243 -0.756088 
511 -0.767733 0.543446 -0.058300 0.272406 0.949064 -0.687230 0.292720 0.296743 0.055189 0.335151 0.875314 0.369057 0.876074 0.844028 -0.553686 -1.141350 
318 -0.685782 0.667408 -0.125142 0.228610 0.852752 -0.693001 0.214243 0.283487 -0.064322 0.298990 1.008871 0.375432 1.017293 0.804138 -0.608920 -1.084678 
575 -0.697822 0.487280 -0.070748 0.251101 0.770525 -0.576841 0.191441 0.251079 0.073026 0.258681 0.868829 0.273840 0.815727 0.767852 -0.450223 -0.988384 
6 -0.658721 -0.385552 0.784477 1.086060 0.649478 0.525673 0.475953 0.615895 0.899938 0.562848 0.476403 -0.856419 -0.891117 0.850355 -0.145683 0.770966 
256 -0.505996 -0.596127 0.635670 1.024627 0.687929 0.436127 0.584058 0.845249 0.737733 0.558249 0.520193 -0.874215 -0.960076 1.043470 -0.321093 0.580580 
1091 -0.563022 -0.158377 0.355319 0.581026 0.426148 0.174668 0.443601 0.634769 0.409456 0.400649 0.460104 -0.465015 -0.484893 0.703353 -0.155496 0.333207 
772 -0.600165 -0.398909 0.680940 1.002303 0.738989 0.464964 0.674395 0.922732 0.848332 0.666449 0.400063 -0.646736 -0.811269 1.023103 -0.332823 0.526430 
1221 -0.110724 0.005436 0.087906 0.056928 0.096518 0.028206 0.087422 0.113260 0.083792 0.015204 0.054438 -0.030826 0.007882 0.177426 -0.016642 0.014644 
1161 -0.267108 0.006230 0.165467 0.325535 0.226233 -0.016310 0.198095 0.283157 0.161036 0.086915 0.359132 -0.246535 -0.172415 0.451753 -0.053979 0.186608 
330 -0.613283 -0.467068 0.688774 1.135122 0.723253 0.505524 0.549264 0.810031 0.754570 0.549446 0.596213 -0.910501 -0.937887 0.996435 -0.189924 0.688573 
13 -0.529466 -0.601737 0.971070 1.128437 0.821471 0.691852 0.597630 1.041497 1.100105 0.817129 0.296474 -0.723775 -0.887261 0.967803 -0.415085 0.720951 
142 -0.858176 -0.378345 0.714312 0.934187 0.697206 0.379030 0.976098 0.926665 1.083898 0.853061 0.376818 -0.771146 -0.793043 1.119095 -0.281428 0.440514 
208 -0.795274 -0.040392 0.646624 0.925619 0.570157 0.529569 0.342821 0.488648 0.671559 0.522755 0.311459 -0.509688 -0.462249 0.610470 0.111335 0.803148 
145 -0.809720 -0.286159 0.723180 1.098627 0.615825 0.425769 0.522191 0.575910 0.766181 0.478698 0.667674 -1.010072 -0.852195 0.898237 0.008208 0.774918 
914 -0.459064 -0.378309 0.561708 0.804936 0.639823 0.379081 0.501017 0.773476 0.636557 0.579654 0.402901 -0.477468 -0.590363 0.852569 -0.321605 0.477507 
238 -1.095596 0.370523 0.596898 0.890864 0.579202 0.248190 0.371136 0.159566 0.712131 0.171449 0.675654 -0.776440 -0.344387 0.785408 0.384893 0.763647 
345 -1.012844 0.027913 0.708502 0.962874 0.717730 0.385400 0.601914 0.484131 0.928540 0.559745 0.486106 -0.836160 -0.565513 0.934155 0.185579 0.717034 
728 -0.819510 0.283694 0.483629 0.663724 0.490183 0.180767 0.250284 0.189603 0.544726 0.135621 0.505486 -0.558520 -0.202696 0.636282 0.218053 0.513072 
1252 0.004867 0.022094 -0.005418 -0.000796 -0.006183 -0.018688 0.009242 0.000218 -0.020780 0.027187 -0.027386 -0.026924 0.025890 -0.004274 -0.004531 0.007161 
1242 -0.198803 0.014318 0.069208 0.188764 0.135888 0.011931 0.090997 0.207431 0.133134 0.061544 0.204506 -0.112402 -0.090294 0.241253 -0.067065 0.103910 
475 -0.695761 -0.633644 0.971417 1.197129 0.981941 0.705446 0.762429 1.155419 1.160916 0.835222 0.379403 -0.747743 -0.910751 1.187751 -0.414594 0.644476 
924 -0.490175 -0.168425 0.526219 0.572218 0.566009 0.397485 0.357133 0.662618 0.572918 0.531556 0.144132 -0.281793 -0.360297 0.668286 -0.208205 0.468003 
866 -0.400381 -0.321448 0.479672 0.751664 0.498042 0.341732 0.421550 0.685162 0.533479 0.439488 0.444177 -0.544634 -0.636767 0.756737 -0.278524 0.395632 
1054 -0.461928 -0.019357 0.379182 0.620756 0.382480 0.203906 0.330924 0.425582 0.427651 0.296828 0.470140 -0.387538 -0.377500 0.641547 -0.072337 0.387847 
965 -0.573361 -0.248573 0.282433 0.716758 0.393596 0.111566 0.544727 0.758842 0.396274 0.357278 0.689327 -0.673702 -0.666259 0.823701 -0.170457 0.388646 
1056 -0.436688 -0.025011 0.325991 0.523477 0.399469 0.191590 0.328575 0.399329 0.377369 0.281821 0.373501 -0.352969 -0.288109 0.621707 -0.126544 0.325330 
674 -0.630652 -0.545204 0.807363 1.125072 0.799713 0.534045 0.581092 0.982833 0.845137 0.678330 0.512894 -0.807031 -0.893483 1.091112 -0.311542 0.660267 
1019 -0.422218 -0.252946 0.449589 0.686016 0.456301 0.227463 0.428055 0.579454 0.438654 0.384917 0.461381 -0.540823 -0.552405 0.721354 -0.201677 0.422491 
1124 -0.402505 0.029624 0.373964 0.344419 0.378749 0.213007 0.233161 0.359088 0.387089 0.310508 0.172442 -0.132438 -0.078466 0.504113 -0.108890 0.218915 
805 -0.722203 0.265281 0.425106 0.602366 0.523210 0.223398 0.297875 0.264458 0.487249 0.099623 0.484620 -0.544318 -0.226443 0.678308 0.151913 0.474287 
81 -0.639411 -0.568399 1.015289 1.125880 0.870642 0.671236 0.648315 1.003646 1.094726 0.804927 0.270635 -0.620560 -0.843124 0.991757 -0.321132 0.714021 
106 -0.799744 -0.403750 0.487923 1.047322 0.524668 0.325829 0.621368 0.870460 0.711204 0.486478 0.790287 -1.170167 -1.026562 0.996544 -0.174973 0.705265 
555 -1.002098 0.544429 0.491584 0.706037 0.574933 0.106062 0.309399 0.034379 0.549719 0.101147 0.632746 -0.489809 -0.109699 0.726664 0.370708 0.543113 
684 -0.473808 -0.451613 0.620570 0.921693 0.602999 0.409304 0.517836 0.772974 0.669087 0.505153 0.531033 -0.739897 -0.816896 0.878027 -0.263837 0.515982 
813 -0.461653 -0.330424 0.517711 0.796040 0.537272 0.381286 0.387872 0.700959 0.535576 0.437542 0.454508 -0.557998 -0.664679 0.778714 -0.238557 0.496374 
1006 -0.594194 -0.078826 0.565885 0.640207 0.590281 0.402865 0.463549 0.587730 0.682267 0.585483 0.200976 -0.324487 -0.332573 0.756210 -0.086260 0.528066 
815 -0.597171 -0.356894 0.568799 0.993022 0.637224 0.345091 0.550930 0.805346 0.628898 0.496122 0.614457 -0.785493 -0.797494 0.992432 -0.212989 0.563771 
1137 -0.444949 -0.131593 0.257268 0.475545 0.303193 0.091760 0.328315 0.529091 0.259092 0.271341 0.499778 -0.414516 -0.364576 0.647465 -0.129731 0.288674 
882 -0.576217 -0.287776 0.707531 0.801494 0.739429 0.462964 0.484003 0.776208 0.805001 0.670455 0.238273 -0.357618 -0.521001 0.869186 -0.232492 0.582522 
773 -0.577942 -0.125758 0.528120 0.709202 0.511532 0.374767 0.334152 0.502467 0.558485 0.435240 0.273804 -0.390413 -0.362941 0.612720 -0.070292 0.510098 
759 -0.695619 -0.391625 0.684559 1.086852 0.700550 0.423936 0.551026 0.777413 0.715583 0.498058 0.635728 -0.892487 -0.883807 1.046065 -0.189144 0.665835 
504 -0.522296 -0.484127 0.765579 1.018292 0.788165 0.570080 0.549384 0.939452 0.848337 0.692914 0.308830 -0.643111 -0.749909 0.898389 -0.285998 0.614858 
1140 -0.283756 -0.076002 0.218624 0.382202 0.311318 0.097131 0.221607 0.404494 0.221399 0.165009 0.365730 -0.285157 -0.233117 0.517313 -0.082172 0.191099 
997 -0.375091 -0.266506 0.422958 0.683348 0.432862 0.300237 0.402526 0.602740 0.404295 0.411693 0.423228 -0.483319 -0.527530 0.702844 -0.233758 0.402267 
252 -0.644434 -0.549801 0.793454 1.115365 0.769284 0.489603 0.717519 0.947420 0.899141 0.657333 0.561620 -0.896566 -0.995921 1.093984 -0.370338 0.652147 
1086 -0.442090 -0.196857 0.403312 0.613329 0.415429 0.230674 0.347825 0.531980 0.413269 0.411999 0.361859 -0.418628 -0.459165 0.689522 -0.148181 0.395143 
7 0.674376 0.730900 0.471529 0.182517 0.635144 -0.410054 -0.597531 -0.030105 0.709158 -0.511004 0.587486 0.748214 -0.035831 0.761861 -0.990078 -0.113843 
321 0.694036 0.747347 0.517302 0.273483 0.811033 -0.300201 -0.638742 -0.068002 0.809419 -0.470288 0.566642 0.779928 0.099374 0.929768 -1.123889 -0.066827 
963 0.313827 0.397858 0.323120 0.265961 0.557050 0.027898 -0.423160 -0.033964 0.511681 -0.211435 0.307683 0.373860 0.137178 0.637077 -0.678517 0.074382 
1222 0.137749 0.295293 0.213996 0.138866 0.173960 -0.221311 -0.269798 0.166211 0.304974 -0.113075 0.327681 0.229832 -0.007972 0.422701 -0.295624 0.038448 
200 0.606900 0.900319 0.698847 0.241584 0.137937 -0.879037 -0.993501 0.356128 0.833917 -0.387163 0.987468 0.678050 -0.136865 0.972343 -0.874797 0.195609 
846 0.512777 0.914141 0.611822 0.092505 0.470736 -0.453191 -0.706304 0.033422 0.813211 -0.388780 0.790660 0.454043 0.007339 0.812496 -0.738729 0.084275 
16 0.687573 0.732886 0.519912 0.167886 0.689100 -0.397634 -0.590464 0.035814 0.715653 -0.459417 0.616304 0.749808 0.011997 0.801977 -1.068700 -0.158238 
1234 0.139484 0.175620 0.175531 0.145925 0.230889 -0.119196 -0.105705 0.097410 0.225243 -0.123090 0.225920 0.201312 0.055018 0.342294 -0.317000 0.015881 
1235 0.122141 0.234731 0.169255 0.154391 0.202534 -0.198183 -0.247984 0.126374 0.242292 -0.102601 0.276145 0.222922 0.009148 0.407514 -0.306458 0.040309 
1045 0.533902 0.570095 0.431138 0.298199 0.434879 -0.157855 -0.630011 0.081499 0.612843 -0.376100 0.510826 0.510470 0.035676 0.783880 -0.859888 0.108057 
1239 0.091156 0.160137 0.158722 0.160341 0.159995 -0.144542 -0.233295 0.081061 0.208228 -0.068606 0.197286 0.217521 0.027597 0.323139 -0.236584 0.058729 
474 0.685313 0.779940 0.588416 0.289600 0.875771 -0.187588 -0.680834 -0.083114 0.822896 -0.459522 0.569649 0.753185 0.193328 1.010087 -1.146236 -0.045142 
1263 -0.002385 0.070623 0.063281 0.086800 0.050800 -0.093457 -0.101119 0.038468 0.073383 0.016349 0.104676 0.085753 -0.018109 0.125148 -0.071777 0.005947 
92 0.665740 0.731644 0.542010 0.286655 0.885961 -0.165293 -0.655127 -0.108869 0.833736 -0.507550 0.506088 0.698885 0.125454 0.976413 -1.092849 -0.084294 
549 0.530754 1.405252 0.876404 0.155092 0.935033 -0.642415 -0.547963 -0.254795 1.401358 -0.399022 0.912205 0.702584 0.108623 1.137116 -0.749853 -0.126588 
803 0.580740 0.711327 0.572877 0.320513 0.815485 -0.152273 -0.646295 -0.082529 0.763461 -0.380115 0.475907 0.620995 0.174167 0.918797 -1.094001 0.029147 
710 0.668505 0.890289 0.583523 0.210240 0.462693 -0.552728 -0.797232 0.224349 0.718670 -0.426575 0.843730 0.676406 -0.112948 0.872644 -1.058527 0.069497 
615 0.640739 0.705258 0.528004 0.297690 0.755126 -0.198732 -0.612586 -0.024544 0.740696 -0.416398 0.514785 0.685984 0.135064 0.927435 -1.102424 0.038671 
874 0.657245 0.736019 0.601234 0.213268 0.358957 -0.369009 -0.835553 0.249258 0.638616 -0.474279 0.796393 0.530356 -0.118027 0.896837 -1.023742 0.187316 
786 0.681175 0.944925 0.759372 0.183816 0.438137 -0.536726 -1.026621 0.275134 0.820282 -0.473733 0.975538 0.542608 -0.095266 0.924062 -1.176999 0.220776 
878 0.533998 0.630119 0.468913 0.202229 0.621249 -0.210478 -0.537639 0.052710 0.596574 -0.389554 0.516572 0.580645 0.102507 0.784883 -0.975477 0.004625 
879 0.472412 0.590208 0.434917 0.255394 0.555327 -0.234077 -0.552440 0.003093 0.574819 -0.307400 0.446180 0.530417 0.081102 0.797869 -0.895494 0.056650 
1136 0.339337 0.402521 0.283843 0.231498 0.289591 -0.220653 -0.354434 0.104509 0.326581 -0.244790 0.450526 0.334980 0.034425 0.556958 -0.556614 0.129541 
1012 0.336816 0.467490 0.349872 0.209208 0.505299 -0.033990 -0.418384 0.029432 0.501227 -0.277135 0.349054 0.435084 0.099055 0.641023 -0.705605 0.059890 
245 0.753804 0.875055 0.734984 0.339882 0.605618 -0.227580 -0.979059 0.074370 0.800322 -0.580240 0.602557 0.674745 -0.089475 1.017077 -1.341587 0.143815 
1273 0.011945 -0.006931 -0.022421 -0.027628 0.022981 -0.011907 0.014892 -0.016254 0.011310 -0.015098 -0.006190 -0.005082 -0.016197 -0.029129 0.005590 -0.016799 
293 0.697933 0.800138 0.541184 0.269499 0.870086 -0.143283 -0.669315 -0.142985 0.891598 -0.469355 0.553751 0.782956 0.166499 0.981763 -1.165667 -0.014088 
223 0.753226 0.868480 0.704503 0.247865 0.491305 -0.429526 -0.947524 0.235658 0.723831 -0.642727 0.790522 0.694146 -0.205190 0.983072 -1.347781 0.075860 
62 0.656353 0.835713 0.709096 0.294341 0.088170 -0.759920 -1.103999 0.524454 0.604870 -0.491216 0.988440 0.562598 -0.354547 0.830257 -1.227236 0.254868 
1013 0.375871 0.424989 0.356199 0.220201 0.467935 -0.212881 -0.428122 0.056465 0.473645 -0.308036 0.400726 0.446183 0.042622 0.676777 -0.700112 0.018704 
8 0.193503 -0.590810 0.533528 -0.022588 0.974468 0.224048 -0.506974 1.443952 -0.114409 0.632205 0.741324 0.034653 0.137851 0.636205 0.278693 -0.297720 
65 0.108644 -0.556328 0.451663 -0.036751 0.987652 0.203139 -0.449380 1.713516 -0.076002 0.686717 0.956324 -0.086881 -0.006170 0.741757 0.239013 -0.307059 
387 -0.062679 -0.383858 0.217098 0.104552 0.770218 0.130675 -0.300435 1.457461 -0.057951 0.467796 0.905019 -0.159090 -0.138240 0.668788 0.191485 -0.179458 
518 0.169124 -0.535312 0.586852 0.145681 0.982852 0.395454 -0.541299 1.607672 -0.155160 0.578683 0.857235 0.124895 0.307083 0.994103 0.338923 -0.413377 
263 0.162387 -0.580036 0.555467 0.065245 1.075104 0.273798 -0.518036 1.478106 -0.158620 0.647262 0.746751 0.098007 0.177350 0.775194 0.346609 -0.250877 
456 0.216205 -0.611849 0.745862 0.198124 1.285303 0.210278 -0.719867 1.898468 -0.337263 0.673965 0.943732 0.366315 0.443297 1.273522 0.462869 -0.522485 
777 -0.006372 -0.462572 0.435139 0.112103 0.810252 0.145560 -0.470402 1.329328 -0.135236 0.462387 0.757090 0.093129 0.160076 0.786793 0.199946 -0.240732 
12 0.246475 -0.621355 0.628177 0.074706 1.108950 0.409800 -0.597728 1.795361 -0.198313 0.719811 0.895065 0.129005 0.303098 0.956927 0.333837 -0.494386 
464 0.160107 -0.559821 0.631098 0.136859 1.164345 0.261319 -0.613906 1.636887 -0.257490 0.628842 0.731046 0.221662 0.355367 1.027411 0.378016 -0.377426 
978 -0.012384 -0.155008 0.236039 0.133459 0.390734 0.088119 -0.290973 0.559829 -0.037558 0.150565 0.308396 0.046049 0.162765 0.464318 0.043007 -0.094933 
660 -0.152212 -0.214919 0.196286 0.120969 0.543618 0.075223 -0.199672 0.943101 -0.033819 0.239122 0.595628 -0.063928 -0.093916 0.527782 0.092855 -0.110465 
21 0.197639 -0.610773 0.567133 -0.043364 1.052645 0.196223 -0.560727 1.491841 -0.134254 0.681862 0.789263 0.073090 0.194459 0.773934 0.292518 -0.328906 
535 0.093727 -0.448087 0.460820 0.164964 0.873571 0.291083 -0.466485 1.351093 -0.113915 0.499030 0.730226 0.044750 0.170993 0.764988 0.264417 -0.233926 
862 0.066585 -0.348631 0.336587 0.115028 0.616227 0.189043 -0.346841 0.936453 -0.053660 0.341887 0.551368 0.015679 0.143067 0.588903 0.150620 -0.147634 
159 0.156030 -0.601815 0.582817 0.036624 1.124420 0.219008 -0.530749 1.525195 -0.151649 0.735457 0.805036 0.078862 0.194913 0.846320 0.319643 -0.291393 
865 -0.013090 -0.317526 0.292421 0.113503 0.589629 0.245754 -0.339669 1.143826 -0.080419 0.328889 0.670345 -0.029840 0.176828 0.660401 0.113422 -0.255884 
614 -0.018705 -0.491468 0.353199 0.091729 0.918480 0.104356 -0.424923 1.508412 -0.211520 0.523230 0.812060 0.039808 0.102207 0.810614 0.224588 -0.287987 
359 0.151083 -0.573762 0.638684 0.170278 1.078737 0.381325 -0.580374 1.514945 -0.178023 0.642020 0.687115 0.185124 0.303767 0.931058 0.381458 -0.402939 
584 0.160435 -0.560920 0.547175 0.180570 1.046748 0.273043 -0.600100 1.670015 -0.173579 0.636555 0.890350 0.145442 0.290869 1.050030 0.341718 -0.374051 
583 0.150962 -0.567885 0.649079 0.201023 1.191686 0.319696 -0.593838 1.783833 -0.198385 0.613846 0.925997 0.209921 0.362612 1.110509 0.342739 -0.383669 
492 0.163858 -0.552619 0.630547 0.167042 1.050626 0.387766 -0.558687 1.507117 -0.161306 0.510760 0.778977 0.189069 0.283088 0.918902 0.305223 -0.352061 
173 0.114018 -0.633533 0.606229 0.016241 1.201499 0.290373 -0.541285 1.713445 -0.188670 0.740758 0.904148 0.069812 0.147343 0.879176 0.363393 -0.351157 
48 0.204615 -0.523098 0.665645 0.052721 1.106464 0.251429 -0.612845 1.534733 -0.262697 0.700772 0.642945 0.250234 0.310545 0.861246 0.352233 -0.338247 
305 0.169789 -0.549524 0.714566 0.116391 1.174662 0.249991 -0.584937 1.684638 -0.229193 0.708447 0.716161 0.225782 0.310528 1.000682 0.378568 -0.411836 
1074 0.024792 -0.144194 0.157027 0.119927 0.371042 0.119538 -0.200067 0.541215 -0.077182 0.146692 0.325828 0.064521 0.160936 0.397202 0.074524 -0.125142 
690 0.128576 -0.456450 0.499840 0.186848 0.997804 0.150283 -0.596918 1.539074 -0.232590 0.512904 0.784815 0.258416 0.355645 0.987621 0.287793 -0.458511 
673 0.106560 -0.506253 0.557289 0.209197 0.969957 0.315556 -0.535086 1.535157 -0.134825 0.535157 0.797790 0.175396 0.301199 0.989849 0.323222 -0.330250 
1275 -0.011060 -0.001130 0.012702 -0.008907 -0.026873 0.008939 0.026796 0.022350 -0.018695 -0.028669 -0.002654 0.014215 0.002795 -0.003247 -0.030748 -0.004451 
9 0.567132 0.393136 -0.523147 0.935705 0.377784 0.722251 -0.492079 0.504061 -0.216019 0.905707 0.292769 0.244776 0.001494 1.581265 -0.587920 0.864802 
386 0.386839 0.499845 -0.425326 1.036274 0.390888 0.598380 -0.335983 0.585952 -0.185621 1.053455 0.520318 0.293538 0.168444 2.061689 -0.626719 1.018825 
1035 0.167600 0.224264 -0.257849 0.532809 0.236470 0.348485 -0.178203 0.275825 -0.108632 0.546011 0.427670 0.249737 -0.002351 1.418004 -0.440360 0.650369 
178 0.803514 0.569562 -0.229310 1.567871 0.684524 0.686265 -0.598944 0.829896 0.202493 1.071588 0.294458 0.209287 0.335235 1.487605 -0.250360 0.785568 
438 0.565152 0.352103 -0.145731 1.241347 0.612236 0.436937 -0.496183 0.616924 0.156852 0.760170 0.328291 0.159414 0.227226 1.245698 -0.193462 0.605807 
775 0.520802 0.324949 -0.065228 1.249049 0.543404 0.477893 -0.454462 0.718178 0.152432 0.848032 0.287861 0.163389 0.192559 1.341206 -0.230370 0.590888 
15 0.647355 0.387142 -0.217164 1.180899 0.553288 0.557334 -0.488605 0.614469 0.100200 0.768710 0.154739 0.146675 0.185369 1.112856 -0.151738 0.537961 
74 0.704799 0.614788 -0.404206 1.203553 0.372714 0.616921 -0.345785 0.710119 -0.081624 1.053522 0.354068 0.199167 0.219345 1.744799 -0.522980 0.902758 
587 0.282815 0.350465 -0.296726 0.789433 0.325962 0.437580 -0.277887 0.426373 -0.110654 0.688131 0.398038 0.192948 0.113901 1.533680 -0.460978 0.768051 
239 0.111498 0.345332 -0.436804 0.548370 0.271662 0.553268 -0.353460 0.364231 -0.326832 0.907643 0.558621 0.391919 -0.109109 1.961655 -0.824854 0.961218 
1085 0.046180 0.103273 -0.049732 0.280840 0.149969 0.096343 -0.085889 0.170832 -0.038450 0.211654 0.292346 0.083430 0.035505 0.712810 -0.230369 0.240446 
654 0.070590 0.256063 -0.345614 0.481847 0.248253 0.495684 -0.291800 0.336848 -0.198288 0.727135 0.574754 0.362804 -0.038200 1.826161 -0.634953 0.826085 
527 0.511828 0.326259 -0.214190 1.130398 0.494905 0.514710 -0.478338 0.574212 0.009131 0.834609 0.312668 0.189448 0.110021 1.497399 -0.364989 0.724792 
209 0.700824 0.538409 -0.402311 1.283034 0.521382 0.635262 -0.472000 0.685760 -0.108399 1.010688 0.401215 0.231072 0.157194 1.763139 -0.476668 0.939966 
947 0.102604 0.274975 -0.275969 0.520503 0.246285 0.406939 -0.195668 0.320054 -0.136741 0.655554 0.518497 0.320156 -0.023447 1.632086 -0.539959 0.733235 
739 0.500864 0.291873 -0.064446 1.056819 0.524245 0.396455 -0.465874 0.589047 0.104522 0.640117 0.245815 0.175063 0.179694 1.094573 -0.173853 0.495327 
20 0.693344 0.393126 -0.199935 1.226202 0.611618 0.587836 -0.514852 0.644215 0.061610 0.837598 0.203935 0.188842 0.193309 1.217965 -0.177390 0.585671 
405 0.536398 0.438560 -0.374348 1.200621 0.539253 0.655904 -0.459342 0.683053 -0.005796 0.998019 0.435657 0.217382 0.097856 1.749065 -0.485915 0.901040 
407 0.074331 0.296284 -0.366363 0.498826 0.241921 0.543066 -0.291916 0.327211 -0.221764 0.785615 0.530026 0.338830 -0.088985 1.862273 -0.719275 0.852401 
883 0.043166 0.224645 -0.262617 0.402922 0.279042 0.370955 -0.234715 0.279381 -0.134530 0.577343 0.480833 0.306742 -0.107265 1.494372 -0.580399 0.741125 
604 0.152026 0.246014 -0.366068 0.606967 0.339977 0.532236 -0.361331 0.326819 -0.177910 0.762575 0.543971 0.370732 -0.063458 1.774997 -0.659333 0.861874 
285 0.335835 0.457101 -0.520448 0.966190 0.462112 0.680679 -0.530473 0.582500 -0.270709 1.122795 0.582449 0.385951 -0.010039 2.116675 -0.832214 1.047581 
1055 0.132781 0.132046 -0.076834 0.407398 0.243780 0.154688 -0.142580 0.245868 0.022654 0.290609 0.205160 0.070734 0.048471 0.648839 -0.140069 0.279780 
931 0.395466 0.251979 -0.052338 0.902144 0.445334 0.312256 -0.393010 0.483764 0.170068 0.531437 0.285220 0.158165 0.159860 0.963980 -0.147159 0.425135 
295 0.183036 0.269786 -0.442234 0.543176 0.263932 0.521582 -0.384291 0.307106 -0.229326 0.848365 0.526675 0.375947 -0.122307 1.850465 -0.775431 0.833059 
59 0.578461 0.407423 -0.269089 1.204900 0.526255 0.586440 -0.498151 0.639862 0.045919 0.812050 0.218925 0.186407 0.100235 1.230420 -0.281579 0.621959 
1065 0.345614 0.309808 -0.131282 0.872531 0.305185 0.309856 -0.259945 0.479212 0.042283 0.625948 0.307184 0.118066 0.193731 1.253483 -0.207903 0.597134 
135 0.686372 0.445634 -0.355656 1.253692 0.601047 0.691441 -0.554728 0.646083 0.019195 0.942310 0.288316 0.211748 0.126888 1.596200 -0.412727 0.832239 
679 0.059898 0.211474 -0.280657 0.429391 0.223755 0.384296 -0.247055 0.301585 -0.166800 0.672665 0.472885 0.322315 -0.087642 1.580262 -0.611623 0.746538 
1071 0.320391 0.328894 -0.170635 0.814067 0.324142 0.338577 -0.237796 0.408950 -0.041195 0.674426 0.392294 0.170659 0.157522 1.421554 -0.294873 0.686404 
287 0.542233 0.404720 -0.323806 1.099579 0.494581 0.602184 -0.459649 0.600480 -0.059005 0.869770 0.377101 0.226739 0.119579 1.661458 -0.438510 0.856656 
177 0.153239 0.289594 -0.467357 0.545167 0.237134 0.560567 -0.388620 0.385628 -0.345707 0.891357 0.566959 0.362681 -0.160658 1.999997 -0.885263 1.010977 
1202 0.103288 0.149504 0.066403 0.366992 0.193008 0.098426 -0.139590 0.252922 0.062817 0.219711 0.173588 0.065893 0.094722 0.500535 -0.062547 0.190356 
1075 0.186685 0.151561 0.011326 0.591018 0.313714 0.152235 -0.184478 0.342965 0.055121 0.365328 0.212479 0.062880 0.098947 0.734599 -0.128081 0.345229 
564 0.520387 0.387154 -0.123991 1.197000 0.575073 0.495685 -0.433122 0.611352 0.113262 0.746762 0.283382 0.175129 0.208772 1.368422 -0.262204 0.629993 
949 0.117568 0.211653 -0.260248 0.441667 0.217633 0.334018 -0.197561 0.275637 -0.110687 0.583194 0.471785 0.256697 -0.041168 1.451088 -0.490649 0.691830 
1078 -0.034394 0.094339 -0.026994 0.206995 0.114016 0.080709 -0.103999 0.127280 0.018512 0.167863 0.227257 0.087930 0.046912 0.538381 -0.203983 0.212547 
617 0.152708 0.273358 -0.352205 0.539964 0.248233 0.441439 -0.269572 0.313114 -0.182629 0.694137 0.534933 0.326557 -0.044952 1.817727 -0.636072 0.804698 
212 0.836628 0.608066 -0.209442 1.682139 0.725439 0.654442 -0.570944 0.925238 0.195527 1.110141 0.345989 0.184207 0.363723 1.687756 -0.304828 0.862966 
250 0.778231 0.517875 -0.210151 1.595564 0.653389 0.652403 -0.637630 0.915511 0.100081 1.107739 0.402910 0.214085 0.294544 1.709293 -0.292643 0.934326 
863 0.318871 0.281007 -0.201466 0.801729 0.387874 0.380548 -0.313219 0.439279 -0.078882 0.666200 0.340978 0.192615 0.047200 1.306037 -0.346671 0.643481 
444 0.132553 0.276341 -0.345597 0.561486 0.289997 0.491489 -0.273160 0.284303 -0.160723 0.702549 0.496151 0.355744 -0.097616 1.679497 -0.647316 0.805220 
970 0.331091 0.223741 0.005470 0.791752 0.462646 0.326291 -0.265859 0.419632 0.083980 0.540698 0.247333 0.129981 0.168367 0.993006 -0.137051 0.458181 
126 0.166774 0.308905 -0.485267 0.649463 0.256819 0.650311 -0.401047 0.431375 -0.344259 0.947718 0.570445 0.413176 -0.152247 1.989588 -0.915780 0.970065 
71 -0.986991 0.159819 -0.328217 0.314593 0.661556 -1.054524 0.144769 1.445147 -0.048911 -0.469804 1.088904 -0.274787 -0.965000 0.903628 -0.058792 -0.158141 
1098 -0.437351 0.046403 -0.024696 0.214428 0.276179 -0.329373 0.064129 0.516727 0.101332 -0.128113 0.486098 -0.067003 -0.218105 0.500767 -0.102147 -0.055807 
276 -0.752254 0.113058 -0.363099 0.203116 0.458610 -0.558764 0.123579 1.285133 0.150417 -0.215483 1.180598 -0.501813 -0.751724 0.823868 -0.014721 -0.051048 
317 -0.812545 0.045642 -0.291023 0.176845 0.561071 -0.543200 0.157463 1.310408 0.142969 -0.139909 1.151614 -0.516509 -0.730561 0.830749 0.012566 -0.085467 
11 -0.844439 0.611557 -0.054149 1.046808 0.874852 0.771249 0.084575 0.595148 0.563244 -0.106245 1.516353 0.134886 -0.192755 -0.405703 -0.940973 0.563143 
512 -0.933975 0.622676 -0.008407 1.020066 0.938384 0.743220 0.064433 0.702130 0.532353 -0.146734 1.473400 0.111340 -0.255388 -0.297133 -0.862346 0.631446 
1010 -0.588855 0.358619 0.029928 0.599639 0.581298 0.416216 0.006053 0.380870 0.311182 -0.087343 0.874818 0.026579 -0.111343 -0.100221 -0.540229 0.408679 
537 -1.067009 0.702123 0.060138 1.146530 1.080203 0.836630 0.081498 0.721773 0.545850 -0.094603 1.672537 0.084333 -0.253155 -0.304085 -0.993359 0.651389 
118 -0.951238 0.657723 0.006954 1.120858 0.925199 0.810958 0.019865 0.664865 0.552954 -0.148908 1.650965 0.166842 -0.222977 -0.405473 -1.064571 0.643729 
1096 -0.511408 0.339910 0.045303 0.606730 0.525507 0.448583 0.044203 0.392104 0.315833 -0.093545 0.880455 0.032549 -0.129655 -0.052591 -0.504483 0.347956 
457 -0.832019 0.632131 0.016335 0.917941 0.876944 0.705896 0.123771 0.609588 0.494637 -0.111424 1.336255 0.125137 -0.175690 -0.217082 -0.804665 0.565997 
439 -1.045017 0.729991 -0.014260 1.166490 1.023184 0.859536 0.071306 0.785904 0.570739 -0.129128 1.634977 0.100694 -0.293123 -0.278880 -0.995220 0.658947 
141 -1.009415 0.717261 -0.054898 1.207618 0.985515 0.844250 0.074491 0.732735 0.631961 -0.125883 1.707331 0.157087 -0.163795 -0.413406 -1.051987 0.644513 
1232 -0.010635 -0.012851 0.014751 0.016241 -0.015373 0.015872 0.000630 0.014989 0.007545 0.019086 -0.017261 0.019758 0.014390 0.003417 -0.002990 0.015779 
1105 -0.441922 0.283206 0.005657 0.483209 0.422054 0.290672 0.012596 0.309251 0.272322 -0.002815 0.648821 0.002237 -0.084120 -0.017240 -0.377190 0.317280 
658 -0.728889 0.509766 0.063839 0.797895 0.743028 0.577180 0.058138 0.574461 0.405617 -0.049394 1.126066 0.052161 -0.197981 -0.150524 -0.659035 0.507860 
85 -0.874615 0.683435 -0.089274 1.088047 0.899100 0.820574 0.027277 0.661912 0.565187 -0.107504 1.530871 0.186699 -0.177447 -0.467166 -0.934880 0.652902 
1106 -0.365298 0.283019 0.018000 0.415734 0.420164 0.302783 0.028360 0.319589 0.215187 -0.027568 0.666127 0.064534 -0.107732 -0.017255 -0.397321 0.241503 
855 -0.783596 0.574699 0.015823 0.830364 0.802647 0.604793 0.051395 0.588035 0.427171 -0.118000 1.286536 0.082884 -0.163434 -0.202173 -0.758316 0.514453 
1048 -0.616814 0.383341 0.037104 0.673705 0.603689 0.524585 0.080662 0.430025 0.374639 -0.094842 0.985259 0.009639 -0.153170 -0.098714 -0.616780 0.389668 
665 -0.765891 0.521665 0.024515 0.880415 0.808749 0.616361 0.045041 0.563100 0.465106 -0.144461 1.192976 0.089821 -0.159262 -0.175306 -0.697064 0.538097 
1115 -0.328439 0.220991 0.095989 0.400206 0.369684 0.264956 0.020429 0.245405 0.188898 -0.056359 0.587516 0.036145 -0.072508 0.044232 -0.341602 0.214626 
224 -1.108576 0.796085 0.003798 1.317430 1.182981 0.922814 0.053159 0.862045 0.674167 -0.089446 1.874776 0.191637 -0.230876 -0.419647 -1.158581 0.636915 
547 -0.946531 0.594808 0.037754 1.056672 0.929564 0.736098 0.044963 0.714462 0.546339 -0.132727 1.543275 0.144286 -0.266775 -0.218849 -0.946467 0.604010 
746 -0.832294 0.581104 0.044811 0.922850 0.867168 0.657012 0.107190 0.650234 0.423202 -0.130796 1.370638 0.085195 -0.230444 -0.192983 -0.808825 0.599623 
811 -0.685219 0.455174 0.027354 0.687783 0.692654 0.553433 0.096696 0.574599 0.355279 -0.082323 1.072380 0.096244 -0.155833 -0.142142 -0.663670 0.432327 
621 -1.003740 0.687913 0.065567 1.034999 0.969505 0.775054 0.105365 0.715574 0.534651 -0.093950 1.513828 0.052506 -0.263910 -0.233652 -0.938077 0.609809 
304 -1.144084 0.786656 0.000011 1.282982 1.177649 0.898258 0.055294 0.875146 0.635272 -0.180456 1.870762 0.145854 -0.235234 -0.297751 -1.155432 0.705997 
920 -0.607631 0.402892 -0.020208 0.644596 0.616198 0.485872 0.071873 0.430227 0.302479 -0.081918 0.969330 0.035239 -0.139401 -0.092889 -0.525782 0.373214 
180 -1.010581 0.730897 0.009191 1.208384 1.066743 0.903902 0.067523 0.741415 0.591108 -0.087789 1.724654 0.161531 -0.241939 -0.446622 -1.095341 0.698796 
1142 -0.307424 0.219999 0.045593 0.365158 0.336692 0.239027 0.013290 0.244694 0.164680 -0.038125 0.477235 0.021014 -0.026382 0.037051 -0.288228 0.209394 
713 -0.893195 0.550635 0.079482 0.946735 0.894126 0.653109 0.090248 0.649683 0.469840 -0.130481 1.379245 0.033468 -0.223098 -0.207904 -0.791287 0.562548 
632 -0.780452 0.531001 -0.010922 0.814930 0.761224 0.610183 0.041089 0.586665 0.467408 -0.128034 1.213345 0.104175 -0.174648 -0.193360 -0.704231 0.543789 
249 -0.995566 0.674379 -0.018362 1.062485 0.979814 0.822515 0.125015 0.766720 0.572941 -0.120156 1.553706 0.115011 -0.251511 -0.319877 -0.916316 0.678799 
1147 -0.208370 0.103049 0.055461 0.215525 0.229186 0.172390 0.024880 0.164458 0.097442 0.030910 0.294342 -0.003346 -0.071548 0.024202 -0.189796 0.167120 
1149 -0.136130 0.106676 0.051501 0.178209 0.170622 0.101858 -0.008890 0.162484 0.059382 -0.049989 0.255174 0.013583 -0.030239 0.048915 -0.147802 0.073154 
770 0.122060 -0.172017 0.234576 0.144926 0.525501 0.346114 -0.435681 1.158269 -0.096476 0.229335 0.797662 0.041126 0.404177 0.790304 0.114098 -0.470826 
1034 0.052745 -0.179385 0.237750 0.077082 0.506540 0.169401 -0.304034 0.744342 -0.052020 0.226328 0.427087 0.047764 0.159487 0.498138 0.045316 -0.167021 
776 0.026554 -0.332649 0.326436 0.090634 0.724360 0.162966 -0.448500 1.250929 -0.123664 0.376633 0.753550 0.047648 0.265443 0.738934 0.157740 -0.309457 
629 0.280851 -0.331846 0.337445 0.070612 0.811212 0.399260 -0.664839 1.604372 -0.235563 0.401703 1.079835 0.168708 0.489067 1.023578 0.179397 -0.655877 
895 0.029903 -0.214485 0.201735 0.106676 0.553369 0.297825 -0.369771 0.943363 -0.110381 0.233480 0.640830 0.001203 0.291574 0.628601 0.058558 -0.311584 
497 0.249596 -0.316982 0.394053 0.195032 0.873302 0.413135 -0.600446 1.484295 -0.264543 0.358251 0.883484 0.255764 0.440037 0.934512 0.279822 -0.564974 
1109 0.055429 -0.187418 0.285849 0.155354 0.533863 0.103509 -0.344911 0.769288 -0.169367 0.178202 0.498990 0.097984 0.218756 0.564047 0.080084 -0.204137 
791 0.065032 -0.296803 0.230722 0.098739 0.647199 0.302659 -0.453051 1.251115 -0.087992 0.295431 0.782916 0.027830 0.326848 0.776590 0.134010 -0.417584 
413 -0.025789 -0.457559 0.398848 0.072557 0.878817 0.187880 -0.489216 1.613379 -0.239609 0.491944 0.823711 0.072688 0.245466 0.892975 0.185129 -0.451087 
1125 0.067734 -0.177003 0.213468 0.151771 0.429227 0.111146 -0.327040 0.655960 -0.145143 0.191225 0.396071 0.137134 0.225028 0.493911 0.068137 -0.136326 
1040 0.058411 -0.148011 0.262742 0.127541 0.471175 0.127659 -0.275675 0.673175 -0.102105 0.236483 0.346374 0.048266 0.223033 0.515390 0.084980 -0.169086 
1158 -0.028350 -0.045011 0.057625 0.046344 0.195737 -0.015383 -0.083070 0.265017 -0.024605 0.081098 0.181300 0.072103 0.058435 0.213457 -0.000889 -0.032417 
742 0.199512 -0.157270 0.230336 0.076765 0.602558 0.378711 -0.520700 1.289400 -0.121767 0.229172 1.024798 0.039489 0.441165 0.849206 0.055522 -0.640085 
744 0.161197 -0.502180 0.534613 0.180892 0.937524 0.368881 -0.562980 1.675210 -0.210481 0.547335 0.947051 0.188886 0.358976 1.012460 0.300714 -0.432599 
447 0.238289 -0.510502 0.498852 0.209939 1.079913 0.441309 -0.667539 1.711148 -0.256819 0.513127 0.863836 0.289853 0.466832 1.060539 0.375463 -0.589320 
437 0.236692 -0.542786 0.589253 0.156690 1.213937 0.356207 -0.648271 1.708247 -0.272364 0.603720 0.835936 0.291797 0.463421 1.079602 0.384822 -0.535541 
38 0.131052 -0.682459 0.442172 -0.007321 1.034731 0.276680 -0.483739 1.911191 -0.091747 0.701335 1.036534 -0.082677 0.076895 0.830660 0.233356 -0.357282 
640 -0.738118 -0.102196 0.732430 0.746806 0.764940 0.531551 0.558917 0.838587 0.929173 0.719745 0.116931 -0.230694 -0.314012 0.832146 -0.137178 0.552751 
769 -0.417354 -0.461870 0.608402 0.907811 0.669783 0.429368 0.521606 0.780304 0.620149 0.531132 0.406160 -0.613097 -0.701216 0.878867 -0.333863 0.491871 
520 -0.549614 -0.491025 0.808272 0.919282 0.849596 0.610023 0.598535 1.008060 0.912713 0.713042 0.289546 -0.513696 -0.653327 0.954714 -0.273580 0.536334 
912 -0.626552 -0.114731 0.579594 0.636210 0.662717 0.415862 0.505116 0.705215 0.779043 0.647939 0.113526 -0.217648 -0.277810 0.807739 -0.137583 0.408749 
799 -0.382142 -0.379482 0.564558 0.879002 0.620338 0.368442 0.438813 0.774298 0.564865 0.511181 0.403010 -0.554425 -0.705448 0.868710 -0.309970 0.514759 
966 -0.524718 -0.072790 0.521364 0.528007 0.508447 0.388037 0.366037 0.579414 0.539089 0.434042 0.134019 -0.198339 -0.241407 0.632033 -0.127688 0.509277 
553 -0.768177 -0.082709 0.776324 0.756591 0.867469 0.539038 0.625621 0.859789 1.070656 0.817710 0.071292 -0.270104 -0.298305 0.875698 -0.079012 0.610406 
428 -0.445802 -0.581883 0.713019 1.047022 0.706102 0.531823 0.570248 0.860355 0.775094 0.597878 0.398225 -0.674958 -0.860508 0.922128 -0.333205 0.574356 
1072 -0.547698 -0.068355 0.469753 0.569089 0.512361 0.281048 0.480597 0.512673 0.638742 0.498677 0.202899 -0.250423 -0.301438 0.687887 -0.145811 0.366586 
308 -0.468038 -0.523768 0.726903 0.949888 0.736400 0.494671 0.512547 0.860575 0.766860 0.602448 0.293977 -0.651428 -0.777086 0.877122 -0.349525 0.548397 
953 -0.360196 -0.096041 0.343991 0.439867 0.431249 0.228914 0.324391 0.433530 0.455320 0.377353 0.155608 -0.113197 -0.216490 0.507163 -0.159724 0.298035 
31 -0.773191 -0.189157 0.890396 0.829618 0.883711 0.657673 0.671598 0.901134 1.212343 0.924356 -0.050663 -0.339036 -0.430716 0.882041 -0.171392 0.679855 
832 -0.656733 -0.028074 0.652479 0.703243 0.757209 0.457236 0.547340 0.749744 0.777584 0.743741 0.163439 -0.285687 -0.298931 0.832823 -0.081745 0.543173 
326 -0.914995 -0.273340 0.412377 0.727694 0.712329 0.146186 1.080454 0.922725 0.980749 0.736724 0.423611 -0.677324 -0.655215 1.060294 -0.221283 0.280094 
1143 -0.015653 -0.011083 0.019506 -0.004516 -0.005254 -0.014665 0.024109 0.008415 -0.011299 -0.027000 0.023460 0.018489 -0.010665 0.007426 0.018869 -0.009658 
14 -0.550500 -0.303096 0.766758 0.867065 0.700100 0.621272 0.488689 0.828848 0.917666 0.757508 0.062753 -0.401817 -0.598705 0.734166 -0.196239 0.620106 
1110 -0.084510 -0.037763 0.165525 0.216685 0.156222 0.079916 0.080996 0.234352 0.084705 0.136631 0.185355 -0.096882 -0.108382 0.260149 -0.061048 0.133914 
736 -0.607773 -0.376596 0.737715 0.895049 0.750325 0.490530 0.599075 0.903598 0.893761 0.698805 0.245884 -0.405975 -0.576743 0.926553 -0.323335 0.542828 
1133 -0.390524 0.123430 0.262629 0.325897 0.353008 0.163144 0.148681 0.291556 0.267651 0.233677 0.194497 -0.024351 -0.070264 0.401243 -0.076408 0.313148 
506 -0.791907 0.085999 0.638596 0.802010 0.693385 0.578902 0.378270 0.577934 0.751872 0.575604 0.218314 -0.236690 -0.276479 0.587854 0.085190 0.763219 
510 -0.877762 0.205041 0.676480 0.866460 0.648319 0.594860 0.378045 0.468097 0.700400 0.538154 0.246617 -0.239815 -0.229627 0.626422 0.110922 0.840322 
1023 -0.304164 -0.206286 0.367868 0.513034 0.409742 0.149080 0.351174 0.524366 0.308665 0.328994 0.381596 -0.371404 -0.396502 0.594731 -0.189893 0.332655 
641 -0.671140 -0.199139 0.681512 0.717448 0.680864 0.480043 0.511971 0.824941 0.846006 0.715919 0.114136 -0.253291 -0.370820 0.804447 -0.170741 0.474625 
325 -0.974900 0.147778 0.727989 0.821466 0.759552 0.654260 0.552691 0.579731 0.969230 0.703429 0.101151 -0.210524 -0.193466 0.727829 0.223725 0.982259 
395 -0.627339 -0.211278 0.797560 0.732522 0.793480 0.584510 0.568681 0.902619 1.052598 0.799667 0.010894 -0.215787 -0.309336 0.825599 -0.229238 0.532990 
403 -0.905493 0.014589 0.857776 0.875540 0.834533 0.673573 0.540051 0.848508 1.010519 0.772583 0.074090 -0.160473 -0.294878 0.863039 0.026234 0.854547 
1175 -0.392682 0.120152 0.245932 0.281478 0.283242 0.153946 0.103839 0.233231 0.222261 0.163225 0.180519 0.006811 -0.023106 0.403002 0.013713 0.306428 
1100 0.259809 0.183023 0.030461 0.791946 0.306044 0.253050 -0.273604 0.440106 0.074799 0.485316 0.272591 0.068318 0.145901 0.889515 -0.137836 0.335198 
974 0.308288 0.197594 0.056948 0.918626 0.416207 0.279742 -0.296913 0.495353 0.124422 0.602450 0.223455 0.084988 0.151307 0.942404 -0.132680 0.461851 
1134 0.159742 0.136672 0.069430 0.554248 0.285431 0.158068 -0.205508 0.325003 0.087578 0.308788 0.203449 0.067485 0.095293 0.633475 -0.101034 0.266478 
613 0.551968 0.344767 0.024910 1.329118 0.461332 0.500107 -0.458351 0.777496 0.209970 0.856191 0.258951 0.125244 0.229796 1.268227 -0.177318 0.649749 
1223 0.034830 0.037002 0.013816 0.110099 0.085866 0.026693 -0.022169 0.064603 0.008410 0.055850 0.090088 0.019999 -0.006579 0.153487 -0.019215 0.097765 
44 0.713180 0.391510 -0.131382 1.360678 0.623208 0.570691 -0.502343 0.714434 0.161591 0.911548 0.305656 0.156488 0.215169 1.318459 -0.210061 0.645476 
110 0.645005 0.400649 -0.174301 1.306252 0.506683 0.601748 -0.501364 0.698284 0.074176 0.990095 0.295049 0.174994 0.245027 1.387184 -0.252996 0.778192 
433 0.641156 0.428221 -0.111804 1.313536 0.551285 0.533989 -0.508370 0.740526 0.178520 0.913887 0.327467 0.121093 0.266658 1.455102 -0.231920 0.718758 
1183 0.094432 0.119419 0.069936 0.420394 0.215441 0.108713 -0.138495 0.267321 0.078204 0.235087 0.209826 0.034269 0.092384 0.497608 -0.070378 0.192841 
1079 0.331198 0.391433 0.344690 0.263984 0.495653 -0.033988 -0.465776 -0.019739 0.471350 -0.237509 0.247787 0.381452 0.114840 0.594446 -0.630031 0.142741 
1153 -0.305208 0.060618 -0.054066 0.158894 0.222699 -0.155749 0.024896 0.400713 0.062934 -0.040892 0.329479 -0.036090 -0.168242 0.356746 -0.094346 -0.032159 
1238 -0.068148 0.037975 0.008134 0.065306 0.091521 -0.060572 0.035498 0.162745 0.018723 -0.041165 0.074120 -0.023157 -0.072918 0.107820 -0.062181 -0.030856 
763 -0.758352 0.040553 -0.146591 0.306107 0.557298 -0.698785 0.108110 0.850449 0.096427 -0.256321 0.626134 -0.124964 -0.499252 0.671615 -0.139491 -0.189509 
43 -1.059203 0.106370 -0.322391 0.343517 0.708685 -1.140231 0.112507 1.232097 0.049485 -0.520563 0.948920 -0.297715 -0.958828 0.847114 -0.064745 -0.108870 
559 -1.072085 0.084982 -0.138704 0.400732 0.816586 -1.030065 0.075806 1.211783 -0.044049 -0.444066 0.741544 -0.002258 -0.712463 0.870487 -0.187621 -0.276950 
192 0.239536 0.523537 0.405996 0.584282 -0.280355 -1.196692 -1.207936 0.535882 0.686580 0.035880 0.920644 0.803636 -0.114170 1.077230 -0.537732 0.389242 
452 0.175754 0.495749 0.354649 0.603465 -0.280631 -1.148030 -1.142931 0.545067 0.832545 0.106124 0.867395 0.751564 -0.029604 1.084625 -0.505756 0.391235 
598 0.297269 0.520641 0.405424 0.567350 -0.183768 -1.025318 -1.120023 0.510370 0.678347 0.003284 0.868929 0.691597 -0.137834 0.966355 -0.554993 0.288972 
539 0.229473 0.531951 0.394567 0.440170 -0.191764 -0.936209 -1.091898 0.563897 0.658833 -0.052194 0.869765 0.614964 -0.198879 0.872524 -0.630410 0.271390 
756 0.040650 0.407278 0.173113 0.572855 -0.149003 -0.938733 -0.933262 0.377768 0.739735 0.212676 0.633869 0.678968 0.073994 0.917379 -0.270315 0.327388 
1129 0.003704 0.176519 0.129729 0.294013 0.022057 -0.374628 -0.370534 0.241955 0.283222 0.063846 0.364093 0.272217 0.059490 0.465857 -0.187474 0.113420 
19 0.420728 0.361221 -0.488951 0.905957 0.189240 0.462505 -0.345056 0.554978 -0.169693 0.960670 0.286230 0.243843 0.158044 1.385642 -0.541936 0.862565 
864 0.498651 0.366548 0.035320 1.234142 0.470389 0.485656 -0.394185 0.721146 0.154910 0.858518 0.285829 0.082388 0.268505 1.329358 -0.188525 0.679131 
706 0.198072 0.282178 -0.367884 0.644003 0.240420 0.509634 -0.246718 0.378964 -0.244767 0.875793 0.547235 0.272836 0.038840 1.869244 -0.617443 0.906528 
390 0.077291 0.249861 -0.401224 0.425437 0.248575 0.403950 -0.280939 0.223400 -0.250416 0.796140 0.529242 0.359787 -0.033222 1.601560 -0.679108 0.648256 
201 0.240477 0.389827 -0.488142 0.710809 0.185958 0.449982 -0.280399 0.444756 -0.313317 0.923779 0.562493 0.301979 0.048551 1.880899 -0.699248 0.925394 
376 0.043937 0.279615 -0.367444 0.434720 0.247137 0.464865 -0.305663 0.306017 -0.212728 0.709004 0.516437 0.365145 -0.153299 1.669644 -0.775941 0.806898 
83 0.195430 0.400173 -0.475778 0.588169 0.115177 0.459410 -0.259613 0.388617 -0.320815 0.913779 0.539595 0.301107 0.021708 1.797917 -0.793840 0.947819 
174 0.653848 0.410111 -0.142127 1.302829 0.433543 0.535317 -0.454110 0.772286 0.041125 1.032721 0.305938 0.159598 0.333075 1.440474 -0.261727 0.797040 
1177 0.201725 0.190655 0.039512 0.588368 0.314727 0.179622 -0.208088 0.367278 0.096552 0.391484 0.230658 0.080272 0.109580 0.784828 -0.151266 0.344381 
154 0.394019 0.514153 -0.430845 0.913825 0.217582 0.425930 -0.217904 0.580875 -0.152808 0.925894 0.420842 0.227599 0.312558 1.645480 -0.516948 0.950803 
463 0.179403 0.366961 -0.374870 0.681987 0.172887 0.479923 -0.218938 0.435551 -0.173025 0.798410 0.479733 0.219438 0.143198 1.732654 -0.523326 0.905306 
32 0.126106 0.332365 -0.529184 0.502497 0.139918 0.496986 -0.286298 0.369341 -0.328504 0.921200 0.493959 0.335888 -0.056817 1.744163 -0.803007 0.889320 
418 0.287275 0.432257 -0.388037 0.807472 0.196439 0.431404 -0.245260 0.510193 -0.139098 0.904054 0.442675 0.261401 0.205437 1.755237 -0.492674 0.897862 
612 0.425166 0.380749 -0.172323 1.017729 0.292359 0.482532 -0.291056 0.648723 0.031188 0.869044 0.323870 0.102653 0.261829 1.512766 -0.265838 0.850655 
1062 0.353304 0.239298 -0.000813 0.942581 0.372248 0.384277 -0.294673 0.513724 0.058486 0.671902 0.282837 0.076223 0.171968 1.130070 -0.177219 0.517380 
551 0.233969 0.395727 -0.360873 0.760113 0.158419 0.451831 -0.224151 0.494868 -0.186809 0.806470 0.386871 0.183914 0.180441 1.592513 -0.445350 0.842313 
232 0.692922 0.457409 -0.093892 1.450120 0.457326 0.582730 -0.446700 0.881869 0.122982 1.057177 0.325813 0.156356 0.349226 1.510844 -0.232434 0.862091 
556 0.168465 0.340793 -0.431729 0.664649 0.280438 0.553304 -0.303953 0.386749 -0.203554 0.882118 0.589466 0.333621 0.021695 2.085669 -0.729325 1.039536 
307 0.453581 0.477617 -0.250967 1.247629 0.401808 0.563062 -0.439511 0.794477 -0.024025 1.048496 0.362862 0.163451 0.353103 1.740853 -0.418256 0.934509 
1269 0.019441 0.018205 -0.005483 0.005521 -0.030245 -0.000512 0.014425 -0.004563 0.027504 0.022011 -0.011457 -0.015144 0.011875 -0.009561 -0.028267 -0.004375 
567 0.214729 0.325953 -0.377939 0.608229 0.168772 0.464815 -0.182425 0.404232 -0.190895 0.798724 0.534675 0.280878 0.090470 1.813030 -0.568137 0.838338 
248 0.675240 0.609150 -0.287792 1.485859 0.484412 0.571397 -0.396457 0.888158 0.073024 1.120476 0.410324 0.157853 0.376257 1.795633 -0.357980 0.977232 
381 0.069706 0.266109 -0.321992 0.473399 0.214540 0.488910 -0.328749 0.289869 -0.204204 0.711763 0.544389 0.366340 -0.146188 1.727275 -0.758239 0.764784 
767 0.332321 0.297733 -0.040871 0.850949 0.268439 0.327970 -0.301857 0.577248 0.058480 0.654648 0.282372 0.128381 0.250638 1.129233 -0.175737 0.600979 
552 0.050691 -0.355220 0.437383 0.160030 0.893953 -0.006544 -0.556224 1.287198 -0.348579 0.432976 0.627366 0.313855 0.313671 0.963844 0.310827 -0.407612 
172 -0.416463 -0.321934 0.254782 0.025655 0.925464 -0.711738 -0.543373 1.430565 -0.589201 0.297885 0.617275 0.331215 -0.092496 0.968744 0.164056 -0.473127 
184 -0.184299 -0.377742 0.338499 0.052616 0.948659 -0.531226 -0.557794 1.377928 -0.600778 0.433277 0.620211 0.369668 0.144824 1.038033 0.220528 -0.439648 
766 0.056152 -0.390436 0.404720 0.167629 0.813815 -0.021180 -0.517865 1.202559 -0.244296 0.380320 0.553441 0.213608 0.316659 0.856546 0.183250 -0.274941 
22 -1.039443 0.943666 0.355544 0.419877 0.259538 -0.027422 0.134059 -0.108063 0.640579 -0.273194 0.839534 -0.609706 0.238036 0.627395 0.701088 0.289896 
577 -0.924112 0.638931 0.093292 0.161992 0.149252 0.108371 0.138345 0.466569 0.539424 -0.153562 0.792711 -0.674758 0.262355 0.803004 0.070472 -0.320451 
66 -1.074880 0.950265 0.410448 0.680988 0.397952 -0.017988 0.153180 -0.131583 0.567263 -0.190963 0.836907 -0.417524 0.163130 0.631792 0.709198 0.496477 
198 -1.331517 0.972967 0.303797 0.702642 0.654863 -0.110878 0.472547 -0.192042 0.594913 0.023388 0.728229 -0.399973 0.280737 0.688402 0.657874 0.282215 
961 -0.534243 0.412610 -0.032466 -0.005681 0.068850 0.131650 0.003366 0.588694 0.284185 -0.182288 0.758973 -0.401863 0.268764 0.746916 -0.336064 -0.542007 
76 -1.464738 1.247923 0.513113 0.937791 0.602874 -0.066670 0.205524 -0.384634 0.598722 -0.279953 1.040680 -0.297496 0.217215 0.822322 0.888431 0.921251 
77 -1.363598 1.092317 0.406160 0.766046 0.568769 -0.131813 0.261128 -0.273025 0.713734 -0.190242 0.989665 -0.417670 0.274227 0.789374 0.855532 0.548813 
847 -0.485735 0.139525 0.202264 0.413912 0.404510 0.045329 0.214211 0.325931 0.308880 0.146639 0.452385 -0.358106 -0.138987 0.550642 0.037383 0.188190 
784 -0.829727 0.526741 0.188754 0.473683 0.457252 -0.030962 0.208326 0.165636 0.360309 -0.038293 0.587941 -0.260903 0.145468 0.616419 0.172667 0.158737 
721 -0.912204 0.592449 -0.013516 0.053487 0.122214 0.139973 0.110803 0.746473 0.525969 -0.190855 0.869325 -0.759390 0.241991 0.908909 -0.202797 -0.565087 
467 -1.098243 0.844734 0.405503 0.677898 0.496498 0.066852 0.110986 -0.087009 0.423149 -0.126651 0.760499 -0.346902 0.149237 0.720357 0.481442 0.598105 
916 -0.753398 0.618708 0.282777 0.478919 0.447628 0.132829 0.086368 0.000709 0.154652 -0.134239 0.531973 -0.011741 0.111797 0.563667 0.192890 0.515805 
277 -1.144983 0.874971 0.482850 0.755854 0.564305 0.041063 0.177032 -0.091225 0.525676 -0.154324 0.852606 -0.412104 0.150088 0.734108 0.578661 0.627028 
1081 -0.266695 0.011330 0.162017 0.307490 0.249065 0.057967 0.136022 0.189124 0.226653 0.152618 0.238077 -0.179903 -0.097956 0.381820 -0.056011 0.131572 
152 -1.231239 1.073002 0.473259 0.746894 0.518001 -0.019967 0.136513 -0.189120 0.511194 -0.233542 0.907797 -0.362112 0.268040 0.761398 0.689262 0.629310 
29 -1.227589 0.978302 0.650280 0.913839 0.524741 -0.008132 0.227021 -0.296552 0.664526 -0.116774 0.853704 -0.545987 0.009241 0.762925 0.853094 0.863884 
675 -1.044262 0.727520 0.231040 0.579083 0.555749 0.003240 0.304485 0.068093 0.488026 0.003238 0.657110 -0.385027 0.135154 0.723882 0.358280 0.231908 
228 -1.328402 0.887036 0.436076 0.698513 0.398097 0.067438 0.261009 -0.004796 0.734850 -0.095489 0.903480 -0.720363 0.075115 0.865412 0.612233 0.410186 
37 -1.345275 1.218877 0.498840 0.866630 0.585353 -0.083641 0.172092 -0.410070 0.521053 -0.230262 1.015418 -0.323756 0.210443 0.755432 0.825997 0.927093 
1000 -0.502500 0.119067 0.323209 0.412355 0.410302 0.138773 0.203569 0.255882 0.344183 0.152283 0.334992 -0.293834 -0.148431 0.518697 -0.025477 0.175967 
41 -0.800794 0.697534 -0.173454 -0.133733 -0.131597 0.389808 -0.015306 0.866205 0.608066 -0.335910 1.082960 -0.875863 0.456972 1.134632 -0.390125 -0.901691 
199 -1.280232 0.962953 0.281154 0.698581 0.578204 -0.098907 0.305497 -0.184732 0.630130 -0.066757 0.765492 -0.406900 0.316926 0.741650 0.696206 0.332450 
1053 -0.024599 -0.030607 0.023657 0.017942 -0.015207 -0.027452 -0.030581 0.008043 0.009464 0.006717 -0.006240 -0.029224 -0.002677 -0.022110 -0.001580 0.002084 
243 -1.136130 0.960227 0.466102 0.678325 0.472591 0.074675 0.160721 -0.052862 0.528242 -0.192400 0.858916 -0.456339 0.156379 0.764291 0.563482 0.564011 
694 -1.286390 0.939730 0.427358 0.874770 0.651724 0.122694 0.170147 -0.043187 0.406488 -0.108777 0.796951 -0.267110 0.085550 0.823013 0.430658 0.803962 
121 -1.437357 1.221065 0.496480 1.029525 0.626683 0.013633 0.217959 -0.432045 0.533215 -0.218040 1.048141 -0.301154 0.207924 0.817636 0.899746 0.960661 
440 -1.342084 1.063616 0.504339 0.887114 0.628109 0.161214 0.177144 -0.223707 0.372765 -0.190294 0.921411 -0.171598 0.219311 0.791613 0.585632 0.915591 
1017 -0.275831 0.148140 0.011458 0.066728 0.119407 0.059350 0.020184 0.213509 0.162317 -0.019389 0.288356 -0.099693 0.080158 0.322720 -0.161134 -0.161410 
507 -0.918010 0.742939 0.338650 0.522305 0.391053 0.041257 0.134824 0.048548 0.397739 -0.091903 0.660414 -0.412552 0.135135 0.687336 0.414445 0.343575 
23 -0.471470 -0.425593 -0.086668 1.206989 -0.233109 -0.073417 0.018875 -0.066470 0.545649 -0.121662 0.732294 1.084867 0.208465 1.329928 -0.448076 -0.803930 
322 -0.626970 -0.462028 -0.002883 1.317304 -0.122224 -0.147353 -0.040356 0.028934 0.599182 -0.101870 0.871248 1.183418 0.182034 1.493370 -0.545303 -0.846765 
645 -0.478926 -0.322955 0.004287 0.987493 -0.084826 -0.158414 -0.072550 0.008650 0.479917 -0.087006 0.728859 0.899629 0.120793 1.209930 -0.411807 -0.575071 
70 -0.623806 -0.405813 0.011408 1.252688 -0.175839 -0.061170 -0.036972 -0.108062 0.482633 -0.044734 0.763931 1.119379 0.191768 1.324391 -0.523087 -0.828322 
140 -0.753787 -0.486917 0.023913 1.561827 -0.224299 -0.070557 -0.072844 -0.182389 0.634206 -0.086191 0.978695 1.281700 0.237220 1.597524 -0.585812 -0.969616 
266 -0.511661 -0.417416 -0.096067 1.235444 -0.206895 -0.181581 -0.094314 0.023927 0.559940 -0.114481 0.806512 1.111665 0.209361 1.434295 -0.434952 -0.779677 
844 -0.445098 -0.242893 -0.005593 0.896696 -0.035657 -0.147512 -0.063579 0.001462 0.419161 -0.095306 0.666509 0.761416 0.174103 1.126467 -0.366181 -0.567826 
994 -0.445472 -0.218005 0.012880 0.878639 0.036284 -0.010621 -0.091293 -0.044383 0.440469 -0.073296 0.605055 0.598114 0.153452 0.879336 -0.414320 -0.510160 
762 -0.376273 -0.169673 -0.007718 0.695378 -0.025533 -0.122292 -0.028885 0.049460 0.336243 -0.055003 0.525291 0.632460 0.092485 0.930417 -0.293543 -0.456001 
1172 -0.071335 -0.050628 0.029643 0.201487 0.037905 -0.042792 -0.023315 0.029737 0.057996 0.011461 0.153693 0.150018 0.037297 0.242048 -0.116061 -0.137728 
691 -0.492987 -0.267135 -0.031838 0.928988 -0.109464 -0.103244 -0.051187 0.007208 0.469535 -0.137782 0.727589 0.800801 0.196852 1.172860 -0.390182 -0.575770 
150 -0.970198 -0.531509 -0.010136 1.917271 -0.043642 0.062120 0.012507 -0.194420 0.730078 -0.176999 1.123298 1.375498 0.276125 1.466007 -0.792583 -0.997000 
344 -0.604990 -0.395040 0.004731 1.243441 -0.157115 -0.214215 -0.015144 0.037504 0.577730 -0.082186 0.844687 1.085038 0.192610 1.465311 -0.520083 -0.798909 
858 -0.315125 -0.117955 0.070516 0.597633 -0.022729 -0.076687 -0.059121 0.039212 0.292142 -0.077551 0.444181 0.520429 0.098312 0.762626 -0.243149 -0.333317 
1245 -0.021656 0.007838 0.002629 -0.028656 0.018375 0.031107 0.015161 0.025347 0.018560 -0.013225 0.014940 -0.010667 -0.029364 -0.030815 -0.005672 0.021906 
286 -0.581939 -0.460780 -0.063445 1.374963 -0.181654 -0.142324 -0.030431 -0.015807 0.625287 -0.159134 0.902891 1.177470 0.233764 1.557934 -0.507566 -0.875477 
289 -0.508649 -0.370911 -0.011481 1.164713 -0.195281 -0.201312 0.042490 0.058556 0.572306 -0.127501 0.767561 1.099124 0.203056 1.413069 -0.404020 -0.758443 
546 -0.474947 -0.332082 -0.006552 1.043975 -0.095133 -0.141972 -0.026677 0.006651 0.530554 -0.078566 0.732221 0.922027 0.120195 1.279005 -0.415945 -0.654924 
294 -0.621845 -0.345407 -0.022277 1.250530 -0.137449 -0.177547 -0.041642 -0.018833 0.561372 -0.053835 0.794607 1.137160 0.172716 1.391425 -0.455423 -0.754960 
616 -0.580438 -0.337859 0.011652 1.120300 -0.047110 -0.171613 -0.019602 -0.036559 0.540725 -0.038985 0.778305 0.996607 0.149605 1.303085 -0.515658 -0.682039 
233 -0.626066 -0.418989 0.000498 1.324626 -0.150095 -0.135059 -0.041905 -0.057462 0.565266 -0.033661 0.887698 1.132765 0.248011 1.368409 -0.539951 -0.869762 
1002 -0.270540 -0.092750 0.065136 0.537912 0.002172 -0.076821 -0.067926 0.062739 0.304022 0.015664 0.418698 0.473104 0.075876 0.681352 -0.294543 -0.309023 
686 -0.448906 -0.304457 0.005755 0.959747 -0.066993 -0.144174 -0.059077 0.011271 0.459815 -0.068859 0.658965 0.882705 0.140544 1.172472 -0.346921 -0.557944 
431 -0.529226 -0.358062 -0.045835 1.212153 -0.114540 -0.174788 -0.040682 0.017334 0.588771 -0.119062 0.789800 1.023080 0.182625 1.346522 -0.484159 -0.729729 
176 -0.548971 -0.430179 -0.097846 1.299910 -0.223532 -0.141405 0.007181 -0.047722 0.568951 -0.134432 0.881411 1.161330 0.256810 1.436201 -0.472552 -0.823278 
1138 -0.217951 -0.049321 0.038067 0.404948 0.011933 -0.017184 -0.008020 0.054999 0.177054 -0.016225 0.326788 0.309457 0.046621 0.528188 -0.177753 -0.244050 
563 -0.730800 -0.410414 0.018575 1.384942 -0.081400 -0.160870 -0.079750 -0.040322 0.689859 -0.143993 0.931354 1.139328 0.201994 1.554611 -0.624780 -0.819638 
313 -0.491002 -0.342188 -0.034607 1.152414 -0.171129 -0.231868 -0.024674 0.042456 0.566709 -0.088718 0.750600 1.042121 0.174294 1.373088 -0.438721 -0.760783 
442 -0.601007 -0.399775 -0.032443 1.276500 -0.130662 -0.180122 -0.049236 0.053027 0.614250 -0.073408 0.838332 1.130609 0.176918 1.472239 -0.526260 -0.786391 
894 -0.323739 -0.198390 0.058614 0.688227 -0.026431 -0.089022 -0.082655 -0.012357 0.343704 -0.063518 0.531202 0.637090 0.109001 0.844087 -0.315503 -0.420571 
24 -0.868433 0.553654 -0.021176 1.011728 0.913772 0.755858 0.096667 0.586688 0.452996 -0.084455 1.415162 0.139640 -0.124353 -0.455554 -0.927409 0.597331 
194 -1.017805 0.660321 -0.014754 1.142003 1.072393 0.781091 0.107923 0.691111 0.549223 -0.104344 1.621644 0.123498 -0.236575 -0.409567 -1.044994 0.643506 
708 -0.784286 0.516020 0.047341 0.828476 0.769288 0.609143 0.052320 0.522909 0.385576 -0.085084 1.166706 0.070198 -0.213496 -0.138849 -0.712574 0.511207 
1033 -0.549682 0.355569 0.030992 0.555031 0.523295 0.391181 0.045840 0.345135 0.319275 -0.034732 0.749797 -0.000651 -0.132657 -0.095101 -0.502984 0.356761 
175 -1.018820 0.691770 0.051979 1.200385 1.084075 0.805821 0.057768 0.711880 0.514947 -0.085759 1.711997 0.120288 -0.200488 -0.408210 -1.060968 0.673432 
730 -0.757473 0.492054 0.024631 0.797401 0.769995 0.600174 0.057398 0.536710 0.373993 -0.060226 1.096736 0.079895 -0.190016 -0.164866 -0.679834 0.512517 
860 -0.547434 0.337012 0.078570 0.552908 0.529489 0.425233 0.039394 0.394670 0.219614 -0.048776 0.812961 0.014215 -0.157491 -0.120379 -0.450530 0.381679 
992 -0.594444 0.383399 0.038590 0.648446 0.606799 0.451378 0.042638 0.412536 0.302775 -0.053337 0.889314 0.064858 -0.152707 -0.066234 -0.536034 0.443309 
609 -0.832398 0.542980 0.031579 0.926889 0.835507 0.678694 0.090878 0.608181 0.432262 -0.037501 1.312779 0.064428 -0.207072 -0.241764 -0.744883 0.561731 
100 -0.976683 0.620343 0.002191 1.150304 1.017750 0.810343 0.062122 0.642626 0.552447 -0.051481 1.525527 0.114736 -0.250086 -0.467121 -0.968522 0.643329 
358 -0.874079 0.587119 -0.010916 0.919593 0.861946 0.739438 0.056736 0.603509 0.423289 -0.051885 1.308863 0.082251 -0.220920 -0.261212 -0.813694 0.588596 
743 -0.806524 0.535711 0.063075 0.880548 0.774728 0.623143 0.052511 0.571235 0.434341 -0.132842 1.266866 0.081302 -0.178557 -0.199493 -0.730415 0.555731 
303 -1.113372 0.799418 -0.038590 1.281734 1.206555 0.924456 0.116532 0.874235 0.623941 -0.105762 1.794241 0.162852 -0.247261 -0.324262 -1.090622 0.739940 
373 -1.096993 0.700600 0.009980 1.122670 1.082144 0.875314 0.083827 0.764431 0.588815 -0.107725 1.584050 0.128820 -0.241393 -0.322690 -0.977710 0.668690 
585 -0.980874 0.677238 0.041641 1.069615 1.006902 0.781057 0.114243 0.677266 0.531844 -0.084617 1.468407 0.070046 -0.243948 -0.227431 -0.957867 0.628675 
312 -1.025285 0.680296 -0.011885 1.105043 1.038821 0.848718 0.074075 0.760233 0.553292 -0.116535 1.580806 0.089454 -0.245000 -0.314640 -0.975698 0.618679 
234 -0.971425 0.654307 0.046662 1.100830 0.989213 0.794034 0.083890 0.676568 0.476179 -0.104234 1.551027 0.084339 -0.247323 -0.363922 -0.947699 0.606138 
1211 -0.002854 0.008163 0.026375 0.021564 -0.003543 0.014291 0.027729 0.003892 -0.029728 0.026344 0.021085 -0.004802 0.011283 0.028667 0.029375 -0.011293 
25 0.284749 -0.297682 0.650293 0.167394 1.345546 -0.517838 0.636813 0.094589 -0.028168 0.099157 0.274905 -0.400512 1.017262 1.178011 -0.548057 0.443986 
1026 0.250258 0.179134 0.578057 0.486879 0.966210 -0.288633 0.586595 0.171532 -0.078573 -0.088602 0.241887 -0.506488 0.687241 0.901866 -0.455290 0.216840 
470 0.094156 -0.164257 0.929961 -0.013493 1.570025 -0.426495 0.601441 0.067525 -0.111134 -0.066583 0.309051 -0.180300 0.880521 1.490795 -0.479667 0.558743 
842 0.192130 -0.161152 0.698845 0.112522 1.343397 -0.411705 0.361915 0.222652 0.026623 0.035249 0.247363 -0.342730 0.828672 1.060623 -0.433899 0.355643 
1037 0.130390 0.110048 0.398699 0.324150 0.742934 -0.209941 0.389534 0.186696 -0.087302 -0.039656 0.211057 -0.338230 0.501762 0.727610 -0.341406 0.176612 
1102 0.014813 -0.035466 0.358721 0.097740 0.670464 -0.194995 0.097559 0.230574 0.062433 0.024295 0.186615 -0.115610 0.345549 0.532189 -0.234233 0.184968 
337 0.411246 0.108188 0.775066 0.625677 1.331145 -0.404167 0.858756 0.146650 -0.151578 -0.020806 0.367773 -0.737791 1.145240 1.338147 -0.767644 0.268607 
642 0.317603 0.212519 0.831825 0.690939 1.353763 -0.382489 0.954622 0.180628 -0.181355 -0.120261 0.377202 -0.642669 1.082574 1.392953 -0.666333 0.332081 
1145 0.025061 -0.004655 0.264288 0.084015 0.555768 -0.074094 0.152069 0.146094 0.015716 -0.006956 0.189918 -0.060069 0.249547 0.486676 -0.194374 0.162029 
792 0.157048 0.036171 0.536810 0.355039 0.840143 -0.238360 0.645796 0.105763 -0.167133 -0.097064 0.155152 -0.051481 0.592721 1.017586 -0.268785 0.366776 
868 -0.010448 -0.166539 0.503150 0.044563 1.088074 -0.324063 0.135153 0.198476 0.098678 -0.011650 0.172863 -0.093994 0.552056 0.790016 -0.332003 0.258843 
1182 0.030466 -0.020330 0.015808 0.011093 0.011386 0.008958 -0.002210 -0.000749 -0.016489 -0.001220 -0.010347 -0.005174 -0.016002 -0.031137 0.024168 -0.010257 
421 0.196251 -0.148624 0.668387 0.265143 1.290124 -0.415015 0.688912 0.084193 -0.122156 -0.011557 0.372440 -0.365704 0.929009 1.289299 -0.535375 0.386943 
1123 -0.014214 -0.042921 0.442124 0.037300 0.874109 -0.184224 0.276149 0.160058 0.023548 -0.032481 0.249304 -0.049376 0.408417 0.727896 -0.251414 0.267672 
292 0.194545 -0.312264 0.655856 0.158493 1.475830 -0.489756 0.631577 0.118013 0.010682 0.152193 0.332389 -0.394763 1.038052 1.284173 -0.557068 0.458864 
229 -0.057712 -0.491142 0.934842 -0.296781 1.892755 -0.545591 0.250632 0.124750 0.106159 -0.108566 0.322340 -0.027813 1.011181 1.263720 -0.513420 0.498266 
487 0.231894 -0.103990 0.662714 0.298986 1.194015 -0.409439 0.607734 0.104474 -0.044168 0.016866 0.249265 -0.383312 0.894677 1.182519 -0.493916 0.381419 
424 0.049556 -0.341135 0.784478 -0.074029 1.546536 -0.487534 0.450741 0.033607 -0.072423 -0.037973 0.343456 -0.182062 0.962986 1.360591 -0.480664 0.460044 
297 -0.034734 -0.439644 0.844052 -0.123358 1.659272 -0.534678 0.366543 0.049723 -0.077774 0.008842 0.360935 -0.176087 1.004028 1.437894 -0.512887 0.555829 
362 0.340600 0.013495 0.787540 0.338161 1.574813 -0.406122 0.674386 0.194757 -0.141075 0.073396 0.337414 -0.777073 1.165588 1.327971 -0.763356 0.322198 
748 0.164190 -0.049807 0.507478 0.229159 0.896188 -0.214558 0.502217 0.075082 -0.116592 0.032000 0.171009 -0.265052 0.636963 0.940272 -0.337737 0.316497 
790 0.211742 -0.049900 0.701800 0.226895 1.291662 -0.331603 0.660766 0.164895 -0.107775 0.028012 0.211817 -0.300625 0.758011 1.243796 -0.421652 0.389052 
179 0.312696 -0.185400 0.607655 0.301160 1.239961 -0.506951 0.878794 0.046947 -0.206697 0.007963 0.220083 -0.308422 0.991581 1.293881 -0.519111 0.478556 
446 0.147719 -0.115442 0.790000 0.195576 1.304028 -0.388071 0.789314 0.055198 -0.228313 0.037930 0.274585 -0.138453 0.808932 1.381163 -0.417806 0.574627 
222 0.147675 -0.351884 0.777893 -0.048309 1.750036 -0.616152 0.373131 0.208291 0.142878 0.091807 0.319352 -0.364277 1.048547 1.180843 -0.629958 0.410256 
951 0.169923 0.089426 0.427986 0.363655 0.646830 -0.207236 0.522999 0.136078 -0.100835 -0.139051 0.180110 -0.090970 0.453399 0.843788 -0.251525 0.310343 
1209 0.005310 0.048913 0.117585 0.157501 0.185871 -0.037914 0.160723 0.045713 0.036828 -0.043221 0.114509 -0.055795 0.168023 0.282444 -0.074636 0.107267 
671 0.328650 0.232905 0.772598 0.707101 1.211310 -0.359156 0.900189 0.218911 -0.197904 -0.145917 0.314841 -0.620636 0.969832 1.205664 -0.582069 0.285670 
508 0.256792 -0.071274 0.718456 0.344766 1.204819 -0.375687 0.723791 0.133122 -0.093790 -0.004197 0.238427 -0.343305 0.914745 1.208055 -0.477704 0.389802 
830 -0.091559 -0.284727 0.637392 -0.067716 1.266803 -0.405041 0.047834 0.249499 0.133336 -0.029706 0.249096 -0.060320 0.646001 0.905442 -0.337499 0.338476 
26 -0.787066 -0.391777 0.056815 1.358429 -0.016262 0.013022 -0.083919 -0.349040 0.441733 0.021214 0.783887 0.896475 0.183838 1.048777 -0.591376 -0.864359 
1082 -0.477763 -0.223859 0.057126 0.919945 -0.013526 -0.060065 -0.048249 -0.046862 0.442735 -0.050846 0.671611 0.689355 0.138659 1.010872 -0.446873 -0.563944 
258 -0.795870 -0.364005 0.009873 1.546732 0.064640 0.028071 -0.175995 -0.338656 0.602954 -0.070924 0.888621 0.905476 0.260417 1.221501 -0.672993 -0.794827 
196 -0.851834 -0.365499 0.060048 1.574619 0.006511 0.022605 -0.105982 -0.311015 0.623952 -0.013769 0.919309 1.008320 0.201290 1.315512 -0.723893 -0.829785 
581 -0.612079 -0.307157 0.064644 1.094911 0.030800 -0.041743 -0.102505 -0.156301 0.521795 -0.032429 0.719316 0.747341 0.167409 1.098052 -0.549193 -0.648185 
1160 -0.249101 -0.068859 0.035051 0.488473 0.091045 -0.018189 -0.029222 0.017942 0.216727 -0.065226 0.350554 0.313438 0.098586 0.463325 -0.224833 -0.207360 
1097 -0.245764 -0.086318 0.066217 0.449438 0.026389 -0.027367 -0.054310 0.018346 0.199905 -0.010379 0.394358 0.410579 0.105597 0.589927 -0.185673 -0.259016 
138 -0.751743 -0.361859 0.065792 1.396588 -0.028187 0.001226 -0.091657 -0.298231 0.499710 -0.001201 0.779598 0.929763 0.213427 1.159119 -0.604085 -0.777253 
1163 -0.225566 -0.058625 0.041791 0.393362 0.053339 -0.031720 -0.045830 0.033812 0.193894 -0.028033 0.293791 0.265954 0.069118 0.440376 -0.218570 -0.185049 
290 -0.907328 -0.469788 0.037795 1.722994 -0.053644 -0.020300 -0.172028 -0.215661 0.757043 -0.073342 1.032355 1.159037 0.254276 1.616846 -0.714274 -0.922296 
1233 -0.154648 -0.021725 0.044657 0.368467 0.040916 -0.066635 -0.012728 0.060505 0.174900 -0.047601 0.283133 0.258003 0.042841 0.479122 -0.195279 -0.178444 
536 -0.683445 -0.418148 -0.003671 1.369850 -0.051697 -0.099315 -0.115922 -0.145012 0.619436 -0.081799 0.859781 0.965351 0.213189 1.376514 -0.632417 -0.799556 
891 -0.589610 -0.242536 0.076161 1.013101 0.010031 -0.043699 -0.036634 -0.164046 0.430911 -0.037932 0.610951 0.657597 0.162060 0.994987 -0.480593 -0.519518 
1051 -0.531607 -0.217216 0.010417 0.964752 0.054158 -0.002429 -0.085990 -0.093178 0.458952 -0.040550 0.629070 0.644576 0.176457 0.962539 -0.427677 -0.511000 
989 -0.497246 -0.196323 0.043280 0.867541 0.067752 0.011683 -0.086585 -0.108783 0.415426 -0.011208 0.542859 0.566449 0.142659 0.810336 -0.366855 -0.458336 
226 -0.804904 -0.392492 0.037097 1.521248 0.058081 -0.012401 -0.105544 -0.314032 0.541547 -0.051814 0.837842 0.915658 0.227117 1.186580 -0.669044 -0.838548 
483 -0.796899 -0.373256 0.049067 1.390212 0.033120 -0.032729 -0.118407 -0.217971 0.607261 0.021865 0.875712 0.888365 0.200916 1.211134 -0.649122 -0.775205 
913 -0.648641 -0.296849 0.037277 1.121611 0.084226 -0.060436 -0.081163 -0.143278 0.509126 -0.019789 0.673988 0.825398 0.228156 1.088829 -0.538895 -0.619589 
488 -0.810512 -0.410727 -0.000370 1.502730 0.000841 0.020667 -0.132338 -0.221079 0.664564 -0.089469 0.886304 0.977823 0.293938 1.371198 -0.694782 -0.843086 
105 -0.777716 -0.381827 0.062525 1.388675 -0.030804 0.025183 -0.110205 -0.294291 0.474971 -0.012619 0.811922 0.926332 0.196446 1.103243 -0.586743 -0.758884 
1196 -0.162213 -0.017056 0.037004 0.342024 0.066036 -0.030460 -0.019323 0.021705 0.186545 -0.037854 0.206704 0.201304 0.056118 0.336514 -0.144273 -0.138740 
1011 -0.471251 -0.177647 0.040099 0.846924 0.015832 -0.030356 -0.078852 -0.065695 0.395500 -0.015947 0.588227 0.616424 0.118472 0.897060 -0.372204 -0.486614 
1080 -0.468845 -0.186825 0.006002 0.798748 0.004630 -0.029523 -0.024194 -0.087429 0.318741 -0.023554 0.548861 0.540527 0.165536 0.790363 -0.393398 -0.425937 
569 -0.717490 -0.358914 0.018161 1.308261 0.036414 -0.032952 -0.146624 -0.220285 0.568402 0.004149 0.797769 0.865856 0.216654 1.231816 -0.594348 -0.709380 
890 -0.636810 -0.258526 0.041250 1.084140 0.092854 0.011808 -0.070668 -0.151406 0.461598 -0.019430 0.620450 0.673093 0.207900 0.964906 -0.472475 -0.582073 
315 -0.646590 -0.378674 0.018015 1.328394 -0.117610 -0.122045 -0.071968 -0.086295 0.600508 -0.024830 0.856097 1.034574 0.177020 1.414700 -0.535506 -0.805983 
573 -0.790350 -0.440120 0.008868 1.512458 0.007341 -0.070427 -0.120808 -0.103813 0.729686 -0.131383 1.006160 1.152577 0.210878 1.587940 -0.702411 -0.866444 
128 -0.651329 0.810239 -0.256840 -0.286052 -0.053843 0.386978 -0.234840 0.872758 0.444358 -0.327304 1.590294 -0.859982 0.748281 1.306344 -0.802470 -1.187197 
778 -0.729683 0.550951 -0.087985 -0.073586 0.148484 0.130762 -0.023066 0.800524 0.376875 -0.223365 1.001206 -0.560151 0.412286 0.986867 -0.561736 -0.810904 
608 -0.573267 0.495392 -0.151795 -0.145161 -0.026945 0.311942 -0.180369 1.014462 0.421171 -0.264199 1.329530 -0.607385 0.501641 1.185428 -0.598683 -1.009267 
934 -0.216788 0.301575 -0.051013 0.041782 0.135509 0.134505 -0.232297 0.483225 0.141913 -0.172430 0.926961 -0.235230 0.329393 0.629117 -0.350158 -0.543472 
476 -0.303210 0.532751 -0.117660 -0.092190 0.092591 0.337955 -0.296381 0.761877 0.263413 -0.294765 1.486173 -0.554347 0.548723 1.017323 -0.575972 -0.943336 
558 -0.650713 0.641692 -0.148874 -0.090698 0.144198 0.153539 -0.080567 0.711355 0.373089 -0.265759 1.306550 -0.583126 0.532964 1.069709 -0.662419 -1.000683 
28 0.725213 0.365668 1.230873 0.848187 -0.414039 -0.089434 0.742301 0.724391 -0.006776 -0.585484 1.824597 -0.043887 -0.292021 1.010711 -0.083332 -0.345318 
320 0.689353 0.473424 1.225490 0.918209 -0.335154 -0.125632 0.705239 0.832368 0.049226 -0.595899 1.958740 -0.115266 -0.240699 1.219638 -0.130628 -0.327727 
768 0.457589 0.334225 0.876709 0.674050 -0.140240 -0.095964 0.508765 0.592411 0.003046 -0.423301 1.458116 -0.033405 -0.214561 0.882969 -0.119519 -0.246542 
1092 0.227763 0.209809 0.513452 0.425758 -0.045815 -0.065230 0.284909 0.411324 -0.011268 -0.259054 0.941044 0.006552 -0.029022 0.543520 -0.065330 -0.095793 
396 0.751849 0.499589 1.332050 0.980972 -0.359788 -0.102994 0.736446 0.830650 0.017760 -0.523621 2.103508 -0.142305 -0.244003 1.373482 -0.105634 -0.373956 
1099 0.116639 0.156423 0.416994 0.329170 0.034560 -0.063376 0.227269 0.305084 -0.028951 -0.173264 0.726702 0.029110 -0.074964 0.487958 -0.114057 -0.067971 
268 0.599305 0.389312 1.076653 0.831190 -0.286588 -0.091694 0.685620 0.683157 -0.008423 -0.533182 1.810408 -0.091358 -0.261220 1.057996 -0.073178 -0.332981 
526 0.655541 0.417056 1.191817 0.964638 -0.271590 -0.137565 0.702498 0.777081 0.001535 -0.514842 1.926561 -0.101149 -0.180169 1.190060 -0.066632 -0.326837 
144 0.858052 0.535997 1.390245 1.039018 -0.478704 -0.109723 0.787994 0.863804 0.086214 -0.570766 2.173012 -0.185736 -0.131499 1.406197 -0.031911 -0.359935 
1272 -0.002248 -0.025205 -0.027964 0.011310 0.005395 -0.020654 0.030895 0.003165 -0.011947 0.022403 -0.029390 0.020458 -0.006921 0.009368 0.003015 -0.023769 
722 0.558240 0.352280 0.882265 0.775641 -0.169291 -0.129732 0.526953 0.671216 0.046677 -0.419684 1.559503 -0.078027 -0.125853 0.956952 -0.046721 -0.207722 
919 0.365169 0.262917 0.790695 0.488985 -0.096709 -0.038445 0.436570 0.530298 0.019906 -0.343111 1.239174 -0.036104 -0.129246 0.746996 -0.092560 -0.176947 
1047 0.260268 0.251925 0.616201 0.440156 -0.069660 -0.055132 0.309454 0.407738 0.021039 -0.249656 0.972668 -0.018229 -0.121084 0.664428 -0.142040 -0.145473 
1241 0.034421 0.060653 0.103005 0.108577 0.001987 -0.003122 0.042752 0.106439 -0.007505 -0.059680 0.196646 -0.002840 -0.038183 0.157751 -0.004998 -0.000441 
410 0.683042 0.464203 1.148175 0.871448 -0.310204 -0.107821 0.684686 0.744612 -0.017479 -0.487845 1.899199 -0.113783 -0.184353 1.211824 -0.061367 -0.396610 
985 0.269777 0.265166 0.687780 0.499123 -0.130510 -0.098408 0.367299 0.461799 0.034530 -0.323734 1.113807 -0.006468 -0.138823 0.687326 -0.110373 -0.213393 
1052 0.149078 0.179298 0.389131 0.329129 -0.012287 -0.026320 0.204982 0.291690 0.002679 -0.096382 0.673315 -0.006591 -0.041260 0.488786 -0.104943 -0.048159 
669 0.475638 0.348003 0.992023 0.711172 -0.233467 -0.107406 0.577456 0.713926 0.037371 -0.490600 1.713334 -0.076599 -0.254088 0.990898 -0.130193 -0.287494 
606 0.619124 0.412672 1.142909 0.841735 -0.285649 -0.138618 0.671804 0.690063 0.064702 -0.516453 1.822002 -0.103156 -0.255247 1.159835 -0.159806 -0.385043 
720 0.461820 0.272890 0.907506 0.643389 -0.150145 -0.126880 0.497947 0.647660 0.030815 -0.357850 1.501842 -0.025921 -0.186124 0.925872 -0.089020 -0.243701 
955 0.485344 0.344397 1.012229 0.844936 -0.207338 -0.106891 0.583469 0.632452 0.030061 -0.428944 1.719107 -0.027195 -0.166437 1.037154 -0.087914 -0.257124 
936 0.484425 0.381316 0.911799 0.812787 -0.182784 -0.105196 0.520303 0.621584 0.032404 -0.421711 1.536404 -0.110038 -0.159902 0.994500 -0.128645 -0.176684 
554 0.716332 0.551763 1.316089 1.077953 -0.256501 -0.132596 0.736580 0.844697 0.055928 -0.580096 2.207418 -0.142092 -0.186707 1.347479 -0.136122 -0.358044 
1195 0.007459 0.041753 0.089795 0.093924 0.028580 -0.012328 0.107141 0.111776 -0.012367 -0.082058 0.147876 0.019695 0.003017 0.165323 -0.006632 0.000844 
876 0.568940 0.383965 1.071700 0.885687 -0.216727 -0.127494 0.680339 0.702066 0.044583 -0.498624 1.817615 -0.043022 -0.178701 1.049957 -0.123967 -0.236765 
1005 0.197892 0.232667 0.566383 0.416842 -0.039793 -0.106150 0.278941 0.390351 0.067344 -0.214038 0.881640 -0.025583 -0.143168 0.588697 -0.099446 -0.102510 
954 0.349065 0.300264 0.832864 0.562463 -0.115187 -0.082643 0.464100 0.521799 -0.010934 -0.346496 1.318722 0.001137 -0.155089 0.803592 -0.108712 -0.214027 
336 0.627166 0.429325 1.136583 0.785270 -0.367476 -0.134802 0.662467 0.694917 0.017421 -0.476079 1.734162 -0.064280 -0.207663 1.139899 -0.121683 -0.329161 
1076 0.076667 0.126983 0.298587 0.255703 0.049696 0.003762 0.175014 0.231338 0.007914 -0.091505 0.556924 0.019498 -0.038696 0.398154 -0.086850 -0.059020 
375 0.671937 0.480054 1.142680 0.786031 -0.381709 -0.109069 0.649931 0.705438 -0.016160 -0.464256 1.810804 -0.148311 -0.214055 1.146142 -0.100695 -0.367202 
120 0.927095 0.573673 1.466608 1.113462 -0.516284 -0.119774 0.866546 0.870906 0.048458 -0.649085 2.228492 -0.157926 -0.184847 1.364733 -0.031851 -0.342250 
185 0.798591 0.560884 1.197578 0.919261 -0.496091 -0.141268 0.695095 0.786215 0.026152 -0.543739 2.000975 -0.214721 -0.119402 1.251379 -0.002984 -0.311430 
1210 0.044877 0.065041 0.184859 0.137915 0.017515 -0.048504 0.071876 0.134432 0.008535 -0.089946 0.349462 -0.004111 -0.028900 0.261685 -0.082116 -0.037932 
251 0.849046 0.579037 1.355501 1.094648 -0.462411 -0.178918 0.801189 0.884274 0.027821 -0.620551 2.199769 -0.195143 -0.187842 1.346991 -0.026819 -0.332922 
572 0.598744 0.344360 1.003587 0.819762 -0.240169 -0.138391 0.672400 0.694379 -0.027243 -0.467079 1.687162 -0.083584 -0.187699 1.007340 -0.089821 -0.292561 
831 0.482918 0.316289 1.008520 0.784487 -0.158696 -0.152530 0.577086 0.665564 0.071532 -0.444749 1.641670 -0.058061 -0.177033 0.989012 -0.121480 -0.239190 
1280 0.031080 0.026869 0.030064 0.001143 -0.002290 0.011896 0.021362 0.015546 0.023489 -0.009912 -0.018482 0.030703 0.030605 0.016784 0.021574 0.000781 
394 -1.345659 0.795341 0.573790 0.925241 0.679763 0.298509 0.415099 -0.031283 0.728165 0.233198 0.680628 -0.317333 0.055504 0.818058 0.578393 0.885943 
780 -1.015984 0.885271 0.308819 0.772235 0.527608 0.255112 0.021935 -0.061775 0.260488 -0.170620 0.639075 0.142067 0.189313 0.734550 0.202829 0.841709 
218 -1.121305 0.577094 0.536218 0.808698 0.600197 0.141706 0.317389 -0.035586 0.749545 0.155610 0.713368 -0.660950 -0.154329 0.780289 0.581182 0.644845 
738 -0.861270 0.687764 0.352658 0.625964 0.469488 0.124829 0.072877 -0.071407 0.205568 -0.078710 0.546109 -0.078239 0.089587 0.615761 0.211655 0.615859 
230 -1.368062 1.282620 0.459721 1.004781 0.626901 0.297069 0.133243 -0.266597 0.444417 -0.191782 0.892535 0.040379 0.237055 0.841515 0.503077 1.086388 
169 -1.234278 0.929630 0.501579 0.820320 0.573109 0.083715 0.182730 -0.263803 0.379739 -0.167775 0.854122 -0.241799 0.154791 0.659675 0.633780 0.835363 
490 -1.546087 1.193806 0.586702 1.049378 0.791845 0.163812 0.255161 -0.164143 0.554830 -0.097533 1.020837 -0.357667 0.155623 0.951778 0.649896 0.973989 
