1282 16
150 1.4403621 0.39061573 -0.19594528 1.851363 0.8651261 0.5854284 1.9437932 -0.31839818 0.9755585 -1.2085208 0.14736828 1.408776 -0.5440342 0.5165152 0.8422899 -0.15026854
955 1.8378448 -0.84002405 0.85834426 0.9787722 1.1699884 0.06062542 1.0887525 0.54935026 0.15872441 -1.2220343 0.8603149 1.0925689 -0.35161248 -1.5554761 -0.32986096 1.0111653
573 1.5052675 0.425044 -0.1557263 1.8354409 0.8508076 0.57440627 2.0286522 -0.33062097 0.97495514 -1.2210948 0.16722627 1.4233748 -0.53263986 0.5062246 0.8189563 -0.1721669
1125 0.2930036 0.7081492 -0.59552485 1.4656574 0.742589 1.3574926 0.8504979 -0.48920798 -0.62531656 -1.283453 0.13790518 -0.46463734 0.59986556 -1.4219061 -0.21840234 0.098585665
1193 0.83909374 -0.29145387 -0.10821646 1.0035039 0.9134465 0.5933112 1.2677687 1.2925184 -0.00464423 -0.612902 0.16273807 -0.4494196 -1.1164469 0.6861434 -1.2576278 -0.44727686
120 1.8436351 -0.85803926 0.83751214 0.95760345 1.2134874 0.054751817 1.1278604 0.5303566 0.2524758 -1.2676892 0.84624255 1.0395349 -0.31644204 -1.618005 -0.29259 0.9934844
1071 1.9801705 0.801849 -1.1975405 1.2713909 0.37217858 -0.42197007 0.2171448 0.48952672 1.403574 -0.40074658 0.84818614 -0.57813776 -0.29301926 -1.1641701 -0.6029622 0.28807157
554 1.8158684 -0.8987703 0.8542849 0.96563596 1.1479148 0.052556638 1.1050178 0.532448 0.18738653 -1.2456912 0.82942295 1.0233654 -0.41446123 -1.6162575 -0.36999273 1.0128098
160 0.87646407 -0.31618077 -0.05934157 0.7919672 0.8559977 0.52702844 1.3409648 1.345123 -0.060805187 -0.5924093 0.11285637 -0.5195276 -1.1810147 0.63940626 -1.1851497 -0.37648177
456 0.29762253 0.78482527 -0.6493588 1.5472046 0.6323042 1.1886532 0.9488366 -0.5798651 -0.6591518 -1.3237612 0.27577278 -0.45546207 0.58012074 -1.4194754 -0.18272957 0.21624509
426 0.93917596 -0.32090664 -0.14249559 0.9117189 0.9373727 0.64528054 1.2753481 1.3916801 0.03509118 -0.5657379 0.11056342 -0.47104388 -1.2018086 0.7235181 -1.3107737 -0.320431
290 1.5078123 0.48334932 -0.19951686 1.9277029 0.6962482 0.3653658 2.245022 -0.38795704 1.0445354 -1.2018985 0.11189945 1.4307687 -0.5846038 0.38861263 0.7911731 -0.21013513
1202 1.993327 0.8666548 -1.0672786 1.0778854 0.6435884 -0.56973106 0.38869637 0.4127342 1.7532455 -0.8143136 0.84935296 -0.65613675 0.08296961 -0.9873973 -0.15786707 0.15270978
703 1.2814599 0.3608738 0.7320037 -0.8164499 0.64987236 1.0994742 2.412651 0.07231503 0.05355224 -0.44218048 0.367885 -0.465152 0.3821673 -0.15800625 -0.41563508 0.53236204
1265 1.4283618 0.089393534 0.814406 -0.70182776 0.42102385 1.2345152 2.2369406 -0.2140997 0.03395428 -0.28380334 0.23614821 -0.5045629 0.22225104 0.05634502 -0.43587753 0.18117586
1233 1.4820752 0.5568659 -0.1936272 1.9094473 0.6648702 0.3754002 2.2767136 -0.3094341 1.0437176 -1.1903185 0.11382782 1.4108047 -0.6663023 0.46598354 0.6271246 -0.3053205
144 1.8490217 -0.8079704 0.8360168 1.0528165 1.1831232 0.0803689 1.1723648 0.48211712 0.21147157 -1.2449671 0.80327886 1.1937615 -0.4042793 -1.5147437 -0.20511574 0.97091156
490 1.3358504 -1.3338982 -0.51838696 0.024428284 1.0682282 0.6156323 0.9798367 -0.62024885 -0.26784483 -0.12681329 0.91321796 -0.61034954 0.1601923 0.36557472 -1.0972147 -0.33989662
1065 2.0479157 0.79031277 -1.1248746 1.0299907 0.5657824 -0.42331353 0.16560905 0.27915546 1.2892915 -0.46409896 1.0929073 -0.7172146 -0.26435673 -1.0810006 -0.29736897 0.12782769
1100 1.9807261 0.92373157 -1.0920883 1.0071213 0.73461634 -0.5538562 0.3336829 0.3396776 1.7060924 -0.71241015 0.9175883 -0.6492938 0.054596465 -0.96824235 -0.13229878 0.10046939
13 1.3960737 -0.9080347 -1.2155626 0.7120892 0.3647567 -0.33803877 1.4909916 -1.1905674 0.62208647 -0.10402471 0.43258202 0.43256563 0.6382634 0.36034864 -1.2531902 0.057297364
475 1.2673211 -0.91206414 -1.2219008 0.7812778 0.42317256 -0.21332894 1.3671443 -1.2384506 0.58331525 -0.16657774 0.4637673 0.42826593 0.633667 0.33141986 -1.3301848 0.0957446
744 0.3258936 0.45314613 -0.58363307 1.5422785 0.564202 1.2583508 0.9137714 -0.6369878 -0.6766414 -1.1844814 0.2331691 -0.65890557 0.50385755 -1.3998444 -0.21386687 -0.098323494
690 0.39523897 0.7900743 -0.62863696 1.5215695 0.5727009 1.273942 0.9551511 -0.436201 -0.6793983 -1.3316805 0.21020162 -0.45882756 0.6606734 -1.4184322 -0.20111316 0.1359856
251 1.7533686 -0.8379455 0.8522719 1.0021819 1.1525242 0.020840285 1.1292255 0.47764283 0.13427669 -1.1978701 0.8377491 1.0708883 -0.39645797 -1.5459653 -0.27836698 1.0067993
212 1.9667988 0.8138338 -1.0749485 1.0414714 0.64396656 -0.5968934 0.33152232 0.3784014 1.7344159 -0.85674 0.8690176 -0.6915903 0.054311648 -0.9183752 -0.08360228 0.14608915
688 1.8374468 0.5763313 0.107092015 0.48042133 -0.18735257 0.3033006 1.2234349 -0.80601454 0.5420351 -0.46846008 -1.1579964 -1.0113516 -1.0894517 0.36662164 -0.09926898 0.991799
549 0.9120418 -0.16394484 -0.21109205 1.4139963 1.646542 -0.22407958 1.1948807 1.3079958 -0.2357547 -0.20256609 0.42875946 -0.8878367 -1.5673527 0.49709395 0.036297098 0.21706565
386 2.1841226 0.78338444 -1.2020245 1.1986966 0.31351185 -0.41430596 0.22791013 0.41919467 1.256823 -0.49046308 1.0521383 -0.6934345 -0.35298866 -1.1531441 -0.47138444 0.09252183
67 1.8032383 0.86498433 0.011698876 0.70230204 -0.2863199 0.46443427 1.188839 -0.8429053 0.46031106 -0.46494845 -1.066909 -1.2377542 -0.8053214 0.44918644 -0.081767604 1.0000174
1124 1.1792554 -0.7877828 -1.0989133 0.53634363 0.9727511 -0.24736424 1.2359906 -0.9473557 0.5808841 0.18943603 0.14812939 0.5453237 0.6590952 0.26013717 -1.2865205 0.34833372
1149 1.1440469 -1.3829213 0.31614354 1.8073894 0.49150553 0.3266952 1.0651342 0.18994911 1.1156684 0.15191069 0.29625598 -1.6928537 0.60369617 -0.73874646 -0.13783205 1.8048027
876 1.8279376 -0.88152444 0.7757445 0.807577 1.2259701 -0.005476259 1.0776153 0.65957385 0.11423638 -1.2314342 0.8733473 0.9021453 -0.2738214 -1.7065334 -0.46540746 1.0419586
252 1.2282758 -1.0652149 -1.4183314 0.8479614 0.26678237 -0.25268352 1.3117 -1.2237886 0.5194997 -0.5913749 0.44276494 0.26820242 0.5831277 0.28599957 -1.2533951 -0.06282363
871 1.9007864 0.98348683 0.33244854 0.94130003 -0.20646414 0.48547903 0.95391536 -0.72579867 0.21905407 -0.5879665 -0.8700468 -1.1657358 -0.66506934 0.5624823 -0.10012469 1.0647457
694 1.5592282 -1.2930405 -0.4956264 0.023946367 0.74876523 0.69920105 0.94113964 -0.77139735 -0.09373847 -0.24104767 0.8089724 -0.6039601 0.22787136 0.35205537 -1.1420443 -0.36973006
480 0.96362627 -0.36406037 -0.1233514 0.86423206 0.9238086 0.6055232 1.276257 1.2034471 -0.07246947 -0.46480212 0.11184603 -0.46112758 -1.0801632 0.8289719 -1.2682952 -0.48335692
995 0.5904174 -0.2012158 -0.51343316 1.018715 0.503284 0.18668526 1.9142933 1.5122534 -0.21226726 -0.68893397 0.03590307 -0.65857947 -0.9292433 0.6293133 -0.9691242 -0.4138136
1158 0.30204698 0.4590634 -0.72160554 1.3916894 0.5889802 1.4174812 0.8372449 -0.52764016 -0.59867555 -1.2428108 0.1281457 -0.8225894 0.4380986 -1.5334163 -0.2371435 -0.054092675
1087 0.36337188 -0.24919854 -0.8653488 0.3565716 1.4163567 0.6580285 0.5347535 -0.8507006 -0.3681512 -0.73483396 -0.2832382 -1.4981753 -0.183432 -1.3915068 -0.72888863 0.11190102
1082 1.489733 0.42579943 -0.09147042 1.8585445 0.6907189 0.44970965 2.2901828 -0.40360495 1.0273026 -1.0834947 0.14595729 1.398302 -0.6752451 0.53100187 0.639275 -0.39999875
628 0.7036591 -0.6120707 -1.1750811 0.3406992 1.1898884 0.5078318 0.5415984 -0.95921594 -0.3339053 -0.5299065 -0.48414126 -1.3653073 -0.09921605 -1.2733561 -0.9555587 -0.15093063
151 1.347944 0.33072332 0.7186242 -0.8724768 0.48641777 1.169677 2.3339636 0.1903433 0.010584252 -0.41063353 0.10976484 -0.47206667 0.13207135 -0.14075719 -0.46765718 0.84691525
285 1.9471263 0.927848 -1.2769357 1.3699168 0.4945683 -0.354538 0.19969995 0.37975997 1.3751044 -0.24263553 0.8614395 -0.39379507 -0.39307135 -1.2310961 -0.60459024 0.3893023
425 1.23098 0.98227584 0.4134355 -0.19459394 0.7990772 0.88721806 2.263552 0.13827999 0.48570687 0.50218934 -0.19887303 -0.42220476 0.42974854 -0.38613254 0.34729823 0.62679976
1137 1.1478002 -0.9178513 -1.4239706 0.78855956 0.22442716 -0.17725925 1.2466241 -1.1921419 0.40541577 -0.68544775 0.39609212 0.3349256 0.7812944 0.27941138 -1.0658981 0.25756708
757 0.5544883 -0.10994398 -0.6011904 1.0658175 0.5199349 0.07822918 1.8686769 1.4789776 -0.21705826 -0.6862392 0.036017716 -0.6340049 -0.9238273 0.6244284 -1.0752925 -0.45116636
1086 1.0617651 -0.9907312 -1.4271061 0.6628269 0.53319407 -0.16823423 1.3296756 -1.2947358 0.4885502 -0.4765446 0.5635452 0.3355628 0.5822584 0.18812463 -1.1194628 0.10651883
148 1.6809069 0.6501365 0.107216634 0.025022719 -0.40623876 0.63608545 1.5251658 -0.660086 0.8591244 -0.35440844 -0.8888593 -1.0467819 -0.9429121 -0.15887073 -0.026015902 0.82336885
1006 1.3890704 -0.97511923 -0.9468593 0.47507116 0.6625781 -0.09565568 1.3411613 -0.99060696 0.5471918 0.042298872 0.4339728 0.5113906 0.61986876 0.32147416 -1.3560393 0.067427084
113 1.3246607 0.06275954 0.8719955 -0.6876075 0.52304065 1.2342649 2.20423 -0.18694189 0.060872175 -0.35798427 0.13784353 -0.66043735 0.05444927 -0.09550084 -0.2402736 0.1284649
719 1.1255809 0.3789557 0.53181934 -0.78824574 0.75168306 0.9898086 2.3809738 0.18847118 0.00017822634 -0.21492545 0.30864182 -0.3946993 0.45912626 -0.13291116 -0.44916213 0.6395492
406 0.11710231 -0.13739596 -0.6729749 1.3069614 1.1571186 -0.7905341 2.0994225 1.1627634 0.044386894 -0.3440962 -0.00068775786 -0.9450353 -0.7957292 -0.14932719 0.01804441 -0.09259022
772 1.1957147 -0.7319331 -1.3828197 0.9530668 0.4351189 -0.37536588 1.2741811 -1.2250721 0.52729875 -0.13726413 0.27757803 0.37743282 0.52772516 0.3551734 -1.2176299 0.2076367
1096 1.1229248 -1.3550638 0.33301145 1.8181243 0.5195709 0.3255299 1.0357369 0.1490296 1.1398103 0.17117615 0.29871002 -1.6723932 0.60403425 -0.7098856 -0.1595783 1.8237782
128 0.56310475 -0.5507218 -1.0466225 0.24552946 1.3968831 0.56060773 0.5575943 -0.9365947 -0.34499443 -0.5400928 -0.5355603 -1.436843 -0.1923537 -1.300853 -0.9310435 0.028326275
608 0.4594277 -0.4438828 -1.0538878 0.27485886 1.2712096 0.6972058 0.5547016 -0.9086868 -0.25468588 -0.5959265 -0.2898201 -1.398096 -0.16311872 -1.379292 -0.84173703 0.03665534
224 1.1626673 -1.3659034 0.313452 1.8245919 0.5071821 0.35531455 1.0692792 0.12417542 1.1432544 0.12592803 0.26461017 -1.7251097 0.64802355 -0.74962735 -0.1669559 1.8210801
882 1.4050896 -0.87603796 -1.110377 0.70437586 0.47948363 -0.22368912 1.4591683 -1.239317 0.566475 0.07916978 0.4579432 0.4662911 0.50671214 0.39880225 -1.3263687 0.13914599
1091 1.1414002 -1.04792 -1.5092852 0.75495595 0.31680223 -0.30256674 1.3244255 -1.1409492 0.5189226 -0.5974762 0.48216406 0.38062128 0.6494753 0.25078833 -1.2150155 0.23463082
142 1.0181569 -0.9110651 -1.4301594 0.57332075 0.751733 -0.16826735 1.2179253 -1.2246983 0.35107347 -0.3626076 0.27418405 0.4436861 0.68075645 0.11731497 -1.2414162 0.18996823
282 1.9004179 0.6006742 0.41760203 0.117393106 -0.28908113 0.42053127 1.3110101 -0.9606582 0.7449879 -0.64674 -0.63954216 -1.1067522 -0.9678642 0.061903704 -0.10316214 0.818775
499 1.3544577 0.75433433 0.6532917 -0.11322459 0.8923696 0.9973228 2.3451676 -0.07331596 0.51056266 0.5164841 -0.11266848 -0.49697763 0.5081605 -0.3304248 0.42258003 0.4442397
304 1.1266124 -1.3733829 0.32062486 1.7956153 0.45700404 0.34765792 1.0252937 0.14628005 1.1345342 0.15293992 0.3253792 -1.7381887 0.6259778 -0.7538829 -0.18583523 1.8663036
250 1.9228842 0.9231018 -1.1044834 1.1145091 0.70554316 -0.5170976 0.31078213 0.3674597 1.7478342 -0.62651783 0.8422389 -0.58303195 0.0205215 -1.0220345 -0.19548742 0.14323086
621 1.087929 -1.3833575 0.35206506 1.8286608 0.48975593 0.35056615 1.0558937 0.17119396 1.1433556 0.13395062 0.27336177 -1.6544647 0.6250433 -0.7147901 -0.113847256 1.7372264
1123 1.6955906 0.9298288 -0.22743729 0.15399535 -0.30988893 0.98222625 1.6341411 -0.021040501 0.56719184 0.27300325 -0.9499092 -0.93852335 -0.5781023 -0.3918929 0.24144764 0.79221916
1162 1.8970888 0.54457194 0.14998697 -0.117720135 -0.46732634 0.7304045 1.5442528 -0.677699 0.8504543 -0.32449484 -0.65041375 -1.0562242 -0.89569 -0.3621488 0.058494903 0.6870487
1221 1.1448221 -0.93685466 -1.0725648 0.47398442 1.0997213 -0.17020094 1.2551893 -0.8510803 0.5099925 0.12620659 0.33570156 0.5688609 0.6151329 0.34602574 -1.3458693 0.32457545
90 1.8300732 0.5159081 0.2885153 -0.19017655 -0.38681924 0.5862399 1.479081 -0.74199677 0.86453635 -0.6054866 -0.66091955 -1.011575 -0.9517577 -0.24301922 -0.07208738 0.852153
1036 0.53390765 0.38029906 -0.31045994 1.62585 1.0971873 -0.14731635 1.695578 1.5217404 -0.6913247 -0.57143515 -0.12060052 -0.8199832 -0.62540877 0.37081018 -0.5754712 -0.3784356
737 1.903398 0.81537014 0.29294625 0.90605426 -0.16719224 0.40071622 1.0229336 -0.8901276 0.2919897 -0.57635266 -0.9706411 -1.2134092 -0.81900954 0.5849303 -0.03426932 0.9920541
916 1.5795846 -1.4243157 -0.49711785 -0.01160469 0.87326664 0.5958717 1.0523461 -0.758206 -0.24833125 -0.13749827 0.94313216 -0.7221354 0.081932366 0.31230515 -1.1595066 -0.27183804
816 1.9493237 1.0945886 0.28204262 0.9225588 -0.44539365 0.7287807 1.0796945 -0.6174282 0.27034158 -0.4954206 -0.7206353 -1.3129876 -0.5349714 0.38162556 -0.035824265 1.0009419
563 1.5268875 0.25735435 -0.14632943 1.8521645 0.98203486 0.7859262 1.838597 -0.24367046 0.85965365 -1.3027865 0.110522464 1.433547 -0.44836733 0.60865897 0.8626518 0.046164434
301 1.8759652 0.9377713 0.30046785 0.9970699 -0.15339229 0.39596948 0.9174742 -0.7816186 0.28195384 -0.6565544 -0.8898642 -1.1705674 -0.7650768 0.5062509 -0.033441134 1.0750265
1201 1.8241504 0.5741747 0.23849115 0.48337904 -0.1714388 0.31300038 1.1800904 -0.9424818 0.5518903 -0.5825595 -1.0470748 -1.0759885 -1.1228509 0.3410433 -0.029167458 0.9669081
396 1.8656025 -0.8866539 0.8632818 0.95772046 1.14384 0.061878003 1.1328686 0.5219688 0.2866232 -1.2668097 0.7947492 1.1419486 -0.31579763 -1.5518025 -0.18555951 0.89028513
121 1.5624013 -1.3952521 -0.50648206 0.018784516 0.8483523 0.6496485 0.96286905 -0.60251445 -0.15702088 -0.10679908 0.7289899 -0.76292086 0.102037154 0.39378807 -1.1826656 -0.43893185
117 1.0418806 -0.185835 -1.0950643 0.14969066 2.0164378 0.030524315 0.51793545 -1.2507365 -0.5244221 0.16980694 0.21642739 -0.6708853 -0.2114743 -0.31492412 -0.6069013 1.1147103
905 0.44228575 0.2857203 -0.31894594 1.5005964 1.1027354 -0.1606504 1.7411457 1.4439349 -0.623987 -0.57245934 -0.121761 -0.88876164 -0.65834165 0.35494164 -0.60280323 -0.39316562
674 1.4341329 -1.026744 -1.1738914 0.8221866 0.06839346 -0.3141646 1.4061722 -1.1661248 0.5376491 -0.23848969 0.45398355 0.26260614 0.49173743 0.36224744 -1.1743305 -0.0505315
265 0.71135914 0.050742667 -1.1287528 0.54906964 1.0004083 0.30646944 0.5835121 -0.18070734 -0.36340442 -1.6285578 -0.9273272 -0.16052206 1.1124749 -0.7597256 -0.706107 0.80860305
1145 1.6562431 0.9207044 -0.24726635 0.2028398 -0.3407177 1.040408 1.6383268 -0.024572894 0.507535 0.26212704 -0.958471 -0.8681282 -0.51664484 -0.28681782 0.18968058 0.899783
584 0.3519931 0.55218923 -0.8198012 1.636519 0.3804023 1.1014303 1.0371889 -0.78720427 -0.8285924 -1.1353601 0.19804338 -0.37114477 0.7543708 -1.2147238 -0.270254 0.065631144
1009 0.8118733 -0.11473692 -0.366264 0.99783164 0.6140694 0.34552863 1.622839 1.4973465 -0.47183228 -0.6342149 0.17397106 -0.6439888 -0.99536985 0.78864616 -1.1214068 -0.22402206
296 0.49738988 -0.12504879 -0.58276844 1.1940842 1.3204967 -0.6588998 1.7332219 1.338502 -0.16885029 -0.3377354 0.4415614 -1.0327824 -1.2400784 0.24108747 0.26305404 0.2989675
775 1.8991458 0.84955156 -1.0934895 1.0931933 0.71213686 -0.6107128 0.30064735 0.48551908 1.8327181 -0.85558087 0.71302736 -0.6251989 0.13530365 -0.93076545 -0.16278546 0.21399923
936 1.787265 -0.805432 0.83763695 0.9923976 1.168904 0.01867196 1.1476722 0.51213866 0.09013883 -1.2152972 0.8919689 1.0616876 -0.40044704 -1.5955408 -0.34679726 1.0806352
255 1.9750632 0.8383219 0.09245843 0.007261023 -0.71342427 0.85512793 1.5054765 -0.55478454 0.7968767 -0.3613967 -0.57398033 -1.2106405 -0.6965371 -0.3118598 -0.108891 0.8678204
736 1.3547261 -0.6853898 -1.1018496 0.79531246 0.5809773 -0.36430675 1.3996524 -0.9614217 0.5569185 0.2304182 0.3416567 0.5809935 0.62812746 0.46459705 -1.3772631 0.26631927
1072 1.2525067 -0.6420432 -0.97392184 0.65439147 0.84213185 -0.14927684 1.3072077 -0.94414896 0.45197532 0.2518508 0.36883193 0.6129871 0.66257805 0.4474777 -1.3959633 0.33037463
996 0.80825275 -0.63261 -1.2659247 0.32175237 1.1427977 0.5270542 0.54477936 -0.82874995 -0.47427988 -0.47008944 -0.5434566 -1.4149959 -0.09171313 -1.2922131 -0.93643475 -0.13498524
711 1.7656736 0.51337075 0.28562656 0.23876284 -0.16631252 0.13872477 1.1990371 -0.94765043 0.77749676 -0.7461231 -0.9252287 -0.9500498 -1.2182578 0.14366561 -0.10041523 1.0441203
630 0.48941523 -0.39488417 -1.0261849 0.33590695 1.2023215 0.7561948 0.6102658 -0.9131817 -0.29235885 -0.62006986 -0.36702716 -1.522106 -0.09821071 -1.399118 -0.9548425 -0.077913485
925 1.4283911 -0.111944914 0.8396949 -0.83308256 0.42309332 1.159113 2.2131803 -0.22313102 0.03274604 -0.5449697 0.2112909 -0.5046045 -0.080412775 0.097708344 -0.6017333 0.40773422
248 2.2251866 0.76199925 -1.0311295 0.9985872 0.40699375 -0.45552763 0.31352466 0.21585478 1.338128 -0.70232993 1.2857686 -0.8170433 -0.14601941 -1.0077999 -0.06943814 -0.08002586
486 1.2293186 0.23523414 0.6929 -0.7649189 0.66456974 1.1548065 2.4566493 0.09987149 -0.07283168 -0.34869897 0.47498077 -0.4779747 0.4691688 -0.23768793 -0.21003398 0.38421172
140 1.3895371 0.4887783 -0.4699278 2.029927 0.8871315 0.70969 2.0448592 -0.3770532 0.94182634 -1.1726788 0.005298095 1.2177497 -0.36421084 0.7867966 0.958431 -0.06922499
89 0.662391 -0.557529 -1.2506969 0.97480506 0.08953496 0.1254878 0.96254045 -0.46404615 -0.16772275 -1.4782637 -0.5903871 0.19224964 1.0077695 -0.12335023 -0.99493974 0.86073494
947 1.9586201 0.7672109 -1.3333222 1.4325504 0.3570215 -0.27585614 0.12265285 0.48975837 1.2606143 -0.1298141 0.7684529 -0.4805315 -0.5363233 -1.357853 -0.9223646 0.546995
537 1.1911151 -1.36413 0.2772428 1.7913398 0.53002316 0.33610564 1.0394793 0.122839116 1.1115402 0.13783415 0.2846552 -1.7033561 0.6246972 -0.70926464 -0.11923942 1.8413385
341 1.0819675 0.6807684 0.55031395 -0.72183335 0.8084411 0.87919635 2.5069063 0.2112337 0.1978059 -0.13313872 0.13977495 -0.3195334 0.43900597 -0.29527214 -0.1871428 0.8545731
1060 1.8217409 1.0477134 0.1160049 0.56910807 -0.47419873 0.72716975 1.3213376 -0.47740528 0.43236443 -0.37330312 -0.8623499 -1.2128314 -0.6235535 0.15577124 -0.1123573 0.93495184
81 1.5033468 -0.9451937 -1.0719062 0.84738225 0.33758104 -0.3496143 1.4177731 -1.2273406 0.50952256 0.089054674 0.56709397 0.3874491 0.51581454 0.46994576 -1.2345567 0.196534
556 2.225787 0.77517587 -1.2408948 1.2806205 0.26973054 -0.2108563 0.14161715 0.25503352 0.96876156 -0.08095684 1.194897 -0.6219361 -0.6170547 -1.3436288 -0.6593461 0.23311059
780 1.6047367 -1.1079793 -0.09009191 -0.03881436 0.8074171 0.659451 1.0502907 -0.36841828 -0.1795571 0.06446246 0.57313895 -0.6962482 0.0064831376 0.44406337 -1.1273024 -0.6931248
746 1.168014 -1.404373 0.32902083 1.818578 0.4884253 0.36470222 1.0421097 0.11320241 1.1507955 0.16071244 0.29981628 -1.6734451 0.6420369 -0.7488276 -0.13792 1.8485855
911 1.049288 0.84114873 0.42878294 -0.5472709 0.8580103 0.8567168 2.5491016 0.2525458 0.32216677 0.051543817 0.08163877 -0.24213208 0.6006799 -0.41670653 0.07798815 0.7554538
1187 1.9431078 0.8487203 0.45389357 0.71471715 -0.25719374 0.50848895 1.0264038 -0.82054865 0.1735336 -0.6621292 -0.7823537 -1.110368 -0.6993833 0.4978195 -0.11384262 1.0447469
629 0.28203136 0.49126297 -0.57930666 1.2578897 1.0310287 1.4218314 0.7163185 -0.4891117 -0.67528844 -1.1449611 0.111851245 -0.987167 0.3679512 -1.6691027 -0.24110165 -0.02581552
303 1.0852171 -1.3644425 0.32640243 1.8255364 0.48386154 0.3757812 1.0557661 0.18138519 1.1114156 0.1426282 0.30935922 -1.6427561 0.6042793 -0.7086051 -0.12794094 1.7940663
1026 1.6137171 0.819486 -0.026251847 0.7841638 -0.13103706 0.38041767 1.2414236 -0.7551155 0.5427174 -0.32136056 -1.2551999 -1.1358536 -0.8874092 0.35059357 0.058545895 0.91259474
502 1.2878895 0.11447272 0.73351884 -0.8780737 0.64896834 1.062169 2.1430614 0.048885874 -0.16314046 -0.5316936 0.46489346 -0.5794333 0.20646584 0.052851696 -0.7647733 0.27760097
706 2.2981706 0.71805817 -1.1727772 1.3609693 0.07014457 -0.24184048 0.24225706 0.35746092 0.9675236 -0.17512013 1.2333164 -0.6653135 -0.5897218 -1.29214 -0.6502369 0.13500167
845 1.2096797 0.30552143 0.5944732 -0.97210395 0.7270494 0.97447354 2.5724304 0.17737107 -0.05192822 -0.51432484 0.4358512 -0.47361425 0.42887047 -0.2569295 -0.47482854 0.6102432
473 1.3535308 0.15284884 0.7630194 -0.5152689 0.60610694 1.1934323 2.3910837 -0.22408994 0.32411715 0.056159273 -0.078255296 -0.473165 0.14206512 -0.16827077 0.046002228 0.31092682
583 0.28786623 0.54775995 -0.6159079 1.6580368 0.40758643 1.1093436 1.0030676 -0.7220649 -0.7588751 -1.1243104 0.2802814 -0.50716966 0.5582189 -1.4111683 -0.22941391 -0.0060831956
354 1.0585847 -0.1482702 0.3402055 1.0672339 1.461485 0.5231886 1.0772458 1.1610514 -0.19153874 -0.37920564 0.010740628 -0.5464713 -1.1321244 0.6231652 -1.1719412 -0.46488643
284 0.11094164 -0.31200397 -0.6871557 1.0849892 1.1409595 -0.9186672 2.3124287 1.1146668 0.25538126 -0.2953077 0.04588622 -0.910542 -0.7566144 -0.23277885 0.038026296 -0.18588796
1109 0.23906147 0.63402617 -0.5458632 1.3952957 0.89340186 1.2758148 0.73713815 -0.545844 -0.6442422 -1.208586 0.29167935 -0.7456926 0.30849993 -1.5326115 -0.103932075 0.20093329
1138 1.3522468 0.5330524 -0.45603037 2.0291727 0.8318614 0.552922 2.1240096 -0.4472684 0.98333335 -1.135744 0.0116373245 1.233057 -0.4098719 0.67083377 0.95054936 -0.085702054
1234 1.000735 -0.2331537 0.1750901 1.4150038 1.5760446 0.3658061 0.8308319 1.2364138 0.0900742 -0.33687142 -0.20209213 -0.51445526 -1.2757634 0.49742872 -1.0308803 -0.43419924
1044 1.6147333 -0.136942 0.8650602 -0.74243766 0.3555253 1.2234778 2.172937 -0.1620286 0.055769928 -0.3883066 0.14056087 -0.4216049 -0.13566485 0.05154101 -0.60132486 0.21081565
178 1.9420122 0.8342561 -1.1323826 1.0816816 0.71657044 -0.6335632 0.33551627 0.4281055 1.8264244 -0.8217453 0.7284603 -0.65317994 0.0894705 -0.9924499 -0.17822465 0.2012902
1155 0.6159327 -0.3906752 -0.24128322 0.8642459 0.6712187 0.20027336 1.9683033 1.271438 -0.13426225 -0.45431826 -0.047263734 -0.64697826 -0.6201386 0.59662056 -1.2587669 -0.86820364
73 1.2566171 0.9107187 0.5657417 -0.02697705 0.9199383 1.0039183 2.332799 -0.019417506 0.44667172 0.5251572 -0.032419816 -0.6254014 0.60454684 -0.32253686 0.44096038 0.25956023
1227 0.971955 -0.16096194 -1.1467818 0.3085644 2.0471807 -0.033674154 0.5122759 -1.4151361 -0.50028914 0.2610379 0.20690888 -0.60890603 -0.14746796 -0.44272617 -0.4429576 0.8880683
929 0.7414114 -0.060449794 -0.4295987 1.265803 1.0650066 0.2176829 1.2169244 1.4673752 -0.51293385 -0.5792952 0.11756029 -0.67659515 -1.171892 0.62360907 -0.7946633 -0.016665913
948 1.0162827 -0.17859381 -0.96774596 0.2587854 2.1238608 0.045046292 0.47501528 -1.3668394 -0.31735525 0.3141501 0.1829639 -0.5226496 -0.2981089 -0.2723421 -0.6265351 0.9202361
448 0.08235622 -0.24009226 -0.6970106 1.1309654 1.053157 -0.9603003 2.3837886 1.0146478 0.3264149 -0.3372009 -0.024795301 -0.8717871 -0.70829314 -0.34658718 -0.027059408 -0.30366173
229 1.5844172 0.8360462 -0.24589801 -0.0011493709 -0.3022089 0.97422326 1.7316453 -0.046787493 0.6907355 0.24714781 -0.90153515 -0.75627613 -0.60828674 -0.46493793 0.18752564 0.7988474
182 1.3197905 1.0801504 0.5726109 -0.07320719 0.75157446 0.9114488 2.2187464 0.019704916 0.47051734 0.44892284 -0.21443778 -0.638859 0.49232188 -0.38553444 0.4905363 0.5337911
930 0.63551086 0.19095773 -0.4825103 1.388446 1.0567482 0.10747583 1.3204482 1.5089831 -0.6703757 -0.6223291 0.14150077 -0.7224922 -0.9749892 0.6177651 -0.71907485 -0.017075887
867 1.6308562 -0.014360386 0.9164801 -0.4598508 0.19963206 1.3547759 1.9688711 -0.21482658 0.16895126 -0.16950804 -0.132723 -0.7057338 -0.40242675 0.17408462 -0.1922514 0.256961
307 2.202406 0.915196 -1.0947517 0.99628365 0.46620706 -0.4071735 0.36905545 0.22060318 1.327209 -0.5455968 1.2820021 -0.7013228 -0.1920583 -1.1001182 -0.12689732 -0.075606875
299 1.3290778 -0.012021525 0.8905023 -0.7025375 0.52122456 1.1911982 2.3033082 -0.10000182 -0.00039185138 -0.4306547 0.24369933 -0.5582574 0.14761941 0.06871634 -0.4093678 0.019948708
1275 0.3434345 0.66216856 -0.72781366 1.687266 0.3237676 1.082861 1.1169252 -0.72637093 -0.7665482 -1.1959758 0.12538582 -0.4245989 0.59956586 -1.3785951 -0.2525597 -0.06281233
1048 1.1130544 -1.3853198 0.32030395 1.8156091 0.4713735 0.31304684 1.0407721 0.14397271 1.1126987 0.1483432 0.2743599 -1.697516 0.599938 -0.7460146 -0.13790187 1.7770692
778 0.5391264 -0.46150672 -1.150168 0.17306386 1.3847995 0.48404822 0.47594312 -0.92559713 -0.26925626 -0.75424814 -0.43741912 -1.4427726 -0.22513026 -1.2319695 -0.90326774 0.1570975
1037 1.6612706 1.1908239 -0.1022969 0.8767975 -0.1797316 0.5637769 1.3532926 -0.49619946 0.45718488 -0.1409728 -1.1880221 -1.1741859 -0.578491 0.44444308 -0.0443017 1.1260434
526 1.8024766 -0.86566347 0.8005621 0.7875022 1.2368276 -0.027429365 1.031774 0.66225535 0.051174812 -1.1840389 0.86788154 0.84474397 -0.26660615 -1.7218431 -0.5403225 1.0676831
1185 1.0871235 0.98497885 0.49308607 -0.47053972 0.96109027 0.7754749 2.5941815 0.1660825 0.6039672 0.23295778 -0.17622606 -0.13180237 0.48025703 -0.4049133 0.14100862 0.8777762
298 1.3814702 0.12253527 0.9795839 -0.55067784 0.45949817 1.2526795 2.1734583 -0.1713728 0.14623128 -0.34089476 -0.05042992 -0.47481343 0.0056833494 0.01173367 -0.19497631 0.4357044
713 1.1175873 -1.3661563 0.33574644 1.8305013 0.51847774 0.3659775 1.013256 0.15085943 1.1485493 0.15796717 0.284079 -1.6479669 0.6386582 -0.70367855 -0.1339638 1.792395
155 0.7130212 -0.12179949 -0.45440483 1.3151262 1.4450185 -0.5060608 1.5916911 1.3198473 -0.3416816 -0.25464582 0.5509975 -1.0512469 -1.2739336 0.40209648 0.34027225 0.28755796
835 0.6321802 -0.33853135 -1.1498705 0.7763689 0.43456078 0.23170805 0.75125206 -0.4069418 -0.2556537 -1.4780807 -0.98010105 -0.19309272 0.9583644 -0.7724038 -0.8181447 0.37037155
1040 0.2721364 0.36266878 -0.543666 1.4041027 0.6661101 1.3003997 0.8248102 -0.6472169 -0.72428167 -1.1446494 0.16961811 -0.9115023 0.25192487 -1.5166694 -0.19952369 -0.19439447
707 1.8846164 1.2793435 0.3558354 1.0305032 -0.22728646 0.6933767 1.1542557 -0.6230986 0.2852731 -0.33039862 -0.7556392 -1.3223697 -0.46206594 0.38823327 0.07959027 0.9280874
505 0.20055065 0.14192031 -0.7092402 0.33588898 1.771093 0.6543265 0.4781307 -0.71991605 -0.31689483 -0.9858131 -0.22481197 -1.5024451 -0.18451872 -1.3095666 -0.621862 0.6585016
642 1.6603289 0.8109494 -0.100437954 0.7147843 -0.26136824 0.5171474 1.2496407 -0.7274507 0.5521717 -0.3107754 -1.2370474 -1.1278669 -0.9323894 0.36109942 -0.0456646 0.9693239
488 1.5829409 0.5479944 -0.11530578 1.8627417 0.58483946 0.18224432 2.4064467 -0.38487142 1.0548867 -1.1171703 0.13674252 1.4391727 -0.7234531 0.3246232 0.6251188 -0.35259303
6 1.3457972 -1.2721751 -1.2564539 0.6596004 0.3453056 -0.18476172 1.3564839 -1.302712 0.50466686 -0.38304746 0.6697537 0.062267113 0.38935885 0.36614186 -1.1138569 -0.07769261
74 2.095152 0.71889704 -1.1827958 1.2046574 0.39081526 -0.49180883 0.21282217 0.43587726 1.3921847 -0.5943451 0.9854437 -0.76527953 -0.23633005 -1.1207939 -0.41689697 0.14606227
338 0.9219804 0.05696188 -1.0529712 0.3366836 2.2863753 -0.07702304 0.46982452 -1.2318721 -0.29703203 0.22390594 0.19948517 -0.4934883 -0.18806499 -0.41208565 -0.58350825 1.2288795
1180 0.6469393 0.25973102 -0.5675528 1.4816068 1.0229623 0.09100232 1.4355493 1.5580307 -0.67972124 -0.6511581 0.053910345 -0.84864825 -0.8797391 0.63977724 -0.74294615 -0.07804905
519 1.8836135 -0.8533601 0.90833664 1.0614915 1.128728 0.00930355 1.1756171 0.3797966 0.25474524 -1.2419223 0.79745984 1.1634433 -0.3785308 -1.5291964 -0.09529429 0.9631641
29 1.2617826 -1.6271708 -0.76406586 0.042030845 0.79990184 0.47449172 1.1561778 -0.80136365 -0.27115262 -0.505896 0.78679556 -0.73766977 0.1904575 0.28964907 -1.2346908 -0.2511171
633 1.7699759 0.5475912 0.29938877 0.53105855 -0.105977 0.18386456 1.1317705 -0.9398742 0.5542413 -0.68193597 -1.0272686 -1.0078675 -1.1613932 0.29743785 -0.039842706 1.0001409
173 0.40348023 0.4707895 -0.8148479 1.7678974 0.24821997 1.1511582 1.1315068 -0.7234387 -0.89899194 -0.97020775 0.12767996 -0.4675147 0.73668814 -1.3324636 -0.30689865 -0.122911304
754 0.68187606 -0.42936993 -0.36003786 0.81242967 0.38033533 0.24146326 1.9538438 1.3039755 0.12219418 -0.52514184 0.040190637 -0.49427187 -0.8539551 0.62216914 -1.0984787 -0.7321854
777 0.44510305 0.5489821 -0.88046914 1.6969345 0.18889083 1.1155208 1.1293943 -0.645276 -0.7953563 -1.1987228 -0.07463102 -0.37057185 0.8044967 -1.3184875 -0.29257736 0.05707392
156 1.7334583 0.9372993 -0.0025388596 0.026140591 -0.11959276 1.1486084 1.8661505 0.27578127 0.43452066 0.50288916 -0.7513192 -0.67214245 -0.35394272 -0.55444294 0.339915 0.865287
436 1.7430408 0.47839114 0.11475231 -0.3737951 -0.37731084 0.6694713 1.6037818 -0.5798114 0.93653303 -0.30344006 -0.6838491 -0.86867523 -0.92524356 -0.35893726 -0.05957158 0.7197506
907 1.4022888 0.010053345 0.80815583 -0.9883561 0.62238157 1.1771735 2.2690845 -0.04322263 -0.08328625 -0.6739242 0.3603904 -0.55118585 0.040040772 0.03772354 -0.6359366 0.464015
319 0.74466586 -0.62127775 -1.1412449 1.0092545 0.30116966 0.10233721 0.89836365 -0.59886616 -0.4507021 -1.4961073 -1.105248 -0.26168245 0.8258453 -0.7961215 -0.799576 0.1574061
743 1.1353014 -1.3579973 0.351527 1.8011298 0.4803388 0.3484221 1.0356895 0.15780698 1.1009874 0.1381103 0.30329263 -1.7083635 0.6084677 -0.73178273 -0.16531603 1.7973645
759 1.3080119 -1.2611729 -1.3473623 0.6853878 0.15024707 -0.32988355 1.1707659 -1.2394296 0.45712852 -0.72560054 0.48463997 0.0058724917 0.4305833 0.33172268 -1.0191318 -0.025112951
548 1.1839857 1.0686984 0.46723166 -0.14116786 0.87948424 0.7870642 2.350908 0.10250079 0.53492993 0.4034086 -0.20673567 -0.49684563 0.5000751 -0.42946202 0.4166871 0.6905191
429 0.66797715 0.0018176117 -1.0763323 0.44218555 1.1538002 0.30799073 0.5075822 -0.21716921 -0.3583568 -1.5550282 -1.0012467 -0.21268235 1.0740857 -0.8139769 -0.8396556 0.6420336
37 1.5027572 -1.4199736 -0.47350204 0.025112288 0.9672406 0.6174153 0.92969555 -0.7384047 -0.29996473 -0.20508356 0.8742604 -0.82176006 0.09525881 0.39778978 -1.0277064 -0.3468239
332 0.52945304 -0.10458089 -0.2626357 1.1235675 0.7167475 0.16301236 2.0528646 1.4105345 -0.21275713 -0.5671671 -0.20050652 -0.7348694 -0.6106188 0.48242262 -1.1218991 -0.83057284
979 1.7636465 -0.7654254 0.83581805 1.1067438 1.1251159 0.008853216 1.1532288 0.38309702 0.06493938 -1.1637547 0.85008585 1.1394271 -0.46262875 -1.4791299 -0.19336443 1.1546631
604 1.8750255 0.8304861 -1.2770826 1.3657612 0.37768057 -0.3324746 0.17880692 0.54048216 1.3682956 -0.21753006 0.66709095 -0.41218174 -0.38686147 -1.292898 -0.860875 0.48980135
1231 0.46771246 0.16823487 -0.5775114 1.3150742 0.7161224 -0.06353861 1.9817958 1.3917267 -0.55260575 -0.5389857 -0.17733975 -0.95399487 -0.6386372 0.4714426 -0.87139136 -0.5660577
405 1.9617181 0.7549579 -1.185385 1.287135 0.40894327 -0.5035338 0.19872476 0.6189284 1.5872331 -0.6013902 0.6921573 -0.5998647 -0.18983038 -1.1476927 -0.59524566 0.3689417
960 1.9035892 0.83808076 -0.008546381 0.028530689 -0.4406007 1.2084599 1.6972442 0.05030745 0.38365754 0.33466366 -0.63570714 -0.86425334 -0.42854112 -0.3905021 0.17058887 0.76676005
440 1.5837272 -1.4839633 -0.41326356 -0.073979095 0.9524987 0.60030544 0.9817525 -0.52212983 -0.2913329 -0.18965672 0.8522473 -0.91657346 0.06263976 0.38529947 -1.2634393 -0.2664379
734 0.8760401 -1.0343114 -1.289061 0.26360422 0.9614807 0.33663654 0.5894679 -1.0155933 -0.37874097 -0.623296 -0.29017407 -1.0481045 0.22495711 -0.95182717 -1.0624806 -0.24681789
985 1.8695753 -0.8453717 0.85220724 0.96889895 1.1236035 0.0896433 1.1714566 0.4987276 0.3109592 -1.2671505 0.7820085 1.1312395 -0.32901305 -1.538498 -0.23758066 0.8258531
131 0.104127035 0.054261435 -0.729823 0.29558566 1.7499381 0.5770508 0.4857148 -0.77305037 -0.28776988 -1.2244813 -0.31074977 -1.5444372 -0.23914796 -1.2428957 -0.65801585 0.8839775
60 1.4926468 0.15868284 0.9298474 -0.60165244 0.3818216 1.3689252 2.347206 -0.20242585 0.24523798 -0.29750586 -0.14874172 -0.4119335 -0.090660565 -0.12791714 -0.14017354 0.55740374
165 1.0895697 -0.27123812 0.28970483 1.2400908 1.4215362 0.44592965 0.94823366 1.152117 -0.060036 -0.40752915 -0.09700961 -0.49134418 -1.0750753 0.63725066 -1.1069919 -0.58242613
1256 2.1752362 0.741599 -1.2626432 1.4363807 0.17552029 -0.22549202 0.1326998 0.358355 0.9462099 -0.013163826 1.0464698 -0.5566334 -0.65916985 -1.3761134 -0.85777277 0.4116046
838 1.0262126 -0.094220616 -0.10991605 1.186398 1.4512382 0.4378394 0.87785053 1.406536 -0.2238844 -0.44850895 0.09454858 -0.6427177 -1.4401785 0.6402566 -1.0893425 -0.0006077322
1263 0.72011375 0.09608867 0.023768693 1.6534436 1.6066614 -0.16446029 1.1903787 1.3483245 -0.26594248 -0.265076 -0.12894599 -0.7264139 -1.075349 0.31320757 -0.46479562 -0.25511754
624 0.08909076 -0.3943739 -0.81456804 0.91575086 0.8853926 -0.72638613 2.5068333 1.1681708 0.5064676 -0.41847327 0.02768553 -0.8622086 -0.87365687 -0.09432925 -0.38952333 -0.46695283
363 0.9511772 -0.5241228 -1.413094 0.3180921 1.7851505 -0.060412206 0.70881397 -1.2800416 -0.47275713 0.42808223 -0.05014838 -0.4996346 -0.0028835537 -0.37449187 -0.8047884 0.7438973
673 0.38821217 0.76250917 -0.66341805 1.7311335 0.41752854 1.187622 1.117434 -0.7628468 -0.7718506 -1.0496372 0.26898316 -0.42839208 0.5871013 -1.4359716 -0.182543 -0.032268576
45 0.5531452 0.161813 -0.18987504 1.4744092 1.0648576 -0.077430755 1.8362153 1.3690169 -0.58534646 -0.49807274 -0.24921076 -0.8326552 -0.5390683 0.3519155 -0.7456059 -0.6113065
714 1.8216032 -0.8191703 0.8687773 1.1071826 1.1123277 0.019861022 1.2048714 0.395141 0.14234681 -1.1502721 0.79099363 1.1898338 -0.43010324 -1.5175594 -0.092584245 1.0287336
983 1.2246004 -0.87110966 -1.4023714 0.8755007 -0.051302932 -0.26413685 1.3242037 -1.0050726 0.43518972 -0.81665856 0.24522293 0.34971076 0.8641979 0.31124 -1.1533059 0.20979573
921 1.6006761 0.36057 -0.1187224 1.7976227 0.8351275 0.6672048 2.0267394 -0.17953962 0.8354252 -1.2819126 0.12022162 1.5321218 -0.6280473 0.5764458 0.75789833 -0.18628386
1062 2.0953615 0.8227715 -1.0247304 0.9158398 0.579617 -0.5193905 0.36866504 0.22613913 1.5142375 -0.7297804 1.1560704 -0.7924694 0.001122345 -0.9784698 0.0048392643 -0.08737084
951 1.6365621 0.5439349 0.114886805 0.14681433 -0.1655243 0.32057604 1.3828721 -0.77354115 0.9484725 -0.4987137 -1.0674886 -0.9427548 -1.1828578 -0.057002716 -0.03593383 0.9583425
779 0.82326484 -0.2966676 -0.5344815 1.1251312 0.568046 0.4672685 1.3370228 1.4270089 -0.18228666 -0.7878687 0.16030006 -0.55202955 -1.2733229 0.8143599 -1.1469104 -0.19394203
912 1.3301303 -0.63223 -1.0251117 0.49367183 1.0897677 -0.18896654 1.2180662 -0.99460524 0.541871 0.42724007 0.20028281 0.56934 0.5007137 0.4794598 -1.3861344 0.40662387
4 0.15474078 0.26411065 -0.7631694 0.38706118 1.9261839 0.5019206 0.45003662 -0.71365285 -0.32465285 -0.94271314 -0.3703422 -1.3953841 -0.1710706 -1.2125777 -0.56924665 1.0427072
1167 1.754722 -0.7736741 0.82841337 1.0918363 1.1047647 -0.008600302 1.1613116 0.389646 0.009114432 -1.1585786 0.85272545 1.1094767 -0.4907754 -1.4811414 -0.16652009 1.1411848
62 0.6071554 0.2843323 -0.12852404 1.6248089 1.2675661 -0.18580756 1.534448 1.4421021 -0.4437323 -0.49228522 -0.31777188 -0.82532877 -0.7899117 0.15672915 -0.54177576 -0.427571
933 0.5542777 -0.4412992 -1.3438294 0.81873035 0.33524588 0.1266878 0.79687333 -0.39883763 -0.18612917 -1.3835629 -0.66617566 0.090686195 0.916875 -0.17328995 -0.9514946 1.1063162
602 0.8561135 -0.76562935 -1.2416399 0.38414583 1.4664043 -0.07328943 0.99448645 -0.9164851 0.32630634 0.24134262 -0.084597126 0.4161459 0.47351518 0.22658557 -1.2665992 0.80605704
790 1.527548 0.8124091 -0.2798743 0.20044713 -0.29108793 0.59507036 1.5524161 -0.51886743 0.8586732 -0.09029194 -1.1429673 -0.9867844 -0.88515 0.02692602 -0.08174169 0.9215306
9 1.8096879 0.8745698 -1.250306 1.3470478 0.50395626 -0.46168268 0.1920918 0.6368083 1.6676016 -0.40752923 0.5458511 -0.41309506 -0.2228733 -1.171465 -0.72785795 0.46922374
202 0.38626504 -0.24934825 -1.0164511 0.3217804 1.4122758 0.71490574 0.5403503 -0.79580444 -0.35200056 -0.7202978 -0.25030068 -1.6232893 -0.12405396 -1.449954 -0.7747587 0.19910033
760 1.8281984 1.0931491 0.1732867 1.2692444 -0.18433423 0.53004843 0.9657555 -0.7027849 0.19081947 -0.4370317 -0.9786737 -1.2220511 -0.6253754 0.635239 -0.07926273 1.0907526
76 1.4462153 -1.4733107 -0.36632478 0.0015598817 1.0619639 0.761471 0.9203997 -0.691111 -0.280025 -0.23036025 0.8312534 -0.8527708 0.036398243 0.3918606 -1.277256 -0.36665633
219 1.284218 0.02913963 0.84422755 -1.0467997 0.60117215 1.1584032 2.3755984 -0.034832675 -0.025147434 -0.8007304 0.3363356 -0.48063287 0.07857954 -0.21443643 -0.6173298 0.65463066
817 0.8862901 -0.78187597 -1.3906335 0.5521115 0.87992656 -0.08201599 1.0329013 -0.81736016 0.17960593 -0.4581275 -0.06427364 0.5433817 0.899677 0.1617199 -1.2385732 0.6713445
856 0.14434725 -0.23451898 -0.6737084 1.2100779 1.1907121 -0.9604753 2.288092 1.0661525 0.20342624 -0.31042513 -0.024504745 -0.9639127 -0.7315793 -0.20955849 0.13387242 -0.19703919
599 0.5395847 -0.04017135 -1.1897281 0.5178326 0.93528616 0.06574123 0.6216701 -0.21427256 -0.15151772 -1.5868996 -0.9660449 -0.15360911 0.90693223 -0.6688548 -0.8458626 0.98047185
1046 0.8399339 -0.4530219 -1.476055 0.1458984 1.232642 0.48057982 0.5317625 -0.67975813 -0.53176284 -0.5145279 -0.7998468 -1.0951513 0.23712032 -1.2169964 -0.9965798 0.07032709
1098 0.501772 -0.2974645 -1.2750796 1.1777412 0.2221148 0.048086356 0.89571637 -0.34778035 -0.10468341 -1.7137727 -0.88925207 0.028130617 0.89985687 -0.50495875 -0.8209813 0.93720436
842 1.5845131 1.0199031 -0.29908022 0.3364216 -0.33434477 0.878013 1.601376 -0.2020775 0.5739923 0.17791732 -1.0951161 -1.0396148 -0.49589387 -0.038715836 0.12053203 0.84940374
717 1.705426 0.021289445 0.8651409 -0.48021603 0.18430135 1.14019 1.8935733 -0.29865092 0.16982296 -0.11099811 -0.010320241 -0.6589785 -0.29338896 0.25012133 -0.28283358 0.2213347
1156 1.0574394 -0.3186557 -0.008244606 0.9396595 1.1110618 0.5326556 1.0601705 1.3684146 0.17518616 -0.50149316 -0.056682277 -0.45773646 -1.3252349 0.64455825 -1.3467224 -0.21905653
1141 1.7607076 -1.3131586 -0.25726867 -0.11630181 0.73535556 0.5988963 1.1363443 -0.41241464 -0.03425222 0.05508338 0.77901405 -0.7025222 0.051132075 0.30192646 -1.1732525 -0.5667182
1253 1.5309123 0.21353154 0.8124433 -0.43499976 0.39934558 1.285401 2.1762366 -0.251347 0.23774225 -0.018983157 0.041330013 -0.640249 0.021066105 0.024260573 0.020432808 0.014492026
95 0.2683305 0.6748295 -0.52280825 1.2045432 1.1068473 1.3548597 0.6189004 -0.37174672 -0.5210483 -1.3549519 0.15028866 -0.78758055 0.46508098 -1.5865446 -0.17336588 0.2773786
470 1.6427183 0.78351265 -0.20041369 0.058782887 -0.4030348 0.9345359 1.6749188 -0.2693106 0.74980295 0.09659588 -0.9610212 -0.9928186 -0.7170435 -0.34519714 0.22018257 0.75911814
1097 1.2972062 0.5439323 -0.47399953 2.008537 0.81461126 0.454205 2.0740275 -0.48838356 0.96329087 -1.114758 -0.005318984 1.2264454 -0.35604098 0.63386744 1.0028018 -0.037745677
27 0.19115867 0.15985243 -0.779134 0.28727657 1.8763523 0.516231 0.45810747 -0.75847256 -0.2804219 -0.91814524 -0.37600103 -1.4688469 -0.28406498 -1.3228319 -0.5901646 0.8134379
1038 1.1714369 0.89180154 0.5081995 -0.4946342 0.6990069 0.7954549 2.4066935 0.24098252 0.54433733 0.05600741 -0.25280997 -0.26437312 0.23629948 -0.28733513 0.06387841 1.0967461
384 0.31681487 0.1399929 -0.8890339 0.39466873 1.6283135 0.24412104 0.54461676 -0.38754955 -0.21037222 -1.3730286 -0.89700174 -0.33292046 0.84664494 -0.88524246 -0.85323405 0.8926911
1151 0.28585353 0.67584926 -0.43912962 1.2205162 1.091733 1.3549101 0.6570615 -0.3036812 -0.5377351 -1.2676799 0.07267111 -0.9037206 0.34551957 -1.6476542 -0.22566424 0.16335283
1115 1.1568668 -1.3763263 0.28382587 1.8231791 0.4843504 0.3357052 1.0028368 0.10353642 1.1304946 0.17070445 0.27697653 -1.7286217 0.6168137 -0.7338877 -0.12503968 1.8302277
47 1.7335875 -0.75802857 0.8486669 1.1226453 1.08932 0.005626756 1.1663499 0.4083201 0.018871965 -1.1362079 0.8340401 1.1815383 -0.5067315 -1.4609396 -0.15571813 1.1476786
623 0.42902762 0.3606297 -0.37999687 1.6319425 1.080667 -0.3149039 1.7962042 1.4776216 -0.40099156 -0.60382247 -0.33157232 -0.88641274 -0.7261005 0.18156299 -0.5865572 -0.4271563
351 0.94095725 -0.717994 -1.1929486 0.44393158 0.7502653 0.44861376 0.60082984 -0.7040945 -0.64373875 -0.81380165 -0.7883018 -1.1055665 0.40527058 -1.1312708 -0.99161196 -0.22570023
800 1.1481438 0.4753462 0.63008285 -0.39744118 0.8994701 0.96219033 2.416774 -0.061086375 0.34258467 0.22822918 0.06099526 -0.44283006 0.52449334 -0.12146367 0.109586395 0.16541465
1220 2.2239819 0.75225884 -1.2105436 1.253227 0.2502145 -0.30540076 0.19097587 0.3148048 0.948226 -0.19704284 1.1572565 -0.6724101 -0.5714157 -1.259946 -0.5975187 0.22534756
1099 1.8700445 -0.88957477 0.8013493 0.7602477 1.2394018 0.03867829 1.076137 0.66903734 0.19658317 -1.2513182 0.8618811 0.9059233 -0.27141392 -1.7875448 -0.57072234 1.0472065
361 0.05555903 -0.35039216 -0.81728065 0.88874924 0.83189785 -0.71415627 2.4555397 1.1623847 0.40230945 -0.44575903 -0.0027973116 -0.84428376 -0.7738145 -0.096843384 -0.33612454 -0.41494542
924 1.4835428 -0.8583799 -0.93102384 0.6443396 0.6143067 -0.15499334 1.396933 -0.9764068 0.5602917 0.28852388 0.46256083 0.5007324 0.55836946 0.52595097 -1.3306998 0.14888518
798 0.8884525 -0.5753578 -1.247901 0.2688242 0.9337643 0.38112667 0.4908303 -0.671843 -0.566964 -0.92120653 -0.77593756 -1.0493863 0.4467709 -1.166235 -0.97684425 -0.0040710527
963 1.0381378 -0.088735916 0.16071518 1.3055546 1.477408 0.42328846 0.7967817 1.2951993 -0.048780452 -0.46232542 -0.15516245 -0.50787145 -1.3616493 0.5129219 -1.1160498 -0.18012603
424 1.4194837 0.95258033 -0.3358737 -0.0049933833 -0.27376315 0.7929666 1.726928 -0.04677817 0.6515148 0.08024614 -1.0418519 -0.75237197 -0.5631784 -0.20791413 0.03332333 1.0872836
855 1.1279093 -1.3493685 0.32279655 1.8040978 0.5068533 0.33419508 1.0153993 0.15779187 1.1005594 0.116448246 0.32737115 -1.6837449 0.63090825 -0.6821805 -0.10794356 1.8044224
957 1.1524655 0.45980048 0.65405995 -0.47889835 0.8389353 1.0389769 2.407885 -0.110810995 0.20459178 0.14589211 0.13101558 -0.608899 0.49002084 -0.18112034 0.06801529 0.18478082
1035 2.0140717 0.7401288 -1.2952797 1.379816 0.17050673 -0.30087844 0.15639287 0.5860528 1.2468112 -0.20612657 0.77844036 -0.4529449 -0.5150833 -1.3423849 -0.94918114 0.4316111
1114 1.5171933 -0.17416991 0.79370147 -0.8020589 0.31961077 1.2595888 2.0698678 -0.16183671 -0.0030686287 -0.47901136 0.12723692 -0.6038051 -0.12231207 0.07584339 -0.64835787 0.24620675
452 0.12167125 0.036896966 -0.81338435 1.2596637 0.8709437 -0.5023725 2.187185 1.347663 -0.019114455 -0.6308359 -0.08906947 -0.9658977 -0.8650624 0.088216886 -0.35293907 -0.27982712
536 1.3738297 0.572112 -0.3226911 1.9616895 0.7112452 0.3856933 2.1704688 -0.42573807 1.0292622 -1.1266015 0.06921899 1.3489294 -0.5395804 0.5203146 0.8181227 -0.2093076
230 1.686864 -1.292933 -0.23405626 -0.062973924 0.8561505 0.62074214 1.1607251 -0.3741964 -0.1796415 0.18803072 0.5483247 -0.6988001 0.12599058 0.44878393 -1.2438052 -0.5292107
969 1.8699145 1.2213397 0.3529954 1.1589442 -0.13128833 0.6113673 1.0626105 -0.5008947 0.21279806 -0.39809635 -0.9003249 -1.185277 -0.49820697 0.49750924 0.11433804 1.1082376
828 0.98514664 -0.1002455 -0.10749006 1.2883576 1.3596604 0.3548833 0.8390471 1.3883206 -0.21122462 -0.42140588 0.06730033 -0.63193065 -1.3871378 0.6073267 -0.99046445 0.022271894
1179 0.75358707 -0.003310094 -0.24210994 1.1994374 0.67820305 0.3618223 1.7481958 1.3860831 -0.6662111 -0.5975119 0.013201306 -0.69865763 -0.6636702 0.7535686 -1.1501534 -0.47193795
345 1.0358893 -1.3088197 -1.1842355 0.32930142 0.72503096 -0.0132281175 1.2258229 -1.1167836 0.27125987 -0.6128405 0.71551025 -0.03203319 0.5010083 0.2519707 -1.1791382 -0.040562905
935 1.5967635 -0.9710043 -0.16923243 -0.08078299 0.83504534 0.6553593 1.1210344 -0.37730289 -0.013892406 0.24814674 0.630687 -0.46643755 0.028059492 0.5835403 -1.2839991 -0.40166295
279 1.4471416 0.5256809 0.7010204 -0.2241939 0.7361908 1.037464 2.199832 -0.2362998 0.45485118 0.4020071 -0.082518585 -0.7206402 0.3063736 -0.12070981 0.33306077 0.10150991
765 0.18977115 -0.26591167 -0.6957112 1.054796 1.1057842 -0.9496544 2.2678664 1.0387353 0.2062661 -0.2705851 0.13657042 -0.9439523 -0.830009 -0.17478774 0.1022634 -0.09837717
398 2.0326777 0.59622145 0.47455132 0.16414113 -0.3923763 0.47756103 1.2212794 -0.90628856 0.59817886 -0.72648805 -0.56865215 -1.0935069 -0.91088927 0.095624305 -0.1729322 0.86209136
1181 1.746404 -1.2284003 -0.17263621 -0.1495137 0.7776722 0.7610203 1.1845217 -0.33324084 -0.026862089 0.112575464 0.52360564 -0.5193571 0.17245723 0.55897915 -1.2401457 -0.46051416
946 1.1104606 0.3890857 0.50383633 -1.0048717 0.678146 1.0294522 2.527304 0.32066864 -0.07686311 -0.53302705 0.4110282 -0.45947286 0.33944833 -0.3271784 -0.6026271 0.78927356
518 0.25524622 0.58470917 -0.64059806 1.7467381 0.46618515 1.174831 1.0553719 -0.86075175 -0.77849746 -0.9880732 0.3762211 -0.59366286 0.36635086 -1.4484477 -0.11648065 -0.10611816
1004 0.118775986 -0.29689872 -0.8448351 1.0426122 1.019496 -1.0107096 2.4687645 0.98576564 0.31564382 -0.3329606 0.067493096 -0.9176828 -0.748982 -0.29342228 0.08538944 -0.18319468
137 0.4199979 0.13969454 -0.42837864 1.3551041 0.9157525 -0.13535638 1.9683093 1.420808 -0.27084556 -0.5926513 -0.30337748 -0.8292571 -0.6068322 0.3089621 -0.8658143 -0.7720225
455 0.69579875 -0.83256173 -1.5335455 0.6709339 0.8068236 0.07407615 1.0669466 -0.9664443 0.24268475 -0.5877019 0.24331872 0.51892114 0.8517127 0.19172408 -1.2338825 0.68762565
538 0.50615406 -0.29879346 -1.2117641 0.87022877 0.3126913 0.13551591 0.7998148 -0.30440247 -0.11216326 -1.6603423 -0.6847246 0.05301387 1.0007912 -0.22113645 -0.9539127 1.0057431
1248 0.5404552 0.41749644 -1.0159783 0.56384325 1.2008 0.63074213 0.5221252 -0.057578977 -0.33386543 -1.5496382 -0.83216006 -0.15216593 1.1544056 -0.94641393 -0.7300586 0.82729554
136 1.8101623 0.5076236 0.30794993 -0.1291103 -0.22201276 0.31840754 1.4334338 -0.8861149 0.97427344 -0.5865833 -0.75943017 -0.88125426 -1.1416942 -0.13825579 -0.21779422 0.9443967
756 0.09170048 -0.04922272 -0.746342 1.0764897 0.84284806 -0.5361124 2.2214003 1.2733902 0.1383578 -0.5843598 0.0015888303 -0.95293224 -0.8273339 0.05084191 -0.33354202 -0.3102732
111 0.5179883 -0.48121196 -1.2398931 1.0037578 0.009030133 0.10331892 0.9336297 -0.3440134 -0.13617763 -1.6980379 -0.7607742 -0.13314472 0.87197363 -0.46304893 -0.8675375 0.8308922
824 1.1550411 0.29117396 0.6309853 -1.0605485 0.66932184 0.988344 2.4871397 0.08674683 -0.025617255 -0.6840924 0.53562766 -0.4798389 0.35970652 -0.33886975 -0.5552869 0.6630617
559 0.5481841 -0.034060992 -1.2050586 0.67216545 0.7503344 0.2072577 0.68568873 -0.17461582 -0.11025631 -1.4200794 -0.90708333 0.13337877 1.0272199 -0.50714016 -0.87598705 0.9983944
675 1.1428677 -1.2632698 -0.710848 -0.08197687 1.2600571 0.5197707 0.8987872 -1.0009235 -0.5556372 -0.17332554 0.6438651 -0.79314613 0.030782493 0.25768763 -1.1223667 0.033821847
133 0.2801593 0.055625133 -0.7348098 1.2786349 0.78953356 -0.2909058 2.049887 1.3888235 -0.18773888 -0.5958163 -0.060298666 -0.9995524 -0.8360194 0.27658674 -0.5201628 -0.36592743
586 0.598484 0.14760052 -0.18100533 1.4159238 0.90341276 0.004413736 1.8332665 1.3907727 -0.6513313 -0.50496376 -0.12938029 -0.8235763 -0.52970946 0.4500289 -0.7706347 -0.62572837
618 1.6026452 -1.0574976 -0.14754628 -0.09305212 0.79682845 0.71615773 1.2392464 -0.37467307 -0.011019004 0.2578154 0.7462746 -0.5159032 0.1265609 0.489763 -1.1670492 -0.53948176
1164 1.1312118 -0.06365986 -0.9325715 0.108390994 2.1404338 -0.02674414 0.36108503 -1.1779445 -0.3436587 0.14538868 0.5190385 -0.60854214 -0.2531655 -0.25126404 -0.59687495 1.1846224
815 1.2913072 -1.1800321 -1.2662722 0.66063696 0.1130841 -0.0140422275 1.3016522 -1.1958646 0.44427058 -0.62705845 0.536666 0.07923574 0.58657527 0.3119624 -1.0694785 -0.02632037
874 0.7106493 0.28323022 -0.017295007 1.6493326 1.3632108 -0.05326492 1.4156424 1.4295853 -0.45835513 -0.4921599 -0.36145204 -0.6850017 -0.7549245 0.2835993 -0.7802239 -0.579321
1242 1.0848045 -1.2841117 -1.4629105 0.6565451 0.31526077 0.020628115 1.107933 -0.9735735 0.31795132 -1.0432304 0.3756434 0.104805656 0.8142688 0.18727262 -1.0709639 0.11625829
244 0.39729574 0.2514823 -0.471258 1.3653045 0.8623797 -0.083064705 2.023629 1.3600087 -0.37361118 -0.5847311 -0.31332645 -0.90923786 -0.54678583 0.31107926 -0.83770144 -0.6888227
968 0.505155 -0.39826497 -1.3372772 0.80278856 0.2637426 0.045320366 0.8720083 -0.38714576 -0.0616835 -1.6268388 -0.4977157 0.14913924 0.99794346 -0.06711598 -0.91396844 1.1271722
914 1.3814234 -0.8836362 -1.4572442 1.1092163 0.2251884 -0.40939638 1.4577522 -1.2437146 0.58764625 -0.18784997 0.39000934 0.42102492 0.5099164 0.38893172 -1.3477213 -0.043620385
187 0.8274442 -0.6091677 -0.20993489 0.7357767 0.59171134 0.5027424 1.6683599 1.3151717 -0.1287306 -0.68208146 0.12104253 -0.42804977 -1.0263017 0.7121514 -1.4023131 -0.49311346
235 1.845782 0.7719273 0.043661926 0.027006697 -0.2525194 1.3799555 1.8099984 0.08242113 0.32370248 0.50522876 -0.6062977 -0.88808894 -0.3456725 -0.35825664 0.1915346 0.6501312
180 1.0897506 -1.3422579 0.35839516 1.7607986 0.4914486 0.31700906 1.0466866 0.11013411 1.1207513 0.1714775 0.3346036 -1.6958382 0.6171184 -0.7875439 -0.14049183 1.7928525
449 1.3729907 -1.1360257 -0.5538625 0.022222575 1.0363418 0.5063814 0.9845241 -1.0304188 -0.06185253 -0.16130976 0.90103036 -0.27159235 0.04617606 0.54861146 -1.2191237 -0.02536812
78 0.20361626 0.29909813 -0.63795877 0.8454025 1.4419932 1.0861005 0.54915744 -0.65229577 -0.55581176 -1.0911394 -0.113579765 -1.4384394 0.020305743 -1.623296 -0.38136768 0.38045782
286 1.5648297 0.21731532 -0.13138269 1.8308232 0.9378132 0.88522285 1.8360829 -0.106258065 0.82139444 -1.2817763 0.19410008 1.444215 -0.5093192 0.7063421 0.81297743 0.048795853
1136 0.7875825 0.13368085 0.23869377 1.5981156 1.5574993 -0.012432826 1.2328241 1.2060918 -0.45231476 -0.32499832 -0.2362032 -0.6599731 -0.7078968 0.32270542 -0.75173545 -0.696172
809 0.9224611 -0.48288047 -1.3857362 0.27815968 1.95063 -0.12428657 0.7482001 -1.1019951 -0.35775968 0.38258964 0.06189582 -0.2541663 0.06471432 -0.057570994 -0.93432236 1.1288309
788 0.67205 -0.01516176 -1.0142912 0.37435183 1.258657 0.30479583 0.55597776 -0.17010038 -0.5103904 -1.3817902 -0.9923597 -0.274001 1.07673 -0.87521845 -0.825477 0.57625335
439 1.1257567 -1.3610646 0.32917285 1.7932695 0.46003547 0.33718708 1.0668249 0.08822958 1.1010406 0.14380775 0.31238678 -1.6950511 0.5888704 -0.7685657 -0.16474159 1.8185834
544 0.7831567 -0.7484586 -1.3214765 0.40305915 1.5954887 -0.068049766 1.0094857 -0.91117704 0.23363855 0.19530933 -0.04289869 0.32493776 0.48810506 0.13970152 -1.2926362 0.90859133
1095 0.23197421 -0.32519707 -0.73243 1.0695027 1.123055 -0.96190906 2.3191519 0.9406802 0.2011383 -0.23192927 0.25027487 -0.9635682 -0.8062139 -0.13565736 0.27014768 -0.08572076
362 1.5457871 1.1314477 -0.13048135 0.70235705 -0.31244126 0.7832675 1.3886449 -0.398345 0.46094686 -0.06291808 -1.1297112 -1.1749704 -0.47670138 0.4028634 0.013241942 1.0013826
1079 1.0637603 -0.14443353 0.1813259 1.2973121 1.5476865 0.43243185 0.8024755 1.2724941 0.09318691 -0.46098873 -0.23295842 -0.52374834 -1.3232927 0.5000848 -1.2245705 -0.38359267
593 1.9057002 0.8824699 0.21749473 1.1081536 -0.09118009 0.32206365 0.8958257 -0.8843529 0.36500105 -0.62079555 -0.9751812 -1.121752 -0.9630318 0.42427087 -0.013861729 1.1423241
561 1.137964 0.61558855 0.38096848 -0.98332405 0.576465 0.8506768 2.4115915 0.39410532 0.15505238 -0.36335543 0.10518156 -0.27511367 0.16203518 -0.27103025 -0.4793244 1.2091521
740 1.1907386 0.26476493 0.74776536 -0.91739076 0.6619441 1.079693 2.5157843 0.22549717 -0.12959178 -0.71985894 0.43669248 -0.4640998 0.28069636 -0.24391033 -0.56622005 0.559645
1146 1.4722537 -0.052209023 0.8232477 -0.8409237 0.28769362 1.1869992 2.0521548 -0.17232765 0.12660348 -0.6151149 -0.030952258 -0.5062442 -0.33341268 0.052418236 -0.5229141 0.51365244
531 1.1194842 -0.42015687 0.17342113 0.89604 0.98646426 0.7455955 1.1860428 1.2559806 -0.028884778 -0.5764022 0.054569177 -0.47866026 -1.198374 0.6781827 -1.3186065 -0.39470616
865 0.32562613 0.11478966 -0.77600133 1.7456151 0.02462668 1.0884293 1.1057073 -0.7851043 -0.708769 -1.2224241 -0.026744157 -0.5775096 0.5547489 -1.25496 -0.34873173 -0.26126897
937 1.6126206 -0.14632238 0.81149024 -0.7374279 0.2435147 1.2947228 2.0578947 -0.25463662 0.1334868 -0.3481884 -0.039792348 -0.5918652 -0.20341292 0.12344913 -0.57681817 0.20548463
1024 0.8917792 0.08655837 -0.96283716 0.25099036 2.2466705 -0.18509868 0.5041917 -1.2389547 -0.2588555 0.22349052 0.33501783 -0.46275145 -0.19045901 -0.3420006 -0.5701479 1.3826088
454 1.0238298 1.000335 0.3635952 -0.5356468 0.85908246 0.7188967 2.4751022 0.19347686 0.49656588 0.1414286 -0.03288013 -0.19485134 0.45694736 -0.35576865 0.021155473 0.9149779
186 1.7842432 1.0031781 0.3172342 0.22949137 0.115132935 1.1649953 1.931877 -0.03929164 0.38255957 0.59082055 -0.4942151 -1.0080743 -0.094321385 -0.37340248 0.5999619 0.4029134
529 0.50980306 -0.44331402 -1.0529771 0.36569893 1.2595288 0.63733214 0.6027171 -0.9392552 -0.35825205 -0.6405 -0.27603352 -1.5788467 -0.16662592 -1.4088308 -0.83954996 0.006252935
31 1.4227148 -0.7684879 -0.9488081 0.5498007 0.9981933 -0.13397612 1.2184181 -0.90432936 0.602385 0.28858712 0.4108794 0.62090206 0.650177 0.40122157 -1.372845 0.2900467
1045 1.0211955 -0.13458923 0.38043678 1.4359506 1.6674564 0.29504415 0.8931725 1.1726239 0.0047386424 -0.31712884 -0.25642514 -0.5282518 -1.1711609 0.41240305 -0.9879689 -0.5702571
328 0.7908074 0.24430951 -1.0579929 0.4779622 1.3046066 0.47901973 0.57193696 -0.17324239 -0.52495295 -1.4180386 -0.8591662 -0.13375539 1.1962476 -0.93980294 -0.76683795 0.41947114
922 0.11078123 -0.16490659 -0.9708921 0.99505866 0.7409186 -0.5222867 2.3078325 1.3214326 0.10238126 -0.59820175 0.050767116 -0.9810532 -0.92037606 0.16103464 -0.42823732 -0.18146102
1260 1.1973226 0.8518331 0.6919272 -0.213011 1.0063787 0.9219114 2.4821846 -0.108607985 0.5265719 0.39460793 0.07615671 -0.53882486 0.6373385 -0.44108152 0.42195758 0.3282535
443 0.4337081 -0.4617887 -1.2263432 1.5445364 -0.20301239 0.19932048 1.0002414 -0.55832297 -0.40414387 -1.511532 -0.7173713 -0.14430779 0.7170136 -0.76638424 -0.69000554 0.46743995
211 0.17518765 0.34674627 -0.9074144 0.56732416 1.4045002 0.43172055 0.4863706 -0.3160936 -0.24263336 -1.5646051 -0.65844107 -0.3978489 0.7369886 -0.8486464 -0.53481156 1.1367872
1189 1.0236276 0.85869926 0.45049217 -0.73794156 0.659529 0.7594938 2.4707901 0.3391359 0.23503138 -0.2699844 0.052108355 -0.31391189 0.3545148 -0.19066963 -0.28369346 1.2985922
288 0.90855235 -0.57619685 -1.2277921 0.1546202 1.8363383 -0.21351741 0.738558 -0.9480495 -0.4852626 0.18802582 -0.25047755 -0.40691984 0.21587361 -0.121213205 -0.9207548 0.967358
875 0.07466812 -0.28380916 -0.76870596 1.0821428 1.1960064 -0.95924205 2.3823586 1.0524812 0.35613197 -0.27422574 0.07783989 -0.9270343 -0.8109381 -0.3003021 0.15359318 -0.11214394
1222 0.68311495 0.23407187 -0.027792357 1.7708833 1.5642407 -0.20535196 1.2080157 1.3859107 -0.41182625 -0.42736295 -0.19909525 -0.76580447 -1.0524025 0.14469656 -0.4215524 -0.19630656
1182 1.5016022 0.91550535 -0.26509476 -0.10164247 -0.30709222 0.7542656 1.7961763 -0.1961752 0.8537067 0.033078842 -1.0009457 -0.8011751 -0.7087074 -0.4679833 0.11942041 1.0644886
1173 1.2397985 0.2699946 0.59346414 -1.0216749 0.6028047 1.0360324 2.4141896 0.2475613 -0.046337556 -0.57903934 0.35309184 -0.41190708 0.2253981 -0.2608956 -0.6587947 0.8779123
1090 1.0307738 0.79487544 0.45122012 -0.48926628 0.9537489 0.8346103 2.5489507 0.20993519 0.30450723 0.15835512 0.18232492 -0.40282744 0.70781624 -0.43774235 0.15773904 0.5809692
394 1.3197196 -1.192329 -0.60172373 0.03047567 1.1382409 0.4233213 0.86247057 -1.0931164 -0.036072638 -0.03693238 0.7875189 -0.34325215 -0.035202365 0.42539957 -1.3251735 -0.03396897
1019 1.3767352 -1.023183 -1.3561152 0.9230374 -0.013778298 -0.31412217 1.3780704 -1.191009 0.47663483 -0.60023206 0.51425374 0.22261877 0.6545958 0.34505373 -1.0541422 -0.020952296
18 0.054221332 -0.22680299 -0.6364628 1.1127481 1.1799756 -0.9696001 2.3685925 1.0844446 0.43376014 -0.3298586 -0.101773545 -0.87553334 -0.74000055 -0.39283988 -0.01248551 -0.2907872
786 0.74165565 0.29606763 -0.25965923 1.7237426 1.36476 -0.005634389 1.2373793 1.441885 -0.8169726 -0.518 -0.03410587 -0.8236115 -0.8654176 0.5358398 -0.53108144 -0.15794113
1050 0.82947695 -0.57029873 -1.3139815 0.26287425 1.0577523 0.45393482 0.5109092 -0.6680221 -0.45506537 -0.55979836 -0.7917429 -1.2208283 0.22250183 -1.3519716 -0.9217399 -0.020913083
1191 1.92642 0.5471891 0.5128939 0.2303275 -0.28606993 0.44656643 1.1835737 -0.93186855 0.56197965 -0.73712957 -0.61071646 -1.071493 -0.9765818 0.10937393 -0.09588607 0.7670221
1243 2.1514137 0.78937656 -1.1112051 0.94219804 0.54466814 -0.6268696 0.3556414 0.28513122 1.5512048 -0.8782617 1.06839 -0.78007907 -0.003075719 -0.967073 -0.028421154 -0.015201448
592 0.6945074 -0.9044082 -1.3792528 1.262091 -0.039932244 0.22956502 1.0060024 -0.75838405 -0.38172472 -1.3903867 -0.6685974 -0.15388939 0.76192665 -0.5536416 -0.8133215 0.20453878
918 0.9244618 -0.38032737 -0.073012285 0.75430185 0.62586325 0.65128744 1.5410768 1.2448276 -0.14686415 -0.6719478 0.10042694 -0.45846102 -1.0062317 0.77682793 -1.3243115 -0.5097835
1165 1.2690579 -0.81276643 -0.1498144 -0.11809551 1.1771836 0.7171163 0.9945036 -0.6384962 -0.33106786 0.14571516 0.49879256 -0.36806777 -0.20448326 0.70159316 -1.347851 -0.197065
175 1.1514106 -1.3806669 0.3244292 1.8089061 0.53189355 0.32973206 1.0111381 0.169114 1.0990156 0.1580664 0.25533688 -1.6412876 0.6109826 -0.6578623 -0.13379698 1.7809384
606 1.878921 -0.9168767 0.8542211 0.8598938 1.1913643 0.08838338 1.0848385 0.5567517 0.3504409 -1.2884084 0.71368694 0.9999483 -0.26838204 -1.6259637 -0.2350252 0.8521941
1245 1.3846892 0.41061237 -0.44317383 1.9423623 0.9846896 0.8224523 1.845729 -0.37146083 0.91215193 -1.2056247 0.03493321 1.2303003 -0.31798422 0.80021846 1.0208824 0.05233122
1140 1.3007842 -0.9875339 -1.4895235 0.9828542 0.069635496 -0.19804493 1.3173146 -1.2030785 0.4606753 -0.6926857 0.41279173 0.3027006 0.6343769 0.374825 -1.1343858 0.064059846
774 1.7504737 -0.7284885 0.837045 1.1746128 1.0936929 -0.0056930557 1.2402332 0.3380182 0.06158162 -1.1370249 0.8261243 1.2009116 -0.50088775 -1.4142492 -0.12739812 1.104472
209 1.9819974 0.7339065 -1.179742 1.2413069 0.44917518 -0.5426102 0.22870266 0.5646556 1.5689416 -0.6361759 0.71501327 -0.62361175 -0.14616588 -1.0715744 -0.48912638 0.28034544
547 1.1132658 -1.3840264 0.37313995 1.8011957 0.46641466 0.32041714 1.0409077 0.10422587 1.1065841 0.1613625 0.29579645 -1.7077519 0.6090128 -0.76093996 -0.15484908 1.7947898
231 1.5433164 1.0585327 -0.10354933 -0.08331968 -0.087032974 1.0100914 1.8562045 0.30698866 0.55895436 0.34687072 -0.73629296 -0.6972619 -0.36125347 -0.6241611 0.3081317 1.0365584
241 0.85453993 -0.5560463 0.14315373 0.47922626 0.86553407 0.9426219 1.5910015 0.43482447 -0.08389422 -0.40306416 0.26048037 0.13263653 -0.9447592 1.08075 -0.7815395 -0.8966627
650 0.1527026 0.16266263 -0.4306321 1.3498973 0.9846323 -0.40076047 2.1515398 1.3786024 -0.07730196 -0.6498565 -0.36025155 -0.9134387 -0.63161886 -0.01887417 -0.49607304 -0.59829754
589 1.5368677 -0.9904914 -0.1377287 -0.031465583 0.8996395 0.59021693 1.1914297 -0.22875674 -0.06996585 0.25519422 0.60576564 -0.44967318 0.023519361 0.64190286 -1.2454191 -0.53480196
141 1.1082559 -1.3767713 0.32222918 1.7847025 0.48038194 0.3250225 1.0402675 0.13354173 1.1079224 0.17534441 0.2994713 -1.6870865 0.59918463 -0.71605206 -0.161628 1.7889695
766 0.3733612 0.9105736 -0.6841723 1.4236444 0.71010816 1.1430954 0.94427615 -0.43563405 -0.6246172 -1.3674216 0.08846795 -0.2726452 0.783322 -1.4243066 -0.23713829 0.26484084
12 0.3588361 0.4745249 -0.62532383 1.6316204 0.4339861 1.1848345 1.0258698 -0.732238 -0.81497514 -1.0813061 0.20379674 -0.63509226 0.4747782 -1.4082282 -0.15034576 -0.12685129
1018 0.00973659 -0.16644378 -0.6810746 1.191672 1.0607386 -0.9487201 2.3938613 1.0532265 0.30289692 -0.3878227 -0.1528916 -0.9026715 -0.62706405 -0.4501927 -0.039111484 -0.29910558
1203 1.3347685 0.09357622 0.81373864 -0.72141457 0.6803405 1.1135402 2.2057383 -0.060457155 0.00966695 -0.19714889 0.39063972 -0.47997102 0.28739494 0.041243855 -0.50657135 -0.055456866
326 0.8864929 -0.7409776 -1.4302181 0.6105986 0.94326735 -0.06487961 1.073785 -0.99617046 0.3999837 -0.31057653 0.12867673 0.5248359 0.8256969 0.034222107 -1.3085247 0.47182068
106 1.1737494 -1.4243617 -1.3377167 0.47012815 0.17755577 -0.001753306 1.1416293 -0.9940604 0.3646917 -1.0497872 0.42460957 0.016044617 0.6749329 0.21328215 -1.0818224 0.062939264
637 1.3583407 0.56182945 0.7904598 -0.1627004 0.69901526 1.1113261 2.1558833 -0.378481 0.34485352 0.3545215 0.019522943 -0.81160265 0.36885515 -0.1578174 0.40975228 -0.037620787
727 1.2247578 0.62841845 0.6283655 -0.23824906 0.9143218 1.0488045 2.4411013 -0.10320128 0.41328752 0.40963286 0.13632862 -0.5724951 0.60131913 -0.3061419 0.2861642 0.11552805
162 0.61931956 -0.37943786 -0.6888244 0.8785842 0.508217 0.21309932 1.81548 1.557039 0.010017997 -0.68873936 0.17425302 -0.73957694 -1.2172363 0.6779676 -1.1306038 -0.1876013
331 1.6796739 -1.1199342 -0.24210608 -0.077999555 0.6890359 0.6510338 1.1867244 -0.3052316 0.016127897 0.22723804 0.5581178 -0.46692616 0.18486772 0.62177753 -1.1698714 -0.4709959
1042 0.7517873 -0.7020734 -1.134325 0.25471184 1.0518779 0.568609 0.51441926 -0.81305796 -0.33554858 -0.64928347 -0.454277 -1.6621087 -0.052116733 -1.2069144 -1.0038769 -0.17174454
1154 0.1880381 0.24418277 -0.40782812 1.4944158 1.0211921 -0.37720534 2.0352442 1.400677 -0.0879121 -0.61785537 -0.42955545 -0.8428134 -0.6941636 0.03044918 -0.5495728 -0.613809
383 1.1940731 0.8656865 0.45979506 -0.5620273 0.7423174 0.7985027 2.5280426 0.15957378 0.47836283 0.0647766 -0.13859369 -0.11580567 0.30587003 -0.3028174 0.06626828 1.2561213
710 0.7187692 0.10595164 0.016813328 1.7349535 1.7007277 -0.25357708 1.1321965 1.3201854 -0.32380572 -0.32202098 -0.24873291 -0.725478 -1.0995274 0.21740285 -0.45863363 -0.21576136
913 1.4395144 0.52974015 -0.14835861 1.9167722 0.61601686 0.22687893 2.2872336 -0.39471707 1.0433077 -1.1265491 0.11569116 1.4148649 -0.6298362 0.34993353 0.6596798 -0.30301902
185 1.8650632 -0.8329853 0.86192024 1.0530695 1.1266108 0.089477345 1.1859833 0.41167852 0.22993062 -1.2137575 0.8140589 1.1826764 -0.40420103 -1.5180756 -0.11188465 0.95378685
997 1.3379316 -1.0396631 -1.5201494 1.0117034 0.19054209 -0.3397641 1.4353105 -1.3651273 0.6206802 -0.529469 0.5826401 0.29049256 0.52074796 0.40469757 -1.1590365 0.0058441707
781 1.0817243 -0.3015557 0.10374287 1.0447193 1.1789806 0.6256188 0.9683095 1.1544696 0.03658802 -0.456129 -0.051112704 -0.47998545 -1.1484418 0.6861107 -1.3294224 -0.4854611
147 0.85130066 -0.7829682 -1.3081728 0.26481724 1.0607156 0.50876594 0.5118526 -0.82151634 -0.4728084 -0.5175843 -0.46290433 -1.3990246 -0.06598479 -1.1662191 -0.963034 -0.12721044
1266 0.7446439 -0.1484033 -1.0922505 0.5941723 0.8695032 0.07268669 0.56693333 -0.31391975 -0.3558532 -1.4282451 -1.0308864 -0.2552544 0.95808715 -0.87056345 -0.8665844 0.41247
792 1.5418934 0.6528707 0.0022354075 -0.05583481 -0.22281082 0.30627593 1.5667233 -0.6957351 1.0466249 -0.5498273 -1.00482 -0.88496333 -1.1485257 -0.19403455 -0.08976016 1.0775803
689 0.7141668 0.106231704 -0.039621964 1.3851392 0.9490098 0.16177708 1.8132931 1.3579805 -0.711359 -0.501227 -0.17732343 -0.6825612 -0.4401921 0.47581217 -0.96113795 -0.8090958
1011 1.3687091 0.4735491 -0.3880137 1.9741664 0.82714146 0.5419115 2.097029 -0.43903553 0.96189696 -1.1775011 0.06569722 1.2891636 -0.45327756 0.6426423 0.9627419 -0.081278495
297 1.503419 0.90566516 -0.3497994 0.08097335 -0.34661728 0.984411 1.7120614 0.0364229 0.62071234 0.17446403 -1.0726378 -0.780327 -0.60411054 -0.3067695 0.12095314 0.96162254
195 0.9207782 -0.52963156 0.16992512 0.40466797 0.8518571 0.7330161 1.4601717 0.7775674 -0.15747637 -0.08976124 0.063116536 -0.5294448 -0.74472886 0.81709933 -1.1988156 -0.67625594
462 0.6238815 -0.7739817 -1.1540331 1.3331664 0.08933688 0.22917369 0.9508538 -0.7896819 -0.6489118 -1.3146702 -0.7905592 -0.3100778 0.69721025 -0.6865302 -0.743022 0.014389861
17 0.54384923 -0.6071812 -1.2803464 1.1673733 -0.0116295945 0.07738591 0.99955463 -0.39817685 -0.026585674 -1.663135 -0.7211154 0.08635864 0.8890857 -0.37347886 -0.8871544 0.8465591
382 0.42940226 -0.16394877 -0.67465013 1.1738548 1.2905525 -0.88242555 2.045312 1.0931194 -0.007690416 -0.10619787 0.5305501 -1.0340797 -1.033915 0.07115062 0.412037 0.18143682
408 0.3953993 0.8723273 -0.75205886 1.1357132 0.99962986 1.3095989 0.70135534 -0.22925024 -0.6137005 -1.4531404 -0.13285631 -0.3408883 0.89312994 -1.3413972 -0.26684648 0.45073095
275 0.9573576 -0.419679 -1.3426995 0.22376524 1.9776614 -0.30329818 0.7254491 -1.1142592 -0.40865365 0.19390735 -0.091074415 -0.27818027 0.04337133 -0.13252507 -0.79438037 1.1874921
553 1.5237586 -0.7672429 -0.8690666 0.53422594 1.0584886 -0.13761094 1.1427011 -0.90629566 0.518341 0.3843814 0.35989118 0.53336585 0.48290876 0.5341942 -1.3851339 0.25780267
471 0.21757591 -0.49204138 -0.81195176 0.8151073 0.80340624 -0.6852315 2.514731 1.144193 0.39328772 -0.42949077 0.19838387 -0.9076682 -0.9417728 -0.0005418926 -0.31170094 -0.42778543
1264 1.9555595 0.36795992 0.53409564 -0.30053875 -0.3792017 0.9280758 1.4869776 -0.65487784 0.7596193 -0.43338552 -0.44675425 -0.98631275 -0.8910352 -0.2556219 -0.12011614 0.586611
1131 1.1815476 0.8134255 0.48415032 -0.14632137 0.9797099 0.9065576 2.3957088 -0.11023794 0.46694216 0.49901313 0.090062395 -0.4968033 0.6495546 -0.40143833 0.40247077 0.25209284
287 1.9416782 0.7776381 -1.1651337 1.316875 0.5440226 -0.55598253 0.2286647 0.61161464 1.7336292 -0.6280541 0.6204896 -0.5911167 -0.08225814 -1.0805308 -0.52030545 0.33818662
619 0.10301975 -0.35464147 -0.8419284 1.0165884 0.94218487 -0.8640087 2.4661565 1.0297186 0.28912735 -0.2906109 0.17897218 -0.93229675 -0.7604591 -0.13754718 -0.020889504 -0.21944025
242 0.76779616 -0.45412856 -1.1708927 1.2023025 0.16565213 0.2430127 0.95439166 -0.7019417 -0.47697985 -1.4992487 -0.9870909 -0.2870874 0.8528356 -0.91479003 -0.7906835 -0.18265338
1066 0.13899106 -0.22788163 -0.6216715 1.1888417 1.2781748 -1.0400696 2.2958422 0.96238166 0.34579253 -0.20454258 -0.014358066 -0.8942663 -0.78377366 -0.37773284 0.12833844 -0.13839495
585 1.1210914 -1.3720267 0.33574224 1.8432341 0.5024752 0.36418417 1.0359812 0.14099115 1.108729 0.15446381 0.27322164 -1.6627183 0.6120415 -0.6956372 -0.12978588 1.7864205
993 1.0726801 1.0191786 0.44853392 -0.50265807 0.8781629 0.79138285 2.5877671 0.33615538 0.3537454 0.016602626 0.046019234 -0.16794233 0.5989253 -0.39117974 0.041825388 1.0131795
1200 0.34684965 0.88461167 -0.6844179 1.1256921 1.1827215 1.3027653 0.63808966 -0.11872783 -0.49902016 -1.4896499 -0.123106815 -0.50819695 0.76774335 -1.5334468 -0.24870875 0.4318694
1056 1.1227394 -1.4323106 -1.163496 0.36085916 0.7415897 0.08124444 1.1213363 -1.0807925 0.3471681 -0.75889313 0.7693182 -0.10662239 0.4172134 0.27718714 -1.3299541 -0.14687942
223 0.7864525 0.11874423 0.17157678 1.6629428 1.587578 0.031369563 1.2575034 1.2062591 -0.35506466 -0.39228782 -0.3986492 -0.5939648 -0.8560632 0.2975964 -0.8944251 -0.72939044
735 1.0743392 0.7435815 0.38917944 -0.8422109 0.67629623 0.7459767 2.435797 0.37254003 0.22598843 -0.22956137 0.15660563 -0.26629233 0.3628876 -0.28625566 -0.29697943 1.2691499
413 0.57390416 0.19661623 -0.95779896 1.1579274 0.5597465 1.1891259 0.9012775 -0.57119036 -0.8625725 -1.2391896 -0.32369184 -0.5414822 0.9149274 -1.316166 -0.45489413 -0.26312047
542 1.5826695 -1.1921562 -0.20319349 -0.07303054 0.77223885 0.60379785 1.1782503 -0.2852459 0.04048608 0.12553473 0.6947114 -0.5435235 -0.0730989 0.510444 -1.175478 -0.56174105
489 1.4860722 -0.16585968 0.62735695 -0.37988517 0.44840613 1.0840502 1.6169066 -0.23891622 -0.12228422 0.072347045 0.17598239 -0.67031115 -0.037412245 0.7169228 -0.7884975 -0.18384969
949 2.113999 0.6816661 -1.3157352 1.4873852 0.16755062 -0.18425278 0.10065784 0.4332062 1.0202142 -0.026222687 0.88208497 -0.47485918 -0.69608164 -1.3779999 -0.99740165 0.5162814
1172 1.4050639 0.24484536 -0.38563928 1.9327575 1.0005443 0.96486306 1.7685543 -0.24271533 0.85080445 -1.2341634 0.055979643 1.2305572 -0.32138267 0.88000375 0.9897522 0.103587344
1274 1.6918721 0.95151645 0.12491186 0.15806182 0.064942114 1.2102311 1.8636508 0.25057855 0.3177117 0.6370851 -0.55350256 -0.6492111 -0.061609425 -0.43204248 0.47504106 0.66159016
71 0.5901702 -0.24863277 -1.1620592 1.0907503 0.21633686 0.030794105 0.82127297 -0.27987003 -0.24663736 -1.7855717 -1.0067883 -0.16093107 0.8384053 -0.6559357 -0.6951676 0.7896362
982 0.6455619 -0.39021322 -0.6656523 0.7831611 0.5547359 0.25832003 1.7640426 1.4817839 0.057885513 -0.6956015 0.1080442 -0.7243304 -1.2294934 0.7457365 -1.173965 -0.22980538
614 0.42438513 0.50801086 -0.8714985 1.5411675 0.28934053 1.0831242 1.053374 -0.6118657 -0.692613 -1.3990803 -0.233335 -0.38817108 0.81372505 -1.3054878 -0.31018284 -0.0075164917
344 1.456247 0.28664637 -0.37619656 1.9847678 0.9978654 0.95357436 1.8217572 -0.31142277 0.864112 -1.2418971 0.059013892 1.2703301 -0.32798964 0.86017585 0.9756288 0.15102054
164 0.73691463 -0.094636634 -1.0266153 0.5109497 1.1839701 0.1527573 0.5859232 -0.34316516 -0.44741893 -1.3520932 -1.1072699 -0.21966094 1.0381902 -0.8448876 -0.9644728 0.4970463
1175 1.6858302 -0.9348757 -0.67149776 0.34873226 1.0236053 0.103632174 1.1374578 -0.67319643 0.5470208 0.38926148 0.59736186 0.47251442 0.4417569 0.69122064 -1.4098881 0.11589122
329 0.823787 -0.8936372 -1.3778427 0.24454574 0.9930672 0.40950075 0.6367732 -0.9114445 -0.46187913 -0.42453268 -0.39615396 -1.2910026 0.06484979 -1.0101634 -0.99555665 -0.12804466
1271 0.033798013 0.23662814 -0.7412196 0.52753377 1.6269387 0.6512376 0.464875 -0.84306014 -0.29041663 -1.0605394 -0.06940161 -1.41157 -0.15718846 -1.2597846 -0.54204017 0.82529026
1204 1.9516174 0.42190233 0.2934625 -0.36121774 -0.3305566 1.1825167 1.6849408 -0.34803036 0.5799481 0.14449069 -0.40055728 -0.83985215 -0.4657821 -0.30678502 0.009386696 0.4659914
216 1.9379025 0.9200296 0.21721853 0.23348354 -0.20544526 1.2792194 1.7521617 -0.015850952 0.34155768 0.564576 -0.5269813 -0.99058175 -0.18395329 -0.14912345 0.34200013 0.49695837
306 1.9842014 0.9563002 0.6701941 0.68543446 -0.32203603 0.7402689 1.0627494 -0.7194979 0.13595323 -0.6957715 -0.62464553 -1.1858637 -0.51078004 0.5505447 -0.19768937 0.98269016
1270 0.9662466 -0.5505231 -1.2263726 0.1703731 1.9934354 -0.1271441 0.7446648 -1.0526881 -0.45398724 0.3529786 -0.07289894 -0.29277834 0.026521761 -0.0847608 -0.96618176 1.1033341
567 2.266563 0.7280552 -1.1855794 1.2694474 0.16781034 -0.2545453 0.21893293 0.34097755 0.96299714 -0.21965459 1.1663852 -0.6347228 -0.53027886 -1.2668815 -0.5846771 0.15345453
2 0.032892503 -0.23080404 -0.9037014 1.0306946 1.0355788 -1.0012441 2.502183 0.93300474 0.24012764 -0.29530162 0.14309505 -0.9445865 -0.6805253 -0.23856495 0.11739746 -0.14881943
419 0.5087122 -0.029708514 -0.82701916 1.2445222 0.83881086 -0.04203672 1.5602332 1.4138039 -0.5901964 -0.62892735 0.31500927 -0.9511077 -1.1079437 0.6708256 -0.5240275 0.08048186
193 1.2923391 0.28728372 0.744003 -0.9333018 0.6768279 1.1391761 2.310559 0.17585066 -0.11764339 -0.66527843 0.38751382 -0.5500578 0.29139188 -0.2095311 -0.61200184 0.6999177
1102 1.5897286 1.1912957 -0.26775122 0.6983232 -0.29675838 0.77999616 1.510397 -0.30949998 0.5626471 0.11432472 -1.1148089 -1.1367054 -0.4878131 0.1014508 0.16723892 1.0052949
671 1.6652598 0.838278 -0.15338217 0.8929983 -0.14133666 0.40480036 1.1741341 -0.6853995 0.580957 -0.26706734 -1.3115451 -1.0289484 -0.9557644 0.32832885 0.039518762 1.0725936
831 1.8161991 -0.8823639 0.80623895 0.7064971 1.2444983 0.018148378 1.0296183 0.70916164 0.14463346 -1.2687427 0.8558103 0.77318645 -0.27907556 -1.799951 -0.59246385 1.0414742
854 1.099837 0.35287428 0.6221017 -0.70066214 0.9552167 1.1827536 2.5639122 0.13829923 0.06899458 -0.11190079 0.40174133 -0.39777786 0.52476174 -0.37960607 -0.24304835 0.24757305
432 0.80657077 -0.5307342 0.210411 0.3484668 0.94770944 0.72633797 1.557715 0.67114824 -0.24382088 -0.27578914 0.07063388 -0.50896376 -0.7485625 0.80960894 -1.328032 -0.658679
1255 0.84120023 -0.74747556 -1.3003933 0.3312333 1.4908497 -0.03892618 1.1010256 -0.93173426 0.14865144 0.23016584 -0.011562868 0.3834085 0.6139159 0.13024966 -1.305026 0.57029575
1159 0.14300403 0.19714655 -0.5794058 0.564276 1.769855 0.86334735 0.55778694 -0.6607957 -0.49929324 -1.0188359 -0.21409093 -1.4767156 -0.07561508 -1.3979017 -0.50719523 0.71517545
555 1.194225 -1.6003393 -0.8586557 0.08397381 0.76618266 0.23510207 1.0973668 -0.9286261 -0.050006054 -0.5524755 0.9051334 -0.81024295 0.059144437 0.3173802 -1.2884064 -0.22967368
330 1.3867706 -1.265793 -1.1932677 0.82486266 -0.016745556 -0.14468168 1.3737979 -1.2321869 0.34321734 -0.50766885 0.56326014 0.056739822 0.51154196 0.44903818 -0.9982715 0.00021203281
580 0.97326916 -0.62636924 -1.2407258 0.6234896 0.96026415 -0.2597543 1.1359011 -0.8770249 0.55887824 0.102954015 0.031287894 0.70993996 0.6374257 0.24995595 -1.3644649 0.5668112
1247 0.8324076 -0.21395661 -0.48532382 1.041564 0.4698088 0.47128814 1.7470818 1.4493917 -0.18610933 -0.62100416 0.2210411 -0.40198228 -1.0488007 0.93899935 -1.1605275 -0.32637227
1130 1.5699551 1.1661052 0.17821348 0.35667744 0.30038676 1.2070683 1.9973943 0.16352741 0.34380397 0.73128456 -0.55523986 -0.90297955 0.106496885 -0.35707206 0.6199594 0.499147
437 0.22099823 0.72670794 -0.5419976 1.6318772 0.6681621 1.2057836 0.99712396 -0.72237813 -0.67712563 -1.0833241 0.35506392 -0.6375614 0.3668098 -1.540961 -0.105537124 0.059079647
1047 1.8772405 -0.93185806 0.75966173 0.6902943 1.2367789 0.03262382 1.0645291 0.7624444 0.259949 -1.2931305 0.8357085 0.8541699 -0.22093546 -1.7505834 -0.52917254 0.9432302
322 1.3437836 0.29135272 -0.37635192 2.0297477 0.9328757 0.8416387 1.90015 -0.36205325 0.97151613 -1.1785228 0.051242255 1.1981814 -0.33621645 0.8132928 0.9993648 0.057236176
975 0.637606 -0.26692048 -0.5331975 1.1443877 1.4405857 -0.799216 1.8015922 1.1389433 0.03555469 -0.09898578 0.567551 -0.9528907 -1.2864221 0.21680993 0.47556135 0.34486052
1199 0.89734215 -0.6171374 -1.2941284 0.3357777 1.0774406 0.2048206 0.66277546 -0.7181214 -0.5622833 -0.9022337 -0.5801593 -0.45788085 0.96556723 -0.94719523 -0.9913437 -0.096954465
501 1.1074928 0.4558537 0.5113112 -0.9979791 0.8096913 1.0255827 2.6039014 0.31969032 -0.09310102 -0.476858 0.48537007 -0.4561963 0.42691618 -0.43787855 -0.5154689 0.8234199
349 0.478797 -0.49599314 -1.3227608 1.1666783 0.092073105 -0.0101073375 1.0426729 -0.50678706 -0.07943108 -1.5778254 -0.5697364 0.15405095 0.93178284 -0.2811779 -0.8760751 1.000427
839 0.41085726 0.29679126 -0.86046845 0.382823 2.0767252 0.1961508 0.27949676 -1.0005214 -0.28197467 -0.5378656 -0.022693329 -0.7886292 -0.22343966 -0.8343926 -0.53031284 1.3258371
900 1.3719099 -0.34279665 0.5464661 -0.7091472 0.48861486 1.0858864 1.83455 -0.14268474 0.049153626 -0.16721374 0.16719104 -0.54457074 -0.14740627 0.49143243 -0.8661889 -0.033353474
220 1.1450245 -0.6634609 -0.19291382 -0.117212 1.2417716 0.77956253 0.9926886 -0.71358013 -0.17970763 0.23711136 0.58413094 -0.40931544 -0.11810457 0.639004 -1.1635864 -0.29544193
1278 0.03744498 -0.106302716 -0.6608526 1.1871723 1.122993 -0.8496132 2.3540106 1.1143891 0.2062876 -0.40511516 -0.09184144 -0.86928165 -0.64813435 -0.31745887 -0.078947216 -0.3618777
245 0.8383792 0.16436933 0.29194656 1.5077822 1.5071298 0.20512019 1.1807314 1.3346848 -0.32069907 -0.3670629 -0.33289015 -0.52095413 -0.8796723 0.2901017 -0.9998068 -0.5309282
217 1.6804824 1.169342 0.0016170419 0.4673716 0.0023184556 1.1339438 1.708825 0.21127836 0.37605307 0.56114864 -0.7812072 -0.9190788 -0.18525495 -0.2759873 0.5081307 0.7077199
998 2.0867102 0.77435833 -1.2991437 1.478644 0.28519854 -0.17189442 0.08232993 0.34961343 0.9162397 0.14747961 0.8868871 -0.438196 -0.7040858 -1.4177582 -0.9959709 0.5978678
520 1.4151429 -0.6815676 -1.185051 0.94870234 0.44797215 -0.36351883 1.4534409 -1.0458612 0.6547351 0.23009887 0.38803485 0.53199315 0.515948 0.41409808 -1.4219822 0.08132911
207 1.766096 -1.1656862 -0.38851342 0.04180545 0.8145657 0.48499414 1.1004798 -0.62159085 0.11572395 0.4787915 0.7762437 -0.39179364 0.10899304 0.37627578 -1.2279627 -0.43762994
210 1.5229745 1.0759562 -0.068597 -0.08407622 -0.06377887 0.9513002 1.8398671 0.3863378 0.5128537 0.3053651 -0.74514997 -0.5264876 -0.35974628 -0.52122337 0.22886942 1.2111458
1171 1.8782806 1.2243869 0.15277895 1.255519 -0.12942894 0.547231 1.002292 -0.5004847 0.16323467 -0.27067125 -1.0125394 -1.1162778 -0.5832323 0.476499 0.12865324 1.1944051
986 2.1538045 0.77681166 -1.268909 1.4245907 0.21499991 -0.14131255 0.14980468 0.3551272 1.0060896 0.074907646 1.0252734 -0.4804684 -0.68372697 -1.4309933 -0.91024756 0.40663806
312 1.09869 -1.3739281 0.34613374 1.8113518 0.52726656 0.34319142 1.0251548 0.14304714 1.1547025 0.15796775 0.26090255 -1.6606416 0.610712 -0.6703977 -0.14562532 1.7827533
558 0.4788489 -0.3384634 -0.9977787 0.13212019 1.6054016 0.51510215 0.47077912 -0.9270148 -0.28503808 -0.56208557 -0.2938917 -1.6097281 -0.405272 -1.2087792 -0.84225833 0.31485188
1272 1.7666072 -0.81668913 0.7814466 0.84170145 1.2008203 -0.033048708 1.0702099 0.60257924 0.037692618 -1.1551373 0.91205 0.91025335 -0.32535726 -1.6505158 -0.4905472 1.1204292
325 1.4988961 -0.9351406 -0.5852438 0.25559142 1.0883579 0.19644648 1.1398463 -0.8417263 0.4647606 0.41299444 0.4612713 0.36207807 0.31814027 0.6406019 -1.4183383 0.11215646
442 1.446659 0.26943243 -0.3104205 1.9444941 0.9659569 0.8355475 1.8039244 -0.26196748 0.8581184 -1.2676643 0.081331335 1.3111999 -0.32755825 0.7588163 1.0182506 0.15021855
93 0.041990094 -0.3312819 -0.8210128 0.99704283 1.0314627 -0.94567823 2.470599 0.9941651 0.39914668 -0.34663832 0.09064904 -0.8937974 -0.7476625 -0.30692554 0.045393568 -0.21785234
1144 1.6714592 0.6627157 0.1750531 -0.08707412 -0.23498078 0.44454417 1.4873458 -0.694484 0.93824214 -0.5203197 -0.81576407 -0.91391104 -1.0450722 -0.24003026 -0.020985113 1.0113668
590 1.338172 -0.59300107 -0.88897973 0.3858884 1.2033981 0.054737568 1.1152221 -0.7422202 0.5260247 0.41924307 0.061050437 0.70736706 0.64227736 0.4262046 -1.5313456 0.35765254
994 1.5327029 0.2528483 -0.06198756 1.8232325 0.84167445 0.7479592 1.9752785 -0.16187134 0.9372687 -1.2317265 0.1685076 1.4876246 -0.60841507 0.56438035 0.71978927 -0.12508255
1133 1.5148175 -0.7793108 -0.75667244 0.43262017 0.9966231 -0.06945488 1.2235098 -0.7651344 0.56932884 0.4706053 0.4301851 0.56127846 0.53264207 0.5724666 -1.4469061 0.22578192
409 1.8110691 0.83219826 0.25339857 0.0567249 -0.015755884 1.1965803 1.8631068 0.022762077 0.43489715 0.47525108 -0.4575347 -0.80439407 -0.28681234 -0.54467845 0.5375157 0.6306549
206 1.1404327 0.5148617 0.49288356 -0.9240433 0.7013199 0.95262575 2.4591951 0.41621312 -0.09006574 -0.39342615 0.49207553 -0.46495238 0.5494303 -0.38008127 -0.48041192 0.87981766
38 0.48374262 0.12664507 -0.8441554 1.5903292 0.14538687 1.0240024 1.1082276 -0.72554433 -0.83389944 -1.1229123 -0.065560535 -0.43707508 0.7667565 -1.1982065 -0.37300557 -0.31501365
77 1.1865083 -1.182557 -0.61714864 -0.044848002 1.0818623 0.5378806 0.74653614 -0.9504476 -0.40556428 -0.37370336 0.93531865 -0.92967725 -0.06689346 0.17807005 -1.141416 -0.15296856
479 1.3211211 -0.097591124 0.7861555 -0.47285604 0.6177054 1.0620921 1.9190323 -0.122781105 0.09701216 -0.06674172 0.06108824 -0.44693142 -0.109961815 0.5156218 -0.76511693 -0.26368392
853 1.3415037 -0.32705736 0.6871945 -0.59600633 0.51765865 1.0795988 1.8668369 -0.041799847 -0.015175534 -0.13948968 0.121157825 -0.49588045 -0.2866727 0.5156689 -0.7928888 -0.1655305
959 0.6725829 -0.895295 -1.4792719 0.92787963 0.30842635 0.25914112 1.016292 -0.9245035 0.06135602 -1.1315404 0.047185093 0.36209258 0.9451781 -0.0057053245 -1.0694655 0.54185444
626 2.2162077 0.6611721 -1.1813161 1.3262602 0.1282815 -0.32648128 0.21081102 0.41863543 1.0367929 -0.30689672 1.0761957 -0.6776258 -0.5298628 -1.2410614 -0.6589615 0.24156532
695 0.96857315 0.018038273 -1.0876698 0.35567072 2.2670348 -0.13363428 0.5807846 -1.2998857 -0.27911353 0.28082156 0.3156761 -0.5330943 -0.23171939 -0.39846915 -0.47113907 1.3615055
481 0.08999335 -0.092167616 -0.8264856 1.0867754 0.88352025 -0.5365398 2.1950908 1.2711822 0.16800694 -0.5670786 -0.07676242 -0.9053472 -0.857973 0.06234117 -0.3741041 -0.32702202
34 0.6557107 -0.7069465 -1.2352079 1.1669356 -0.20766094 0.18041277 0.9827239 -0.58680433 -0.14354892 -1.4521376 -0.5491527 0.10363385 0.9221949 -0.317343 -0.85915816 0.46889395
35 0.81578857 -0.7718247 -1.2092599 0.30300286 0.9820942 0.62978697 0.56150794 -0.73752695 -0.46392283 -0.4805699 -0.5913273 -1.3703835 0.094864026 -1.2430234 -1.0451839 -0.28495324
373 1.1566796 -1.363857 0.29688793 1.7915611 0.4692548 0.36848396 1.0204663 0.11882329 1.1472135 0.15434232 0.29426736 -1.7444688 0.6199289 -0.7561325 -0.19909516 1.8371156
594 1.2345024 -0.8259491 -1.0193143 0.38157925 1.3340448 -0.18107662 1.1577921 -0.7361109 0.5702249 0.4705204 0.04406517 0.5915926 0.53920937 0.43470514 -1.3591698 0.50908285
991 0.49546906 0.42174146 -1.1129841 0.67733455 0.89134574 0.60188943 0.61139506 -0.11065793 -0.16451766 -1.7196826 -0.6139821 0.008552017 1.154167 -0.7902229 -0.6482366 1.0010962
846 0.5796358 0.06701002 -0.3537017 1.5477163 1.4211879 -0.2713765 1.3227973 1.4170831 -0.4906515 -0.37906432 0.13987032 -0.8594325 -1.1744553 0.39947194 -0.23525387 0.11680332
603 0.8936104 0.084696986 -1.0249783 0.3672518 2.156767 0.0633567 0.38473874 -1.1119853 -0.38693172 0.16495512 0.43607485 -0.50054353 -0.16523781 -0.46059215 -0.48672265 1.3051971
447 0.15159729 0.69616926 -0.48836634 1.6467361 0.71144503 1.235853 0.89435965 -0.6451875 -0.624333 -1.1160898 0.357963 -0.70482343 0.33987257 -1.5623387 -0.12452701 0.10762677
283 0.5378019 -0.6289266 -1.2812618 1.3248546 -0.14313632 -0.013338947 0.95593995 -0.49673605 -0.21836457 -1.6366844 -0.82031876 -0.12216888 0.7233411 -0.56593865 -0.7462566 0.5830261
651 1.7664375 -0.7785714 0.80088955 0.9722293 1.1752468 0.02768986 1.1347556 0.51873034 0.13098097 -1.2141327 0.88794637 1.081372 -0.40164322 -1.5119255 -0.31995404 1.1041356
380 0.27999365 0.8173885 -0.86097014 0.83831906 1.3429085 0.8492553 0.49430084 -0.2935141 -0.5036464 -1.475953 -0.2546026 -0.39175734 0.7220512 -1.1479782 -0.30434272 1.036502
662 0.84651154 -0.5970877 -1.2746388 0.17984481 1.1431612 0.4090643 0.4915247 -0.66770804 -0.5517095 -0.5801844 -0.72972995 -1.0782623 0.22951616 -1.2112477 -0.9262278 0.08321677
525 1.7737954 0.1031456 0.6803847 -0.554184 -0.043937784 1.3966997 1.893809 -0.062312618 0.1071347 -0.17034218 -0.29014394 -0.5127486 -0.3705293 -0.13515684 -0.19750762 0.7303131
655 0.7666237 -0.676047 -1.2500077 0.51264894 0.8218879 0.557661 0.5332001 -0.90236694 -0.51343805 -0.76140016 -0.4725989 -1.3196539 0.18259121 -1.299469 -0.81783366 -0.16804674
527 1.8476307 0.93525404 -1.1358712 1.2812004 0.7078632 -0.52050465 0.3303096 0.48042 1.8630524 -0.668041 0.58808094 -0.4663193 0.08708117 -1.018373 -0.33233148 0.28387022
1016 0.059081897 -0.3403676 -0.8319727 0.9680873 0.9813194 -0.97341406 2.492385 0.9658239 0.3486087 -0.28000817 0.15789096 -0.88572246 -0.73500425 -0.26648283 0.053967617 -0.18761744
1055 1.786032 0.9139021 -1.2342902 1.3378972 0.5872351 -0.45428476 0.20569435 0.6282802 1.7877285 -0.45993644 0.50879395 -0.39348337 -0.11374783 -1.1433395 -0.6902225 0.52999604
1223 1.9242905 0.894034 -1.1391752 1.0434463 0.88616234 -0.69738716 0.3760111 0.28854188 1.9227177 -0.8956352 0.7754189 -0.6374598 0.20207828 -0.9730435 0.0038185136 0.22363974
54 1.4503256 0.17198388 0.710418 -0.9072057 0.2755537 1.108535 2.0371037 -0.03742676 0.13212836 -0.527896 -0.14263244 -0.38411525 -0.21046522 0.048631504 -0.5151872 0.9279635
1000 1.0112735 -1.4222249 -0.9990928 -0.013929248 0.7641387 0.37115818 0.86590093 -0.8784996 -0.25393918 -0.752206 0.55385613 -0.67506826 0.43946213 -0.049617358 -1.1860489 -0.09265104
821 0.45245674 0.5773823 -0.9361516 0.70915914 1.3334408 0.7086617 0.5530323 -0.24414478 -0.47724587 -1.4483426 -0.5798102 -0.23952202 1.0864326 -1.0258303 -0.60146856 0.86156434
21 0.4854257 0.7006505 -0.80302453 1.8590097 0.24073386 1.0258955 1.2182716 -0.63769853 -0.8200074 -1.190365 0.036122113 -0.26972523 0.9023786 -1.3634677 -0.2077431 0.055067368
784 1.1685468 -1.348799 -0.6514135 -0.0036704247 1.079904 0.5333697 0.84879947 -0.9858572 -0.400958 -0.42132837 0.92734146 -0.93479013 -0.21580985 0.29982308 -1.1021794 -0.06410189
938 1.1443771 -0.21189551 0.038957633 1.185449 1.3538059 0.5803194 0.878627 1.354466 0.0036394673 -0.4926031 0.005196773 -0.4623418 -1.49588 0.65754694 -1.2504565 -0.08276538
523 1.8161871 0.04009531 0.69472194 -0.6055997 -0.072855316 1.2448531 1.6346833 -0.2945969 0.15627399 -0.22946732 -0.078937374 -0.75454247 -0.44993424 0.103753075 -0.48492566 0.29650795
1104 0.6971352 -0.3521852 -0.70457745 0.990345 1.1960325 -0.7350246 1.9490755 1.0977048 -0.047875278 -0.12671126 0.7834724 -1.0358132 -1.2578064 0.381656 0.42374542 0.32935864
721 0.9378489 -1.025751 -0.9808145 0.1268314 0.95840037 0.64573926 0.54489756 -0.87821645 -0.35461658 -0.52007276 0.026960205 -1.3129945 0.24071662 -0.8079211 -1.1803211 -0.44394735
320 1.8337737 -0.900131 0.7677206 0.6765633 1.2304101 0.048346028 1.0350523 0.7041224 0.20086539 -1.2733853 0.86251926 0.8232026 -0.2659268 -1.7644682 -0.5635084 0.97386855
1219 0.6797463 0.20085096 -0.012414532 1.5233824 1.2464411 0.0025705528 1.5735459 1.3140488 -0.5779338 -0.47191578 -0.33144066 -0.75454044 -0.59874016 0.3712813 -0.79196167 -0.6423682
43 0.48877734 -0.3278381 -1.2535378 0.790932 0.4754498 -0.017640041 0.8243125 -0.3844404 -0.015391209 -1.6418874 -0.77318764 0.08260723 0.9390687 -0.29385448 -0.92560226 0.98016095
812 0.9649121 -0.51685095 0.23448859 0.43587124 0.8968519 0.67510366 1.4892263 0.69163966 -0.29741398 -0.21775548 0.109100595 -0.4763063 -0.77623385 0.7859586 -1.3102144 -0.74773353
200 0.3779122 0.26128715 -0.38288504 1.7495143 1.3695769 -0.32889333 1.4920248 1.4044706 -0.3888318 -0.5092341 -0.2569106 -0.88293946 -0.95035005 0.17989464 -0.42605865 -0.19328101
862 0.37375256 0.52339363 -0.7389288 1.8678588 0.07778978 1.0589782 1.2375159 -0.7435852 -0.7808411 -1.2630796 0.114544764 -0.4407882 0.72527117 -1.3232241 -0.1906515 -0.09919699
1134 1.9096441 0.89336634 -1.0620259 1.0167091 0.78523016 -0.6645054 0.35595444 0.35173553 1.8689349 -0.8748679 0.80143905 -0.6580917 0.24093641 -0.89840037 -0.018200362 0.14206995
667 0.9650777 -0.44491047 -1.1354825 0.4381809 1.0923454 0.1166093 0.6181738 -0.64753795 -0.54688996 -0.97313964 -0.7992112 -0.16959676 1.082755 -0.7906827 -1.1011276 -0.082977
171 0.39659217 0.18327491 -0.9964742 0.43585837 1.5629829 0.32833633 0.50869924 -0.23899053 -0.38130823 -1.3400005 -0.8459935 -0.2434524 0.9272133 -0.8220627 -0.76440895 0.96270835
118 1.1473873 -1.3867404 0.30824217 1.8093876 0.49867857 0.32673195 1.067769 0.09619102 1.1158061 0.16652322 0.27484155 -1.7211859 0.56944966 -0.7542185 -0.14540157 1.8433158
795 0.6671816 -0.71577686 -1.2505151 1.1970528 -0.15647107 0.17647675 0.9740409 -0.6151946 -0.05815945 -1.5146824 -0.44914913 0.07797421 0.9255243 -0.26747978 -0.91986555 0.4618457
504 1.5156183 -0.90518326 -1.2176399 1.0269872 0.03261264 -0.32536462 1.447023 -1.2304121 0.49806824 -0.09303936 0.5701846 0.23921777 0.5926574 0.35071027 -1.1500453 -0.023255859
897 1.411927 -0.15688962 0.7049553 -0.49530926 0.38142598 1.0398756 1.8253541 -0.12687494 0.02366058 -0.0858038 0.04936011 -0.47405362 -0.23137642 0.50903535 -0.86454225 -0.088939
1237 0.78975976 -0.6042829 -1.4508283 0.32594082 1.8649259 -0.01701314 0.7839811 -1.0119275 -0.5631091 0.2520362 -0.34661755 -0.47011006 0.24596784 -0.3565637 -1.0047551 0.71172184
170 1.2639972 0.09894026 0.8446571 -0.6102227 0.79498374 1.1833929 2.221655 -0.04838016 -0.055779997 -0.20000003 0.48037937 -0.50041705 0.38920522 0.12701963 -0.4974982 -0.08168706
403 1.5736718 -0.9212287 -0.7590457 0.3540218 0.94906044 -0.035313416 1.2158203 -0.81201065 0.59325963 0.44915295 0.4277747 0.45737445 0.4349028 0.5445969 -1.3854955 0.1865693
423 0.6404642 -0.12009848 -0.93460995 0.31533518 1.4265021 0.20872214 0.43802553 -0.42197695 -0.42671117 -1.2705772 -0.9812915 -0.58470535 0.7742274 -1.0559313 -0.89176 0.54257476
222 1.5562904 0.9788581 -0.4109759 0.38913563 -0.3457389 1.0619358 1.6462165 0.03352542 0.48917928 0.34853303 -1.1247909 -0.94874436 -0.54902524 -0.13322154 0.18620479 0.9364177
884 1.583639 0.71741545 0.81929183 -0.079016514 0.42693067 1.2039286 2.1516402 -0.35936582 0.37832034 0.17493117 -0.21801005 -0.98111445 0.12921287 -0.2867405 0.55689436 0.17204946
864 2.158382 0.8439352 -1.0605216 0.87312204 0.6757952 -0.52798826 0.39438966 0.12422717 1.5069048 -0.8010648 1.1877117 -0.78436756 0.038622033 -0.96093166 0.10834856 -0.09114631
476 0.28546086 -0.107656084 -0.7794954 0.45083767 1.40579 0.8734702 0.63165736 -0.8593184 -0.39752457 -0.74390686 -0.09383677 -1.752816 -0.30383992 -1.5190579 -0.6647929 0.096125975
564 1.8133185 0.9135806 -1.1720111 1.2423677 0.71854264 -0.5384618 0.24343596 0.5311478 1.8478254 -0.6750831 0.6094049 -0.501564 -0.0041452227 -1.0407324 -0.41801706 0.36395982
1051 1.5127649 0.4960767 -0.0053862277 1.8393751 0.5731203 0.15338829 2.4050956 -0.32181183 1.0740774 -1.1194351 0.17010963 1.4771786 -0.7526632 0.29565972 0.5354657 -0.4139602
899 1.8256913 0.7814581 0.26536334 1.0218719 -0.034378752 0.24830274 0.91878283 -0.9025544 0.39162165 -0.64750224 -1.1467985 -1.024624 -1.023932 0.48836753 -0.058158938 1.1602261
681 0.98003733 0.9844935 0.42953292 -0.50345093 0.89390475 0.6859616 2.5511205 0.15976064 0.5762191 0.08801263 -0.12746508 -0.17434666 0.42204162 -0.40408054 0.15421242 1.0026739
233 1.3710858 0.39450067 -0.35133588 1.9657335 0.88518304 0.6838171 1.9511031 -0.3158939 0.9760548 -1.1930364 0.07828093 1.2623708 -0.34077597 0.71621937 0.96300155 0.042827297
971 0.8427332 -0.7241959 -1.2276949 0.34135333 1.1216544 0.54410577 0.48472968 -0.95778656 -0.3826937 -0.4200828 -0.29976878 -1.4391869 -0.09528501 -1.238021 -0.9030475 -0.14225595
246 0.45462325 -0.0037871867 -0.90080357 0.91586596 0.9618597 1.1218095 0.6506587 -0.79206353 -0.7015779 -0.69209325 -0.011100207 -1.3004937 0.1339172 -1.5359511 -0.45149982 -0.23816825
1277 0.80948544 -0.73174196 -1.3172213 0.32872173 1.6798579 -0.017910322 0.91840744 -0.9345091 -0.34068003 0.3744462 -0.18003209 -0.105331205 0.3608086 -0.09927288 -1.1801814 0.8166987
446 1.4454584 0.74116474 -0.22706062 -0.14885531 -0.22397384 0.5338131 1.7115433 -0.4571383 1.0106782 -0.1676301 -1.0574961 -0.81238234 -0.96063447 -0.2947191 0.014081339 1.043224
239 2.0031357 0.79232705 -1.3032457 1.4550562 0.26443595 -0.25411728 0.12230103 0.39633393 1.1367912 0.022696618 0.8226258 -0.40266618 -0.5926913 -1.3826648 -0.98293334 0.53997105
965 1.0237887 -1.1179538 -1.7215722 0.72383934 0.505645 -0.018827463 1.190741 -1.126981 0.254469 -0.89182246 0.2770917 0.2814118 0.88483334 0.08628777 -1.0944631 0.21584816
347 0.6081655 -0.54114014 -1.2144781 1.2597536 0.09949781 0.675944 0.9719246 -0.82109976 -0.7508664 -1.1950306 -0.66730803 -0.5882249 0.7630652 -0.9316967 -0.77733463 -0.2169547
716 0.17897491 -0.36561042 -0.9689949 0.7960046 0.64869887 -0.60757756 2.4689672 1.2266284 0.31713894 -0.5072871 0.18000074 -0.95331156 -0.91749585 0.1456343 -0.29391414 -0.34318987
1166 0.68777066 -0.8768391 -1.4559463 0.729676 0.2849384 0.25995496 1.0083842 -0.8344946 0.13357402 -1.2931281 -0.07266255 0.26131755 1.0079781 -0.03570836 -1.0537453 0.5590321
464 0.40007937 0.8055712 -0.71302944 1.7272482 0.36519948 1.0599314 1.1312038 -0.6696935 -0.76796585 -1.1624404 0.2501985 -0.25559223 0.7172965 -1.3841136 -0.16288544 0.050594855
1020 1.2522409 -0.5736279 -0.6162566 0.07820842 1.3093863 0.25502855 0.9690435 -0.94101083 0.16973531 0.34973848 0.39343983 0.260976 0.2464607 0.61493975 -1.3672428 0.25310948
1142 1.1203994 -1.3338779 0.3415404 1.8163134 0.5303941 0.3321335 1.0294216 0.15054914 1.1154579 0.14654998 0.27974465 -1.6449945 0.6208989 -0.6762112 -0.1586312 1.7604129
1070 0.18494071 0.33046484 -0.67219836 0.62522465 1.629312 0.9603318 0.533109 -0.66246146 -0.5839134 -0.82110643 -0.1376851 -1.6162202 -0.15922993 -1.5206822 -0.47864306 0.4343676
724 1.2511525 0.08247428 0.7587408 -0.64395046 0.76557213 1.171706 2.3305075 0.10916835 -0.04671357 -0.21166398 0.35163173 -0.485295 0.27212444 0.031920824 -0.50062966 -0.030656133
1262 1.5426754 0.45719212 -0.034995105 1.8515316 0.60748506 0.262316 2.3050182 -0.31149694 1.0538228 -1.1433314 0.16674078 1.525654 -0.6905422 0.28209907 0.62637085 -0.3161774
305 0.34819275 0.88251555 -0.641247 1.6884753 0.39975 1.0623224 1.0760763 -0.638215 -0.7426164 -1.1650485 0.35600254 -0.296389 0.6043539 -1.431339 -0.18582058 0.107215695
69 0.84378064 -0.26198468 -0.62910694 0.92801666 0.7720536 0.31562397 1.2611029 1.4531391 -0.26994634 -0.64911574 0.35946447 -0.65150017 -1.3698082 0.86450315 -1.090231 0.19612087
270 1.3385919 -0.19960153 0.6960831 -0.5530362 0.50212103 1.1941745 1.8899089 -0.12990528 -0.0032454734 -0.079103634 0.09120687 -0.46206576 -0.12459091 0.47324532 -0.84097034 -0.13113831
733 1.8255228 0.39246896 0.38875738 -0.2188879 -0.22633052 0.45303896 1.4231977 -0.8860399 0.8963152 -0.672645 -0.6389664 -0.9243198 -1.129965 -0.1248002 -0.14437972 0.8462423
203 1.3241292 0.15989405 0.8398834 -0.97858477 0.567289 1.1509243 2.3992505 0.06477277 -0.0910427 -0.80054295 0.3726149 -0.5937032 0.18895681 -0.26804814 -0.57082313 0.6063192
829 1.8186294 0.67656916 0.26710758 -0.40889943 -0.26917258 1.1693003 1.9136888 0.09134495 0.46650636 0.13219325 -0.50189835 -0.5945214 -0.44098222 -0.5090971 0.05061361 0.96814334
1177 2.1602592 0.8608165 -1.043667 0.90799415 0.66247 -0.6150747 0.37678456 0.11271407 1.5269977 -0.84555453 1.181497 -0.7725358 0.080014855 -0.9325834 0.13795243 -0.07806676
404 1.119973 -0.6778116 -1.1415267 0.5036047 1.2483732 -0.13861796 1.1366763 -0.77681404 0.5325484 0.33104977 -0.08603244 0.64133793 0.63777107 0.28801695 -1.4161682 0.5707748
892 0.9204071 -0.53818077 -1.1999348 0.42163327 0.9829654 0.11238566 0.6163783 -0.5991373 -0.6034258 -1.0720252 -0.9046133 -0.4935625 0.89290535 -0.99213415 -0.9460068 -0.11262313
374 0.3739439 0.34989157 -0.6298949 1.0250922 1.1533421 1.4247003 0.56187093 -0.39431176 -0.6243064 -1.131879 0.06445658 -1.041762 0.41038606 -1.5528737 -0.4040392 0.046089076
578 0.6847349 -0.6585161 -1.4654163 0.32151133 1.4203526 0.39901045 0.6735577 -1.0386873 -0.4665939 -0.057529483 -0.37663212 -1.2786981 -0.04797959 -1.0414884 -1.0430269 0.06116114
516 0.9914725 -0.263185 0.3264676 0.90993965 1.2256496 0.798493 1.0850228 1.2085919 -0.031652413 -0.56714624 -0.12972006 -0.3202167 -1.0934503 0.62366 -1.4244733 -0.41297457
1017 0.8936556 -1.1359291 -0.97119844 -0.007843179 1.2063574 0.5690004 0.56262404 -0.96040726 -0.34150353 -0.42426783 0.11503631 -1.4015155 -0.050564874 -0.718687 -1.1865951 -0.3002181
237 0.06072073 -0.32395014 -0.87072396 0.8744781 0.7693139 -0.6967233 2.528655 1.1828568 0.39723986 -0.5144346 0.068846844 -0.8949256 -0.8231061 -0.0454225 -0.42491412 -0.39259556
1168 1.1175933 -0.22693987 0.12269988 1.1757312 1.3995484 0.57320774 0.867537 1.3317463 0.1358363 -0.5874659 -0.060379513 -0.44808465 -1.4371388 0.60538423 -1.1890466 -0.29421508
132 2.090198 0.55820215 0.6601558 0.031505287 -0.33452427 0.4906226 1.2283454 -0.9925087 0.68708974 -0.77660686 -0.37445247 -1.0410961 -0.8807474 -0.16995975 -0.09374841 0.81509495
352 1.5758687 0.52653 -0.0065114154 0.48037136 -0.062553346 0.1469903 1.2401867 -0.8422279 0.8225839 -0.6004931 -1.248632 -0.92336416 -1.2443959 0.2916563 -0.10627644 1.1346729
974 1.93802 0.92173123 -1.0883111 0.9852451 0.866664 -0.66059464 0.41320956 0.30418432 1.8772472 -0.8780757 0.8296276 -0.6667639 0.21875632 -0.9131199 -0.023395227 0.12585463
647 0.7504227 -0.9801607 -1.590252 0.6330567 1.1027917 -0.10676646 1.1054474 -0.91282254 0.16594872 -0.35032412 -0.023494683 0.427878 0.7637632 0.12605701 -1.2499104 0.7976801
258 1.4784206 0.513939 -0.021689365 1.8123622 0.55478275 0.15268725 2.3627775 -0.41095713 1.0657809 -1.0653162 0.1928831 1.51445 -0.70881087 0.23664823 0.6027775 -0.3827382
225 0.5715669 -0.33696002 -1.0340366 0.43369126 1.1446834 0.6623496 0.49198425 -0.79038 -0.5339326 -0.769978 -0.4969045 -1.2690483 0.15403913 -1.4202821 -0.6874775 -0.008918513
851 1.1053761 0.9251955 0.5396985 -0.30669117 1.0459758 0.86781985 2.5474746 0.015366381 0.4041332 0.29928148 0.057883818 -0.4198965 0.6432147 -0.30604637 0.2703348 0.4114092
253 0.9088217 -0.52520734 -1.2850214 0.68127596 1.0283773 -0.10828583 1.0628768 -0.9252621 0.40362546 0.0968472 0.12263718 0.6835493 0.6624186 0.29174912 -1.3801627 0.73768157
259 0.8676242 -0.6180204 -1.2222352 0.36820847 1.009316 0.6761893 0.57457495 -0.7840517 -0.58830374 -0.4474393 -0.5328965 -1.2996899 0.1613567 -1.3321041 -0.8750897 -0.26657134
698 1.7893049 -1.1179154 -0.29612827 0.09034293 0.8218637 0.51103044 1.0809846 -0.58966 0.21183349 0.4220902 0.74035454 -0.19674523 -0.019437041 0.5397461 -1.2775313 -0.41157997
749 0.7635852 -1.1704481 -1.4939034 0.32216457 0.91975874 0.27019432 1.0326571 -0.9134803 -0.19264151 -0.9742888 0.45914638 0.09065719 1.0940347 -0.06390766 -1.1259815 0.45166314
378 0.7106303 0.10336718 -0.7492998 0.22036839 2.4144323 0.112918824 0.539314 -1.2504482 -0.24210787 0.06358915 0.35156983 -0.61702275 -0.20173417 -0.3745056 -0.48302844 1.3678336
410 1.8282689 -0.87491703 0.8230092 0.8252331 1.1739635 0.040662743 1.0960499 0.6313933 0.24322404 -1.2513038 0.7835441 0.9738043 -0.28540087 -1.7014133 -0.3555289 0.9307581
847 0.9765308 -1.4429119 -0.9485609 0.084756725 0.7128245 0.55261487 0.999799 -0.9913467 -0.43534487 -0.60376143 0.66953623 -0.7729462 0.40410155 0.09628609 -1.1938862 -0.10290884
346 0.8660528 -0.507385 -0.259245 0.80196553 0.55424577 0.5058253 1.7811024 1.3078272 -0.005289561 -0.5929629 0.16317232 -0.2413115 -1.1054832 0.9755895 -1.2435037 -0.3811524
1169 0.78849083 -1.2646034 -1.3368814 0.116227165 1.4764156 0.047566693 0.9705121 -0.918149 -0.117255695 -0.2920392 0.45563674 -0.20828247 0.517765 0.10617913 -1.2351912 0.6374651
895 0.34346157 0.17937256 -0.7413876 1.4158279 0.68188596 1.3428385 0.8839175 -0.776493 -0.76100004 -1.0401174 0.049140267 -1.0052408 0.37572402 -1.5208435 -0.27355355 -0.25403678
1008 0.43028843 0.36031348 -0.15855289 1.6533616 1.1747298 -0.20235838 1.8487254 1.3646977 -0.42661488 -0.5465857 -0.43383348 -0.821701 -0.53362465 0.14083633 -0.63463914 -0.5638967
1129 0.08496363 0.11824761 -0.44524404 1.3641306 1.0973386 -0.6584582 2.2503684 1.2554222 0.027739482 -0.49217868 -0.30161592 -0.848999 -0.6546311 -0.20572893 -0.20752877 -0.4703799
661 1.7677288 1.2713523 0.015068112 0.6555867 -0.09335552 1.1267064 1.6740513 0.098132685 0.36448434 0.54477775 -0.7644759 -1.0049411 -0.25367555 -0.20518339 0.49194857 0.78096986
82 0.5727078 -0.84033316 -1.4232024 0.8392202 0.22965392 0.2726401 1.077162 -0.72544277 -0.1467288 -1.201717 -0.11056267 0.3071522 0.98292696 0.03246466 -1.0261432 0.84735227
260 0.3926885 0.27755928 -0.72844356 0.20770496 2.1447423 0.2723875 0.31563348 -0.82908064 -0.21465261 -0.697722 -0.17604065 -1.2392688 -0.29415682 -1.1443628 -0.57090175 1.0432917
832 1.3044747 -0.9553647 -0.94811094 0.5027105 1.170333 -0.074991874 1.2381128 -0.7585041 0.5520937 0.18806483 0.3637614 0.58887136 0.52632505 0.5845342 -1.4809234 0.3379682
