1061 16
0 -0.270170 0.322164 0.188969 0.899507 0.122662 0.557479 1.048015 1.015613 -0.283536 0.357732 -0.409093 0.659531 1.741098 -1.087507 0.154998 0.531377 
320 -0.229975 0.938156 0.562639 1.381015 0.335115 0.483543 1.227081 0.804506 0.085680 0.635915 -0.447685 0.537374 2.077399 -1.816858 0.232094 0.475964 
705 -0.306271 0.049229 -0.058907 0.403469 0.008616 0.393773 0.564029 0.470522 -0.193503 0.232054 -0.269268 0.315644 1.055295 -0.543582 0.330965 0.353555 
132 -0.175520 0.791168 0.603127 1.262666 0.399939 0.431933 1.241171 0.932477 -0.006673 0.537637 -0.508364 0.692602 2.128664 -1.702062 0.190514 0.441149 
598 -0.175871 0.431390 0.181348 0.914786 0.112139 0.468051 0.897419 0.690725 -0.098081 0.463487 -0.358051 0.486110 1.490693 -1.086521 0.142137 0.452799 
861 -0.166541 0.372057 0.196250 0.568889 0.046925 0.347956 0.562096 0.404803 0.004564 0.329313 -0.216393 0.234026 0.967547 -0.751976 0.148967 0.277007 
129 -0.640733 -0.055516 -0.186311 0.686812 0.147998 0.836163 0.985592 1.122614 -0.507294 0.231867 -0.494438 0.770801 2.179264 -1.014381 0.605107 0.691767 
141 -0.193342 0.528405 0.395445 1.235082 0.230066 0.558604 1.208825 0.920983 -0.131521 0.535852 -0.473655 0.642886 1.907688 -1.408608 0.176720 0.576087 
207 -0.242273 0.463118 0.226067 1.028627 0.123476 0.566073 1.030417 0.915133 -0.142056 0.470344 -0.407638 0.584220 1.706725 -1.160341 0.193168 0.537549 
593 -0.185599 0.500505 0.271974 1.051890 0.128031 0.506429 1.017137 0.708377 -0.051856 0.521155 -0.383367 0.509005 1.649436 -1.207565 0.192970 0.441368 
659 -0.366608 0.167313 0.046441 0.605344 0.000139 0.494046 0.695184 0.647925 -0.205986 0.342650 -0.296174 0.443225 1.329119 -0.795317 0.319643 0.436437 
596 -0.182568 0.451707 0.294623 1.026127 0.077039 0.527332 0.988355 0.715943 -0.067922 0.553995 -0.392953 0.480093 1.635553 -1.215101 0.157818 0.473193 
533 -0.152131 0.561030 0.311556 1.084453 0.167583 0.509012 1.026954 0.718394 -0.011573 0.555961 -0.395581 0.509001 1.640115 -1.338825 0.097608 0.514418 
22 -0.432878 0.072746 0.015439 0.702614 0.158003 0.659491 1.018859 1.103577 -0.424353 0.287671 -0.470834 0.719677 1.900657 -0.940526 0.347381 0.596274 
152 -0.174832 0.854555 0.668684 1.366378 0.356672 0.405930 1.258681 0.818524 0.070914 0.587233 -0.423891 0.595672 2.093700 -1.791658 0.139223 0.446480 
986 -0.030313 -0.029064 0.005773 0.029415 0.024343 -0.007827 -0.025062 0.012416 0.017013 -0.004514 0.009355 0.010188 0.009616 0.016565 0.015321 -0.013341 
219 -0.327955 0.282205 0.121944 0.913619 0.065545 0.590062 1.008219 0.896413 -0.252559 0.422440 -0.420169 0.582659 1.697663 -1.138919 0.355453 0.575175 
668 -0.187345 0.431914 0.232639 0.840684 0.133386 0.408540 0.815082 0.514053 -0.000722 0.445992 -0.320653 0.433800 1.262330 -0.991518 0.198031 0.357548 
666 -0.208309 0.426504 0.241429 0.932139 0.065156 0.413139 0.820555 0.560839 0.035162 0.476998 -0.324227 0.378546 1.342732 -1.052817 0.135342 0.408569 
933 -0.091242 0.063543 0.022257 0.154884 0.009098 0.099237 0.133643 0.092624 -0.000334 0.087726 -0.013389 0.055588 0.314089 -0.147520 0.052116 0.100969 
872 -0.138164 0.236075 0.111545 0.390470 0.070090 0.235399 0.378643 0.333962 -0.005459 0.198531 -0.177467 0.138186 0.648547 -0.478211 0.127884 0.206168 
108 -0.656530 -0.074507 -0.248902 0.733092 0.179107 0.866253 1.031451 1.173924 -0.570176 0.220804 -0.421115 0.778813 2.186060 -1.017930 0.637207 0.686054 
687 -0.231375 0.367419 0.163835 0.761808 0.104118 0.347829 0.686333 0.450738 -0.021366 0.390980 -0.285837 0.358798 1.173580 -0.896588 0.184811 0.369269 
560 -0.229094 0.322850 0.158051 0.820420 0.078067 0.502701 0.866057 0.695686 -0.157041 0.396753 -0.350472 0.443807 1.447234 -1.022659 0.184345 0.455550 
40 -0.634665 0.040021 -0.099524 0.728393 0.158989 0.738274 1.036788 1.117876 -0.500619 0.312589 -0.439152 0.735134 2.020538 -1.024358 0.491841 0.656924 
114 -0.320941 0.338540 0.191211 1.004050 0.164644 0.571288 1.060189 0.982251 -0.288953 0.454847 -0.422008 0.621045 1.779692 -1.165268 0.200080 0.502792 
372 -0.212416 0.542929 0.312470 1.168364 0.128298 0.584188 1.162520 0.833035 -0.025735 0.588558 -0.415796 0.565633 1.864228 -1.380972 0.166648 0.574389 
441 -0.243512 0.524929 0.310852 1.089550 0.129715 0.578302 1.054329 0.733365 -0.068270 0.589096 -0.402707 0.511118 1.783924 -1.377285 0.168040 0.561889 
255 -0.355795 0.305183 0.098637 0.950551 0.109885 0.624672 0.994220 0.937665 -0.236313 0.484612 -0.405498 0.553578 1.813488 -1.130701 0.328884 0.581487 
639 -0.441138 0.110926 -0.058181 0.681797 -0.005654 0.558515 0.798464 0.698263 -0.162855 0.366042 -0.362945 0.494635 1.491626 -0.829691 0.421231 0.515859 
1 0.192186 0.142763 0.590140 0.708022 0.782465 0.150999 -0.725247 -0.780268 -1.264548 0.060842 0.613235 -0.758574 1.770023 -0.570096 0.413307 0.441076 
192 0.236887 0.101736 0.605453 0.775746 0.854864 0.134134 -0.749756 -0.728049 -1.306994 -0.008552 0.607323 -0.866543 1.848496 -0.658930 0.440720 0.485457 
576 0.230129 -0.159157 0.322598 0.699248 0.918142 0.109022 -0.600861 -0.563567 -0.983069 0.242733 0.583456 -0.882991 1.444081 -0.962762 0.519629 0.381036 
194 0.254662 -0.061791 0.524125 0.630007 0.802105 0.250493 -0.878794 -0.931438 -1.236193 0.072906 0.660924 -0.817153 1.877945 -0.676937 0.473245 0.532846 
1035 -0.027685 -0.022524 -0.006093 0.014339 0.008765 -0.019443 0.031235 -0.010661 -0.022663 -0.001617 0.001893 -0.006774 0.017450 0.015802 -0.011863 0.026972 
838 0.199016 -0.016719 0.297748 0.438312 0.577233 0.063537 -0.414542 -0.388473 -0.685399 0.097949 0.362901 -0.532635 1.064348 -0.529129 0.339606 0.305277 
519 0.290658 -0.201028 0.380768 0.568926 0.690140 0.213919 -0.780614 -0.777295 -0.977925 0.178874 0.523186 -0.743905 1.598403 -0.665536 0.449765 0.444449 
394 0.289984 -0.100902 0.353013 0.863396 1.133551 0.162326 -0.792107 -0.739904 -1.259022 0.332519 0.765859 -1.035329 1.806445 -1.061947 0.614303 0.452135 
203 0.206456 0.007440 0.489173 0.915801 1.127358 0.280392 -0.870120 -0.841067 -1.415037 0.229473 0.800384 -1.006592 1.951871 -1.061410 0.629348 0.523884 
844 0.192512 -0.053550 0.228640 0.497478 0.791335 0.093513 -0.440073 -0.412932 -0.690205 0.189878 0.419596 -0.591123 0.978274 -0.724623 0.368148 0.278022 
852 0.195880 -0.029909 0.297309 0.485076 0.559213 0.102704 -0.460494 -0.406755 -0.733773 0.146949 0.385865 -0.583230 1.105840 -0.522581 0.381176 0.289301 
661 0.264129 -0.051601 0.421162 0.712672 0.811033 0.087108 -0.687070 -0.589218 -1.064415 0.228559 0.555398 -0.877008 1.590080 -0.779838 0.483413 0.357008 
539 0.258309 -0.077636 0.441666 0.797765 0.818366 0.123030 -0.721386 -0.600933 -1.118236 0.146711 0.611451 -0.881133 1.705849 -0.698231 0.521637 0.414212 
989 0.117551 -0.001112 0.197986 0.391935 0.332369 0.099866 -0.283972 -0.246916 -0.460274 0.104226 0.210287 -0.356845 0.698577 -0.381286 0.204669 0.224379 
351 0.270873 -0.009672 0.522114 0.796581 0.869941 0.121086 -0.799385 -0.710563 -1.190517 0.128122 0.669332 -0.900125 1.816970 -0.732596 0.537311 0.467386 
160 0.203800 0.032081 0.528071 0.873327 0.985816 0.210981 -0.878115 -0.799506 -1.386628 0.185380 0.768686 -0.957777 1.874992 -0.903988 0.537068 0.483211 
225 0.246923 0.040465 0.498651 0.979118 1.069652 0.205377 -0.938876 -0.816601 -1.436294 0.163513 0.771546 -1.090205 2.086766 -1.008528 0.567865 0.534978 
291 0.268868 -0.061681 0.483562 0.970345 0.993808 0.227552 -0.845354 -0.738995 -1.295029 0.227584 0.720234 -1.053260 2.015144 -0.938543 0.612742 0.456047 
548 0.248277 -0.153358 0.369761 0.760569 0.864015 0.150782 -0.714485 -0.557640 -1.095273 0.234504 0.624328 -0.882473 1.564591 -0.844225 0.545207 0.396803 
678 0.226318 -0.045311 0.380575 0.534341 0.700759 0.093265 -0.548452 -0.537341 -0.856447 0.146790 0.433602 -0.702885 1.324644 -0.630431 0.405247 0.331633 
361 0.300348 -0.056781 0.505234 0.825983 0.868384 0.127328 -0.749011 -0.693826 -1.175900 0.113462 0.599344 -0.900250 1.831323 -0.691539 0.541284 0.456328 
298 0.282362 0.017126 0.497490 0.768919 0.841280 0.161640 -0.767979 -0.662480 -1.189980 0.097303 0.611682 -0.868715 1.771086 -0.654223 0.507362 0.452562 
811 0.245199 -0.078540 0.343810 0.612905 0.820362 0.125461 -0.644242 -0.557826 -0.898791 0.175754 0.457411 -0.690740 1.341493 -0.742646 0.427692 0.355560 
257 0.262209 0.001023 0.550374 0.755333 0.816377 0.186094 -0.761976 -0.659404 -1.226074 0.087985 0.578764 -0.935792 1.834243 -0.656072 0.458977 0.433214 
223 0.270010 0.028815 0.566954 0.773728 0.899837 0.198826 -0.764749 -0.784755 -1.238911 0.048750 0.625896 -0.905169 1.847917 -0.710011 0.421559 0.507408 
559 0.217823 -0.060726 0.426874 0.753511 0.718048 0.105034 -0.681674 -0.621696 -1.074837 0.156326 0.544030 -0.818323 1.579806 -0.681383 0.471297 0.410821 
432 0.251970 -0.066641 0.481700 0.661097 0.789281 0.118108 -0.731391 -0.619396 -1.056728 0.091434 0.527712 -0.758322 1.607158 -0.623144 0.518019 0.448864 
563 0.250759 -0.077487 0.319073 0.831450 1.060613 0.123878 -0.779269 -0.689550 -1.178015 0.316573 0.659482 -0.988412 1.714070 -0.993231 0.527811 0.463540 
182 0.261650 0.171524 0.520566 0.720033 0.935628 0.163584 -0.749257 -0.814615 -1.321517 0.049550 0.598225 -0.819773 1.757013 -0.671815 0.423455 0.468990 
696 0.182068 -0.118071 0.369311 0.774892 0.999019 0.152927 -0.738936 -0.614970 -1.127310 0.306293 0.603553 -0.970614 1.618983 -0.962802 0.528481 0.463584 
1017 0.105490 -0.036325 0.095870 0.266594 0.247469 0.060357 -0.133748 -0.169635 -0.271181 0.065861 0.153356 -0.312408 0.557539 -0.263897 0.193754 0.137080 
863 0.104619 -0.099815 0.280974 0.442999 0.485361 0.074075 -0.369075 -0.370727 -0.623539 0.092172 0.320896 -0.535286 0.991479 -0.514938 0.359858 0.278943 
1023 0.011075 0.020147 -0.024788 0.026405 0.013006 -0.030756 -0.013845 -0.028160 0.008937 0.015546 -0.016727 0.027534 -0.016639 0.028833 -0.017959 -0.010543 
2 0.251923 0.515785 -0.913920 1.108232 0.774988 0.231047 -0.021820 0.805766 -0.106710 -0.988792 1.097781 0.253318 1.412390 0.558373 1.031548 -0.398178 
128 0.261767 0.609236 -1.093753 1.243550 0.922983 0.240300 -0.013388 0.825940 -0.068250 -0.907938 1.056345 0.123550 1.374390 0.641384 1.061163 -0.239296 
769 0.293034 0.473791 -0.908861 0.610402 0.728180 0.162547 0.271620 0.373911 -0.011252 -0.559407 0.920968 -0.111145 0.783960 0.441830 0.953845 0.175605 
640 0.558774 0.616193 -0.985876 0.548426 0.916345 0.087954 0.408294 0.450574 0.005541 -0.724999 1.220428 -0.116051 1.120884 0.430118 1.263372 -0.001823 
964 0.138313 0.271033 -0.539478 0.555344 0.394301 0.097119 0.048222 0.352959 0.030724 -0.378886 0.435166 0.069649 0.608945 0.247415 0.537533 -0.030382 
1030 0.169753 0.376827 -0.620000 0.459769 0.459482 0.114662 0.147399 0.292693 0.070632 -0.329357 0.578345 -0.027734 0.567246 0.293435 0.606535 0.119242 
633 0.448950 0.708145 -1.236019 1.106323 0.994998 0.240793 0.205959 0.698858 0.018263 -0.940187 1.309528 -0.046875 1.395071 0.611350 1.250633 0.022661 
200 0.373222 0.559972 -1.174357 1.216669 0.969759 0.257455 0.051934 0.876293 -0.081519 -0.999516 1.248516 0.100748 1.557361 0.602268 1.197914 -0.245248 
393 0.315034 0.520875 -1.007242 1.027061 0.827685 0.207520 0.068422 0.720037 -0.017417 -0.810791 1.033554 0.106938 1.255833 0.474093 1.013374 -0.204623 
10 0.334205 0.557412 -0.922225 0.961177 0.798825 0.139733 0.085035 0.756615 -0.111290 -0.881294 1.131849 0.183878 1.417288 0.501141 1.067318 -0.420170 
396 0.333821 0.544293 -1.113350 1.110264 0.876734 0.231439 0.105077 0.758606 -0.056494 -0.886834 1.021916 0.127746 1.339294 0.525456 1.074429 -0.148751 
590 0.376402 0.652843 -1.173790 1.153821 0.922354 0.254110 0.141222 0.715472 0.005310 -0.849965 1.091838 0.028954 1.309346 0.560372 1.176009 -0.037609 
143 0.318058 0.526053 -1.084981 1.249873 0.903743 0.205299 0.011301 0.878667 -0.084999 -0.994223 1.147249 0.118964 1.518987 0.589262 1.085663 -0.349532 
721 0.332961 0.407669 -0.736514 0.703848 0.578050 0.168169 0.103439 0.515002 0.004465 -0.558065 0.819369 0.065500 1.001151 0.283266 0.789305 -0.108694 
980 0.190964 0.266824 -0.520614 0.517087 0.431431 0.096481 0.094125 0.307447 -0.018534 -0.409517 0.529632 0.038419 0.643962 0.200173 0.554741 -0.042400 
235 0.298404 0.589881 -1.094704 1.068361 0.915695 0.232806 0.115476 0.694757 0.000350 -0.783729 1.029224 0.048997 1.146269 0.629839 1.039836 -0.086010 
25 0.459444 0.689236 -1.110507 0.558184 0.934132 0.017961 0.471324 0.406344 -0.033799 -0.679001 1.296737 -0.128351 0.978971 0.676099 1.170004 0.084731 
922 0.299241 0.409779 -0.786184 0.710604 0.614080 0.165660 0.136713 0.513651 -0.002663 -0.632864 0.834093 0.063442 0.946175 0.287507 0.837337 -0.088244 
475 0.383936 0.645001 -1.225006 1.195728 1.002503 0.231291 0.116949 0.807450 -0.050130 -0.901688 1.182128 0.067613 1.447007 0.618025 1.204246 -0.065380 
253 0.279972 0.547490 -1.110877 1.224894 0.890236 0.296530 -0.026281 0.804906 -0.045191 -0.886906 1.077825 0.096112 1.315925 0.564456 1.077906 -0.245732 
1055 0.063042 0.051802 -0.133159 0.197225 0.143769 0.060243 0.000318 0.098646 0.037979 -0.061235 0.128074 -0.039084 0.236057 0.028927 0.155563 -0.035231 
675 0.465752 0.748999 -1.255535 1.084974 1.035085 0.288899 0.233228 0.666933 0.037339 -0.850084 1.252787 -0.032771 1.372764 0.624998 1.293906 0.065319 
1060 -0.008666 0.022825 0.015045 0.022238 0.017942 -0.015762 0.016412 0.028994 -0.017007 -0.001744 -0.027697 0.006528 -0.029285 -0.013269 0.007713 -0.005172 
198 0.267675 0.507928 -1.058572 1.203636 0.884295 0.215170 -0.019928 0.817073 -0.059995 -0.928109 1.071896 0.155224 1.416209 0.521309 1.049523 -0.259924 
357 0.331289 0.541295 -1.021502 1.045621 0.883566 0.205201 0.093306 0.704141 -0.120737 -0.895437 1.137004 0.126423 1.318383 0.525296 1.044687 -0.254741 
936 0.436615 0.143252 -0.347261 0.012461 0.262603 0.040044 0.280338 0.109670 0.109628 -0.268678 0.646889 -0.033773 0.833500 -0.059566 0.694611 -0.117523 
682 0.381494 0.446785 -0.855882 0.776867 0.687535 0.164575 0.150878 0.529370 0.004241 -0.678726 0.911273 0.079324 1.092090 0.342311 0.962000 -0.069043 
999 0.157580 0.267314 -0.511157 0.518304 0.391198 0.071447 0.058984 0.337704 0.009578 -0.379897 0.473398 0.035258 0.595153 0.274656 0.479502 -0.040946 
749 0.671538 0.551518 -0.809864 0.362943 0.785027 0.000413 0.607763 0.416969 0.044744 -0.695950 1.291433 -0.239670 1.252256 0.342618 1.279396 -0.083290 
111 0.260590 0.493735 -1.074393 1.314195 0.837367 0.246514 -0.077543 0.865871 -0.069584 -0.976175 1.127494 0.214890 1.492668 0.526430 1.015510 -0.360402 
368 0.290449 0.567212 -1.139568 1.261712 0.936653 0.277886 0.024459 0.828607 -0.074130 -0.935395 1.054553 0.087389 1.420427 0.556690 1.099571 -0.184166 
498 0.343944 0.509922 -1.056175 0.906452 0.810720 0.171060 0.160243 0.617053 -0.090246 -0.814280 1.050562 0.054887 1.242277 0.487907 1.078749 -0.122854 
883 0.330556 0.558567 -0.962999 0.907796 0.744189 0.199942 0.179398 0.552344 0.008002 -0.759119 0.931331 0.107327 1.069044 0.530506 1.024299 -0.067102 
117 0.333452 0.528235 -1.019178 1.240578 0.873340 0.197432 0.029734 0.841833 -0.085120 -1.045851 1.192062 0.179248 1.589362 0.516804 1.069339 -0.399409 
1044 0.028675 0.118575 -0.122979 0.159853 0.114165 0.060641 0.066926 0.077581 0.006360 -0.057065 0.126212 -0.068023 0.193152 0.076545 0.129043 0.041442 
699 0.359005 0.625615 -1.123516 0.825883 0.872818 0.159639 0.206291 0.496161 -0.009585 -0.667796 1.059847 -0.079777 1.004842 0.584915 1.079966 0.127553 
460 0.508094 0.657342 -1.111425 0.806095 0.990471 0.164966 0.400385 0.643873 0.069968 -0.889799 1.334042 -0.083777 1.340752 0.553831 1.303841 -0.037604 
970 0.192963 0.454743 -0.855089 0.647954 0.648357 0.161949 0.144915 0.352911 0.038101 -0.444812 0.787473 -0.046172 0.733446 0.382853 0.824215 0.141787 
574 0.706199 0.641057 -0.906060 0.417414 0.815619 -0.063429 0.659682 0.502851 0.042023 -0.802388 1.454610 -0.146248 1.318967 0.416048 1.363498 -0.119313 
3 -0.329024 -0.155369 0.595265 1.651350 -0.047304 1.254315 -0.356385 -0.183064 0.598374 -0.055641 0.519451 -1.072557 1.253385 0.017923 -0.872612 -0.384816 
131 -0.574146 -0.917615 -0.036176 2.121018 1.035030 1.149953 -0.156268 0.224031 0.862228 0.107851 0.484670 -0.854807 1.009977 -0.053264 -0.679159 0.101976 
900 -0.357068 0.147982 0.350814 0.913116 0.090241 0.435411 -0.233585 0.128178 0.595737 0.118964 0.401508 -0.762379 0.792481 0.031999 -0.475801 0.174841 
6 -0.387581 0.328065 0.948575 1.463050 -0.273134 1.097353 -0.407010 -0.208013 0.643725 -0.064799 0.696586 -1.151188 1.488933 0.137538 -0.655371 -0.187185 
1033 -0.004590 -0.012233 0.011083 -0.015344 -0.028656 -0.031092 0.025427 -0.023681 0.009960 0.016569 0.029612 -0.028019 -0.013812 -0.012222 -0.004497 0.030605 
522 -0.440255 0.398872 0.687147 1.549186 -0.109447 1.204496 -0.569792 -0.023933 0.830273 -0.002626 0.604542 -0.941285 1.353582 -0.027842 -0.428540 -0.013282 
653 -0.296852 -0.099159 0.329241 1.707471 0.459203 1.357092 -0.549175 -0.006285 0.965556 0.144695 0.494847 -1.002324 1.143194 -0.211004 -0.664138 -0.149140 
1038 0.011449 0.005527 0.007238 -0.016284 0.003106 -0.017189 0.008855 -0.010557 0.019241 0.004424 0.021831 0.016861 -0.013172 0.025236 0.026745 0.006082 
655 -0.523024 0.031193 0.303394 1.231647 0.245573 0.584184 -0.278984 0.166855 0.813865 0.178357 0.502392 -1.002548 1.015788 -0.013895 -0.741888 0.190142 
1041 0.000139 0.007505 0.055931 0.305438 0.086146 0.229743 -0.077390 0.047365 0.140615 0.022352 0.070618 -0.134663 0.299966 -0.053216 -0.043983 -0.001598 
1042 0.020105 0.003795 0.014415 -0.006623 -0.014644 0.025999 0.029306 0.002936 0.023763 -0.005576 0.001300 0.021402 0.031101 -0.026382 0.021272 0.018406 
404 -0.962571 0.138830 0.399862 1.702556 0.107262 0.718776 -0.194553 0.060493 1.070844 -0.000411 0.738686 -0.931460 1.282316 0.147596 -0.664089 0.355011 
789 -0.453549 0.170609 0.299466 1.028217 0.169688 0.568610 -0.250324 0.098432 0.608876 0.101581 0.361324 -0.555448 0.753138 0.020984 -0.204126 0.150731 
217 -0.648531 0.257939 0.718930 1.779913 -0.014776 1.120597 -0.491277 0.024708 0.927176 -0.019666 0.680759 -1.022918 1.361831 0.166458 -0.391460 0.029515 
287 -0.136676 0.151441 0.564393 1.623539 0.142117 1.458829 -0.744340 -0.077499 0.934026 0.053496 0.554896 -0.940248 1.247806 -0.192833 -0.493306 -0.269187 
421 -0.413301 0.338714 0.688779 1.625234 -0.087008 1.225170 -0.534739 -0.048821 0.856076 -0.030282 0.608841 -1.025467 1.403649 -0.009204 -0.428853 -0.086355 
297 -1.023135 -0.813568 -0.111975 1.981142 0.892873 0.693496 0.202512 0.223923 0.908186 0.056145 0.520621 -1.074024 1.216410 0.170434 -0.892731 0.633982 
427 -0.526871 0.162172 0.628067 1.320031 0.088957 0.685963 -0.370973 0.218120 0.866879 0.142364 0.646734 -1.274091 1.341329 0.040043 -0.920801 0.234015 
940 -0.096232 0.016019 0.104182 0.788451 0.324694 0.690161 -0.240758 0.005924 0.494244 0.125485 0.291533 -0.477748 0.611835 -0.129332 -0.235409 -0.040721 
686 -0.262527 -0.158373 0.137080 1.448948 0.544575 1.126471 -0.426853 0.067150 0.838492 0.167942 0.370699 -0.736561 0.900131 -0.235743 -0.491551 -0.126451 
530 -0.598897 0.588114 0.796934 1.488298 -0.186593 0.862803 -0.577909 0.136379 0.988126 0.107600 0.805235 -1.078206 1.515533 0.141356 -0.377582 0.230032 
52 -0.339875 0.251530 0.846473 1.358916 -0.132046 0.856452 -0.496089 0.008612 0.773874 -0.031447 0.686979 -1.292005 1.473175 0.052080 -0.979176 0.058227 
565 -0.459798 0.345673 0.610507 1.270433 -0.018666 0.705752 -0.426030 0.185343 0.844363 0.089088 0.669099 -1.200736 1.360345 0.067724 -0.692542 0.264167 
265 -0.153636 0.032766 0.565183 1.689916 0.232864 1.512602 -0.678066 -0.114018 0.927633 0.032749 0.522625 -0.877287 1.185821 -0.263512 -0.496652 -0.336611 
827 -0.311980 -0.257866 -0.033168 1.288203 0.661411 0.843761 -0.204541 0.133573 0.728770 0.253294 0.297162 -0.699162 0.657435 -0.154173 -0.489755 0.034799 
60 -0.252348 -0.282085 0.365327 1.809824 0.402987 1.560943 -0.691435 0.059448 0.921301 0.130686 0.453873 -0.889579 1.067106 -0.297807 -0.530499 -0.396089 
437 -0.666414 -0.078728 0.373760 1.404383 0.291217 0.687447 -0.258734 0.182536 0.952408 0.154669 0.605961 -1.217842 1.246131 0.035161 -0.981784 0.282752 
962 -0.339802 0.075840 0.177109 0.691816 0.129619 0.294908 -0.112339 0.136268 0.435685 0.073535 0.300709 -0.522186 0.687091 -0.005990 -0.367252 0.186239 
247 -0.852613 -0.717443 0.066519 2.069879 0.801518 0.883745 0.043748 0.240454 0.832585 0.078529 0.548964 -0.978012 1.184542 0.165803 -0.744990 0.378278 
461 -0.748356 -0.682018 -0.080983 1.840084 0.929399 0.880270 0.008429 0.212204 0.879870 0.125975 0.440652 -0.857519 0.968604 0.015584 -0.654745 0.341111 
335 -0.437923 0.503329 0.964027 1.423481 -0.137010 0.832052 -0.552066 0.109609 0.898993 0.096616 0.851980 -1.425444 1.658177 0.131623 -0.872490 0.242948 
592 -0.296422 0.043721 0.401691 1.506115 0.247322 1.287968 -0.614222 -0.014562 0.754949 0.000191 0.424277 -0.836376 1.063958 -0.145230 -0.451346 -0.175308 
469 -0.919662 -0.739695 -0.294666 1.723637 0.910510 0.555679 0.261461 0.189741 0.862160 0.149452 0.428997 -0.768641 0.930383 0.081148 -0.691882 0.538315 
471 -0.538079 0.509660 0.865312 1.707498 -0.206121 1.125118 -0.673724 0.036263 0.948748 0.012527 0.774711 -1.203072 1.730824 0.067489 -0.461747 0.141466 
729 -0.191306 0.173120 0.380555 1.267347 0.176449 1.070263 -0.554954 -0.033125 0.718621 0.064336 0.489006 -0.809559 1.024987 -0.062086 -0.384460 -0.098271 
476 -0.302467 -0.013654 0.527213 1.853779 0.291865 1.444593 -0.700898 0.064311 1.071236 0.126498 0.594583 -1.305047 1.419967 -0.213175 -0.805560 -0.149872 
866 -0.257510 -0.250795 -0.033058 1.034146 0.525088 0.679161 -0.153871 0.094252 0.542326 0.153477 0.250776 -0.512494 0.580408 -0.123280 -0.318104 -0.007197 
99 -0.785644 -0.912210 -0.012654 2.135219 0.966650 0.928891 0.022198 0.308477 0.831076 0.148304 0.497705 -1.040213 1.104880 0.090165 -0.935242 0.310712 
740 -0.243843 0.330784 0.418059 1.153971 0.049994 0.871402 -0.468190 0.024996 0.580359 0.091503 0.390371 -0.612633 0.891306 -0.032192 -0.217075 0.034795 
553 -0.768030 0.525414 0.484004 1.189067 -0.069772 0.372152 -0.259959 0.182102 0.948595 0.101285 0.682463 -0.721261 1.108418 0.179119 -0.339115 0.513924 
359 -0.449598 0.524113 0.978324 1.527843 -0.195917 0.863849 -0.569643 0.144934 1.029443 0.097585 0.849491 -1.471981 1.728452 0.054568 -0.810588 0.233966 
618 -0.816093 0.154197 0.373283 1.359581 0.146442 0.531000 -0.190990 0.151195 1.010761 0.061923 0.693274 -1.125355 1.259818 0.082610 -0.791451 0.403762 
1005 -0.108480 -0.053797 -0.022252 0.559911 0.277266 0.447291 -0.085693 0.048056 0.317987 0.076016 0.135817 -0.279077 0.469768 -0.074472 -0.095362 0.025765 
622 -0.222961 0.237600 0.421416 1.303389 0.113229 1.095890 -0.526128 -0.025784 0.714707 0.047362 0.370236 -0.703821 1.012701 -0.124435 -0.305703 -0.064496 
628 -0.243571 0.246506 0.468439 1.524310 0.165082 1.223286 -0.657414 0.035939 0.891081 0.103392 0.541992 -0.919890 1.167247 -0.091271 -0.415278 -0.100944 
502 -0.330263 -0.280304 0.230047 1.962857 0.662421 1.362924 -0.599836 0.193382 1.108525 0.162915 0.494321 -1.138062 1.152060 -0.281899 -0.769330 -0.175809 
631 -0.277564 -0.208252 0.182936 1.668820 0.565146 1.268702 -0.464097 0.019295 0.869101 0.145140 0.395031 -0.833427 1.000474 -0.178727 -0.522889 -0.189356 
762 -0.209480 0.037059 0.222092 1.162854 0.314700 0.957318 -0.363508 -0.050851 0.652400 0.156512 0.356537 -0.646106 0.868025 -0.093979 -0.418339 -0.086210 
635 -0.663910 -0.296956 0.047008 1.448875 0.622883 0.636375 -0.170045 0.264676 0.940450 0.323358 0.435299 -0.953557 0.870200 -0.043928 -0.773663 0.214496 
1020 -0.167618 0.026826 0.043399 0.531205 0.206596 0.291406 -0.028775 0.101535 0.372562 0.155303 0.156520 -0.438541 0.451732 -0.068874 -0.239466 0.136363 
127 -0.810013 -0.249264 0.481664 1.830155 0.175035 0.723108 -0.097591 0.089912 0.937044 0.045774 0.714569 -1.430534 1.449672 0.189690 -1.156615 0.348653 
4 -0.375782 0.179198 0.702772 -0.301272 1.211524 0.440484 0.126569 0.318408 0.976364 0.864933 1.004975 -0.591201 1.035836 -0.767528 1.461861 -0.563889 
195 -0.364297 0.182746 0.811342 -0.173010 1.405358 0.387994 0.225144 0.353061 0.996085 0.866272 1.003709 -0.712984 1.119301 -0.790478 1.429561 -0.429858 
199 -0.261215 0.142083 0.778546 -0.164459 1.357977 0.427955 0.231500 0.324476 0.967883 0.795851 0.960147 -0.673589 1.105800 -0.755979 1.303930 -0.362123 
904 -0.144778 0.071176 0.299254 -0.026914 0.753064 0.261259 0.124686 0.125090 0.520230 0.457190 0.555873 -0.345698 0.630609 -0.435798 0.732030 -0.121803 
971 -0.028105 -0.034041 0.225738 -0.036254 0.474314 0.202837 0.092126 0.046736 0.370974 0.343768 0.402989 -0.308407 0.475262 -0.247808 0.532526 -0.099144 
716 -0.110659 -0.081242 0.289960 -0.218291 0.820900 0.410681 0.088581 0.049707 0.726316 0.558951 0.728683 -0.446198 0.901781 -0.571402 0.989127 -0.193885 
718 0.247686 -0.587210 -0.394774 -0.460651 0.053104 0.650010 0.125243 -0.499989 0.853937 0.423496 0.687095 -0.459313 1.466960 -0.588373 1.043891 0.165054 
463 -0.300032 0.049869 0.699798 -0.148338 1.370350 0.492266 0.213230 0.276300 0.970716 0.804894 0.946991 -0.635599 1.091820 -0.792569 1.314916 -0.324537 
146 -0.405091 0.194069 0.862381 -0.221309 1.485257 0.385650 0.209367 0.311950 0.915330 0.877865 1.006347 -0.642722 1.052243 -0.782075 1.392918 -0.500569 
583 -0.226999 -0.079128 0.516596 -0.265818 1.161235 0.506495 0.164616 0.150186 0.980990 0.769067 0.904442 -0.597541 1.110699 -0.741556 1.328107 -0.324437 
660 -0.199730 -0.097592 0.459647 -0.311387 1.022955 0.447619 0.145946 0.090732 0.946637 0.746467 0.901435 -0.564938 1.063875 -0.700840 1.274182 -0.276007 
24 -0.361653 0.183249 0.769675 -0.301884 1.314227 0.435097 0.136886 0.307678 1.034257 0.872424 1.022698 -0.599980 1.061518 -0.780100 1.436215 -0.506727 
857 0.265338 -0.522998 -0.331823 -0.390980 0.103085 0.567291 0.149579 -0.414789 0.715261 0.403585 0.640853 -0.416911 1.321003 -0.548223 0.898986 0.109832 
346 -0.258398 0.098640 0.731764 -0.146824 1.355696 0.436206 0.252065 0.305992 0.943107 0.823656 0.957789 -0.648010 1.094064 -0.805053 1.348853 -0.350136 
220 -0.316183 0.122710 0.729124 -0.128515 1.345170 0.410748 0.271824 0.323197 0.975464 0.830812 0.944826 -0.644660 1.122099 -0.785336 1.356196 -0.347521 
541 -0.301461 0.036210 0.672433 -0.138724 1.328384 0.432314 0.264606 0.273891 0.962817 0.753171 0.898372 -0.591563 1.078972 -0.705348 1.347203 -0.288304 
862 -0.138968 0.035337 0.386099 -0.035231 0.911766 0.354403 0.211675 0.168170 0.629346 0.524737 0.622545 -0.407280 0.813697 -0.491765 0.854056 -0.115223 
607 -0.203785 -0.068874 0.463051 -0.319973 1.089994 0.462289 0.174216 0.117031 0.959855 0.712540 0.849016 -0.565723 1.073739 -0.706464 1.277366 -0.267712 
161 0.765300 0.093967 0.190149 -0.883779 0.154159 0.096857 0.934854 -0.213012 0.956259 0.561755 0.889594 -0.737800 1.749233 -0.995769 1.267946 -0.230784 
932 -0.121489 -0.006407 0.259354 -0.059476 0.612134 0.224195 0.161683 0.073608 0.409700 0.357901 0.450041 -0.273862 0.538213 -0.366078 0.598684 -0.106773 
166 -0.393350 0.175811 0.842283 -0.184239 1.364446 0.392168 0.229867 0.298647 0.991787 0.851231 0.940158 -0.651842 1.103967 -0.772997 1.353706 -0.422414 
170 -0.378342 0.135673 0.823230 -0.180348 1.437697 0.407923 0.250874 0.302265 0.996510 0.867471 1.006389 -0.664199 1.106242 -0.799847 1.451209 -0.436116 
939 -0.065959 0.030871 0.311893 -0.042586 0.654367 0.234219 0.135380 0.084343 0.439252 0.370515 0.430492 -0.338408 0.563387 -0.352817 0.605218 -0.124859 
978 -0.015409 0.010070 0.125727 0.002478 0.374256 0.130454 0.117080 0.069306 0.255768 0.200364 0.269085 -0.212808 0.369889 -0.237048 0.371955 -0.036688 
431 -0.321540 0.107006 0.699139 -0.139675 1.312249 0.444984 0.288019 0.313618 0.984282 0.836134 0.903582 -0.638112 1.100637 -0.770509 1.269863 -0.338648 
752 -0.183839 -0.016450 0.494486 -0.089927 1.028062 0.299667 0.156853 0.219677 0.700094 0.609582 0.708058 -0.506845 0.852998 -0.540227 0.965263 -0.227429 
1009 0.004111 -0.019106 0.054215 0.028812 0.214010 0.093852 0.029597 0.020446 0.099819 0.119316 0.136001 -0.107405 0.221418 -0.083859 0.216088 0.026846 
626 -0.258931 -0.005762 0.564072 -0.145205 1.173505 0.346316 0.227976 0.223782 0.826273 0.666474 0.809927 -0.571645 0.985800 -0.670641 1.143984 -0.286078 
821 -0.166539 0.002445 0.387277 -0.113033 0.911412 0.325871 0.176083 0.139796 0.665312 0.533806 0.699087 -0.491619 0.787523 -0.468279 0.904580 -0.164883 
1014 -0.031149 0.013458 0.005033 -0.027399 0.014953 0.014001 0.017866 0.024986 -0.030037 0.028877 -0.023817 -0.018900 -0.020101 -0.010324 0.002318 0.016407 
218 -0.363768 0.119499 0.773234 -0.157831 1.405805 0.431210 0.213963 0.332244 0.971368 0.828235 0.957342 -0.647761 1.137268 -0.807321 1.339658 -0.429943 
455 -0.291194 -0.010140 0.627414 -0.226113 1.258853 0.523265 0.168635 0.205894 1.038517 0.833791 0.947423 -0.683393 1.166592 -0.813692 1.440000 -0.337925 
605 -0.260165 0.077181 0.635886 -0.154984 1.283770 0.407809 0.223817 0.293613 0.921537 0.761568 0.888448 -0.624304 0.996521 -0.694860 1.268764 -0.304400 
693 -0.229928 0.012233 0.510465 -0.085845 0.996588 0.363673 0.171278 0.185725 0.713378 0.612315 0.773497 -0.530253 0.869563 -0.592869 1.008436 -0.239930 
5 0.014620 0.647540 -1.008797 1.079292 -0.817015 -0.703348 0.594446 -0.222819 -0.628594 0.531974 0.234820 -1.005500 1.482268 0.057868 0.709740 -0.025629 
897 0.003326 -0.022829 0.029247 -0.025171 0.028995 0.016349 -0.013071 0.026125 -0.009086 0.022562 0.002488 0.004508 -0.003688 0.007709 0.024385 0.004674 
451 0.130766 0.441132 -0.865993 0.954063 -0.468224 -0.531074 0.682387 -0.148147 -0.544350 0.319609 0.216364 -0.963104 1.313003 -0.180377 0.763020 0.070531 
196 0.122804 0.450136 -0.973024 1.286436 -0.647471 -0.667256 0.805113 -0.279576 -0.610222 0.509669 0.129232 -1.136188 1.507508 -0.108194 0.978440 0.039638 
582 0.103310 0.303619 -0.683189 0.903900 -0.434507 -0.478983 0.665160 -0.138349 -0.453918 0.314316 0.050743 -0.829974 1.133385 -0.188294 0.816899 0.102934 
577 0.088413 0.459828 -0.869341 0.988856 -0.461383 -0.495454 0.755652 -0.157438 -0.551495 0.350249 0.114912 -1.021392 1.327350 -0.095711 0.728441 0.060302 
328 0.330925 0.235184 -0.856859 1.230800 -0.526987 -0.436149 0.770705 -0.224992 -0.738016 0.511802 -0.097294 -1.181667 1.515002 0.052046 1.100476 0.019391 
457 0.067375 0.507999 -0.827293 0.881311 -0.495411 -0.505520 0.641046 -0.169574 -0.484580 0.308851 0.188121 -0.915698 1.249363 -0.090452 0.673966 0.052376 
663 0.282278 0.032120 -0.472007 1.105081 -0.241694 -0.372928 0.772211 -0.219682 -0.477397 0.482107 -0.198890 -0.876265 1.182008 -0.239767 1.058094 0.125365 
780 0.097943 0.222717 -0.459690 0.560172 -0.327957 -0.316378 0.516621 -0.130118 -0.355619 0.204000 0.023338 -0.637920 0.813215 -0.104322 0.521738 0.071492 
333 0.123892 0.538060 -0.993765 1.275917 -0.737395 -0.665325 0.946014 -0.232186 -0.671991 0.425711 0.200207 -1.175233 1.649666 -0.261178 1.020111 0.144809 
270 0.035933 0.683433 -1.092156 1.077114 -0.755554 -0.608615 0.674328 -0.137339 -0.611085 0.462312 0.297355 -1.164630 1.545639 -0.023050 0.721154 0.046645 
711 0.104258 0.283693 -0.561726 0.701954 -0.366936 -0.336571 0.546343 -0.159982 -0.414512 0.275908 0.078156 -0.740037 0.965349 -0.071594 0.582838 0.038846 
150 0.035000 0.899994 -1.290783 1.386737 -0.910771 -0.832400 0.883922 -0.150625 -0.739101 0.539399 0.393450 -1.324569 1.920719 -0.003822 0.860931 0.078744 
87 0.235392 0.532714 -0.889874 1.613541 -0.752401 -0.730201 0.745098 -0.238297 -0.693181 0.710934 -0.072988 -1.159276 1.651417 0.072265 1.088409 0.057540 
344 0.203460 0.356734 -0.818778 1.208261 -0.541846 -0.493417 0.763096 -0.254777 -0.547059 0.401925 0.032164 -1.024239 1.367581 -0.131485 0.949425 0.090662 
410 0.184017 0.330960 -0.710394 1.184312 -0.502935 -0.563935 0.841808 -0.210084 -0.549705 0.431308 0.003110 -0.974516 1.342546 -0.269523 0.997515 0.085827 
284 0.062119 0.661611 -1.117210 1.066363 -0.757981 -0.633019 0.720329 -0.166208 -0.646000 0.454457 0.286166 -1.171208 1.582104 0.007335 0.715417 0.066420 
926 0.066170 0.147780 -0.316064 0.609203 -0.199521 -0.251030 0.416953 -0.082700 -0.231557 0.240252 -0.012484 -0.535804 0.648141 -0.170546 0.499228 0.125684 
98 -0.019663 0.833110 -1.016292 1.245223 -0.747505 -0.687783 0.740681 -0.163957 -0.691544 0.475065 0.309327 -1.050979 1.649958 -0.018449 0.780532 0.053946 
326 0.204402 0.419234 -0.969588 1.297411 -0.709918 -0.590522 0.792100 -0.270378 -0.612744 0.519070 0.076196 -1.147676 1.458628 -0.180396 0.978301 0.074928 
294 0.211538 0.531994 -1.120076 1.550529 -0.802274 -0.720860 1.021146 -0.225633 -0.814151 0.629515 0.062952 -1.410179 1.917106 -0.112677 1.149225 0.110132 
103 0.081805 0.714942 -0.967120 1.175741 -0.709930 -0.687525 0.725270 -0.194213 -0.680731 0.430573 0.245524 -1.073729 1.535188 -0.018048 0.850371 0.127525 
938 0.103226 0.071499 -0.202523 0.567650 -0.085470 -0.156860 0.441553 -0.067803 -0.301265 0.229075 -0.048288 -0.472992 0.679801 -0.152357 0.579318 0.106290 
171 -0.005357 0.867046 -1.289481 1.295040 -0.907659 -0.820619 0.845933 -0.154792 -0.682655 0.541723 0.399246 -1.351178 1.958580 0.007190 0.786708 0.121805 
814 0.057668 0.205961 -0.412376 0.530338 -0.272729 -0.293457 0.513811 -0.109821 -0.348983 0.269158 0.050190 -0.530325 0.824285 -0.128677 0.521172 0.059556 
632 0.155860 0.342078 -0.709444 1.160907 -0.450784 -0.527501 0.841643 -0.183548 -0.504218 0.372975 0.051094 -0.989452 1.388900 -0.265070 0.904729 0.114220 
875 0.239420 0.022924 -0.253103 0.616894 -0.160215 -0.142244 0.470501 -0.057705 -0.362647 0.244729 -0.185039 -0.585923 0.839645 -0.021199 0.651845 0.051726 
188 0.189425 0.432676 -0.834026 1.294178 -0.654176 -0.684990 0.960569 -0.242368 -0.657767 0.481212 0.102402 -1.132615 1.519152 -0.255020 1.066542 0.196299 
102 -0.010057 0.854665 -1.275124 1.214043 -0.850387 -0.783311 0.746346 -0.101794 -0.665643 0.492506 0.332460 -1.291119 1.832310 0.091681 0.715706 -0.002750 
770 -0.735699 0.350296 0.233825 0.963688 0.087361 0.234633 -0.066467 0.118100 0.875825 0.116996 0.570339 -0.583736 0.823564 0.132385 -0.239723 0.496335 
645 -0.819980 0.280882 0.141159 1.078546 0.014385 0.346982 -0.020711 0.057316 0.872131 0.106792 0.586739 -0.642052 0.917193 0.084801 -0.418745 0.472881 
28 -0.195109 0.731250 1.051418 1.236826 -0.508732 0.940313 -0.671965 -0.066051 0.586740 -0.066299 0.734728 -0.902618 1.395876 0.057732 -0.177848 0.020475 
169 -0.206760 0.774939 1.009048 1.271799 -0.427668 0.927898 -0.655416 0.020283 0.707459 -0.056654 0.710158 -0.974215 1.451383 0.090723 -0.142327 0.186114 
49 -0.261683 0.903718 1.100547 1.201187 -0.445666 0.707369 -0.669476 0.141005 0.615847 -0.019365 0.768801 -0.873761 1.404395 0.130915 -0.109644 0.276221 
953 -0.160250 0.235293 0.137764 0.367959 0.010811 0.146176 -0.048706 0.106288 0.278851 0.071123 0.215573 -0.338540 0.437532 -0.012659 -0.081519 0.174970 
315 -0.319733 0.817109 0.962930 1.214507 -0.318280 0.726150 -0.612645 0.126061 0.698405 0.066410 0.812083 -1.085396 1.426730 0.060041 -0.426518 0.351325 
325 -0.256187 0.639034 0.817057 1.351794 -0.243038 0.977001 -0.660370 0.005284 0.791826 -0.032652 0.644296 -0.902302 1.410651 0.008506 -0.256918 0.149366 
714 -0.476309 0.191575 0.364059 0.951932 0.039253 0.362112 -0.243947 0.100753 0.729578 0.058188 0.533056 -0.853769 0.933361 0.047909 -0.546262 0.282096 
338 -0.313431 0.641453 0.900455 1.370799 -0.329229 0.886622 -0.623165 0.021699 0.746950 0.023784 0.691984 -0.961154 1.462791 0.085867 -0.192478 0.119007 
480 -0.684788 0.113757 0.451175 1.553412 0.162462 0.935026 -0.343134 0.099591 0.821561 0.070584 0.560441 -0.865140 1.117827 0.083724 -0.499741 0.082466 
616 -0.479038 0.755703 0.628983 1.179283 -0.189698 0.471969 -0.512741 0.288309 0.773641 0.119241 0.718407 -0.755639 1.187737 0.151468 -0.087987 0.508866 
754 -0.464629 0.453830 0.452696 0.972319 -0.074080 0.466935 -0.346121 0.162467 0.713719 0.091861 0.493416 -0.622152 0.898302 0.061689 -0.196029 0.343627 
7 0.938020 0.500919 0.337838 -0.626188 0.181308 -0.393516 1.331154 -0.085566 0.536107 0.349268 0.979914 -0.749979 1.532410 -0.639206 0.868982 -0.191987 
1056 -0.002103 -0.001348 0.008800 0.028393 -0.012067 0.024164 0.023876 -0.013708 0.030046 -0.008285 -0.010761 -0.011171 0.002608 -0.006534 -0.030285 0.000297 
388 0.940178 0.227007 0.113970 -0.557104 0.148802 -0.151558 1.177602 -0.180048 0.533069 0.351324 0.893709 -0.736525 1.640983 -0.603128 0.901574 -0.152708 
886 0.421973 0.211566 -0.117665 -0.241047 0.407353 -0.070268 0.505553 0.063501 0.298450 -0.065534 0.766055 -0.159543 0.930315 -0.215277 0.868603 -0.222535 
329 0.941543 0.204190 -0.298265 -0.527130 0.215691 -0.156854 0.880973 -0.162647 0.412294 -0.058432 1.139873 -0.428922 1.520207 -0.380491 1.069162 -0.167770 
57 1.073006 0.466093 0.325133 -0.679352 0.098816 -0.269331 1.670141 -0.239479 0.672117 0.377619 1.069705 -0.894545 1.783287 -0.700302 0.832317 -0.082114 
1036 0.115644 -0.017965 -0.049259 -0.039847 0.049044 0.027135 0.082725 -0.053318 0.087671 0.061609 0.083300 -0.087874 0.239781 -0.063337 0.141226 0.021865 
494 0.853288 0.284397 -0.248933 -0.396074 0.281216 -0.124406 0.980807 -0.044286 0.333604 -0.070761 1.109649 -0.408605 1.457768 -0.257307 1.080215 -0.202924 
345 1.165587 -0.071281 -0.086868 -0.742055 -0.020464 0.069546 1.367009 -0.507597 0.751028 0.473716 1.030355 -0.982809 2.171909 -0.781359 1.012526 -0.080336 
1049 0.151377 0.041942 -0.058708 -0.016918 0.029846 0.067806 0.223695 -0.015001 0.109000 0.018220 0.201039 -0.185770 0.417688 -0.089864 0.174313 0.012311 
282 0.971237 0.202210 0.152541 -0.573514 0.121288 -0.125996 1.383428 -0.262080 0.508725 0.293773 0.961998 -0.908486 1.784252 -0.619841 0.841291 -0.209551 
239 1.013024 0.114175 0.135388 -0.681686 0.067316 -0.057230 1.543923 -0.304068 0.706449 0.396671 0.901925 -0.917039 1.933843 -0.717596 0.862579 -0.230545 
925 0.559203 0.049358 -0.040177 -0.340374 0.043377 -0.042924 0.649509 -0.227673 0.306546 0.199171 0.564776 -0.516675 1.145889 -0.359882 0.596517 -0.060587 
352 1.086841 0.458897 -0.266626 -0.518747 0.450286 -0.303882 1.285302 -0.065437 0.352987 -0.123239 1.430076 -0.612289 1.767837 -0.303535 1.272764 -0.122832 
865 0.669963 0.150207 0.024126 -0.392655 0.161443 -0.031769 0.867539 -0.143256 0.372304 0.183937 0.767587 -0.557737 1.370717 -0.424937 0.723055 -0.084307 
228 0.854496 0.028706 -0.005890 -0.832069 0.216275 0.025471 0.834219 -0.310776 0.779560 0.381956 1.105837 -0.610925 1.747827 -0.779355 1.264245 -0.085831 
549 0.872696 0.073020 0.021026 -0.529859 0.097149 -0.003193 1.123416 -0.264652 0.511844 0.284360 0.856050 -0.808522 1.664176 -0.563219 0.856796 -0.149873 
422 0.931027 0.151449 -0.029359 -0.596197 0.125209 -0.049549 1.208917 -0.189377 0.579356 0.346429 0.918404 -0.752879 1.801257 -0.638031 0.980999 -0.168611 
826 0.625974 0.171913 0.003757 -0.362546 0.206688 -0.067198 0.804336 -0.070687 0.258298 0.175034 0.656047 -0.496571 1.156178 -0.406992 0.633684 -0.068272 
301 1.055917 0.461159 -0.271055 -0.590023 0.425063 -0.300757 1.275095 -0.041698 0.360337 -0.131627 1.349219 -0.621527 1.751676 -0.321687 1.221524 -0.113124 
174 1.014864 0.418903 0.136121 -0.634166 0.236451 -0.394008 1.694753 -0.118918 0.493387 0.075807 1.173485 -1.015540 1.755373 -0.479393 0.940003 -0.230227 
1007 0.208482 0.080077 -0.001773 -0.132088 0.054056 0.038120 0.371451 -0.084297 0.243323 0.095132 0.296021 -0.302387 0.664189 -0.218972 0.311702 0.031236 
240 0.936107 0.493091 -0.381995 -0.355618 0.423754 -0.294161 1.044900 0.103712 0.251865 -0.474546 1.380292 -0.220884 1.580095 -0.048770 1.243298 -0.218489 
241 0.939887 0.155738 0.143507 -0.641745 0.098428 -0.049761 1.339509 -0.222588 0.665997 0.428576 0.780158 -0.877372 1.746980 -0.680577 0.805341 -0.251687 
243 1.043609 0.287447 0.055920 -0.681389 0.117875 -0.169643 1.306149 -0.218808 0.606386 0.404042 0.904330 -0.763198 1.874870 -0.720746 0.948989 -0.123505 
629 0.713549 0.014043 -0.006279 -0.489604 0.077750 0.093054 0.936727 -0.212163 0.480863 0.295961 0.698695 -0.734983 1.479679 -0.492185 0.752819 -0.195696 
758 0.807834 -0.178079 -0.269791 -0.591325 -0.026215 0.230312 0.787432 -0.349585 0.610137 0.320687 0.767252 -0.633191 1.696932 -0.635226 0.920299 0.050113 
823 0.498669 0.054672 -0.026276 -0.365945 0.051577 -0.003916 0.742622 -0.135290 0.291865 0.232972 0.545710 -0.530439 1.079145 -0.331614 0.566649 -0.060694 
569 0.880140 -0.099795 -0.351855 -0.645730 0.014330 0.218874 0.781711 -0.371650 0.720554 0.350830 0.883315 -0.679176 1.829053 -0.673057 1.068792 -0.050656 
698 0.890977 0.139823 -0.043741 -0.591834 0.114293 -0.033692 1.149947 -0.208938 0.504186 0.288037 0.882571 -0.783533 1.682807 -0.591893 0.906604 -0.170313 
688 0.961088 -0.112461 -0.207595 -0.656570 -0.012796 0.179165 1.033488 -0.391042 0.667445 0.421485 0.860108 -0.816210 1.941082 -0.694867 0.922662 -0.050161 
316 1.006771 0.312386 0.088420 -0.574958 0.211383 -0.213394 1.288509 -0.144271 0.485999 0.319859 0.982672 -0.766667 1.738448 -0.631456 0.929017 -0.182160 
957 0.240194 0.044008 -0.079124 -0.082360 0.076093 -0.013318 0.314600 -0.057747 0.170144 0.096325 0.278921 -0.208446 0.557707 -0.144790 0.286058 0.053926 
703 0.706748 0.299901 -0.104166 -0.380971 0.318808 -0.156049 0.976982 -0.014580 0.269294 0.006069 0.880976 -0.578109 1.320197 -0.308088 0.873624 -0.188148 
8 1.006444 0.455541 -0.636718 0.795688 0.128711 0.366063 -0.084533 0.381449 -0.296067 0.233854 1.328914 0.023896 1.370973 -0.816456 -1.045419 -0.518844 
193 1.541464 0.653463 -0.850136 1.065838 0.375396 0.356357 -0.074887 0.523588 -0.069625 0.299951 1.437429 -0.277230 1.841410 -1.039060 -1.367068 -0.500756 
579 1.414085 0.694104 -0.702906 0.847835 0.446738 0.273168 -0.062652 0.540650 0.157819 0.286950 1.129342 -0.446213 1.581918 -0.905075 -1.102153 -0.342130 
965 0.562412 0.308858 -0.247270 0.273859 0.251523 0.096846 0.007296 0.164050 0.140247 0.024708 0.342306 -0.166127 0.601203 -0.339490 -0.336923 -0.096987 
391 1.526121 0.722153 -0.778184 0.940922 0.518007 0.279892 -0.066517 0.571982 0.084637 0.256392 1.279263 -0.366695 1.800542 -0.933794 -1.238125 -0.466952 
584 1.404526 0.850999 -0.310421 0.614501 0.578594 0.085733 -0.001773 0.283885 0.266787 -0.010527 0.766238 -0.351012 1.315057 -0.585531 -0.816535 -0.213987 
204 1.114013 0.513366 -0.647013 0.924775 0.346684 0.366915 -0.048653 0.380321 -0.232027 0.239324 1.368554 -0.059473 1.614535 -0.862125 -1.093062 -0.513224 
906 0.699017 0.314912 -0.427065 0.419350 0.255177 0.181264 0.003266 0.332211 0.049664 0.194379 0.649386 -0.207084 0.881569 -0.568380 -0.616218 -0.209966 
12 0.958992 0.459117 -0.566845 0.883739 0.197061 0.365390 -0.095001 0.377329 -0.247534 0.213513 1.293166 -0.027583 1.425810 -0.802606 -1.067106 -0.495359 
77 1.123350 0.425624 -0.763116 0.985346 0.201872 0.385471 -0.103240 0.448068 -0.280558 0.341909 1.437858 -0.101167 1.711743 -0.959934 -1.262965 -0.632623 
912 0.704164 0.346438 -0.265421 0.338861 0.254326 0.112564 -0.080597 0.230408 0.026873 0.059309 0.510874 -0.144535 0.757031 -0.413939 -0.489730 -0.147194 
403 1.484329 0.830598 -0.471986 0.715127 0.557792 0.120981 -0.048037 0.359990 0.243523 0.158216 0.944701 -0.404571 1.514505 -0.703824 -0.997044 -0.301559 
216 1.056749 0.396967 -0.803939 0.935603 0.244986 0.428634 -0.078207 0.506306 -0.227398 0.390535 1.346821 -0.162618 1.640339 -1.007608 -1.184369 -0.473194 
921 0.592620 0.275251 -0.298359 0.277810 0.214717 0.072250 -0.054047 0.247198 0.143328 0.145043 0.325499 -0.230907 0.556542 -0.308971 -0.454506 -0.039754 
285 1.196861 0.559076 -0.583540 0.843450 0.433443 0.331372 -0.095810 0.387311 -0.084273 0.214429 1.206640 -0.229563 1.484571 -0.893507 -1.017086 -0.472979 
671 0.884885 0.447656 -0.340606 0.510992 0.285520 0.155968 -0.031772 0.318544 0.087077 0.112819 0.689450 -0.202119 1.005474 -0.502159 -0.646309 -0.193045 
609 1.152273 0.562149 -0.477182 0.652444 0.363783 0.233214 -0.061105 0.421462 0.118326 0.197854 0.934746 -0.290316 1.329087 -0.709820 -0.873149 -0.328395 
1059 -0.003234 -0.026983 0.005298 -0.002147 -0.000487 -0.026358 -0.020042 0.013076 -0.027311 -0.022840 -0.025234 -0.022642 0.019672 0.002637 0.008216 -0.008220 
37 1.033509 0.510703 -0.655077 0.778427 0.306775 0.370202 -0.119308 0.436620 -0.134129 0.134162 1.233259 -0.099038 1.422390 -0.929625 -1.070390 -0.445193 
551 1.264952 0.732845 -0.416241 0.654575 0.490737 0.129723 0.027980 0.294912 0.170720 0.022788 0.890348 -0.303255 1.327017 -0.709414 -0.912146 -0.250473 
360 1.106209 0.430493 -0.804335 0.812044 0.318185 0.366577 -0.051064 0.548669 -0.124206 0.380977 1.248245 -0.204891 1.598633 -0.974408 -1.115969 -0.388535 
425 0.974011 0.473636 -0.511437 0.651472 0.346314 0.236807 -0.041434 0.346908 -0.048553 0.159291 0.957584 -0.206202 1.238295 -0.674682 -0.841212 -0.345203 
234 1.280205 0.620739 -0.508623 0.889377 0.363332 0.254352 -0.105814 0.390552 -0.055702 0.212365 1.173806 -0.200714 1.610190 -0.798991 -1.069685 -0.427496 
289 1.403075 0.648213 -0.696437 0.920456 0.428096 0.340927 -0.072333 0.446654 0.014258 0.284820 1.307165 -0.273399 1.749225 -0.998407 -1.222932 -0.501935 
229 1.071639 0.499122 -0.645697 0.807491 0.360154 0.336651 -0.130594 0.428067 -0.084810 0.199987 1.291699 -0.199600 1.524490 -0.971802 -1.066410 -0.476172 
817 0.946563 0.486952 -0.424327 0.570379 0.346613 0.173779 -0.029202 0.354959 0.151490 0.154372 0.713737 -0.272760 1.058321 -0.497147 -0.712944 -0.200050 
882 1.067493 0.538022 -0.413769 0.612561 0.470419 0.140968 0.007743 0.362892 0.167061 0.087196 0.789467 -0.238272 1.151081 -0.722029 -0.752796 -0.178470 
244 1.434521 0.823669 -0.410674 0.771518 0.555969 0.121981 -0.061097 0.298328 0.142285 0.085383 0.913170 -0.259927 1.413704 -0.632521 -0.895097 -0.323674 
951 0.564405 0.305480 -0.131334 0.283264 0.231153 0.038678 -0.011519 0.154714 0.071274 0.012880 0.279171 -0.177398 0.514442 -0.235273 -0.366910 -0.053971 
376 1.117030 0.418059 -0.693649 0.715180 0.248978 0.264340 -0.084367 0.510277 0.025275 0.386117 1.073750 -0.295669 1.404361 -0.835669 -1.043007 -0.361406 
251 1.472273 0.898215 -0.347214 0.746740 0.561269 0.125028 -0.056194 0.333034 0.190828 0.035221 0.977984 -0.359763 1.519705 -0.647235 -0.970641 -0.316786 
190 1.051388 0.393019 -0.837079 0.924468 0.264900 0.432841 -0.103215 0.524753 -0.251444 0.357252 1.433898 -0.150300 1.673035 -1.003868 -1.185341 -0.491497 
9 -0.849997 -0.526715 -0.591962 -0.055721 0.090662 0.896551 0.425506 0.644349 -0.353106 0.226479 -0.143423 0.430926 1.862161 -0.522657 1.032935 0.479229 
683 -0.577523 -0.463173 -0.643378 0.164277 -0.026969 0.763318 0.489264 0.384155 -0.162046 0.164307 -0.112598 0.261068 1.597265 -0.425463 0.887055 0.461386 
580 -0.212671 -1.156019 -1.254158 -0.106489 -0.247890 1.270257 0.264666 -0.297426 0.447118 0.137431 0.263936 -0.154903 2.080576 -0.562271 1.216602 0.526523 
903 -0.175413 -0.071294 -0.067683 0.130656 -0.042275 0.319795 0.289547 0.124807 0.075163 0.043539 -0.105294 0.058451 0.694768 -0.277440 0.208910 0.169029 
776 -0.381078 -0.600871 -0.713191 0.134047 -0.099325 0.729430 0.377439 0.232536 -0.015080 0.090567 0.000678 0.048635 1.302431 -0.369945 0.685577 0.376953 
843 -0.160625 -0.070151 -0.126970 0.183430 0.030090 0.238281 0.282984 0.207336 -0.009012 0.104077 -0.021324 0.040551 0.686436 -0.261188 0.296081 0.220670 
276 -0.739224 -0.217246 -0.399651 0.449860 0.058669 0.822347 0.691752 0.754050 -0.385298 0.189644 -0.345823 0.479800 1.832766 -0.659664 0.857017 0.582936 
791 -0.041255 -0.712138 -0.751972 -0.144632 -0.104554 0.763533 0.213612 -0.185707 0.290685 0.115321 0.236250 -0.072067 1.332363 -0.350776 0.772994 0.252637 
858 0.132804 -0.606089 -0.641352 -0.041005 -0.095832 0.621618 0.181598 -0.280247 0.405152 0.089210 0.263979 -0.249756 1.163308 -0.246943 0.548196 0.189984 
347 -0.354980 -1.099149 -1.255764 -0.119524 -0.321907 1.319242 0.266490 -0.123516 0.271870 0.035602 0.112591 -0.024535 2.149496 -0.630917 1.164206 0.566462 
156 -0.759416 -0.631143 -0.786084 0.036411 -0.108425 0.955911 0.556184 0.468429 -0.306671 0.093395 -0.209863 0.332130 2.029196 -0.485385 1.133336 0.585641 
26 -0.806444 -0.260837 -0.495595 0.401688 0.120105 0.823460 0.763261 0.884093 -0.516726 0.171368 -0.385770 0.597540 1.960303 -0.615704 0.818561 0.657390 
542 -0.703123 -0.549441 -0.797713 0.151600 -0.079670 0.904116 0.487635 0.369980 -0.237555 0.120236 -0.072343 0.274656 1.823575 -0.466285 1.034637 0.567009 
571 -0.587712 -0.708093 -0.848918 0.013764 -0.179223 0.996022 0.428292 0.229646 -0.074233 0.055417 -0.061567 0.084328 1.859101 -0.339281 1.056045 0.548618 
100 -0.789174 -0.523886 -0.736584 0.028082 -0.057866 0.963006 0.564782 0.554318 -0.368702 0.116537 -0.231507 0.415542 2.010380 -0.544519 1.045206 0.581632 
809 -0.340433 -0.135299 -0.190798 0.247499 0.066545 0.370152 0.397970 0.362430 -0.144326 0.149793 -0.144363 0.199284 0.924044 -0.436397 0.423748 0.324926 
747 -0.485279 -0.328397 -0.411181 0.235014 -0.049764 0.642624 0.470404 0.396559 -0.154168 0.145751 -0.123247 0.251754 1.368089 -0.408200 0.696254 0.430631 
430 -0.708920 -0.439719 -0.605683 0.236137 0.000049 0.843083 0.595424 0.561650 -0.321968 0.176411 -0.214977 0.356712 1.763123 -0.560918 0.926569 0.592662 
176 -0.796037 -0.215712 -0.502719 0.433228 0.102425 0.896250 0.806303 0.826266 -0.466597 0.179001 -0.354134 0.498219 2.035398 -0.700819 0.872497 0.664814 
630 -0.572349 -0.625318 -0.845529 0.076107 -0.111597 0.872082 0.427847 0.265176 -0.091401 0.065625 -0.011200 0.161083 1.661940 -0.390440 0.967957 0.443148 
760 -0.358684 -0.491101 -0.601644 -0.006238 -0.113543 0.747272 0.402975 0.189111 0.022039 0.076534 0.037488 0.024151 1.414693 -0.356992 0.776029 0.372657 
570 -0.717104 -0.610407 -0.854676 0.172987 -0.065300 0.945420 0.458335 0.368799 -0.128733 0.183809 -0.089255 0.296933 1.799809 -0.549324 1.053492 0.536999 
891 -0.029963 -0.184014 -0.218150 0.069753 0.000348 0.296505 0.173738 0.012470 0.064734 -0.005416 0.050554 -0.095582 0.637132 -0.143215 0.262321 0.103555 
700 -0.422189 -0.605138 -0.678414 -0.049206 -0.165661 0.860921 0.447853 0.150617 0.007354 0.099371 -0.026749 0.093820 1.658497 -0.344500 0.939067 0.448780 
766 0.002542 -0.706428 -0.815023 -0.269314 -0.275314 0.819246 0.379310 -0.208966 0.337097 0.018952 0.202071 -0.254864 1.672793 -0.350228 0.889282 0.288500 
11 0.809769 -0.311480 0.010626 1.559545 -0.060676 -0.336908 0.681848 -0.067621 -0.444097 0.661274 -0.687988 -0.801772 1.149228 -0.016874 1.515309 0.306327 
960 0.080893 0.092035 -0.178722 0.409966 -0.045020 -0.076644 0.300545 -0.040619 -0.156769 0.145562 0.001560 -0.301656 0.490628 -0.042459 0.362815 0.093835 
343 0.399187 -0.051277 -0.281626 1.305254 -0.153980 -0.508808 0.946778 -0.268625 -0.644484 0.564680 -0.478637 -0.917102 1.362072 -0.215881 1.427384 0.374902 
619 0.379500 -0.161100 -0.175754 1.147630 -0.074515 -0.333216 0.808784 -0.192171 -0.498126 0.545628 -0.419106 -0.735415 1.129212 -0.288399 1.163152 0.234208 
709 0.323194 -0.030461 -0.340510 1.138480 -0.044512 -0.268080 0.931315 -0.168909 -0.594750 0.524348 -0.445879 -0.878916 1.351462 -0.118752 1.182339 0.225762 
454 0.401714 0.052489 -0.500353 1.556548 -0.210050 -0.534357 1.259762 -0.297779 -0.743282 0.672451 -0.510271 -1.137583 1.756301 -0.313408 1.595817 0.371625 
929 0.173347 0.107638 -0.439111 0.760715 -0.244610 -0.330153 0.717039 -0.178756 -0.410467 0.340740 -0.107550 -0.693347 0.961101 -0.246863 0.783730 0.181687 
713 0.412881 -0.081548 -0.359416 1.118437 -0.100610 -0.266306 0.801937 -0.200152 -0.558372 0.456890 -0.334890 -0.906292 1.258592 -0.144975 1.081556 0.188170 
587 0.414162 -0.239395 -0.100149 1.009696 0.016242 -0.169498 0.733131 -0.193631 -0.539986 0.520254 -0.558407 -0.734628 1.262397 -0.066929 1.208960 0.366518 
337 1.105864 -0.853464 0.572408 1.244725 0.661171 0.506805 0.105911 0.212695 -0.106325 0.629362 -1.002118 -0.596299 1.608271 0.283530 1.551182 0.501556 
121 0.604769 -0.190171 -0.222443 1.623427 -0.168590 -0.512610 0.902112 -0.140792 -0.578839 0.632542 -0.513557 -0.867405 1.376245 -0.211290 1.587744 0.397778 
1048 -0.007493 0.018434 -0.013349 0.001428 -0.011455 0.019142 0.021003 -0.002662 0.010774 0.005906 0.004134 -0.011934 0.010612 0.009836 -0.003762 0.008794 
537 0.538901 -0.384961 0.027089 1.153445 0.161664 -0.145654 0.663068 -0.161092 -0.449922 0.511163 -0.513207 -0.657583 1.156315 -0.182718 1.256570 0.335543 
538 0.290928 0.124117 -0.578613 1.267857 -0.329294 -0.482006 0.791942 -0.230457 -0.559104 0.487665 -0.168587 -0.978234 1.330915 -0.252429 1.091822 0.101233 
669 0.331048 -0.105790 -0.237781 1.014928 -0.131192 -0.272363 0.639102 -0.158615 -0.459196 0.400095 -0.296352 -0.685805 1.061673 -0.189421 1.005842 0.192467 
670 0.289565 0.046109 -0.411484 1.006277 -0.226227 -0.369752 0.743579 -0.195735 -0.434001 0.375527 -0.206769 -0.794342 1.101944 -0.237422 0.984516 0.113773 
261 0.943579 -0.702140 0.364523 1.387166 0.405056 0.005125 0.496887 0.007943 -0.263258 0.688631 -0.878206 -0.624698 1.330770 0.005935 1.597357 0.546197 
993 0.117369 -0.070141 -0.028750 0.306209 0.015397 -0.031335 0.224610 -0.022761 -0.109496 0.167239 -0.082449 -0.274136 0.494510 -0.015832 0.324544 0.120524 
354 0.399350 0.003645 -0.436753 1.485760 -0.330182 -0.545979 0.923021 -0.229424 -0.628226 0.579311 -0.310939 -1.023591 1.440758 -0.262791 1.413135 0.246041 
440 0.412727 0.008559 -0.416641 1.585536 -0.218723 -0.561265 1.096452 -0.249407 -0.732052 0.668171 -0.353956 -1.055875 1.606389 -0.343529 1.556974 0.306903 
358 0.481440 0.020814 -0.600600 1.414929 -0.365180 -0.452989 0.795978 -0.233231 -0.681093 0.534066 -0.324976 -1.086795 1.517064 0.012185 1.342253 0.084450 
273 1.052011 -0.717876 0.512092 1.110929 0.697522 0.580718 -0.034990 0.258245 -0.073581 0.471623 -0.819629 -0.705734 1.505246 0.311688 1.355739 0.326584 
1000 0.118445 -0.052371 0.062609 0.117282 0.177146 0.141498 -0.005817 0.033490 0.013999 0.028429 -0.067724 -0.083008 0.217303 0.025158 0.119428 0.050502 
743 0.156393 0.026479 -0.334318 0.849578 -0.119463 -0.242191 0.739393 -0.228518 -0.522513 0.354828 -0.231503 -0.712655 1.121508 -0.139400 0.968545 0.232388 
237 1.051251 -0.714547 0.464218 1.264085 0.522028 0.378127 0.105295 0.206571 -0.161709 0.663405 -0.870741 -0.752611 1.503618 0.338380 1.513674 0.333443 
954 0.011929 0.058330 -0.164572 0.323263 -0.053575 -0.059705 0.236602 0.006123 -0.098412 0.091395 0.020319 -0.252117 0.413287 -0.116081 0.296000 0.103484 
839 0.179921 0.016962 -0.216953 0.573506 -0.093893 -0.133017 0.463008 -0.130052 -0.360404 0.270808 -0.213146 -0.569972 0.804435 0.018089 0.667501 0.083993 
499 0.862225 -0.649848 0.474238 0.852360 0.705750 0.592557 -0.060096 0.167425 -0.087477 0.399728 -0.731198 -0.678158 1.342796 0.349008 1.199064 0.251721 
308 0.818975 -0.546282 0.139163 1.425054 0.051178 -0.150844 0.477953 -0.033938 -0.403257 0.606988 -0.696098 -0.763080 1.236994 0.047687 1.535911 0.287903 
757 0.202408 0.035314 -0.421199 0.743537 -0.225097 -0.204027 0.536143 -0.115383 -0.419901 0.320084 -0.177561 -0.688848 0.919662 0.032496 0.692026 -0.008144 
439 0.568115 -0.307332 -0.019577 1.245981 0.079284 -0.272868 0.808978 -0.254103 -0.623644 0.657144 -0.791241 -0.830604 1.394574 -0.114693 1.469819 0.428051 
473 0.271445 0.371965 -0.914756 1.509416 -0.502241 -0.672907 1.182221 -0.318963 -0.800274 0.548890 -0.134917 -1.321703 1.799753 -0.255049 1.298580 0.138374 
180 0.914485 -0.468258 0.045341 1.434025 -0.120823 -0.111328 0.348528 0.057153 -0.350927 0.632262 -0.726424 -0.853415 1.247813 0.210904 1.523871 0.290433 
511 0.441344 -0.201836 -0.177956 1.414351 -0.055929 -0.386369 0.867814 -0.205909 -0.531079 0.558086 -0.506216 -0.847550 1.334744 -0.277892 1.401571 0.284268 
956 0.212420 -0.039644 -0.235221 0.674043 -0.075919 -0.095692 0.620794 -0.125074 -0.409921 0.329613 -0.309884 -0.527998 0.929764 -0.068274 0.768121 0.145465 
299 0.796252 -0.579508 0.160882 1.264383 0.219673 -0.122309 0.588088 -0.063283 -0.330407 0.630169 -0.761485 -0.652621 1.211807 -0.085716 1.444245 0.389912 
191 0.365108 0.098507 -0.618548 1.482899 -0.233707 -0.532523 1.241149 -0.258862 -0.747341 0.706394 -0.489256 -1.159010 1.653598 -0.262688 1.446022 0.300013 
13 -0.330191 1.295422 -0.534854 0.117696 0.679632 0.963581 -0.095548 0.483818 1.062401 0.182968 -0.344170 -0.770026 0.672022 -0.227280 0.389713 1.355260 
512 -0.406501 0.871674 -0.293037 0.326526 0.601212 0.861511 0.027937 0.614772 1.119412 0.130127 -0.165112 -0.635274 0.625237 -0.069736 0.251021 0.871661 
1025 -0.138452 0.338084 -0.067500 0.242786 0.148019 0.288697 -0.050048 0.162929 0.320462 0.110104 0.000175 -0.241072 0.330971 -0.086670 0.099570 0.406702 
773 -0.303408 0.904408 -0.256769 0.377799 0.353993 0.790389 -0.018648 0.604512 0.968707 0.299901 -0.112508 -0.579226 0.622690 -0.059143 0.253361 0.891603 
1057 -0.009939 -0.000541 -0.009416 -0.009231 0.027241 -0.001218 0.020239 -0.025823 -0.015543 0.006969 -0.009811 0.010637 -0.003793 -0.029930 0.010034 0.008136 
585 -0.555295 1.183678 -0.161742 0.586410 0.450453 0.430856 -0.150540 0.686168 1.258085 0.248725 -0.010328 -0.717709 0.915582 0.183260 0.430476 1.103089 
15 -0.583160 1.164488 -0.495664 0.106699 0.869460 0.497901 0.001136 0.378957 1.371491 0.051322 -0.231844 -0.739999 0.674652 -0.249046 0.345129 1.231671 
16 -0.468231 1.303133 -0.505481 0.219382 0.815806 0.793282 -0.106698 0.516001 1.326144 0.121146 -0.320253 -0.805997 0.729470 -0.274043 0.310599 1.353194 
792 -0.265511 0.657846 -0.222801 0.326189 0.462983 0.593198 0.020094 0.451808 0.904515 0.104196 -0.100945 -0.467819 0.497763 -0.046899 0.151351 0.666597 
18 -0.269451 1.486426 -0.590374 0.244126 0.656021 1.235388 -0.072820 0.664649 1.008205 0.339602 -0.347871 -0.825879 0.705477 -0.312696 0.411955 1.491584 
340 -0.492715 1.369318 -0.333462 0.448172 0.629955 0.891231 -0.085681 0.645703 1.256583 0.303884 -0.163654 -0.799925 0.848053 -0.116622 0.359971 1.491308 
277 -0.372342 1.294979 -0.401753 0.407361 0.613126 1.088510 -0.088584 0.715912 1.094413 0.286947 -0.240949 -0.723217 0.695973 -0.178151 0.291614 1.227003 
472 -0.425713 1.179644 -0.303248 0.393663 0.707258 0.989907 0.039915 0.685410 1.442816 0.122175 -0.247882 -0.797640 0.827120 -0.033541 0.398640 0.968678 
89 -0.407209 1.301990 -0.460451 0.211209 1.029668 1.039192 0.126555 0.663570 1.648491 -0.047413 -0.516590 -0.935550 0.764624 -0.078897 0.506616 0.968124 
794 -0.347531 0.769266 -0.037029 0.448678 0.165584 0.478245 -0.183223 0.494145 0.635340 0.235620 0.095522 -0.421916 0.556398 0.020590 0.194373 0.814300 
1039 0.008136 0.017765 -0.007274 0.010673 -0.031019 0.021766 0.016975 -0.002387 0.027960 -0.018959 0.029062 -0.007720 0.021999 0.022045 0.016334 0.004541 
947 -0.204440 0.517893 -0.101987 0.263768 0.213532 0.407662 -0.017222 0.328283 0.490957 0.169666 -0.014901 -0.363996 0.345992 -0.030972 0.156603 0.565531 
350 -0.388344 1.143661 -0.334473 0.318308 0.675031 1.116827 0.073242 0.699280 1.187531 0.182200 -0.336471 -0.706175 0.670272 -0.183143 0.314927 1.085991 
33 -0.523312 1.384809 -0.174612 0.292147 0.550014 0.395912 -0.158819 0.679565 1.058216 0.338660 0.068429 -0.653612 0.735938 -0.019169 0.452245 1.473204 
483 -0.225045 1.268409 -0.293600 0.407965 0.272829 1.052411 -0.023821 0.648679 0.773818 0.539045 -0.107295 -0.640728 0.694962 -0.172131 0.370625 1.265178 
167 -0.267066 1.459165 -0.523588 0.335822 0.588979 1.351588 0.061192 0.664406 0.921626 0.428818 -0.303430 -0.792510 0.734586 -0.286866 0.408495 1.338725 
488 -0.368260 0.886238 -0.278814 0.319730 0.640021 0.888158 0.055191 0.622650 1.088129 0.089481 -0.226997 -0.579148 0.610455 -0.120688 0.294576 0.812432 
617 -0.014071 0.999091 -0.187085 0.489137 -0.157734 0.817005 0.120142 0.485695 0.105159 0.659026 0.149625 -0.393163 0.644798 -0.281545 0.256735 0.908014 
144 -0.437135 1.209528 -0.460429 0.193222 0.838611 1.117629 0.084650 0.678726 1.337560 0.055612 -0.397645 -0.803699 0.697460 -0.176091 0.410059 1.040604 
208 -0.343826 1.298033 -0.389920 0.309798 0.591461 1.082484 -0.075874 0.623207 1.081142 0.338345 -0.215776 -0.705461 0.674152 -0.202086 0.340202 1.310443 
1008 -0.222638 0.464518 -0.119422 0.295923 0.338498 0.313216 0.010254 0.344342 0.606121 0.129926 -0.007693 -0.360930 0.436122 0.014299 0.182892 0.469310 
433 -0.728001 1.006141 0.071415 0.729851 0.435356 0.072002 -0.168034 0.482915 1.202298 0.304944 0.378694 -0.600323 0.869835 0.144640 0.289245 1.135527 
371 -0.411155 1.135910 -0.179565 0.472267 0.367763 0.646320 -0.116922 0.601469 0.895549 0.328557 0.059272 -0.618671 0.694151 -0.064605 0.322777 1.258979 
984 -0.247578 0.691095 -0.180220 0.302417 0.341217 0.441579 -0.069656 0.428800 0.696762 0.192463 -0.051428 -0.438144 0.472666 0.043660 0.213086 0.729695 
545 -0.358023 0.846771 -0.282524 0.354686 0.562661 0.675773 0.020661 0.573910 1.038531 0.106184 -0.122428 -0.549380 0.628760 -0.035663 0.250060 0.797164 
54 -0.388383 1.187333 -0.472959 0.201352 0.912967 1.024113 0.049891 0.618327 1.325318 0.059400 -0.417634 -0.796256 0.677053 -0.294752 0.345459 1.092286 
55 -0.803845 1.257163 0.025965 0.626887 0.544087 -0.012715 -0.157189 0.617921 1.378148 0.337099 0.337294 -0.676850 0.906976 0.152308 0.443573 1.459244 
564 -0.188271 1.349601 -0.141721 0.623192 -0.103365 0.715990 -0.120005 0.655070 0.309993 0.701928 0.232680 -0.526698 0.772576 -0.181719 0.409905 1.348348 
442 -0.015710 1.546183 -0.356760 0.600098 -0.204438 1.399737 0.173238 0.776591 0.179246 0.834664 0.070447 -0.679663 0.779434 -0.309532 0.422062 1.264187 
955 -0.174660 0.540104 -0.150259 0.280850 0.255599 0.386898 0.000711 0.364455 0.507181 0.130590 -0.050928 -0.341417 0.346940 -0.094810 0.137455 0.514407 
446 -0.434861 1.051927 -0.373133 0.364558 0.720668 1.002356 0.062435 0.681394 1.323869 0.121544 -0.256025 -0.733743 0.714901 -0.148300 0.329379 0.982286 
383 -0.213928 1.570894 -0.249796 0.679189 -0.213402 0.916496 -0.030966 0.775628 0.271060 0.827040 0.253504 -0.677332 0.860966 -0.220349 0.489479 1.552015 
14 -0.342798 -0.973684 -0.982984 0.617449 0.098695 0.609411 1.368177 -0.608426 0.764038 -0.608514 0.337474 -0.658457 1.013803 0.177488 -0.206650 0.606371 
448 -1.047249 0.036670 -0.382497 1.111477 0.468939 -0.044426 0.446186 -0.073938 1.031071 0.058176 0.495940 -0.592873 0.856054 0.065828 -0.331152 0.926510 
899 0.068573 -0.353179 -0.380722 0.118814 -0.017333 0.374784 0.267896 -0.103335 0.262723 -0.006646 0.209416 -0.182807 0.676801 -0.091532 0.301684 0.121135 
644 -0.576534 -0.612802 -1.161519 1.426040 1.245819 0.294052 0.541493 0.333470 0.881004 0.541985 0.287951 -0.438005 0.676208 -0.311499 -0.058156 0.527764 
135 0.274993 -1.017544 -0.807187 0.117389 -0.322211 1.123962 0.984554 -0.665631 0.649719 -0.510985 0.425817 -0.848361 1.875347 0.053371 0.398347 0.144501 
311 -0.974040 -0.777742 -0.893420 1.539155 1.019557 0.092807 0.708480 0.090681 0.775691 0.154123 0.442536 -0.537811 0.932748 0.107341 -0.366063 0.986546 
695 -0.631924 -0.650389 -1.082044 1.438089 1.150631 0.271541 0.542681 0.398037 0.859894 0.549624 0.279195 -0.463302 0.627403 -0.241732 -0.055796 0.604962 
173 -0.676160 -0.461399 -0.554135 0.464266 -0.019377 0.357637 1.312420 -0.671132 1.262221 -0.399376 0.473882 -0.846255 0.946772 0.139582 -0.143169 0.739862 
658 0.289845 -0.613133 -0.510782 -0.065455 -0.229100 0.722157 0.689294 -0.495262 0.639715 -0.179819 0.381312 -0.612559 1.403932 -0.145954 0.471218 0.149184 
468 0.356807 -0.807725 -0.544220 0.053128 -0.192697 0.817653 0.744366 -0.569004 0.677217 -0.320861 0.461637 -0.677293 1.420502 -0.116079 0.401435 0.224171 
406 0.175300 -0.883636 -0.680758 0.177764 -0.146102 0.844844 0.890172 -0.590103 0.683007 -0.423961 0.429366 -0.702456 1.403194 0.024246 0.284059 0.251747 
728 -0.649985 -0.431557 -0.700818 1.131335 0.776966 0.190590 0.412574 0.183323 0.679516 0.338219 0.249832 -0.421802 0.520852 -0.117934 -0.189330 0.425760 
348 0.414756 -0.918035 -0.669404 0.057410 -0.228931 0.952811 0.927889 -0.698920 0.697621 -0.419450 0.565514 -0.827630 1.609343 -0.082758 0.316047 0.256780 
735 -0.600284 -0.139383 -0.289450 0.748972 0.206567 0.179721 0.381807 -0.124986 0.684422 -0.021712 0.359086 -0.446867 0.645959 0.088718 -0.271382 0.475417 
353 0.312599 -0.825350 -0.644081 0.119928 -0.189867 0.854036 1.017467 -0.598472 0.662325 -0.408599 0.477067 -0.754237 1.517229 0.022830 0.319470 0.177253 
612 -0.759389 -0.678300 -0.951864 1.464022 1.140926 0.270870 0.619802 0.197805 0.801485 0.344220 0.380155 -0.466216 0.717835 -0.031308 -0.161895 0.709892 
101 0.118930 -1.172930 -1.070464 0.354116 -0.182369 1.151468 1.030100 -0.562724 0.773504 -0.500435 0.429820 -0.662306 1.565377 -0.020050 0.332426 0.051474 
685 0.235495 -0.579000 -0.374112 0.071059 -0.105365 0.515973 0.504869 -0.395833 0.438106 -0.155618 0.271960 -0.490477 0.968940 -0.064225 0.305308 0.156344 
295 -1.031209 -0.703222 -0.795151 1.273438 0.529870 0.161348 0.981527 -0.296895 0.966901 -0.101382 0.489262 -0.681425 1.015788 0.131470 -0.330078 0.945075 
860 0.108815 -0.408121 -0.308217 0.059603 -0.078428 0.449710 0.331877 -0.230822 0.316426 -0.130424 0.226918 -0.331054 0.834975 -0.075622 0.254559 0.162849 
807 -0.672280 0.095640 -0.199045 0.803013 0.229796 0.086796 0.172655 0.006583 0.672480 0.048335 0.340832 -0.464762 0.617126 0.010027 -0.239125 0.545458 
45 0.190922 -0.887420 -0.674337 0.207070 -0.212511 1.069268 1.283244 -0.656591 0.565652 -0.760549 0.370440 -0.813765 1.442318 0.025520 0.060152 0.278892 
303 0.155967 -1.124385 -0.881368 0.379189 -0.180778 1.077899 1.047690 -0.663059 0.786205 -0.536530 0.459040 -0.794273 1.553923 -0.010102 0.243137 0.320446 
304 -0.748025 -0.955512 -0.825494 1.035276 0.411815 0.378012 0.973638 -0.310893 0.806742 -0.159859 0.408982 -0.579974 0.940044 0.188622 -0.207829 0.789426 
305 0.433355 -1.053666 -0.798489 0.082141 -0.267223 1.153988 0.912216 -0.761081 0.755769 -0.400107 0.559572 -0.831094 1.930499 -0.131454 0.462521 0.311473 
503 0.302736 -0.680372 -0.484940 0.054162 -0.097146 0.562217 0.895135 -0.520662 0.662407 -0.254695 0.504438 -0.635053 1.219361 -0.034379 0.314694 0.170132 
56 0.199501 -0.940535 -0.729317 0.169472 -0.226415 1.083636 1.185010 -0.639530 0.634645 -0.711729 0.356089 -0.788776 1.453253 0.066461 0.115236 0.292573 
892 0.223775 -0.364244 -0.309096 0.037092 -0.097377 0.474961 0.357154 -0.266825 0.345060 -0.075716 0.191467 -0.373401 0.849687 -0.139008 0.293015 0.128453 
183 -0.672197 -0.986402 -1.496719 1.514897 1.252850 0.255045 0.778002 0.310111 0.856142 0.514550 0.376849 -0.306411 0.720399 -0.301088 0.013732 0.623433 
382 0.119106 -1.264820 -1.084867 0.144229 -0.295910 1.205364 0.704279 -0.569251 0.774692 -0.308381 0.463912 -0.703336 1.890286 -0.125866 0.703701 0.323486 
447 0.240624 -0.957835 -0.777081 0.047219 -0.221155 1.011521 0.715791 -0.558070 0.673459 -0.369390 0.429226 -0.667083 1.694462 -0.105108 0.518657 0.276377 
643 -0.653576 0.975698 -0.018284 0.606631 0.488457 0.165735 -0.052242 0.397874 1.273739 0.216644 0.204102 -0.621110 0.898628 0.248158 0.274992 0.992341 
136 -0.554600 1.097076 -0.378958 0.320063 0.844864 0.656167 0.054897 0.579984 1.413786 0.024492 -0.223842 -0.760043 0.662654 -0.193693 0.361348 1.007065 
59 -0.934746 1.144909 -0.140707 0.716497 0.644279 -0.283700 0.048955 0.277538 1.603924 0.209743 0.430461 -0.657583 0.934234 0.085590 0.217726 1.224678 
724 -0.437489 1.078181 -0.147971 0.549418 0.410127 0.625360 -0.116122 0.699894 1.157878 0.205635 -0.072490 -0.663822 0.780070 0.157685 0.309341 1.033642 
95 -0.536724 1.051430 -0.360792 0.286506 0.835053 0.585770 0.090577 0.509283 1.445676 -0.003522 -0.254221 -0.732686 0.585008 -0.126628 0.332677 0.881135 
168 -1.005919 0.870995 -0.252283 0.783908 0.513750 -0.052726 0.224548 0.171202 1.438952 0.097658 0.354321 -0.680206 0.823116 0.143349 0.090323 1.162250 
945 -0.265573 0.570440 -0.179063 0.264947 0.334697 0.475699 0.030287 0.401604 0.694438 0.053249 -0.092165 -0.423223 0.475731 -0.052485 0.160740 0.641554 
464 -0.371101 0.749658 -0.196093 0.296909 0.496345 0.591461 0.000280 0.503526 0.911235 0.065632 -0.124345 -0.558204 0.528842 -0.076627 0.234118 0.724545 
30 -1.031701 0.829353 -0.333975 0.656541 0.560709 -0.363795 0.377465 -0.043616 1.416174 0.000479 0.408349 -0.638057 0.806208 0.039137 0.033864 1.233035 
309 -0.427601 1.082354 -0.405064 0.423843 0.821103 0.994155 0.049805 0.682423 1.433061 0.060970 -0.267059 -0.807890 0.754262 -0.148624 0.320461 1.038497 
17 -0.218028 -0.447180 -0.230523 0.186066 0.582088 -0.363711 0.115502 1.045731 -0.117778 -0.798525 0.258761 -2.326053 1.294760 -0.364386 0.168189 0.310258 
896 -0.110981 -0.162844 -0.063569 0.270438 0.275182 -0.129332 0.038837 0.517218 -0.021567 -0.355933 0.218916 -1.397443 0.813811 -0.291321 0.078266 0.270021 
961 -0.088599 -0.127054 -0.042255 0.166604 0.155535 -0.043390 0.003402 0.332600 -0.013884 -0.239689 0.095305 -0.918306 0.586143 -0.218202 0.091026 0.149751 
516 0.271198 -0.727331 0.303742 0.273489 0.765442 0.163041 -0.344193 0.749608 -0.065462 -0.448133 -0.354122 -1.588677 1.145213 0.002023 0.418697 0.347261 
710 -0.212439 -0.283002 -0.166395 0.540748 0.433704 -0.203358 0.114034 0.952509 0.023357 -0.628146 0.338528 -2.359188 1.309523 -0.487361 0.158630 0.376135 
201 -0.228340 -0.415935 -0.168374 0.371706 0.675027 -0.287486 0.082288 1.020360 -0.113943 -0.776505 0.283356 -2.523904 1.364106 -0.430987 0.165695 0.391055 
650 -0.204181 -0.332042 -0.103602 0.419652 0.458015 -0.176153 0.075360 0.834694 -0.054509 -0.648036 0.274505 -2.143588 1.222343 -0.429088 0.159798 0.355436 
482 0.216680 -0.193207 -0.040606 -0.365322 0.375520 -0.458873 0.648665 0.573688 0.020638 -0.762572 0.857419 -1.930484 1.274469 -0.333188 0.587882 -0.071796 
288 -0.266686 -0.407320 -0.173816 0.374305 0.596867 -0.238531 0.039878 0.907064 -0.054242 -0.735869 0.255308 -2.315899 1.367463 -0.419903 0.183282 0.341971 
722 -0.225373 -0.287032 -0.125053 0.414043 0.329545 -0.213821 0.078171 0.744999 -0.080479 -0.546057 0.289187 -2.057763 1.084466 -0.369225 0.170956 0.373475 
723 -0.213566 -0.291085 -0.130847 0.459769 0.393427 -0.181643 0.083768 0.827479 -0.069851 -0.590395 0.337496 -2.209234 1.222114 -0.439957 0.168958 0.363931 
341 -0.237461 -0.412171 -0.184671 0.250093 0.597813 -0.307887 0.072009 0.953035 -0.068726 -0.742365 0.402875 -2.438369 1.364581 -0.484221 0.236361 0.289165 
280 -0.243533 -0.418029 -0.246081 0.394156 0.635622 -0.266961 0.042250 0.925289 -0.069231 -0.743550 0.353758 -2.326983 1.404313 -0.409767 0.185408 0.343382 
796 -0.163663 -0.269775 -0.079508 0.341247 0.329745 -0.174491 0.084952 0.731992 -0.035850 -0.505842 0.238800 -1.950461 1.053875 -0.424905 0.132254 0.340439 
349 -0.221557 -0.357747 -0.221930 0.438756 0.603105 -0.300467 0.165591 1.033368 -0.052690 -0.717346 0.472650 -2.606736 1.500091 -0.539203 0.264101 0.405812 
224 -0.259928 -0.344603 -0.141937 0.373828 0.611300 -0.292344 -0.007915 0.911300 -0.052593 -0.755777 0.300162 -2.350425 1.333481 -0.362751 0.116292 0.333002 
673 -0.196402 -0.310294 -0.122057 0.363671 0.394362 -0.257693 0.089008 0.780061 -0.096286 -0.591268 0.251089 -1.986848 1.117580 -0.394299 0.172432 0.302199 
1058 0.010129 -0.013706 0.010450 0.025722 0.006372 -0.011257 0.028150 -0.018688 -0.013267 0.001546 -0.030168 -0.013956 0.022859 0.010764 -0.024891 0.015369 
611 -0.072966 -0.237698 -0.190179 0.180189 0.443156 -0.364847 0.212199 0.740708 -0.072559 -0.767667 0.497861 -1.827341 0.972467 -0.281563 0.344695 0.180121 
805 -0.147573 -0.256959 -0.089226 0.364305 0.318969 -0.131889 0.056719 0.653910 -0.018811 -0.467598 0.226014 -1.756272 0.956702 -0.354944 0.047759 0.273931 
934 -0.015420 -0.006210 -0.076149 0.135303 0.128185 -0.007362 0.024977 0.183608 0.012013 -0.115544 0.089465 -0.450880 0.321577 -0.089387 0.071254 0.123791 
104 -0.212003 -0.376273 -0.230466 0.235308 0.570760 -0.361148 0.118838 1.008898 -0.070870 -0.749572 0.415801 -2.378670 1.337511 -0.427806 0.148668 0.316372 
491 -0.209972 -0.443490 -0.121915 0.314154 0.554818 -0.260669 0.010671 0.898044 -0.059340 -0.681986 0.285086 -2.220845 1.296708 -0.450461 0.186803 0.349679 
210 -0.195813 -0.414066 -0.208103 0.268161 0.650894 -0.346228 0.118780 0.997335 -0.064827 -0.733045 0.314463 -2.311570 1.344808 -0.396218 0.184775 0.300369 
751 -0.158369 -0.247064 -0.093613 0.335408 0.353348 -0.175582 0.034952 0.650165 -0.055668 -0.470568 0.283813 -1.644448 1.005464 -0.350121 0.125506 0.289227 
928 -0.147330 -0.218687 -0.035233 0.275677 0.304773 -0.093193 -0.004651 0.513549 0.001008 -0.363677 0.184128 -1.397864 0.816367 -0.319509 0.055591 0.280619 
561 -0.271836 -0.347556 -0.193560 0.490703 0.579710 -0.284721 0.129724 0.982758 -0.045683 -0.768288 0.412328 -2.600729 1.468060 -0.515878 0.195991 0.414351 
50 0.376102 -0.901016 0.303831 0.169749 0.947914 0.224628 -0.423132 1.056434 -0.058170 -0.492639 -0.468566 -1.744604 1.201747 0.149461 0.473971 0.435383 
691 -0.223523 -0.308234 -0.104020 0.503565 0.471492 -0.229123 0.074388 0.952471 -0.029302 -0.636715 0.342238 -2.406159 1.333652 -0.482727 0.168198 0.445815 
567 -0.211643 -0.312783 -0.189578 0.416419 0.541931 -0.260309 0.065537 0.828147 -0.026049 -0.621894 0.338326 -2.143453 1.177805 -0.460297 0.177471 0.315914 
787 -0.196180 -0.224425 -0.063182 0.293846 0.312746 -0.131842 0.078080 0.545253 -0.038507 -0.416087 0.219297 -1.488042 0.791337 -0.371132 0.109120 0.264096 
378 -0.247006 -0.352518 -0.126586 0.424183 0.595422 -0.195185 0.043679 1.015514 -0.077613 -0.747414 0.344520 -2.550448 1.399810 -0.482788 0.202192 0.408908 
123 -0.266931 -0.401158 -0.262599 0.364186 0.691999 -0.330525 0.168761 1.105248 -0.078004 -0.863046 0.397051 -2.779324 1.507070 -0.542253 0.233361 0.430149 
62 -0.258147 -0.368507 -0.245286 0.312977 0.653957 -0.334482 0.189245 1.136064 -0.158466 -0.888994 0.375116 -2.636940 1.422164 -0.502300 0.216651 0.340962 
1045 -0.025629 -0.036240 -0.021331 0.134905 0.088772 0.036090 0.023850 0.096901 0.000834 -0.080266 0.080931 -0.367117 0.286138 -0.057814 0.007763 0.065178 
481 -0.066383 1.453596 -0.336649 0.673327 -0.255584 1.226924 0.174934 0.694548 0.107902 0.845869 0.097380 -0.617837 0.830388 -0.269922 0.436325 1.236259 
741 -0.092277 0.868478 -0.206531 0.344637 -0.036032 0.744273 0.017881 0.473543 0.310768 0.449568 0.030999 -0.353963 0.450071 -0.170140 0.248987 0.769223 
555 -0.209429 1.006313 -0.221042 0.404790 0.211707 0.873977 0.051469 0.655947 0.631203 0.342092 -0.108839 -0.469725 0.528365 -0.059360 0.298732 0.857210 
692 -0.048756 1.193568 -0.157043 0.609252 -0.181296 0.789651 0.019139 0.618919 0.138109 0.672288 0.206876 -0.498715 0.810630 -0.282558 0.351096 1.139692 
19 0.768101 0.372171 -0.436819 0.147187 2.022238 0.036953 -0.007660 -0.504208 -0.385091 0.133542 0.311258 -0.696358 0.654267 -1.307171 0.292065 0.821434 
385 0.534341 0.043298 -0.337143 0.393901 1.917467 0.278241 -0.197274 -0.495068 -0.633886 0.425788 0.566982 -0.939715 0.943421 -1.606111 0.541611 0.635678 
963 0.063966 0.010239 -0.022769 0.101260 0.182047 0.037979 -0.022933 -0.075635 -0.042695 0.050303 0.051830 -0.125028 0.187916 -0.149721 0.101648 0.089751 
197 0.477511 0.099646 -0.340647 0.371983 1.876128 0.252412 -0.240615 -0.517740 -0.704340 0.408233 0.622812 -0.943943 0.895810 -1.635475 0.523697 0.613576 
330 1.320199 0.782034 -0.137647 0.295958 1.807943 -0.216639 0.050371 -0.206378 0.198016 -0.196858 0.188481 -0.573044 0.897733 -0.934004 0.052960 0.684379 
842 1.079658 0.656058 -0.099220 0.328438 0.908638 -0.154833 0.164419 0.056979 0.449872 -0.142713 0.080917 -0.346679 0.866642 -0.282703 -0.173408 0.344616 
610 0.345677 -0.031709 -0.179067 0.282926 1.232997 0.147751 -0.161279 -0.367055 -0.415254 0.303621 0.389517 -0.661568 0.708072 -0.951799 0.310511 0.444068 
813 0.282598 -0.090053 0.083050 0.436939 0.980420 0.097516 -0.366545 -0.401836 -0.674785 0.256089 0.402382 -0.699723 0.898538 -0.906414 0.402087 0.294595 
400 0.394378 -0.066119 -0.199752 0.479112 1.709477 0.261590 -0.379158 -0.541222 -0.796593 0.433358 0.646616 -1.030850 1.113373 -1.538727 0.561906 0.546270 
595 0.518805 0.024207 -0.196568 0.288782 1.374357 0.177324 -0.204193 -0.415588 -0.408353 0.299471 0.421875 -0.686966 0.763308 -1.005051 0.305106 0.494147 
853 0.758877 0.378374 -0.085796 0.151490 0.818576 -0.042564 0.068748 -0.032364 0.138699 -0.013730 0.081315 -0.332266 0.601716 -0.370920 -0.066314 0.283322 
983 0.001353 -0.005210 0.005091 0.121836 0.127269 0.041146 -0.066004 -0.056367 -0.104057 0.000170 0.055282 -0.150341 0.254356 -0.119368 0.116515 0.063269 
771 0.272484 -0.068085 -0.079814 0.280978 0.937543 0.094076 -0.134383 -0.311104 -0.424879 0.192746 0.305317 -0.558109 0.629884 -0.780841 0.288010 0.366840 
93 0.181481 -0.029457 -0.016635 0.534832 1.390153 0.268525 -0.513069 -0.677326 -1.077716 0.321501 0.676915 -0.849393 1.185280 -1.346956 0.453165 0.557055 
992 0.029650 -0.019477 -0.013116 0.028112 -0.011161 -0.026197 -0.017841 -0.011031 -0.009088 -0.000043 0.003568 -0.017788 0.020057 0.010827 -0.004703 0.005948 
418 0.488591 0.027488 -0.305741 0.323503 1.641304 0.202955 -0.137867 -0.425946 -0.513341 0.319243 0.435942 -0.916238 0.799332 -1.386554 0.453245 0.589637 
374 0.601379 0.034372 -0.331604 0.308701 1.794521 0.251597 -0.201761 -0.531483 -0.595228 0.420768 0.565862 -0.963394 0.930181 -1.403577 0.464297 0.595878 
845 1.007723 0.448172 -0.338313 0.243306 0.575723 -0.054850 0.130476 0.231156 0.384702 0.142965 -0.015776 -0.454767 0.683545 -0.104767 -0.345975 0.242379 
890 0.538770 0.260256 -0.012519 0.161047 0.576274 0.013848 0.080387 -0.022980 0.108183 -0.054357 0.114495 -0.289908 0.531102 -0.281868 -0.041906 0.222783 
812 0.110132 -0.105353 0.094938 0.421746 0.757940 0.090936 -0.344233 -0.412435 -0.631789 0.166576 0.388651 -0.542774 0.869964 -0.679917 0.391031 0.298699 
429 0.448633 0.003169 -0.274159 0.245316 1.430602 0.144029 -0.101446 -0.400837 -0.358434 0.347394 0.392844 -0.727692 0.693721 -1.169095 0.351259 0.549237 
366 0.339862 -0.106532 -0.071634 0.500957 1.675476 0.304602 -0.468670 -0.635635 -0.955568 0.417754 0.710649 -1.013529 1.278324 -1.529555 0.555733 0.593414 
413 1.349635 0.809200 -0.109979 0.281661 1.670665 -0.169220 0.100854 -0.162630 0.279982 -0.196463 0.193193 -0.506159 0.929523 -0.796491 0.011849 0.682705 
496 1.233771 0.600067 -0.240035 0.199562 1.800700 -0.152637 0.038008 -0.275852 0.133461 -0.028220 0.234977 -0.705904 0.838401 -0.955637 0.079125 0.720594 
189 0.893831 0.379654 -0.406017 0.202643 1.934984 0.065888 0.081445 -0.325282 -0.160811 0.206215 0.319588 -0.820714 0.758316 -1.380642 0.318805 0.667369 
242 0.493716 0.095263 -0.339594 0.349662 1.912823 0.230104 -0.201553 -0.576051 -0.671877 0.411726 0.657692 -0.924119 0.921714 -1.615903 0.522665 0.655005 
116 0.800596 0.342834 -0.408389 0.122219 2.128942 0.102986 -0.006408 -0.400458 -0.300526 0.175703 0.359874 -0.775378 0.677302 -1.528318 0.365888 0.805673 
118 0.776895 0.323875 -0.486055 0.115449 2.061721 0.089462 -0.027461 -0.360111 -0.294365 0.212710 0.414855 -0.830694 0.717838 -1.538217 0.352237 0.694259 
824 0.203218 -0.022964 0.183477 0.526391 0.762570 0.081565 -0.417764 -0.446470 -0.668019 0.204484 0.408272 -0.609137 1.010757 -0.691760 0.412588 0.287100 
186 0.583111 0.020668 -0.105149 -0.036328 1.465240 0.248054 -0.460586 -0.885134 -0.714296 0.722955 0.542159 -0.483292 1.148078 -0.583736 -0.173636 0.630851 
187 0.886535 0.408406 -0.403023 0.141804 2.082965 0.078696 -0.029773 -0.420219 -0.278614 0.106821 0.373737 -0.839150 0.771371 -1.496371 0.352307 0.722229 
767 0.699542 0.280714 -0.140084 0.197565 1.244432 -0.021047 -0.083476 -0.260839 -0.138440 0.108407 0.276468 -0.525095 0.647115 -0.863579 0.134166 0.402058 
509 0.566259 0.035844 -0.233335 0.259491 1.502524 0.172710 -0.177219 -0.420137 -0.437466 0.300529 0.460960 -0.739540 0.798676 -1.076689 0.259828 0.502354 
894 0.211086 -0.044757 -0.045957 0.314125 0.718780 0.065624 -0.242069 -0.248068 -0.364893 0.203907 0.304409 -0.501185 0.637516 -0.623782 0.258615 0.239643 
21 1.683945 1.063454 -0.157479 0.231820 1.731794 -0.331698 0.298889 -0.041309 0.577552 -0.451304 -0.118858 -0.552092 0.998522 -0.643042 -0.058630 0.826828 
20 -0.106905 -0.552547 -1.494033 1.301639 0.896292 0.496015 0.125659 0.440308 0.887259 0.997019 0.469940 0.142408 0.533725 -0.973341 0.494117 -0.417835 
258 -0.257632 -0.707331 -1.389947 1.621893 1.191898 0.452725 0.238519 0.646938 0.946205 0.928800 0.421049 -0.077954 0.610432 -0.846526 0.309903 0.017647 
648 -0.305750 -0.542593 -1.177601 1.344631 1.089749 0.439193 0.208054 0.547321 0.813950 0.851627 0.382970 -0.159697 0.584008 -0.615895 0.274011 0.126732 
523 -0.653015 -0.923344 -1.433674 1.816384 1.597807 0.483902 0.530128 0.614293 1.013096 0.901941 0.480545 -0.368986 0.850199 -0.541314 0.077319 0.456748 
781 -0.275916 -0.600635 -1.006842 1.031622 0.830404 0.419464 0.235305 0.325398 0.619789 0.657878 0.307744 -0.061559 0.538814 -0.502063 0.284515 0.102787 
1022 0.010261 0.020153 -0.005592 -0.003730 -0.019683 0.011157 0.013027 0.025392 0.008434 -0.029064 0.026859 0.002252 0.025249 -0.005336 -0.005555 -0.014057 
184 -0.628870 -0.950345 -0.717675 1.907576 1.248462 0.610416 0.199010 0.490679 0.755869 0.439442 0.408987 -0.534440 0.665459 -0.215066 -0.294425 0.381822 
915 -0.170404 -0.207370 -0.469671 0.703875 0.559932 0.205463 0.131298 0.289431 0.402741 0.404812 0.145843 -0.069460 0.363329 -0.267122 0.117855 0.122759 
84 -0.171543 -0.672533 -1.586271 1.396788 0.994609 0.652356 0.181213 0.432306 0.966306 1.063945 0.517290 0.071888 0.685071 -0.994295 0.580632 -0.321822 
149 -0.215000 -0.743413 -1.559678 1.427278 1.090376 0.597870 0.202688 0.504381 1.015174 1.003374 0.508930 0.013396 0.717069 -0.945224 0.486252 -0.227855 
151 -0.113898 -0.737124 -1.468661 1.131019 0.826178 0.639380 0.163803 0.290686 0.916390 0.921168 0.529247 -0.016521 0.723455 -0.862632 0.502860 -0.239493 
408 -0.288169 -0.632063 -1.327912 1.287593 0.976030 0.535817 0.242735 0.480157 0.858513 0.889909 0.441898 -0.054750 0.625362 -0.742738 0.394724 -0.058877 
868 -0.203201 -0.347828 -0.599297 0.809066 0.644131 0.303812 0.074955 0.315840 0.493389 0.477052 0.168230 -0.119545 0.362475 -0.363599 0.079660 0.060117 
795 -0.242485 -0.406241 -0.902192 1.006554 0.753446 0.370767 0.201995 0.371008 0.644350 0.627377 0.305469 -0.058491 0.512436 -0.506119 0.266348 0.079945 
604 -0.353399 -0.595728 -1.096153 1.372012 1.021191 0.462153 0.255950 0.522118 0.799753 0.783987 0.320814 -0.192636 0.553231 -0.630291 0.198756 0.077672 
157 -0.630200 -1.153990 -1.645892 0.623656 0.377129 0.944856 0.332700 0.119661 0.523847 0.526909 0.290323 0.159215 1.145761 -0.528691 0.852503 0.082079 
252 -0.362448 -0.736587 -1.452916 1.445340 1.090285 0.643017 0.295029 0.480156 0.910268 0.954165 0.501140 -0.081431 0.761629 -0.810650 0.451632 0.004122 
91 -0.270559 -0.606510 -1.587339 1.468097 1.173646 0.450384 0.264556 0.519269 0.949290 0.965609 0.403778 0.114135 0.660791 -0.868600 0.432641 -0.165234 
36 -0.091055 -0.551140 -1.426616 1.240192 0.941166 0.511397 0.159221 0.409652 0.864322 0.983541 0.464804 0.135072 0.608707 -0.920618 0.530258 -0.403188 
742 -0.508887 -0.909278 -1.237345 0.630423 0.435656 0.624600 0.233378 0.120071 0.517181 0.520440 0.324685 0.037328 0.841854 -0.416297 0.604630 0.201879 
41 -0.163486 -0.628552 -1.601915 1.503478 1.093495 0.433396 0.212481 0.518827 0.933290 1.085016 0.481681 0.114483 0.579725 -1.003851 0.479975 -0.358416 
42 -0.177487 -0.706438 -1.637912 1.408716 1.005921 0.619959 0.239390 0.432380 0.920239 1.024270 0.524988 0.046769 0.720549 -0.945445 0.539745 -0.311687 
300 -0.337990 -0.714173 -1.033690 1.744259 1.206009 0.624766 0.078520 0.648888 1.031703 0.834825 0.344338 -0.297342 0.558562 -0.748582 -0.001157 0.032697 
536 -0.332906 -0.544421 -1.076203 1.239450 0.941045 0.415893 0.185307 0.469354 0.746419 0.778580 0.394242 -0.095882 0.536059 -0.642255 0.223918 -0.019513 
110 -0.277139 -0.659733 -1.410372 1.253857 0.912790 0.556691 0.213537 0.352936 0.851973 0.893802 0.496378 0.043706 0.663630 -0.797712 0.453637 -0.204797 
175 -0.252030 -0.618840 -1.441933 1.547373 1.217398 0.471454 0.282731 0.623263 0.947040 1.015803 0.413928 -0.015977 0.620168 -0.890241 0.408188 -0.016878 
816 -0.236928 -0.494234 -0.830520 0.893234 0.640369 0.400280 0.166472 0.276093 0.533397 0.479639 0.326256 -0.091194 0.460471 -0.371973 0.225066 0.080064 
879 -0.188538 -0.305189 -0.455432 0.567769 0.446436 0.252145 0.166486 0.163121 0.358386 0.309904 0.174084 -0.117898 0.381321 -0.216212 0.150377 0.150601 
1016 -0.171310 -0.191217 -0.366813 0.620593 0.457175 0.219089 0.088233 0.179296 0.333085 0.245053 0.191933 -0.168967 0.363896 -0.173505 0.035793 0.154680 
822 -0.276670 -0.567791 -0.889710 1.025874 0.734231 0.360670 0.208702 0.301788 0.560853 0.569207 0.281798 -0.110852 0.536113 -0.384416 0.270869 0.100732 
248 -0.270015 -0.761818 -1.483983 1.410656 1.095872 0.620719 0.263935 0.487152 0.873015 0.938868 0.499928 -0.009004 0.716733 -0.776392 0.464846 -0.047605 
212 -0.255442 -0.551637 -1.338704 1.319615 0.934582 0.543200 0.219912 0.473239 0.826322 0.901296 0.499346 0.000653 0.658771 -0.759039 0.437066 -0.178284 
443 -0.267655 -0.578002 -1.188647 1.237612 0.924604 0.464080 0.206367 0.400625 0.745082 0.786939 0.395433 -0.044082 0.566181 -0.682361 0.391696 -0.073368 
764 -0.306013 -0.516057 -0.799922 1.301231 1.024544 0.465704 0.128001 0.421719 0.791759 0.607961 0.244112 -0.316133 0.564960 -0.464347 -0.015586 0.121080 
825 -0.293296 -0.553950 -0.841355 0.958191 0.700063 0.348624 0.241122 0.288203 0.570831 0.458376 0.260897 -0.133217 0.463497 -0.340986 0.190510 0.149214 
85 -0.605228 -1.038363 -1.522049 1.750483 1.381621 0.376620 0.515073 0.451098 0.784044 0.669115 0.468098 -0.154476 0.768354 -0.377828 0.134091 0.342798 
134 1.939043 0.961146 -0.533253 0.244533 1.333558 -0.235205 0.278622 0.243162 0.786290 0.031935 -0.145520 -0.742747 1.151627 -0.173707 -0.403332 0.668275 
138 2.115362 1.333085 -0.169941 0.451228 1.442075 -0.304913 0.312644 0.157490 0.902039 -0.422748 0.024448 -0.663476 1.515480 -0.250721 -0.264245 0.654097 
652 1.854573 0.886259 -0.638093 0.408537 1.085482 -0.157626 0.266231 0.320095 0.633471 0.166695 0.162354 -0.794921 1.238572 -0.153955 -0.551591 0.363067 
664 1.697014 1.017956 -0.186178 0.389228 1.195650 -0.161979 0.149371 0.128077 0.615836 -0.218653 0.175553 -0.555070 1.198262 -0.283289 -0.329675 0.426045 
153 1.675546 0.832883 -0.536280 0.117695 1.574287 -0.207748 0.108758 0.001582 0.360892 0.126653 0.036775 -0.799500 0.938794 -0.469418 -0.280735 0.583633 
158 1.865139 1.158236 -0.123095 0.439301 1.258647 -0.250429 0.172928 0.149630 0.585560 -0.295182 0.203463 -0.557859 1.251002 -0.410106 -0.398816 0.342543 
799 1.492609 0.753351 -0.428845 0.512121 0.670352 0.036073 0.001432 0.352594 0.410731 0.182336 0.560984 -0.522034 1.164603 -0.473255 -0.777589 0.007539 
163 1.760770 1.194740 -0.006081 0.431714 1.414830 -0.249369 0.185501 -0.015800 0.628154 -0.485469 0.164389 -0.504348 1.283220 -0.560349 -0.199814 0.505057 
806 1.407880 0.782764 -0.206641 0.453138 0.938073 -0.122336 0.094550 0.143237 0.511539 -0.203661 0.242156 -0.432197 1.080915 -0.371294 -0.471655 0.262812 
46 1.824859 1.256702 0.062216 0.605059 0.932286 -0.188557 0.134954 0.161549 0.628320 -0.651809 0.351298 -0.332366 1.415406 -0.380319 -0.550251 0.148458 
181 1.908239 0.811239 -0.883529 0.387904 0.908695 -0.093656 0.292988 0.505234 0.667551 0.509985 0.018525 -0.992651 1.322085 -0.015317 -0.928945 0.388365 
543 1.454299 0.925713 -0.070397 0.368919 1.232224 -0.171210 0.206206 0.046269 0.647511 -0.276325 0.145373 -0.455402 1.167613 -0.342232 -0.222284 0.470037 
500 1.700310 1.098827 -0.068227 0.475159 1.234929 -0.226087 0.277199 0.049176 0.775849 -0.396725 0.111133 -0.505472 1.303954 -0.289952 -0.254853 0.559361 
927 0.376993 0.173726 -0.015123 0.139292 0.442751 -0.012129 0.056063 -0.015649 0.022466 0.028972 0.107168 -0.207425 0.408854 -0.292726 -0.063650 0.118349 
828 1.248502 0.711947 -0.111944 0.368663 0.892309 -0.098516 0.115367 0.097460 0.482952 -0.235989 0.196879 -0.367164 0.979677 -0.375178 -0.269327 0.273310 
846 1.400915 0.709082 -0.302990 0.371496 0.949643 -0.145427 0.139248 0.159572 0.535703 -0.043642 0.108515 -0.488514 1.021144 -0.234797 -0.389182 0.369855 
594 2.137944 1.176268 -0.372974 0.564933 1.383909 -0.219392 0.274903 0.222265 0.840534 -0.138233 0.240029 -0.768609 1.537027 -0.352879 -0.550704 0.447984 
739 1.761773 0.932502 -0.359245 0.395821 1.156300 -0.194627 0.202467 0.139510 0.609109 -0.025366 0.156710 -0.665253 1.248087 -0.307386 -0.460848 0.424135 
725 1.373910 0.825145 -0.089533 0.360025 0.985735 -0.127732 0.132711 0.020640 0.514653 -0.248088 0.185481 -0.430308 1.057372 -0.335440 -0.297077 0.318551 
505 2.037638 1.333093 -0.171266 0.623070 1.386075 -0.252056 0.183410 0.124373 0.791038 -0.403202 0.330101 -0.657775 1.600172 -0.335574 -0.471142 0.414048 
731 1.765807 0.820118 -0.600540 0.426165 0.951027 -0.100381 0.228361 0.334164 0.654818 0.212992 0.161738 -0.729883 1.188329 -0.214988 -0.587870 0.309786 
97 1.801288 1.273910 0.037266 0.515241 1.412008 -0.326762 0.222718 0.058913 0.789516 -0.645437 0.094699 -0.437697 1.357262 -0.469370 -0.236892 0.596360 
869 0.978493 0.529058 -0.150272 0.268565 0.764758 -0.098854 0.062372 0.039847 0.332671 -0.049088 0.120738 -0.311948 0.733985 -0.307913 -0.214520 0.215128 
231 1.163404 0.612749 -0.313640 0.203088 2.036144 -0.080462 0.073646 -0.318572 0.077931 -0.042316 0.304484 -0.786842 0.786067 -1.321892 0.217725 0.691371 
850 0.992025 0.409367 -0.514229 0.317868 0.434695 0.006081 0.116374 0.351061 0.333946 0.351127 0.144533 -0.461417 0.730357 -0.094077 -0.476582 0.055321 
381 2.000972 1.421671 -0.067751 0.700458 1.230095 -0.164071 0.185590 0.157593 0.764467 -0.491831 0.467382 -0.469032 1.649405 -0.464288 -0.521000 0.317787 
884 0.983911 0.511558 -0.127380 0.300560 0.570759 -0.032896 0.028400 0.102801 0.272655 -0.109458 0.294873 -0.291816 0.790870 -0.316915 -0.385317 0.070194 
888 0.954480 0.389061 -0.429332 0.265277 0.384417 0.028125 0.118648 0.259718 0.312551 0.185931 0.192909 -0.381108 0.678360 -0.190917 -0.456248 0.026492 
761 1.635340 0.691200 -0.648483 0.371396 0.889423 -0.051912 0.198254 0.393818 0.634128 0.251312 0.093234 -0.711970 1.076813 -0.081989 -0.590149 0.317186 
510 1.687394 0.884940 -0.423602 0.507726 0.743216 -0.020006 0.040419 0.303089 0.423350 0.061699 0.554289 -0.529554 1.282239 -0.366372 -0.778065 -0.003385 
76 -0.219171 0.679968 0.512436 1.245031 0.356719 0.500426 1.273630 0.952019 -0.126455 0.469119 -0.462482 0.712344 2.082123 -1.636790 0.160349 0.463879 
489 -0.290629 0.905790 0.497032 1.312915 0.261944 0.533215 1.209568 0.791283 0.055651 0.697210 -0.409627 0.499237 2.015673 -1.720178 0.232589 0.456956 
23 -0.938115 1.116741 -0.152523 0.621470 0.658957 -0.444300 0.103497 0.234047 1.544295 0.207952 0.398622 -0.596550 0.854771 0.036124 0.306301 1.268682 
834 -0.634200 0.194001 -0.114613 0.782709 0.222592 0.050391 0.163036 0.054333 0.726325 0.073066 0.384452 -0.452552 0.661708 0.042664 -0.250471 0.522035 
854 -0.500889 0.158471 -0.066157 0.577533 0.160212 0.050046 0.104411 0.042511 0.587602 0.063573 0.288168 -0.420807 0.561292 0.014093 -0.097931 0.395324 
840 -0.350815 0.220715 -0.034763 0.464266 0.109355 0.078308 0.059320 0.074398 0.479433 0.110990 0.317097 -0.259060 0.483528 -0.021917 -0.032245 0.397982 
654 -0.879917 0.958873 0.183596 0.960910 0.220094 0.078764 -0.140943 0.381765 1.287014 0.193341 0.584409 -0.713193 1.125287 0.186235 -0.003701 0.926397 
656 -0.755099 0.892128 0.037711 0.777968 0.266972 0.063139 -0.075585 0.330693 1.288302 0.207395 0.381430 -0.633129 0.920276 0.264986 0.060197 0.904022 
81 -1.147978 0.128455 -0.462844 1.072415 0.333849 -0.292977 0.644876 -0.196189 1.161105 -0.092866 0.599816 -0.638736 0.878120 0.063380 -0.346028 1.120604 
662 -0.596907 0.876316 0.266885 0.716342 0.044775 0.345110 -0.301125 0.404493 0.793417 0.202394 0.397132 -0.516620 0.784848 0.173581 0.086703 0.784559 
602 -0.895061 0.703730 0.013459 0.963899 0.275826 -0.065630 0.033617 0.202016 1.257151 0.185333 0.583372 -0.592324 0.973473 0.143200 -0.035271 0.891939 
32 -0.939118 1.269423 -0.107544 0.681105 0.666380 -0.289393 -0.057292 0.460781 1.745898 0.241734 0.414496 -0.787378 1.096805 0.223371 0.426173 1.376932 
737 -0.489665 0.969814 0.003915 0.623882 0.163788 0.314089 -0.154987 0.557709 0.942689 0.253524 0.184754 -0.553928 0.847780 0.215919 0.253901 1.014452 
738 -0.816556 0.510509 0.055090 0.934599 0.081508 0.094032 0.015509 0.149459 0.932898 0.123671 0.526824 -0.544590 0.854236 0.105038 -0.162977 0.694312 
550 -0.675777 1.106620 0.163156 0.772925 0.273802 0.242269 -0.250208 0.597043 0.989481 0.342475 0.385003 -0.572170 0.867541 0.165981 0.296667 1.148774 
958 -0.345670 0.445736 0.004406 0.461610 0.166313 0.166519 -0.018751 0.231024 0.641349 0.153682 0.186352 -0.341408 0.555534 0.089817 0.068788 0.433915 
426 -0.722644 1.125154 -0.173498 0.590808 0.641197 0.279849 0.012582 0.483100 1.569054 0.155344 0.002130 -0.772674 0.914096 0.167936 0.268908 0.981790 
967 -0.099952 0.141247 0.030260 0.192872 0.072593 0.079815 -0.025811 0.126633 0.177903 0.033152 0.128240 -0.161751 0.227035 -0.000284 -0.015009 0.178235 
364 -0.720985 1.219083 -0.155760 0.585747 0.741607 0.354708 0.066382 0.612544 1.662635 0.113692 -0.047427 -0.835600 0.940949 0.172461 0.346813 0.988310 
109 -1.233997 0.532421 0.016837 1.299214 0.208523 -0.188407 0.227836 0.037419 1.306624 0.133893 0.774778 -0.755454 1.151057 0.199293 -0.474944 1.042182 
513 -0.989577 0.921410 0.005347 0.971195 0.381410 -0.091140 0.025239 0.300176 1.473669 0.211518 0.557723 -0.709790 1.066705 0.317926 -0.010907 1.092236 
1013 -0.122049 0.122376 0.067326 0.279081 0.062390 0.115033 -0.005215 0.108176 0.200156 0.040452 0.143911 -0.215328 0.288276 -0.048054 -0.075056 0.127828 
702 -0.824734 0.800096 -0.073526 0.687172 0.316696 0.088564 -0.025242 0.303070 1.297160 0.129287 0.334536 -0.671732 0.874279 0.255043 0.093567 0.855673 
324 0.382495 0.738627 -1.317166 0.945413 1.066970 0.247868 0.312185 0.500024 0.062751 -0.673477 1.132369 -0.127389 1.097083 0.693435 1.274780 0.237272 
1037 0.169952 0.341843 -0.536579 0.412683 0.395618 0.122920 0.167266 0.228619 0.070388 -0.220500 0.504315 -0.074864 0.528421 0.291965 0.561115 0.092465 
205 0.330411 0.725067 -1.336641 0.866519 1.055326 0.215024 0.338120 0.514739 0.010735 -0.573360 1.151611 -0.115950 1.007688 0.759108 1.194216 0.267011 
1040 0.083244 0.147990 -0.204028 0.182223 0.204835 0.089702 0.110110 0.083182 0.057688 -0.094697 0.223989 -0.035528 0.299371 0.079885 0.212672 0.093066 
254 0.370598 0.738987 -1.334207 0.987450 1.034987 0.289257 0.267033 0.532014 0.026767 -0.652068 1.223407 -0.127510 1.084315 0.739707 1.248154 0.237482 
211 0.358822 0.736967 -1.331479 1.000803 1.049660 0.282787 0.255115 0.537938 0.058325 -0.652327 1.174477 -0.135751 1.098891 0.762849 1.294685 0.254699 
981 0.149357 0.341404 -0.602324 0.443061 0.443633 0.120545 0.141265 0.221636 0.102059 -0.299797 0.540605 -0.037748 0.510662 0.259380 0.572106 0.117867 
452 0.450921 0.661929 -1.206390 0.862689 1.009520 0.187366 0.296056 0.521869 -0.017419 -0.782610 1.290557 -0.170363 1.167515 0.630228 1.277887 0.133833 
155 0.428835 0.708083 -1.252767 0.776703 1.024707 0.120909 0.404044 0.494592 0.036752 -0.699757 1.330715 -0.211597 1.115769 0.704413 1.275491 0.241898 
414 0.474421 0.182434 -0.488099 -0.214481 0.552959 -0.344747 0.711350 0.497749 -0.046156 -0.925274 1.291767 -1.000861 1.208258 0.205414 1.001209 -0.187557 
803 0.405773 0.316148 -0.497978 0.197785 0.398389 0.046100 0.347269 0.242512 0.010146 -0.411388 0.811187 -0.136540 0.728944 0.256751 0.784029 -0.055558 
296 0.470590 0.724921 -1.211618 0.772681 1.011799 0.157150 0.420994 0.477010 0.001067 -0.752695 1.275073 -0.178487 1.168178 0.617775 1.356436 0.168896 
880 0.293611 0.443581 -0.742117 0.503966 0.609143 0.138273 0.182294 0.243906 0.033824 -0.384690 0.677227 -0.064863 0.677811 0.340577 0.730660 0.136175 
115 0.308808 0.724407 -1.362134 1.050222 1.069500 0.256395 0.195039 0.651653 0.020028 -0.793222 1.134807 -0.032870 1.122931 0.866048 1.161796 0.063652 
566 0.371736 0.668127 -1.251946 0.904500 1.011588 0.241292 0.289460 0.535120 0.035577 -0.682508 1.144118 -0.129391 1.065296 0.689366 1.218189 0.186771 
759 0.449742 0.299706 -0.563895 0.078462 0.474218 -0.097170 0.523612 0.320902 -0.009909 -0.597425 0.993843 -0.393649 0.883669 0.253712 0.929653 -0.094616 
867 0.279049 0.511315 -0.812433 0.593382 0.694795 0.175439 0.181272 0.333632 -0.002438 -0.457532 0.794118 -0.116167 0.702131 0.411405 0.805720 0.173685 
893 0.268218 0.498081 -0.875277 0.684174 0.711700 0.140471 0.172136 0.368304 0.025528 -0.495334 0.834464 -0.058780 0.877800 0.408438 0.814225 0.137479 
27 0.176265 -0.029781 0.325810 0.253959 0.786499 0.626057 0.826167 -0.467413 1.007934 1.022248 0.842161 0.820828 2.232781 1.039338 -0.235628 0.684986 
256 0.070704 -0.171975 0.229210 0.303883 0.641771 0.709761 0.755078 -0.386758 1.121519 0.737820 0.708909 0.581048 2.095948 0.765264 -0.113783 0.612041 
449 0.111613 -0.271591 0.266600 0.318932 0.650523 0.766275 0.782163 -0.449282 1.218174 0.737822 0.773439 0.544807 2.159772 0.785820 -0.087361 0.663948 
684 0.092027 -0.233075 0.207063 0.258641 0.545933 0.610709 0.586900 -0.392575 0.988891 0.578838 0.699183 0.415092 1.686304 0.621417 -0.084379 0.463073 
68 0.117657 -0.088271 0.307472 0.215853 0.725081 0.693864 0.813222 -0.425021 1.127952 0.910175 0.812569 0.701173 2.091241 0.868460 -0.193237 0.639596 
69 0.168015 -0.082432 0.243961 0.262948 0.738105 0.668889 0.795446 -0.435747 1.059986 1.015990 0.832380 0.691001 2.144744 0.939719 -0.176527 0.627355 
774 0.010549 -0.225193 0.138914 0.187424 0.393579 0.484053 0.407568 -0.253115 0.722108 0.461113 0.486042 0.279358 1.262388 0.384348 -0.050585 0.397092 
775 0.044063 -0.182909 0.145140 0.150896 0.372570 0.438734 0.371880 -0.275860 0.640243 0.425804 0.447339 0.247900 1.162481 0.368106 -0.052378 0.297394 
777 0.015301 -0.199852 0.098931 0.234831 0.372869 0.495309 0.475219 -0.261251 0.736209 0.408651 0.507331 0.288039 1.314826 0.430706 -0.013949 0.369115 
1015 -0.000958 0.015201 0.018579 0.018003 -0.026798 0.006269 0.029879 0.015253 -0.023865 0.011131 0.000672 0.009723 0.018715 -0.007295 0.011150 -0.002250 
332 0.005992 -0.256381 0.285787 0.305111 0.633795 0.680735 0.712982 -0.418017 1.142372 0.698423 0.766699 0.571147 2.103376 0.754609 -0.110173 0.637696 
526 0.557957 -0.297593 -0.122509 0.037921 0.500890 0.516774 0.249084 -0.531375 0.791776 0.736250 0.516683 0.286469 1.362364 0.329283 -0.292381 0.479118 
527 0.068736 -0.250602 0.247668 0.338771 0.663285 0.718346 0.682503 -0.444949 1.142325 0.681963 0.749227 0.566240 2.068210 0.717909 -0.087671 0.570634 
145 0.169910 -0.094358 0.315615 0.318528 0.841139 0.796636 0.856085 -0.437560 1.198569 1.010712 0.925147 0.670036 2.392007 0.926056 -0.196094 0.731871 
914 0.052624 -0.086189 0.083993 0.067676 0.200436 0.208234 0.183824 -0.108772 0.326791 0.180431 0.210612 0.060835 0.583241 0.179101 0.033755 0.151432 
206 0.133843 -0.127114 0.220533 0.271014 0.701541 0.762823 0.752916 -0.456078 1.128605 0.907859 0.802778 0.623888 2.146978 0.839892 -0.159242 0.639889 
772 0.061763 -0.237327 0.149868 0.242690 0.446067 0.490654 0.442952 -0.295011 0.763180 0.449680 0.521310 0.310857 1.364936 0.434938 -0.056424 0.391694 
601 0.092988 -0.289432 0.243463 0.286436 0.563960 0.708253 0.649065 -0.421271 1.091146 0.617050 0.748376 0.486544 1.930218 0.648650 -0.144508 0.534050 
409 0.569815 -0.270604 -0.025901 0.044586 0.616569 0.595313 0.320676 -0.676491 0.854397 0.823416 0.650327 0.346592 1.585890 0.480697 -0.288813 0.495861 
474 0.071902 -0.249121 0.236126 0.364725 0.606213 0.714222 0.731018 -0.441314 1.160854 0.710484 0.759978 0.525174 2.085999 0.687678 -0.102034 0.623358 
411 0.490163 -0.276728 -0.028988 0.092602 0.551273 0.603481 0.264974 -0.613556 0.815824 0.767791 0.527879 0.307045 1.450981 0.435693 -0.285975 0.521538 
988 0.042214 -0.059666 -0.020507 0.078099 0.094114 0.102409 0.136578 -0.042607 0.154390 0.121382 0.089919 0.048260 0.346047 0.101320 0.009820 0.088209 
478 0.097700 -0.249541 0.256685 0.358532 0.606293 0.771871 0.702381 -0.462071 1.149637 0.717189 0.808480 0.535982 2.069010 0.726125 -0.099045 0.567702 
342 0.177875 -0.122984 0.221351 0.276805 0.706719 0.734388 0.722796 -0.410802 1.144284 0.876224 0.759850 0.573739 2.014760 0.801705 -0.148476 0.621212 
646 0.036029 -0.265077 0.182630 0.276178 0.496313 0.641866 0.608611 -0.398771 1.057243 0.632493 0.656169 0.475104 1.791389 0.606148 -0.037617 0.506281 
230 0.169092 -0.141044 0.260007 0.301116 0.744107 0.798508 0.876135 -0.504744 1.190562 0.989552 0.853690 0.633517 2.342454 0.943612 -0.170897 0.712447 
465 0.092090 -0.194003 0.290588 0.332995 0.654372 0.773451 0.727032 -0.445207 1.200305 0.747362 0.797866 0.564020 2.167325 0.760383 -0.064650 0.625809 
552 0.027720 -0.259188 0.195469 0.221610 0.569029 0.634493 0.604005 -0.400555 1.058530 0.606743 0.670321 0.501971 1.821004 0.661502 -0.083821 0.560237 
745 0.061386 -0.225757 0.177526 0.219219 0.442380 0.579267 0.523341 -0.313750 0.899400 0.539180 0.582290 0.369657 1.581679 0.532467 -0.023788 0.450404 
