1930 16
52 0.58132213 -0.31702122 -1.2242796 0.3497169 1.556204 2.2214718 0.09012857 0.94047314 -0.7839631 -1.1882168 1.266486 -1.1790783 1.3076706 -0.46463114 -0.29757822 0.12330763
410 0.820898 -0.11367748 -0.89779675 -0.9586962 1.4998055 1.9290245 -0.15739152 0.52638006 0.1926546 2.5352228 0.1585564 -0.7810611 -0.728806 0.9595571 0.06684237 -1.506085
1330 0.6356241 0.98500395 -0.8330406 -1.8009393 1.8506916 -0.22713895 1.82584 -0.096979365 -0.056731597 -0.028509842 0.061272494 -1.1969783 0.5031166 -0.25141153 -0.95998067 -0.23136474
998 0.8585324 -0.0887931 -0.96899396 -1.0735124 1.5347608 1.9580007 -0.1882535 0.56026846 0.18709917 2.5412636 0.21372873 -0.7686726 -0.6992202 0.977902 0.08702186 -1.3930663
1131 0.63471544 1.0095944 -0.7477712 -1.8365715 1.8467671 -0.27844784 1.9029636 -0.11774654 -0.028857375 -0.04353812 -0.057904277 -1.1631702 0.55883414 -0.09947215 -0.9465426 -0.24004947
1425 0.7279137 -0.19636129 -0.9059688 -0.9506101 1.5032225 1.8719085 -0.104863144 0.5152786 0.17045707 2.5287952 0.095533706 -0.72562414 -0.70085144 0.98708355 0.11722481 -1.4273096
1353 0.83695614 -0.17570448 -0.90650785 -1.1460783 1.343269 2.1256945 -0.1842374 0.3407947 0.27210733 2.3674304 -0.21869777 -0.9038848 -0.76797915 1.0326389 0.13797721 -1.2794064
1311 0.56025577 -0.49568728 -1.3260796 0.5028609 1.6115416 2.5570898 0.13205601 1.1794869 -0.7517213 -1.4218901 1.4764726 -1.3603281 1.3744594 -0.4010918 -0.25769544 0.19268832
1405 0.6095205 -0.3513176 -1.2492685 0.5993391 1.6544302 2.4748614 0.18980956 1.2937677 -0.87143826 -1.3273699 1.3782505 -1.2333972 1.416577 -0.46972498 -0.2538484 0.26704493
1413 1.2274944 0.2692633 0.8031735 -0.49129856 -1.0095887 0.437745 1.3084924 1.2752857 0.47227782 0.13571331 0.35528177 -1.4082623 0.33949873 0.23211989 0.72990215 0.5930324
1319 0.6012604 0.88502675 -0.8629783 -1.584772 1.815106 -0.03720819 1.8445268 -0.028196722 -0.23360871 -0.019397726 0.21087626 -1.140383 0.36095166 -0.3291629 -1.1169387 -0.050433856
1368 1.1352963 0.16630821 0.67617375 0.18246482 0.7527906 -0.4999082 -0.75537103 0.52827793 -0.6331677 -0.5648965 -0.32238036 -1.6642056 -1.0932164 0.1232613 -0.5130069 -0.31819215
1215 0.04560044 0.11015503 0.9500797 0.80475354 1.8349118 0.39027366 -0.10325401 -0.22114818 2.2406595 -0.23084642 -1.6710985 -1.5546423 0.6466539 -0.012907298 -0.26013777 -0.58768415
162 0.77824885 -0.041341234 -1.1021993 -1.1268139 1.1921178 2.4348395 -0.33226845 0.28459275 0.27561897 2.185941 -0.38351274 -1.070915 -0.6736008 1.0560566 0.12589745 -1.4464928
907 0.92118025 -0.10755143 -0.8902687 -1.0120437 1.6332592 1.8934346 -0.072487704 0.61873394 0.2262799 2.681448 0.21005544 -0.77998185 -0.7436121 0.9309702 0.14581962 -1.3381488
882 -1.4598397 0.9458876 1.2112796 -1.3292986 0.88625646 0.48494655 -0.0018412789 -0.3518811 0.17837094 -0.98399204 1.3043162 -1.6211381 0.056683145 0.49486062 0.31154284 -0.43305215
890 0.061411567 -0.03706779 0.9900484 0.74037755 1.7314222 0.39904842 -0.1826964 -0.13072045 2.2399507 -0.16065873 -1.5229332 -1.574053 0.71493685 -0.24560754 -0.41433638 -0.6944351
1066 1.1258898 -0.048050184 0.38427004 0.26985723 0.21330304 -0.28251168 -1.0180848 1.4110184 -0.85352534 -0.7854011 0.17005338 -1.557244 -0.55984575 0.5025945 -0.9576427 -1.8356003
1718 0.73319745 -0.18656965 -0.9311077 -1.0986615 1.2823061 2.320367 -0.1774344 0.24313004 0.3341215 2.3417063 -0.4167392 -0.9936617 -0.719353 1.191498 0.042349953 -1.2586597
1317 -0.43215302 0.35523808 -0.30375367 0.13729416 0.84683776 -0.05275752 0.73267776 -0.060085583 -1.8894165 0.20110613 -1.8814405 -1.8985965 0.4114387 0.77245635 2.6009772 -0.51177704
1345 1.2246811 0.4277369 0.8303327 -0.48184872 -0.97511804 0.551576 1.4244599 1.1399097 0.48463595 0.09308968 0.26437867 -1.4528633 0.2060224 0.258986 0.79382634 0.6884548
373 -0.7674842 0.40020886 1.4677627 0.9641946 1.5466752 -0.62467355 2.0717652 0.5783206 -0.8475686 2.457439 0.71203846 -1.4530741 -0.4320482 -1.8503033 -0.86565113 -0.89901245
574 -1.4901472 1.0871894 1.2520175 -1.2913232 1.0092173 0.4321795 -0.032225884 -0.2688003 0.23090331 -0.9318103 1.3998238 -1.5882239 0.026848514 0.48566413 0.28227988 -0.5063961
1709 1.1328423 0.8301801 0.35061616 0.8638781 0.9442062 -0.6783063 -0.43726957 0.81811947 -0.807697 -0.5819332 -0.76915187 -1.6361328 -0.93633854 0.16195069 -0.85603875 -0.0042386497
940 0.5268719 1.3177606 -0.8134873 0.73781586 -0.294217 -0.17285022 0.38584438 -0.068207026 0.8519304 0.3813785 0.9646311 -1.472923 0.08546518 1.7745085 -0.45902896 -0.95275676
1246 -1.4300578 1.0856009 1.0993375 -1.0679868 0.9337477 0.2642644 -0.09855325 -0.11667628 0.22357582 -0.80700403 1.2477449 -1.3087134 0.2458856 0.5764461 0.2504981 -0.5242201
53 0.17145276 1.0447248 -1.1656951 0.96262664 -0.37009284 -0.15032862 0.51790285 0.26056653 1.3888184 0.03922065 0.86371964 -1.4487029 -0.1681818 1.5344307 -0.27483532 -1.5118487
1253 -0.025966233 0.23309213 0.83466554 0.8065994 1.868348 0.38003576 -0.005440762 -0.2188189 2.325112 -0.35460734 -1.8380456 -1.5923871 0.63964945 -0.030283853 -0.2543183 -0.67836
715 -0.040388025 0.24108091 0.9431988 0.7956589 1.8900008 0.3598416 -0.03957499 -0.24310291 2.2489517 -0.35143337 -1.7484727 -1.56885 0.67032915 -0.015985508 -0.2509374 -0.58151966
524 0.58277965 0.79947287 -0.7862928 -1.5805526 1.7921963 0.0032252064 1.8445846 -0.102635786 -0.2544713 -0.020295504 0.13253869 -1.1622231 0.37454942 -0.3237427 -1.1281334 0.011554543
337 0.52116376 -0.42425546 -1.2080529 0.56900156 1.6742405 2.4591937 0.11972414 1.3497148 -0.85037893 -1.4128144 1.3828073 -1.2200758 1.3801107 -0.49207422 -0.24658725 0.20305839
1518 0.6261933 0.9769469 -0.78728795 -1.7192308 1.8041481 -0.20216219 1.9434545 -0.035791993 -0.20135492 -0.018849943 0.1292371 -1.1725934 0.4726102 -0.27475527 -1.0333544 -0.16389504
1044 0.9938695 1.2070591 0.48998636 0.8777207 1.095962 -0.4874201 -0.020093614 0.62990564 -1.0572035 -0.7432027 -0.9299851 -1.6572784 -0.84755766 0.07766483 -0.8938995 0.090268366
1908 0.48619017 0.04950842 1.0776458 0.6030634 1.6468054 0.5974933 -0.56299126 0.1706645 1.8793995 0.4772375 -1.2228447 -1.4550062 0.95596874 -0.121493496 -0.6438618 0.101904765
750 -0.6406609 -0.7416535 -0.9632403 1.7081231 0.05154513 -0.4988675 0.2511306 0.03165713 0.24630016 0.80527574 1.278311 -2.6375074 0.029502857 0.054578584 -0.23229076 -0.11317704
506 1.081258 0.109299235 0.19162586 0.37795976 0.14712398 -0.25682813 -0.8535364 1.4883558 -1.0177966 -0.7653995 -0.052028365 -1.4728065 -0.42003772 0.51319605 -1.1404772 -1.5919029
399 0.11063494 1.0755731 -1.2072728 0.9434714 -0.3435026 -0.12227519 0.66392773 0.20925413 1.411632 0.0056554293 0.8933157 -1.4484799 -0.11454742 1.6365576 -0.2590702 -1.4856472
1440 0.20057565 1.0613073 -1.0909834 0.8797539 -0.3214521 -0.2503313 0.46109465 0.23744106 1.3114426 0.0626643 0.94597155 -1.4009736 -0.09508417 1.5092244 -0.31364086 -1.342179
350 0.63656825 0.9627723 -0.74149126 -1.7698222 1.9189652 -0.19695127 1.9694593 0.016110068 -0.20145515 0.04044571 0.13208787 -1.1557069 0.44181412 -0.2599703 -1.058026 -0.09325812
1864 -0.33055076 -0.33188024 -1.1379557 1.621203 -0.31849173 -0.49130955 0.3508624 0.21959293 0.09496809 0.7612721 1.012483 -2.2963345 -0.18397497 0.5500901 -0.5780472 -0.08884245
913 1.079979 -0.24465854 0.7782487 -0.04406256 0.5135551 -0.09797607 -0.9329351 0.8383449 -0.8143099 -0.6092161 0.07373185 -1.6812763 -1.0618057 0.42124918 -0.6748774 -1.4813557
1318 0.026235716 -0.23901437 -1.7106787 -1.5089816 1.465082 -0.28728878 2.069948 0.084488414 0.27564585 -0.72231185 -1.3385758 -1.9615861 -0.5170462 0.5116347 -1.0642661 0.30847585
999 -0.7910671 0.39992812 1.5082177 0.9022964 1.4702618 -0.5544587 2.0036848 0.5074504 -0.7589665 2.3976865 0.6374541 -1.4330565 -0.44250757 -1.8127366 -0.8883349 -0.87424934
1716 -0.31424972 0.42197445 -0.28794962 -0.08366902 0.80535525 -0.18500708 0.28662565 -0.051880628 -1.7053629 0.33031693 -1.4449753 -1.7676803 0.57018614 0.30023497 2.4165146 -0.7903386
243 0.13221247 -0.074091785 -1.5179876 -1.3669782 1.3603412 -0.19979575 1.8507893 0.002393371 0.1760071 -0.5638684 -0.9526877 -1.6519305 -0.4361588 0.14799625 -0.9859103 0.25715244
420 1.2160769 0.10649352 0.5064634 0.22982763 0.5626583 -0.5057076 -0.82392466 0.88863677 -0.7378171 -0.6170733 -0.300151 -1.6322021 -1.0020804 0.283941 -0.68305457 -0.7498455
158 0.76455414 -0.100210786 -0.9080541 -1.1687634 1.3244494 2.3028848 -0.11641071 0.23754433 0.3368965 2.3738947 -0.43977404 -1.0309725 -0.77137625 1.0836202 0.060466032 -1.2816101
1452 -0.5304679 0.3819683 -0.3424064 0.1125292 0.84528667 -0.08304604 0.67802644 -0.050013635 -1.8189783 0.17053147 -1.8549066 -1.8783678 0.44027182 0.7496486 2.5645955 -0.57870156
575 1.1322252 -0.24234053 1.0070796 0.005419032 0.8914662 -0.14731485 -0.9700972 0.50380135 -0.76745117 -0.5735523 -0.068283215 -1.8876913 -1.2950794 0.24479225 -0.42604253 -0.912252
1659 -0.72956043 0.40392882 1.4821546 1.0243675 1.509514 -0.60034305 2.0688496 0.58112854 -0.8051882 2.4844837 0.66661286 -1.4404672 -0.45297948 -1.8840833 -0.92229223 -0.93659353
581 0.9665585 -0.3309087 1.1025863 -0.03480056 0.8479223 -0.0034126567 -0.8188902 0.44650975 -0.90518713 -0.62158394 -0.07782947 -1.9662921 -1.3282803 0.33688274 -0.48277473 -0.9646262
148 1.1959457 -0.05812811 1.0674586 -0.51069945 -1.144766 0.6368855 1.5210243 1.1509773 0.3714568 0.031392403 0.2745323 -1.5258594 0.5120321 0.22999384 0.46047768 0.22317529
1598 0.1714864 1.22742 -0.74681556 -0.3259019 0.733805 -0.8093316 -1.0289911 0.44849327 -1.7926892 0.6414665 -0.44144166 -2.0576494 1.0667794 -0.84369326 2.0742798 -1.5934818
452 -0.5158549 -0.5509665 -0.92155486 1.5731994 -0.124380685 -0.40955326 0.29947108 0.14640144 0.061591104 0.72824806 1.0574335 -2.2780106 -0.04408626 0.16969886 -0.4979686 -0.0599592
1536 0.0904016 -0.34846044 -1.7119204 -1.4591753 1.4353006 -0.2849692 2.1711814 0.104227275 0.32527855 -0.75818926 -1.411344 -2.0412338 -0.5677392 0.47672853 -0.9387526 0.39425775
1355 1.1307645 0.7218169 0.2816963 0.84763455 0.8071997 -0.6282779 -0.43943524 0.8177211 -0.8103072 -0.639311 -0.8051496 -1.6996312 -0.827177 0.1678831 -0.88514894 -0.06109976
1644 0.030185552 0.9711549 -0.75421125 -0.24607971 0.6434321 -0.7258581 -0.79217756 0.3347711 -1.7144269 0.5483276 -0.46774575 -1.927669 0.9184919 -0.6479484 2.0306869 -1.5585468
1508 -0.767705 0.47164425 1.4434736 0.99907523 1.542351 -0.5894726 2.1046915 0.5940545 -0.7992003 2.431612 0.71255904 -1.4195504 -0.5092282 -1.8981797 -0.8612933 -0.8414247
771 0.7051119 -0.20550908 -0.9941943 -1.1410003 1.1790488 2.4143174 -0.21459863 0.2651776 0.2851565 2.3178942 -0.4881544 -1.048711 -0.7535507 1.1831992 0.026820084 -1.3251984
1516 0.6692177 1.0653796 -0.69179624 -1.8322833 1.9048955 -0.19915138 1.9367594 0.0028611466 -0.19355379 0.053027015 0.08266966 -1.1027256 0.60689694 -0.14086065 -0.9879793 -0.2468387
379 -0.04211239 -0.55545306 0.3473922 1.1533477 0.76759934 -0.07225095 0.24990448 -0.9382378 -0.1037435 1.353489 1.5050277 -2.5130317 1.1051462 0.39876047 0.73071235 0.37767234
1537 1.0874633 0.58510554 0.4897175 0.5789645 0.8543712 -0.6294319 -0.665538 0.7692389 -0.8541737 -0.4943296 -0.6320671 -1.6573212 -1.0980955 0.20293005 -0.7994366 -0.153163
761 -0.08414445 -0.99792147 0.43329415 -0.35877502 -0.8167055 0.17982888 0.7656918 1.7303119 0.49864116 0.05456873 -0.66832423 -1.5212065 1.1997446 -0.3268622 0.109732375 -0.7997193
774 0.50947094 1.3533803 -0.8373764 0.7402141 -0.3844778 -0.1543126 0.26688766 -0.10397979 0.53286517 0.6477456 0.9861234 -1.6214248 0.018786194 1.8688877 -0.6052428 -0.731965
828 1.2917042 0.04311812 1.0696791 -0.50682193 -1.1539696 0.69485354 1.5703163 1.1857444 0.43475622 0.06123345 0.202504 -1.5466413 0.57715213 0.24137908 0.4403892 0.23278105
864 -0.64062804 -0.68339217 -1.1579313 1.7925531 -0.00094893604 -0.4916411 0.32466054 0.1548921 0.2646309 0.75706136 1.1953175 -2.5939279 -0.0034585288 0.15241492 -0.39019772 -0.087186635
312 0.030702477 -0.16275388 -1.6031052 -1.5550983 1.4894847 -0.25433606 2.0721328 -0.010224422 0.25029743 -0.7009245 -1.2861862 -1.8381256 -0.45698178 0.60782444 -0.97632724 0.24538209
716 0.33591345 1.0163376 -0.79505444 0.81554264 -0.4092709 -0.12594016 0.1701597 -0.29235077 0.27789274 0.92471457 0.9282055 -1.8298365 -0.030245228 1.7828094 -0.60693 -0.44586095
1594 0.71733797 -0.033908296 -1.0795754 -0.9519961 1.1921294 2.2799473 -0.39628434 0.3912485 0.22765307 2.1686366 -0.18444155 -0.93234396 -0.6032012 1.0900605 0.058348347 -1.5156579
848 -0.5555858 -0.5508567 -1.1578468 1.8289717 -0.16710463 -0.4610849 0.40364972 0.19261265 0.087045625 0.708148 1.1329837 -2.5307326 -0.09296385 0.4353152 -0.42882857 -0.056406207
679 0.41255707 0.7711049 -0.8683521 -1.5686941 1.716706 0.008425073 1.892085 -0.098711796 -0.17472464 -0.04728315 -0.035448514 -1.1172407 0.30570042 -0.16928853 -1.0706542 -0.05454374
63 -0.7792704 0.3868663 1.5220901 1.0571464 1.4739752 -0.63365746 2.064233 0.5414796 -0.84693533 2.4382133 0.70812356 -1.4850819 -0.43867648 -1.7905039 -0.83319086 -0.95214325
386 -1.1709682 -0.70411325 0.81816095 0.10742029 -0.7441022 1.0596702 1.4093608 1.7328719 -0.44983804 0.26592153 -1.0591191 -1.1405382 1.1385545 0.2357759 -0.34382492 -1.6572827
901 -0.6681065 0.45340824 1.4734654 0.96070814 1.489327 -0.5701413 2.0476143 0.5632181 -0.8504193 2.4348922 0.7280986 -1.4241999 -0.45004177 -1.8405771 -0.89368105 -0.81592274
1686 -0.21189378 -0.055317726 0.8852229 0.9379901 1.9470044 0.39460126 -0.1768997 -0.043597218 2.6008892 -0.38356534 -1.546958 -1.679635 0.5985478 -0.36346993 -0.49577922 -1.0777076
586 -0.8097161 0.1499301 0.6885506 -0.12847665 1.0273483 0.61885273 0.23092516 1.6135347 0.6680367 -0.1745791 0.7098143 -0.80610985 -1.5650138 0.2058627 1.040332 -0.022666
1889 0.67352825 -0.013026361 -1.1335185 -0.9585276 1.1845907 2.3324366 -0.37974384 0.26978552 0.2713627 2.190037 -0.23031658 -0.96346015 -0.55329496 1.1013421 0.06732437 -1.5505964
1661 -0.81770223 -0.24829267 0.32967114 -0.6503925 0.8887649 0.33740845 -0.5923638 1.1666754 -0.23576729 1.0694321 -0.8155991 -1.2103052 1.14159 0.68171906 -0.9918729 1.1672955
1788 1.0448513 -0.23420063 1.0348431 0.006433164 0.9109739 -0.10996674 -0.7381068 0.4053132 -0.94360244 -0.59584796 -0.20069094 -1.977673 -1.3574777 0.25028497 -0.5000816 -0.73426235
69 0.64862627 -0.47555798 -1.2428129 0.39654094 1.5516853 2.3695612 -0.01680582 1.156618 -0.9997561 -1.2005385 1.4294862 -1.4131006 1.5006249 -0.46587127 -0.41546786 0.42283028
775 0.4921463 -0.02408086 1.1775873 0.62288094 1.6392912 0.6107926 -0.5882507 0.27577806 1.9362551 0.59683126 -1.1583399 -1.5374336 0.95738244 -0.28341874 -0.7387363 0.014056503
1495 1.0544667 -0.3590363 1.0757034 0.023921851 1.0044197 -0.085057065 -0.8348387 0.422807 -0.8499427 -0.6146448 -0.1741015 -2.0884917 -1.4168196 0.34790286 -0.4303499 -0.93432885
221 0.3742164 -0.24515034 1.0964179 0.2772889 1.2896063 0.51665556 -0.5430456 0.4092414 1.4227657 0.80049103 -0.9222961 -1.2926923 0.8437489 -0.3354184 -0.71334577 0.12511067
918 -0.8080528 0.35492045 1.3899885 0.9962097 1.5705409 -0.67077917 2.1557145 0.60328555 -0.8335626 2.3734617 0.7594124 -1.4708235 -0.549845 -1.7680473 -0.9056088 -0.79717356
948 -0.95888895 -0.86001474 0.74488014 -0.06594928 -0.7038551 0.80743045 1.168631 1.6350766 -0.23289423 0.21769401 -1.0969597 -1.2942485 1.1046827 0.0012479783 -0.23710442 -1.4698198
1084 -1.8183026 1.2468911 0.6412843 -0.28854924 -1.1815618 1.3240888 -1.2341412 -0.047826875 0.12330804 0.028203307 -0.94740725 -3.0833807 -0.25147587 -0.3780244 -1.2590419 1.1824292
1689 -0.29811642 -0.52230465 -0.82456285 1.5138075 -0.110857084 -0.4018827 0.31598395 -0.34645194 -0.015861446 0.9917465 1.1131109 -2.66744 0.08746281 0.5637083 -0.2329026 0.1793044
225 -1.1459618 -0.6944674 0.81466484 0.12320172 -0.7251149 1.0534571 1.4522334 1.7214152 -0.52556884 0.29107407 -1.1117398 -1.1221102 1.0657703 0.23241737 -0.37170818 -1.6475474
14 1.1410631 -0.18428661 0.7030395 -0.046754796 0.45210806 -0.23323718 -0.991674 1.0142806 -0.87698597 -0.61033726 0.2411516 -1.7097332 -0.9445454 0.44997302 -0.9027938 -1.7254422
1605 0.26298332 1.2851812 -0.786676 -0.48514074 0.6816951 -0.8092275 -1.1004323 0.5146733 -1.979688 0.8052625 -0.31125036 -2.1484768 1.237541 -0.8603199 2.015548 -1.653017
850 -0.08265758 -0.98792595 0.06833389 -0.53896064 -0.6023357 -0.17607953 0.27222428 1.8717129 0.642724 0.17268069 -0.70387244 -1.5240821 1.2301918 -0.3537957 0.04665202 -0.527724
1233 -0.27900693 -0.68543065 0.7535857 -0.5176475 -0.5358029 0.08040246 0.26812658 1.4949363 0.44696528 0.4272115 -0.78231186 -1.4255363 1.0994986 -0.5931889 -0.08716234 -0.745211
1798 0.7370106 -0.15858957 -0.95235795 -0.93648046 1.4526695 1.9728422 -0.22164287 0.5643961 0.10849581 2.5087135 0.2688028 -0.7269879 -0.50266325 1.037447 0.040088028 -1.6140431
507 -0.685171 0.005309846 0.31802034 0.2785972 0.6076919 0.7565782 0.7849095 1.678279 0.2807484 -0.1056175 0.5970998 -1.2002825 -1.9398183 0.35682324 1.2541777 0.7847073
1465 1.0547445 0.022199603 0.37354514 0.15268643 0.17863044 -0.23486896 -0.8464164 1.4897019 -1.1476644 -0.7757256 0.14306909 -1.5256605 -0.42206994 0.6119752 -1.1655576 -1.9658692
1049 0.6672679 -0.45255652 -1.4381622 0.3609541 1.6220359 2.5569935 0.19186012 0.9828758 -0.60177904 -1.4727792 1.5263156 -1.5206128 1.4774083 -0.418789 -0.249574 0.096457385
316 -0.7980357 0.4366593 1.5157288 1.0095668 1.5158882 -0.6168955 2.1874342 0.4936929 -0.83361804 2.3343136 0.6591776 -1.4585538 -0.5431402 -1.8379196 -0.84472156 -0.8726496
969 1.0259807 0.12682092 0.167037 0.23919174 0.12650128 -0.17927074 -0.83019024 1.5543414 -1.0926819 -0.91431296 0.110910036 -1.4882675 -0.361467 0.6638984 -1.1411556 -1.851645
224 1.1686552 0.16793576 0.22758347 0.39747974 0.23863608 -0.41442555 -0.8908688 1.2121329 -0.7598144 -0.8025026 -0.12954797 -1.48753 -0.5635873 0.36385182 -0.87782985 -1.2877171
1611 -0.3363774 -0.30571035 0.6775773 -0.6850744 0.59726983 0.3638677 -0.585328 0.90326416 -0.114052534 1.1330999 -0.72888315 -1.1758151 1.0074421 0.37092134 -0.9734218 0.811012
1229 -0.30383694 -0.6925206 0.70674765 -0.4993994 -0.5198662 0.055999972 0.23435372 1.4068595 0.51316035 0.41420653 -0.73236954 -1.3640006 1.0474949 -0.5917994 -0.008348078 -0.6557453
1764 -0.42986706 -0.5369326 -0.9652903 1.625828 -0.12830712 -0.48808935 0.29728255 0.014518308 0.18940681 0.7486893 1.1519495 -2.5055783 -0.08383429 0.2339375 -0.37616634 -0.040160116
1838 1.2182587 0.380682 0.86845446 -0.40555286 -1.0421989 0.58633167 1.5888432 1.0230577 0.4989625 0.053081702 0.32056013 -1.5692768 0.33254895 0.35281965 0.78072774 0.6564667
672 -1.8275694 1.3909653 0.6399309 -0.33595195 -1.1714306 1.3688098 -1.2511768 -0.11526404 0.13009813 0.03452164 -1.0135518 -3.0827243 -0.2816971 -0.2847154 -1.2620847 1.173614
1811 -1.3285286 0.75082415 1.1128035 -1.4412724 0.77009255 0.5545836 -0.009373514 -0.26832938 0.46366286 -1.0069443 1.319415 -1.7706509 -0.19257228 0.3288548 0.5307586 -0.32607433
421 -1.731745 0.89243186 1.0039377 -0.9849039 0.8462361 0.30366537 0.17309038 -0.19076124 0.0010787292 -0.91620195 0.958861 -1.340238 0.35496104 0.8497662 0.21281883 -0.42619845
98 -0.6895432 0.5926989 -0.007959639 -1.0351784 0.41095978 -0.88656646 -0.3730647 2.3374536 0.58281 0.34915584 0.36796853 -0.6231231 0.12669234 0.33233735 -0.0069598476 0.12475315
1835 -0.5604711 -0.72298044 -0.9650714 1.7880288 0.14908062 -0.47914788 0.23055558 0.03154045 0.32907167 0.7361089 1.271053 -2.6617095 -0.009968764 0.0401737 -0.2234917 -0.15880668
1276 -0.5639493 -0.71941817 -0.8030749 1.613852 0.37810454 -0.49642137 0.053073082 -0.13514335 0.20997526 0.8637717 1.388374 -2.594724 0.23653467 -0.07027367 0.012947905 -0.079422526
1550 1.1917813 -0.20105341 1.227747 -0.47019643 -1.2152836 0.7206423 1.5880268 1.1989061 0.4077065 0.097636245 0.2882903 -1.6367638 0.5542637 0.2163496 0.32652754 0.0368529
1651 -0.5294835 -0.7471368 -0.58958286 1.5776848 0.58275 -0.32867128 -0.05761435 -0.27890489 0.245486 0.85017407 1.5473261 -2.58289 0.4824862 -0.10337015 0.21809623 -0.09104629
307 0.744195 1.0313029 -0.7819294 -1.8909253 1.9564884 -0.34107903 1.9276567 0.031772546 -0.059372656 -0.009317633 -0.074590206 -1.1255177 0.5419879 -0.16814646 -0.8883201 -0.25164858
987 -0.031063102 -0.32194683 0.6058122 -0.8065075 -0.08529521 -0.13108777 -0.307003 1.1876711 0.5806037 0.85022426 -0.4198794 -1.1917408 0.84413636 -0.51056653 -0.3035384 -0.11332668
1021 0.103349164 1.0714148 -1.1360939 0.8693585 -0.3507828 -0.035151888 0.9791302 0.2571128 1.8780909 -0.26231667 0.7470305 -1.4715575 -0.1743241 1.5717951 0.017791057 -1.9903647
902 -1.498601 0.5307316 0.1838729 -1.0011407 0.57908124 -0.9447895 -0.1387537 1.34422 0.3779175 0.20592421 0.10265583 -0.8323531 0.40049782 0.9718145 -0.16424005 0.1594678
659 1.0931736 0.508062 0.2164842 0.8292372 0.64574516 -0.4732281 -0.4906497 0.95753306 -0.9526086 -0.63600993 -0.7709521 -1.6535205 -0.94466734 0.26094207 -0.8113829 -0.19993266
898 -0.7217124 0.3835534 1.517681 0.9820662 1.4950893 -0.52307963 2.0499954 0.58255625 -0.79804903 2.4091628 0.6739914 -1.4049054 -0.42318094 -1.8479025 -0.84020543 -0.9168345
1519 -0.75285053 0.42779896 1.4468755 0.8796647 1.5893276 -0.598396 2.0600543 0.5204762 -0.8241459 2.4129345 0.65129644 -1.392673 -0.49854997 -1.8077356 -0.79066217 -0.86497986
1375 0.02739553 1.068807 -0.6911679 -0.18583676 0.7094121 -0.70401615 -0.79996693 0.3551248 -1.6703426 0.5284517 -0.48559824 -1.9763464 0.9651135 -0.77113265 2.1698585 -1.6639864
226 0.23816468 1.3276825 -0.81806344 -0.42252082 0.7190551 -0.8050708 -1.0778427 0.47939363 -1.874182 0.79213744 -0.33645087 -2.1837935 1.2242415 -0.91336024 2.1674385 -1.7933182
1870 0.8041677 0.2115245 0.37816733 -0.15442061 -0.44423646 0.21430084 1.0124217 1.3852901 0.40885234 -0.02183862 0.3554492 -1.2252083 0.24541685 0.43081948 1.0575049 1.3083068
1392 0.97062916 -0.2323932 0.7575503 0.13586374 0.6250122 -0.10675652 -0.66589564 0.7554372 -1.0972235 -0.54850626 -0.2442957 -1.6495124 -1.0872712 0.35678053 -0.7201194 -1.0329744
469 -0.17009453 0.5755749 -1.3282633 1.1970155 -0.372924 -0.020446144 0.7959443 0.41415128 1.6244094 -0.22981036 0.6980719 -1.5479674 -0.34303555 1.2377009 -0.08014649 -1.7424641
154 -0.45474625 -0.7514889 -0.4289027 1.4505559 0.5691653 -0.26409495 0.06502216 -0.43008345 0.21908425 0.9482175 1.4468578 -2.5181174 0.5068149 -0.08680533 0.30683434 0.01616676
1512 0.400295 -0.2112312 1.1644653 -0.058747943 1.0042137 0.4726536 -0.32267243 0.14152679 1.1371057 0.71990174 -1.0354542 -1.2298675 0.6937627 -0.18766308 -0.45516202 0.29749858
1480 -0.23517671 -0.7322802 0.66892815 -0.47617096 -0.5976553 0.018876266 0.27800328 1.5021323 0.52505213 0.4157307 -0.8609839 -1.4710209 1.1696829 -0.5402996 -0.11305445 -0.7845316
824 0.55763537 1.4198188 -0.5056612 0.7311088 -0.3542178 0.1891633 0.4407275 -0.2704491 0.3228956 0.8920295 0.9115341 -1.6340072 -0.05342614 2.0619245 -0.560266 -0.7067961
325 1.2292767 -0.0780806 0.91015154 -0.60337716 -1.0893493 0.56712675 1.2710766 1.3176899 0.5698448 0.12389743 0.28094742 -1.4538689 0.5145375 0.0023461608 0.39218205 0.17118408
1878 -1.8235753 1.0827708 0.61683017 -0.29137394 -1.2188317 1.2240591 -1.2266212 -0.11725535 0.087016135 0.052170966 -0.99732214 -3.1310627 -0.21514241 -0.2825566 -1.3190168 1.1784302
697 1.0112897 0.1265963 0.25226706 0.28229612 0.12309905 -0.13938144 -0.8425012 1.5825149 -1.1245741 -0.8293402 0.06155934 -1.5177755 -0.37104273 0.6847899 -1.2660816 -1.9952404
157 -0.55483484 -0.9384576 0.5061086 -0.300629 -0.71157956 0.26796728 0.7950116 1.6228119 0.30670378 0.1173732 -0.9266284 -1.4428359 1.2309921 -0.34378222 -0.018446093 -1.1414692
207 -0.18926367 3.6718833 -0.5680952 0.8642476 0.06045749 1.1606909 -0.38453797 1.301372 1.2172797 1.0644256 -0.5083286 -1.2328991 0.6416719 -1.0995095 0.41264287 0.27276608
1403 -1.1188754 0.75890756 1.0968677 -1.3310633 0.76819867 0.666104 0.04578827 -0.3056871 0.46332368 -0.9867098 1.3053055 -1.6259927 -0.40002906 0.22806408 0.5653038 -0.31506404
1766 -1.2897091 -0.31399292 0.3289158 -0.49669287 1.0513858 0.03245887 -0.00010531784 1.0407436 0.7959202 -0.48938915 0.79770815 -0.9297246 -0.5157857 0.6385783 0.9416891 -0.15281971
892 0.5551767 -0.38359728 -1.170076 0.43581542 1.6581655 2.4008064 -0.011944414 1.1508007 -1.0164444 -1.1325856 1.3458645 -1.3162311 1.4242713 -0.441215 -0.46472496 0.49787268
830 0.5313121 0.7610352 -0.93909734 -1.5174049 1.8043548 0.059024908 1.9292679 -0.08210563 -0.19654854 -0.068883345 0.19809507 -1.2128192 0.31826687 -0.27112842 -1.1952866 -0.020561982
227 0.98932 0.7721355 0.097336434 0.92523587 0.6527923 -0.3480788 -0.3441276 1.044812 -1.2040379 -0.7754949 -0.7256783 -1.5709649 -0.62147135 0.27790156 -1.0616302 -0.064607754
108 1.1893458 -0.12793772 1.0211558 -0.57418656 -1.1989832 0.6175566 1.3970383 1.3248308 0.46386245 0.16648538 0.29540873 -1.524711 0.57816607 0.080872476 0.32870573 0.11351117
714 -0.18793488 0.034275133 0.83979166 0.92857516 1.988348 0.4335524 -0.0093396595 -0.12140434 2.5362 -0.4752235 -1.7399607 -1.6351551 0.61723185 -0.24005964 -0.3201813 -0.9765895
843 0.44971472 0.08644338 1.0752658 0.5916221 1.6177199 0.41080064 -0.35422885 0.07332158 2.084039 0.27753237 -1.2679275 -1.4358425 0.8933347 -0.21890007 -0.53851455 -0.18032539
1389 -1.1264105 0.7512802 1.0902668 -1.4159179 0.6764456 0.7695745 0.030241277 -0.23012662 0.46001884 -0.9558325 1.3732545 -1.6431941 -0.4493534 0.267788 0.5706111 -0.30823973
1338 1.0119652 -0.31585866 0.90910167 -0.10186691 0.51471776 -0.010893978 -0.94465065 0.81698966 -0.8916686 -0.57363397 0.2438821 -1.7690946 -1.0674478 0.44257465 -0.71628964 -1.757993
12 -0.08776393 -0.3333473 0.6112638 -0.8505073 -0.04256622 -0.1355042 -0.3179609 1.1592851 0.49673554 0.8917544 -0.41977033 -1.1615028 0.79078525 -0.50989395 -0.39639 0.018791396
357 1.0307819 -0.10461816 0.9743722 0.19105463 1.0221833 -0.22008477 -0.6918432 0.44589004 -1.0547526 -0.50392514 -0.2617411 -1.9184166 -1.3019087 0.24837749 -0.5472725 -0.48086596
667 -0.38530192 0.3626656 -0.3238734 0.0916865 0.8690857 0.052305464 0.63326204 -0.19276169 -1.970314 0.24818277 -1.9941546 -1.9928901 0.41293874 0.923931 2.604648 -0.54330075
1588 1.0465137 -0.23550765 0.82432187 0.1336965 0.7416265 -0.19513534 -0.77353936 0.61233455 -0.9735243 -0.5394086 -0.16562353 -1.8691822 -1.2145374 0.31074402 -0.6412216 -0.6847129
23 1.1248819 -0.1063557 1.1616408 -0.39651042 -1.1540263 0.7612214 1.664446 1.1083834 0.33446318 -0.02485447 0.29748186 -1.4439851 0.5608174 0.3092014 0.26099935 -0.0959978
1443 0.93062025 -0.36240733 0.9725164 -0.084861375 0.57602453 -0.03803476 -0.8882083 0.662825 -0.89840627 -0.5711658 0.058623344 -1.7579304 -1.1755956 0.47740182 -0.6028132 -1.4174815
645 -0.01234048 -0.32008624 -0.5646788 1.1442199 -0.09642975 -0.2418269 0.26966536 -0.5618768 -0.2246652 1.2250974 1.0417038 -2.4607205 0.21720068 0.906471 -0.101249784 0.322139
1018 0.47856897 0.01700049 1.1892533 0.32635388 1.6251537 0.6044414 -0.43909147 0.109861955 1.7491496 0.46138465 -1.3902086 -1.4474336 0.96177495 0.0136759505 -0.5271958 0.3128282
743 0.97038907 -0.080858715 -0.8361501 -1.1728643 1.451885 2.209662 -0.11975501 0.41573533 0.20658964 2.5318723 -0.22986515 -0.96119153 -0.85094184 1.1159265 0.21434188 -1.2907398
823 -0.19479495 -0.4685397 0.040814076 -0.8355304 -0.4655435 -0.44087523 -0.14747848 1.9010495 0.7154713 0.42979643 -0.26770937 -1.4064777 1.0103831 -0.6123439 -0.07695455 -0.33607835
1285 1.034454 0.42024615 0.5024092 -0.6101585 -0.68763274 0.28144762 0.69901425 1.548136 0.4738487 0.18618351 0.26663026 -1.1777396 0.1987526 0.057910703 0.8271472 0.8374107
1754 -0.36174515 -0.60829556 0.11837141 1.4043319 0.9069124 -0.13554074 0.19025287 -0.65320903 0.007249804 1.1783806 1.4555476 -2.328309 1.0479198 0.106809765 0.6779708 0.2211399
553 0.898782 1.5021744 0.27419502 1.3796812 0.9625467 -0.12449966 0.6966785 0.9196772 -1.4631587 -1.2073113 -1.1493291 -1.7626388 -0.3655092 0.13397738 -0.90812635 0.06858598
1156 0.7208191 -0.09627417 -1.208299 -1.1425483 1.1791294 2.5701292 -0.30500895 0.26072854 0.36831552 2.1816661 -0.52451104 -1.16646 -0.75546515 1.1619519 0.013678839 -1.4872173
48 -0.32291377 0.36064038 -0.33957973 0.14357774 0.8390879 -0.072270565 0.843452 -0.24326181 -1.9425155 0.26656723 -2.032246 -2.1001952 0.40034088 1.0765895 2.6140935 -0.37059414
1219 -0.7403901 0.15580001 0.70567393 -0.21283673 0.9573466 0.7459596 0.26867706 1.398034 0.6262725 -0.23604485 0.770272 -0.83705914 -1.5793828 0.03750399 0.8834348 -0.1324533
1098 -0.111471154 -0.15928234 -0.6783606 1.1724811 -0.20906916 -0.23699045 0.3391556 -0.4942516 -0.33162832 1.1429433 0.98387706 -2.4319658 0.04339816 1.2430874 -0.20419595 0.3695361
395 -1.2020087 -0.32790688 0.26490548 -0.4291062 1.0414654 -0.00604295 -0.051805064 1.222189 0.7204353 -0.5039361 0.7048717 -0.8601431 -0.49591175 0.6688755 0.86676335 -0.09191002
1174 -0.39222732 0.29273006 -0.2997322 0.19988424 0.849222 -0.062914215 0.7366981 -0.21749344 -1.8952816 0.17988686 -2.0307515 -2.1047122 0.31514952 1.0646548 2.6466177 -0.41849133
130 -0.7776503 0.41521317 1.4652286 0.99767834 1.5476278 -0.68614644 2.1118248 0.5509981 -0.8279923 2.4389536 0.658473 -1.5210458 -0.57905793 -1.894828 -0.9124875 -0.9484338
65 0.9726565 0.30142587 0.17464188 0.3685201 0.244551 -0.19079676 -0.59502286 1.301353 -1.2636949 -0.7122298 -0.376773 -1.3694538 -0.33267677 0.45319495 -1.2343829 -0.9371429
1875 0.35310146 0.8865299 -0.6583106 0.61986876 -0.4127023 -0.17130107 0.19267018 -0.41268644 0.17196953 1.0256864 0.9810559 -1.8927486 -0.0038309896 1.8733897 -0.5652402 -0.31440663
1800 -0.4719667 -0.6318878 -1.0306475 1.6955091 -0.0077402703 -0.51645964 0.22735415 0.0680229 0.25975266 0.7681626 1.2695982 -2.57664 -0.088276364 0.13722812 -0.35221538 -0.09254942
1374 0.71995634 -0.25272697 -1.0544525 -1.1258516 1.2591141 2.4555254 -0.1911658 0.20051093 0.36925778 2.3873694 -0.5652982 -1.1566545 -0.74877995 1.1755043 0.022655617 -1.2982352
179 0.00798107 -0.9550358 0.56672233 -0.42702317 -0.94856906 0.24200977 0.8758329 1.6506097 0.4610593 0.054936897 -0.4429323 -1.4875478 1.0240463 -0.28974792 0.07775301 -0.76325303
1216 -0.93124425 0.5796292 0.77534425 0.41485438 1.4330032 0.22932568 -0.28588805 0.68479425 0.10905269 0.05129311 -0.30511856 -0.75970715 1.7307433 2.156506 -0.69958997 0.42793497
429 -1.1826206 0.81243056 1.1277775 -1.4384247 0.7036172 0.8200099 0.032312993 -0.3151266 0.45442802 -1.010971 1.3376584 -1.7086878 -0.4589834 0.21119875 0.5110634 -0.3811146
26 0.72058135 0.90640384 0.8620882 -0.3048652 -0.12576485 0.5030995 0.740466 1.8873286 0.2738015 0.20156142 0.15933655 -0.619363 -0.31838256 0.30470544 0.74747485 0.59102523
122 0.3745812 -0.22021492 1.186565 0.49801955 1.6475159 0.7052019 -0.72433156 0.4472113 1.6443515 0.82496667 -1.133196 -1.5199184 0.9876024 -0.18847038 -0.7849661 0.20669307
1333 -0.8710763 -0.6240972 0.9281711 -0.030045792 -0.8996851 1.0481405 1.5198458 1.5933697 -0.475201 0.25226116 -0.8840974 -1.1229963 1.063137 0.29474232 -0.37324736 -1.5487769
614 0.973826 -0.41733038 0.84127903 -0.46445474 -1.1580957 0.5163159 1.2451402 1.1829144 0.4786978 0.06950056 0.09274311 -1.5131224 0.74320775 0.07270473 0.29648045 -0.08104786
670 0.50081426 1.2361419 -0.57661563 0.67769325 -0.3948515 0.06387946 0.26182353 -0.34030512 0.22189672 0.9671317 0.89850545 -1.7743702 -0.012660645 2.0876236 -0.599486 -0.5338329
1270 -0.08694252 -0.50223076 -0.23190083 1.2212957 0.23876676 -0.16151401 0.22351237 -0.76033807 -0.13988626 1.1518629 1.2821666 -2.5465407 0.50532514 0.5352854 0.30712274 0.34249693
871 -0.13635056 -0.41971347 -0.02750111 -0.8612474 -0.5638977 -0.3608811 -0.06924836 2.0172043 0.6960799 0.43380722 -0.20746554 -1.3217139 0.98699516 -0.60580057 0.07809972 -0.27716038
1702 0.8264788 -0.2843644 -0.844774 -0.98067975 1.5565169 1.8210622 0.033159435 0.4994111 0.15669432 2.6840792 0.036227822 -0.8391145 -0.83792484 1.0258025 0.14853421 -1.2921648
889 0.6326083 -0.48143595 -1.4031531 0.41092655 1.6651884 2.6103024 0.16850168 1.0816133 -0.574525 -1.529864 1.5662168 -1.4640121 1.4913058 -0.5187226 -0.1591486 0.0760494
701 -1.3814102 -0.042879425 0.19257393 -0.7175154 0.71310604 -0.76163113 0.030503806 1.1682388 0.5277772 -0.15404972 0.2081018 -0.8548906 0.19656174 1.0020248 0.47750798 0.072236374
597 1.0201944 0.1021344 0.16979256 0.28690395 0.09205194 -0.1811574 -0.7327297 1.5094726 -1.1948315 -0.8380372 -0.0007518279 -1.4903032 -0.37989387 0.6227279 -1.2114443 -1.7228546
332 0.6459576 1.0905015 -0.65348375 -1.7186319 1.8710585 0.0153518645 2.058961 -0.015619604 -0.36901736 0.117781885 0.23946321 -1.1006825 0.5775632 -0.1960972 -1.1444604 -0.115532406
673 -0.7857672 -0.30140758 0.25382972 -0.669671 0.9115864 0.40009588 -0.5816704 1.2681394 -0.33516568 1.1013069 -0.8123358 -1.2553282 1.1205429 0.71289456 -1.1325722 1.25304
1812 -1.5085955 0.9185305 1.2140291 -1.2801616 0.8616968 0.51666933 0.0964119 -0.4434653 0.08577533 -0.9975156 1.198896 -1.6980957 0.087633684 0.49801436 0.30660534 -0.3649551
1053 -1.738835 1.1143055 0.6607665 -0.3608686 -1.2312995 1.1661898 -1.2937587 -0.11599335 0.16358082 -0.017883394 -0.9358106 -3.1236327 -0.26581782 -0.28479084 -1.294901 1.193623
1725 -0.32830283 3.6085575 -0.65874654 0.86704695 0.028254483 1.2397289 -0.31166768 1.1558172 1.0823839 0.9612839 -0.65326196 -1.2344048 0.5518869 -1.1401887 0.31251654 0.17796527
305 -1.0377674 0.93941194 1.2393763 -1.3655747 0.8727655 0.7285361 -0.09388992 -0.33763832 0.40831783 -0.99588203 1.4865737 -1.6561463 -0.3913079 0.26731855 0.44063511 -0.33691
943 -0.02887453 -0.37544152 0.61135167 -0.8070162 -0.13225943 -0.16402301 -0.2518203 1.1721089 0.5703108 0.8521841 -0.49448588 -1.2053225 0.81097573 -0.5373564 -0.24769145 -0.09552776
1737 -0.27603766 -0.77073634 0.68529606 -0.48587945 -0.5771578 0.036079906 0.27252313 1.6784848 0.49498984 0.45903122 -0.7692314 -1.465596 1.1542716 -0.5882206 -0.17216231 -0.7248342
128 1.0127597 -0.1114036 -0.7669591 -1.1896412 1.5949309 1.9604043 -0.114896215 0.46847296 0.32773405 2.6258512 -0.048615184 -0.91607225 -0.79703784 1.0294397 0.18656105 -1.2653152
1316 -0.300556 -0.5120978 0.2284795 1.3391207 0.93785006 -0.14679255 0.19727345 -0.8292305 0.01582568 1.2556536 1.4833586 -2.432839 1.1215792 0.2721285 0.75073254 0.36457378
658 -0.44737753 -0.9770426 0.41357714 -0.24293979 -0.7386777 0.24320044 0.7151049 1.6514505 0.3480807 0.047412857 -1.0249828 -1.5166723 1.2729614 -0.295111 0.070163116 -1.0433911
982 0.21943432 0.83052224 0.6573592 0.1916361 0.09341394 0.66929805 0.97495645 1.8337251 0.11191879 0.09646417 0.08822584 -0.57323605 -0.88925743 0.5533954 1.0421941 0.6354488
881 -1.6722217 0.79669267 0.61074793 -0.36799002 0.97522986 -0.30584463 0.28395876 0.7132986 0.049236696 -0.3337948 0.31248528 -0.62543035 0.79525447 1.6294972 0.15217014 -0.21867312
1694 -1.126371 -0.62901515 0.94186765 0.07009113 -0.7691525 1.089714 1.4994521 1.6710002 -0.6415715 0.39632872 -1.0149586 -1.1094556 1.0409358 0.32831892 -0.4071176 -1.6427015
1243 -1.5875977 0.80999285 0.34128192 -0.7502373 0.8491386 -0.62816584 -0.03450575 1.1704555 0.3131792 -0.055099938 0.23850355 -0.5095205 0.6201747 1.0418134 0.0011404747 -0.3117121
175 0.088527896 0.8918658 -1.2511257 1.0036505 -0.38841215 0.055329915 1.0380181 0.2276405 1.9219153 -0.2693324 0.69881165 -1.636771 -0.267225 1.5661411 0.15654145 -2.004226
1613 -0.5045913 -0.7443958 -0.6560932 1.6283231 0.572744 -0.3918619 0.0050657783 -0.21754552 0.35049164 0.7080513 1.5576161 -2.6264682 0.35355753 -0.22881056 0.2058366 -0.20485096
617 -0.9696479 -0.5668093 1.0519322 0.11420769 -0.7759577 1.2637721 1.591955 1.4952923 -0.68241966 0.26606154 -0.9358015 -0.9857736 0.8955229 0.5303351 -0.35205066 -1.5135509
1632 -0.9915533 -0.50632095 0.22518717 -0.21148083 0.9147148 0.23040406 0.065612584 1.3228579 0.64025617 -0.33136114 0.5726244 -0.90051806 -0.89741063 0.51560557 0.9744693 0.16751632
479 -1.3979665 2.7145195 -1.0430537 0.54679906 -0.6377344 2.2367282 0.056552734 0.61802655 0.46943292 0.21336384 -0.4833893 -1.8548365 -0.005070533 -1.6301452 -0.3077261 0.10867377
317 -0.21274924 -0.46768847 -0.7635782 1.3751323 -0.25796416 -0.41640198 0.29068968 -0.27689666 -0.08572623 1.056488 0.9746412 -2.5757632 0.00611185 0.74643123 -0.34234354 0.20321271
1795 -0.53663594 -0.5376362 -1.1933368 1.83827 -0.06552804 -0.5083559 0.3053105 0.1948541 0.24341479 0.7728624 1.2461838 -2.591948 -0.12483728 0.19025007 -0.44000232 -0.19984949
272 -0.47631103 0.2947522 -0.22861373 -1.164551 -0.04390278 -0.92523885 -0.29315606 2.1533196 0.6116916 0.501961 0.25248373 -0.9771808 0.26287106 0.062249705 -0.13241695 0.38609254
941 1.0047748 -0.1475749 -0.83017457 -1.1758199 1.4411645 2.2604518 -0.17971845 0.407766 0.2821668 2.5515573 -0.30882362 -0.97966707 -0.7988673 1.0565041 0.20950174 -1.2953231
1634 -1.562473 0.9775434 1.188972 -1.1935302 0.8386757 0.5480949 0.054607574 -0.45902056 0.115763016 -1.05022 1.1870736 -1.6600771 0.11488687 0.556684 0.23600057 -0.48917395
1677 0.6340662 0.9053719 -0.7512594 -1.6079893 1.8617799 0.12896891 2.0311925 -0.11075108 -0.40379664 0.02446418 0.22293998 -1.2078205 0.4565057 -0.1511579 -1.1308041 0.00024009716
1182 0.97679687 -0.38304505 1.1532462 -0.027733896 0.8474118 0.01245582 -0.8354784 0.4066869 -0.87607175 -0.64438945 -0.0042257467 -2.0127025 -1.3125404 0.32812667 -0.4580469 -1.1422977
897 -0.7245064 0.43623784 1.4132429 0.9636381 1.4506372 -0.48416585 2.008578 0.5073459 -0.79482275 2.4074957 0.60941285 -1.4269981 -0.41505623 -1.8272123 -0.9306606 -0.9258204
1415 -0.08750338 0.76010877 -0.4366674 -0.09518853 0.61911017 -0.422734 -0.16906568 0.07056629 -1.696527 0.29677877 -0.98627657 -1.8322897 0.73515606 -0.20905161 2.331987 -1.3092552
1255 -0.09718039 0.779836 -1.2460667 1.1135159 -0.32101297 0.051903434 1.0086946 0.24566647 1.8380007 -0.2756802 0.64281917 -1.5470257 -0.25179708 1.4897975 0.056984086 -1.9312847
529 -1.613157 2.6327164 -0.986902 0.42532912 -0.7346343 2.2489338 -0.018721582 0.59433526 0.3659104 0.16061835 -0.40929362 -1.9291701 0.0064354176 -1.5340548 -0.47465456 0.14490913
1192 0.47323042 0.01791781 1.0970358 0.45912817 1.6317309 0.6395037 -0.5875997 0.2308796 1.6311643 0.6215293 -1.2505434 -1.4078743 0.973838 -0.0661833 -0.60908216 0.2891457
19 -0.74148667 -0.09782107 0.10897296 0.4662339 0.48936883 0.6366349 1.0082352 1.7882211 0.23599826 -0.009404986 0.42473993 -1.2761952 -1.920267 0.53484297 1.1987985 0.99348915
155 -1.439964 2.8236392 -1.0211948 0.47756326 -0.5691105 2.2933145 0.0045357035 0.66699225 0.42019027 0.17568155 -0.4758432 -1.8888822 0.08697096 -1.6168783 -0.3968222 0.04951298
223 0.5451355 -0.3796943 -1.2302843 0.54712594 1.680926 2.500911 0.18721485 1.3466731 -0.7728691 -1.3640746 1.4497328 -1.1711824 1.3573122 -0.49551174 -0.28671002 0.17841925
1032 1.2925404 0.0860886 1.0749694 -0.65849125 -1.1410851 0.6219337 1.4345988 1.4933486 0.49029273 0.25075942 0.357009 -1.4706957 0.5171607 0.020080144 0.27534297 0.14744829
683 -0.8258346 0.7800615 1.162041 -1.2303799 0.68868446 1.0049044 0.11469666 0.070794486 0.57037944 -0.978213 1.4181315 -1.4670439 -0.7801596 0.06110659 0.6765671 -0.36850274
1423 -0.012511876 -0.26671964 -1.7088634 -1.5003054 1.4535688 -0.22941908 2.07716 0.02317381 0.29167032 -0.80392396 -1.4316621 -2.011627 -0.46487343 0.59647644 -1.0084348 0.33469027
1412 0.7403978 0.97387487 -0.88493556 -1.9139076 1.9323202 -0.48741573 1.8997742 0.07039024 0.07185648 -0.16357699 -0.13408257 -1.2406265 0.55837625 -0.2548561 -0.8589141 -0.2569532
214 0.41504756 0.9166553 0.76744735 0.07868868 -0.1601093 0.7310699 1.0463836 1.6710631 0.13918082 0.074677974 0.072874345 -0.65286416 -0.69983435 0.5603899 0.96816325 0.67207307
1899 0.7437751 0.82450736 0.85312796 -0.17915379 -0.32903764 0.6642035 1.1431297 1.4173305 0.26481256 0.106433526 0.14024848 -0.82754517 -0.33453763 0.43432382 0.98120713 0.7647399
996 0.16483516 1.0911065 -1.1177887 0.85289854 -0.3537098 0.045157753 0.9710808 0.25735587 1.9480423 -0.28747046 0.77116454 -1.4984747 -0.14023319 1.5319444 0.040011834 -1.9999083
1840 -0.9527909 0.5310678 0.9077462 0.42189676 1.424508 0.30521366 -0.34494615 0.6714399 0.12156482 -0.013888869 -0.3385477 -0.8588311 1.7410048 2.2578733 -0.69125634 0.43446273
414 -1.5300436 0.37177467 0.22548433 -0.796033 0.67978764 -0.81897426 -0.050474558 1.2823048 0.36684883 0.016402036 0.18161537 -0.74244416 0.3381854 1.0748478 0.1273644 0.06647058
1114 1.0336499 -0.12016921 0.75801706 0.1375258 0.7245483 -0.17389113 -0.7522635 0.6400267 -1.0582131 -0.5391528 -0.31055573 -1.8010306 -1.2208105 0.32029867 -0.679656 -0.6893895
1136 1.0916383 0.77723324 0.9646257 -0.41175988 -0.7014804 0.5106806 1.2620023 1.5699832 0.45392805 0.2656838 0.21306513 -1.0761428 0.07398237 0.18803185 0.81130517 0.65200233
587 0.10890079 0.16552438 -0.559567 1.0310385 -0.1839029 -0.17427962 0.41624993 -0.707606 -0.26300594 1.1541551 0.95539474 -2.4140875 0.059875462 1.5537798 -0.14804478 0.38106218
1646 -0.2466921 -0.69179696 0.27279115 -0.69278586 -0.36359027 -0.21951246 -0.12066275 1.4724692 0.6747845 0.59415805 -0.65653414 -1.3959191 1.1333851 -0.45847216 -0.08742498 -0.30937332
1442 -1.4084867 0.14277579 0.7293415 -0.9808145 0.89378077 0.21368337 0.07243307 0.11306488 0.68484503 -0.7738861 1.0295311 -1.3687693 -0.19047613 0.6029185 0.86219376 -0.15175408
944 -0.024777003 0.8835817 -0.3906284 -0.09989531 0.6291469 -0.5530948 -0.5508764 0.07764983 -1.7212166 0.46779585 -0.80705637 -1.9195621 0.8134625 -0.41509196 2.2826385 -1.3376831
1762 -0.728902 0.49891362 -0.13010207 -1.1297168 0.27723643 -1.0168475 -0.35848802 2.1677396 0.58268476 0.44634306 0.22235534 -0.8082194 0.24576192 0.27350527 -0.114374556 0.24961138
650 -1.8758041 1.1685548 0.7305916 -0.29507568 -1.2366356 1.3229016 -1.2504424 -0.12594754 0.15114346 -0.026904577 -0.9604373 -3.2005544 -0.2368816 -0.2926868 -1.2665799 1.1472601
1642 1.0750377 0.8528428 0.5540875 0.75521404 1.0999715 -0.73492587 -0.44548178 0.71326214 -0.77548784 -0.5569616 -0.7621104 -1.7383775 -1.0239605 0.121207565 -0.8678691 0.03633732
1523 0.4143382 1.2002659 -0.5018398 0.678996 -0.42291632 0.09625038 0.3770647 -0.3795753 0.10569724 1.171907 0.83542603 -1.8782297 -0.0139777 2.2272437 -0.6116369 -0.35042137
387 0.5928524 -0.4847572 -1.3980559 0.33554643 1.632047 2.5715172 0.21312752 1.062388 -0.57892364 -1.5353972 1.5844898 -1.5337067 1.5144657 -0.4863492 -0.18208021 0.050111562
717 0.6832025 0.8689312 -0.8646747 -1.8382943 1.832955 -0.33156383 1.8789768 -0.0013948799 0.031374067 -0.15250663 -0.2517621 -1.1810555 0.39943197 -0.15999277 -0.8192787 -0.22715598
279 -1.4555726 0.8547968 1.2312255 -1.2756611 0.79302007 0.64015204 0.109223306 -0.5483248 0.1586779 -1.0271266 1.2207208 -1.7607123 -0.04806776 0.39302874 0.39722344 -0.44157502
964 0.28331527 1.3276416 -0.8256694 -0.41033697 0.7385581 -0.8564543 -1.1538972 0.568145 -1.8535223 0.84507006 -0.40781274 -2.0980313 1.1697162 -0.95267695 2.025874 -1.7087616
1009 0.8446826 1.5724545 0.26805606 1.36279 1.2012736 -0.022043698 0.819763 0.9499185 -1.5122911 -1.2962724 -1.1991075 -1.6915015 -0.366618 0.10612663 -0.79221696 0.024691539
1227 0.46817634 1.1433051 -0.48964906 0.59640217 -0.3872356 0.08712452 0.30854744 -0.40902027 0.06925147 1.1311789 0.830198 -1.8463305 -0.10860071 2.1056404 -0.59609216 -0.36398014
873 0.9904747 0.82574373 1.0183463 -0.38598844 -0.47647023 0.68002665 1.2518001 1.488038 0.34740657 0.1491062 0.16262585 -0.8125676 -0.112467505 0.20245677 0.6798464 0.4364995
404 0.497481 0.75658387 -0.81973445 -1.4803843 1.8297166 0.13255727 2.0130382 -0.070131935 -0.38682055 -0.014456585 0.0635909 -1.1396468 0.27117822 -0.12755893 -1.1105298 0.0267031
738 -0.42717636 0.30652645 -0.36259115 0.1488693 0.8356546 -0.098631404 0.819444 -0.17914525 -1.8979155 0.25533935 -1.9231304 -1.9444711 0.32099998 0.9432255 2.5704753 -0.46467698
1048 0.8621982 1.4520499 0.17137633 1.3745435 0.8794584 -0.045481462 0.701629 1.0035671 -1.3615708 -1.127752 -1.1913375 -1.6697568 -0.38256854 0.060356483 -0.8950729 0.0446918
1565 -1.05688 0.21143238 0.39238793 -0.11340094 1.2379022 0.17683125 -0.4132232 1.1200688 -0.08731597 0.3910892 -0.46797186 -0.8308794 1.5439456 1.6324761 -1.0683306 0.88275385
541 -1.8176969 1.0635355 0.90717906 -0.20716724 -1.1997263 1.1981384 -1.3605126 -0.14299884 0.16851102 0.077392586 -1.0838435 -3.35719 -0.2181997 -0.24013773 -1.3672345 1.242623
180 -0.12848793 0.69351476 -0.17576443 -0.13655788 0.68691736 -0.37703314 -0.118990146 0.062903345 -1.6428952 0.3603074 -1.0725636 -1.7456852 0.7159414 -0.20129786 2.3257058 -1.1862539
20 0.1204858 0.9463391 -1.0106825 1.0547849 -0.29143533 -0.24948798 0.25660372 0.05493987 0.4785879 0.5144135 0.9752214 -1.5452944 -0.14808747 1.5671121 -0.6698104 -0.63444984
754 -0.85981023 0.32809904 -0.05969061 -1.0810773 0.32131866 -1.0530355 -0.20771687 1.7379564 0.5534392 0.28283665 0.18992066 -0.8536804 0.21912587 0.55933726 -0.029862061 0.43558404
132 -1.6278652 0.86848974 1.2073852 -1.2270525 0.8960871 0.5203343 0.12945655 -0.4634217 0.13810706 -1.0287275 1.1452787 -1.749769 0.040276684 0.61997575 0.25977707 -0.41734895
1658 0.32525048 1.1370771 -1.052384 0.8507054 -0.30220407 -0.31679246 0.3695078 0.17693458 1.0586025 0.20879693 0.9572812 -1.4508301 -0.043814845 1.6576074 -0.3970946 -1.0799469
1736 -0.71124107 0.31589636 1.5507741 1.0181606 1.6439575 -0.6025333 2.2475991 0.5526185 -0.8838965 2.4116027 0.70379674 -1.5207844 -0.6338626 -1.8962212 -0.80045533 -0.92548215
1653 -1.1210729 0.95279515 1.1354175 -1.2230436 0.9591014 0.33743533 -0.107232876 -0.12333361 0.51404417 -0.97238564 1.4936554 -1.5401168 -0.21230046 0.26996204 0.5318213 -0.370052
744 -1.4926867 2.840991 -1.0804179 0.49610034 -0.62034005 2.3376217 0.03858944 0.6585783 0.48820317 0.13855083 -0.4706974 -1.8800545 -0.024585642 -1.6197104 -0.31826064 0.09278019
952 -0.6313906 -0.43233848 -1.2808977 1.8271903 -0.15408272 -0.4561924 0.4424904 0.41175315 0.176637 0.6393286 1.0377619 -2.2461877 -0.17305234 0.33346912 -0.560194 -0.21710671
187 -1.7391756 0.875081 0.73512214 -0.5050871 0.9504266 -0.12875189 0.21669255 0.4511566 0.09943012 -0.5491434 0.59068865 -0.7728999 0.5393963 1.2403631 0.26359546 -0.43432787
520 0.16614191 1.3688681 -0.9018574 -0.4923381 0.7137728 -0.7613486 -1.2352298 0.58756363 -2.0536244 0.95829415 -0.28700694 -2.2278137 1.2913549 -0.92044085 1.9895204 -1.7100583
1612 0.8994378 -0.15526329 0.8434844 -0.0027027824 0.5029592 0.05242413 -0.72266304 0.90514463 -1.3077472 -0.55962944 -0.15327841 -1.6418681 -0.9848723 0.5052121 -0.9362439 -1.2915307
1541 1.0174059 -0.08603765 0.54985976 0.05033202 0.28114924 -0.06837615 -0.74390835 1.1807983 -1.2875493 -0.60287696 -0.13835894 -1.5022092 -0.70483106 0.6153741 -1.0697091 -1.4643912
538 -0.6530474 -0.51043236 -1.2850691 1.9141948 -0.07144101 -0.48853138 0.43363228 0.39101258 0.25251052 0.61510134 1.1417059 -2.4325056 -0.15850891 0.25800174 -0.5108574 -0.19235227
590 0.06994307 -0.15018271 -0.09249158 -0.9668228 -0.43110842 -0.4597602 -0.11243 2.0254798 0.6508678 0.36758384 0.13245235 -1.1272117 0.65116507 -0.4453299 0.13658871 0.08607469
330 -1.070608 -0.63803744 1.0200124 -0.036307476 -0.8016669 0.8760723 1.2462902 1.7122536 -0.31546935 0.29379493 -0.95467293 -1.1280284 1.166401 0.0411801 -0.3505229 -1.5796986
851 1.0760709 -0.17710909 0.6339781 0.055219766 0.34939855 -0.19351186 -0.98841256 1.2563746 -0.90606546 -0.66063374 0.29034138 -1.6539615 -0.75254804 0.5471107 -0.96362495 -1.9645706
1880 0.6404553 -0.37692842 1.0479015 -0.34719083 -1.1396095 0.669353 1.4279554 1.0900358 0.2150824 0.043875642 0.09599276 -1.3298 0.71940875 0.18245985 0.017669028 -0.42039254
595 -1.8478978 1.1771402 0.77405804 -0.4099584 -1.2223425 1.2240895 -1.3567919 -0.16704565 0.19053425 0.05231613 -1.0459179 -3.3014205 -0.15286407 -0.2900275 -1.3631335 1.1675822
1615 1.062595 0.61004424 0.10783633 0.78352976 0.49592754 -0.52591807 -0.45742297 0.9455985 -0.7275774 -0.73377466 -0.81172884 -1.6331449 -0.71191174 0.20691313 -0.9201397 -0.22969347
1850 -0.69401366 3.1697555 -0.91235185 0.7497094 -0.17682585 1.5150732 -0.1543929 0.9552362 0.96644443 0.7253117 -0.5835006 -1.2990694 0.45954907 -1.3784612 0.17912129 -0.04196116
428 -0.16549878 0.61327475 -1.3336855 1.1198152 -0.3487041 -0.055870287 0.8579488 0.36808944 1.7104588 -0.32638305 0.704197 -1.6035742 -0.37207305 1.3346233 0.052449804 -1.8958929
1669 -0.086872794 0.19947152 0.93188083 0.84306085 2.0226724 0.37933215 0.034651686 -0.29847872 2.2816424 -0.44674692 -1.830579 -1.6146721 0.6640459 0.06280207 -0.16941623 -0.6702422
930 1.1567869 0.5503574 0.71029913 -0.2695748 -0.8252697 0.49832034 1.4502367 1.1712251 0.4251233 0.0819683 0.3100798 -1.4009148 0.24306142 0.44181627 0.97062266 0.98533803
167 -0.29164845 -0.7005403 0.71703875 -0.42675155 -0.5913064 0.099665195 0.37357402 1.4078295 0.43468088 0.4081299 -0.804504 -1.467269 1.2546637 -0.5804822 -0.06333254 -0.79694825
1674 -0.17049451 3.8063593 -0.5119679 0.9013177 0.055691037 1.1996496 -0.3401235 1.2492344 1.1835608 1.1061991 -0.58223754 -1.2176316 0.6194483 -1.0082594 0.42899838 0.23949082
1581 -0.5371887 0.25695482 -0.23861271 -1.1848521 0.010497435 -0.9336918 -0.3730739 2.1330116 0.6439837 0.5869725 0.18604097 -1.0257503 0.4676819 -0.04433938 -0.16581137 0.26341665
1723 0.7332326 0.89745784 0.84246653 -0.24199103 -0.13637754 0.51371926 0.7977439 1.842887 0.3160624 0.19293351 0.1610723 -0.5980524 -0.30937514 0.2294901 0.78818274 0.6329679
1895 0.6069422 0.847244 -0.92586523 -1.7992336 1.8849682 -0.48167485 1.8067299 0.0020779804 0.108100966 -0.17263082 -0.25814983 -1.1976911 0.42620337 -0.15095378 -0.8794438 -0.24370067
812 0.0858007 -0.40284023 -1.6825298 -1.4201962 1.4198371 -0.21230228 2.0835335 0.030582981 0.30415058 -0.7004036 -1.3704871 -2.0695372 -0.6314363 0.4497715 -1.0302217 0.48130184
521 -0.84535164 0.3815987 0.038671184 -0.93286055 0.55770814 -0.9255403 -0.2788611 2.0104005 0.623655 0.19352236 0.37092444 -0.6510543 0.043454554 0.53899395 0.20422147 0.14796312
320 -0.517563 0.2388014 0.43662834 0.25593525 0.6071045 0.8167681 0.7831074 1.5083233 0.22841822 0.04159476 0.48034528 -1.0615922 -2.0911622 0.35664633 1.0382925 0.58978647
284 -0.8790792 1.000773 0.97347564 -0.8097274 1.19337 -0.04271609 -0.13855486 1.0295204 0.79366624 -0.58252245 1.1819761 -0.7065579 -0.21643467 0.38177785 0.6184732 -0.50804734
1205 -0.56383705 0.38499996 -0.27019534 -1.1898153 -0.044967007 -0.89235675 -0.35375476 2.1357138 0.60732377 0.5440951 0.18822868 -1.0152544 0.4281192 -0.048453975 -0.122771524 0.20415136
793 0.92707384 1.7040806 0.36571863 1.273321 1.2880145 -0.21671723 0.5893449 0.7962524 -1.2953724 -1.1294923 -1.1092092 -1.6998614 -0.5435701 0.095111355 -0.92897695 -0.049782023
1328 0.519453 1.2924609 -0.5456529 0.6315077 -0.40798277 0.032143086 0.23787063 -0.2587053 0.30477327 0.97515655 0.93409324 -1.7154294 0.03993052 2.078459 -0.6928564 -0.55786157
461 0.9098907 0.7280428 0.23995917 0.7839594 0.7444761 -0.35535184 -0.30392787 0.8961153 -1.2859845 -0.74068284 -0.76979023 -1.5004709 -0.6596623 0.33932766 -1.0642759 -0.17301616
250 0.5526536 -0.4394114 1.0495731 -0.37533104 -1.2006174 0.60126466 1.405781 1.1337746 0.29775947 0.048911016 0.019891009 -1.4086304 0.77183306 0.08825134 0.03160389 -0.5404265
974 0.99393135 0.052149475 -1.0197165 -0.9969096 1.629711 2.0651176 -0.28832954 0.63401985 0.24648693 2.6598325 0.17162548 -0.77378964 -0.6770276 0.96338516 0.10118578 -1.4977702
105 -0.937407 0.049183886 0.6726351 -0.4888708 0.95477206 0.6786264 0.23182993 1.150939 0.823262 -0.5316224 1.0042843 -0.98228174 -1.2775137 0.047971696 0.9225203 -0.33157796
1207 1.0855231 0.50373125 0.7874635 -0.6424928 -0.60576993 0.38579178 0.8338137 1.7059224 0.5011628 0.24791111 0.28956363 -0.9960107 0.13966167 0.026526198 0.5839486 0.57703316
356 0.15856998 -0.8334501 0.37578237 -0.55524534 -0.7215534 -0.084601864 0.4553348 1.805487 0.6894608 0.24622022 -0.38459855 -1.4951395 1.0321374 -0.5869247 0.12901445 -0.52403224
707 -0.11471301 0.04673768 -1.1659428 1.4183546 -0.41386482 -0.4584805 0.33827615 0.13525467 -0.02631076 0.8105277 0.81943786 -2.0412471 -0.21682642 0.93902874 -0.67720294 -0.01061594
419 1.2509375 -0.06948701 0.6330337 0.07503496 0.50189036 -0.5158387 -1.0703038 0.84207636 -0.4784145 -0.5658799 -0.055282526 -1.6764427 -0.94118613 0.35749707 -0.5710321 -1.2167224
644 1.0064651 -0.06383674 0.48522168 0.067746766 0.21324316 -0.10855659 -0.88064814 1.4503263 -1.1533827 -0.7572798 0.232058 -1.5753684 -0.54562664 0.62072855 -1.1839589 -2.0678983
451 -0.3781386 0.41247576 0.6324053 0.21488675 0.6989696 0.83671033 0.67714334 1.5017874 0.22185917 0.0044716075 0.4408389 -0.8436424 -1.9423088 0.17937097 1.0246882 0.25094098
1163 0.8287151 1.5507674 0.1668264 1.4703777 1.0129756 -0.06896159 0.7770721 1.0092591 -1.4443513 -1.2494996 -1.1448588 -1.7436754 -0.25784343 0.076850265 -0.93665266 0.0150875375
1230 -1.3665205 2.8749557 -1.007127 0.46150696 -0.6377491 2.153683 -0.016884828 0.6031 0.52277094 0.21476638 -0.53059375 -1.832411 0.18880892 -1.5525042 -0.2893503 -0.007676475
81 0.63254243 -0.43768683 -1.2945238 0.39110595 1.6836041 2.5669758 0.16376844 1.0553354 -0.57027346 -1.5061684 1.513368 -1.4609672 1.5699886 -0.5289194 -0.20116523 0.090628326
333 0.4776978 -0.29409897 -1.1485353 0.48589006 1.7089567 2.4197705 0.121372886 1.2288321 -1.0654532 -1.219785 1.2889001 -1.2619437 1.3220959 -0.4429306 -0.47335362 0.5620921
1386 -0.4059088 0.35133412 -0.3548599 0.21029364 0.85433066 -0.104338996 0.84605366 -0.21714859 -1.9769964 0.2060859 -1.9017274 -2.0671725 0.3266963 1.0466448 2.6402836 -0.43265182
532 0.8902867 0.898945 0.92966205 -0.2683468 -0.4653836 0.63762224 1.2271107 1.5430129 0.34542352 0.16878083 0.20720685 -0.8008682 -0.1803796 0.3158969 0.76278234 0.47333634
698 -1.4988182 2.7106526 -0.941922 0.3970352 -0.66473985 2.2508423 -0.0029156609 0.6242808 0.31832382 0.099180885 -0.45892218 -1.913128 0.0012038859 -1.5509814 -0.40680823 0.056663726
244 -0.101445474 -0.3952218 0.82742983 -0.37564868 -0.07106851 0.10984526 0.08436228 0.755711 0.19036646 0.7621393 -0.54477304 -0.94006395 0.65932196 -0.536743 -0.44219026 -0.32987875
1793 -0.7628921 -0.40798792 0.036340054 -0.86402386 0.28171355 0.014868371 -0.40603262 1.4028572 0.086352125 0.9057289 -0.6554617 -1.1930829 1.167383 0.12334837 -0.7814225 0.57461005
1383 0.5862382 1.1177592 0.9769903 -0.038333382 0.06315196 0.6607191 0.9525272 1.8617592 0.20080532 0.13982648 0.12052537 -0.45057863 -0.48378617 0.3999828 0.7856128 0.4009984
217 0.04932342 -0.46041805 -1.7685425 -1.490249 1.4277511 -0.26845136 2.1064973 0.11722919 0.29182845 -0.80139464 -1.4579232 -2.1444068 -0.56350714 0.53535485 -0.9944689 0.44429925
493 -0.83857656 -0.3039654 0.14772813 -0.7442276 0.7990018 0.30979532 -0.5220334 1.300465 -0.32861683 1.1899028 -0.87817574 -1.3318433 1.0892203 0.6802012 -1.1026379 1.1748855
837 0.9816555 0.07916179 -1.0965431 -0.9519655 1.5308386 2.108517 -0.26091275 0.6570887 0.18567663 2.5980632 0.2570755 -0.7566338 -0.6256016 0.97775954 0.05459683 -1.5636339
740 -1.002893 0.5439636 1.0160038 -1.3071419 0.6352194 0.72721773 0.040643137 -0.17963319 0.5998762 -0.9940024 1.2699773 -1.6218584 -0.5394716 0.21786585 0.7169958 -0.3373584
511 -1.4674764 2.7493658 -1.0078399 0.50410354 -0.626437 2.1507645 0.003338657 0.5537409 0.5003944 0.19542885 -0.42587256 -1.8992969 0.058070958 -1.6293199 -0.3435475 0.10847455
1867 1.1117344 0.33502173 0.502202 -0.33256745 -0.78311294 0.37471148 1.1853263 1.3071953 0.4706058 0.007846844 0.2463899 -1.4487853 0.3368329 0.2817981 1.0124503 1.1125348
1561 1.2818283 0.2548817 0.81002706 -0.58408636 -0.9946267 0.41553256 1.1966424 1.3514091 0.5302245 0.14978969 0.3435857 -1.3688756 0.4271098 0.09435762 0.5898499 0.48232773
859 -1.5682217 2.4563046 -0.79881436 0.26639313 -0.72441494 2.169035 -0.13486768 0.508713 0.09571995 0.052795794 -0.4089373 -1.9350091 -0.104547374 -1.3816863 -0.63934755 0.15897763
1719 -0.007641638 1.047656 -0.8256609 -0.25471985 0.6704161 -0.60984844 -0.9004558 0.34933296 -1.7860984 0.6398177 -0.5402721 -2.000351 0.9342551 -0.6722204 2.155285 -1.6322725
249 -0.25514016 0.47579908 0.5731642 0.2715514 0.7019537 0.6827327 0.60256624 1.6103724 0.17025389 0.057639156 0.28733298 -0.5834938 -1.5607017 0.3663511 1.0256984 0.3681972
531 -0.4037907 -0.9630436 0.49390438 -0.33643603 -0.7506438 0.2020801 0.6999127 1.704376 0.34839934 0.11474976 -1.018072 -1.5710108 1.354933 -0.34405893 -0.0066280183 -1.1081064
809 1.0874522 0.33436912 0.013062477 0.5270222 0.16310877 -0.31258234 -0.81277823 1.4610505 -0.8898777 -0.80268455 -0.17225894 -1.3782619 -0.36340144 0.4370588 -1.1154754 -1.3021256
412 0.7183388 1.083373 -0.6867669 -1.7725085 1.9559073 -0.052169535 2.079025 -0.025104217 -0.3126842 0.08318024 0.31216356 -1.1763809 0.5641188 -0.25439683 -1.1177788 -0.0597293
42 0.39216587 1.4073386 -0.9738699 -0.5377824 0.61163926 -0.8239516 -1.0961199 0.6641862 -1.9945608 0.90407366 -0.25659236 -2.2073758 1.2898276 -0.9307333 1.9866377 -1.8101343
1599 0.10553839 1.1469865 -0.53420895 -0.2131839 0.69782966 -0.8214789 -0.8543948 0.25489318 -1.7322142 0.51065165 -0.6827365 -2.1631832 1.0168612 -0.74725866 2.286258 -1.6490844
559 -0.033541612 -0.18030292 -0.6914185 1.1593002 -0.21600276 -0.22742869 0.3034886 -0.5090179 -0.25092188 1.1818249 0.9600423 -2.5204728 0.09572479 1.2463671 -0.19615982 0.42603958
275 -0.6844792 0.09579398 0.5682947 -0.014988787 0.68413246 0.9155263 0.6552227 1.118018 0.4422769 -0.21624942 0.6773296 -1.2956103 -2.1496441 0.13525066 1.0503834 0.32647932
1006 -1.7588171 1.1600978 0.93974024 -0.28390202 -1.1978801 1.1753298 -1.4226977 -0.20360474 0.20640667 0.032776885 -1.0358394 -3.3638601 -0.092045926 -0.30529404 -1.3562568 1.186225
1815 0.19016343 0.79373425 0.6097795 0.18238145 0.13267751 0.65475416 0.8865755 1.8691758 0.15340464 0.10525421 0.06688477 -0.5098286 -0.94255024 0.52505183 0.962232 0.63967836
1339 0.77596915 -0.20263804 -0.8013396 -0.91992915 1.7000623 1.7898802 0.095180266 0.57198757 0.19953428 2.7446427 0.23477529 -0.7518323 -0.8407681 0.9806489 0.10591432 -1.5091112
899 -1.2045923 1.0464218 1.3246281 -1.4462703 0.88153744 0.6832446 -0.06912575 -0.37942147 0.2877673 -1.0152619 1.4251194 -1.696617 -0.12291801 0.24708152 0.3943902 -0.4389035
1422 -0.80113757 -0.32512042 0.075380534 -0.90575063 0.424783 0.036581792 -0.44988438 1.3359067 -0.04268471 0.9822147 -0.7097219 -1.2448322 1.1298151 0.30354202 -0.89866513 0.75977963
866 0.5365791 -0.3732769 -1.2271938 0.39741123 1.5376093 2.2660732 -0.06084223 1.1516242 -1.0022455 -1.0534585 1.4373751 -1.3821113 1.555498 -0.44387344 -0.52267754 0.40995595
548 -0.45544985 0.34951752 -0.41740686 0.19304913 0.82443327 -0.113750435 0.8820662 -0.23047008 -1.8796825 0.26161763 -1.9156075 -1.9945252 0.2751969 0.9999361 2.5459895 -0.43955198
513 -1.7498788 1.0515538 0.8734879 -0.24878512 -1.2807903 1.1516992 -1.3485118 -0.08949979 0.14543954 -0.006306416 -1.0776438 -3.3804111 -0.15810412 -0.3564062 -1.4525129 1.1548612
480 -0.11658462 -0.34137428 -1.726801 -1.4847337 1.4252486 -0.2507882 2.106478 -0.026965272 0.31816638 -0.87872326 -1.5349805 -2.0908425 -0.5147573 0.62173516 -0.9826912 0.24820533
488 -0.98578495 -0.58673006 1.0881258 -0.07194304 -0.818219 0.9910664 1.3564731 1.5609112 -0.5110847 0.2942336 -0.85567355 -1.0977832 1.1081134 0.2455996 -0.40910068 -1.5501821
1568 -0.6618123 -0.16072263 0.11123723 0.3656541 0.48215148 0.5534762 0.82992834 1.7399873 0.2506566 -0.091330715 0.48660672 -1.1976353 -1.7609166 0.49841207 1.2404637 0.9020205
688 -0.37238982 -0.20846996 -1.1948504 1.7354394 -0.4162052 -0.46169218 0.47230595 0.21945193 -0.02139794 0.8426853 0.9510525 -2.378929 -0.22782297 0.76358825 -0.64151406 0.005322391
832 0.1168012 0.5680609 -0.57285315 0.96865654 -0.25991544 -0.08595904 0.4378266 -0.5989281 -0.20728502 1.1790437 0.87196255 -2.1556582 -0.10170756 1.7707219 -0.50086814 0.11266406
1781 0.928464 -0.29056594 1.031599 -0.13145798 0.6482349 0.088841826 -0.7934795 0.5147257 -0.9946658 -0.5813519 0.00516468 -1.8185302 -1.2191355 0.43621603 -0.6621112 -1.2965206
763 -0.8166691 -0.07820922 0.3391039 -0.51922536 1.0008259 0.3207415 -0.4842744 1.079392 -0.3245078 0.960756 -0.7423969 -1.1341778 1.2758961 0.99389267 -1.1052992 1.1815542
621 -1.6588539 0.20756973 0.4752881 -0.7087009 0.97167027 -0.34450603 0.113773756 0.81161165 0.5560128 -0.4422382 0.5821208 -0.933648 0.31886885 1.1569304 0.66788304 -0.21905993
261 -0.71534985 -0.020328147 0.40596306 -0.0046490943 0.8494285 0.41253173 0.30299443 1.7116848 0.49404824 -0.06323617 0.53545874 -0.7112599 -1.3579048 0.23179801 1.076024 0.23845091
1117 -0.23585108 -0.019682342 0.9064552 0.9579556 2.0246885 0.4576157 -0.04269585 -0.097869284 2.6127112 -0.4722092 -1.6253082 -1.6996763 0.49091318 -0.28569683 -0.3593922 -1.0873326
1458 -0.8846753 0.7864272 0.40474087 -0.8342091 0.9505597 -0.66520584 -0.25374758 1.9919362 0.6745106 -0.058552142 0.687883 -0.43768257 0.121951625 0.60044575 0.42321488 -0.1920306
102 -0.97515476 -0.5093779 0.24552599 -0.1450723 0.79323846 0.19632252 0.14825071 1.3588158 0.5148147 -0.27637944 0.5398643 -0.8846717 -0.9361992 0.509594 1.026902 0.2613517
1323 -0.640253 -0.20960374 0.02143157 0.42231092 0.5236993 0.49780673 0.9040119 1.6391293 0.2090082 -0.06963294 0.42917088 -1.1923096 -1.5532128 0.5088824 1.23768 1.0647424
252 0.9686213 0.45965135 0.02755606 0.8123074 0.40016085 -0.33380955 -0.41584572 1.1364064 -1.0334691 -0.7223871 -0.6705463 -1.4058031 -0.46652025 0.28922948 -1.0453957 -0.441099
1772 0.58272475 -0.4385562 -1.375574 0.30383873 1.5985935 2.5427465 0.25834003 0.9690054 -0.4441434 -1.4977651 1.526915 -1.3998183 1.4487946 -0.46221295 -0.22521983 0.032740727
579 -1.7631326 0.3452442 0.66024035 -0.83394355 0.80597365 0.038695484 0.23377682 0.087967806 0.31867555 -0.66725606 0.8171445 -1.1644592 0.19775192 1.0509706 0.38658577 -0.3050636
938 -0.25694215 0.1651747 -0.14640345 -1.0926034 -0.1945557 -0.691592 -0.247454 2.185286 0.5916704 0.4974183 0.22240843 -0.9858797 0.5045688 -0.35017592 -0.024113368 0.1374724
682 -1.9379319 1.157415 0.9604257 -0.35200122 -1.2661735 1.1740501 -1.412352 -0.18104003 0.18727878 0.0048894305 -1.0375767 -3.5062857 -0.15662713 -0.28954843 -1.5248619 1.1453297
498 0.91203564 0.32516202 0.34481108 -0.21958265 -0.53609514 0.20177244 1.1246059 1.3011626 0.3500448 0.018226298 0.33980045 -1.2864885 0.3038032 0.42500302 1.0387015 1.2555548
62 -1.5048205 2.7843246 -0.91188824 0.44546664 -0.6869669 2.2676291 0.008406329 0.57215196 0.2951592 0.1607903 -0.42835668 -1.9174724 -0.014035394 -1.4907004 -0.46195266 0.2004866
44 -0.5878748 -0.785486 0.84150857 -0.24794276 -0.8441687 0.38502064 0.88907534 1.6255399 0.22007506 0.25793222 -0.8568436 -1.418236 1.2030181 -0.30925173 -0.12218284 -1.3039883
1094 1.2320207 0.22892788 0.6694559 -0.50262266 -1.023547 0.4543241 1.3465022 1.168126 0.5084783 0.025960963 0.35285407 -1.5670533 0.42282873 0.25521109 0.8224674 0.7139774
1222 1.0518037 0.9610807 0.6739883 0.6508814 1.2574567 -0.59649956 -0.40625829 0.6142279 -0.9033191 -0.51812845 -0.78178954 -1.7034461 -1.1524645 0.036265507 -0.74842393 0.049579173
1017 -0.23671153 -0.7429126 0.6357695 -0.481436 -0.76133513 -0.006914527 0.46527597 1.7663177 0.49855256 0.29233053 -0.74263304 -1.5161117 1.2182094 -0.55428404 0.03053324 -0.81531686
1858 1.165739 0.12709294 0.79422975 -0.68325996 -0.97514665 0.4044747 0.91564214 1.5808574 0.54420644 0.23484631 0.29504818 -1.2842683 0.60565186 -0.2417599 0.3813115 0.22070056
1407 -0.12624641 -0.46694526 0.81926775 -0.33224297 0.056124646 0.09155382 0.085571446 0.74288446 0.19682461 0.79114777 -0.621688 -0.9677316 0.7012786 -0.5042447 -0.4430389 -0.29689324
75 0.6401837 -0.44229618 -1.2490481 0.33064324 1.5156559 2.4313483 -0.021863727 1.0598704 -0.9758529 -1.1928207 1.4693686 -1.441383 1.5185804 -0.40605694 -0.46071258 0.37505254
1102 0.3765122 0.11005627 0.07090899 -0.76190084 -0.49627644 -0.25164664 0.11701932 2.1067982 0.60341907 0.31392327 0.3698313 -0.93691593 0.4391604 -0.39236438 0.31217745 0.2241463
583 -1.1183548 1.1434193 1.3562021 -1.3674264 0.94015104 0.66355383 -0.15294476 -0.36005867 0.2972881 -1.0319961 1.479248 -1.7370397 -0.19478796 0.2533622 0.42579982 -0.41661593
1206 -0.20634116 0.8425383 -0.5853931 -0.051471774 0.661306 -0.6445668 -0.34826532 0.069296055 -1.6450696 0.47465482 -0.73799586 -1.8521562 0.71193635 -0.36082298 2.2675562 -1.375685
503 -1.1045464 0.43929857 -0.14506552 -1.0790915 0.32756883 -0.9099166 -0.40527967 1.6496907 0.37974083 0.5001843 -0.054070875 -0.8508744 0.4374404 0.44292232 -0.4157493 0.37978676
1209 0.43452513 -0.1021198 1.1353637 0.58450925 1.7132608 0.574031 -0.67038184 0.41735122 1.78387 0.7833916 -1.0817345 -1.4942824 1.0357826 -0.22290419 -0.7443323 0.124015346
931 0.95260555 -0.22162388 0.99908274 -0.29504353 -1.2520025 0.62789327 1.6218342 0.86275554 0.2717099 -0.09338802 0.16200149 -1.6072828 0.56953555 0.43661854 0.36635345 0.18510035
1753 0.015105258 -0.26388314 0.061612252 1.0236617 0.35893932 -0.021210706 0.37429145 -1.044045 -0.2814774 1.3369448 1.2290722 -2.5021942 0.70268744 0.8924518 0.40515155 0.53154546
455 0.43873343 -0.203726 1.1763097 0.011395316 1.0960999 0.4571229 -0.36755934 0.23330821 1.2068958 0.68437374 -1.0379827 -1.1846068 0.6713712 -0.12217441 -0.36764207 0.3398926
1090 0.028133832 -0.72440344 -0.31460023 -0.5270825 -0.56188804 -0.45585468 0.17330061 1.864015 0.6485752 0.099264525 -0.20432118 -1.3834643 1.0192581 -0.13378632 0.19035563 -0.08340039
1186 0.039748095 0.8988051 -1.3125335 1.096182 -0.33173358 0.04073418 1.0703279 0.34764823 2.0282896 -0.36039388 0.69221574 -1.7193536 -0.26769334 1.4633566 0.17979348 -2.1459246
242 -0.10828749 0.97823256 -0.56514025 -0.09905713 0.65785563 -0.62999105 -0.5510263 0.13143332 -1.7644815 0.4733575 -0.8121221 -2.0306695 0.8512696 -0.5073206 2.3643436 -1.4694687
1359 1.1690768 -0.183074 0.7785043 0.11156962 0.5697621 -0.41160527 -1.0194851 0.7600263 -0.5370144 -0.5841205 0.014781899 -1.7180364 -1.0144597 0.28717422 -0.45172665 -1.2352751
1348 0.62921053 1.0138332 -0.623846 -1.7658609 1.9378327 0.0034502065 2.083771 0.0015165375 -0.35158736 0.064306594 0.25219297 -1.1098212 0.53165394 -0.1695472 -1.1159405 -0.12606305
38 -0.5651497 -0.82290584 -0.57013744 1.6132314 0.6129469 -0.3492677 0.030979674 -0.2938295 0.2447568 0.7555734 1.5307033 -2.6424599 0.44118688 -0.15942225 0.19306755 -0.09476064
266 -1.004097 -0.285152 0.49950278 -0.38728648 0.87924105 0.6703654 0.19351503 1.2416474 0.83066046 -0.44272235 0.823736 -1.1238828 -1.3806173 0.14353214 1.0470569 -0.04275278
1865 -0.86228657 -0.2710022 0.22356485 -0.18672356 0.8700666 -0.05113047 0.0588754 1.7886842 0.49333364 -0.22731392 0.61058277 -0.58176 -0.6347932 0.40063834 0.8884188 0.099113144
111 -0.3631968 0.22883655 -0.30291668 0.13735741 0.8934009 -0.010509434 0.7910721 -0.2572193 -1.9528705 0.20949063 -2.123199 -2.1971219 0.34239224 1.107834 2.7281125 -0.30544254
772 -0.68213457 0.8082547 0.5319392 -0.61246717 1.046886 -0.40168196 -0.061768178 2.101251 0.684926 -0.17585683 0.8571569 -0.30395314 -0.119679 0.5416309 0.55171394 -0.2010649
16 -0.83394706 -0.23766905 0.3251031 -0.6438574 1.0097158 0.37617746 -0.68328756 1.1136545 -0.32501474 1.1351674 -0.8422357 -1.352605 1.1932014 0.7505588 -1.0615617 1.2578917
440 -0.7360189 0.111878015 0.6268041 -0.14214821 0.98747134 0.5769472 0.2710786 1.6077383 0.6283555 -0.15104772 0.6879546 -0.72797793 -1.4475888 0.14367487 0.9394448 -0.040590502
842 0.29972017 -0.057559736 1.0788299 0.7724561 1.6224011 0.52394456 -0.54845005 0.3106699 2.139497 0.41207534 -1.0484794 -1.5084168 0.90703976 -0.3664415 -0.85295206 -0.36523417
1779 -0.23693265 0.2535872 -0.2269297 -1.1231205 -0.18726982 -0.8441183 -0.23139668 2.1937897 0.6051422 0.4820855 0.32477507 -1.0417744 0.32866022 -0.13906561 0.06648357 0.36525267
106 -1.1666833 -0.30733064 0.28604454 -0.51570296 0.9628676 0.18862802 -0.032289695 1.0294777 0.8724222 -0.5976314 0.8628677 -1.0394897 -0.68328106 0.4640731 0.9203776 -0.22875781
1839 -0.27724496 -0.7803667 0.6637969 -0.49599794 -0.7823177 -0.00023402205 0.43800217 1.7950107 0.5444872 0.34506086 -0.75555927 -1.5813808 1.2233638 -0.5458217 -0.036831535 -0.800942
1573 0.5933214 -0.33792397 -1.1486416 0.5265555 1.6049724 2.3342211 0.076869726 1.4016471 -0.8820752 -1.2710172 1.4255013 -1.204933 1.4546756 -0.5206485 -0.33779547 0.3417272
424 -1.436754 0.085892916 0.22156575 -0.580984 0.49838352 -0.68310314 0.14448306 0.80659735 0.15667503 -0.14194459 0.12986769 -0.8743571 0.4330957 1.2894433 0.08553379 0.14703213
1104 -0.055113778 -0.6668533 -0.30700353 -0.75245833 -0.47227058 -0.52794504 0.028220737 1.9388903 0.67877007 0.21609032 -0.20864142 -1.39965 1.00362 -0.21860136 0.12484416 -0.07537765
1202 1.0362498 0.16595826 0.058070518 0.45148423 0.15616809 -0.26985326 -0.80712813 1.5200639 -0.97101086 -0.85663164 -0.08807673 -1.4329951 -0.3835675 0.4490402 -1.1587062 -1.5438434
1769 -0.9667287 0.8339057 0.41155726 -0.8340232 0.99280816 -0.64206684 -0.23342147 1.9436138 0.6654667 -0.024144452 0.67371297 -0.4115801 0.12737876 0.56393516 0.33049738 -0.21811722
1619 0.45005468 1.307785 -1.0004873 0.8209903 -0.2915216 -0.119433574 0.45678124 0.08537469 1.1842513 0.10865966 0.95564175 -1.4441512 0.065232165 1.6691453 -0.25345853 -1.3586137
1369 0.701365 0.3977964 0.3420685 -0.22576052 -0.44681203 0.31421822 1.0459094 1.4096175 0.3391544 0.0018206554 0.3341207 -1.2496161 0.051658254 0.3806021 1.1398891 1.2863698
1662 1.1086153 -0.23327617 0.49575433 -0.582436 -1.0666565 0.32930517 1.0594654 1.2513804 0.47301462 0.09742685 0.26127294 -1.5581775 0.65046024 -0.021756953 0.498562 0.3855292
562 -1.7359338 0.16993861 0.39656273 -0.6141534 0.84982806 -0.4831552 0.21778865 0.7555398 0.26550767 -0.38913423 0.38753414 -0.917425 0.49117023 1.3321793 0.405943 -0.10399361
1105 -0.106110826 3.765874 -0.4752432 0.8962265 0.11174215 1.0537933 -0.40655717 1.3068972 1.2425429 1.1323974 -0.5940268 -1.2292732 0.6735719 -1.0665733 0.49248266 0.23452027
904 -0.9540845 1.1614537 1.24713 -1.1079427 1.0104737 0.37484798 -0.21865089 -0.03204874 0.58097565 -0.86332464 1.5498712 -1.3518423 -0.18497747 0.27437165 0.4218526 -0.36621302
1678 -0.157645 3.752186 -0.4814223 0.8239078 0.14835922 1.097492 -0.44465107 1.2587142 1.2490625 1.136177 -0.55183315 -1.2226131 0.6834146 -1.0724524 0.42580473 0.29440537
1750 0.02730984 -0.47104844 -0.07181094 -0.8176977 -0.54054743 -0.38123563 -0.06657687 2.001183 0.7241654 0.34644863 -0.07279303 -1.3570756 1.0241299 -0.5735911 0.09170774 -0.22714143
980 0.8990562 -0.27624094 0.93978024 -0.22860913 -1.1963463 0.65545046 1.5378772 0.81972563 0.21775237 -0.04493356 0.116919495 -1.5094815 0.62967694 0.42208973 0.31753117 0.06671974
1280 -0.6910363 0.51104814 0.7958674 -0.30916318 1.0490245 0.41989294 0.10845351 1.3656574 0.6728472 -0.28161922 0.98797494 -0.56775886 -0.9644253 0.14742394 0.6919193 -0.34149876
1069 -1.6356301 1.1759981 1.048193 -0.8923898 1.021959 0.1545188 0.04777688 -0.07551129 0.027757632 -0.75945073 1.0300651 -1.2012434 0.30118093 0.7605048 0.07461202 -0.513721
664 -0.7696254 0.1555635 0.6869536 -0.2794388 1.0916511 0.14753482 -0.09592468 1.848397 0.67661965 -0.24955893 0.79164577 -0.49410403 -0.7341456 0.28260362 0.8098128 -0.3161425
630 -0.8200214 -0.6067918 0.99504584 0.13316719 -0.8115138 1.2508721 1.5851601 1.472307 -0.57602817 0.2606253 -0.8255346 -1.061005 0.9253625 0.47793537 -0.4205667 -1.4973229
632 0.102476895 0.8493612 -1.2385658 0.98024285 -0.39750594 0.066535465 1.0768164 0.25942886 2.0610197 -0.3265899 0.6701654 -1.687073 -0.2356388 1.3804748 0.15659976 -2.1505291
919 -0.2953048 1.0290692 0.67969835 -0.5958242 0.74598473 -0.18275674 -0.055330243 2.292793 0.5174676 0.04189693 0.6707414 -0.20934077 -0.041721594 0.4557136 0.35485977 -0.061870106
1799 -1.7476674 1.000338 1.0104337 -0.7626514 0.9363012 0.30746984 0.1899756 -0.13834734 -0.17105694 -0.8272232 0.86762047 -1.1819339 0.4730943 0.8758142 0.036264528 -0.46229845
1554 0.9351624 1.6891086 0.42946288 1.3338828 1.2965815 -0.103412 0.7107696 0.8574706 -1.4229934 -1.2840897 -1.1262252 -1.7923961 -0.49810833 -0.007704088 -0.81820965 -0.04831067
1002 -0.32958052 -0.17940041 -1.2702296 1.7464514 -0.45383692 -0.5306184 0.48468792 0.2512424 -0.11914846 0.9240795 0.8157506 -2.4129558 -0.20106687 0.87684673 -0.67835516 0.09581806
1 0.39737323 0.3834232 0.43639898 0.0983784 -0.18541887 0.48571143 0.92560583 1.5867443 0.29705322 0.11032565 0.25523022 -0.9137346 -0.49017647 0.373231 1.17316 1.1198009
277 -0.72384053 -0.5801713 -1.2238412 1.896419 -0.058313925 -0.4315967 0.3424138 0.29552278 0.24383883 0.6497495 1.1657498 -2.4830332 -0.14386612 0.19580573 -0.46258634 -0.22396784
142 -0.70552355 0.34855282 -0.1877912 -1.1585071 0.072068416 -0.83535725 -0.5178627 1.8632325 0.548005 0.67328566 -0.12962724 -1.0178659 0.4912119 -0.121564195 -0.3350206 0.101964414
1008 -0.51077 -0.21529627 0.031734616 0.4218421 0.38689363 0.5312363 0.9066138 1.589626 0.22404876 -0.11465703 0.41252124 -1.111797 -1.4297119 0.51856786 1.1807426 1.0676161
663 -0.65530026 -0.053525165 0.21174657 0.44076908 0.50786376 0.58604205 0.8771882 1.8159475 0.2587446 -0.029517658 0.41179648 -1.1077486 -1.7169394 0.47877192 1.2148688 0.8688232
282 1.0142897 -0.061348006 0.6870615 0.034447413 0.27506918 0.09615388 -0.74021345 1.3004439 -1.2673485 -0.67240936 0.104983605 -1.5698543 -0.73285216 0.6981159 -1.1627995 -1.9744506
622 0.18433134 -0.8475267 -0.12944803 -0.5442083 -0.70926106 -0.25434166 0.3135437 1.7783551 0.6473374 0.13109343 -0.25653407 -1.49469 0.9329595 -0.2430503 0.1787393 -0.2116721
1127 -0.4924587 -0.21960178 -0.12295457 0.00094677514 0.3906324 -0.47957164 0.53991634 1.5039645 0.084461406 -0.13941921 0.27576432 -0.8772773 0.01120396 0.87265337 0.80294293 1.0654765
1001 1.1559521 0.75850445 0.6963983 0.4789095 1.0840623 -0.7655613 -0.49654832 0.57953364 -0.73522186 -0.5011059 -0.666721 -1.6912264 -1.0917163 0.09303121 -0.6162597 -0.15025951
1894 0.40487614 -0.36351192 -1.0818491 0.62337446 1.6362146 2.472807 0.06767406 1.2978783 -1.1481444 -1.1563298 1.2699758 -1.2221178 1.2116789 -0.40917227 -0.4800169 0.47847697
256 0.8277939 1.6279138 0.22821888 1.4569032 1.1714185 -0.048556417 0.77377653 0.9629132 -1.5140699 -1.2807406 -1.1106364 -1.785105 -0.30426788 0.09037404 -0.92591166 0.08380253
1555 1.1809592 0.5608532 0.39907098 0.5913967 0.83023095 -0.59593487 -0.65298456 0.8645637 -0.88102144 -0.5816629 -0.6355271 -1.6540056 -1.0276936 0.27116954 -0.7833003 -0.24946333
1582 -0.7617163 0.34426668 1.4510478 0.8629348 1.4927101 -0.63966036 2.062269 0.56019336 -0.7669843 2.468932 0.6206917 -1.4985485 -0.45699507 -1.9510492 -0.93325436 -0.9758125
342 0.69047177 -0.539435 0.46648803 -0.611706 -0.91872 0.12151172 0.7884238 1.6696291 0.62446165 0.120570935 0.061367095 -1.39439 0.8620529 -0.3316475 0.17415464 -0.15298653
1106 -0.14301558 -0.5674944 0.4198707 1.3575847 1.2278473 -0.06392912 0.109942935 -0.8582758 0.05818392 1.3537608 1.5857958 -2.5624712 1.2494829 0.118141375 0.9312234 0.30325842
1007 0.28127658 1.2780396 -0.74675626 -0.49776265 0.68585795 -0.7616347 -1.1114732 0.5252123 -1.9223845 0.7759886 -0.41725367 -2.1013556 1.2067795 -0.9002612 2.0095594 -1.6857792
1133 -0.42738515 0.97817063 0.5650351 -0.7602266 0.73456645 -0.39657956 -0.08604951 2.323988 0.6225549 0.023447823 0.7545997 -0.29369217 -0.001983142 0.48273015 0.28254515 -0.075937234
25 -0.3511438 -0.25830853 -1.128367 1.7030146 -0.4153105 -0.47452998 0.49561954 0.052483823 -0.090952374 0.901857 0.9281385 -2.529103 -0.2043733 0.8931753 -0.62946373 0.11274487
1900 0.24323702 0.96866584 -1.1498542 1.0735292 -0.3458123 -0.30596018 0.20578398 0.19376859 0.78360105 0.35349593 0.95311373 -1.5219315 -0.07698128 1.5662547 -0.55646783 -0.87284994
417 0.76258296 0.7961598 0.06289152 1.0268458 0.54455864 -0.2361012 -0.0547076 1.0223192 -1.139212 -0.94196343 -0.9867814 -1.4761876 -0.4593617 0.2877776 -1.0373777 -0.18560481
136 0.57073224 0.32046488 0.24799731 0.001475083 -0.24462241 0.31459424 1.0331203 1.5191032 0.33963957 0.012495232 0.36225367 -1.148244 -0.094145 0.41087976 1.2057812 1.3517811
624 -0.018810242 3.9843564 -0.43364003 0.806296 0.15904315 1.0534211 -0.5566405 1.4315993 1.354242 1.2116876 -0.64430463 -1.2818078 0.742518 -0.94496924 0.49651402 0.21114713
1715 -0.5629252 0.073604226 0.30382043 0.38534003 0.4267305 0.7744931 1.0023422 1.5274365 0.16669053 -0.027778624 0.48785448 -1.2686425 -2.1300561 0.4143648 1.1529642 0.76133543
932 0.35451037 1.0015213 -0.42944735 0.6495648 -0.42994702 0.14444068 0.36226055 -0.6338982 -0.16143934 1.305719 0.8704497 -2.1621544 -0.107214145 2.2544665 -0.49301466 -0.14817122
1111 -1.1227212 1.2163122 0.9600143 -0.7926012 1.2192657 -0.32466686 -0.01511344 1.240064 0.62188154 -0.39084855 0.99283445 -0.47543573 0.3488465 0.8042269 0.47608033 -0.5228773
609 -0.4369265 0.5111616 0.760941 0.009688012 1.0004095 0.40587795 0.33968395 1.9294254 0.33346218 -0.006400248 0.6353382 -0.3291638 -1.0507251 0.3705453 0.76323926 0.073257014
114 0.46686855 1.2337519 -0.9643599 0.7048002 -0.3194654 -0.20192498 0.39134067 0.05388862 0.9797292 0.21927024 0.9759158 -1.4375136 0.09730136 1.7219629 -0.34723252 -1.0396849
247 -0.3785471 0.24735089 -0.30307263 0.19627462 0.8842717 0.086897254 0.82037914 -0.19514237 -1.945193 0.17073135 -2.122057 -2.1875029 0.33469194 1.0792437 2.7295682 -0.24012426
656 -1.0319566 0.61413527 0.8343982 0.40257445 1.3336688 0.27585137 -0.2399758 0.72579306 0.005372678 0.017267868 -0.2413764 -0.74089736 1.6922222 2.3078394 -0.7269196 0.29620707
990 1.0386637 -0.14464806 0.64475524 0.03247538 0.35450563 -0.08272056 -0.9705303 1.2730839 -0.94892657 -0.7023031 0.38160083 -1.6210148 -0.7067611 0.51925755 -0.98501307 -2.0972638
1232 1.0164373 0.9918975 0.46147403 0.7994034 0.98865366 -0.5220922 -0.2829044 0.7577035 -1.1301589 -0.64246804 -0.7764273 -1.6908478 -0.92872274 0.14385322 -0.96018004 0.15507448
636 -0.16687009 -1.0479044 -0.06864261 -0.42837262 -0.6162731 -0.14432152 0.311731 1.7840227 0.57967204 0.06878598 -0.59759647 -1.534494 1.2391438 -0.28178236 0.14514855 -0.51091975
1045 0.041353922 0.933995 -1.230287 0.9584893 -0.3933539 0.1735354 1.1934468 0.3708806 2.1894195 -0.43843874 0.7504203 -1.6478595 -0.27892867 1.4294093 0.21616231 -2.287562
1446 -0.13416788 -0.14098291 -0.74759364 1.2371526 -0.2411986 -0.27030587 0.44745526 -0.40433797 -0.31920898 1.2113866 0.93279606 -2.466922 0.017715305 1.3176199 -0.3148113 0.44520414
616 -0.21878912 0.09907087 0.77782923 0.93755615 2.0075479 0.3905933 0.018580327 -0.16196907 2.5215323 -0.47401592 -1.822498 -1.6433625 0.53848237 -0.11820082 -0.26091838 -0.9656606
1587 0.0026857029 -0.398698 0.50887567 1.080024 0.7976083 -0.05764257 0.288387 -0.94011706 -0.19099079 1.4978156 1.488418 -2.4894748 1.2193649 0.681335 0.8479036 0.5501448
1346 0.24955128 0.81500757 0.6669838 0.24090464 0.004126956 0.77977645 1.102986 1.5244693 0.05876143 0.059439495 0.02241755 -0.6615636 -1.1025406 0.6108667 0.9159699 0.6491825
1747 -0.817817 0.743125 0.05878869 -1.0833474 0.5281463 -0.9172657 -0.42880052 2.1518946 0.5896132 0.36323884 0.31765527 -0.64303 0.12725191 0.39193574 -0.06329013 0.060443424
306 -0.42511773 0.370625 -0.23341474 -1.0192336 0.014075403 -0.8698484 -0.2819246 2.144412 0.5651536 0.44694522 0.3061065 -0.8475128 0.20840164 0.083553396 -0.031636406 0.41349068
951 1.1105235 0.7893004 0.86849433 -0.4622697 -0.6763766 0.46917838 1.1726433 1.6699401 0.5052925 0.26717463 0.28055662 -1.0601716 0.0067052096 0.10933573 0.81367534 0.6336619
444 -0.06998809 -0.13520518 -0.7110781 1.1985986 -0.24566796 -0.25712976 0.42164835 -0.4920911 -0.28587523 1.192134 0.9143095 -2.4457307 0.08619327 1.2108617 -0.24456339 0.44443354
1340 -1.8327367 1.1127896 0.89723974 -0.28771713 -1.1883638 1.2209827 -1.3534005 -0.22200719 0.16486868 -0.012961663 -0.99171335 -3.3454616 -0.088113405 -0.34851748 -1.3973938 1.1550877
1616 -1.0321764 0.579861 0.8643512 0.34013337 1.3737054 0.21275805 -0.27298725 0.73379207 0.05639397 -0.031883303 -0.2829717 -0.8612457 1.7301612 2.297106 -0.72968334 0.3625038
1648 0.7729882 -0.2895718 -0.8233763 -1.194593 1.3768215 2.2268593 0.05906189 0.10834081 0.3093807 2.4410052 -0.3932742 -1.0838 -0.83056223 1.0618556 0.18241303 -1.3146667
1586 1.2239335 0.05413177 0.3354048 0.21539454 0.44575843 -0.5767961 -1.0144267 0.93583953 -0.40549716 -0.64257747 -0.1264742 -1.6188202 -0.86832345 0.16596356 -0.60621357 -1.0723574
70 0.7628334 -0.13258591 -0.77067643 -1.0119863 1.6311244 1.8338658 -0.0100385435 0.65065324 0.034927502 2.6684928 0.33034194 -0.7132573 -0.76105976 0.9792368 0.1063916 -1.5570122
383 -0.5888542 0.15065013 0.45699927 -0.14347035 0.8899999 0.046608 0.1512906 1.9442067 0.43232068 -0.03784622 0.561479 -0.33296397 -0.779156 0.36631382 0.74845344 0.079246975
995 -1.7858653 0.31342268 0.3340889 -0.5993838 0.98007333 -0.52140605 0.25402743 0.96498317 0.34203786 -0.32708266 0.31416968 -0.7519727 0.5376607 1.2921885 0.40655872 -0.23941538
755 -0.42522365 0.3611818 0.67983294 0.13484101 0.7853308 0.777501 0.69065636 1.4479736 0.3030817 0.034005266 0.50955033 -0.8759282 -1.946985 0.20840263 0.99420625 0.20849326
1414 -0.43358392 0.44602787 -0.42343953 -0.01960089 0.691054 -0.27902752 0.4127279 -0.07175657 -1.7889495 0.31919742 -1.2680002 -1.7660806 0.5627289 0.26645362 2.3037574 -0.9150865
1654 0.22663453 0.59777546 -0.47395167 1.000837 -0.31106055 -0.08682839 0.49622047 -0.63638926 -0.21934913 1.1962485 0.7810994 -2.2565224 0.012198947 1.9511139 -0.3471634 0.21692567
497 -0.7777965 -0.08689577 0.3137602 0.15129411 0.54301775 0.8195919 0.71181434 1.1822704 0.27788594 -0.11184114 0.64011693 -1.353227 -2.0947857 0.2967228 0.96162945 0.7014022
391 -0.21139906 -0.61161673 0.3502212 1.4133003 1.1628717 -0.23370747 0.07434219 -0.7520137 0.21093985 1.2027745 1.5444281 -2.4873333 1.2793975 0.008041207 0.9133207 0.17925912
145 -0.53501475 -0.8624074 0.6794394 -0.061878577 -0.94150364 0.51992464 1.1286234 1.6479381 0.022103794 0.019512333 -0.8277888 -1.4070199 1.113948 -0.14902724 -0.13321586 -1.3934672
966 0.1148885 -0.4194458 -1.7612079 -1.3945236 1.420242 -0.14908332 2.0733848 0.1970824 0.17394736 -0.7597421 -1.2915038 -2.0696418 -0.6939055 0.46898302 -1.0984875 0.45092696
599 0.6564142 -0.675625 0.65217125 -0.51990795 -1.0774899 0.28644153 0.9143266 1.5116496 0.5867947 0.011225121 0.077724144 -1.5302733 0.9015289 -0.17981337 0.19690686 -0.23052861
1675 0.7798834 -0.20726874 -0.86918783 -0.87613684 1.7353659 1.7258195 0.05682821 0.6480741 0.1792105 2.7453542 0.2818303 -0.72962856 -0.77183384 0.9788057 0.06572199 -1.5812074
1703 0.9540821 0.37354624 0.18350151 0.4455173 0.36683822 -0.23260851 -0.59789157 1.1678032 -1.2351811 -0.6871128 -0.4322897 -1.3606414 -0.48009357 0.45473105 -1.1838082 -0.65804464
293 -1.7208524 0.37189502 0.31596377 -0.7233073 0.7900812 -0.64322877 0.1267604 0.99713653 0.33396798 -0.110015534 0.21702033 -0.792413 0.52932245 1.298358 0.22420335 -0.11722509
1617 0.9970091 0.3379198 0.5040344 0.39008904 0.6986542 -0.36240092 -0.5682401 0.7430828 -1.2166511 -0.5771507 -0.5250747 -1.6624179 -1.0233171 0.30710542 -0.920655 -0.28384402
934 0.98561144 -0.05209523 -0.8285313 -1.0187191 1.7610676 1.8228004 -0.113457546 0.5600742 0.28515878 2.6667702 0.24537866 -0.7435782 -0.7361545 0.9317683 0.15850295 -1.4056897
604 0.41697925 0.50578856 -0.96641594 -1.4339067 1.7197454 0.1727018 1.8317779 -0.15409558 -0.19615956 -0.21775126 -0.08896584 -1.2573658 0.15970838 -0.3219482 -1.1424398 0.022689633
1390 1.1458008 0.64330703 0.871972 0.49222267 1.2934546 -0.47958583 -0.53691083 0.5362001 -0.99632514 -0.49509445 -0.55648506 -1.8549249 -1.2696424 0.06431922 -0.64076483 -0.06106978
1666 -1.7528225 1.1797632 0.70871204 -0.29559076 -1.2274672 1.2004919 -1.3302121 -0.23235506 0.19867177 0.008296745 -1.059269 -3.2211633 -0.21443674 -0.2885269 -1.3042914 1.012174
1167 -0.421087 0.36533272 -0.4695234 0.01597296 0.7146132 -0.2680384 0.38739008 -0.11317767 -1.7630126 0.32002684 -1.2143296 -1.8145971 0.48137718 0.2832546 2.3809633 -0.8616552
1298 -0.9550241 0.9546614 1.2491968 -1.3231599 0.8247851 0.8026999 -0.06859508 -0.27475795 0.50609833 -0.99068594 1.4601835 -1.6272277 -0.46087343 0.14294764 0.54758346 -0.40518102
345 0.66035634 0.84525484 -0.8780788 -1.5820148 1.8845085 -0.054870732 1.8924501 -0.019698128 -0.19812109 -0.12685218 0.2401169 -1.2377884 0.34733817 -0.5036026 -1.1367879 -0.15014105
986 0.92731297 0.5321838 0.47803828 -0.5650675 -0.5636012 0.1945366 0.6587623 1.7842733 0.46843836 0.24701217 0.4109672 -1.1343819 -0.013435312 0.055733293 0.88001543 1.0009495
1438 -0.8771734 0.11220731 0.19163924 -0.7608699 0.7629506 0.14579433 -0.5763997 1.2954912 -0.30154997 0.96604747 -0.7545604 -1.0746813 1.068576 0.7732992 -1.135867 1.0306067
1322 0.015033832 -0.25596672 -1.6299303 -1.5380995 1.357158 -0.23307881 2.0606248 0.0018489384 0.31647846 -0.8586384 -1.4441986 -1.9897648 -0.4071635 0.54784214 -0.8756122 0.1588869
1546 -0.21205376 -0.7957992 0.64138746 -0.41685116 -0.8000844 0.075928606 0.51556426 1.7895744 0.5379094 0.3186182 -0.7241357 -1.532151 1.2356219 -0.5477766 -0.008230681 -0.7991979
1014 -1.1113805 3.0619671 -1.1341275 0.58599603 -0.48247415 1.873855 0.03050073 0.8044491 0.7540081 0.36933365 -0.6338635 -1.6029437 0.25760278 -1.5749602 -0.07005363 -0.053679097
706 0.7299656 -0.48806342 -1.303317 0.45218036 1.6660565 2.456446 0.12390117 1.072196 -0.68100315 -1.524315 1.5800859 -1.5205822 1.5900277 -0.5896581 -0.2171639 0.07533818
1046 -0.06710975 0.89245325 -0.608876 -0.17643063 0.570574 -0.6635794 -0.5307449 0.06941113 -1.7939962 0.57090354 -0.6276677 -1.9849629 0.84615153 -0.4779811 2.254318 -1.4331392
1730 0.003111595 0.7847988 -1.2476052 1.0330838 -0.39395314 0.08678349 1.0697292 0.31207517 1.933043 -0.31955618 0.64771336 -1.6306207 -0.32111496 1.4237202 0.10509286 -2.0629234
1421 0.21192582 -0.06346775 0.9934836 1.0040026 1.8254505 0.3964634 -0.28910676 0.10591806 2.3356981 -0.049413636 -1.2388684 -1.4938247 0.7206675 -0.40976992 -0.73901725 -0.8376478
1128 -0.2555889 -0.48764402 0.5098158 1.4091204 1.2535157 -0.13744976 0.11366071 -0.7886827 0.07920572 1.3867402 1.5237176 -2.477189 1.2722899 0.14076877 0.9535573 0.38168836
702 0.07769044 -0.8779047 0.5601118 -0.24568787 -1.0407752 0.36915323 1.0871706 1.3113918 0.34531245 -0.067944765 -0.5566111 -1.4177831 1.0194204 0.08378056 0.048629683 -0.6711494
1468 0.72008705 0.8318049 0.7914033 -0.3087499 -0.40613443 0.4785795 0.83738124 1.8686588 0.36884195 0.28866732 0.22408307 -0.7623224 -0.28469825 0.24144807 0.7935506 0.75528866
1893 0.25958243 -0.36508003 1.0754011 0.12693894 1.2408153 0.62582546 -0.7217326 0.5391362 1.1662804 0.8657745 -0.95721745 -1.3730344 0.8901572 -0.2520672 -0.84798044 0.2022062
684 -0.790009 0.20907351 0.74185634 -0.66668546 0.8441695 0.77707034 0.16326663 0.77924675 0.74479 -0.62992585 1.1675502 -1.0857831 -1.239785 0.05817168 0.7686155 -0.2890221
928 -0.5248998 -0.15932308 -0.12332789 -1.0306941 -0.1827263 -0.54428715 -0.4032289 1.6714187 0.473782 0.7221279 -0.34414768 -1.2107544 0.9076463 -0.23184575 -0.47359085 0.15495917
457 -1.4952251 2.9021337 -1.151336 0.5476581 -0.6100547 2.321648 0.12882882 0.7166259 0.5146762 0.2273712 -0.47552192 -1.8835262 0.06816272 -1.6338315 -0.2378131 0.007499219
747 -0.35169443 0.26185793 -0.2982019 0.14006187 0.9114358 -0.04651696 0.8128691 -0.14522876 -2.022542 0.14431228 -2.1141765 -2.1211805 0.33008617 1.0536472 2.617486 -0.37139037
762 0.41089845 0.47024393 -1.0016384 -1.8715037 1.5770099 -0.46135846 1.9060854 -0.054078694 0.2746158 -0.4456996 -0.85053396 -1.4007413 0.29353657 0.2384362 -0.7204739 -0.18959796
1063 0.7695656 0.7645912 0.6747983 -0.3100788 -0.39428255 0.4188577 0.7503474 1.8223137 0.32696396 0.28123328 0.31995237 -0.8585189 -0.2098202 0.22655533 0.88170666 0.8892057
294 0.059439406 -0.39878488 -1.804938 -1.5924162 1.4726529 -0.24376374 2.1184418 0.19187017 0.27363217 -0.8541644 -1.380437 -2.1004658 -0.61021084 0.49406636 -1.0149066 0.41917083
1347 -0.031030297 0.86047745 -1.2606274 1.1244364 -0.35081583 0.07061965 1.0416611 0.30716994 1.971578 -0.33950174 0.69143057 -1.6699446 -0.35526854 1.3531709 0.15896824 -2.0582795
728 0.63320947 -0.52664435 0.43121395 -0.6561142 -1.0047842 0.1647607 0.76868916 1.607804 0.56028324 0.15519705 0.13892335 -1.3704104 0.83117676 -0.2849625 0.1997739 -0.19190697
133 -1.8586488 1.1998469 0.8083913 -0.4171402 -1.2486657 1.181749 -1.3247333 -0.19819102 0.10028047 0.011517952 -0.99977154 -3.2903202 -0.1663177 -0.27929112 -1.3788882 1.1249815
15 -0.18146938 -0.4179695 -0.9382119 1.4692379 -0.3832808 -0.45980456 0.22434889 -0.05848854 0.018638778 0.9027663 1.0667889 -2.4835098 -0.10856715 0.56574416 -0.4311484 -0.011507431
1775 -0.39451984 0.027363816 -0.25157636 -0.68175924 0.04838499 -0.7792808 0.16966191 1.8129133 0.40099612 0.16251732 0.3235237 -0.8658822 0.17211814 0.43931258 0.43065345 0.7530258
1321 0.38089168 -0.16834998 1.1730307 0.52307796 1.3256803 0.3921096 -0.52551293 0.38171923 1.7342231 0.6110801 -0.87323284 -1.3516623 0.8000688 -0.5691027 -0.78412515 -0.2849195
5 -0.6697776 -0.09221173 0.18030077 0.3246638 0.38545218 0.7107182 0.9775393 1.5169553 0.27169892 -0.0744817 0.49728674 -1.3781698 -2.0083737 0.4538692 1.1473495 0.9441683
1266 -1.4172434 1.2091386 0.68073475 -0.6557925 1.0860851 -0.40550885 0.070606194 1.1650671 0.3932452 -0.38485676 0.70002913 -0.4089949 0.55066895 0.996409 0.18998483 -0.46971625
1402 -0.67563736 0.38323158 1.4685315 0.80874217 1.4937149 -0.65735507 2.0189493 0.52149594 -0.7568399 2.5274339 0.76435274 -1.5438893 -0.55898905 -1.8947293 -0.89101857 -0.9872587
655 -0.8533572 0.6036361 -0.081092104 -1.1637629 0.32869288 -0.9574585 -0.42218727 2.0155747 0.5229241 0.41147676 0.20784488 -0.77048814 0.2590776 0.24633044 -0.21933371 0.1590357
566 -0.5838151 -0.5080177 -1.0919633 1.7868149 -0.18739001 -0.40974352 0.45035288 0.09786207 0.061320018 0.8044431 1.1191238 -2.4804707 -0.039844476 0.4973915 -0.4108012 0.055298652
104 -0.31770808 -0.01463807 0.7407076 0.923896 1.9321536 0.36155435 0.033851616 -0.1000999 2.4852006 -0.5338473 -1.864966 -1.6150253 0.46534306 -0.123799674 -0.17447124 -0.9804437
642 -0.7833539 0.41093847 0.8058231 0.2802384 1.5445116 0.24499284 -0.56001633 0.8135548 0.23854439 0.32186124 -0.5646075 -0.99052525 1.8654344 1.9705186 -0.8474165 0.8110889
95 -0.9201455 0.46712017 0.7715911 0.22993445 1.3809342 0.106006764 -0.45630518 0.83510077 0.2095452 0.16097425 -0.46530107 -0.9749097 1.8117366 2.1539633 -0.878208 0.67485964
821 -0.98351234 1.3460752 0.7941305 -0.780692 1.1775088 -0.4272462 -0.053652816 1.8062227 0.5509527 -0.17831556 0.8295332 -0.29361627 0.25969422 0.7213373 0.36601606 -0.37713152
369 -1.7235881 0.30018964 0.33631665 -0.7777841 0.78442377 -0.66656077 0.08786655 1.012269 0.39114043 -0.113728166 0.20731439 -0.83564013 0.45920524 1.197941 0.21652591 -0.084131144
1388 0.1991323 0.6023729 -0.8452739 -1.7153709 1.6309967 -0.2327761 1.8427877 -0.18393272 0.06742555 -0.22116123 -0.604219 -1.1737484 0.38997114 0.2566579 -0.9157962 -0.17130534
1604 -1.6106865 1.0365082 0.929394 -0.50684685 0.87920004 0.2554908 0.22210634 -0.1120659 -0.1532102 -0.7244128 0.69331646 -1.0014237 0.5227668 0.99147844 -0.062369116 -0.37394366
1663 -0.82051533 0.32150728 0.7489084 0.22619696 1.4663758 0.31108463 -0.49415502 0.8885416 0.18157825 0.30719745 -0.5434338 -1.0023152 1.8459202 1.8856572 -0.92722064 0.85077
654 -1.4218419 -0.08700275 0.49741524 -0.70562863 0.9670023 -0.17195733 -0.062381633 0.6871477 0.704058 -0.5823607 0.7504693 -1.0702132 -0.03484519 0.9831146 0.85824406 -0.108767755
1430 0.81592715 1.0591106 -0.6751383 -1.9732875 1.9286183 -0.4718448 2.0046642 0.056362305 0.020107524 -0.07641795 -0.119863726 -1.2004731 0.5687698 -0.07834297 -0.8945267 -0.2653948
210 0.41358736 0.24188223 1.0857408 0.4168838 1.6021836 0.45176798 -0.13843286 -0.21145608 1.7275511 0.048488606 -1.4759202 -1.3664222 0.7510389 0.05211731 -0.31282115 -0.016010005
97 -0.22970656 -0.98819536 -0.063690364 -0.14797342 -0.5222785 -0.0886874 0.5438018 1.6456087 0.43423694 0.0221334 -0.84218633 -1.3103337 1.129587 -0.09530825 0.17330752 -0.5238574
174 0.5625164 -0.3313803 -1.0512366 0.4736039 1.6295332 2.4057705 0.04547441 1.1559908 -1.1543221 -1.1755908 1.3237967 -1.3409452 1.4082841 -0.37749997 -0.48713577 0.45263585
1139 -1.710969 1.2211812 0.82927275 -0.29275548 -1.2418503 1.2128873 -1.3473148 -0.20502561 0.16437303 0.03317432 -1.0232588 -3.2986672 -0.26559895 -0.32352412 -1.3292632 1.1306621
212 0.5767545 0.62292516 -0.9442687 -1.6172531 1.804047 -0.095042385 1.7705948 -0.14364566 -0.05650817 -0.26282784 -0.092536785 -1.2686641 0.36080688 -0.38413984 -1.0728921 -0.09937684
569 0.34403864 0.927719 0.74201727 0.13873279 -0.011141948 0.705385 1.0198615 1.7621348 0.17402315 0.10184141 0.03471799 -0.53218085 -0.72514665 0.5746884 0.9883183 0.57689005
152 -1.3776491 -0.58284044 1.1071464 0.0066868127 -0.5519261 1.112442 1.4050981 1.720728 -0.63352644 0.5641961 -1.1022696 -1.0239052 1.2414733 0.214379 -0.48704377 -1.7291819
962 -1.3817836 -0.12341807 0.30362716 -0.7241735 0.96832246 -0.23880102 -0.030798383 0.8347209 0.71263105 -0.5432891 0.6505327 -1.0241822 -0.045097865 1.0236812 0.7689556 -0.061847318
649 -0.07621152 0.74038976 -1.3730853 1.2090551 -0.38358587 -0.033562902 1.1316494 0.3730535 1.9299362 -0.33385882 0.69521004 -1.6890619 -0.36698014 1.3155693 0.11693013 -2.027249
526 -0.57656765 0.10785812 0.29152846 0.47571105 0.45489374 0.76545054 1.0521115 1.6539528 0.18947823 -0.021130808 0.37313515 -1.2182497 -2.1151204 0.5111575 1.1159121 0.878574
739 -0.2998003 -0.67393625 0.3623774 1.4137126 1.2179275 -0.2219311 0.06599778 -0.69303167 0.18260138 1.2177649 1.5955511 -2.5578418 1.185221 -0.010567224 0.9109601 0.18833844
1242 1.2331197 -0.21744841 0.85948485 0.015257366 0.81461006 -0.39048156 -0.9368034 0.6062331 -0.57660484 -0.6270233 -0.08744551 -1.9020048 -1.230318 0.2593842 -0.39849332 -0.9409483
1475 -0.69163364 -0.011397491 0.39466506 -0.16599421 0.926854 0.11873911 0.092766814 1.9387585 0.5866702 -0.12822859 0.6094124 -0.4938177 -0.83900267 0.32145855 0.86437726 0.07860573
608 -0.0009612904 0.13120456 0.8995463 0.80616856 1.894667 0.3933786 0.017209025 -0.23693112 2.3180528 -0.3047116 -1.7333881 -1.601295 0.5815435 0.004093837 -0.23360436 -0.7045466
960 -1.0929877 0.40655977 0.74798894 0.31375432 1.1454798 0.29222882 -0.3081347 0.6140677 -0.035024498 -0.006282552 -0.21356529 -0.8757351 1.6332663 2.2914433 -0.62377256 0.4851482
1401 -1.8069044 0.17835909 0.3883522 -0.6084273 0.8810189 -0.3550434 0.18698494 0.791199 0.378989 -0.4359723 0.3813173 -0.90814286 0.41758507 1.375919 0.5185964 -0.14596404
718 0.55458367 0.7568515 -0.9376396 -1.8316059 1.7946353 -0.4169219 1.7780756 -0.032369826 0.18768667 -0.23297118 -0.3643486 -1.2175809 0.51512563 -0.051429976 -0.8504568 -0.21049473
273 -1.2872945 0.69250554 0.16261871 -1.0108112 0.66737205 -0.9265958 -0.3097699 1.7023549 0.56053644 0.20320082 0.25032827 -0.6770403 0.35603836 0.67938167 -0.113652825 0.020296492
1624 -0.8939335 1.1424403 1.1215692 -1.049461 0.94859874 0.21508609 -0.21347132 0.15479952 0.69532245 -0.81558347 1.5502455 -1.2261444 -0.13531834 0.2126951 0.4649812 -0.4614987
1200 -0.99590886 0.21014635 -0.033109922 -0.8645048 0.6316398 -0.12042 -0.4748318 1.2574296 -0.18783647 0.93539596 -0.5411711 -0.9527078 1.0008318 0.64479524 -1.0257852 0.82133013
1234 -0.67016566 0.80821323 0.9241829 -0.5109735 0.85591817 0.69458914 0.24449818 1.0119445 0.6160598 -0.4731231 1.142343 -0.7145075 -1.0507878 0.08186536 0.56321865 -0.47564355
1820 0.07056161 -0.16736066 0.86845106 -0.012025274 1.3480196 0.6551777 -0.8326654 0.46120965 0.8463711 0.9517743 -1.0147401 -1.2561575 1.0944214 0.42992967 -0.8218023 0.6124994
1466 -0.34532732 0.35864916 -0.43203858 0.17056501 0.7806985 -0.09879342 0.8284893 -0.26367736 -1.8891838 0.2565107 -1.8448541 -2.070273 0.25367823 0.9449707 2.6353812 -0.42517516
1271 -1.1007446 0.8740956 1.1519009 -1.3636059 0.7179553 0.8487226 0.04051029 -0.33628896 0.40564752 -0.9993314 1.4415426 -1.7332226 -0.42735556 0.21734889 0.53995264 -0.36739904
815 -0.27422187 0.10003986 0.8382024 1.0134164 1.9943658 0.38121507 0.1227735 -0.12170906 2.5531325 -0.513967 -1.7778094 -1.6028459 0.44730505 -0.26752573 -0.29556653 -1.0935235
1706 -0.94919664 -0.4933199 0.19042154 -0.043095578 0.6310208 0.6441758 0.47951916 1.0956215 0.5261562 -0.33053234 0.6101019 -1.2862215 -1.5154864 0.32161802 1.1567363 0.5935828
280 -0.13112319 -0.56349456 -0.522893 1.1991334 -0.06363735 -0.302317 0.15058923 -0.5443199 -0.026358122 1.1198527 1.1706203 -2.6189241 0.23144035 0.42993248 -0.026227858 0.19599259
1274 -0.019145597 -0.47957876 0.48062995 1.1733359 0.89936215 -0.04168497 0.25886592 -0.8914365 -0.17918868 1.5685623 1.4206953 -2.5249805 1.2353814 0.5924753 0.91008806 0.5984064
1171 0.88460064 1.6073714 0.24374996 1.3701793 1.1078041 -0.099252865 0.8238842 0.9435871 -1.4998633 -1.2352371 -1.181515 -1.7078503 -0.37267473 0.13615282 -0.8814331 0.120974384
191 1.10448 0.0040177326 0.22469224 0.2923448 0.21052827 -0.2274335 -0.93850625 1.6068066 -0.9229401 -0.80129033 0.19465971 -1.5443339 -0.3834361 0.563834 -1.1199044 -2.1064558
536 0.093672544 0.8947158 -1.2259883 1.0328668 -0.3592513 0.04495098 1.0498637 0.28300434 1.9836954 -0.28154004 0.7018645 -1.5847827 -0.25744656 1.5251358 0.099698626 -2.01148
1023 0.57654244 -0.5366466 -1.4344145 0.28122345 1.6774004 2.5719652 0.19732718 1.0186927 -0.6072925 -1.4323274 1.5946336 -1.5168566 1.5245155 -0.4517084 -0.2552001 0.103789605
66 0.9515533 0.6401272 0.8049652 -0.2013343 -0.68730116 0.49355632 1.317164 1.2407436 0.4186684 0.18557097 0.26696688 -1.2916303 -0.12658197 0.4326891 1.0183755 1.0830716
213 -0.28959423 0.24414982 -0.32706484 0.19439793 0.9045891 0.01671438 0.69081956 -0.24356765 -1.9419208 0.18274201 -2.0133693 -2.1280167 0.3653828 1.0501498 2.580123 -0.36577612
1334 -1.5213169 2.5535533 -0.8514019 0.32598132 -0.6846819 2.2868862 -0.12233825 0.49954998 0.25664836 0.13185917 -0.44138473 -1.9704764 -0.16324289 -1.4554387 -0.53072244 0.098940425
1013 0.29094043 -0.56696934 0.13720424 -0.7246297 -0.6980517 -0.20124726 0.19999984 1.9140234 0.6894236 0.24194294 -0.010023915 -1.3718541 0.9521539 -0.56701356 0.19019249 -0.17731825
199 0.028537706 -0.34765944 0.40859947 1.0789877 0.6599783 0.028767979 0.37524933 -1.0259542 -0.2186577 1.512716 1.3178285 -2.4728825 1.0055776 0.7966333 0.62861425 0.62021387
835 -0.21155746 -0.53071415 0.48553824 1.3161411 1.2573105 -0.10701373 0.13161431 -0.8205113 -0.0025532162 1.429174 1.4898531 -2.4478154 1.28803 0.11397634 0.98978376 0.3328764
371 0.8453864 1.3813244 0.1325182 1.2620734 0.77491164 -0.031514805 0.508838 0.9907499 -1.5129586 -1.071824 -1.1377252 -1.6266102 -0.3873286 0.31182805 -1.0342005 0.12731813
1062 -1.2633066 1.1831651 1.0262522 -0.7212621 1.1161547 -0.15449676 -0.0075601363 0.45086652 0.60911775 -0.69268286 1.1705598 -0.89426327 0.2655573 0.7453444 0.4241488 -0.5653985
68 -0.52017325 -0.83941996 0.69027 -0.16400035 -0.9620185 0.5015597 1.1566297 1.7162417 0.11966054 0.036761213 -0.8555535 -1.4039217 1.0763723 -0.21850038 -0.15960822 -1.3607495
1361 -1.3491864 -0.62091374 1.1103414 0.06451244 -0.50775373 1.1477836 1.3646436 1.672586 -0.5777253 0.45893863 -1.1087329 -1.0251036 1.1037134 0.24320441 -0.4443387 -1.661327
76 1.0695839 0.89555913 0.42710713 0.7624844 0.9997052 -0.4782297 -0.34200472 0.6989002 -1.0638475 -0.5517171 -0.7232849 -1.6653461 -1.0311998 0.19980152 -0.9093894 0.060771428
1701 -1.0905933 0.5782192 -0.023809465 -1.1655941 0.41075402 -0.98303074 -0.28161487 1.6827791 0.50631833 0.3904357 0.16172677 -0.8058014 0.32660946 0.51078176 -0.21163192 0.16007018
849 0.7162101 0.87951726 0.7590656 -0.34722197 -0.29751256 0.47141325 0.8320872 1.9177617 0.3239679 0.2523465 0.29706362 -0.7498185 -0.26862326 0.23520371 0.75820285 0.7744839
1143 0.013712092 -0.8465356 -0.21080749 -0.53687793 -0.55631435 -0.3548773 0.15912959 1.765391 0.69504946 0.11601549 -0.42629084 -1.4593085 1.1323177 -0.14588517 0.19186546 -0.18448101
1901 -0.055997007 3.9129152 -0.51724464 0.83938783 0.16645524 1.0646999 -0.5368141 1.4702502 1.4303793 1.2792509 -0.48796412 -1.253501 0.7736083 -1.0474336 0.47273523 0.23690933
47 0.60379004 -0.099512875 -1.3345016 -0.9573863 1.1655484 2.630391 -0.3308356 0.29628718 0.21139045 2.0946963 -0.56757677 -1.1408271 -0.7667747 1.1914483 0.021462506 -1.5391886
127 0.7494421 0.7335755 -0.034195133 1.0209528 0.47031656 -0.24620445 -0.01625259 0.93136436 -1.219556 -0.951094 -0.9569713 -1.5657781 -0.42289466 0.33878708 -1.0307792 -0.16056123
