1930 16
0 -0.286434 0.262471 0.207089 0.438194 0.126193 0.093653 0.070128 0.202356 0.205236 0.086072 0.170319 0.208801 0.278558 -0.125656 0.271394 -0.011758 
64 -0.258970 0.182818 0.253685 0.382789 0.144000 0.136991 0.012803 0.150308 0.172683 0.039888 0.170985 0.189606 0.295435 -0.137138 0.262671 -0.053546 
1280 -0.105803 0.146621 0.097401 0.181151 0.061912 0.025899 0.050430 0.075696 0.067916 0.037781 0.108050 0.069194 0.114063 -0.011408 0.140393 0.058278 
1794 0.019296 0.002978 -0.014039 0.010467 0.025150 0.026255 0.028847 -0.007188 -0.017223 0.000333 -0.025947 0.022690 0.015325 0.021698 -0.015689 -0.015886 
1539 -0.054123 0.060826 0.060942 0.069747 0.071919 0.067687 0.025679 0.111514 0.008029 0.003717 0.050311 0.048535 0.126804 -0.038414 0.065966 -0.014148 
1607 -0.076173 0.108233 0.016128 0.164790 0.033531 0.045152 0.004197 0.061460 0.015994 0.049321 0.072875 0.055791 0.088441 0.004763 0.041007 -0.039347 
392 -0.210985 0.307367 0.240262 0.507444 0.194358 0.009826 0.054194 0.087867 0.096319 0.166961 0.254997 0.251593 0.240096 -0.013457 0.250768 0.049529 
1679 -0.019093 0.047572 0.013716 0.102431 0.048494 -0.004370 0.005325 0.043165 -0.009672 -0.003857 0.047587 0.000084 0.007546 -0.028629 0.034159 0.004177 
1234 -0.099556 0.117912 0.059458 0.206844 0.093785 0.030737 0.044104 0.094873 0.044779 0.033017 0.103924 0.112639 0.104239 -0.069870 0.086498 0.031056 
405 -0.073066 0.261691 0.178909 0.392190 0.159144 0.129223 0.004817 0.202814 0.117185 0.182086 0.148228 0.194937 0.195021 -0.030323 0.274332 0.049990 
1624 -0.063364 0.051151 0.084196 0.056270 0.062283 0.009158 0.031947 0.032229 -0.001416 0.014969 0.009864 0.062020 0.057099 -0.058344 0.062784 0.014987 
284 -0.206491 0.273259 0.329961 0.535689 0.272205 0.110346 0.083019 0.223273 0.301803 0.161494 0.210805 0.257935 0.455270 -0.162705 0.524052 0.144443 
285 -0.221101 0.185797 0.232504 0.392383 0.152561 0.096101 0.028260 0.259759 0.171707 0.070969 0.156459 0.257190 0.312971 -0.161855 0.336180 -0.009077 
1055 -0.197383 0.160237 0.096336 0.267234 0.112342 0.053392 0.074325 0.042791 0.109632 0.066810 0.213755 0.164256 0.161784 -0.075242 0.155795 -0.023476 
230 -0.130892 0.216284 0.153682 0.325161 0.127276 0.073569 0.053050 0.133689 0.171787 0.097280 0.107062 0.118175 0.246722 -0.089283 0.277665 0.081358 
232 -0.291023 0.189670 0.247185 0.334116 0.099912 0.164962 0.044287 0.179430 0.124727 0.082972 0.148613 0.161383 0.311718 -0.148969 0.236452 -0.084763 
1257 -0.109287 0.122030 0.121524 0.174347 0.112501 0.037364 0.018864 0.086602 0.102790 0.038269 0.062129 0.090955 0.110483 -0.024517 0.210762 0.047087 
234 -0.300196 0.222950 0.163101 0.435293 0.146951 0.043582 0.115688 0.070739 0.098862 0.151011 0.324087 0.200102 0.160658 -0.058159 0.201946 0.004142 
683 -0.291158 0.173972 0.303114 0.369823 0.156738 0.205789 0.009956 0.260315 0.179646 0.082363 0.120511 0.235953 0.400714 -0.238908 0.385428 -0.130082 
684 -0.238071 0.188158 0.188263 0.334808 0.177283 0.089044 0.019883 0.076545 0.147948 0.056194 0.168799 0.166605 0.226354 -0.070935 0.161003 0.031085 
749 -0.095844 0.131965 0.123835 0.258003 0.171130 0.034225 0.065248 0.131991 0.148484 0.118665 0.062588 0.117094 0.188700 -0.081917 0.288603 0.065984 
1262 -0.139574 0.083166 0.169927 0.214044 0.066628 0.114949 -0.002713 0.169060 0.074703 0.017430 0.056311 0.156703 0.239991 -0.161586 0.212759 -0.094367 
413 -0.225708 0.293187 0.155438 0.430782 0.118253 0.018223 0.096275 0.168085 0.076768 0.191912 0.256826 0.226307 0.189302 -0.077174 0.153710 -0.011345 
1712 -0.062403 0.032961 0.037708 0.036864 0.039518 0.009581 0.036968 0.019428 0.032924 0.026678 0.054551 0.001688 0.047351 -0.011455 0.060209 0.017069 
1713 -0.054710 0.005741 0.029046 0.049959 -0.008170 0.016101 0.029502 0.032695 0.019305 -0.011967 0.030320 0.017595 0.031474 -0.004678 0.035161 -0.028382 
370 -0.118328 0.175517 0.159636 0.255772 0.115948 0.096208 0.030574 0.090164 0.107850 0.105143 0.065572 0.139180 0.202007 -0.075847 0.253566 0.058664 
1844 0.001979 -0.008729 -0.021600 -0.020092 -0.016931 0.020933 0.017919 0.005788 -0.021518 0.019119 -0.004815 -0.007385 -0.027498 -0.012599 -0.023615 0.020969 
1397 -0.072399 0.065559 0.135647 0.096092 0.063097 0.063326 0.005717 0.112843 0.050709 0.016209 0.063078 0.079094 0.152094 -0.082213 0.107195 -0.048906 
105 -0.308389 0.317753 0.326626 0.600582 0.261457 0.068146 0.087081 0.072995 0.190120 0.169803 0.342247 0.262322 0.362163 -0.047657 0.326211 0.046473 
696 -0.173976 0.102614 0.219928 0.266109 0.127509 0.115626 0.046566 0.190356 0.154136 0.049014 0.079645 0.217443 0.276315 -0.214249 0.288732 -0.033101 
1652 -0.063749 0.060923 0.047957 0.076926 0.030770 -0.011601 0.026989 0.028563 -0.011212 0.004598 0.036602 0.021671 0.017596 -0.006228 0.058223 -0.030101 
1503 -0.060202 0.018187 0.101863 0.100006 0.069204 0.069144 0.042676 0.075302 0.010258 -0.017776 0.023746 0.068041 0.085572 -0.086575 0.118395 -0.005644 
1150 -0.166267 0.122172 0.105446 0.222803 0.105614 0.026131 0.046684 0.087138 0.058182 0.022295 0.186065 0.133341 0.102687 -0.093500 0.102024 -0.012760 
1 -0.259991 0.386014 0.053109 0.655882 0.084245 0.217307 0.142431 0.189987 0.208103 0.021450 0.181098 0.068934 0.194248 -0.199943 0.134502 -0.152650 
193 -0.282973 0.352704 -0.019324 0.392413 0.188527 0.220669 0.183089 0.142658 0.100298 0.068272 0.175163 0.096702 0.195129 -0.121939 0.183824 -0.063517 
66 -0.265295 0.317291 0.063897 0.578686 0.079148 0.204864 0.143583 0.019700 0.179808 -0.037528 0.153014 0.019534 0.064040 -0.245414 0.266567 -0.078721 
1667 -0.046899 0.101042 0.047897 0.197860 0.004188 0.029204 0.086850 0.079748 0.046696 0.007162 0.079042 0.007728 0.028107 -0.020787 0.049277 -0.039540 
1668 0.001752 0.044925 -0.013708 0.084577 0.012603 0.032520 0.001895 0.052511 0.041794 0.038191 0.048162 0.033945 0.067111 -0.038635 0.008487 -0.002720 
1349 -0.125405 0.177609 0.029278 0.256470 0.088793 0.077123 0.148071 0.082983 0.076271 0.037212 0.106845 0.067076 0.028247 -0.017190 0.101911 -0.059021 
1160 -0.203362 0.182392 0.090862 0.370635 0.085006 0.122929 0.135528 0.013216 0.123430 0.011318 0.092303 -0.029308 0.047818 -0.123757 0.218196 -0.065959 
1481 -0.022169 0.070698 0.014546 0.069019 -0.001176 0.024750 0.007658 0.035642 0.033040 -0.009884 0.061937 0.040702 0.006436 -0.026760 0.042742 -0.001290 
522 -0.132879 0.292247 0.073930 0.502763 0.054760 0.189121 0.094839 0.092395 0.195438 0.027967 0.083012 -0.040763 0.141641 -0.131926 0.150190 -0.116270 
331 -0.231594 0.410325 0.096227 0.476138 0.107755 0.145816 0.316568 0.232977 0.074345 0.075108 0.204998 0.141186 0.088634 -0.028917 0.165736 -0.067265 
1870 0.019359 0.009310 0.003327 0.009923 0.016213 0.005469 -0.017151 -0.004053 0.019408 -0.003070 0.028208 0.034545 0.024719 -0.020347 0.003599 -0.009988 
1743 -0.015104 0.030390 0.019244 0.041332 0.005637 0.013084 0.035018 0.046711 0.038563 0.020850 -0.004544 0.015790 0.015161 -0.007408 0.041634 -0.023650 
1808 -0.049098 0.010264 0.025813 0.062115 0.022870 0.033784 0.021604 0.033928 0.048847 0.029126 0.015593 -0.028415 0.006783 -0.041010 0.016597 -0.024151 
849 -0.109109 0.273358 0.066027 0.460147 -0.009408 0.138447 0.098268 0.128723 0.140102 0.099290 0.068133 -0.033139 0.126342 -0.062802 0.124843 -0.159806 
214 -0.225221 0.402925 0.118171 0.609079 0.016465 0.248000 0.205565 0.249358 0.159765 0.103314 0.127130 0.026038 0.137354 -0.004531 0.134054 -0.209844 
1815 -0.002183 0.030260 0.037067 0.067413 -0.018865 0.049352 0.041108 0.051937 -0.006536 0.021853 0.035709 -0.005517 0.026302 -0.022082 0.002804 -0.014257 
1369 -0.093202 0.106993 0.028438 0.156820 0.066148 0.083994 0.028629 0.007166 0.065748 -0.026378 0.042926 0.015291 0.070987 -0.088278 0.073520 -0.059578 
986 -0.166694 0.250385 0.130482 0.469115 0.098311 0.171124 0.101601 0.064992 0.162092 0.021739 0.153127 0.010290 0.151100 -0.223484 0.246561 -0.125691 
1501 -0.045749 0.112649 0.024775 0.229613 0.024741 0.095833 0.078057 0.077148 0.105627 0.027836 0.030513 -0.026612 0.076751 -0.073117 0.069307 -0.058571 
288 -0.240447 0.391265 0.047375 0.407402 0.220120 0.246319 0.190962 0.184921 0.108254 0.037996 0.192373 0.136851 0.134598 -0.143898 0.183797 -0.062549 
1058 -0.120885 0.235408 0.010138 0.261461 0.129598 0.151384 0.103556 0.108948 0.066775 0.066013 0.106640 0.097827 0.104577 -0.061099 0.109059 -0.033722 
291 -0.244778 0.314212 0.139500 0.614589 0.158295 0.174038 0.099543 0.063900 0.298442 0.060001 0.208065 -0.052968 0.179103 -0.232581 0.265883 -0.209037 
229 -0.286334 0.319613 0.044015 0.623118 0.145698 0.271468 0.166941 0.012484 0.251342 -0.012886 0.228831 0.035795 0.126092 -0.278994 0.262456 -0.100240 
1544 -0.111118 0.145981 0.046405 0.232157 0.044614 0.096150 0.074946 0.043630 0.046830 0.003654 0.082150 0.011872 0.033703 -0.034204 0.078457 -0.075348 
1063 -0.141832 0.237202 0.055590 0.378702 0.070127 0.136903 0.093115 0.062587 0.144826 0.022600 0.105505 -0.038288 0.107445 -0.072480 0.132804 -0.129881 
1768 0.004416 0.033317 -0.001847 0.041941 -0.011867 -0.004257 -0.006170 -0.001799 0.023507 0.021415 -0.006816 0.013785 0.006048 -0.002006 0.029796 -0.022527 
1385 -0.141725 0.148202 0.074499 0.274577 0.050134 0.042923 0.092621 0.086098 0.083256 0.085579 0.088940 0.035648 0.076551 -0.016261 0.058335 -0.009622 
746 -0.246596 0.279126 0.092541 0.451583 0.138304 0.195031 0.127908 0.026177 0.168503 -0.024127 0.160375 0.027927 0.094846 -0.212488 0.181767 -0.076386 
1899 -0.041644 0.017998 0.018612 0.025577 0.010835 0.015370 0.035173 -0.008271 -0.010759 0.023714 -0.020081 -0.012781 0.010865 -0.003532 0.035075 -0.011464 
136 -0.260686 0.405083 0.013480 0.562957 0.198936 0.275011 0.120069 0.167791 0.217046 0.050532 0.159278 0.108340 0.160234 -0.270560 0.174015 -0.087876 
498 -0.319078 0.369910 0.016055 0.607533 0.209826 0.279043 0.199089 0.097286 0.291087 -0.021164 0.274425 0.017099 0.170903 -0.351344 0.325742 -0.082934 
1843 -0.041935 0.030039 -0.008903 0.047439 0.023513 0.003606 0.027935 0.022726 0.026668 -0.023248 -0.020868 -0.002676 -0.008596 0.017954 0.040155 -0.005135 
628 -0.220106 0.306456 0.108773 0.531760 0.129152 0.231207 0.109287 0.022865 0.240038 -0.015534 0.173533 -0.008148 0.119479 -0.252007 0.261683 -0.151606 
1064 -0.125354 0.164636 -0.032456 0.216806 0.112880 0.136280 0.042786 0.115495 0.078377 0.055006 0.146818 0.072310 0.101288 -0.101597 0.141759 -0.026408 
1649 -0.069929 0.073674 0.026484 0.181519 -0.001323 0.045187 0.028566 0.049793 0.062987 0.027734 0.061593 0.016498 0.065542 -0.026291 0.024047 -0.066110 
982 -0.147923 0.301970 0.046607 0.464168 0.032572 0.125216 0.165018 0.225226 0.108189 0.059576 0.159004 0.034537 0.135449 -0.038107 0.107567 -0.138891 
569 -0.157369 0.346990 0.108698 0.503070 -0.030448 0.148696 0.182367 0.241199 0.172114 0.078725 0.201006 0.017492 0.132949 0.022872 0.110178 -0.174767 
1907 0.021101 -0.028183 0.024702 0.017019 0.018531 -0.015041 -0.021269 -0.000068 0.019947 -0.022228 0.011381 0.030083 -0.009643 0.018459 -0.007510 0.018530 
1468 -0.070410 0.123449 0.054396 0.249687 0.007299 0.098197 0.078236 0.050670 0.121296 0.009279 0.079616 -0.001223 0.056495 -0.083311 0.060746 -0.072340 
264 -0.146627 0.261869 0.062813 0.513089 0.054644 0.124994 0.063165 0.136260 0.218477 0.045331 0.112974 0.020935 0.169352 -0.114796 0.148173 -0.139300 
1279 -0.155344 0.198651 0.042447 0.209102 0.091733 0.106179 0.087969 0.076959 0.033758 0.004171 0.106310 0.061453 0.057942 -0.047897 0.110766 -0.047366 
2 -0.102078 0.290247 0.162321 0.372546 0.189915 0.088017 0.089219 0.178074 0.186730 0.142949 0.141997 0.217158 0.275285 -0.034377 0.394939 0.055500 
1476 -0.060308 0.045753 0.047459 0.134891 0.059090 0.012535 0.012454 0.056661 0.065312 0.049776 0.061610 0.057188 0.103487 -0.030667 0.171817 0.056317 
919 -0.044895 0.166944 0.085867 0.264082 0.140164 0.124271 0.000896 0.149993 0.136279 0.119319 0.113845 0.072692 0.161772 -0.023451 0.279897 0.008174 
269 -0.006305 0.269299 0.160408 0.372628 0.057457 0.139541 -0.029887 0.153757 0.146559 0.174154 0.111011 0.102619 0.154764 -0.028106 0.254198 -0.049032 
1491 -0.077166 0.110890 0.110429 0.130054 0.078797 0.069175 0.013636 0.048055 0.134709 0.082191 0.101511 0.097492 0.163046 -0.067690 0.165721 0.054555 
1236 -0.155948 0.133344 0.131996 0.201376 0.151593 0.035185 0.062169 0.131349 0.116617 0.052532 0.087487 0.092766 0.155100 -0.071094 0.266999 0.038409 
149 -0.052642 0.282572 0.156022 0.360258 0.097827 0.133427 0.024649 0.199201 0.135669 0.127334 0.163171 0.167306 0.162427 -0.065782 0.225682 0.012688 
855 -0.085414 0.158269 0.109167 0.247522 0.178886 0.105425 0.029915 0.130926 0.127606 0.147581 0.117736 0.125154 0.178204 -0.020383 0.291364 0.048434 
772 -0.060280 0.307753 0.226615 0.444908 0.240862 0.064590 0.037079 0.164952 0.211970 0.169132 0.177153 0.170437 0.311887 -0.006646 0.433184 0.026715 
1111 -0.162628 0.195919 0.201118 0.291099 0.216564 0.094820 0.092315 0.136980 0.224509 0.167340 0.195051 0.195325 0.288579 -0.068887 0.369308 0.124578 
1755 -0.021086 0.040117 0.000918 0.023975 -0.001572 0.026680 0.002158 0.022088 0.017068 0.027566 0.041501 0.049500 0.029497 0.001897 0.079280 0.016263 
222 -0.036223 0.306833 0.106002 0.406709 0.086597 0.145253 -0.029180 0.161609 0.179197 0.149196 0.119880 0.136147 0.201123 -0.035137 0.249675 -0.024824 
1183 -0.132733 0.136260 0.122780 0.228362 0.145766 0.097540 0.052648 0.130544 0.143654 0.132911 0.086089 0.134608 0.233238 -0.002483 0.280370 0.081641 
821 -0.151914 0.253916 0.164878 0.336479 0.223350 0.132607 0.037462 0.159230 0.160288 0.171917 0.132340 0.167445 0.291214 -0.018981 0.408728 0.071721 
91 -0.024666 0.387619 0.239899 0.554027 0.158241 0.107041 -0.018075 0.208732 0.142884 0.195184 0.214629 0.182330 0.274195 -0.042231 0.324413 -0.021870 
676 0.010328 0.169704 0.068199 0.271429 0.050376 0.113382 -0.035452 0.139731 0.091160 0.106152 0.122455 0.078960 0.113207 -0.037871 0.178063 -0.023518 
1510 -0.021839 0.105993 0.100341 0.149185 0.093813 0.041486 0.026754 0.021425 0.072807 0.065000 0.038992 0.028120 0.076568 -0.005756 0.119706 0.020816 
1585 -0.016715 0.052999 0.036648 0.106085 0.036402 0.027700 0.025749 0.074706 0.078678 0.012167 0.029889 0.016086 0.048308 -0.039154 0.095187 -0.015995 
1320 -0.063555 0.096378 0.084365 0.160106 0.093196 0.065150 0.031931 0.087383 0.085650 0.087444 0.055449 0.072028 0.127976 -0.006653 0.233857 0.023694 
927 -0.052755 0.196077 0.119112 0.205652 0.068454 0.082085 0.014065 0.134109 0.139214 0.122591 0.075382 0.057149 0.160707 -0.035623 0.205872 0.022466 
1133 -0.072576 0.181995 0.094971 0.243684 0.142201 0.097824 0.054870 0.085832 0.139985 0.096823 0.109802 0.093797 0.197795 -0.043869 0.264858 0.020747 
1454 -0.061194 0.095115 0.118073 0.190178 0.118670 0.025137 0.062646 0.059891 0.072653 0.072168 0.052388 0.082523 0.149928 0.017679 0.193305 0.058451 
552 -0.115342 0.212340 0.160688 0.341023 0.194930 0.066255 0.035798 0.161948 0.156180 0.179188 0.107647 0.177469 0.302838 -0.035860 0.348803 0.110885 
181 -0.211813 0.214321 0.165403 0.294502 0.148601 0.099262 0.053097 0.125758 0.215396 0.145627 0.115911 0.136057 0.281013 -0.068427 0.369332 0.111732 
1769 0.012485 0.020895 -0.019800 -0.024822 -0.003059 0.004659 -0.004831 -0.004686 -0.029484 0.011936 -0.012615 -0.030220 -0.019935 0.001214 -0.000216 -0.004241 
1458 -0.031685 0.123480 0.069359 0.150880 0.107236 0.033516 0.037748 0.047306 0.096175 0.045841 0.059854 0.044970 0.111425 0.000936 0.173811 -0.001332 
558 -0.149986 0.253002 0.192403 0.339930 0.214435 0.127538 0.064862 0.146210 0.177588 0.157222 0.155008 0.154013 0.301406 -0.002632 0.354903 0.049880 
281 -0.033677 0.224892 0.111108 0.335239 0.108129 0.101530 0.006478 0.128968 0.137845 0.108969 0.130159 0.147922 0.190742 -0.053158 0.241443 0.044035 
1533 -0.047545 0.075912 0.053744 0.057613 0.040055 0.038156 -0.014175 -0.001017 0.059299 0.027279 0.056997 0.032661 0.038562 0.000886 0.086822 -0.000142 
3 -0.094544 0.303910 -0.009376 0.450492 0.078503 0.106067 0.103635 0.162644 0.211639 0.025804 0.231206 0.087670 0.274523 -0.141024 0.245067 -0.118568 
1728 -0.014429 0.079647 0.033266 0.129476 0.073786 0.054454 0.007743 0.015428 0.056742 0.033655 0.063767 0.026533 0.061326 -0.007040 0.091429 0.004377 
1221 -0.083529 0.088222 0.020110 0.264122 -0.008731 0.001997 0.038726 0.043918 0.120341 0.007583 0.127783 0.062745 0.186843 -0.084699 0.161354 -0.049209 
454 -0.170278 0.294196 -0.037674 0.355197 0.091129 0.169648 0.120757 0.223418 0.177384 0.092142 0.177124 0.140741 0.216847 -0.114574 0.140188 -0.077264 
1608 -0.066807 0.114797 0.023137 0.154187 0.041057 0.029136 0.011861 0.024629 0.114190 0.027062 0.056970 0.055945 0.132003 -0.079601 0.112519 -0.077624 
1034 -0.045302 0.174702 -0.001295 0.265826 0.108913 0.047579 0.084025 0.061254 0.137697 0.029915 0.106391 0.012128 0.168717 -0.123370 0.163033 -0.147463 
1294 -0.038702 0.130448 0.043080 0.175328 0.038018 0.068552 0.022964 0.066993 0.112164 0.020056 0.089572 0.022928 0.112011 -0.124534 0.091382 -0.094383 
272 -0.148843 0.271907 -0.034175 0.380492 0.235172 0.082063 0.072220 0.151940 0.257322 -0.126693 0.287325 0.188272 0.401286 -0.087895 0.447109 -0.193488 
17 -0.157300 0.263590 -0.026909 0.465678 0.133573 0.210974 0.078889 0.174186 0.200970 0.059930 0.235599 0.138548 0.260978 -0.173914 0.228579 -0.150163 
466 -0.113784 0.234151 0.104855 0.490494 0.150768 -0.013111 0.079900 0.138817 0.243249 0.104727 0.248567 0.144245 0.310946 -0.049978 0.241391 -0.017653 
1113 -0.063917 0.109577 -0.015160 0.278481 0.014579 -0.012569 0.062658 0.046821 0.158660 -0.036567 0.158597 0.088150 0.165372 -0.110663 0.107748 -0.018593 
985 -0.091074 0.197046 0.024205 0.307481 0.087330 0.100500 0.051661 0.083653 0.172066 0.015020 0.121893 0.032317 0.231828 -0.166882 0.157558 -0.158941 
1050 -0.117994 0.220202 -0.002811 0.270705 0.054413 0.110105 0.068580 0.100594 0.158061 0.035374 0.152892 0.109474 0.162054 -0.125609 0.094414 -0.092533 
923 -0.033650 0.172312 0.074113 0.314666 0.107602 0.067599 0.039569 0.079229 0.180428 0.085198 0.126432 0.089033 0.217510 -0.054107 0.210654 -0.094108 
540 -0.144690 0.245589 -0.061275 0.383407 0.086621 0.180367 0.060175 0.209364 0.170305 0.076128 0.219977 0.125430 0.194577 -0.124269 0.148406 -0.071965 
1861 -0.030121 0.026879 0.011245 0.031915 0.038560 0.013771 0.002871 0.018051 0.008105 -0.019166 0.039481 0.019537 -0.009289 0.010058 -0.004901 -0.017846 
1184 -0.112781 0.173917 -0.031426 0.290236 0.081252 0.093911 0.029582 0.089182 0.090321 0.065369 0.098655 0.086827 0.144481 -0.111134 0.131980 -0.059433 
1633 -0.024525 0.083798 0.006107 0.161741 0.014982 0.044148 0.056555 0.065189 0.069359 -0.028685 0.050693 0.027278 0.114325 -0.090642 0.094509 -0.044939 
1765 -0.023935 0.061540 0.002028 0.047484 0.027430 0.019925 -0.004528 0.007002 0.032592 0.022273 0.037377 0.016722 0.028318 -0.004148 0.006587 -0.009914 
1638 -0.057600 0.069156 0.025336 0.063316 0.022291 0.026043 0.033180 0.038668 0.037313 0.005078 0.045029 0.041166 0.046562 0.008776 0.006309 -0.013375 
1127 -0.082146 0.143153 -0.002575 0.196514 0.052032 0.053631 0.066104 0.116888 0.117824 0.012833 0.084220 0.085689 0.126623 -0.045746 0.067175 -0.030559 
872 -0.097988 0.204588 -0.024253 0.355563 0.036156 0.054031 0.080181 0.166738 0.215326 0.035132 0.236613 0.096004 0.220556 -0.125496 0.207677 -0.040837 
748 -0.095568 0.192186 -0.006089 0.336721 0.120020 0.105141 0.063944 0.086905 0.228286 -0.012482 0.245201 0.093342 0.305486 -0.219930 0.270021 -0.081700 
1775 0.006406 0.027915 -0.006453 0.005797 0.016804 0.019560 0.028907 0.028752 0.034670 0.020094 0.036108 0.036927 0.028073 -0.040668 0.044684 -0.038556 
189 -0.141893 0.300080 -0.001597 0.437961 0.100353 0.104252 0.099102 0.207573 0.254983 -0.016536 0.275253 0.137644 0.268944 -0.175674 0.213198 -0.001105 
306 -0.147596 0.286012 -0.063901 0.377143 0.214327 0.073579 0.062876 0.145181 0.224611 -0.086888 0.298122 0.146926 0.365248 -0.102216 0.380560 -0.175271 
1779 -0.017323 0.025678 -0.003546 0.016484 0.010035 -0.000384 0.014180 0.031944 0.020491 -0.018069 0.011362 0.033033 -0.007061 -0.040416 0.015392 -0.040299 
1210 -0.053428 0.136648 -0.032466 0.248722 0.060985 0.061241 0.079750 0.102046 0.120779 0.011636 0.100875 0.034165 0.150401 -0.059287 0.091356 -0.035824 
123 -0.180909 0.280683 -0.068347 0.337885 0.120826 0.179683 0.080427 0.208140 0.148495 0.039620 0.185797 0.139811 0.233171 -0.095864 0.179204 -0.092588 
829 -0.151882 0.303294 -0.031084 0.400878 0.085169 0.170947 0.086916 0.188629 0.181313 0.031979 0.226920 0.158923 0.224208 -0.154613 0.217515 -0.128878 
1087 -0.058919 0.167919 0.048863 0.272872 0.050959 0.093821 0.053249 0.074093 0.142163 0.002738 0.119548 0.057136 0.181408 -0.141155 0.137223 -0.141445 
4 -0.197855 0.044886 0.149800 0.235360 0.204823 0.249185 0.126987 0.236511 0.139763 0.185391 0.235869 -0.017789 0.178521 -0.118337 0.237586 -0.058959 
1696 -0.038686 0.006060 -0.019650 0.057299 0.001850 0.037668 0.010290 0.026674 0.023104 0.009359 0.053053 0.003800 0.008283 -0.000355 -0.000727 -0.022913 
6 -0.074978 0.082831 0.217104 0.225071 0.192438 0.244775 0.133919 0.322898 0.189600 0.231765 0.204422 -0.057228 0.235564 -0.129824 0.357886 0.005805 
1672 0.007719 0.026666 0.010159 0.019701 0.059878 0.025461 0.005252 0.073373 0.018742 0.023391 0.061438 -0.002523 0.054246 -0.044903 0.062110 -0.021284 
841 -0.210070 0.034927 0.090014 0.180712 0.157439 0.111509 0.056569 0.086734 0.156333 0.112602 0.219751 0.089148 0.092553 -0.037680 0.131754 -0.071341 
1547 -0.077279 0.041372 0.049064 0.120606 0.046815 0.039380 0.013651 0.025819 0.064917 0.038819 0.116610 0.035371 0.041449 -0.057882 0.096349 0.019451 
527 -0.130265 0.050944 0.124219 0.220862 0.203417 0.204159 0.106224 0.265902 0.206463 0.174731 0.233098 -0.063949 0.197608 -0.117895 0.301884 0.014544 
16 -0.176010 0.065255 0.265946 0.312706 0.215315 0.279268 0.153107 0.374922 0.211173 0.291412 0.236335 0.006266 0.226558 -0.166640 0.404838 -0.056368 
657 -0.116741 0.046844 0.124906 0.203614 0.171444 0.211411 0.131962 0.235722 0.235760 0.144255 0.215592 -0.070235 0.187495 -0.135641 0.278651 -0.013213 
1427 -0.097813 0.035002 0.105615 0.132376 0.089476 0.074533 0.082499 0.138733 0.119735 0.152121 0.115101 -0.001608 0.110591 -0.122302 0.203740 -0.031500 
1684 -0.089334 0.024110 0.036823 0.058136 0.057032 0.025062 0.008698 -0.001138 0.016651 0.009055 0.082256 0.032248 0.050343 -0.030825 0.040191 -0.018835 
1366 -0.096240 0.012328 0.040380 0.105308 0.099333 0.078341 0.046985 0.141753 0.135589 0.076135 0.115662 -0.058319 0.128980 -0.086528 0.152240 -0.003851 
1849 0.021094 0.018326 -0.005010 0.004821 -0.015742 0.012262 -0.022378 0.021764 0.039680 -0.008712 0.025264 -0.013530 0.043522 -0.004170 0.011795 -0.011026 
1497 -0.040366 0.047479 0.043376 0.051481 0.086971 0.045264 0.067815 0.062793 0.079705 0.072643 0.069509 -0.021503 0.090683 -0.015851 0.106584 0.027293 
861 -0.085236 0.029385 0.119819 0.135726 0.154046 0.143049 0.082679 0.167152 0.168498 0.131946 0.192959 -0.050887 0.157835 -0.121580 0.206876 0.011127 
1438 -0.048995 0.056873 0.052598 0.103524 0.082170 0.111341 0.036340 0.129883 0.092696 0.104256 0.106439 0.002816 0.117630 -0.074089 0.127697 0.033826 
415 -0.445235 0.079368 0.152027 0.292622 0.277020 0.208113 0.067720 0.052703 0.160994 0.117490 0.342908 0.226072 0.169733 -0.071363 0.244469 -0.086351 
992 -0.074815 0.088280 0.138412 0.156987 0.130964 0.133424 0.098650 0.222632 0.190066 0.117727 0.179880 -0.036216 0.149912 -0.138638 0.244113 -0.009118 
673 -0.130740 0.065265 0.196431 0.311766 0.207794 0.261989 0.159949 0.324176 0.196677 0.219051 0.251604 -0.033365 0.202211 -0.154362 0.328852 0.005258 
1378 -0.095334 0.021675 0.056353 0.111341 0.065942 0.059184 0.091869 0.152258 0.110609 0.099192 0.099849 -0.052283 0.101385 -0.056908 0.140233 -0.003142 
1828 0.000056 -0.000178 0.007432 0.027029 0.007625 0.026184 0.015646 -0.010665 0.006755 -0.009355 -0.019588 -0.030855 -0.027914 0.015024 -0.024151 0.012977 
198 -0.104724 0.085237 0.071876 0.221300 0.158172 0.181415 0.136715 0.198954 0.155179 0.153813 0.215476 -0.069419 0.196148 -0.100612 0.261464 -0.009168 
493 -0.129131 0.080963 0.186332 0.174766 0.205686 0.243464 0.158292 0.302988 0.204403 0.197323 0.211413 -0.044231 0.226436 -0.151218 0.332693 -0.015531 
1565 -0.081101 -0.001026 0.042948 0.105391 0.107943 0.048901 -0.004908 0.010397 0.053237 0.065400 0.122896 0.030930 0.037033 -0.005227 0.093319 -0.012510 
1200 -0.099315 0.040453 0.079687 0.176049 0.114886 0.136133 0.115161 0.175956 0.155301 0.137689 0.210110 -0.064872 0.168188 -0.103606 0.243999 -0.015235 
694 -0.135548 0.065507 0.147774 0.198483 0.190922 0.205886 0.103608 0.277920 0.200296 0.127430 0.201493 -0.073126 0.194419 -0.157772 0.293585 0.018974 
1336 -0.130424 0.077605 0.135793 0.181659 0.107351 0.125588 0.099189 0.157105 0.113181 0.113027 0.130220 0.032261 0.099703 -0.093074 0.193416 -0.057335 
916 -0.172625 0.068193 0.151965 0.207209 0.151799 0.122435 0.072085 0.132763 0.107371 0.134139 0.162750 0.101709 0.122738 -0.057612 0.198994 -0.009386 
826 -0.322386 0.058652 0.146466 0.263101 0.269434 0.195440 0.071489 0.010965 0.128788 0.112500 0.279733 0.166393 0.147435 -0.041192 0.183252 -0.102888 
763 -0.188832 0.048012 0.162010 0.225349 0.229948 0.229248 0.097068 0.251461 0.181997 0.217691 0.239358 0.007343 0.183041 -0.117455 0.286267 -0.057394 
1661 -0.047242 0.038586 0.066569 0.086481 0.087963 0.049526 0.057423 0.051439 0.068739 0.085941 0.104749 0.010544 0.050746 -0.027538 0.077378 -0.024204 
126 -0.182129 0.031236 0.140853 0.211502 0.201501 0.192577 0.134108 0.206343 0.191779 0.157524 0.250528 -0.060112 0.169363 -0.086119 0.251820 -0.029394 
1663 -0.068269 0.042957 0.045111 0.076052 0.095054 0.028062 0.003021 -0.020924 0.019644 0.026414 0.053465 0.073611 0.067844 -0.022167 0.045161 -0.007945 
5 -0.422101 0.463143 0.130447 0.513302 0.250809 0.175522 0.388206 0.181243 0.089150 0.083848 0.337261 0.136059 0.138032 -0.054348 0.203588 -0.055352 
320 -0.431040 0.488772 0.115073 0.634185 0.178568 0.125866 0.387492 0.246378 0.075468 0.155267 0.405874 0.221987 0.131286 -0.066303 0.229423 -0.084160 
1707 -0.048871 0.087963 0.023005 0.085010 0.033452 0.004449 0.040000 0.042091 0.041004 -0.012149 0.070676 0.054153 0.020072 -0.019189 0.055584 0.012763 
958 -0.349383 0.382918 0.063572 0.459063 0.244400 0.177024 0.305261 0.199619 0.077648 0.119323 0.289902 0.085755 0.196032 -0.079893 0.222165 -0.054076 
1101 -0.209073 0.231412 0.058027 0.323311 0.152565 0.078569 0.187375 0.138018 0.037799 0.067156 0.178042 0.075577 0.078768 -0.059575 0.114972 -0.044375 
526 -0.294801 0.401520 0.084994 0.445740 0.155099 0.146532 0.342706 0.182330 0.061881 0.053520 0.240436 0.123227 0.119708 -0.070904 0.195048 -0.025474 
400 -0.330888 0.341229 0.105766 0.347445 0.175213 0.123873 0.230692 0.143212 0.066183 0.101947 0.237405 0.118151 0.111306 -0.068392 0.195373 -0.025562 
19 -0.484799 0.540595 0.110867 0.599984 0.263524 0.227370 0.438173 0.239477 0.112576 0.088932 0.376219 0.183632 0.159538 -0.085428 0.287735 -0.056203 
406 -0.264829 0.354551 0.076806 0.452717 0.107852 0.105774 0.302919 0.208495 0.059852 0.126397 0.257268 0.182837 0.060845 -0.041816 0.208111 -0.058613 
663 -0.257023 0.413459 0.110888 0.458385 0.152301 0.148321 0.290403 0.240159 0.087843 0.064073 0.269464 0.111325 0.154169 -0.024378 0.164553 -0.037138 
472 -0.291532 0.441050 0.057183 0.496016 0.141105 0.195672 0.329205 0.229991 0.079865 0.080882 0.243392 0.114222 0.111052 -0.114306 0.246098 -0.048999 
1657 -0.067144 0.119570 0.047532 0.104374 0.036858 0.001774 0.062224 0.055233 0.044815 0.020647 0.066579 0.055505 0.030293 0.000196 0.033228 -0.033731 
539 -0.246767 0.399130 0.103204 0.443308 0.125767 0.159398 0.319124 0.224934 0.094708 0.100322 0.232295 0.136239 0.100432 -0.009679 0.190372 -0.051685 
1628 -0.125836 0.129065 0.017701 0.181034 0.089545 0.014412 0.131031 0.053035 0.045104 0.027517 0.079823 0.026404 0.045236 -0.037079 0.088494 0.011288 
1630 -0.095384 0.086805 0.047442 0.089097 0.056003 0.011985 0.061802 0.036420 0.034303 0.025610 0.088939 0.005989 0.053304 -0.024092 0.048966 -0.009207 
1568 -0.221604 0.228828 0.105349 0.241496 0.107761 0.084761 0.132493 0.095473 0.053479 0.078517 0.198593 0.049812 0.111232 -0.052102 0.123642 -0.001229 
1314 -0.241524 0.224126 0.107962 0.271808 0.144394 0.109105 0.219875 0.123116 0.067254 0.029132 0.210854 0.099254 0.081171 -0.059085 0.117477 -0.035950 
483 -0.223333 0.387061 0.037906 0.456372 0.082581 0.124342 0.286567 0.216917 0.085177 0.079040 0.215742 0.091280 0.105731 -0.057333 0.136922 -0.057532 
1511 -0.096334 0.113563 0.022367 0.126945 0.105709 0.071983 0.107673 0.068039 0.068035 0.036605 0.075901 0.046760 0.093810 0.010359 0.042721 -0.054278 
1706 -0.044313 0.016270 0.032969 0.036826 0.040030 0.021501 0.025860 0.029900 -0.019904 0.036159 0.013434 -0.015365 0.005387 -0.010715 0.035269 0.014246 
1323 -0.194860 0.169023 0.030064 0.212476 0.091325 0.049083 0.185013 0.134897 0.028501 0.020784 0.127329 0.032658 0.112326 -0.021438 0.133023 -0.026017 
1650 -0.102390 0.139881 0.038989 0.177210 0.056004 0.016055 0.077682 0.054630 0.069372 0.030635 0.126045 0.055880 0.026161 0.001740 0.083953 -0.025410 
1071 -0.237118 0.247907 0.074051 0.272602 0.145521 0.105176 0.157497 0.104958 0.024541 0.078826 0.138102 0.053292 0.084601 -0.046008 0.136187 -0.028010 
1008 -0.329114 0.354071 0.124659 0.388701 0.202260 0.179100 0.270603 0.170670 0.063623 0.054933 0.242258 0.081952 0.151357 -0.062597 0.191283 -0.056177 
497 -0.342443 0.327829 0.097158 0.392339 0.159146 0.135555 0.296992 0.138321 0.088967 0.070913 0.305382 0.120953 0.132395 -0.034175 0.182781 -0.071499 
818 -0.274956 0.237845 0.162672 0.383653 0.219721 0.142058 0.124252 0.092947 0.099328 0.097293 0.284261 0.086206 0.159536 -0.038124 0.229090 -0.040569 
275 -0.388526 0.340361 0.174354 0.499593 0.225597 0.116000 0.246637 0.112016 0.124637 0.166635 0.368868 0.204780 0.172860 -0.061889 0.267634 -0.028870 
507 -0.353733 0.414154 0.131128 0.456930 0.183270 0.166211 0.362943 0.192500 0.115370 0.104562 0.339365 0.165992 0.112996 -0.045722 0.184145 -0.045275 
1715 -0.099224 0.102879 0.021783 0.117577 0.039274 0.051918 0.057650 0.080184 0.020872 0.044729 0.047727 0.014078 0.052431 -0.000432 0.033400 -0.028136 
1655 -0.084789 0.079512 0.037466 0.082386 0.040707 0.042566 0.060907 0.073230 0.039761 -0.000614 0.090909 0.021652 0.025184 -0.037091 0.075586 0.021842 
1784 -0.031750 0.004735 -0.012507 0.046642 0.001117 -0.005782 -0.015708 0.000545 0.020281 -0.005971 -0.011931 -0.014195 -0.002322 -0.029778 -0.012031 0.007843 
1722 -0.019603 0.032661 0.008927 0.068415 0.019354 -0.010440 0.025258 0.051235 0.011774 0.026617 0.020047 0.046023 -0.005167 0.012037 0.016802 0.008730 
1083 -0.237000 0.258699 0.079715 0.268863 0.192010 0.107410 0.140591 0.092894 0.053727 0.061386 0.191070 0.055068 0.154571 -0.039829 0.137259 -0.032853 
572 -0.292748 0.344259 0.124023 0.361532 0.195099 0.145244 0.252146 0.189823 0.137201 0.119032 0.223062 0.073932 0.141618 -0.020513 0.136343 -0.018063 
1130 -0.176161 0.168727 0.068868 0.169982 0.088074 0.080188 0.106600 0.099055 0.053250 0.023088 0.123495 0.053140 0.057925 -0.011204 0.084175 -0.049575 
446 -0.314243 0.362037 0.086337 0.401643 0.176047 0.150983 0.300269 0.140274 0.095735 0.122816 0.285018 0.082810 0.154434 -0.074569 0.187182 -0.070207 
501 -0.328073 0.392550 0.090376 0.436475 0.210872 0.139515 0.330929 0.174402 0.093328 0.077957 0.301673 0.148376 0.129114 -0.087827 0.150710 -0.036971 
1664 -0.001122 0.010554 0.006869 0.058167 0.034816 0.009804 0.025332 0.019692 0.066885 0.004858 0.040488 0.013571 0.056543 -0.043779 0.047351 0.026776 
1793 -0.033830 -0.009234 0.007293 0.036760 0.011168 -0.007978 0.018532 0.043691 -0.006969 0.034063 0.026194 0.001710 -0.005222 -0.032282 0.021800 -0.006059 
115 -0.133792 0.155050 0.259976 0.281782 0.144893 0.186038 0.074791 0.226596 0.188355 0.258343 0.144681 0.008279 0.154893 -0.161492 0.343878 -0.010798 
385 -0.109123 0.145591 0.228695 0.334215 0.109043 0.164634 0.140702 0.262653 0.185259 0.232248 0.110890 0.069035 0.181246 -0.174152 0.303694 -0.000823 
1738 -0.013221 0.015834 0.027470 0.057984 0.025270 0.013567 -0.001474 0.003226 0.039169 0.029182 0.039947 0.027582 0.022513 -0.036896 0.082283 0.002124 
1611 -0.025124 0.036334 0.106554 0.112590 0.090643 0.036444 0.079581 0.085861 0.113761 0.060925 0.108976 0.021858 0.058464 -0.058644 0.119309 -0.061064 
1228 -0.087084 0.084404 0.127270 0.169323 0.067139 0.117253 0.072614 0.204336 0.116582 0.127791 0.124982 -0.009262 0.109122 -0.077363 0.229089 -0.008411 
1422 -0.074507 0.059060 0.086376 0.118749 0.091817 0.094525 0.065099 0.170973 0.126203 0.106304 0.134961 -0.025671 0.129428 -0.084946 0.194684 0.022639 
1551 -0.059246 0.046790 0.092165 0.088539 0.020683 0.061383 0.011208 0.052451 0.079011 0.076194 0.073242 0.024190 0.024172 -0.060872 0.096851 -0.014242 
1108 -0.050542 0.076278 0.195669 0.178729 0.090094 0.097671 0.080712 0.228741 0.184950 0.107051 0.134219 -0.022046 0.121293 -0.091979 0.234595 -0.029007 
1011 -0.101197 0.021666 0.125107 0.212069 0.100078 0.056247 0.108725 0.123909 0.177425 0.064279 0.232471 0.025470 0.205223 -0.211607 0.242375 -0.065651 
467 -0.051195 0.139914 0.244048 0.298106 0.088445 0.147753 0.066416 0.232323 0.234250 0.209174 0.068289 0.065083 0.173235 -0.176638 0.303174 -0.003238 
1148 -0.083998 0.089710 0.146137 0.112963 0.110669 0.101819 0.090735 0.180838 0.110653 0.087198 0.113580 -0.019769 0.099571 -0.064075 0.156915 -0.010483 
509 -0.099179 0.137617 0.235709 0.296369 0.111699 0.167755 0.054290 0.227337 0.180448 0.213730 0.122798 0.029346 0.176779 -0.136267 0.315521 0.015058 
7 -0.245640 0.347566 0.098081 0.462390 0.139802 0.079014 0.189898 0.183493 0.116355 0.112740 0.245236 0.097454 0.116913 -0.012876 0.103301 -0.062115 
1632 -0.089606 0.084933 0.044339 0.123497 0.110319 0.005135 0.072459 0.050815 0.092925 0.034927 0.059432 0.069686 0.074872 -0.036474 0.093757 0.021371 
261 -0.269419 0.420646 0.212520 0.571127 0.263164 0.059532 0.220115 0.149202 0.129895 0.237809 0.320789 0.250557 0.176367 -0.017583 0.241236 0.040155 
390 -0.231432 0.286334 0.076446 0.349366 0.163326 0.064476 0.159647 0.124656 0.111327 0.085520 0.194668 0.099247 0.160936 0.005827 0.122660 -0.039236 
1865 0.024664 0.022625 -0.018575 0.014572 0.025392 0.010524 0.000678 0.005365 0.014465 0.007615 0.008855 -0.024362 0.016975 0.009315 -0.027620 -0.005502 
586 -0.272943 0.326736 0.246745 0.565340 0.219932 0.073037 0.071430 0.110774 0.175570 0.219072 0.284120 0.249357 0.230558 -0.038390 0.235864 0.048005 
1681 -0.057189 0.075727 0.014858 0.103444 0.068811 0.037159 0.039375 0.041481 0.011763 0.001357 0.018806 0.002820 0.028424 0.013696 0.007228 0.022194 
1475 -0.071424 0.187162 0.115622 0.231796 0.115804 0.007066 0.074916 0.116499 0.068757 0.074845 0.139739 0.045252 0.097834 -0.015644 0.136241 0.027032 
917 -0.122153 0.238729 0.142572 0.390430 0.092853 0.060705 0.052208 0.134031 0.105442 0.151741 0.199654 0.173538 0.146059 -0.053074 0.130197 -0.015658 
1238 -0.083610 0.134140 0.119986 0.214041 0.135009 0.014122 -0.004013 0.051876 0.066126 0.077259 0.110096 0.075278 0.124852 0.004621 0.127996 0.020185 
1562 -0.074407 0.127703 0.063226 0.193031 0.039036 0.059892 0.043841 0.062272 0.086729 0.046821 0.078548 0.070323 0.038060 0.016193 0.037919 -0.052794 
1273 -0.082263 0.179878 0.118890 0.277340 0.116631 0.059826 0.049514 0.086444 0.103541 0.092957 0.119662 0.065703 0.097701 -0.027494 0.108780 0.030957 
609 -0.146539 0.347482 0.154481 0.495971 0.114113 0.070822 0.082429 0.217387 0.119216 0.231540 0.248431 0.175989 0.162530 -0.059899 0.178364 -0.005681 
102 -0.330538 0.456469 0.307591 0.603054 0.350332 0.093136 0.162621 0.121385 0.230958 0.217106 0.358026 0.221081 0.342717 -0.011570 0.256598 0.019838 
1704 -0.030372 0.045826 0.028268 0.081408 -0.007735 0.022243 0.058524 0.034075 0.045510 0.046287 0.031793 -0.005945 0.020109 -0.020997 0.001001 -0.005120 
1097 -0.179644 0.274025 0.082899 0.309395 0.129278 0.101379 0.143167 0.107871 0.140925 0.096572 0.157904 0.096455 0.134860 -0.036237 0.095556 -0.043441 
440 -0.256462 0.379390 0.222758 0.587680 0.222572 0.044531 0.137044 0.158646 0.142033 0.186992 0.309475 0.262205 0.244026 -0.070420 0.225142 0.064526 
249 -0.283078 0.498161 0.079679 0.640186 0.141795 0.079509 0.331050 0.247070 0.135255 0.204420 0.351269 0.199026 0.142071 -0.021334 0.200434 -0.093147 
383 -0.148472 0.413941 0.200804 0.613568 0.193090 0.051720 0.121372 0.188593 0.218060 0.170312 0.255712 0.205183 0.288157 0.006797 0.271978 0.002638 
8 -0.117676 0.017764 0.270783 0.288331 0.133699 0.079957 0.117621 -0.026855 0.166856 0.061754 0.211851 0.005978 0.112092 -0.170363 0.452539 -0.265185 
1824 -0.026515 -0.011935 0.045997 0.060442 0.018162 -0.006451 0.015526 -0.001817 0.041606 -0.015876 0.065983 -0.006186 0.061779 -0.051533 0.027578 -0.016331 
68 -0.107138 0.011535 0.264173 0.387538 0.199049 0.090662 0.080773 0.081616 0.152148 0.074582 0.153965 -0.119427 0.080859 -0.242170 0.529021 -0.265546 
179 -0.181178 -0.020004 0.358648 0.483258 0.212123 0.028437 0.181465 -0.023566 0.258406 0.016326 0.242873 -0.000060 0.156886 -0.258400 0.570639 -0.358912 
1839 0.006373 0.014748 -0.002125 0.006243 -0.017330 -0.029883 0.031031 0.016378 0.029869 0.029988 0.009066 0.015854 0.013738 -0.004869 0.021293 -0.034003 
585 -0.144820 0.088949 0.166047 0.269013 0.153977 0.027738 0.097202 -0.042765 0.179907 -0.012820 0.203757 0.051928 0.293935 -0.242305 0.335526 -0.250116 
1546 0.002837 -0.005238 0.029060 0.060117 0.026486 -0.019829 0.002164 0.002876 0.078387 0.007903 0.032918 0.023082 0.011542 -0.041145 0.088968 -0.021783 
761 -0.133448 -0.018721 0.351087 0.414287 0.153094 0.079443 0.110588 0.011693 0.185462 0.041854 0.230868 0.080547 0.135430 -0.221135 0.383682 -0.324563 
1880 -0.039761 0.044030 0.023153 0.033154 -0.007616 -0.008885 -0.014330 -0.009148 0.035747 -0.012945 0.042135 -0.022715 0.037337 -0.017284 0.011547 0.016961 
145 -0.082020 0.056038 0.235761 0.394818 0.168786 0.078324 0.060985 0.060449 0.173200 0.071203 0.138937 -0.106666 0.074780 -0.200647 0.504756 -0.278549 
342 -0.178087 0.029764 0.229080 0.320366 0.213883 0.045612 0.186407 -0.071129 0.236843 0.040507 0.228520 0.016069 0.161927 -0.204752 0.409281 -0.243868 
599 -0.192768 0.027842 0.282776 0.358824 0.205257 0.039819 0.136910 -0.081602 0.228944 0.042145 0.228255 -0.002246 0.132336 -0.224602 0.463849 -0.212332 
728 -0.172515 0.038648 0.230183 0.318855 0.132378 0.057454 0.162991 -0.062343 0.147180 0.053452 0.232012 -0.001978 0.133226 -0.159749 0.351317 -0.195453 
868 -0.074749 0.040619 0.174159 0.192597 0.038842 0.031787 0.060441 -0.027399 0.136842 0.010300 0.130642 0.023570 0.054107 -0.106809 0.206962 -0.147963 
1435 -0.057619 -0.028768 0.101645 0.136694 0.065060 -0.014012 0.074379 0.000598 0.041287 0.037131 0.092788 0.027020 0.009940 -0.032374 0.125769 -0.066259 
1693 -0.023407 0.050099 0.044546 0.073160 0.051547 -0.015162 0.018331 -0.011849 0.068661 0.031790 0.076628 0.016860 0.085559 -0.076078 0.079125 -0.073481 
1118 -0.059463 0.078335 0.059804 0.175764 0.087740 -0.004700 0.053952 0.049049 0.107991 -0.015710 0.099734 0.010603 0.089103 -0.049559 0.121746 -0.129873 
160 -0.090324 0.075262 0.120935 0.241720 0.133540 0.002198 0.053394 0.025062 0.203372 -0.067549 0.133307 0.050932 0.236288 -0.125263 0.323988 -0.175467 
356 -0.131161 0.008247 0.354277 0.341256 0.180854 0.052700 0.157314 -0.035943 0.258204 0.015686 0.245421 0.072373 0.194194 -0.199759 0.435156 -0.360641 
614 -0.291577 0.105352 0.341406 0.505912 0.210620 0.065663 0.229291 -0.058347 0.245491 0.011264 0.312728 -0.080159 0.161382 -0.274332 0.530436 -0.162923 
1513 -0.059625 0.002652 0.020840 0.088667 0.044636 -0.005488 0.033420 0.007058 -0.009869 -0.013344 0.072082 0.012706 0.034911 -0.020979 0.081402 -0.037155 
622 -0.110943 0.011039 0.214766 0.250251 0.159090 0.042726 0.095105 -0.017830 0.163533 0.012368 0.230020 0.073092 0.243663 -0.210526 0.274211 -0.276392 
751 -0.063242 0.015647 0.266009 0.279747 0.140379 -0.002131 0.091726 -0.003723 0.196283 0.022626 0.171695 0.063653 0.122227 -0.148090 0.332133 -0.278186 
1521 -0.002507 0.024366 0.035499 0.062265 0.019841 0.032175 0.026463 -0.007618 0.012051 0.027473 0.062636 0.025442 0.032952 -0.063957 0.070473 -0.026178 
729 -0.071445 -0.024232 0.259645 0.248297 0.106752 0.036216 0.069516 0.000183 0.177413 0.051936 0.110122 0.030537 0.104872 -0.129920 0.303715 -0.204806 
254 -0.087055 -0.019962 0.316621 0.389245 0.177444 0.052057 0.122518 0.042332 0.184075 0.060237 0.175618 -0.019736 0.094360 -0.159142 0.483491 -0.317419 
1278 -0.096707 0.042481 0.092823 0.085933 0.026699 -0.020089 0.078975 0.010143 0.046725 0.008852 0.066349 0.011341 0.074469 -0.046080 0.088205 -0.091485 
1017 -0.059773 0.016850 0.215588 0.169807 0.064674 0.022856 0.072552 0.034985 0.151627 0.022305 0.156264 0.084220 0.040939 -0.129471 0.202885 -0.146447 
250 -0.175317 0.099675 0.249900 0.427681 0.119957 0.028767 0.167772 -0.037377 0.188340 0.000145 0.228152 -0.053919 0.054207 -0.180576 0.438973 -0.115364 
703 -0.135024 0.022587 0.289957 0.291192 0.128575 0.007700 0.102968 -0.016664 0.198628 0.009605 0.163370 0.016523 0.091569 -0.138230 0.359775 -0.230061 
636 -0.131607 -0.016530 0.314803 0.376733 0.196447 0.004344 0.156135 -0.000119 0.199448 0.046444 0.320379 0.080766 0.208278 -0.267083 0.428314 -0.339102 
1226 -0.129078 0.027477 0.097426 0.172556 0.058609 0.040503 0.082727 0.000297 0.110230 -0.014108 0.156650 -0.008338 0.057274 -0.080312 0.223088 -0.078451 
702 -0.137515 0.012891 0.252268 0.378870 0.130168 0.005813 0.090013 -0.009916 0.148829 0.046159 0.185510 -0.021607 0.126328 -0.188567 0.375936 -0.207937 
1013 -0.138823 0.072056 0.214892 0.226828 0.108279 -0.020619 0.135799 0.041246 0.146208 -0.051569 0.248784 0.083533 0.182240 -0.214408 0.292798 -0.259909 
9 -0.083330 0.228695 0.056791 0.462962 -0.048378 0.191991 0.086941 0.229539 0.105689 0.111305 0.119848 0.035762 0.115806 0.036340 0.092043 -0.142393 
67 -0.016517 0.208927 0.108038 0.425139 0.026206 0.115229 0.001843 0.180980 0.115791 0.081670 0.092389 0.070593 0.182678 0.012267 0.190120 -0.123215 
135 -0.086680 0.251635 0.060706 0.478785 -0.065954 0.177414 0.079549 0.206659 0.110722 0.130722 0.139634 0.032068 0.107801 0.042472 0.141315 -0.163093 
1416 -0.042399 0.056007 0.037022 0.097553 0.034849 0.065903 0.033275 0.052582 0.045930 0.067513 0.064783 0.023403 0.065032 -0.027246 0.070006 -0.036655 
458 -0.113978 0.201794 0.129605 0.360926 -0.001301 0.174449 0.025880 0.111777 0.111136 0.076551 0.124804 -0.037815 0.126766 -0.034207 0.137926 -0.144400 
909 -0.093785 0.222165 0.086755 0.398788 0.018623 0.153174 0.017101 0.205562 0.092109 0.111836 0.172648 0.065014 0.106131 0.010078 0.139016 -0.120082 
26 -0.153005 0.363500 0.128561 0.655018 0.017322 0.264704 0.083990 0.231490 0.242037 0.115383 0.103414 0.021280 0.112736 -0.012599 0.198632 -0.169062 
532 -0.210431 0.336246 0.158629 0.569530 0.037560 0.215166 0.117925 0.120590 0.220741 0.014692 0.155302 -0.062608 0.108158 -0.069362 0.208983 -0.204912 
1557 -0.015270 0.082003 0.036450 0.128344 0.018219 0.056229 0.034163 0.048213 0.021802 0.029719 0.024044 0.020588 0.013166 0.015771 0.030992 -0.031020 
921 -0.103814 0.253004 0.015827 0.353713 -0.030513 0.097086 0.119528 0.201404 0.064255 0.093014 0.140492 0.062697 0.069161 -0.004553 0.105572 -0.113541 
1882 -0.003234 0.010028 -0.028013 0.013904 -0.006334 0.010497 0.001344 -0.010152 -0.018257 -0.016933 -0.019985 -0.030615 0.024179 -0.009635 -0.004027 0.020067 
1885 -0.016270 0.033025 0.009924 0.025346 -0.008187 0.022364 0.017770 0.028313 0.041780 0.034186 -0.013861 -0.005418 -0.017861 -0.017872 0.010647 -0.009227 
159 -0.165394 0.249803 0.157879 0.467691 0.050968 0.202814 0.027931 0.115062 0.206518 0.059502 0.102013 -0.040650 0.108025 -0.048576 0.243353 -0.153849 
1249 -0.068811 0.132212 0.044993 0.251238 -0.024765 0.103560 0.052633 0.109890 0.048673 0.085856 0.054747 0.001620 0.101143 0.022257 0.048456 -0.114682 
1723 -0.019470 0.048296 -0.003431 0.108731 0.003398 0.062904 0.016167 0.048969 0.030856 0.012406 0.015542 0.027870 0.014612 0.007973 0.064204 -0.021173 
1252 -0.078038 0.108790 0.038474 0.199297 -0.008432 0.037624 0.075939 0.145471 0.049699 0.044036 0.083838 0.033834 0.044497 0.026505 0.073068 -0.096751 
1383 -0.069595 0.179787 0.069378 0.259728 -0.037138 0.122778 0.042251 0.106878 0.056026 0.084073 0.071204 0.023552 0.079847 -0.004793 0.083638 -0.105181 
296 -0.056246 0.246025 0.032717 0.402339 -0.039527 0.154961 0.106988 0.184538 0.126397 0.134076 0.130047 0.019286 0.081065 0.024306 0.078397 -0.143862 
873 -0.240615 0.300294 0.153682 0.543449 0.075542 0.233023 0.092537 0.060962 0.222781 0.058205 0.173609 -0.052490 0.081626 -0.108596 0.235729 -0.208302 
1517 -0.017690 0.074184 0.028604 0.130004 -0.028331 0.041944 0.028893 0.080743 0.063712 0.031346 0.049516 0.027371 0.044059 0.018947 0.017325 -0.022376 
686 -0.052514 0.191580 0.070867 0.342030 -0.034201 0.123601 0.092477 0.159041 0.069792 0.096526 0.083332 -0.008405 0.103911 0.029254 0.052079 -0.090162 
1394 -0.034689 0.091648 0.006792 0.199297 -0.015216 0.065955 0.047712 0.134065 0.079680 0.070898 0.067920 0.008012 0.046190 0.013800 0.065573 -0.026847 
979 -0.051292 0.174628 0.022572 0.287935 -0.030066 0.112138 0.092442 0.136269 0.068410 0.108852 0.122344 0.035767 0.065269 0.031718 0.073792 -0.124930 
1078 -0.078755 0.163549 0.030279 0.268939 -0.002619 0.106214 0.110340 0.157380 0.089876 0.092225 0.096126 0.000544 0.046530 0.002412 0.093783 -0.079622 
699 -0.156181 0.238278 0.149196 0.476133 0.075660 0.179057 0.072325 0.017101 0.205109 0.025448 0.123237 -0.058290 0.076590 -0.107543 0.196558 -0.143001 
1866 -0.031618 0.024159 0.026932 0.082315 -0.007346 0.012514 -0.021810 0.044300 0.048644 0.048633 0.041700 0.022366 0.010381 0.008218 0.006648 -0.011238 
10 -0.248489 0.096029 0.182964 0.283824 0.197243 -0.062880 -0.000437 0.041425 0.197324 0.063835 0.158335 0.280275 0.313012 -0.170776 0.213183 0.072648 
579 -0.257134 0.148857 0.356827 0.376454 0.241210 0.061239 -0.045666 0.163717 0.183122 0.154617 0.169656 0.285059 0.433536 -0.268665 0.280386 -0.032665 
580 -0.273027 0.155842 0.419628 0.416377 0.192423 0.153877 0.036302 0.238363 0.055378 0.128198 0.078870 0.240034 0.463190 -0.306544 0.307876 -0.165807 
1286 -0.088017 0.084879 0.135651 0.205567 0.137625 0.011051 -0.008612 0.051699 0.107542 0.057620 0.124638 0.107803 0.156464 -0.035187 0.116862 0.058764 
1099 -0.073638 0.070181 0.178037 0.136218 0.101879 0.080582 0.024143 0.086065 0.035178 0.051355 0.070892 0.091287 0.203453 -0.159115 0.105682 -0.045709 
1358 -0.120861 0.018591 0.112343 0.128530 0.098261 -0.013836 -0.019330 0.057597 0.062518 0.071747 0.077045 0.120932 0.114261 -0.054884 0.078813 0.008096 
79 -0.186665 0.149485 0.278252 0.282856 0.122770 0.100949 0.039893 0.183534 0.016078 0.102519 0.067166 0.175191 0.348926 -0.256031 0.200883 -0.093392 
1872 0.009616 0.014415 0.003247 -0.027353 0.022596 0.000562 0.027996 -0.015884 -0.013652 0.028368 0.004844 0.030205 -0.025949 0.027090 -0.019802 -0.027834 
654 -0.164013 0.084589 0.162642 0.317696 0.180130 -0.002961 -0.023879 0.034235 0.207942 0.136923 0.191639 0.249231 0.248637 -0.123104 0.183068 0.112352 
621 -0.221105 0.099821 0.209049 0.372543 0.177572 -0.013608 -0.033763 0.021469 0.292103 0.134084 0.206184 0.268818 0.335805 -0.142927 0.215159 0.117520 
427 -0.309232 0.070207 0.274827 0.288210 0.218172 0.070587 0.056261 0.043279 0.163326 0.059552 0.155750 0.223858 0.281424 -0.151649 0.245788 -0.034690 
421 -0.336537 0.130525 0.478274 0.475482 0.284434 0.190745 0.045791 0.264820 0.087908 0.140479 0.107638 0.246938 0.524991 -0.326254 0.309686 -0.177758 
995 -0.174023 0.114726 0.151121 0.259160 0.108738 -0.027815 -0.053699 0.044616 0.243584 0.097069 0.195069 0.160630 0.276893 -0.100376 0.207592 0.077961 
1124 -0.075250 0.063515 0.098654 0.195084 0.086193 -0.041293 -0.037201 0.007863 0.115418 0.092922 0.123467 0.100190 0.176230 -0.071507 0.166923 0.071792 
838 -0.178301 0.097719 0.123664 0.209252 0.105153 0.031955 -0.010346 0.013175 0.190648 0.067234 0.169130 0.192341 0.203193 -0.068568 0.214767 0.018780 
369 -0.232222 0.147486 0.136391 0.420099 0.151781 -0.056447 -0.019195 0.033273 0.380852 0.064620 0.292031 0.328308 0.366024 -0.107768 0.277830 0.046566 
424 -0.221354 0.174056 0.103013 0.429757 0.114256 -0.051985 -0.001868 0.092078 0.308261 0.024169 0.272169 0.209969 0.280292 -0.133777 0.231265 0.080250 
1514 -0.064518 0.035911 0.077654 0.082079 0.066127 -0.007075 -0.020905 -0.003444 0.078458 -0.006233 0.089257 0.051047 0.081094 -0.048177 0.069206 0.005637 
1771 -0.013575 0.026118 0.010219 0.006510 -0.006365 -0.023899 0.026438 -0.014532 -0.008811 0.020574 0.022280 0.009370 0.006013 -0.005449 0.029173 -0.018469 
365 -0.195800 0.152105 0.032015 0.398038 0.085343 -0.041526 0.064761 0.106127 0.326267 0.042216 0.242102 0.183403 0.249073 -0.143821 0.245870 0.038643 
1070 -0.111692 0.123425 0.154560 0.204172 0.131703 0.006925 -0.047405 0.060188 0.115165 0.106217 0.114476 0.138753 0.159000 -0.068064 0.147794 0.013748 
687 -0.170644 0.104070 0.161043 0.234708 0.104346 -0.001304 -0.031701 0.063098 0.161902 0.066621 0.125880 0.219694 0.236270 -0.114168 0.142194 0.017917 
304 -0.308076 0.074976 0.276852 0.350130 0.253529 -0.001532 0.039610 0.049181 0.204608 0.109098 0.200527 0.279631 0.350614 -0.153807 0.195081 0.003730 
1000 -0.126746 0.063335 0.117109 0.230336 0.092954 -0.031927 -0.012273 0.060999 0.223459 0.027032 0.201973 0.140421 0.238999 -0.106507 0.174123 0.070564 
562 -0.230621 0.087350 0.198907 0.362702 0.191689 -0.052614 -0.071307 0.041208 0.315024 0.065414 0.261713 0.237492 0.342179 -0.112552 0.222500 0.070388 
187 -0.369360 0.178711 0.430896 0.453414 0.252975 0.052098 0.019432 0.134436 0.336243 0.115027 0.265510 0.353798 0.518289 -0.235647 0.382477 0.047782 
1448 -0.141504 0.070182 0.151355 0.121941 0.095885 0.025297 -0.004084 0.050204 0.079394 0.083776 0.063520 0.109621 0.186971 -0.097222 0.123551 -0.050804 
1401 -0.113272 0.044085 0.067035 0.096008 0.077324 -0.013964 0.029912 0.039987 0.076792 0.034110 0.068231 0.040736 0.084489 -0.036691 0.079899 -0.001751 
293 -0.246812 0.118807 0.144465 0.403282 0.182900 -0.044118 -0.038838 0.045417 0.360119 0.078106 0.324380 0.299141 0.344345 -0.127844 0.326319 0.096132 
1531 -0.137689 0.007131 0.088563 0.129679 0.091980 0.012731 0.022788 0.003586 0.092672 0.061607 0.073351 0.073623 0.126618 -0.065269 0.082472 -0.031485 
1834 -0.014450 0.002669 0.043468 0.055292 0.016004 0.041944 0.029909 0.042408 0.008752 0.012154 0.000864 0.010452 0.010360 -0.014130 0.004465 -0.033574 
11 -0.188806 0.124717 0.163264 0.373705 0.121774 -0.024889 0.142694 0.019149 0.177418 0.012111 0.265182 -0.075026 0.027047 -0.199065 0.377125 -0.085446 
1538 -0.068758 0.029895 0.092942 0.118635 0.059531 0.016667 0.062939 -0.016242 0.023855 0.022479 0.074735 -0.024737 0.060467 -0.029691 0.143242 -0.063913 
1925 0.015459 0.014652 0.027347 0.028871 0.027698 -0.024315 -0.004882 -0.017641 0.027498 -0.022402 -0.030092 -0.028137 0.013837 -0.010339 -0.019407 0.007322 
71 -0.226393 0.159167 0.235331 0.384712 0.103940 -0.013229 0.116172 0.022456 0.204064 -0.015994 0.263401 -0.092679 0.045642 -0.158233 0.396904 -0.051377 
72 -0.180652 0.168842 0.200697 0.405854 0.104290 -0.035219 0.091800 0.017043 0.148838 -0.013262 0.202297 -0.108371 0.071823 -0.162560 0.375555 -0.105415 
1354 -0.088349 0.097581 0.095908 0.219942 0.072590 -0.008198 0.038651 0.009415 0.056605 -0.004587 0.129425 -0.034857 0.022413 -0.073553 0.191789 -0.074539 
1550 -0.059521 0.037452 0.079985 0.120503 0.040715 -0.010492 0.050781 -0.016061 0.066001 -0.018911 0.041480 0.004713 0.011570 -0.042376 0.103364 -0.046075 
173 -0.163067 0.172711 0.134167 0.381797 0.069799 -0.037478 0.112061 0.006961 0.160739 0.021498 0.174354 -0.119677 0.080873 -0.184472 0.306220 -0.051918 
1744 -0.024859 0.019512 0.018734 0.098894 -0.002799 0.037267 0.062688 0.003082 0.028877 0.002030 0.059149 0.015160 -0.008208 -0.051783 0.083039 -0.026780 
1507 -0.042227 0.033894 0.030251 0.090515 0.042672 -0.002346 0.044335 0.010860 0.049674 -0.022578 0.039809 -0.011526 0.032109 -0.041570 0.121181 -0.033945 
148 -0.434791 0.199663 0.346217 0.689634 0.250798 0.103174 0.289013 -0.074844 0.275045 -0.032704 0.411563 -0.121917 0.149264 -0.343535 0.596956 -0.137230 
23 -0.336760 0.170403 0.268875 0.556411 0.154425 0.066177 0.224018 -0.045198 0.229676 -0.018240 0.330533 -0.084652 0.058499 -0.232560 0.530066 -0.107690 
1112 -0.135132 0.065772 0.119514 0.243532 0.032225 0.017340 0.057607 0.003667 0.080352 -0.016429 0.162346 -0.040564 0.046488 -0.071375 0.198903 -0.052030 
411 -0.132239 0.123015 0.185776 0.362600 0.063636 -0.030336 0.096540 0.038781 0.188383 0.007771 0.168960 -0.109400 0.061269 -0.149695 0.359000 -0.083214 
1500 -0.019827 0.049157 0.051375 0.095330 0.002887 -0.031531 0.034837 0.024111 0.034434 -0.029587 0.048486 0.008004 0.002612 -0.010473 0.110334 -0.022541 
197 -0.143157 0.176227 0.122175 0.399098 0.058774 -0.037770 0.093603 0.037835 0.159727 0.016201 0.189588 -0.122796 0.051479 -0.196082 0.331255 -0.113160 
1887 -0.047165 0.030763 0.016525 0.047452 -0.018227 0.031540 -0.002846 -0.005663 0.002161 0.010501 0.024858 -0.024269 0.006830 -0.015887 0.005760 -0.037445 
931 -0.237585 0.127644 0.203209 0.380669 0.132676 0.081337 0.181327 0.011238 0.146940 -0.026596 0.259836 -0.072541 0.066657 -0.206127 0.303169 -0.069241 
1268 -0.133057 0.058496 0.092945 0.182375 0.024176 0.024351 0.047942 0.018473 0.071109 -0.019844 0.148715 -0.023742 0.034842 -0.107995 0.160285 -0.051700 
805 -0.191700 0.144832 0.187732 0.324292 0.115171 0.016786 0.108635 0.010064 0.119651 0.017185 0.206122 -0.062700 0.067091 -0.129301 0.360037 -0.094137 
924 -0.237829 0.100773 0.204612 0.367331 0.111920 0.092481 0.095986 -0.020643 0.163595 0.003662 0.203206 -0.063430 0.068716 -0.161798 0.363471 -0.061073 
813 -0.134089 0.110230 0.181174 0.311017 0.063514 0.012244 0.130335 -0.021657 0.118847 -0.016547 0.233285 -0.045662 0.051750 -0.134258 0.275176 -0.054446 
499 -0.175667 0.142543 0.113905 0.354495 0.073861 0.082131 0.080151 -0.015116 0.137667 -0.049251 0.168073 -0.011486 0.017775 -0.174580 0.248177 -0.081872 
1204 -0.085349 0.092107 0.069019 0.228152 0.067995 0.010548 0.042239 0.037022 0.077088 0.004745 0.116789 -0.072513 0.020313 -0.083297 0.203392 -0.057244 
980 -0.187622 0.094863 0.140388 0.358332 0.114305 0.044108 0.152746 -0.011944 0.167410 -0.013300 0.250268 -0.071082 0.076879 -0.142415 0.282237 -0.097842 
1439 -0.041575 0.055649 0.081066 0.124581 0.061875 -0.007262 0.059939 0.001953 0.075656 0.015118 0.091766 -0.029896 0.032673 -0.048322 0.141759 -0.000753 
828 -0.364183 0.176310 0.298539 0.551598 0.179215 0.117305 0.234152 -0.051295 0.215913 -0.020009 0.302017 -0.102773 0.139533 -0.294018 0.502156 -0.158715 
12 -0.190635 0.071358 0.246844 0.379901 0.138652 -0.037929 0.231228 0.148740 0.372944 -0.021423 0.305730 0.148052 0.232198 -0.341017 0.465608 -0.227328 
512 -0.080252 0.167708 0.083764 0.170167 0.179054 0.046386 0.091886 0.059433 0.253516 -0.130858 0.277432 0.053773 0.302925 -0.177829 0.305448 -0.141846 
258 -0.132910 0.051510 0.162720 0.311453 0.039038 -0.028776 0.122485 0.035231 0.223776 0.088929 0.173259 0.162073 0.100824 -0.169577 0.319564 -0.133526 
131 -0.165340 0.035637 0.295045 0.359974 0.065427 -0.022954 0.199917 0.076784 0.276797 0.063491 0.185560 0.206424 0.100793 -0.240322 0.412337 -0.281633 
1030 -0.118365 0.101710 0.188926 0.236001 0.072255 -0.011677 0.135969 0.078514 0.164994 0.090728 0.077066 0.134930 0.076806 -0.170199 0.237388 -0.066549 
1033 -0.064701 0.094985 0.055319 0.124049 0.104336 0.032738 0.034773 0.055260 0.069862 -0.079088 0.090289 0.031907 0.135698 -0.083476 0.112790 -0.099274 
139 -0.129668 0.042577 0.193467 0.316325 0.036688 -0.031803 0.184900 0.068308 0.260553 0.093882 0.155358 0.181756 0.117015 -0.232305 0.337677 -0.179150 
142 -0.139682 0.200550 -0.029442 0.285800 0.245840 0.077059 0.043514 0.166608 0.232651 -0.127657 0.293875 0.135206 0.341321 -0.135655 0.389741 -0.137802 
1297 -0.076144 0.071690 0.133311 0.162454 0.041366 0.010778 0.070031 0.017545 0.164280 0.070341 0.089496 0.061201 0.081058 -0.114404 0.171079 -0.076369 
1042 -0.062531 0.053465 0.128935 0.132837 0.049742 0.000426 0.101815 0.057800 0.133524 0.027914 0.082397 0.046830 0.044608 -0.073916 0.149676 -0.091095 
643 -0.106056 0.060459 0.238593 0.356172 0.067005 -0.043820 0.183242 0.028120 0.261729 0.081110 0.176711 0.174773 0.087387 -0.214554 0.333872 -0.190813 
1688 0.007786 0.037664 0.014733 0.036430 0.020488 -0.023578 -0.004171 0.006762 -0.006414 0.007912 0.035909 0.000333 0.039347 0.005600 0.046452 -0.030602 
943 -0.102429 0.078843 0.261609 0.312173 0.159293 -0.017142 0.158609 0.101242 0.259753 -0.028301 0.233300 0.115401 0.150150 -0.234093 0.387057 -0.220765 
28 -0.150632 -0.001427 0.283405 0.349045 0.046482 -0.043993 0.162385 0.042697 0.303979 0.090499 0.203117 0.209981 0.092489 -0.265694 0.394266 -0.219816 
928 -0.103146 0.100634 0.110569 0.193993 0.183958 0.040974 0.080261 0.103187 0.238397 -0.103551 0.300600 0.027432 0.315742 -0.232088 0.354280 -0.132979 
1569 -0.007995 0.028387 0.023443 0.043766 0.045732 -0.030705 0.044112 0.026833 0.066977 0.003769 0.065352 0.049051 0.034827 -0.053034 0.032577 -0.022478 
803 -0.072891 0.067581 0.141039 0.206141 0.071317 -0.020855 0.132210 0.022034 0.166572 0.092876 0.119030 0.077408 0.089044 -0.126203 0.239780 -0.123514 
1453 -0.063623 0.048275 0.087590 0.129128 0.004481 -0.014251 0.018136 0.012205 0.114448 0.020173 0.073570 0.022842 0.057076 -0.058021 0.122791 -0.045252 
303 -0.106520 0.031541 0.248617 0.338231 0.056138 -0.011156 0.148134 0.047286 0.222271 0.081652 0.175443 0.142624 0.058134 -0.178250 0.322274 -0.223263 
1073 -0.091061 0.080252 0.151809 0.191068 0.056244 -0.011470 0.051993 0.097068 0.158791 0.101017 0.086971 0.101633 0.066054 -0.104799 0.187496 -0.091980 
219 -0.152686 0.043454 0.226641 0.337176 0.058522 -0.029928 0.185867 0.039962 0.271736 0.084275 0.141818 0.170322 0.136293 -0.224406 0.297021 -0.173304 
823 -0.160826 0.085463 0.290968 0.277513 0.134758 -0.000049 0.148530 0.045966 0.311768 -0.114911 0.341847 0.123534 0.282312 -0.306003 0.415277 -0.331044 
56 -0.087149 0.152350 0.072367 0.200231 0.181779 0.035496 0.114772 0.093154 0.241822 -0.153447 0.266745 0.051391 0.321608 -0.204609 0.318157 -0.171284 
955 -0.078435 0.105593 0.064207 0.098794 0.108043 0.024670 0.089400 0.060123 0.116033 -0.076830 0.143669 0.014096 0.171679 -0.097645 0.166517 -0.097802 
192 -0.123136 0.036193 0.197439 0.303851 0.038636 0.012167 0.140225 0.043284 0.301366 0.096387 0.152291 0.176593 0.133580 -0.229342 0.365822 -0.184403 
1863 -0.001983 0.037806 0.011111 0.010019 0.020611 0.014085 0.028764 0.034562 -0.010231 -0.022269 0.037945 0.015349 0.022370 -0.044003 -0.004674 -0.011077 
1480 -0.038306 -0.022094 0.084204 0.064956 0.010492 0.025641 0.025003 0.025639 0.051149 -0.017833 0.025819 0.042373 -0.002136 -0.066341 0.060439 -0.022043 
1100 -0.070784 0.008271 0.183021 0.169374 0.085867 0.001089 0.090004 0.030692 0.158737 -0.011541 0.172706 0.033681 0.123930 -0.177716 0.233568 -0.155701 
1229 -0.094100 -0.000528 0.198003 0.243609 0.048817 0.009748 0.088837 0.009452 0.165167 0.003771 0.118726 0.058955 0.064039 -0.127855 0.222529 -0.163262 
1876 -0.011791 -0.008840 -0.014329 0.024719 -0.016038 0.030993 0.003026 0.011100 0.029737 0.016967 0.029047 0.011640 0.003598 -0.017812 -0.013446 0.018043 
726 -0.117792 -0.008974 0.212055 0.290237 0.054709 -0.050353 0.115563 0.043954 0.187172 0.071500 0.116748 0.148032 0.080025 -0.167920 0.309831 -0.169544 
983 -0.046438 0.087939 0.049178 0.168833 0.100726 -0.010343 0.077333 0.037666 0.190155 -0.105173 0.208500 0.054909 0.218843 -0.151465 0.179679 -0.127652 
1240 -0.051956 0.010850 0.055037 0.063375 0.045507 -0.024506 0.033404 0.031959 0.072434 0.005525 0.051897 0.000853 0.072805 -0.064287 0.095630 -0.041739 
987 -0.113961 0.076112 0.248455 0.304636 0.106313 -0.000885 0.176225 0.106236 0.212401 0.002784 0.188230 0.105313 0.114512 -0.181986 0.342512 -0.191340 
349 -0.106437 0.155526 0.119505 0.215125 0.207691 0.034334 0.103020 0.109267 0.323170 -0.100304 0.328992 0.062759 0.345249 -0.231147 0.400015 -0.167921 
734 -0.064433 0.100182 0.076100 0.171695 0.143287 0.043194 0.072510 0.065961 0.232496 -0.122538 0.270061 0.052602 0.289253 -0.193451 0.313726 -0.131938 
1770 0.006766 0.036297 0.034364 0.051969 0.030320 -0.010905 -0.007387 0.012065 0.014911 0.011168 0.044908 0.026443 0.000635 -0.025197 0.057719 -0.006152 
1646 -0.016732 -0.001469 0.078505 0.078062 0.027634 0.007981 0.066873 0.047141 0.104714 0.037849 0.104135 0.010048 0.031796 -0.058527 0.097043 -0.025802 
787 -0.095784 0.080433 0.186770 0.249049 0.093257 -0.032414 0.127912 0.061771 0.236172 0.121004 0.110720 0.149091 0.093434 -0.142865 0.305833 -0.098687 
244 -0.182451 0.050572 0.322828 0.455319 0.104553 0.031005 0.243050 0.071452 0.325828 0.057146 0.235329 0.149411 0.095266 -0.245688 0.465835 -0.285223 
887 -0.069655 0.120078 0.056275 0.153030 0.183994 0.075179 0.058539 0.064638 0.222281 -0.032699 0.282601 0.049839 0.268944 -0.219740 0.323015 -0.086294 
895 -0.109878 0.033080 0.253027 0.210464 0.087574 -0.003432 0.076151 0.008272 0.220793 -0.084512 0.234204 0.078326 0.186127 -0.224987 0.306709 -0.190550 
1407 -0.046960 0.042362 0.107204 0.204129 0.031168 0.016397 0.122760 0.053071 0.114493 0.013905 0.110872 0.098931 0.064908 -0.086123 0.132918 -0.112289 
13 -0.241399 0.178661 0.039390 0.417404 -0.033071 0.322559 0.223522 0.344627 0.292431 0.091207 0.062436 0.124882 0.447141 -0.041698 0.318319 -0.177902 
1665 -0.061847 0.022269 0.046317 0.062382 0.007675 0.085148 0.069233 0.048676 0.027152 -0.019270 0.006114 -0.000208 0.074652 -0.045955 0.096482 -0.055302 
706 -0.155165 0.079414 0.009059 0.435150 -0.059660 0.199172 0.117799 0.247984 0.303425 0.093477 0.061833 0.074603 0.294891 -0.014044 0.266196 -0.098441 
523 -0.123230 0.144117 0.063980 0.329247 -0.036799 0.225439 0.128973 0.205668 0.217358 0.047508 0.004521 0.091181 0.356319 -0.061142 0.242737 -0.104510 
69 -0.275221 0.210635 0.051417 0.534696 -0.093905 0.331095 0.253044 0.371618 0.385195 0.089275 0.059913 0.158174 0.474832 -0.049173 0.423096 -0.212951 
1734 -0.074946 0.052978 0.011361 0.128990 -0.009805 0.095091 0.067419 0.032325 0.086246 0.001579 0.003124 0.024163 0.079148 -0.019484 0.102802 -0.038974 
833 -0.120231 0.079083 0.004959 0.383343 -0.037505 0.133538 0.075031 0.214290 0.227244 0.059562 0.041187 0.025731 0.229061 -0.007767 0.197970 -0.076391 
74 -0.192053 0.190444 0.034209 0.353219 -0.019208 0.294505 0.192392 0.292899 0.277564 0.075129 0.025170 0.136453 0.416235 -0.087084 0.275072 -0.138101 
75 -0.269501 0.201677 0.048191 0.553174 -0.109051 0.281106 0.209898 0.378977 0.398029 0.062849 0.094418 0.085197 0.465777 -0.011662 0.428724 -0.163017 
333 -0.247941 0.228870 0.077308 0.517084 -0.053101 0.363711 0.233349 0.372340 0.323329 0.056619 0.031366 0.133934 0.510927 -0.110992 0.415318 -0.213229 
334 -0.157986 0.155678 0.073950 0.381873 -0.050663 0.253874 0.168460 0.252109 0.246688 0.045056 0.031298 0.108809 0.398822 -0.038954 0.277877 -0.177026 
81 -0.250047 0.136994 0.052845 0.605240 -0.103711 0.283273 0.208159 0.417602 0.404191 0.110113 0.099610 0.099775 0.477353 -0.025762 0.411628 -0.218523 
514 -0.183638 0.092614 -0.007909 0.435225 -0.040092 0.180387 0.151265 0.253502 0.253718 0.065828 0.057934 0.031718 0.309297 -0.008773 0.272539 -0.132652 
1597 -0.090432 0.078615 0.023794 0.119107 0.015717 0.114498 0.046815 0.102707 0.091215 -0.016045 -0.003882 0.058933 0.103500 -0.044154 0.105492 -0.019644 
1749 0.014045 0.024831 -0.008569 0.022615 0.022790 0.050526 0.021190 0.030220 0.023065 0.028560 0.007900 0.021408 0.009710 -0.021140 0.027773 -0.008195 
1405 -0.150670 0.111246 0.016264 0.293798 -0.005926 0.198604 0.132183 0.221807 0.196885 0.050529 0.029332 0.097029 0.237814 -0.036699 0.208274 -0.092680 
220 -0.242120 0.195973 0.024632 0.424697 -0.041530 0.269298 0.202982 0.310832 0.291587 0.048842 0.043993 0.134979 0.398724 -0.090761 0.348310 -0.158421 
1821 -0.049919 0.028484 0.037781 0.060766 -0.018939 0.032839 0.014890 0.050872 0.043390 -0.008063 0.022389 0.017659 0.064539 -0.000639 0.012956 -0.001934 
1573 -0.098073 0.060083 0.017084 0.181113 0.021338 0.131619 0.063254 0.124079 0.105071 -0.003267 0.005658 0.030862 0.135558 -0.015496 0.140635 -0.088582 
1248 -0.025667 0.051298 0.003265 0.171079 -0.001233 0.081525 0.044669 0.127232 0.113123 0.033440 0.019826 0.032993 0.085865 -0.011053 0.066826 -0.029129 
1570 -0.093438 0.109722 0.035671 0.143424 0.025071 0.130342 0.051221 0.111942 0.124395 0.045143 -0.012037 0.023440 0.190133 -0.037895 0.154908 -0.065117 
1125 -0.115607 0.104744 0.029694 0.260471 0.016349 0.198433 0.096848 0.189671 0.190481 0.011631 0.018618 0.056420 0.263711 -0.024330 0.201476 -0.110912 
1894 0.010193 -0.000451 0.006090 0.032978 0.024014 0.049105 0.030390 0.010667 0.008573 0.012586 0.018728 -0.018446 0.012706 -0.037526 0.007116 0.001727 
337 -0.237087 0.199861 0.070014 0.653787 -0.072649 0.429430 0.257805 0.438743 0.407527 0.116057 0.064411 0.123695 0.590060 -0.088079 0.479156 -0.226104 
1897 -0.007034 0.017561 0.012056 -0.003209 -0.005197 -0.009207 0.026402 0.037945 -0.014446 -0.024839 0.021074 -0.020205 -0.009079 0.001801 0.029673 -0.034432 
1898 0.021381 0.008800 0.027656 0.030304 -0.018455 0.005729 -0.011934 0.022743 -0.001119 -0.027964 -0.021242 -0.002215 -0.023573 -0.017625 -0.007535 -0.026317 
1020 -0.120863 0.148139 0.008550 0.331116 0.005325 0.208562 0.113660 0.242547 0.179394 0.062571 0.023610 0.069459 0.314155 -0.069589 0.200470 -0.094902 
174 -0.233811 0.206487 0.058341 0.460418 -0.024453 0.343631 0.201053 0.316141 0.347703 0.049501 0.022132 0.110191 0.497150 -0.111123 0.398966 -0.160444 
1149 -0.115339 0.073567 0.026234 0.231551 0.012756 0.128018 0.126989 0.143457 0.165037 0.025317 -0.025386 0.059672 0.221420 -0.005382 0.151025 -0.043415 
752 -0.190751 0.102776 0.010355 0.456088 -0.057194 0.215533 0.121805 0.258990 0.288467 0.054460 0.056497 0.054022 0.354308 -0.032155 0.268551 -0.120990 
629 -0.167606 0.119946 0.047558 0.355375 -0.030829 0.262892 0.179610 0.263398 0.222878 0.047468 0.033336 0.101955 0.359010 -0.077961 0.284537 -0.110255 
223 -0.250932 0.209557 0.022424 0.680767 -0.053310 0.388762 0.276770 0.502575 0.427749 0.158203 0.065533 0.130099 0.547610 -0.074745 0.460470 -0.211531 
892 -0.142975 0.105764 0.030928 0.347257 -0.036085 0.221042 0.118857 0.214485 0.202762 0.021378 0.039953 0.087084 0.313714 -0.052504 0.229925 -0.092174 
1162 -0.129530 0.067433 0.032315 0.275993 0.021389 0.177411 0.116110 0.213265 0.182059 0.061830 -0.011570 0.039319 0.231058 -0.039470 0.187093 -0.106827 
725 -0.132238 0.131851 0.041328 0.298928 -0.006130 0.212557 0.141602 0.221014 0.171036 0.024300 0.023568 0.075143 0.289012 -0.056505 0.218035 -0.100730 
14 -0.053425 0.106702 0.192085 0.682941 0.147898 0.035671 -0.001390 0.105357 -0.011185 0.214824 0.240321 0.418590 0.242156 -0.606301 0.186950 -0.201428 
1283 0.002381 0.015551 0.068030 0.162858 0.061851 0.028443 0.008284 0.050527 0.021321 0.033198 0.090754 0.073387 0.066788 -0.093232 0.065941 0.008439 
644 -0.022528 0.133925 0.181344 0.470731 0.037193 -0.000745 -0.054860 0.036953 -0.028362 0.112982 0.184310 0.257133 0.165424 -0.414700 0.160457 -0.123407 
1541 -0.016509 0.057920 0.091025 0.181144 0.090387 0.062110 0.017049 0.046836 -0.003084 0.039835 0.111314 0.111206 0.080300 -0.142631 0.009733 -0.073918 
134 -0.012984 0.119568 0.167280 0.432508 0.014417 -0.012478 -0.036026 0.020106 -0.009496 0.104266 0.099852 0.231341 0.100418 -0.327484 0.153588 -0.120007 
1418 -0.061164 0.008608 0.042654 0.174829 0.093888 -0.009305 0.029736 0.049729 0.043211 0.051659 0.100445 0.099111 0.141005 -0.155684 0.000817 -0.042522 
1588 0.002705 0.013321 0.014766 0.127442 0.081517 0.008009 0.003138 0.023045 0.023263 0.028932 0.086127 0.066068 0.064533 -0.098176 -0.003915 -0.003487 
685 -0.016075 0.061302 0.139157 0.264079 0.012920 -0.018558 -0.042207 0.045190 -0.008750 0.067528 0.078504 0.161264 0.055043 -0.219321 0.090748 -0.052386 
401 -0.065444 -0.018774 0.163760 0.484215 0.230312 0.020657 0.105997 0.157568 0.110838 0.147988 0.314167 0.325183 0.350993 -0.481584 0.114300 -0.141801 
1356 -0.018747 0.031964 0.059718 0.200323 0.060716 -0.037542 0.002936 0.044147 0.023585 0.050367 0.076077 0.109741 0.105597 -0.125346 0.044384 -0.027699 
282 -0.076253 0.154334 0.174448 0.575042 0.044889 0.000372 -0.043033 0.022298 -0.028507 0.174985 0.177624 0.300057 0.185591 -0.486561 0.174475 -0.197027 
474 -0.052184 0.031733 0.116624 0.414291 0.117270 -0.014069 -0.010908 0.066605 0.061368 0.123430 0.169870 0.235059 0.179851 -0.371103 0.127755 -0.070122 
418 -0.050254 0.014860 0.127510 0.455052 0.095827 0.007021 0.042046 0.084027 0.072674 0.165120 0.201153 0.282427 0.198987 -0.414260 0.114311 -0.130999 
1059 -0.031681 0.010542 0.074604 0.135974 -0.032798 0.018034 -0.021665 0.029088 -0.034136 0.023170 0.039686 0.094645 0.037801 -0.097403 0.086350 -0.043115 
420 -0.089957 0.008307 0.223517 0.641153 0.244188 0.108526 0.152186 0.172588 0.126032 0.062388 0.295015 0.252043 0.380071 -0.621813 0.117382 -0.088761 
678 -0.077029 0.061113 0.053237 0.284796 0.080327 -0.013166 0.011095 0.081886 0.005949 0.121735 0.170914 0.148508 0.165955 -0.257951 0.059219 -0.099188 
298 -0.037805 0.080834 0.182982 0.489818 0.085946 -0.011844 -0.025066 0.018205 -0.024823 0.151237 0.186964 0.279356 0.209804 -0.426344 0.162227 -0.166077 
419 -0.039278 -0.015982 0.227607 0.543024 0.173394 0.058455 0.078873 0.159904 0.126644 0.141484 0.303562 0.306553 0.328686 -0.577906 0.185795 -0.118202 
1586 -0.043690 0.024451 0.001790 0.037241 -0.009800 0.037670 0.023591 0.031247 0.007749 0.012470 0.032381 0.055869 0.041803 -0.071638 0.015696 0.010699 
691 0.003995 0.054317 0.086744 0.266082 -0.002905 -0.010594 -0.036909 0.017632 -0.015235 0.028818 0.059009 0.151379 0.105014 -0.214855 0.135750 -0.041212 
1114 -0.033272 0.029527 0.089374 0.347216 0.184966 0.028340 0.079653 0.087473 0.048778 0.045143 0.211186 0.168908 0.213810 -0.294088 0.036233 -0.086985 
565 -0.029827 0.076136 0.166192 0.465765 0.053235 -0.022345 -0.020835 0.011878 0.007439 0.106457 0.188486 0.247175 0.160225 -0.403008 0.145422 -0.149173 
1463 0.003003 0.002153 0.054822 0.134985 0.010733 -0.019845 -0.010461 0.000925 0.023416 0.061439 0.086600 0.032661 0.093313 -0.083646 0.020809 -0.020966 
1465 -0.020242 0.015752 0.064044 0.155080 -0.006843 0.042438 -0.009311 0.013629 0.003784 0.030946 0.063983 0.061183 0.042742 -0.123840 0.030496 -0.042824 
1338 -0.022439 -0.000324 0.062156 0.252857 0.108135 0.002090 0.046263 0.042686 0.044527 0.079374 0.172180 0.127984 0.190420 -0.223618 0.058310 -0.092244 
575 -0.117558 0.004070 0.119675 0.535134 0.254212 0.036122 0.066332 0.180086 0.126482 0.110553 0.394233 0.327024 0.420862 -0.537049 0.124967 -0.179268 
448 -0.037018 0.034526 0.150099 0.421833 0.093607 -0.040634 -0.005098 0.059569 -0.012222 0.120589 0.164459 0.289098 0.199067 -0.341952 0.117663 -0.097648 
581 -0.111583 0.013423 0.155820 0.629543 0.321855 0.055000 0.119976 0.205111 0.125011 0.135752 0.479781 0.356956 0.544455 -0.618398 0.153882 -0.223400 
969 -0.000374 0.091047 0.156412 0.318931 0.014407 0.035656 -0.058353 0.009712 -0.018999 0.076570 0.112451 0.159040 0.090380 -0.245283 0.117118 -0.067617 
1612 -0.036545 0.015606 0.044634 0.040908 0.003450 0.012939 -0.001575 0.043022 0.020766 0.031490 0.068653 0.045385 0.020121 -0.051280 0.009151 0.001726 
462 -0.001441 0.082104 0.163471 0.395379 0.029873 -0.008317 -0.040092 0.006855 -0.009696 0.101475 0.110337 0.219704 0.082378 -0.303594 0.154723 -0.111537 
1359 -0.032224 -0.001788 0.084109 0.240024 0.079908 -0.004813 0.044374 0.107370 0.097549 0.061860 0.168149 0.149724 0.201299 -0.215174 0.020418 -0.052488 
1745 0.012910 -0.024078 -0.028055 -0.004426 0.020185 0.018131 -0.023630 -0.010324 0.010686 -0.013355 -0.013219 0.029852 -0.021230 0.023647 -0.003682 -0.005973 
1443 -0.053581 0.040427 0.040682 0.175540 0.065462 -0.001535 0.023922 0.041291 0.010621 0.030455 0.106875 0.083872 0.121415 -0.163516 0.018440 -0.069482 
597 -0.044202 0.130414 0.224698 0.482963 0.014888 0.036079 -0.053657 0.026298 -0.042079 0.091334 0.148099 0.241065 0.110340 -0.394842 0.205156 -0.169076 
1110 -0.023718 0.003344 0.100775 0.380847 0.193801 0.019878 0.087983 0.140946 0.101629 0.072999 0.265176 0.211500 0.299630 -0.366693 0.101740 -0.110405 
697 -0.050830 0.138638 0.189276 0.379445 -0.015432 0.043640 -0.029359 0.015744 -0.030704 0.067954 0.107544 0.216672 0.081950 -0.318351 0.154350 -0.100682 
88 -0.088664 0.026372 0.089051 0.441426 0.199077 0.003351 0.081221 0.179192 0.071396 0.172544 0.282735 0.289817 0.352406 -0.402667 0.071283 -0.100398 
1626 -0.032479 0.007861 0.037944 0.060660 0.012096 0.002770 0.017012 0.029396 -0.003942 -0.003168 0.054622 0.023216 0.032360 -0.026928 0.038853 0.009318 
847 -0.052911 0.036216 0.137747 0.419027 0.170137 -0.011202 0.089401 0.106987 0.106866 0.119389 0.309094 0.247173 0.349307 -0.393042 0.080912 -0.120566 
990 -0.016289 0.061030 0.109366 0.317806 0.065191 -0.038740 -0.031362 0.023079 0.005208 0.086418 0.139023 0.145396 0.067062 -0.251532 0.115727 -0.044787 
224 -0.039642 0.051770 0.212225 0.636172 0.100323 0.014415 -0.034501 0.059406 0.003967 0.092738 0.154399 0.297217 0.180626 -0.545327 0.231782 -0.064130 
913 -0.025482 0.037606 0.166437 0.529615 0.177034 0.009830 0.033298 0.116154 0.082720 0.164290 0.290369 0.268591 0.294428 -0.513535 0.141575 -0.172526 
1392 -0.051901 0.008048 0.082989 0.283798 0.140540 0.061240 0.068484 0.085705 0.049950 0.063897 0.159999 0.130829 0.177448 -0.280217 0.024158 -0.091702 
1522 -0.001519 0.014256 0.041513 0.057146 0.034760 0.002110 0.009253 0.000989 0.010149 0.042262 0.056045 0.022545 0.071686 -0.049937 0.038417 -0.044521 
851 -0.040905 0.072984 0.139215 0.396138 0.091645 -0.043210 -0.017881 0.020945 -0.003317 0.132530 0.182769 0.223236 0.116877 -0.322917 0.128872 -0.090125 
1781 -0.025583 0.011419 -0.020358 0.042528 0.008310 0.010863 0.008083 0.003533 0.018953 -0.012134 0.008116 0.003684 0.034413 -0.042852 0.002254 -0.031835 
506 -0.054216 0.150800 0.256160 0.602260 0.044506 0.039779 -0.083502 0.011569 -0.040885 0.116033 0.206629 0.320407 0.167857 -0.496031 0.254263 -0.182147 
191 -0.032277 0.123448 0.182273 0.525671 0.038466 -0.000606 -0.058281 0.042126 -0.006027 0.075885 0.120884 0.288488 0.079490 -0.427473 0.233150 -0.171320 
1066 0.001034 0.038994 0.102154 0.295511 0.061221 0.020225 0.009415 0.086792 0.042258 0.101515 0.147042 0.208889 0.102131 -0.262129 0.117287 -0.082069 
15 -0.118910 0.096549 0.231201 0.336792 0.102768 0.266375 0.128863 0.026513 0.067434 -0.040208 0.014116 0.019088 0.581868 0.138612 0.197843 -0.084112 
1270 0.006679 0.048078 0.099475 0.099158 0.077916 0.119216 0.066680 0.068258 0.007069 -0.034329 -0.010797 0.123011 0.239938 0.028239 0.154793 -0.001861 
707 -0.091465 0.066071 0.160850 0.271527 0.123890 0.153736 0.127953 0.027599 0.090450 0.085072 0.014542 0.072252 0.408885 0.040350 0.078272 -0.087367 
452 -0.148709 0.152945 0.193901 0.409251 0.249261 0.348510 0.159090 -0.038957 0.074058 -0.088607 0.132919 -0.034092 0.673616 0.126217 0.159704 -0.129821 
645 -0.023327 0.132995 0.203775 0.225742 0.108053 0.225546 0.163033 0.137605 0.132116 0.053210 -0.089528 0.157928 0.463521 0.089163 0.280383 0.009115 
1864 -0.028435 -0.022593 0.025687 0.013019 0.024764 0.005002 0.037302 -0.013940 0.042431 0.028522 0.028288 -0.012793 0.043976 -0.021024 0.022295 -0.038424 
1417 -0.003192 0.004414 0.069049 0.122860 0.045630 0.095545 0.012959 0.046634 0.027255 -0.002976 -0.017888 0.048788 0.171719 -0.000505 0.019730 -0.018205 
1098 -0.031749 0.071052 0.111891 0.160601 0.073574 0.211765 0.129406 0.062213 0.080512 0.082653 -0.042186 0.173333 0.370212 0.026994 0.215655 -0.052009 
587 -0.061434 0.107620 0.129896 0.199959 0.031818 0.192709 0.149408 0.109072 0.172339 0.164837 -0.070864 0.247368 0.406161 0.072629 0.273260 -0.043730 
1549 -0.045073 0.030593 0.123961 0.132225 0.061424 0.072031 0.030364 -0.009872 0.050342 -0.031157 0.004683 -0.019459 0.206378 0.052277 0.085882 -0.024242 
848 -0.077657 0.118642 0.157756 0.312312 0.187723 0.234694 0.066269 -0.018612 0.055346 -0.041070 0.073050 0.032216 0.446132 0.115955 0.077050 -0.112651 
1873 -0.048139 0.034100 0.024629 0.041450 -0.025534 0.018174 -0.011729 0.011105 0.019132 0.018327 0.015573 -0.011148 0.063309 0.012831 0.027154 -0.034593 
18 -0.153197 0.100546 0.189310 0.450315 0.120726 0.168382 0.177407 -0.006819 0.114718 0.095950 0.034664 0.082924 0.509638 -0.074227 0.099835 -0.059959 
1795 -0.040887 0.015506 0.021152 0.087829 0.027070 0.023888 0.007799 -0.012614 -0.003155 -0.035835 0.005294 -0.000928 0.102211 0.026437 0.016723 -0.016460 
505 -0.027307 0.060921 0.188127 0.232919 0.122678 0.218279 0.040414 -0.019539 0.078275 -0.109492 0.002882 0.101058 0.410506 0.105217 0.221276 -0.067627 
1689 -0.032809 0.070955 0.118557 0.143785 0.048599 0.075927 0.040924 -0.020280 0.047437 -0.041320 -0.012207 0.004121 0.193815 0.019110 0.050079 -0.027458 
600 -0.013210 0.113933 0.184001 0.208728 0.097226 0.266022 0.156558 0.136093 0.130119 0.061767 -0.106030 0.257062 0.424255 0.060384 0.334657 0.010238 
25 -0.141976 0.069684 0.206015 0.342537 0.175018 0.350468 0.111466 0.077028 0.034905 -0.032156 0.038701 0.042278 0.631399 0.081561 0.135788 -0.065030 
1692 -0.035051 0.045519 0.051559 0.085028 0.049672 0.032595 0.038226 -0.037798 0.057062 -0.042011 0.014793 -0.005950 0.157435 -0.000102 0.042884 -0.021171 
280 -0.050182 0.097927 0.186784 0.263078 0.091054 0.318544 0.107422 0.023604 0.090933 -0.034438 -0.088495 0.114917 0.514235 0.081040 0.211673 -0.025010 
1695 -0.026121 0.046967 0.097283 0.104031 0.056494 0.093976 -0.000163 0.031080 0.005014 -0.041296 -0.017431 0.011287 0.164654 0.030581 0.105250 -0.041268 
864 -0.096432 0.131770 0.229036 0.347908 0.206040 0.245840 0.088027 -0.050113 0.098336 -0.118672 0.098024 -0.006930 0.542850 0.133255 0.158201 -0.113521 
688 -0.092757 0.065826 0.173247 0.377502 0.174136 0.240863 0.126010 0.027323 0.078853 -0.058931 0.073086 0.003580 0.539448 0.100911 0.088720 -0.093167 
611 -0.106951 0.070850 0.183145 0.379692 0.141185 0.108364 0.088271 -0.038395 0.131339 -0.002672 0.077570 0.028590 0.409719 -0.011550 0.098084 -0.091946 
651 -0.036846 0.077880 0.171066 0.335302 0.146296 0.245094 0.058183 -0.059563 0.066940 -0.150301 0.114114 -0.055451 0.453669 0.129467 0.158666 -0.102535 
1446 -0.038345 0.010242 0.027047 0.053464 0.014187 0.070743 0.019056 0.013937 0.053685 0.005878 -0.005893 0.043006 0.102079 -0.003239 0.046181 -0.055109 
1002 -0.040211 0.051008 0.145697 0.272741 0.147932 0.181508 0.092746 0.038063 0.088404 0.010190 0.057671 0.031058 0.381007 0.038341 0.085247 -0.063292 
1835 0.006422 -0.003918 0.022567 0.038918 0.013920 -0.012534 0.031545 -0.007263 0.023742 -0.010206 0.033177 -0.026845 0.055334 0.014530 0.013178 -0.025162 
517 -0.064447 0.104254 0.152524 0.216851 0.053166 0.091893 0.063304 -0.008777 0.095493 0.058212 -0.025849 0.066456 0.370954 0.044808 0.145006 -0.047023 
274 -0.007990 0.045215 0.217155 0.231452 0.074525 0.183490 0.081523 -0.039249 0.053623 -0.084079 0.034990 0.043211 0.408391 0.065868 0.222910 -0.079453 
750 -0.076953 0.147337 0.236353 0.385765 0.159580 0.292230 0.070004 -0.012203 0.081564 -0.160514 0.087278 -0.011602 0.561872 0.118320 0.173398 -0.120222 
559 -0.048892 0.158130 0.204646 0.278896 0.051841 0.301442 0.200618 0.122950 0.153378 0.148580 -0.102612 0.243990 0.533791 0.098841 0.290263 -0.003983 
1072 -0.011349 0.073026 0.176429 0.212623 0.057882 0.114944 0.047293 -0.027057 0.042012 -0.058793 -0.007552 0.028600 0.309316 0.036072 0.177101 -0.060102 
1800 -0.035937 0.038476 0.056965 0.094440 0.008571 0.063439 0.041318 -0.031350 -0.006566 0.015601 0.031917 -0.003548 0.122941 0.028178 0.026398 0.016649 
1035 -0.033492 0.067935 0.156857 0.195615 0.131563 0.135892 0.046247 -0.028748 0.052806 -0.084095 0.049827 -0.017333 0.285140 0.049591 0.112468 -0.048861 
1764 -0.021515 0.038029 0.078563 0.077784 0.048759 0.039957 0.036335 -0.021276 0.051008 -0.025147 0.014974 0.024471 0.173444 0.036615 0.044866 -0.009213 
1398 -0.034310 0.015578 0.117490 0.209514 0.063257 0.139730 0.075461 -0.021482 0.056075 -0.055221 0.015119 0.018415 0.291396 0.030144 0.092732 -0.037737 
1860 0.014906 -0.013035 0.024837 0.052094 -0.005976 -0.006471 0.015922 -0.012705 0.028815 0.013286 0.032567 -0.020030 0.043289 -0.025017 0.030298 -0.026980 
364 -0.087451 0.078179 0.125269 0.250951 0.126580 0.265602 0.085412 0.073574 0.062369 0.014379 0.021721 0.058040 0.475546 0.055961 0.085373 -0.075389 
317 -0.067900 0.136029 0.254566 0.321881 0.120538 0.375323 0.114675 0.075967 0.065241 0.010808 -0.048410 0.135294 0.626497 0.110956 0.237510 -0.076445 
1526 -0.086386 0.049509 0.129431 0.184144 0.106299 0.101554 0.041833 0.084978 0.120152 0.093150 0.094059 0.059351 0.092317 -0.110496 0.175933 -0.048678 
1888 -0.028278 0.008671 0.011949 0.066763 0.027130 -0.024791 0.006089 -0.015112 0.040624 -0.015972 -0.002430 -0.001133 0.040275 -0.042313 0.051143 0.008133 
1289 -0.092244 0.119720 0.133692 0.207919 0.076785 0.094866 0.044547 0.143691 0.169530 0.131039 0.076621 0.069647 0.085531 -0.126065 0.212927 -0.000538 
1746 -0.037218 0.011233 0.006934 0.038182 0.023230 0.008701 0.037201 -0.002570 0.029372 -0.005574 0.048091 0.048913 0.001224 -0.025143 0.039234 -0.039230 
946 -0.141542 0.114907 0.191491 0.279665 0.113128 0.145762 0.060159 0.179615 0.168377 0.190718 0.118667 0.041259 0.106380 -0.149684 0.270096 0.016030 
708 -0.121435 0.148874 0.223137 0.286392 0.103189 0.131275 0.069124 0.201460 0.197289 0.181852 0.127352 0.030756 0.156028 -0.171031 0.308012 -0.023060 
1473 -0.089804 0.083706 0.091597 0.125688 0.056168 0.051518 0.058014 -0.020177 0.127926 -0.003517 0.091746 0.002086 0.151822 -0.143432 0.161143 -0.083533 
1867 -0.037134 0.037578 -0.024231 0.006817 -0.012606 -0.010259 -0.014008 0.021688 0.029020 0.014330 -0.016201 0.003790 0.034068 -0.027226 0.031494 -0.023129 
268 -0.169903 0.295758 -0.045674 0.338463 0.143809 0.194514 0.066938 0.197157 0.211653 0.080723 0.179382 0.164282 0.205894 -0.101467 0.190296 -0.063764 
719 -0.255387 0.241029 0.144002 0.437897 0.164486 0.145985 0.204835 -0.023798 0.195232 0.029846 0.285292 -0.035863 0.139950 -0.295151 0.321045 -0.083670 
1556 -0.074473 0.054071 0.026501 0.085367 0.057234 0.013206 0.050540 0.043275 0.056835 0.007936 0.091339 0.049081 0.051433 -0.078077 0.093047 -0.030407 
1434 -0.078465 0.078526 0.075665 0.128596 0.075721 0.022037 0.032497 -0.001763 0.112232 0.043908 0.151563 0.074831 0.072320 -0.090398 0.109469 -0.083029 
443 -0.235232 0.324587 -0.005295 0.366145 0.119953 0.185705 0.162426 0.217330 0.154229 0.086310 0.182633 0.112905 0.192742 -0.093581 0.160365 -0.072405 
556 -0.110431 0.209571 -0.062338 0.306281 0.100783 0.145570 0.040467 0.158444 0.177596 0.045445 0.182093 0.139642 0.174474 -0.072842 0.167281 -0.024812 
1005 -0.164875 0.269101 -0.020202 0.318048 0.121858 0.165954 0.080915 0.147243 0.123106 0.064096 0.145717 0.093545 0.159914 -0.095324 0.138113 -0.031219 
1928 0.006519 -0.004680 -0.005607 0.023424 0.016256 0.015565 -0.014278 -0.000026 -0.023388 0.003738 0.017358 -0.027721 0.020797 0.004869 -0.000281 0.009687 
1395 -0.054348 0.127894 -0.007289 0.174388 0.049800 0.066528 0.036068 0.024701 0.068105 0.025912 0.094533 0.039338 0.084442 -0.035970 0.086514 -0.018043 
1590 -0.026320 0.044739 -0.002009 0.072181 -0.001977 0.025509 0.017935 0.029399 0.035298 -0.019349 0.005499 0.008443 0.022150 -0.011443 0.040221 0.004682 
894 -0.088781 0.188750 -0.021141 0.276002 0.077106 0.146759 0.059638 0.093112 0.153762 0.020009 0.163757 0.124276 0.139834 -0.070907 0.140836 -0.070365 
1856 -0.019215 -0.006886 0.047195 0.013508 -0.017029 0.002985 0.041570 -0.024684 0.005105 -0.001399 0.024335 0.026974 0.047434 -0.012160 0.019013 -0.032588 
450 -0.191877 0.105034 0.158636 0.439493 0.071374 -0.037717 0.108098 0.009807 0.180311 0.182808 0.000260 0.191914 0.389583 -0.082918 0.130519 -0.103577 
709 -0.192302 0.058990 0.113036 0.340732 0.033931 -0.012788 0.053134 0.022954 0.126117 0.107614 0.021238 0.176371 0.310571 -0.093372 0.158054 -0.068636 
1900 -0.018776 -0.011033 0.030495 0.013980 0.004872 -0.001042 0.003505 0.029104 -0.025198 -0.014968 -0.011342 -0.005977 0.003917 0.014186 -0.023216 -0.024595 
1482 -0.043105 0.033436 0.077586 0.149990 0.012973 0.036322 0.010516 -0.002049 0.020521 0.038225 -0.000208 0.042346 0.091539 -0.038845 0.061092 -0.004031 
77 -0.199078 0.078520 0.162795 0.411018 0.045884 -0.034869 0.120933 0.016096 0.155254 0.136973 -0.002074 0.185022 0.364607 -0.096159 0.154969 -0.124576 
20 -0.279464 0.094360 0.216513 0.503812 0.032814 0.025372 0.130945 -0.036049 0.237102 0.237815 -0.022280 0.221688 0.556157 -0.082254 0.191356 -0.128804 
1877 0.010219 -0.007393 -0.001769 0.067763 0.006061 0.025740 0.015536 -0.017363 0.008540 0.035725 -0.009493 0.007651 0.015004 0.017629 0.019842 0.015596 
475 -0.113421 0.066871 0.131947 0.282451 0.168625 0.177015 0.124247 0.010848 0.033223 0.025382 0.055733 0.008880 0.400352 0.017182 0.086680 -0.056235 
1245 -0.064074 0.032052 0.144698 0.223871 0.053226 0.100800 0.104020 0.025424 0.047594 0.044634 0.049593 0.050066 0.253202 -0.045746 0.076101 -0.036042 
484 -0.172729 0.102649 0.163240 0.355546 0.061604 -0.026748 0.056168 0.034978 0.139557 0.157527 0.010105 0.194367 0.303065 -0.100222 0.156772 -0.045735 
549 -0.194693 0.082366 0.213048 0.418981 0.083908 0.004642 0.126009 0.068867 0.170589 0.112001 0.009425 0.123566 0.399548 -0.110379 0.102573 -0.036522 
1767 -0.050341 0.032273 0.111936 0.134489 0.033060 0.049664 0.023831 -0.015418 0.036222 -0.002287 0.039454 0.006026 0.145086 -0.042357 0.038638 -0.047686 
361 -0.186810 0.062320 0.155103 0.415908 0.060324 -0.014461 0.113100 0.001115 0.183391 0.147480 0.002507 0.231310 0.466920 -0.014572 0.147106 -0.128920 
428 -0.455321 0.086905 0.328293 0.606647 0.108363 0.143916 0.121517 0.193913 0.237368 0.129076 -0.017709 0.309932 0.334269 -0.315166 0.090450 0.004811 
241 -0.265735 0.114643 0.208320 0.489610 0.058195 -0.015659 0.099411 0.019197 0.185657 0.217820 -0.032278 0.211263 0.508928 -0.061603 0.189505 -0.127184 
469 -0.443926 0.122594 0.292305 0.619283 0.120694 0.108839 0.152858 0.174645 0.202650 0.105384 -0.017628 0.317037 0.361820 -0.353630 0.099999 -0.024677 
1524 -0.088704 0.018707 0.097311 0.175017 0.003766 0.010476 0.006988 -0.020372 0.081932 0.036849 0.007080 0.064236 0.142344 -0.018149 0.083036 -0.007399 
1790 -0.007400 0.031507 0.009201 0.077418 0.012941 0.000264 -0.006105 0.018651 0.017125 0.040482 -0.008103 0.017603 0.036100 -0.043213 0.028251 -0.014468 
1846 -0.014889 -0.006738 0.054882 0.078533 0.000956 -0.009886 -0.002685 0.005121 0.021145 0.027214 -0.007547 -0.005478 0.057740 -0.046390 0.024884 -0.004868 
952 -0.063160 0.106642 0.178565 0.288201 0.199332 0.194930 0.057101 0.000036 0.063135 -0.082939 0.112289 -0.010480 0.398834 0.063633 0.084755 -0.106847 
1469 -0.088553 0.088665 0.148157 0.237597 0.016425 0.024562 0.090893 0.009934 0.076163 0.095203 0.032275 0.103639 0.244224 -0.078457 0.121643 -0.021096 
1470 -0.052854 0.012525 0.093996 0.124255 0.091081 0.067281 0.037152 -0.007369 0.054420 0.001573 0.020465 0.006075 0.158558 -0.012074 0.013790 -0.030910 
1471 -0.040841 0.024009 0.097991 0.146558 0.055080 0.068928 0.027218 -0.043516 0.030481 -0.020830 0.049401 0.012555 0.199906 0.031074 0.039686 -0.036242 
1778 -0.000726 0.023554 0.024020 0.032709 0.023792 0.014669 0.034235 0.015987 -0.025479 0.012002 0.003697 0.028352 0.014130 0.004230 0.009787 0.014303 
832 -0.154128 0.135767 0.116279 0.239508 0.020467 0.143905 0.143249 0.065015 0.209644 0.122843 -0.077681 0.205666 0.428022 0.061394 0.318751 -0.096387 
1089 -0.123645 0.095074 0.077668 0.199178 0.030961 0.017019 0.064287 -0.006091 0.095329 0.065853 0.011946 0.093864 0.161872 -0.053066 0.128682 -0.043226 
1540 -0.080351 0.084445 0.095021 0.165980 -0.017746 0.004907 0.029713 0.003355 0.083594 0.021212 0.018312 0.089998 0.163025 -0.018250 0.102022 -0.054336 
774 -0.311023 0.183541 0.160070 0.523920 0.076930 -0.013909 0.124025 -0.040046 0.224982 0.154144 -0.042285 0.333225 0.505986 -0.066493 0.363601 -0.143803 
940 -0.279413 0.177589 0.144069 0.471359 0.067275 -0.048654 0.082340 -0.026290 0.211207 0.147995 0.010985 0.302576 0.414286 -0.131311 0.287385 -0.103608 
1290 -0.116114 0.089300 0.160209 0.267387 0.001777 0.010506 0.064320 0.029686 0.150210 0.083824 -0.027689 0.122883 0.328372 -0.009754 0.171583 -0.056064 
1227 -0.101321 0.100840 0.098025 0.214018 0.033179 0.014578 0.065986 -0.029410 0.128072 0.105136 -0.038686 0.163199 0.237365 0.009805 0.158138 -0.090324 
716 -0.227306 0.179225 0.214915 0.429962 0.036445 0.035749 0.106665 -0.018488 0.235131 0.220125 -0.053444 0.321724 0.603818 -0.001395 0.356972 -0.153758 
399 -0.536881 0.159208 0.314545 0.707843 0.095861 0.067891 0.170030 0.121591 0.263591 0.152653 -0.043175 0.387491 0.378172 -0.331236 0.178850 -0.098597 
1875 -0.028171 0.035592 0.016299 0.034193 0.007689 -0.011340 -0.017969 -0.016684 0.028816 0.003427 0.020224 -0.011662 0.003151 -0.008131 0.027443 0.021772 
1813 -0.046502 0.025866 0.045453 0.093089 0.011973 0.010224 0.012863 0.018458 0.017991 0.025107 -0.002736 0.015281 0.059492 -0.013093 0.003719 -0.027565 
216 -0.118238 0.056851 0.163648 0.301983 0.105858 0.204327 0.148074 0.092469 0.092818 0.144833 -0.036740 0.115189 0.402098 0.024921 0.141340 -0.095503 
670 -0.239211 0.162959 0.160965 0.407101 0.071506 -0.000346 0.115603 -0.022568 0.212298 0.133585 -0.034522 0.320824 0.486519 0.030019 0.343088 -0.162235 
1791 -0.020643 0.029793 0.020666 0.043387 0.019354 0.004268 -0.009672 0.001304 0.004213 0.007796 0.029214 -0.008861 0.024132 0.021319 0.019907 -0.030193 
1440 -0.123768 0.084383 0.087200 0.225398 0.012864 -0.037287 0.036074 0.015541 0.128077 0.074819 -0.004866 0.079185 0.210803 -0.062746 0.114508 -0.046408 
878 -0.165974 0.109195 0.073943 0.220264 0.062983 0.064692 0.037122 0.013307 0.153551 0.090208 -0.021284 0.178142 0.285000 0.012975 0.180190 -0.111276 
1328 -0.068404 0.119412 0.075666 0.206352 0.012996 0.005141 0.018441 -0.027768 0.108044 0.073191 -0.009087 0.147120 0.253054 -0.012406 0.170788 -0.050850 
114 -0.408015 0.184463 0.198054 0.564138 0.128957 -0.041512 0.101401 -0.022758 0.253729 0.119423 -0.030976 0.322048 0.390124 -0.208119 0.257956 -0.122388 
1523 -0.050714 0.022188 0.044243 0.109152 0.019412 0.040395 0.052233 0.004773 0.061506 0.050982 -0.048428 0.078437 0.147930 -0.004642 0.114654 -0.025045 
885 -0.124638 0.051127 0.071661 0.222889 0.043224 0.048896 0.060759 0.026187 0.076195 0.037735 -0.013999 0.160067 0.258708 0.000980 0.160414 -0.095868 
319 -0.285986 0.077684 0.175835 0.383191 0.092666 -0.022749 0.095073 0.011216 0.187797 0.135619 -0.041160 0.240137 0.322590 -0.073486 0.201158 -0.136871 
1658 -0.057586 0.069605 0.084732 0.136545 -0.004336 -0.021375 0.058923 -0.006132 0.056227 0.034113 0.009778 0.039080 0.105786 -0.076101 0.080187 -0.053626 
53 -0.599188 0.158789 0.307829 0.750837 0.152544 0.065015 0.161944 0.107798 0.250056 0.174121 -0.089925 0.403260 0.386879 -0.384902 0.209013 -0.111028 
21 -0.278293 0.201537 0.097479 0.370701 0.127712 0.018831 0.105940 0.112313 0.041240 0.104792 0.285613 0.167610 0.077329 -0.066140 0.163105 -0.010911 
322 -0.295145 0.312778 0.117189 0.444087 0.177255 0.026067 0.151484 0.163312 0.095493 0.197939 0.334811 0.246157 0.136408 -0.047449 0.190742 -0.021151 
451 -0.337827 0.359855 0.079175 0.533354 0.119081 0.073209 0.250477 0.235253 0.105267 0.171362 0.328999 0.221401 0.099050 -0.061254 0.218677 -0.056116 
1219 -0.165028 0.167923 0.115283 0.311439 0.074122 0.017440 0.043596 0.117975 0.114528 0.070887 0.196683 0.164831 0.132618 -0.037424 0.105056 -0.011134 
473 -0.285972 0.231050 0.141645 0.357831 0.134550 0.070580 0.118549 0.071018 0.078903 0.133798 0.246666 0.174000 0.127663 -0.071109 0.132296 -0.040474 
1116 -0.130582 0.155325 0.031985 0.234830 0.039354 0.046808 0.084411 0.107679 0.067862 0.052849 0.182718 0.130499 0.068936 -0.011366 0.121077 -0.009377 
1823 -0.022333 0.028376 0.011310 0.028145 0.029379 0.014884 -0.026613 -0.007591 -0.016483 0.028870 0.003137 0.023918 -0.027187 -0.027382 0.029814 -0.029810 
1640 -0.086953 0.044565 0.006599 0.132022 0.072185 0.010808 0.060744 0.064810 0.038466 -0.003459 0.109014 0.036315 0.019845 0.007868 0.058795 -0.019553 
1074 -0.198464 0.195558 0.037974 0.308529 0.046349 0.024653 0.124498 0.134962 0.079438 0.072591 0.192440 0.122399 0.080052 -0.049035 0.123350 -0.012960 
755 -0.235611 0.248804 0.077061 0.430177 0.123243 0.063789 0.191537 0.135708 0.110375 0.161526 0.301105 0.193377 0.125916 -0.049916 0.130059 -0.008115 
251 -0.271419 0.263199 0.070357 0.415107 0.146289 0.078404 0.228855 0.082513 0.066713 0.130456 0.319876 0.169248 0.117744 -0.092948 0.162505 -0.017135 
138 -0.364228 0.257993 0.172946 0.492808 0.185256 0.085491 0.156325 0.096178 0.113776 0.165540 0.342154 0.259415 0.140149 -0.090132 0.207273 -0.001415 
22 -0.131873 -0.080209 0.115940 0.396019 0.241420 0.144543 0.350892 0.066105 0.165854 0.095558 0.068416 0.153616 0.317415 -0.127013 0.237988 0.093391 
409 -0.127240 -0.064913 0.121958 0.332152 0.294868 0.182593 0.318560 0.039822 0.187005 0.149370 0.079768 0.202636 0.298367 -0.114116 0.261800 0.025631 
1859 0.009681 0.016691 -0.016796 -0.010639 0.017381 -0.003083 -0.003327 -0.019457 -0.029833 0.020725 -0.024910 -0.010572 -0.015031 0.015430 0.023437 0.006860 
667 -0.171515 -0.072416 0.183343 0.405170 0.286096 0.202993 0.417402 0.076882 0.237408 0.145283 0.099075 0.169488 0.327570 -0.149341 0.323739 0.007933 
1414 -0.097396 -0.019981 0.061630 0.162946 0.148040 0.082852 0.170467 0.014949 0.114422 0.067719 0.048765 0.125172 0.147682 -0.063588 0.141156 0.014776 
584 -0.126476 -0.075709 0.154980 0.360533 0.258739 0.087917 0.297558 0.028921 0.191440 0.109234 0.091003 0.122445 0.298163 -0.122514 0.210879 0.051368 
1047 -0.128891 -0.058346 0.124254 0.245363 0.202015 0.118123 0.254680 0.066575 0.131357 0.106308 0.101685 0.109967 0.199735 -0.047407 0.154843 0.011780 
1167 -0.109306 -0.044941 0.123513 0.307621 0.260233 0.205448 0.315323 0.069144 0.174895 0.120353 0.094245 0.228663 0.260150 -0.129245 0.228386 -0.017414 
1235 -0.074922 -0.064435 0.066906 0.198840 0.124595 0.086138 0.142725 0.003115 0.078670 0.058634 0.088045 0.073274 0.164084 -0.047838 0.110702 0.012778 
213 -0.147337 -0.109496 0.197768 0.479858 0.245972 0.117836 0.377557 0.072603 0.186441 0.121764 0.113093 0.156326 0.407055 -0.087583 0.349627 0.110506 
1174 -0.115794 -0.078231 0.124874 0.243249 0.186311 0.085455 0.273819 0.067285 0.152434 0.092217 0.094968 0.131801 0.248775 -0.074728 0.204764 0.013358 
804 -0.101860 -0.059341 0.082655 0.218745 0.156146 0.110739 0.226859 0.049656 0.117401 0.097346 0.086175 0.097962 0.198931 -0.049070 0.153800 -0.013203 
1625 -0.011192 -0.000749 0.007722 0.013992 0.060744 0.028761 0.052341 0.035370 0.043943 0.036390 0.021043 0.004948 0.057369 -0.024680 0.007655 -0.012429 
1039 -0.107620 -0.095205 0.094200 0.249154 0.189866 0.051450 0.225301 0.053324 0.119723 0.042486 0.090483 0.136185 0.260269 -0.093349 0.217793 0.006509 
607 -0.150354 -0.045271 0.137886 0.371742 0.230518 0.112843 0.325578 0.044569 0.160028 0.059207 0.091209 0.157292 0.355269 -0.113705 0.263877 0.074442 
738 -0.188764 -0.104893 0.147783 0.427640 0.334295 0.146528 0.396424 0.076288 0.220817 0.104494 0.140186 0.212646 0.395825 -0.159045 0.308110 0.030968 
867 -0.151581 -0.046761 0.091656 0.276171 0.190717 0.088431 0.285651 0.060524 0.146039 0.032596 0.079303 0.135720 0.247532 -0.077270 0.246240 0.017582 
548 -0.163793 -0.082243 0.158045 0.454846 0.324973 0.194205 0.440666 0.083717 0.238375 0.143638 0.137898 0.193034 0.387059 -0.115229 0.320036 0.046267 
1317 -0.126810 -0.060398 0.121071 0.193180 0.167186 0.094940 0.228338 0.034860 0.150103 0.083820 0.093281 0.138322 0.217086 -0.060538 0.165019 -0.003829 
747 -0.182517 -0.074108 0.148191 0.333531 0.230758 0.097118 0.318910 0.061572 0.147673 0.089725 0.102706 0.175354 0.356376 -0.075918 0.259815 0.036698 
1386 -0.071115 -0.041825 0.079298 0.120564 0.096098 0.048620 0.113237 0.009444 0.056857 0.064333 0.020183 0.078466 0.125645 -0.061300 0.094239 -0.003378 
1444 -0.038858 -0.028246 0.049873 0.104057 0.108219 0.051886 0.106566 0.023076 0.047794 0.053100 0.013648 0.090815 0.105978 -0.018944 0.055587 0.014269 
1452 -0.067535 -0.025127 0.027243 0.081977 0.107328 0.027730 0.117450 0.053386 0.060174 0.037942 0.070382 0.071375 0.099240 -0.002500 0.058583 -0.011220 
111 -0.194652 -0.112483 0.226928 0.533504 0.285605 0.162673 0.419090 0.061555 0.215521 0.104483 0.094506 0.181863 0.463830 -0.098147 0.369171 0.099606 
48 -0.212660 -0.110864 0.168492 0.540215 0.348474 0.165829 0.464919 0.094349 0.244690 0.111466 0.143327 0.176348 0.468050 -0.122014 0.342846 0.085375 
1295 -0.117309 -0.050402 0.097938 0.160407 0.121497 0.094831 0.190963 0.059058 0.096331 0.042810 0.027938 0.083247 0.167261 -0.073009 0.133070 -0.005829 
1716 -0.044919 -0.024872 0.028936 0.071728 0.049096 0.069802 0.095762 0.050430 0.049991 0.041958 0.047990 0.055253 0.060722 -0.009505 0.073252 -0.030708 
182 -0.182936 -0.095378 0.190191 0.445071 0.261376 0.137300 0.402671 0.051295 0.203439 0.122606 0.133509 0.170420 0.411004 -0.135018 0.315620 0.068802 
247 -0.167584 -0.106343 0.179934 0.481286 0.278350 0.144755 0.376818 0.078085 0.224469 0.127317 0.096252 0.185257 0.413804 -0.111835 0.322618 0.091048 
1466 -0.007143 0.008989 0.019151 0.062332 0.025230 0.012514 0.081158 0.002275 0.053476 0.051635 0.018724 0.060696 0.039771 0.007963 0.039230 -0.025325 
1003 -0.145848 0.091863 0.172039 0.245705 0.071281 0.065086 0.070057 0.028936 0.110046 0.005512 0.102968 -0.069366 0.072460 -0.110764 0.206183 -0.075393 
1413 -0.178891 0.119467 0.113558 0.248646 0.095096 0.073908 0.115465 0.007885 0.113731 0.016757 0.143136 -0.046333 0.075550 -0.162543 0.214280 -0.081896 
1032 -0.177995 0.147245 0.176931 0.349555 0.136859 0.092659 0.119697 -0.055217 0.130159 -0.005915 0.190621 -0.068451 0.101140 -0.170367 0.303169 -0.095221 
1170 -0.129428 0.119340 0.081887 0.251812 0.117644 0.109096 0.135484 -0.021835 0.115809 0.010670 0.112125 -0.063152 0.080633 -0.166884 0.177532 -0.068756 
1561 -0.062163 0.024683 0.049299 0.108399 0.027463 0.042396 0.081322 -0.012301 0.036964 0.033128 0.042895 0.016956 0.013998 -0.059176 0.106058 -0.045853 
1179 -0.101289 0.121427 0.141072 0.254838 0.069689 0.073880 0.114160 -0.008885 0.091208 0.023623 0.138408 -0.061438 0.054591 -0.099261 0.203750 -0.071946 
800 -0.241626 0.202162 0.130915 0.382892 0.069890 0.113816 0.128093 0.008503 0.203512 0.037245 0.109100 -0.031113 0.022629 -0.135901 0.300829 -0.103225 
169 -0.283988 0.154893 0.187525 0.453480 0.179906 0.127967 0.218039 -0.065635 0.159799 0.011970 0.285286 -0.050179 0.088873 -0.311012 0.373404 -0.110389 
1838 -0.016951 0.015438 0.032910 0.073837 0.046606 0.028840 0.008958 -0.022893 0.006056 -0.008995 0.004912 -0.018370 0.040811 -0.028262 0.043102 0.008052 
1467 -0.111298 0.070032 0.045758 0.176181 0.046183 0.050018 0.107931 0.017792 0.072983 -0.008532 0.100861 -0.027009 0.041320 -0.091490 0.119199 -0.027325 
1345 -0.227709 0.164721 0.132757 0.332640 0.096503 0.104905 0.116255 0.002582 0.169189 0.010402 0.179380 -0.031224 0.066148 -0.202164 0.229132 -0.061973 
325 -0.364049 0.183041 0.313912 0.533059 0.193897 0.117158 0.248170 -0.072998 0.287989 0.035969 0.295549 -0.104964 0.129015 -0.303800 0.553607 -0.181017 
329 -0.308715 0.161193 0.236311 0.485690 0.107527 0.130426 0.170673 -0.005839 0.237295 -0.032999 0.205808 -0.067355 0.065820 -0.197796 0.427437 -0.096046 
359 -0.173334 0.158337 0.151126 0.362462 0.089702 0.113133 0.093687 -0.008026 0.188059 0.006686 0.142889 -0.068020 0.049023 -0.130724 0.256172 -0.087192 
107 -0.283995 0.193771 0.255812 0.417787 0.180113 0.100646 0.144892 -0.022382 0.260465 0.011511 0.222212 -0.096947 0.103984 -0.230634 0.478004 -0.130904 
108 -0.392282 0.178480 0.338817 0.562747 0.190360 0.086586 0.245777 -0.085417 0.283236 -0.004149 0.311152 -0.118106 0.140438 -0.302507 0.606731 -0.138598 
879 -0.195349 0.048203 0.135411 0.233888 0.140967 0.053657 0.160857 -0.051076 0.090967 0.024920 0.205355 -0.022117 0.123246 -0.155193 0.237149 -0.138013 
1662 -0.060067 0.017493 0.030066 0.105180 0.057833 0.032855 0.072164 -0.019894 0.059793 -0.021577 0.035745 0.020342 0.025245 -0.045649 0.089196 -0.056187 
24 0.005715 0.298299 0.141555 0.426129 0.091373 0.125363 0.005748 0.166151 0.121413 0.186230 0.150640 0.147493 0.181875 0.000102 0.232714 -0.031830 
201 0.002229 0.235590 0.142545 0.389985 0.127681 0.060271 0.019925 0.160521 0.127587 0.174276 0.161087 0.138194 0.177506 -0.009252 0.223353 -0.042757 
