1930 16
410 -0.5871468 1.5708511 -0.995634 1.4989794 -1.209053 -1.029063 0.110536866 -0.7487305 -1.202517 1.836314 0.028252004 -0.56038386 -0.3110984 -0.40511963 -1.1330878 0.60027635
998 -0.55423623 1.5508068 -1.004001 1.5273333 -1.2657205 -1.042341 0.16529553 -0.774242 -1.1843133 1.8609667 0.052187458 -0.4885874 -0.4225164 -0.44865265 -1.1603956 0.66335243
52 -0.17782053 0.1362263 0.15480164 0.9980426 0.103442654 -0.87660855 1.3797575 0.9987008 -1.1251144 1.5544237 0.6973775 0.18243021 -0.10951634 2.1991522 -0.9670605 -0.31906256
890 0.27517074 0.7287738 -1.2333899 0.034629352 -1.9323163 -1.0719756 0.5519418 0.45421728 0.21875502 -0.072322145 -0.846901 -0.24980412 0.9781889 1.7239894 -1.2338645 0.04526234
1330 -0.056619845 -0.15569223 -1.1328021 1.3087783 -1.185884 -0.43314835 0.7118282 0.40467817 -0.9112294 1.1723312 0.18548141 -0.64147925 -1.6072414 0.8864444 -1.024926 -1.758094
1425 -0.5294998 1.6234181 -0.9921491 1.4877604 -1.2589155 -0.9956549 0.12494976 -0.78155506 -1.217195 1.789784 0.13372579 -0.6492114 -0.3724068 -0.4125869 -1.119234 0.5778987
1405 -0.37563723 0.0554461 0.040546272 0.70071137 0.112111695 -1.2019608 1.7773569 0.19915183 -1.629438 1.6861086 0.7033909 0.46463132 -0.04220044 1.9566767 -1.1115745 0.2276393
1215 0.23342453 0.6130638 -1.3508143 0.08932065 -1.82931 -1.0854445 0.57209605 0.6374678 -0.098972864 -0.14792192 -0.8073098 -0.18873382 1.1269743 1.662057 -1.2127839 0.06948971
1131 -0.07214813 -0.1811965 -1.1768168 1.3411319 -1.1680261 -0.4003467 0.6803559 0.39463165 -0.88112247 1.1855061 0.18070303 -0.6621686 -1.6930029 0.8584624 -1.0434061 -1.770731
1353 -0.4205173 1.4902691 -0.9563708 1.6076101 -1.33113 -1.198143 0.30967876 -0.98125696 -1.4377577 1.6328007 0.15933318 -0.28924182 -0.6686404 -0.48993805 -0.94026977 0.68766665
882 -1.5475127 -0.43671063 -0.6676166 -0.015522469 -0.9997565 -0.8485977 -1.2530344 0.15874396 -1.2114092 -0.30922523 -0.8950534 -0.36255777 -0.5304581 0.42590195 -1.7941731 0.33976892
1345 -0.23241578 1.2991163 -0.6220999 -0.8283605 -1.5974957 0.3090395 0.6991784 -0.39368072 -0.66661966 0.797692 0.10452886 1.1869956 -1.4205316 0.7249695 -0.204234 -0.17589357
1311 -0.17003243 0.304471 0.05327134 0.523307 0.09158728 -1.1426584 1.8889111 0.5073146 -1.5654286 1.8316873 0.8160853 0.4755986 -0.24782278 2.000833 -1.0854166 0.23941785
1518 -0.15876359 -0.18146303 -1.0842179 1.3542452 -1.2225132 -0.55374515 0.6822461 0.36798126 -0.8551342 1.0355631 0.20668358 -0.641351 -1.6739783 0.8653131 -1.0544392 -1.8185107
1413 -0.14930035 1.3579723 -0.54234457 -0.86643106 -1.3996754 0.2609128 0.5595877 -0.450534 -0.7179679 0.7210995 0.22362992 1.10256 -1.5598407 0.9018013 -0.21244198 -0.22935939
506 0.49967012 0.57876205 0.002472867 -0.6038853 -2.0203238 -0.41860688 0.9597999 0.23249076 -0.7726928 -0.33237824 0.58061755 -0.73939496 -0.7210952 -0.6801901 -2.2547016 -0.33900452
1319 -0.29962122 -0.22512487 -1.002576 1.4979116 -1.3584919 -0.5482991 0.56966394 0.22514747 -0.7441171 0.78997934 0.2737841 -0.6782958 -1.698283 0.93564737 -0.9239405 -1.7630854
574 -1.5209614 -0.39314976 -0.70779234 0.06680538 -0.8782805 -0.9616135 -1.232706 0.12772317 -1.2391053 -0.18485613 -0.9619281 -0.24153776 -0.5094361 0.3910279 -1.707977 0.3217402
940 -1.0109442 -0.12468276 -1.8273915 0.30965173 -1.154366 -0.6259902 1.2173238 -0.35799494 -1.6024749 -0.8329892 1.3927064 -0.4020826 -0.7058115 0.45974693 -0.54055244 0.8175101
162 -0.27481043 1.7406687 -0.8996758 1.5468189 -1.4163551 -1.26895 0.52307564 -1.2160379 -1.4800643 1.3587706 0.40015215 -0.48122415 -0.81814927 -0.38546467 -0.75961006 0.6273428
158 -0.2885012 1.4916627 -0.9103937 1.5754472 -1.3067515 -1.2301116 0.4651739 -1.1008248 -1.5662462 1.5276214 0.24096523 -0.22859037 -0.7483451 -0.4995079 -0.8511753 0.7111433
1317 -0.1551682 0.76284283 -0.18519512 0.5497461 -0.6864985 0.4757721 -0.31612745 1.6122193 -0.6409332 2.050033 -0.24044614 -0.48225898 -0.36878416 1.6214656 -1.7835743 1.426202
1718 -0.24079658 1.5279695 -0.8469205 1.5327101 -1.2483314 -1.1663326 0.4170407 -1.0633727 -1.5970916 1.4786739 0.21750994 -0.37878233 -0.75005776 -0.44177365 -0.8430354 0.6869223
715 0.18242538 0.5109355 -1.3539171 -0.019285368 -1.8369915 -1.0708578 0.65302634 0.64342207 -0.06608396 -0.16662668 -0.84520644 -0.1081148 1.1289437 1.7800188 -1.2842025 -0.015170106
1644 -0.5135742 0.5931706 0.63555527 0.20826846 -0.3561485 -0.64377326 -0.16115065 1.6882424 -0.5754889 1.8046255 0.1403415 -0.3381637 -0.13673112 2.4418962 -1.4163417 1.02891
1452 -0.1535944 0.7494321 -0.26746 0.5590348 -0.6543771 0.53431004 -0.27228737 1.5888304 -0.6208798 2.0762563 -0.19018343 -0.47535133 -0.37796798 1.5591581 -1.733733 1.437095
907 -0.60801405 1.4795007 -1.0604934 1.516373 -1.3421453 -0.9914863 0.09805402 -0.7209268 -1.1920033 1.8945475 0.016380807 -0.49437714 -0.31347433 -0.47167724 -1.2046441 0.5836079
386 0.45479256 0.24863558 -0.25194958 -0.082279615 -1.6205647 -0.5466358 -0.43007073 -1.270698 -0.45708466 1.2545089 0.14020287 1.2762191 -0.077727616 1.3353814 -1.8005747 -0.3780383
1368 0.5219541 1.0581083 -0.17800933 -0.5902451 -0.8269934 -0.97384834 1.4163917 0.9178138 -1.133067 0.03672631 0.12005778 -0.21972527 -0.386758 -0.60133684 -2.1220958 0.109622
379 -1.9357939 0.48748943 -0.6352814 -0.01032423 -1.3917183 -1.426394 -0.10905134 0.27231833 -0.20782919 0.41166207 1.8670838 0.02465112 -0.7290558 1.0702012 -0.42406607 1.1136867
1709 0.51734424 0.62619513 0.7034342 -0.3167013 -0.7730871 -1.12011 0.92127043 0.75207937 -0.97268885 0.15726213 0.6239173 -0.097162 -0.56361353 -0.17689435 -2.641212 0.17341755
828 0.036804695 0.88205564 -0.2748502 -0.793977 -1.7705535 0.37518942 0.56549984 -0.56272614 -0.78338796 0.91428745 0.52039343 1.327824 -1.1538482 0.9150541 -0.33323252 -0.25666636
337 -0.42824325 0.055016927 0.08581653 0.56717736 0.089575425 -1.3471797 1.7919422 0.09686569 -1.6687896 1.7318902 0.76052845 0.5266536 -0.054014545 2.039001 -1.1571553 0.37785265
1066 0.43634552 0.5823912 -0.22878745 -0.74692124 -1.9849226 -0.37725103 0.9679337 0.17039974 -0.7801113 -0.4006035 0.3809336 -0.7606733 -0.66248536 -0.7438873 -2.278566 -0.22049533
1253 0.14278474 0.55510986 -1.3823043 -0.008883164 -1.8778698 -1.0566941 0.6107059 0.65613633 -0.027402753 -0.16871582 -0.72880137 -0.0555902 1.1985228 1.7510208 -1.354518 0.017498182
350 -0.16143154 -0.12716565 -1.1755899 1.3924623 -1.2824863 -0.43098703 0.6021092 0.293024 -0.8182715 0.9117583 0.15892477 -0.72576845 -1.6828312 0.862178 -1.0101968 -1.804179
524 -0.237877 -0.13643059 -1.0497987 1.5473557 -1.3573773 -0.3799318 0.5605272 0.17486227 -0.7482826 0.6088104 0.26488584 -0.75986826 -1.6674731 0.9025133 -0.97204244 -1.742445
1908 0.7272049 0.99031186 -1.5071251 0.10900058 -1.6924548 -1.0551543 0.3291727 0.3130182 -0.40636066 0.06387136 -0.9664782 -0.66279256 0.77774954 1.5722077 -0.772391 0.34068388
901 0.30358982 -0.4656235 -0.47600836 0.4207187 -2.1022274 -0.10105374 -0.26421228 -1.110108 -0.1607011 0.67185706 0.7874161 -1.1755512 -0.31163692 1.0567824 -1.8337524 2.0371192
771 -0.24723746 1.624124 -0.872802 1.615041 -1.3346571 -1.2658454 0.5022096 -1.0864207 -1.5222663 1.5519034 0.36504948 -0.3323193 -0.8090306 -0.45625255 -0.783717 0.71936405
373 0.21961884 -0.53449786 -0.39693514 0.50881666 -2.200109 -0.1386143 -0.2727439 -1.1067269 -0.18397088 0.6917876 0.8036214 -1.1169336 -0.43547142 1.0371902 -1.7561508 2.027584
1754 -1.6422791 0.476651 -0.4302186 0.25659576 -1.6759168 -1.4614993 -0.21055567 0.3142924 -0.27172884 0.50191504 1.7344217 0.24029139 -0.5483467 1.0988047 -0.28886673 1.1554781
1246 -1.4816349 -0.44360578 -0.5641351 -0.11589349 -0.70423627 -0.9577631 -1.1964563 0.17211534 -1.326012 -0.21755175 -0.81761664 -0.34525797 -0.49511313 0.60375106 -1.7264255 0.08549271
999 0.18814269 -0.5584505 -0.35540053 0.5170393 -2.1159499 -0.009036087 -0.25800124 -1.1804434 -0.24694714 0.6875738 0.86123234 -1.0294842 -0.4962413 1.0161523 -1.7954826 1.9839559
243 -0.030016715 0.27916798 -1.3109288 1.7291178 -1.2440042 0.41853222 0.9776202 0.8331221 -0.8355147 0.36834925 0.3063916 -0.55651623 -1.1423182 1.3613279 -1.0265974 -1.3148772
1716 -0.30815983 0.80936164 -0.109432586 0.4041096 -0.76055014 0.34825823 -0.44417626 1.689318 -0.47964215 1.9632497 -0.18822905 -0.54736465 -0.40793008 1.7030838 -1.66162 1.3625747
843 0.6383343 0.9764525 -1.2645582 0.2086754 -1.8078109 -1.0392417 0.40036768 0.26756373 -0.3438589 0.017598668 -0.98958606 -0.47414058 0.98471075 1.6233705 -0.85673654 0.29571763
399 -0.4366419 0.17158638 -1.5794224 0.3374668 -1.1595947 -0.45659348 1.1069467 -0.2257872 -2.0219495 -1.0073515 1.6304591 -0.4733388 -0.6117877 0.7493709 -0.36606222 0.75406194
1659 0.21825017 -0.58248085 -0.37467203 0.52887255 -2.2045274 -0.053795863 -0.23437516 -1.0607538 -0.20117734 0.60734856 0.82440615 -1.0684001 -0.45917323 1.0080801 -1.6426774 2.080264
1788 0.1925586 1.2029457 -0.099806316 -1.1011009 -1.3202792 -1.4696056 0.9488519 0.60707366 -1.2397847 -0.23225895 -0.010593954 -0.37084976 -0.50434035 -0.72400516 -1.9323976 0.8040546
1508 0.15183127 -0.5290578 -0.26223183 0.46027416 -2.1244168 0.009924731 -0.2589407 -1.1662091 -0.27835628 0.6562315 0.8485734 -1.0653348 -0.48216814 1.0664378 -1.7452594 2.0244892
53 -0.52175605 0.25231364 -1.5388346 0.38288566 -1.1638542 -0.47375977 0.9707126 -0.3291438 -2.049402 -0.9606027 1.5899884 -0.4883679 -0.60305375 0.7014903 -0.25310922 0.8140419
750 -1.311663 0.076672 -0.7265941 0.4282665 -1.8230698 -1.2892971 0.42592797 0.902877 -0.7878865 0.03423531 1.1825429 -0.14792164 -0.39891085 1.0002704 0.21254286 1.336751
148 0.057306726 1.0013051 -0.36324346 -0.7273003 -1.7712982 0.30431753 0.7019088 -0.664488 -0.6963685 0.91153926 0.56393737 1.2954656 -1.2212809 0.9237864 -0.32755604 -0.25893903
581 0.22667366 1.2019008 -0.18270941 -1.0928088 -1.4022564 -1.3496869 0.94569993 0.5427726 -1.1967462 -0.26714233 -0.04954018 -0.4330123 -0.48479614 -0.8130077 -1.9912853 0.69079345
1355 0.52885234 0.65562785 0.6477656 -0.28503644 -0.83561176 -0.9003316 0.99645644 0.6710173 -0.9621508 0.1258115 0.8214391 -0.08683167 -0.511828 -0.13152994 -2.6385167 0.12909852
575 0.2945151 1.1476595 -0.23896454 -1.1626912 -1.3848623 -1.1824033 1.0445744 0.47482166 -1.1493918 -0.2629504 -0.0052974513 -0.36941347 -0.42950276 -0.75778806 -2.083813 0.5935409
1598 -0.5384209 0.7910177 0.6717901 -0.17482792 -0.76037896 -0.6568206 -0.5450941 1.7567995 -0.36349928 1.4709975 0.06169323 -0.6121165 -0.30502734 2.3551588 -1.5542263 1.0692847
1764 -1.2088538 -0.038571335 -0.8318541 0.41868362 -1.7069477 -1.2257686 0.5168287 0.88215 -0.8301095 -0.029801188 1.1896222 -0.16778834 -0.38478515 0.95691276 0.2047605 1.3270972
679 -0.14646547 -0.08448938 -0.98455024 1.5228819 -1.162084 -0.36442113 0.73142457 0.34260768 -0.83009946 0.7577975 0.40947503 -0.6565811 -1.5087097 1.0631108 -0.9876007 -1.7056607
1686 0.117893204 1.0724871 -1.1947672 0.008188195 -2.0018754 -1.1038971 0.75019157 0.84709793 0.267807 -0.1193348 -0.76815087 -0.25749275 0.93966115 1.750205 -1.2099016 -0.03737285
1318 0.03788371 0.4186286 -1.4155422 1.6456624 -1.1365746 0.66852194 1.1718819 1.1347333 -0.9108668 0.44613478 0.38193724 -0.5470979 -0.9741164 1.5567671 -0.98430866 -1.1175333
1516 -0.09889915 -0.20614585 -1.0800313 1.2742597 -1.1790628 -0.51660484 0.6139562 0.3312621 -0.8659618 1.2276051 0.18305837 -0.72460055 -1.7587874 0.85490036 -1.0289031 -1.8006229
1440 -0.7050872 0.17475207 -1.4926052 0.35598752 -1.1931981 -0.48824272 1.1183158 -0.33324015 -2.0629125 -0.9103582 1.3814744 -0.63075966 -0.6510931 0.55304915 -0.23401563 0.7804653
154 -1.6536591 0.29794848 -0.5342343 0.33993146 -1.853774 -1.4494524 0.017791308 0.2958935 -0.578984 0.2949796 1.3247364 -0.0560785 -0.40517572 1.0919299 0.20540664 1.2308125
913 0.2922701 0.8683998 -0.24112387 -1.0253935 -1.7460772 -0.81336325 0.9797401 0.26226264 -1.0231339 -0.4442238 0.07388391 -0.61191964 -0.53720987 -0.8585237 -2.068081 0.28030875
775 0.8643188 1.0770301 -1.4174533 0.25092435 -1.8866789 -1.0346469 0.24984737 0.09806674 -0.18949457 0.0759494 -0.82253003 -0.87501264 0.673134 1.517107 -0.7875005 0.60410434
1375 -0.62871313 0.88160926 0.492054 -0.14324214 -0.8576008 -0.42524752 -0.62751234 1.8490393 -0.3606601 1.5203575 -0.019599948 -0.6858386 -0.36086053 2.3249934 -1.5332838 1.2421827
226 -0.55700475 0.85500485 0.7399802 -0.3109239 -0.8230048 -0.7122393 -0.63894534 1.7630905 -0.3323598 1.3788071 0.034888186 -0.7024304 -0.2920485 2.3737376 -1.6847042 1.0373672
1044 0.36638293 0.54821676 0.84064513 0.03159861 -0.75709766 -1.5771927 0.7277146 0.68186194 -1.1535363 0.12460391 0.62454426 -0.21435522 -0.80425626 -0.35075343 -2.4834647 0.28714985
63 0.17018236 -0.48388577 -0.3624592 0.46087694 -2.0248208 0.03779755 -0.2762891 -1.1989722 -0.23452583 0.64476496 0.86260784 -1.1178204 -0.4784451 1.035581 -1.8170519 1.9919623
1536 0.028361162 0.37496793 -1.39993 1.608809 -1.1088623 0.6589279 1.1446786 1.1032777 -0.8677127 0.41441774 0.38279343 -0.5659873 -1.0180279 1.5188124 -0.99121994 -1.1666887
1229 0.7821371 0.4172646 0.19813508 -0.44619507 -1.6281749 -0.39402416 -0.39701313 -1.3317008 -0.47990927 0.95364404 -0.36570168 0.007779641 -0.32601905 1.6831129 -0.8055308 0.32017568
225 0.6348167 0.24451162 -0.2518275 0.022794984 -1.7154355 -0.5057165 -0.447084 -1.2054157 -0.47821474 1.3231566 0.21021013 1.2701977 -0.104682125 1.2049135 -1.7443792 -0.32181892
586 -1.7538741 0.79658645 -0.17450513 -0.08235401 -0.8245826 0.8147796 0.08339839 0.31222194 -1.6561309 -0.33188614 -0.43308127 0.5358288 -0.4632324 0.6171204 -1.217901 -0.05089108
918 0.07780723 -0.6218657 -0.47309703 0.56756854 -2.1525595 0.038965978 -0.22754276 -1.0604788 -0.22997335 0.6666033 0.91055465 -1.2525592 -0.537174 0.92156607 -1.9400403 2.152156
14 0.33972508 0.9645651 -0.3530052 -1.0628672 -1.9810919 -0.58026135 0.9759997 0.26796207 -0.9645978 -0.4019515 0.109687105 -0.72997344 -0.6119453 -0.8719075 -2.0834863 0.1757685
659 0.6100119 0.808499 0.6218769 -0.38343376 -1.0379812 -0.76515806 1.0210823 0.75650537 -0.9854882 0.18813992 0.83240116 -0.20848428 -0.51978326 -0.2574224 -2.4742432 0.0606527
325 0.07319272 1.1337028 0.041428357 -0.6274003 -1.7306817 0.2509545 0.53968734 -0.72544354 -0.76765287 0.7547629 0.3911078 1.1217943 -1.2361966 1.0835502 -0.25321153 -0.325765
774 -1.1072823 -0.2977607 -1.9100417 0.32082322 -1.1491659 -0.66615903 1.2320172 -0.3139071 -1.4826505 -0.7479445 1.3568465 -0.3096307 -0.73047876 0.3665711 -0.6004616 0.76290727
452 -0.8356185 -0.42110786 -0.69036496 0.5404566 -2.0891752 -0.87255216 0.5072231 0.48602152 -0.51752007 -0.012799169 1.263755 -0.36450347 -0.22582191 0.8928587 0.053407326 1.7724246
307 0.08173451 -0.13876127 -1.2515455 1.1788601 -1.05104 -0.37818107 0.73192525 0.45909142 -0.99903315 1.3850693 0.060239747 -0.6423662 -1.6847574 0.76003367 -1.1429489 -1.7894231
1537 0.52552205 0.9092997 0.5041932 -0.38426146 -0.7836278 -1.0794393 1.0286521 0.6603315 -1.0077559 0.07496376 0.53935504 -0.10742093 -0.4506893 -0.29308555 -2.4593961 0.3814442
1021 -0.027656568 0.31200323 -1.0368675 0.4701803 -0.8919382 -0.4688653 0.9300112 -0.32623714 -2.3844662 -0.9216968 1.7425623 -0.70045805 -0.7226773 0.66709614 -0.5114905 0.7684168
1605 -0.53635013 0.8096707 0.8026526 -0.2263721 -0.7122731 -0.8071154 -0.52270526 1.7395474 -0.35822153 1.4523565 0.12193753 -0.6946353 -0.31047222 2.4487147 -1.5837245 1.0080783
864 -1.0851644 0.03657458 -0.6315616 0.57570064 -1.8462114 -1.2070043 0.4073607 0.80700636 -0.9060201 0.07936263 1.2339206 -0.048137523 -0.3329105 0.99460894 0.26733693 1.3466067
395 -1.1918117 -0.060788006 -0.03347107 -0.39119524 -0.907449 0.847874 -0.4710692 0.41519967 -1.6090714 -0.6153626 -0.45352829 0.3243148 -1.1675484 0.86327994 -1.3581127 0.09103807
1495 0.30324766 1.1754242 -0.3064883 -1.0466363 -1.3290267 -1.2166853 1.0547136 0.48429623 -1.2702154 -0.3189454 -0.00983805 -0.39095238 -0.4653052 -0.8085121 -2.0238223 0.618759
221 0.95695966 1.1207782 -0.99663985 -0.05751973 -1.6488093 -0.96401024 0.2098976 -0.38359714 -0.11365393 0.18118659 -0.65516454 -0.76146644 0.5355336 1.7980255 -0.6259439 0.39855945
1864 -1.0963322 -0.065482736 -1.0469649 0.36960843 -1.757792 -1.1146083 0.7396958 0.9288951 -0.98045427 -0.2684883 1.3881949 -0.2587877 -0.39250672 0.8278146 0.058553636 1.3121887
440 -1.8828596 1.0096362 -0.015413489 -0.07015484 -0.7185015 0.760301 0.2347228 0.2573179 -1.6067953 -0.27354985 -0.4115055 0.56063175 -0.39248767 0.7423854 -1.2257153 -0.016178723
1798 -0.5575714 1.6877629 -1.0491474 1.4979913 -1.250776 -0.9405898 0.03748042 -0.77589744 -1.1648499 1.7438198 0.1658213 -0.67839766 -0.39662132 -0.3614012 -1.0726169 0.5935002
848 -0.8094888 -0.043315075 -0.89166915 0.55587167 -1.7485114 -1.18052 0.600389 0.96640086 -0.9793642 -0.12357355 1.4115218 -0.114994295 -0.38911024 0.9043823 0.1139227 1.3472555
320 -1.6557754 0.96761245 -0.5086906 0.20293476 -0.8183831 0.35005397 0.59974587 0.7269256 -1.0570027 0.1051773 -0.87104464 1.3303117 -0.7738622 0.447524 -1.227453 0.28928268
507 -1.6096672 1.0669829 -0.40568042 0.2635051 -0.7201685 0.3861 0.53003067 0.6787758 -1.0516884 -0.12983909 -0.76777923 1.332359 -0.94565743 0.56865674 -1.3083189 0.45330715
249 -1.885649 1.0447426 -0.08811403 -0.11191387 -0.8327705 0.41331667 0.6606774 0.45925152 -1.2103575 0.07924067 -0.657601 1.0773145 -0.5872725 0.7341962 -1.0301186 -0.12254923
987 0.74519426 0.40133807 -0.09516507 -0.54623866 -1.1158888 -0.32222483 0.029525809 -1.4378145 -0.40645102 0.32249317 -0.6163551 -0.5060203 -0.31303674 2.0134263 -0.7523867 0.22234191
108 0.096487 1.0620863 -0.018346928 -0.6860636 -1.7438467 0.32397565 0.5208233 -0.61404973 -0.83256495 0.8686076 0.43915755 1.1467848 -1.1747721 1.0307924 -0.30550367 -0.36050048
1084 -0.60313183 -0.016112357 -1.2940484 -1.6252288 -0.4893007 -0.44193396 1.0575893 -0.17164725 -0.65186924 0.9670176 0.53214365 -1.8204951 -0.51425034 1.9909308 -0.96612006 0.08584872
420 0.5189001 0.8362765 0.10347457 -0.75847566 -1.2468961 -0.6579365 1.311513 0.40393132 -0.94032556 -0.19348697 0.42000037 -0.29289034 -0.43992555 -0.49821973 -2.425215 0.08982014
1209 0.972727 1.1753181 -1.2848514 0.2014548 -1.793236 -1.0373621 0.33890846 -0.00012957609 -0.24351446 0.14762534 -0.9355911 -0.8731295 0.5524423 1.5862008 -0.7326214 0.5374293
1233 0.6715514 0.54382265 0.10221401 -0.44662657 -1.5815334 -0.37309173 -0.40822825 -1.4177394 -0.38316798 0.857843 -0.3507079 0.037109587 -0.18131745 1.7028579 -0.74211 0.29830506
1276 -1.3392498 0.2396252 -0.4534456 0.45048225 -1.8537664 -1.3938258 0.18291058 0.6510107 -0.701931 0.15064926 1.2618548 -0.020438047 -0.3515343 1.0325174 0.26994288 1.2306157
1192 0.92876476 0.9016108 -1.4235082 0.29140452 -1.8432163 -1.1713517 0.20918033 -0.034496807 -0.25978956 0.01381105 -0.93868685 -0.65568703 0.6764167 1.5876302 -0.8299796 0.46771094
1443 0.2475794 1.0168352 -0.29488024 -1.0568295 -1.7110597 -0.9316275 0.93443376 0.28043196 -1.166324 -0.45382535 -0.0006664216 -0.64512 -0.5482176 -0.88590467 -2.0718358 0.5038519
716 -1.3343015 -0.25776455 -1.8755494 0.26348883 -1.2425573 -1.0564288 1.1192113 -0.042458855 -1.1917105 -0.5546602 1.4169449 -0.14350305 -0.6738203 0.32471767 -0.48762098 0.7092778
223 -0.35135266 0.17843077 0.17176564 0.50855064 0.10040208 -1.2965875 1.7257279 0.34121287 -1.5366002 1.7418092 0.7417698 0.47042373 -0.013199507 2.0359652 -1.1165712 0.3025093
553 0.20710586 -0.12448098 1.0010557 0.47610337 -1.0438399 -1.5424824 0.4681394 0.37824047 -1.037018 0.02643383 1.0791245 -0.4802797 -1.1456888 -0.17098106 -2.3731105 0.009759204
969 0.4654496 0.52264696 -0.0050930134 -0.596821 -2.1803792 -0.37824565 0.81201667 0.17072242 -0.7637127 -0.4071234 0.61444026 -0.8751028 -0.8422539 -0.7112575 -2.1690392 -0.36828026
1277 0.8979716 1.3768634 -1.1968648 0.1517587 -1.8400158 -1.0903302 0.32432887 0.21613486 -0.1127999 0.17468554 -0.83268905 -0.70077455 0.5198757 1.5608658 -0.5921843 0.41389626
941 -0.3069184 1.4069239 -0.9834572 1.5723153 -1.2904403 -1.0903697 0.31843024 -0.9615077 -1.5614129 1.4878455 0.23124251 -0.2915235 -0.59223163 -0.5543367 -0.86847454 0.6711818
1219 -1.7776175 1.0346957 -0.21992913 0.1266551 -0.82792807 0.6835055 -0.061144393 0.30025622 -1.562803 -0.31456384 -0.55758435 0.5332174 -0.35378858 0.49711627 -1.2785034 0.06089273
1403 -1.8503071 -0.05241423 -0.5794252 0.058888514 -1.2548575 -0.493955 -1.0716319 0.061238073 -1.0548631 -0.22845088 -1.0679394 -0.1552357 -0.53912526 0.15786803 -1.7578135 0.38962445
595 -0.40873012 0.07654189 -1.3168507 -1.6184759 -0.54177845 -0.5032706 0.9631903 -0.25356317 -0.63257104 0.9713017 0.47296402 -1.8083166 -0.4436521 2.0500033 -0.8981893 0.15503234
1594 -0.30992615 1.8035351 -0.983398 1.5025578 -1.3006637 -1.0186962 0.3218912 -1.072038 -1.4736416 1.3254491 0.40997198 -0.6542781 -0.58132416 -0.33578745 -0.79857326 0.5932555
1550 0.11930549 1.1049688 -0.24822812 -0.6347841 -1.814755 0.32926407 0.6197048 -0.67093664 -0.75983 0.981989 0.6309803 1.2258041 -1.0145409 0.96247864 -0.45210615 -0.3947956
717 0.03933441 -0.10257659 -1.2511971 1.2345645 -1.0674881 -0.3840825 0.74878407 0.58661664 -0.9126132 1.3200642 0.046081357 -0.5421212 -1.5091852 0.8101045 -1.0714425 -1.7181939
672 -0.43909267 0.065274164 -1.3481789 -1.6574504 -0.5273433 -0.5094128 1.0431389 -0.16852982 -0.6250767 0.9481 0.4599066 -1.8116547 -0.51188326 2.0373728 -0.9801513 0.1586329
1723 -1.139781 1.4938445 -0.29740244 -0.7444163 -1.0538539 -0.05721708 0.71728057 -0.32575977 -1.1151534 0.3465053 -0.8041021 0.8476667 -1.1103088 1.0501109 -0.14953202 -0.615677
761 0.7284058 0.67669874 0.38077375 -0.25622255 -1.7020149 -0.63739485 -0.45598376 -1.1141093 -0.5512208 0.90902656 0.06966185 0.9359328 -0.7397711 1.571808 -0.7282686 0.16795442
1374 -0.25247565 1.5167806 -0.8844259 1.5498911 -1.3222476 -1.2724975 0.57156837 -1.1761616 -1.6059033 1.4275777 0.38648435 -0.25765732 -0.89808 -0.43392152 -0.74108076 0.72174007
1835 -1.2866825 0.093117714 -0.63186073 0.47195008 -1.8632097 -1.3273501 0.2986756 0.7936389 -0.8275544 0.1831975 1.109864 -0.15297313 -0.35066032 0.9859674 0.3335716 1.3400955
899 -1.742294 -0.1748568 -0.5322901 0.04714622 -1.0384957 -0.89679855 -1.1560614 0.09664793 -1.1540076 -0.13571583 -1.0684155 -0.34527284 -0.38858882 0.34075266 -1.7909808 0.37021893
663 -1.4101943 0.9496275 -0.3600922 0.010045388 -0.94054157 0.64770216 0.5605854 0.8199882 -1.0255337 -0.0188912 -0.56354856 1.3846494 -1.2620252 0.46904233 -1.0758414 0.43265808
214 -1.3126059 1.4609407 -0.6585428 -0.60878193 -1.1503838 0.09188563 0.8898759 0.012286172 -0.88978136 0.5818812 -0.78993094 1.0160508 -0.9521741 0.63842714 -0.33997965 -0.38679716
312 0.12370912 0.3747104 -1.4056146 1.6124569 -1.0883123 0.58231825 1.198314 1.1269362 -0.9625643 0.5989288 0.3860283 -0.4901648 -0.93683505 1.4965993 -1.0299097 -1.1630424
1715 -1.4970928 1.0712094 -0.66578895 0.20896965 -0.8147224 0.24744545 0.51328295 0.74112576 -0.98322535 0.14798974 -0.8687547 1.4490852 -0.9457285 0.36135116 -1.1687417 0.37512112
898 0.21179964 -0.55297405 -0.4185539 0.4483701 -2.063974 -0.060945563 -0.23180328 -1.2259241 -0.25628316 0.6149159 0.9317416 -1.1373597 -0.46364856 1.0471998 -1.7513928 2.038006
1795 -1.1516501 0.12318811 -0.78899807 0.46351644 -1.707358 -1.2454139 0.51763546 0.9853622 -1.0811514 -0.15092102 1.2647845 -0.19864431 -0.38650307 0.9681084 0.2622365 1.2594162
102 -1.3998274 0.21921852 -0.07580607 -0.16038021 -0.95049506 0.80896926 -0.13736458 0.54364145 -1.426915 -0.67066425 -0.4787916 0.73664504 -1.1017896 0.74035317 -1.1843275 0.40822124
284 -1.5618339 0.26741895 -0.35323545 -0.39431947 -0.4077026 -0.09259621 -0.82616043 0.09400834 -1.7585016 -0.05910481 -0.8334901 -0.24260394 -0.66722417 0.78640485 -1.449591 -0.678222
1316 -1.6858714 0.4669907 -0.49599624 0.15146652 -1.5013744 -1.4465928 -0.18617938 0.355282 -0.26861015 0.44868994 1.8909855 0.116104044 -0.7067714 1.1513227 -0.39176413 1.0929362
1389 -1.8026103 -0.12293806 -0.6150123 0.12903713 -1.2330977 -0.42998117 -1.1398638 0.06672813 -1.0768174 -0.33598042 -0.98130995 -0.23971935 -0.48543218 0.24163444 -1.8678888 0.4417197
1049 -0.115861155 0.37851065 0.030971574 0.45894393 0.06149434 -1.1107513 2.0108526 0.54352343 -1.6340823 1.812845 0.8386257 0.5422036 -0.20293145 1.955123 -1.0391026 0.27241644
714 0.028941454 0.9488745 -1.2382162 -0.0051084147 -1.9768425 -1.0825113 0.75153506 0.862287 0.15894176 -0.11700932 -0.80648035 -0.17152058 1.0113747 1.7049309 -1.2415651 -0.097840935
1642 0.49635494 0.7457662 0.6597035 -0.25836357 -0.70569605 -1.306883 0.9256906 0.7352166 -1.0173916 0.14813557 0.5554608 -0.050006807 -0.4768895 -0.2545545 -2.613251 0.33719864
1519 0.20506887 -0.5110097 -0.4404823 0.47928175 -2.0434349 0.0081209475 -0.25545013 -1.1660789 -0.21978343 0.6020416 0.76121724 -1.2245772 -0.487425 1.0214505 -1.8548621 2.0680351
1333 0.49915716 0.30956417 -0.3982018 -0.32452407 -1.6977189 -0.30321583 -0.23670422 -1.2657177 -0.42426744 1.353672 0.36665478 1.2136708 -0.09417075 1.2065183 -1.624172 -0.43198103
19 -1.354188 0.8799637 -0.5814459 0.22581847 -1.053694 0.54585195 0.5039532 0.773929 -0.9452647 -0.068359636 -0.7453753 1.5578237 -1.14419 0.3975533 -1.2277765 0.60776454
772 -0.95024467 0.6203395 -0.04569191 -0.8840355 -0.43153423 0.2455553 -0.4230676 0.13862535 -1.8606656 -0.097006224 -0.859454 0.01746618 -0.9948974 1.1162543 -1.1598816 -0.7798444
1632 -1.4205701 0.21169454 -0.1818418 -0.29457843 -1.0123202 0.80836314 -0.17375377 0.5014993 -1.2949246 -0.62975025 -0.5225775 0.57859886 -1.2219372 0.6457198 -1.1865103 0.32643414
944 -0.5653494 0.7711523 0.26317424 0.12251849 -0.79292214 -0.11999134 -0.44816878 1.8050499 -0.46381518 1.7621081 -0.07938324 -0.5307819 -0.36407542 2.162693 -1.4466348 1.3062545
1392 0.38546365 1.1781161 0.054152377 -0.92128485 -1.6283426 -1.0108527 0.8493722 0.7068188 -1.167061 -0.28862888 0.29633152 -0.5880278 -0.63945985 -0.78787315 -1.896895 0.40951315
520 -0.5178792 0.8457099 0.8330602 -0.27808425 -0.80425376 -0.8298584 -0.6410781 1.7381176 -0.35695434 1.3930153 0.120421 -0.71617466 -0.30425915 2.4382124 -1.7057738 0.9423275
252 0.6065289 0.49132305 0.569476 -0.3869568 -1.4217658 -0.693308 0.9459689 0.5718406 -0.8787699 -0.08349351 1.0990697 -0.46050435 -0.71389735 -0.31429347 -2.2323027 -0.07908701
38 -1.5761999 0.3058944 -0.5577586 0.3868456 -1.8955892 -1.3824023 0.08422451 0.5463971 -0.7240927 0.25359118 1.2595327 -0.07124835 -0.34073162 1.0697877 0.21940477 1.2280935
357 0.2720197 1.26132 0.14092769 -0.90608114 -1.2693399 -1.5260674 0.8123331 0.8077362 -1.2069604 -0.13215506 0.120611094 -0.33532998 -0.5491998 -0.73863274 -1.8960968 0.74716103
1421 0.4072922 1.3542856 -1.3362886 0.018736113 -1.8804125 -1.1023557 0.7183138 0.7440644 0.20578547 0.06958746 -0.8368967 -0.5376248 0.7007004 1.6076012 -0.9500728 0.115864225
897 0.27642465 -0.5602172 -0.3676536 0.4833526 -2.1234205 -0.05433437 -0.35329255 -1.2404292 -0.21100323 0.7787882 0.8637516 -1.0198914 -0.3956775 1.0391433 -1.9191486 1.8902446
1202 0.57904035 0.5165917 0.09307616 -0.47934446 -2.0580027 -0.31948113 0.9411753 0.24770403 -0.6413862 -0.2286428 0.79869777 -0.71120685 -0.74374074 -0.5604725 -2.3404882 -0.4819565
12 0.6938006 0.5463974 -0.09684188 -0.56887573 -0.9582215 -0.22914368 0.1314975 -1.2914337 -0.34757444 0.1391178 -0.7922532 -0.6552756 -0.24008156 2.014748 -0.81915337 0.26384783
451 -1.8090432 1.1120423 -0.43074733 0.18918465 -0.88948196 0.32970056 0.48625353 0.4464772 -1.181902 0.11349814 -0.933625 1.0881276 -0.43327245 0.43706715 -1.1147085 0.040241502
873 -0.8894545 1.4908681 -0.48321235 -0.91270214 -1.3179252 0.15018634 0.7859545 -0.4087128 -0.93454254 0.67886007 -0.39386377 0.92327625 -0.98855686 0.9114019 -0.17261335 -0.6383339
743 -0.44851473 1.4125856 -0.9352088 1.5557169 -1.2982241 -1.0848695 0.21638769 -0.90908855 -1.4306645 1.6444293 0.15835904 -0.30613714 -0.52063364 -0.5322386 -0.9999845 0.61378473
1323 -1.2663194 0.9818426 -0.5599828 0.024764564 -0.9016173 0.50861794 0.42903504 0.721814 -0.9053015 -0.21048963 -0.6114534 1.4467363 -1.3608001 0.5767822 -1.1245658 0.6236104
497 -1.5093665 0.8933773 -0.7124528 0.26373443 -1.053944 0.4556606 0.2554526 0.61891866 -0.94743305 -0.04227019 -0.8991667 1.3158308 -0.93809944 0.23581593 -1.2982174 0.477476
1008 -1.2788363 0.786383 -0.62255883 -0.10869115 -1.0397938 0.61235225 0.33498716 0.72081256 -0.83319813 -0.12729803 -0.58989537 1.4099616 -1.3726816 0.4614195 -1.1192424 0.5499331
650 -0.4179138 0.030587185 -1.2285315 -1.6195221 -0.5015787 -0.495799 0.9706097 -0.32210734 -0.59450126 0.98376584 0.48404056 -1.7993865 -0.51879513 2.019391 -0.92691195 0.09653054
1285 -0.32774466 1.3944247 -0.11926985 -0.7920949 -1.0545183 -0.032969955 0.5065561 -0.71841955 -0.96384805 0.20747443 -0.17903358 0.73852086 -1.6979243 1.1842706 -0.035482556 -0.39849564
930 -0.43886104 1.4096012 -1.0920424 -0.97803956 -1.3200848 0.2626237 0.6443725 -0.3928502 -0.55284405 0.6685112 -0.16489089 1.0901841 -1.6009687 0.77545315 -0.21580605 -0.026896324
1880 0.19810408 0.8621009 -0.21429849 -0.7117221 -1.9931347 0.25665244 0.213267 -0.7904983 -0.8157066 1.1999769 0.4797981 1.2514253 -0.6297608 1.0342536 -0.50152016 -0.42195657
1465 0.4279706 0.6668074 -0.09046128 -0.6694871 -2.190635 -0.45086467 0.8249147 0.22719832 -0.8244484 -0.35860777 0.542951 -0.8965889 -0.7562231 -0.77019006 -2.079755 -0.23281941
421 -1.0307347 -0.7504982 -0.5470867 -0.03673965 -0.9533238 -1.1115272 -1.2613355 0.25480193 -1.4049896 -0.3590579 -0.9250117 -0.15359081 -0.61657155 0.5625831 -1.5599265 0.55953664
498 -0.3892373 1.1945156 -0.8705845 -0.80342156 -1.1578788 0.3313215 0.4202678 -0.4110018 -0.55107963 0.25141513 0.029271679 1.3078481 -1.8526078 0.9385937 -0.39438277 0.22860946
830 -0.35221127 -0.15968996 -0.97624516 1.6707714 -1.4151292 -0.46411523 0.61589044 0.13808441 -0.77055097 0.4786894 0.27294314 -0.7318343 -1.7190648 1.0074227 -0.9242291 -1.8179877
1568 -1.3830693 0.9084879 -0.34288093 0.10527986 -0.8111203 0.5055724 0.50557977 0.89114785 -1.1505435 -0.1415299 -0.61154675 1.4648453 -1.3048619 0.6047532 -1.2261277 0.4779985
1653 -1.8626416 -0.08418142 -0.45425424 0.01921477 -0.95615077 -0.53591734 -1.2608465 -0.037722997 -1.214444 -0.2387517 -0.87207323 -0.50176847 -0.46772847 0.4250188 -1.9373584 0.01037147
943 0.60352457 0.49235022 -0.106544055 -0.5147707 -1.1997169 -0.17527409 -0.025901783 -1.4252268 -0.34963328 0.28875723 -0.5910134 -0.5497048 -0.054905944 1.8242711 -0.8113496 0.32816023
1615 0.5735923 0.47396734 0.5743632 -0.3586669 -1.0728766 -0.6597305 1.0753498 0.49781552 -0.8227113 0.03069699 0.8993446 -0.16179441 -0.6450121 -0.23583564 -2.6551394 -0.06726144
187 -0.58655703 -0.98885643 -0.48340172 -0.24218848 -0.6148993 -0.7500397 -0.9298505 0.29083118 -1.7992359 -0.28892508 -0.83152205 -0.0028924528 -0.8742635 1.0722356 -1.2140077 0.2964277
683 -2.0224297 0.24048942 -0.55964524 0.07097246 -1.1845381 -0.21594213 -1.0411096 0.16417293 -1.2479923 -0.26128608 -0.96703166 -0.21237296 -0.3782501 0.29786515 -1.8345199 -0.0044105193
316 0.13109368 -0.55283296 -0.35927162 0.52464694 -2.093638 0.057992354 -0.32220602 -1.2200314 -0.32190076 0.71185374 0.93821895 -1.1429768 -0.5758918 0.9603817 -1.9714513 2.0083566
128 -0.48751026 1.3949149 -1.0053164 1.541434 -1.2997632 -1.0703847 0.20191927 -0.77556473 -1.3370515 1.7671974 0.08990788 -0.30494604 -0.47259787 -0.5142486 -1.0792719 0.6558507
670 -1.1120263 -0.3587203 -2.0996177 0.2619177 -0.998756 -0.8875041 1.1374525 -0.23733895 -1.1583045 -0.5089404 1.5624154 -0.002520484 -0.82262105 0.2742319 -0.8876425 0.68064904
532 -1.0222259 1.4523413 -0.60642785 -0.8578788 -1.310002 0.068306826 0.72249794 -0.3837722 -0.8499012 0.74386096 -0.57987046 0.9648299 -0.87787247 0.7748168 -0.28819054 -0.7022007
330 0.43513966 0.3751978 -0.062176853 -0.18889257 -1.8136873 -0.38110703 -0.43371746 -1.3969448 -0.52868146 1.3044429 0.123341955 0.94822526 -0.032980256 1.3501779 -1.5466957 -0.3455738
1878 -0.29216352 0.14787157 -1.3476928 -1.6566762 -0.56028104 -0.4793333 0.9217529 -0.25742042 -0.66085255 0.90293515 0.41799694 -1.7880898 -0.38614038 2.0940504 -0.8614575 0.103808254
1555 0.5718177 0.95315456 0.5552091 -0.43778056 -0.99903226 -0.93543094 1.0643237 0.7114643 -0.9815559 0.030121895 0.59412426 -0.17428397 -0.49389496 -0.31213498 -2.474968 0.14922142
1348 -0.27478164 -0.29969776 -0.9608795 1.3477348 -1.2237912 -0.63560027 0.60122114 0.098312445 -0.81815016 0.9945651 0.24220198 -0.722234 -1.8600751 0.85691184 -1.032496 -1.8238194
1182 0.20227385 1.1264074 -0.32139823 -1.1831926 -1.4733888 -1.1784695 1.0276005 0.47067615 -1.1734302 -0.32172656 -0.12410102 -0.41873422 -0.42712465 -0.79257137 -2.0178397 0.67648953
155 -1.3998024 -0.05071427 -0.6518629 -0.5187798 -0.5069444 -0.39611065 1.7099912 -0.19711341 0.19914465 0.84407586 -0.22656974 -1.8042581 -0.98301715 1.3670214 -1.5646434 0.3303636
1053 -0.41661733 0.13635975 -1.3129066 -1.6264355 -0.5263488 -0.46580026 1.0352091 -0.16301207 -0.6102015 0.9657114 0.49515867 -1.8716055 -0.4313952 1.9908651 -0.9086338 0.06057643
1423 0.1527745 0.4722314 -1.4264487 1.5649278 -1.0382724 0.66091 1.2213308 1.156317 -0.9282288 0.6262013 0.45170566 -0.5241834 -0.9490973 1.4905151 -1.0431559 -1.0930213
1651 -1.630697 0.39613873 -0.47905073 0.41630933 -1.8767506 -1.4775681 -0.010777219 0.49642068 -0.74358946 0.31146368 1.2968174 0.008351971 -0.37234136 1.1295992 0.2765105 1.1817603
1800 -1.3971622 0.026452852 -0.811359 0.43960568 -1.7876413 -1.3109387 0.56831187 0.74107796 -0.93770325 -0.03306773 1.0814074 -0.15452805 -0.3898423 0.9579544 0.33747804 1.275145
996 0.023758197 0.35334063 -1.2891608 0.48036492 -0.85861444 -0.41231415 0.9163412 -0.39442822 -2.232029 -0.8220573 1.7901044 -0.5312146 -0.69114035 0.723778 -0.4722535 0.8055157
23 0.07653835 0.9843346 -0.30416906 -0.74877083 -1.7301615 0.29719216 0.5533213 -0.69918704 -0.78009903 1.0984958 0.61121875 1.2135779 -0.94465566 0.9117066 -0.48449692 -0.5160874
42 -0.53008044 0.8524342 0.81841826 -0.32001364 -0.88010395 -0.8422312 -0.6562338 1.7351681 -0.3188067 1.3658003 0.06009378 -0.73374146 -0.29780626 2.427738 -1.7280135 0.9672374
1106 -1.9471315 0.6877018 -0.36715308 0.11345014 -1.5842763 -1.5059868 -0.28727332 0.22308993 -0.297564 0.6302484 1.7469362 0.1671121 -0.656645 1.0632608 -0.33146825 1.0335739
1359 0.3654606 0.8385012 -0.32322702 -0.9657701 -1.3208873 -0.74192005 1.2828757 0.0881378 -0.99844456 -0.33545545 -0.0095876185 -0.34552664 -0.34736887 -0.72652286 -2.4154608 0.28162506
171 -0.32187155 -0.16001369 -0.9887114 1.6017675 -1.3784046 -0.4628835 0.54112923 0.16601966 -0.715711 0.53021103 0.29473162 -0.72133434 -1.6847306 0.96448267 -0.95729953 -1.8170946
69 -0.40905565 -0.06837118 0.09893946 0.6190476 0.14254497 -1.2092078 1.7208111 0.07311796 -1.6261005 1.7843717 0.75847673 0.46493107 -0.095027514 1.9471486 -1.1264713 0.3610503
175 0.06505569 0.39106387 -1.1996009 0.53884125 -1.1410636 -0.4979989 0.89724994 -0.110825986 -2.2487054 -0.7663743 1.7039492 -0.58777076 -0.5185415 0.80995536 -0.23158811 0.9093977
224 0.5875616 0.555945 0.024269491 -0.61147857 -1.6401579 -0.36431974 1.2562622 0.18498981 -0.78241974 -0.27832976 0.5374802 -0.45195675 -0.5692456 -0.47822243 -2.6056626 -0.29462
1889 -0.28886524 1.7869647 -0.98273695 1.4907264 -1.210195 -1.088645 0.28173292 -1.0784348 -1.4817146 1.4312423 0.38478145 -0.6192176 -0.65145653 -0.3133848 -0.7867578 0.6497446
917 -1.5235151 1.1513014 -0.069665015 -0.43278033 -0.56369853 0.49593484 0.08939047 0.21970187 -1.7761954 0.05679427 -0.64599067 0.53023547 -0.29553312 0.92111766 -1.0967847 -0.41448507
272 -0.03627894 0.37803823 0.33202496 -0.46632838 -0.5102869 -0.03445671 0.047467437 -0.944045 -1.3539807 -0.2311924 -0.89685744 0.15299731 -1.4155095 1.8303062 -0.55773234 0.13845044
850 0.75438863 0.51436305 0.47428307 0.05908449 -1.5434237 -0.7814811 -0.1620436 -1.3239075 -0.50451165 0.40591934 -0.024943965 0.8873838 -0.98083794 1.7738388 -0.64721686 0.39319617
902 -0.09684409 -0.39660034 0.11809593 -0.35670847 -0.42764685 -0.21939206 -0.24282184 -0.09506325 -1.8267628 -0.2579104 -1.0571386 -0.23324469 -1.6874651 1.4034029 -0.56016505 0.3875981
1475 -1.4406201 0.90744275 0.29753745 -0.2868226 -0.4508984 0.6460236 0.04340524 0.21098281 -1.6355205 -0.43203497 -0.51088536 0.5299357 -0.78408194 1.0362021 -1.2410574 -0.04895172
614 0.42357585 0.84720755 0.13832633 -0.68182886 -1.8816465 0.23749898 0.2972717 -0.70304227 -0.810883 0.9347306 0.6194591 1.0495526 -1.1181532 1.1355114 -0.3295404 -0.34176973
583 -1.7991332 -0.15832567 -0.64914536 0.02365803 -0.9138516 -0.93459684 -1.192965 0.14767781 -1.2103165 -0.0263314 -0.9715022 -0.26852745 -0.35743123 0.25411007 -1.7632833 0.12906326
305 -1.8185259 0.046882447 -0.78395987 0.034111843 -0.989222 -0.6293582 -1.1328169 0.19252342 -1.1227646 -0.21904537 -1.0395702 -0.3273199 -0.37974906 0.2764516 -1.8469622 0.20257328
26 -1.3310287 1.592462 -0.28919742 -0.70692414 -1.1043468 -0.06982914 0.6222363 -0.18284455 -1.1659327 0.37308726 -0.6593485 0.75695664 -0.91268235 0.93135256 -0.20374194 -0.7549811
701 -0.63935703 -0.6582529 0.06371961 -0.30717066 -0.83913064 0.2954819 -0.30104107 0.17810021 -1.5275009 -0.57373196 -0.87535805 0.044359125 -1.669629 1.0830573 -0.8792653 0.35187405
1216 0.6754377 -0.7127794 -1.1698039 0.34119332 -0.6859516 -1.1241499 -0.13890475 0.6799045 -1.281795 -0.46092674 -1.3561277 -0.31228447 -0.43163618 1.3975511 -1.2626158 0.5644472
75 -0.29553762 -0.046310972 -0.018230489 0.66677594 0.13134499 -1.2106657 1.8617368 0.14603841 -1.6069139 1.7268647 0.76575285 0.48653436 -0.17835619 1.9125892 -1.1383989 0.15486625
81 -0.09521909 0.35146987 0.03268557 0.46795312 0.0949104 -1.024657 1.9550419 0.6154819 -1.5709889 1.7521346 0.7939778 0.50219285 -0.1570647 1.891387 -1.089563 0.2656922
1018 0.95539063 0.7016931 -1.408143 0.24254593 -1.8323109 -1.0482854 0.29551998 0.07701332 -0.31975552 -0.020330999 -0.93655384 -0.5080451 0.7788888 1.6032737 -0.9496466 0.49168834
1415 -0.5607773 0.7980654 0.10914494 0.13444889 -0.82316566 0.037592717 -0.53496057 1.7685995 -0.43578973 1.8013799 -0.121298574 -0.5514168 -0.38475227 2.0571382 -1.3884145 1.4601882
688 -0.73875064 -0.14892451 -1.1021401 0.40712157 -1.6869934 -1.1472121 0.7019141 1.018412 -0.8376144 -0.21398145 1.5485535 -0.142519 -0.4027189 0.8742519 -0.10802883 1.3814211
511 -1.3750644 -0.06930588 -0.595402 -0.5443927 -0.52736133 -0.3826221 1.6433417 -0.23248461 0.21738766 0.85723925 -0.18988824 -1.8036621 -0.83968157 1.3763803 -1.624242 0.23874664
707 -1.0274333 -0.092452906 -1.4188086 0.30851918 -1.6147186 -1.0422904 0.8524462 0.82149863 -1.0042684 -0.4201126 1.5438291 -0.16997471 -0.39150757 0.6434656 -0.09919538 1.0766132
1407 0.99909794 0.03969972 -0.35924938 -0.22157809 -1.5312116 -0.37755573 -0.18612571 -1.1850412 0.11723101 0.5882385 -0.18364176 -0.4782276 -0.1519129 1.5481004 -0.877854 0.63104904
317 -1.0295606 -0.12217141 -1.2272577 0.3760224 -1.6316366 -1.3436143 0.5257138 0.93819 -0.5449566 0.05165031 1.5234864 0.05061168 -0.47885996 0.7922705 -0.11853665 1.1906782
1512 0.8757348 0.5101073 -1.0272293 -0.25530288 -1.609175 -0.803857 0.13590531 -0.57420254 -0.19341472 0.17552136 -0.7489169 -0.5756366 0.6124018 1.8464569 -0.7405067 0.30134177
1094 0.041974276 1.1565083 -0.6359385 -0.7811396 -1.5247871 0.278172 0.53706586 -0.58490634 -0.797291 0.5777607 0.1447751 1.2169768 -1.5189496 0.85361874 -0.19596264 -0.11848147
469 -0.2693331 0.4927086 -0.93544 0.4269629 -1.0608566 -0.6431581 0.6962908 0.107222304 -2.1324732 -0.87046206 1.7798767 -0.63855124 -0.5191089 0.8419537 -0.14359507 0.83296865
1232 0.43896633 0.7856677 0.815041 -0.18539363 -0.9186452 -1.4054033 0.7775933 0.82700884 -1.1193199 0.16159965 0.6621128 -0.24486229 -0.6480063 -0.30569163 -2.3869612 0.4029271
1811 -1.7105485 -0.29138207 -0.5995724 0.038604297 -1.0339936 -0.5555768 -1.0921353 0.25408372 -1.1350105 -0.25857848 -0.97059387 -0.20160174 -0.5202426 0.30529904 -1.8448534 0.4031981
345 -0.28108498 -0.1364933 -1.111364 1.4844748 -1.4102362 -0.4696671 0.5530805 0.22476622 -0.7508298 0.6897227 0.14937629 -0.65056306 -1.6804007 0.83962256 -0.98958 -1.8407267
242 -0.60009223 0.7603838 0.3797789 -0.058473304 -0.8700056 -0.18359113 -0.57427543 1.7426099 -0.38215032 1.621076 -0.065709576 -0.5830315 -0.2877774 2.215111 -1.4212118 1.3530307
837 -0.59787154 1.6697112 -0.97647274 1.4957808 -1.3228378 -1.0287077 0.072345026 -0.82542676 -1.1020724 1.7641312 0.11870643 -0.57451844 -0.44032228 -0.3949529 -1.1088005 0.5556029
1661 1.2375914 0.4223793 -0.6712356 -0.012051237 -1.1206003 -0.86930436 -0.015401011 -0.03956905 -0.13564235 -0.11440424 -1.4705293 -0.8586907 -1.3463817 1.463241 -0.93691045 0.57827157
1255 0.11142627 0.5231286 -1.0731091 0.5748828 -1.0059042 -0.59921104 0.74670887 -0.10427701 -2.2843385 -0.7789286 1.8700479 -0.6117656 -0.59726655 0.84352124 -0.3138567 0.7796902
1458 -0.6801606 0.5962273 0.17880395 -0.5482977 -0.1238027 0.02245724 -0.4218578 -0.08969237 -1.8404756 -0.18487099 -1.178272 -0.32112014 -1.1528348 1.1800716 -1.1697724 -0.45917195
1372 -0.30307817 0.08357295 -1.3429648 -1.6481569 -0.5366259 -0.5170412 0.9292727 -0.20344774 -0.67879426 1.0079789 0.49435955 -1.7594181 -0.4597492 1.9888923 -0.88167864 0.13028915
904 -1.7136422 0.0055946815 -0.5989918 0.005455293 -0.8170306 -0.5372186 -1.1286207 0.0337373 -1.2400869 -0.12227877 -0.9432483 -0.5639651 -0.36139306 0.41758567 -1.7939999 -0.12966527
1812 -1.4804853 -0.5977572 -0.60445106 0.08150021 -1.0787029 -1.1205243 -1.275977 0.27883738 -1.2449918 -0.20396818 -0.874199 -0.23958233 -0.52535623 0.31264186 -1.8186721 0.6735689
114 -0.90801036 -0.035468295 -1.6765679 0.3321817 -1.1719376 -0.5446175 1.1819136 -0.39553323 -1.8560706 -0.8412957 1.3729441 -0.49112606 -0.78362453 0.44539833 -0.3841794 0.7702163
974 -0.61235464 1.628308 -1.0391808 1.5036457 -1.3377432 -1.0019819 0.062215827 -0.8241807 -1.0965207 1.7458159 0.12890445 -0.57217395 -0.37597588 -0.4376314 -1.1282487 0.5214165
609 -1.5806285 1.1637515 0.01951809 -0.4696151 -0.6331937 0.4593907 0.09396205 0.2705294 -1.7675055 0.05358527 -0.5551543 0.44863406 -0.44130045 0.854532 -0.9922113 -0.51960105
718 0.22311178 0.055302717 -1.4204884 1.1944768 -0.99453217 -0.18243311 0.8546205 0.75483763 -1.0340656 1.4354522 0.07859113 -0.5726298 -1.4130722 0.8371477 -1.113122 -1.6842314
892 -0.52681804 -0.05956126 0.20639934 0.57985866 0.14422774 -1.3937037 1.5992244 0.073345885 -1.5482382 1.7571082 0.7232985 0.45162436 0.014617572 2.0415611 -1.2209846 0.34963697
1865 -1.401095 0.6067022 0.22602203 -0.4423108 -0.51363957 0.6971148 -0.16446744 0.010951562 -1.5039905 -0.6144253 -0.3284822 0.446758 -0.9454228 1.1350256 -1.2581329 -0.028170653
180 -0.5301825 0.76788276 0.08474847 0.26374638 -0.7682794 0.047667187 -0.39770782 1.6871922 -0.45143282 1.8215549 -0.10936102 -0.5016096 -0.38780788 2.009105 -1.3793385 1.3966
1689 -0.9744331 -0.1429651 -1.034009 0.42806563 -1.723439 -1.3666991 0.4780722 1.0156536 -0.5693203 0.043700665 1.4838634 0.1389473 -0.3716715 0.83425534 -0.09215943 1.3500521
428 -0.16361785 0.5763762 -1.0374047 0.4350393 -1.1221414 -0.5026288 0.657559 0.0034691973 -2.1164846 -0.8010777 1.7947817 -0.67581314 -0.45985052 0.87722915 -0.09290712 0.8404383
130 0.11327663 -0.56544137 -0.32373312 0.443939 -2.0693028 0.010771753 -0.22957201 -1.1846709 -0.23388933 0.63555205 0.87497264 -1.1430699 -0.5522824 1.0816127 -1.7847834 2.093651
824 -0.9281327 -0.3072495 -1.9529316 0.33605552 -0.8420372 -0.7534727 1.149591 -0.44343495 -1.3062481 -0.57309276 1.6510607 -0.026745018 -0.85763484 0.37193453 -0.88887155 0.7393543
597 0.41307077 0.63380307 -0.018298717 -0.62433356 -2.1730423 -0.45084527 0.71274835 0.3298466 -0.77088124 -0.36670023 0.6165473 -0.9116304 -0.8111746 -0.67917347 -2.0819297 -0.30619735
1561 -0.21346362 1.3307707 -0.36764687 -0.82926786 -1.4534239 0.12059895 0.56421715 -0.5645171 -0.7447145 0.6872756 0.28056434 1.1058162 -1.3287121 0.9100698 -0.21446915 -0.41640145
244 1.0039096 -0.0009964139 -0.34316897 -0.26822245 -1.400837 -0.60952425 -0.12010237 -1.3528104 0.1760515 0.6934933 -0.14114204 -0.56654173 -0.28463846 1.6466278 -0.9501883 0.58677197
266 -1.6465735 0.8009175 -0.30264163 -0.0062433253 -1.0595703 0.885045 -0.36088517 0.38096428 -1.4637867 -0.63808775 -0.47053233 0.4442547 -0.69539815 0.5266414 -1.4128817 0.39358452
1781 0.22556627 1.2247117 -0.24789438 -1.1285557 -1.7287319 -1.060199 0.80218357 0.5741397 -1.1566881 -0.32578367 0.004345161 -0.6540201 -0.5959157 -0.8983889 -1.8351153 0.6023193
336 0.5375275 0.45623708 0.76287204 -0.13043214 -0.9100089 -1.0340658 0.9175799 0.6657766 -1.0085597 0.105489455 0.9659949 -0.14104703 -0.65717006 -0.0823769 -2.5982232 0.087844275
1719 -0.5008582 0.7932779 0.53324467 -0.05776683 -0.773101 -0.41771522 -0.5928793 1.7534794 -0.41281486 1.5893046 0.03925533 -0.620503 -0.31548524 2.2437403 -1.5425116 1.069178
1541 0.3848116 0.9553743 0.078154944 -0.7162515 -2.0138383 -0.7066443 0.66467166 0.5178069 -0.9057769 -0.30300727 0.42263865 -0.814675 -0.7711498 -0.8195266 -1.912986 0.023410317
1270 -1.576058 0.15258859 -0.9415742 0.13817999 -1.3686714 -1.4673398 0.1845808 0.60966086 -0.26100776 0.2335539 1.6317137 0.020500254 -0.6816122 0.9525952 -0.34350353 1.1327907
763 1.4642808 0.026376804 -0.64975166 0.21401224 -0.9973539 -0.920339 -0.010330701 0.1277003 -0.624007 -0.16385484 -1.5387411 -0.58485794 -1.1472148 1.4826176 -1.0408883 0.56261224
1588 0.3560125 1.2109144 0.023207327 -0.9830302 -1.427238 -1.1794913 0.8886874 0.64503634 -1.1737522 -0.25386062 0.17354476 -0.35562417 -0.52584875 -0.73096436 -2.024133 0.59350663
835 -1.9128704 0.63356256 -0.4298556 0.10429505 -1.4823365 -1.4459797 -0.34583715 0.20487508 -0.27601373 0.59916335 1.8486488 0.16573972 -0.68570715 1.1240962 -0.4024002 1.0825326
1838 -0.12594737 1.2396064 -0.82163024 -0.8056316 -1.6008842 0.41909558 0.6939561 -0.37575153 -0.712292 0.9541551 0.14631882 1.2262751 -1.2912625 0.68516576 -0.27316874 -0.11680821
1573 -0.46955034 0.0016771179 0.044662047 0.6377535 0.072964594 -1.3148386 1.8184481 0.020680327 -1.6754339 1.67959 0.7161657 0.51634145 -0.047163986 1.913405 -1.156628 0.26871338
1766 -1.4307938 -0.12528695 -0.23141137 -0.35980484 -0.9693236 0.65773106 -0.65735096 0.36370566 -1.442423 -0.61324537 -0.4957274 0.2223635 -1.1245378 0.67726946 -1.3739412 0.15718043
667 -0.1697357 0.7718824 -0.27713943 0.6274199 -0.642023 0.5645184 -0.29014844 1.5402428 -0.63300204 2.088187 -0.35657355 -0.49426076 -0.4438034 1.5564091 -1.8068619 1.4677259
697 0.4734182 0.6226646 -0.100058265 -0.6936724 -2.2299414 -0.24682686 0.8256013 0.20698209 -0.74938965 -0.40610623 0.65314686 -0.8713839 -0.7598629 -0.6588538 -2.1277683 -0.34612802
673 1.3630354 0.39172474 -0.4686041 0.15661667 -1.1404495 -0.7828974 -0.016847186 -0.19189242 -0.37406856 0.05414222 -1.4874073 -0.552372 -1.201135 1.440771 -0.93836844 0.57982737
455 0.87593085 0.35444096 -0.9720762 0.0029552742 -1.6367998 -0.94813186 0.22246803 -0.59993255 -0.34513116 0.08279958 -0.7276623 -0.51361597 0.7940634 1.8672519 -0.7828599 0.38318545
842 0.7191604 1.5547836 -1.1710956 0.18092643 -1.9006128 -1.046788 0.55023515 0.2756172 0.058426622 0.21579285 -0.7833803 -0.7613413 0.6462262 1.560138 -0.7248536 0.30339122
106 -1.6520541 -0.05819094 -0.2759098 -0.107356764 -1.1658757 0.77729475 -0.60672677 0.20824376 -1.475277 -0.4534433 -0.45811877 0.3098624 -1.0085448 0.5062371 -1.4260263 0.053133126
1098 -1.1338273 -0.18105328 -1.5345663 0.18623625 -1.347697 -1.3750718 0.638868 0.81123847 -0.49264377 -0.057352323 1.7142922 0.14683685 -0.5935588 0.65758383 -0.5342742 1.0186973
1048 0.30506912 -0.0030486404 0.97430795 0.40231955 -0.98105115 -1.4145925 0.55648124 0.46113786 -1.1493407 0.011748424 1.2017393 -0.439863 -1.0793318 -0.06255423 -2.2895648 -0.004286654
1703 0.62249523 0.85129756 0.5901848 -0.43761212 -1.6112442 -0.74157333 0.70762366 0.8032678 -1.0473623 -0.013753128 0.960596 -0.6837565 -0.8033008 -0.48751783 -1.992341 -0.030012187
1702 -0.5636317 1.4457592 -1.0597341 1.5522007 -1.3467468 -1.0313797 0.05687231 -0.7131411 -1.2592083 1.9275196 0.06117435 -0.40081915 -0.35099468 -0.4943087 -1.1644288 0.60382587
1328 -1.1696744 -0.26908177 -1.9875808 0.3001738 -1.0377107 -0.84912246 1.1334876 -0.30571052 -1.3495928 -0.6005577 1.5884503 -0.14230865 -0.89520425 0.29942024 -0.82659286 0.6757762
1815 -1.6507457 1.2019813 -0.09322815 -0.20439759 -1.2252489 0.2426776 0.98674566 0.13963883 -0.9962617 0.09981079 -0.74607384 1.1826829 -0.8459934 0.95139587 -0.43006906 -0.22274563
889 -0.093736835 0.38331863 0.035171658 0.42000872 0.077238485 -1.0571786 1.9893659 0.58597213 -1.6237309 1.8240939 0.8140941 0.5185874 -0.18551219 1.9406221 -1.0196215 0.28012615
645 -1.2069478 -0.18477416 -1.2580705 0.13160796 -1.427622 -1.322929 0.40261215 0.70518357 -0.26537514 0.08963218 1.7040854 0.0022575995 -0.5553801 0.8029523 -0.51382166 1.2869153
70 -0.6205952 1.5154912 -1.0562108 1.4655348 -1.2320206 -0.9606647 -0.032949053 -0.6185007 -1.0723857 1.9975508 -0.021007273 -0.584923 -0.21280624 -0.4071183 -1.2348292 0.53925526
1298 -1.8701351 0.082796805 -0.5884032 0.15491351 -0.92473006 -0.52993524 -1.1164523 0.1591808 -1.270567 -0.22024633 -1.0377895 -0.3872802 -0.2917568 0.309768 -1.859978 0.19097103
157 0.69112265 0.39838755 0.19718523 -0.14485382 -1.7348793 -0.6851434 -0.7338634 -1.1660528 -0.522935 1.1105781 -0.04485123 1.0110277 -0.59451 1.6201335 -0.91906875 0.37612835
424 -0.27306557 -0.8248318 -0.3470194 -0.3604336 -0.6994683 -0.3417382 -0.57568604 0.130497 -1.1854112 -0.7312669 -0.79741466 0.1918327 -1.7364986 1.2248487 -0.9464197 0.59301203
152 0.43255007 0.20744175 -0.398376 -0.30485752 -1.6395704 -0.5063765 -0.36766538 -1.5101193 -0.47412822 1.3425453 0.15770173 0.9159295 0.08028278 1.2988364 -1.7747734 -0.42275032
1870 -0.217894 0.919633 -0.7047638 -0.83353233 -0.98507786 0.39021996 0.49323535 -0.2796605 -0.60117906 0.19474697 -0.044976395 1.2024573 -2.003056 0.9764702 -0.38789606 0.25976145
261 -1.6140559 0.8567709 -0.21080843 -0.20966122 -0.44380105 0.7462136 0.25833344 0.48281962 -1.5198933 -0.28059018 -0.3874153 0.74281096 -0.78011966 0.7666134 -1.221491 0.098122135
1338 0.2618701 1.0115039 -0.3982371 -1.1362797 -1.8330535 -0.77129424 0.92349404 0.22248021 -1.0790498 -0.49731278 -0.04529388 -0.66312474 -0.5487591 -0.8926609 -2.0642133 0.36362195
132 -1.3620853 -0.561964 -0.60088384 0.009884201 -1.1611052 -1.0329496 -1.2744454 0.24632277 -1.1992497 -0.35297927 -0.9620583 -0.28285357 -0.52319384 0.38460988 -1.759815 0.61584765
1133 -0.68458265 1.0041523 0.09850402 -0.7015869 -0.34518936 -0.0062794453 -0.31217623 -0.12770833 -1.7060916 -0.07849062 -1.1128983 0.110144414 -0.8403167 1.373418 -1.0732595 -0.77565175
1694 0.48329964 0.21108575 -0.23135288 -0.12349956 -1.5948232 -0.43846938 -0.38675106 -1.3444374 -0.5469544 1.3563478 0.17751686 1.2385728 -0.1143302 1.2739732 -1.8651657 -0.46058613
1611 1.2965761 0.23565109 -0.7313461 -0.55846494 -1.0502262 -0.7546008 0.024034355 -0.54224735 -0.06658374 0.35045666 -1.230688 -0.8135168 -0.7943637 1.6800884 -1.0598519 0.20053482
964 -0.5441738 0.8489984 0.6525261 -0.20622541 -0.7540633 -0.6339539 -0.5939845 1.7238623 -0.34145162 1.4619921 0.06147705 -0.7112243 -0.35066825 2.369002 -1.5724005 1.0525897
1156 -0.19959612 1.7015088 -0.8606595 1.512875 -1.3469605 -1.2668266 0.5194617 -1.1994315 -1.5726562 1.2410574 0.43355596 -0.42208838 -0.8357345 -0.36926982 -0.6926745 0.6661204
995 -0.5012758 -0.9616051 -0.22498041 -0.18399662 -0.65684444 0.041203354 -0.61779124 0.23065887 -1.7928586 -0.28159288 -0.81564957 0.10878402 -1.4503181 1.0934916 -1.0108247 0.331307
48 -0.076114066 0.7565115 -0.31435212 0.60891783 -0.65872645 0.5803536 -0.26366234 1.550814 -0.6848733 2.049849 -0.24869062 -0.4714525 -0.42061794 1.440533 -1.8349761 1.4689935
738 -0.062746026 0.71571827 -0.23539601 0.56749254 -0.6340413 0.5668918 -0.24709637 1.5484439 -0.692392 2.1043506 -0.22288392 -0.42969754 -0.33012325 1.4700681 -1.8092002 1.3655144
16 1.3419955 0.29410556 -0.73797303 0.0067199618 -1.1803995 -0.754358 0.1474636 0.10248402 -0.09731142 -0.1734511 -1.4353637 -0.714593 -1.2521415 1.5653362 -0.9795156 0.6060483
1480 0.6118542 0.43205467 0.22615078 -0.40378302 -1.525862 -0.60225517 -0.31950095 -1.3922426 -0.29443926 0.8129348 -0.34040785 0.24856268 -0.38502395 1.8573855 -0.8470489 0.21171565
179 0.67929775 0.73568666 0.3480207 -0.26786774 -1.9559374 -0.38861227 -0.27303594 -0.9908408 -0.6892413 1.0830997 0.17652154 1.077376 -0.71204776 1.3705326 -0.63286066 -0.011274534
429 -1.7886549 -0.0933238 -0.5810592 0.10317902 -1.1514094 -0.5132052 -1.0775983 0.13685042 -1.123722 -0.3278582 -0.9917052 -0.23315358 -0.4120986 0.27039805 -1.8426154 0.4911253
1587 -1.768271 0.38011992 -0.7816993 0.030524248 -1.2273201 -1.4295863 -0.13753113 0.23518169 0.023666883 0.5145982 1.975424 0.2628546 -0.76085085 0.98469377 -0.79183525 0.9570349
1634 -1.3784913 -0.5722232 -0.5549275 0.02412765 -1.0196841 -1.0580921 -1.253815 0.121644735 -1.1560487 -0.24695951 -0.9845786 -0.36433256 -0.54302704 0.39202103 -1.7841254 0.62466806
387 -0.041215118 0.41823673 0.025420375 0.45518193 0.057353016 -1.0765272 2.0177684 0.62175775 -1.6453935 1.8019803 0.82889897 0.53492785 -0.24158816 1.9582816 -0.9952665 0.25466296
538 -0.8659425 -0.00894032 -0.7436276 0.52602553 -1.8095871 -1.1151547 0.5033032 0.9624384 -1.0121986 -0.08473028 1.3590904 -0.11320719 -0.30157295 0.9870728 0.18803862 1.4165826
1646 0.9413611 0.28820977 0.23006111 -0.20104524 -1.1858169 -0.53708327 0.11915342 -1.4176061 -0.3476869 0.46626863 -0.483712 0.030015543 -0.76464826 1.8508984 -0.8583229 0.43403226
1613 -1.7128751 0.5449358 -0.5212516 0.3546606 -1.7862839 -1.4674165 0.11009644 0.53800523 -0.9771567 0.12304238 1.2544937 -0.11841777 -0.3614699 1.1153393 0.4062074 1.1076423
1669 0.106789164 0.45144495 -1.3475308 -0.0068569025 -1.8793048 -1.105213 0.6221761 0.7758073 -0.10232551 -0.1574235 -0.7699058 -0.1192761 1.2071373 1.7620927 -1.2928978 -0.044223607
1850 -1.5335441 0.09115098 -0.05981694 -0.10450967 -0.88715005 -0.122516744 1.5481378 -0.2931818 0.24975534 0.8906659 -0.24462938 -1.9572691 -0.6071539 1.3123307 -2.0423756 -0.02878447
548 -0.11360664 0.71627796 -0.23079868 0.5301269 -0.6740661 0.5200081 -0.28835693 1.5971142 -0.67256117 2.0793004 -0.26198646 -0.48211524 -0.34772837 1.5095356 -1.8472093 1.3718361
279 -1.4715204 -0.449587 -0.63176125 -0.017584356 -1.1185801 -0.9613302 -1.2611413 0.19132324 -1.0408258 -0.34633887 -0.93216866 -0.27285713 -0.55441815 0.32259455 -1.8128752 0.68589306
891 -0.49322775 0.7084385 0.2264652 0.17924342 -0.70736563 -0.08556609 -0.35265154 1.7439828 -0.5208071 1.8488642 -0.012954158 -0.46633855 -0.34020814 2.1162035 -1.3479093 1.2673807
931 0.18229459 0.6931054 -0.564006 -0.7577539 -1.5682182 0.46761695 0.49713564 -0.80118346 -0.5886931 0.9351428 0.6436658 1.4247128 -1.2964494 0.8818569 -0.69119847 -0.17720482
1678 -1.6265453 0.18635395 0.2098367 0.077291735 -1.1844244 0.17198563 1.2915692 -0.28014863 0.16730912 0.93404967 -0.10149992 -2.079943 -0.34828568 1.3621063 -2.2642963 -0.28459886
740 -1.836461 0.06582414 -0.49038276 0.19735888 -1.154993 -0.33502725 -0.9606831 0.098052464 -0.9991249 -0.40971643 -1.060751 -0.09148488 -0.5895237 0.23454937 -1.7744361 0.47821534
62 -1.2895247 -0.08121651 -0.6549903 -0.5718841 -0.49280158 -0.44585565 1.6395422 -0.23127633 0.2211079 0.8819899 -0.1458775 -1.8393567 -0.8940384 1.4077296 -1.5531249 0.28628892
739 -1.8726541 0.6371921 -0.3215435 0.25307783 -1.7235048 -1.4529784 -0.3098152 0.24144942 -0.36562616 0.59279597 1.6467102 0.11372471 -0.60650253 1.148887 -0.20563214 1.0449812
952 -0.8668427 -0.002420272 -0.6921355 0.59936166 -1.8777189 -1.0631266 0.630885 0.94744134 -1.1107283 -0.17530908 1.308562 -0.20312244 -0.24805665 0.9231327 0.21877772 1.4507401
5 -1.3930323 0.86627305 -0.664969 0.16329782 -1.0589532 0.46198836 0.44223234 0.8507948 -0.85382813 -0.07768952 -0.815661 1.4013115 -1.250009 0.34671655 -1.1922487 0.6542545
98 -0.13870877 0.5608102 0.3785193 -0.35034576 -0.32916796 0.26720062 0.06685239 -0.29467106 -1.7372477 -0.1969611 -1.2394583 -0.07767451 -1.1801995 1.4538369 -0.757774 -0.018282387
526 -1.4704238 1.0786808 -0.69347185 0.16321719 -1.0891198 0.43166223 0.61598414 0.6707288 -0.8417596 0.19693892 -0.755465 1.5256674 -1.0401726 0.34465787 -1.1357114 0.42741844
1769 -0.62451905 0.52768505 0.17324968 -0.4963288 -0.16071653 0.079353206 -0.40293884 -0.12031808 -1.9056306 -0.06039905 -1.1453202 -0.09346614 -1.0977049 1.1969776 -1.2341194 -0.49033552
105 -1.6597311 0.6430909 -0.23314233 0.12359859 -0.9580905 0.73032176 -0.48986226 0.32230112 -1.6493618 -0.5402699 -0.5671109 0.16118687 -0.43229637 0.54468024 -1.4879794 0.14338315
207 -1.6169468 0.19535424 0.2714828 0.19872418 -1.2742507 0.14472157 1.2441941 -0.27365473 0.16622554 0.94620144 -0.10927016 -2.0031223 -0.3445046 1.3456532 -2.2991216 -0.30536035
1599 -0.64382195 0.8493755 0.45464694 -0.05833101 -0.81243473 -0.38282454 -0.5732358 1.742342 -0.3292692 1.483225 0.005408743 -0.6550763 -0.3785402 2.3401895 -1.3841834 1.2674831
616 -0.08358271 0.63328105 -1.2959028 -0.090739496 -1.9474452 -1.0758178 0.69736373 0.8801268 0.13284208 -0.08624093 -0.7348177 -0.16476473 1.1547667 1.6960584 -1.4008089 -0.14104594
1046 -0.43242556 0.7581931 0.48270705 -0.045649406 -0.77844256 -0.2860757 -0.5340031 1.7997693 -0.42178386 1.6831801 0.023890307 -0.5422147 -0.25014672 2.116578 -1.6314836 1.1450928
559 -1.2009633 -0.16640577 -1.4724356 0.21238288 -1.3268002 -1.4197211 0.58551556 0.783902 -0.3794899 0.015583041 1.7656242 0.17157468 -0.6170615 0.7230464 -0.57955325 1.084232
122 0.99443436 1.306259 -1.3282733 0.19545718 -1.8055133 -0.9966561 0.3920824 -0.008478823 -0.15691389 0.09414064 -0.855033 -0.8017214 0.45726126 1.6071922 -0.66998893 0.5946541
1840 0.69880396 -0.749621 -1.2135153 0.1401866 -0.8158633 -1.1640352 -0.14957324 0.73158973 -1.2400807 -0.50684273 -1.301796 -0.3355197 -0.47033757 1.4379114 -1.1778928 0.59942526
1666 -0.26218572 0.047809284 -1.2530115 -1.60288 -0.590913 -0.49535152 0.95374805 -0.32149243 -0.5856488 0.9302357 0.45898 -1.7840745 -0.42299676 2.0868647 -0.93754476 0.10001456
76 0.45392835 0.878562 0.78070235 -0.2161637 -0.908077 -1.2727996 0.79627377 0.86368084 -1.1269333 0.1692331 0.7139477 -0.22060114 -0.59100896 -0.26081064 -2.2831352 0.27772397
1114 0.41000992 1.1664543 0.17185006 -0.809684 -1.4306179 -1.1176941 0.83075875 0.7363288 -1.2451015 -0.23091893 0.35710746 -0.50511676 -0.6453539 -0.71178514 -1.833977 0.48348546
1523 -1.0323007 -0.3572366 -2.0289884 0.28510848 -0.96611863 -1.0037106 1.0270187 -0.119885266 -1.0753306 -0.4606954 1.6188413 0.06173238 -0.8490473 0.29338595 -0.8932247 0.7055848
250 0.38843682 0.8338104 0.035548054 -0.6163069 -1.9996902 0.18305555 0.19926646 -0.8526343 -0.6568912 1.1472647 0.5507711 1.1005534 -0.6330164 1.1859108 -0.5243425 -0.30392724
461 0.58429176 0.6707937 0.8364242 -0.13471828 -1.2472612 -1.0860226 0.7578783 0.80393624 -1.068965 0.15555383 1.0064753 -0.46169028 -0.83918446 -0.33341303 -2.1586769 0.074621
980 0.2751449 0.7641221 -0.5425375 -0.6539859 -1.7138196 0.33606672 0.46258122 -0.69829214 -0.6638994 0.9655604 0.6323666 1.471048 -1.0992757 0.9263701 -0.5912704 -0.22443135
1339 -0.58688927 1.4799085 -1.0628276 1.4968165 -1.2737156 -1.0055326 -0.005772768 -0.70358455 -1.1488945 2.0264342 -0.06255707 -0.4706618 -0.3455923 -0.41945785 -1.2047231 0.59305793
414 -0.38228077 -0.5632516 -0.028688096 -0.42939317 -0.6663021 -0.008446639 -0.39056686 -0.04861911 -1.6913197 -0.41113177 -1.0257924 -0.201716 -1.638994 1.2626593 -0.67269915 0.3708912
536 0.064676784 0.39055496 -0.96800905 0.45518568 -0.9851541 -0.5310066 0.85796565 -0.17359076 -2.1315308 -0.8955133 1.9344934 -0.6470874 -0.6472005 0.7573074 -0.4944006 0.8090918
1386 -0.012191172 0.73198277 -0.29758668 0.6276869 -0.6168002 0.6178052 -0.1313135 1.5363597 -0.7347004 2.1871562 -0.2892643 -0.3795845 -0.35230494 1.4371697 -1.8924925 1.418643
1510 -1.1651545 0.25545177 -0.05119747 -0.5279868 -0.42616102 0.48311803 -0.6201219 0.22929536 -1.9442731 -0.2697482 -0.50213474 0.13125221 -0.85281354 0.945567 -1.4628941 -0.49152964
1895 0.025014488 -0.064735256 -1.2234133 1.3495917 -1.076251 -0.32820717 0.7143095 0.5765809 -0.9010135 1.2246803 0.13594453 -0.5802449 -1.5067321 0.8661095 -1.0568277 -1.7400386
1875 -1.4771787 -0.2602162 -1.9124554 0.25108036 -1.1968284 -1.0445678 1.0096912 -0.09520066 -1.1163065 -0.4527279 1.5940101 -0.12856923 -0.7875292 0.3032955 -0.6056003 0.73552173
1674 -1.6678034 0.19769523 0.19848478 0.060701992 -1.2068099 0.16902894 1.3069656 -0.25734082 0.092893116 0.95494264 -0.057902273 -2.0505712 -0.2979132 1.3345705 -2.2501287 -0.3134791
755 -1.8214151 1.1323688 -0.3768013 0.05489483 -0.7321689 0.35757312 0.40840375 0.54512596 -1.3059086 0.09270662 -0.8140038 0.9686782 -0.44249332 0.44010463 -1.2255368 -0.09211974
982 -1.5068033 1.4720703 -0.3066083 -0.35135227 -1.213544 0.24203397 0.90351254 0.11733243 -0.92203087 0.44760948 -0.875489 1.0204349 -0.82652783 0.82870466 -0.37360525 -0.31002665
851 0.36399743 0.81473166 -0.3491511 -0.90440583 -2.131989 -0.4734783 0.8780306 0.13564087 -0.9398357 -0.48242596 0.20198743 -0.8650381 -0.66812104 -0.86158574 -2.099459 -0.03602425
1321 0.71656746 1.3336856 -0.9349383 0.048543204 -1.8204 -1.0608829 0.3734155 -0.10009604 0.17410903 0.2409693 -0.6928803 -0.6812584 0.6928235 1.7460885 -0.7948788 0.21889156
1136 -0.71100575 1.6131271 -0.6297777 -0.9367747 -1.3486155 0.12975958 0.78986025 -0.4341815 -0.9101321 0.54344285 -0.21506383 0.8739768 -1.2503328 0.9250322 -0.14508232 -0.59790695
566 -0.8791515 -0.12804507 -0.8326899 0.60950875 -1.7630978 -1.2293726 0.5667811 1.1311134 -0.8449787 -0.011422448 1.3299276 0.07760529 -0.3887413 0.8809324 0.069654085 1.3276922
1612 0.31825164 1.0797648 0.12969032 -0.91611665 -1.9415119 -0.91375136 0.6064832 0.662389 -1.0357542 -0.24289325 0.39899218 -0.7794889 -0.7161402 -0.8267801 -1.729123 0.34223184
658 0.7520538 0.52045715 0.33828178 -0.096519545 -1.5707816 -0.84080696 -0.5997737 -1.2072877 -0.54508686 0.91598356 0.013975576 1.0762396 -0.51291996 1.7846698 -1.0212499 0.31966886
1117 -0.16304359 0.8726702 -1.2647499 0.0019444027 -2.0257063 -1.0512205 0.7372051 0.93210983 0.21687381 -0.094122395 -0.6436167 -0.17005812 1.1851872 1.617775 -1.3747492 -0.15529664
1617 0.4974428 1.0963383 0.6049387 -0.5666899 -1.185304 -1.10707 0.77964616 0.8995786 -1.0945829 0.09643723 0.6250068 -0.3576723 -0.6234131 -0.4507268 -1.9820666 0.32308385
698 -1.301772 -0.06910043 -0.64728785 -0.5825287 -0.48484468 -0.40437546 1.7000605 -0.23721743 0.23971055 0.8554928 -0.17758252 -1.8614883 -0.87659496 1.40698 -1.5265265 0.28748742
529 -1.3821214 -0.01955099 -0.6409189 -0.533694 -0.55248934 -0.39383975 1.6819215 -0.19191416 0.2001665 0.8155346 -0.14516172 -1.8563459 -0.89500326 1.4061387 -1.5218538 0.2874266
636 0.8597847 0.48294893 0.45488185 0.14653467 -1.4763356 -0.7825731 -0.2784249 -1.1209953 -0.6555781 0.5017656 -0.2017761 1.0637894 -1.130413 1.6207229 -0.7299646 0.17579073
812 0.025694111 0.4076489 -1.4813293 1.660567 -1.1828179 0.7195647 1.17517 1.087396 -0.8883262 0.40650377 0.34702536 -0.5851021 -1.0182923 1.5672083 -0.980455 -1.1550847
1929 1.0504458 1.0634092 -1.2847013 0.20005769 -1.7641175 -1.135883 0.34302804 0.043712802 -0.0040870546 0.052344624 -0.92245626 -0.8720798 0.199292 1.6077001 -0.71985 0.5611511
167 0.7618226 0.47451022 0.10505508 -0.43197846 -1.6396406 -0.6240052 -0.34715426 -1.3085686 -0.31344825 0.8235115 -0.15400732 0.17755708 -0.22413272 1.7648742 -0.72350276 0.15063258
1697 -1.6762352 -0.073408395 -0.6689308 0.008289726 -0.64840204 -0.7818046 -1.1791213 0.017112996 -1.4601203 0.04644167 -0.9404962 -0.5088604 -0.27604502 0.48926616 -1.7008302 -0.27200744
65 0.5423584 0.66124994 0.4423397 -0.46119902 -1.8064549 -0.7710942 0.7146871 0.6305186 -0.91793555 -0.13124289 0.83111405 -0.7000027 -0.8678898 -0.6034761 -2.042938 -0.13639647
1205 0.09480637 0.47601408 0.43333146 -0.4458011 -0.5103681 -0.04803083 -0.025882628 -0.92642516 -1.2876393 -0.135953 -0.91719466 -0.017252382 -1.2176783 1.9246901 -0.67901415 0.048632197
1901 -1.6516852 0.20461515 0.27149698 0.19207156 -1.2424734 0.2123199 1.2564311 -0.25264174 0.0965758 0.98116356 -0.06976848 -2.1151125 -0.28349558 1.3691169 -2.423097 -0.3524055
501 -1.3069489 0.86738974 -0.7963129 0.16103896 -0.8962274 0.44822446 0.47023615 0.76993793 -0.8680094 0.0010042809 -0.8745146 1.4762383 -1.1210748 0.34698406 -1.323272 0.6047137
1166 0.13125308 0.4519716 -1.535732 1.4823611 -1.0471652 0.7263343 1.1939015 1.1875297 -0.93836415 0.6271516 0.37252232 -0.54701316 -0.9519448 1.4945363 -1.0335047 -1.044705
1314 -1.438041 0.97417414 -0.6753967 0.2538091 -1.028142 0.47101095 0.37740168 0.7422389 -0.8405072 -0.10609971 -0.8475375 1.3892678 -1.1355542 0.27880067 -1.2373174 0.62795883
757 0.7249783 0.5849883 -1.3923242 0.17432968 -1.760466 -1.0161804 0.32918358 0.12793197 -0.34511587 -0.12939501 -0.91338766 -0.42556053 0.9558814 1.6525334 -1.0337356 0.40802422
809 0.5825212 0.47991714 0.15632084 -0.51647377 -1.8826821 -0.33010846 1.0691146 0.328796 -0.6483785 -0.20325278 0.8186745 -0.58868814 -0.681333 -0.42917818 -2.394828 -0.37683326
488 0.2989843 0.34176916 -0.27514353 -0.31375837 -1.8080019 -0.18522587 -0.32041276 -1.340981 -0.4010819 1.394778 0.19806224 0.98590523 0.12128624 1.196599 -1.6696348 -0.4384218
227 0.5579229 0.6024164 0.8839714 -0.16415745 -1.2349874 -0.9694397 0.7843381 0.75336176 -1.1317111 0.11198978 1.1767129 -0.39764023 -0.76839346 -0.2376367 -2.1810646 0.040657174
1412 0.05725893 -0.07464033 -1.2818218 1.1609197 -1.0915755 -0.39129582 0.709638 0.5222698 -0.90700597 1.304874 -0.01461691 -0.59656936 -1.5863746 0.6887259 -1.1240423 -1.8025005
1090 0.79189336 0.4987167 0.55897474 0.08517524 -1.3501024 -0.4813565 0.091749325 -0.9730013 -0.652574 0.03521423 -0.18415613 0.9822092 -1.4873806 1.59694 -0.6237287 0.074719876
1442 -1.4732811 -0.58941555 -0.29664192 -0.088329054 -1.1712645 0.018843962 -1.0660549 0.15976346 -1.2634951 -0.5241217 -0.77371514 0.030527595 -0.9910304 0.4827369 -1.7366481 0.37919283
541 -0.26505965 0.117198355 -1.2731977 -1.6944942 -0.59307194 -0.42257524 0.8052255 -0.19612487 -0.7595652 0.94827724 0.56262875 -1.7346717 -0.27141476 2.0928984 -0.95565856 -0.004220829
1362 -0.3035589 0.074459516 -1.3300256 -1.748535 -0.608578 -0.40730163 0.8106114 -0.26242685 -0.81439406 1.0039737 0.64181936 -1.729638 -0.35834235 2.1390254 -0.8461952 0.0006518797
644 0.40275267 0.66975313 -0.16222695 -0.8076402 -2.2894075 -0.41805443 0.7331879 0.23609401 -0.79574394 -0.48369905 0.45874444 -0.93055046 -0.7248112 -0.79752237 -2.0441155 -0.19582598
748 0.456905 0.04001537 0.11189242 -0.33891177 -0.88085157 -0.21320789 -0.072354026 -0.71243703 -0.7416589 -0.39029002 -0.5332551 0.7440157 -1.7266899 1.7286749 -0.74125016 0.25597697
212 -0.13658376 -0.030267011 -1.2253131 1.5458664 -1.2445434 -0.25139394 0.70198977 0.41060108 -0.8333775 0.7949 0.15140721 -0.58082396 -1.5153451 0.9332568 -0.99947757 -1.7174103
881 -0.18837686 -0.98893154 -0.46650836 -0.11965325 -0.38621756 -0.6071108 -0.67131317 0.27121297 -1.8656677 -0.21720879 -0.96238524 -0.11980406 -0.91169536 1.280678 -1.0061437 0.2632734
1447 -0.07658611 -0.1988025 -1.0895497 1.1640557 -1.0978125 -0.5953287 0.6206597 0.36848906 -0.92268455 1.404371 0.1069524 -0.6787537 -1.7397307 0.7706693 -1.0634694 -1.8310694
1110 0.33200622 1.236258 0.1097179 -0.92444956 -1.6215074 -1.1945596 0.70922977 0.76282454 -1.2472124 -0.24789928 0.23518722 -0.615099 -0.6373565 -0.84373623 -1.7737828 0.59017324
958 -1.0877683 1.0219373 -0.64419067 0.050838158 -0.75742656 0.52523696 0.26545903 0.46191284 -0.76787275 -0.17000711 -0.41252652 1.7028532 -1.4696316 0.58155936 -1.2860899 0.8093523
608 0.19422287 0.68624306 -1.3055516 0.043059964 -1.9499967 -1.0672816 0.6451487 0.82895756 0.016780823 -0.16820139 -0.8953647 -0.10896398 1.018992 1.7215637 -1.2865416 0.0011333073
1160 -0.5657063 1.481745 -1.0128363 -0.9228603 -1.2924147 0.40629363 0.8365286 -0.28886563 -0.535808 0.7393882 -0.14873487 1.0579784 -1.3550868 0.7610424 -0.2908022 -0.036788438
1648 -0.26095885 1.4033531 -0.9452924 1.5489491 -1.2858509 -1.1851445 0.4092921 -1.0581018 -1.5932199 1.5744249 0.2747326 -0.2265611 -0.74295944 -0.5301527 -0.8970899 0.70107675
419 0.4390782 0.7742428 -0.26730257 -0.86834425 -1.3770031 -0.6067838 1.3286687 0.11621113 -0.9586603 -0.36230096 0.12052172 -0.3426497 -0.36458844 -0.62080514 -2.5325844 0.1585081
1139 -0.22929913 0.06889941 -1.3479223 -1.6689557 -0.5693616 -0.5227767 0.88668454 -0.31280765 -0.6210727 1.0137713 0.53296125 -1.7812685 -0.4401549 2.0511599 -0.9019761 0.123600364
948 0.7903198 0.23679781 -0.1835422 0.02288768 -1.5891554 -0.66433126 -0.46824604 -1.2540904 -0.506005 1.1743855 0.0017317195 1.1593373 -0.25272837 1.3284882 -1.6114105 -0.1923011
951 -0.6262586 1.5444307 -0.52736026 -0.92946357 -1.266013 0.15025027 0.6953676 -0.53412604 -0.7853958 0.53474057 -0.22171974 0.8331689 -1.279095 0.99221325 -0.12548521 -0.39402348
759 -1.3725312 0.12836234 -1.1467938 0.09955626 -1.2039232 -1.450582 0.15132976 0.62565297 -0.07839564 0.23584358 2.0150697 0.29739067 -0.7221153 0.9038226 -0.74006665 1.0095941
1654 -1.0227782 -0.37959263 -1.8624023 0.29738602 -1.1338022 -1.3106183 0.8726243 0.29759562 -0.6259968 -0.16221735 1.6953937 0.32311377 -0.7184641 0.44284475 -0.81176215 0.8946934
1023 0.01846842 0.5546949 0.04933271 0.41327897 0.08410994 -1.0800209 2.0806296 0.71381676 -1.6464489 1.8025639 0.81898826 0.50956434 -0.26666868 1.8972727 -1.0048108 0.28318897
392 -1.792484 0.9533465 -0.2258425 -0.19847223 -0.465636 0.5078404 -0.26451325 0.35199407 -1.7508326 -0.21132922 -0.4462017 0.26764017 -0.34263647 0.6930043 -1.3508306 -0.22580896
200 -0.43567622 0.77783525 0.90371495 -0.38396704 -0.79776216 -0.9313862 -0.65334994 1.7327448 -0.3590769 1.3819046 0.15408121 -0.7040741 -0.22115104 2.387204 -1.7710732 0.8046503
793 0.13069907 0.11932533 0.93384564 0.50848055 -0.76510864 -1.8976337 0.48152027 0.48633635 -1.1560029 0.010491794 0.7829272 -0.40766025 -1.1337936 -0.19585419 -2.348204 0.21074094
1015 -1.4777688 0.06540703 -0.24052213 -0.25627112 -0.7766682 -0.23669253 1.5846932 -0.32357052 0.29262346 0.8912396 -0.24096182 -1.8814212 -0.7446339 1.365486 -1.902158 0.08329033
871 0.4662091 0.5773056 0.64003325 -0.28033438 -1.4971226 -0.26871216 0.08244155 -1.2803771 -0.66828316 0.2936055 -0.6051196 0.17212872 -0.8992488 1.8674823 -0.41846675 0.054667283
477 0.20340322 0.2728365 -1.436418 1.4914404 -0.9522497 0.32698417 1.1495591 1.009787 -0.98584896 0.9597426 0.30295396 -0.44821614 -1.0608002 1.298702 -1.0229993 -1.2865673
989 0.2024997 1.2180287 -0.120450675 -1.0390868 -1.2297435 -1.468796 0.9948143 0.65317255 -1.2019087 -0.19176508 -0.06892663 -0.36957633 -0.46473858 -0.73874885 -1.9499824 0.83488286
295 -1.588135 0.22755294 0.307798 0.22195877 -1.2773594 0.21249728 1.1994992 -0.28673667 0.15262453 0.9597546 -0.12795088 -2.039047 -0.307599 1.3710659 -2.3760438 -0.34242573
406 -1.6263975 1.0483073 -0.59143 0.12733456 -1.0221078 0.34502316 0.582702 0.61793387 -0.92348915 0.26300368 -0.8702992 1.3187783 -0.5953099 0.30526626 -1.1003783 0.18879911
832 -1.0998546 -0.36988118 -1.8002427 0.26526082 -1.1574535 -1.2693695 0.80297923 0.28916416 -0.5727317 -0.18610902 1.7524837 0.28108218 -0.6916726 0.43103358 -0.7905533 0.8333556
1128 -1.9067084 0.76127267 -0.3637051 0.14154714 -1.5157381 -1.5038903 -0.33504036 0.18080282 -0.3844558 0.5851899 1.7567443 0.16349284 -0.61559343 1.0967503 -0.31963244 1.0482737
333 -0.51176244 -0.08260161 0.13824953 0.6292169 0.12035433 -1.4402741 1.6811763 -0.10521927 -1.6086301 1.7374675 0.7766267 0.45784304 -0.021542406 2.0287344 -1.2537781 0.35689247
1438 1.215372 0.4819161 -0.41119757 0.11680205 -0.86871284 -0.7654333 -0.045285724 -0.06103019 -0.77831906 -0.07264486 -1.7435371 -0.5894174 -1.2216516 1.3483944 -0.8915007 0.327084
1006 -0.21948387 0.04572001 -1.3811879 -1.7048483 -0.53086054 -0.5191042 0.9026086 -0.20072965 -0.7513835 0.93766004 0.5518918 -1.763518 -0.4330968 2.1281056 -0.80322164 0.1429108
1619 -0.73753613 0.027533788 -1.643151 0.28347582 -1.0528843 -0.455457 1.2193929 -0.4224684 -2.0079741 -0.98308325 1.4163444 -0.5332504 -0.7596092 0.53441834 -0.47439477 0.7423635
1675 -0.63855386 1.5782901 -1.1555843 1.5082494 -1.2992408 -0.9552742 -0.058029093 -0.66793877 -1.1229618 2.0887923 -0.004727853 -0.55854875 -0.30417266 -0.34493327 -1.2419142 0.5662069
61 0.08587946 -0.61132103 -0.4132334 0.5432249 -2.0536115 0.065762214 -0.29248947 -1.0886232 -0.25600684 0.70003796 0.88040084 -1.0713863 -0.5053554 0.8550835 -1.9416934 2.0418715
306 0.035268407 0.54906 0.2860623 -0.5030198 -0.4590684 0.029469017 0.12645583 -0.67340845 -1.3096305 -0.18434821 -0.8810631 0.17189397 -1.4667037 1.7696061 -0.5271518 -0.03041043
1105 -1.6757643 0.19660044 0.25591913 0.17281301 -1.1628741 0.20655696 1.3005944 -0.28514495 0.19536889 0.9657939 -0.10824985 -2.0358634 -0.38120177 1.3343288 -2.3384483 -0.28280324
744 -1.3058107 -0.06315726 -0.6741969 -0.55099213 -0.4970283 -0.4395272 1.7080269 -0.28798246 0.25384513 0.90692824 -0.21898074 -1.8161747 -0.93433267 1.5067624 -1.559688 0.30192995
1227 -1.1314381 -0.39036807 -2.1055171 0.2652551 -1.0337284 -1.0378941 1.1175848 -0.10903788 -1.0973277 -0.5038767 1.6269853 0.06444154 -0.8254821 0.3239306 -0.90481603 0.7237974
1762 0.03500052 0.4758898 0.4560429 -0.33326226 -0.35855317 0.047122855 -0.016922323 -0.5190319 -1.5199162 -0.114811815 -1.1165317 -0.09345075 -1.4270883 1.6035181 -0.6893533 0.052665003
1736 0.1333654 -0.65505767 -0.4726424 0.5520295 -2.0654886 0.0496601 -0.27850625 -1.1012034 -0.24148872 0.74656934 0.9110537 -1.1439588 -0.5262027 0.8760301 -2.023151 2.066369
1167 -0.32137927 0.7316117 -0.090382904 0.3706603 -0.7134127 0.32884642 -0.4143391 1.6938056 -0.57434034 2.0096452 -0.1740158 -0.5126653 -0.28364104 1.7932867 -1.6875278 1.3105931
664 -1.4737228 0.677333 0.085564226 -0.48607025 -0.53744143 0.6483751 -0.36720827 0.15257497 -1.7377691 -0.28160384 -0.34840313 0.24930044 -0.69665426 0.9589209 -1.4017377 -0.3809478
1340 -0.3603107 0.04662513 -1.316988 -1.6693037 -0.5689043 -0.47298607 0.839062 -0.2650846 -0.71646494 1.0315324 0.5726866 -1.7598187 -0.3695712 2.0450814 -0.8898534 0.065929085
1369 -0.5597553 1.4533141 -0.74270105 -0.6832101 -1.0971823 0.26580775 0.5457272 -0.4132302 -0.420913 0.08493818 -0.14496733 1.1259664 -1.8723392 1.0044886 -0.3049867 0.38766715
1218 -0.66624224 -0.6426254 -0.09473288 -0.37734848 -1.0106194 0.4772873 -0.32193306 0.21481104 -1.502695 -0.7112323 -0.84551984 0.07889028 -1.5991004 1.0168291 -1.0457803 0.2905965
1032 -0.04276116 1.1156012 0.12384205 -0.62386566 -1.7902435 0.17745416 0.5747256 -0.68634605 -0.83082384 0.9024016 0.5335705 1.1832675 -1.0552988 1.0248289 -0.30729255 -0.50301546
1725 -1.5914747 0.19034801 0.083962955 0.01440223 -1.0623497 0.0628192 1.4019084 -0.28546062 0.18685906 0.95573145 -0.14624129 -2.0647485 -0.45480242 1.3340933 -2.250436 -0.21313241
332 -0.26887855 -0.27421293 -0.9322477 1.47928 -1.2620982 -0.6250174 0.57244205 0.08564757 -0.8185369 0.94003224 0.26287803 -0.77448535 -1.8187327 0.917084 -0.9947704 -1.8397516
802 -1.5891384 0.23154457 0.28159812 0.16596004 -1.3056575 0.2525191 1.1550559 -0.25483078 0.08237128 0.98104554 -0.0079040285 -2.10205 -0.20922284 1.363889 -2.3410158 -0.41672963
1282 -1.8969357 0.051253103 -0.6377865 0.123016216 -0.9882635 -0.30661216 -1.0776136 0.14852549 -1.1750574 -0.28026322 -0.9864621 -0.38317975 -0.42535046 0.2686715 -1.9290769 0.26531547
388 1.0632672 0.58656824 -1.4706819 0.0917906 -1.6170063 -1.0265391 0.30996722 0.06435281 -0.2720809 0.099997155 -0.99928343 -0.74562365 0.5055659 1.5643675 -0.95630795 0.5198541
587 -1.2158575 -0.3132707 -1.6218336 0.24852374 -1.2641857 -1.3791369 0.6729203 0.5112407 -0.3994962 0.008401163 1.6489425 0.23199682 -0.67696285 0.57872623 -0.62525785 1.0553886
1565 1.0698785 -0.22705604 -0.93651474 0.1987695 -0.6696339 -0.99690795 0.037670378 0.22970423 -1.0229908 -0.37922502 -1.5602281 -0.27191103 -0.9137389 1.5751069 -1.0541856 0.6672986
1206 -0.52930397 0.774622 0.3107777 0.061637003 -0.82973367 -0.12969983 -0.5973959 1.7749685 -0.439653 1.7572913 -0.08274921 -0.5787582 -0.30934444 2.0747082 -1.4866849 1.2630228
823 0.3615987 0.61339414 0.6374009 -0.14450574 -1.4344325 -0.3147722 0.094056115 -1.3240937 -0.5154858 0.2194163 -0.63074267 0.1736514 -0.6529358 1.8698573 -0.5432749 0.1317148
1280 -1.6321564 0.7039472 -0.22872508 -0.27226382 -0.5253255 0.42828226 -0.47517836 0.24672885 -1.8572507 -0.14363365 -0.41456756 0.21620224 -0.44187406 0.6465064 -1.2954254 -0.40916538
747 -0.06868199 0.744983 -0.3827761 0.6830905 -0.6714066 0.6459614 -0.22598433 1.5455273 -0.7107221 2.106434 -0.3683259 -0.4570402 -0.45969167 1.4581342 -1.9162618 1.4579859
136 -0.58177537 1.4342886 -0.8520999 -0.6205192 -0.9170362 0.2591325 0.51986724 -0.14258331 -0.43006957 0.11567032 -0.36752415 1.186421 -1.7771811 0.95809996 -0.4249347 0.39357227
539 -1.4902517 1.1824292 -0.4688183 0.11879733 -1.0732353 0.31705573 0.7903516 0.6490739 -0.9609338 0.19394308 -0.85855734 1.4270464 -0.8842499 0.5004813 -0.8480664 0.21729496
1729 0.3475385 1.0443538 0.402669 -0.5787501 -0.8198536 -1.5365784 0.8354111 0.83058345 -1.0801541 0.054173212 0.28868863 -0.11717979 -0.41287866 -0.41353008 -2.216435 0.6407246
656 0.6711036 -0.7504737 -1.1217123 0.23113914 -0.69670075 -1.1015373 -0.20836134 0.67909354 -1.35787 -0.5588241 -1.296153 -0.32795936 -0.5872617 1.4498078 -1.214101 0.6656422
1274 -1.7746136 0.48209107 -0.69873035 0.048685443 -1.2609818 -1.3686014 -0.19302654 0.2905687 -0.06844266 0.50968826 2.0914493 0.11259709 -0.82401097 1.045127 -0.67329717 1.0817235
229 -0.51869154 1.387425 -0.85677755 -0.7046809 -1.2288672 0.21059239 0.60678554 -0.26194224 -0.5327135 0.24359715 -0.20333079 1.1072211 -1.837314 0.81422025 -0.20113204 0.20513152
1753 -1.6070526 0.16246913 -1.1279055 0.06641793 -1.218104 -1.4636643 0.17015928 0.429773 -0.1299875 0.25843218 1.9305986 0.22612406 -0.75170165 0.80708706 -0.66155905 0.9947245
1174 -0.06052443 0.71378696 -0.31307855 0.6311687 -0.6715461 0.6196499 -0.24272734 1.5429264 -0.6899555 2.107285 -0.313993 -0.433541 -0.42932034 1.4573715 -1.8602465 1.4412762
1586 0.4916022 0.5593779 -0.17220256 -0.78064555 -1.3216383 -0.42656645 1.4117829 0.078672536 -0.852713 -0.3348068 0.23154645 -0.2340874 -0.39770666 -0.46078914 -2.7797976 -0.023637073
590 0.10568818 0.76685935 0.65855443 -0.2892111 -1.2688376 -0.23127854 0.05587102 -1.1007278 -0.92846465 -0.047135003 -0.63068426 0.26238623 -0.9741578 1.873154 -0.27983543 -0.18569678
912 -1.5406426 0.057998117 -0.1817354 -0.15281011 -0.80269104 -0.17703159 1.5983431 -0.30359685 0.3459261 0.85504985 -0.22421403 -1.8221636 -0.6770379 1.2855357 -1.903116 0.05417085
621 -0.74020994 -0.96221304 -0.13197477 -0.15803382 -0.9017077 0.30949172 -0.63866836 0.2704913 -1.7540433 -0.47429267 -0.72092396 0.12367398 -1.1054192 1.009451 -1.2722062 0.22889712
1742 -1.625548 0.25938815 0.2799728 0.21266131 -1.2972976 0.21012239 1.1811851 -0.27643257 0.10536626 0.97945416 -0.091819204 -2.0737884 -0.29641354 1.345579 -2.4012415 -0.36425805
1230 -1.3822147 -0.09253649 -0.5212889 -0.49159104 -0.5344749 -0.38283417 1.7734482 -0.3020617 0.2564749 0.88923675 -0.19462146 -1.8714124 -0.961128 1.4341587 -1.7079644 0.2421202
1207 -0.5919602 1.4116186 -0.06095712 -0.8899123 -1.2879522 0.00011077043 0.643016 -0.623737 -0.9923697 0.4959475 -0.13838223 0.85231954 -1.2931722 1.1074001 -0.08711412 -0.6884092
432 0.3998313 1.1560533 0.5488519 -0.6222141 -1.1081417 -1.3613106 0.69555354 0.95135367 -1.161363 0.043165527 0.4970117 -0.3611307 -0.5904375 -0.48165002 -1.91922 0.5829061
1238 -1.6021545 0.6661568 0.012231011 -0.4193801 -0.56613034 0.76792556 -0.2599069 0.35460177 -1.7368238 -0.47900152 -0.2095047 0.3570212 -0.8370282 0.8608711 -1.3701385 -0.18035145
315 0.24292886 0.2819914 -1.4567996 1.445854 -0.8938294 0.35919267 1.1808087 1.0402052 -1.044431 1.0958356 0.3312964 -0.46991026 -1.0218879 1.257618 -1.035076 -1.2512867
859 -1.2536266 -0.08882394 -0.7654048 -0.78179485 -0.42215204 -0.43247876 1.6683946 -0.18305597 0.0946808 0.81440157 -0.07556271 -1.9049948 -0.8623223 1.4954759 -1.4400358 0.27468947
1 -1.0353781 1.486208 -0.5142587 -0.59496224 -1.1144497 0.18976058 0.7431125 -0.16181788 -0.684019 -0.03537065 -0.49481338 1.0587506 -1.6061422 0.96411866 -0.24738732 0.13259022
1699 0.6214292 0.778796 0.8404458 -0.24797939 -1.3345293 -0.94472235 0.75171673 0.9265066 -1.1259403 0.08230438 1.0298773 -0.5535282 -0.75714624 -0.35516086 -2.112632 0.05514982
1009 0.22550939 -0.00849063 0.94073933 0.6096876 -0.76163834 -1.7445508 0.5512064 0.4173088 -1.3387955 -0.14307578 1.0461235 -0.4562546 -1.0900679 -0.113468565 -2.2215793 0.20372489
217 0.050926995 0.46998835 -1.5810438 1.5564178 -1.2613598 0.8074842 1.0882843 1.1087412 -0.8590698 0.36410496 0.34726924 -0.61413854 -1.0125717 1.470071 -1.0468509 -1.0906037
275 -1.6909597 0.88323146 -0.76520115 0.25372794 -0.932418 0.35212687 0.054339133 0.5831968 -0.9603356 -0.120666504 -0.88220394 1.0973473 -0.6029647 0.19191864 -1.4216155 0.41134447
981 -1.671283 -0.19774759 -0.6393874 0.03924744 -0.8261006 -0.3734535 -1.1139872 0.09735099 -1.2151403 -0.22701721 -0.84651995 -0.3815696 -0.42866874 0.4719685 -1.7643648 -0.056128297
1824 0.823249 0.78748226 0.5651515 0.009260934 -1.3972243 -0.4769724 0.112957075 -1.0538645 -0.68883514 0.20391655 -0.11348391 0.8962581 -1.3189492 1.6747359 -0.59614974 0.01256894
1222 0.35849664 0.74574274 0.626461 -0.21988697 -0.7061311 -1.5477673 0.8802055 0.70676744 -1.0460161 0.035276633 0.43025506 -0.096407056 -0.5191584 -0.3185764 -2.499822 0.4362195
1111 -0.94370526 -0.22621715 -0.40497732 -0.5636241 -0.39032453 -0.3712338 -0.8064514 0.21396731 -2.0497406 0.005240449 -0.957909 -0.040033124 -0.8185364 1.0373211 -1.1844189 -0.7115915
1446 -0.9846191 -0.27276745 -1.4304042 0.27148786 -1.4641386 -1.4307581 0.62426263 0.85298634 -0.47111577 0.057674844 1.6250187 0.2840613 -0.540679 0.6983467 -0.47958148 1.1158559
1346 -1.364296 1.3504831 -0.585364 -0.26423815 -1.3128469 0.28516126 0.7745939 0.3219288 -0.8268458 0.67579436 -0.9464702 1.3007694 -0.7387672 0.47597134 -0.5726194 -0.09842492
1667 -1.67676 1.4997294 -0.12351971 -0.47633657 -1.0967531 0.21460058 0.8130639 -0.10086265 -0.9998878 0.013349708 -0.5420861 0.8354372 -1.020121 0.9545667 -0.27771908 -0.3355913
371 0.42368466 0.12382038 0.97844213 0.2851272 -1.091642 -1.1733445 0.6319836 0.57685107 -1.3051195 -0.01801103 1.359736 -0.58494145 -1.0362085 -0.12545317 -2.1230962 0.0025852255
15 -1.3008854 -0.07370873 -1.1669796 0.27542248 -1.5777558 -1.220783 0.66050196 0.8645431 -0.7183929 -0.19159195 1.3457165 -0.24388233 -0.46288636 0.8723703 0.01981307 1.2229762
1422 1.4803371 0.25916907 -0.2719275 -0.05696448 -1.038923 -0.5613456 0.04343864 -0.63597983 -0.48005536 0.20771056 -1.3041519 -0.48851383 -1.18739 1.5821371 -0.9951829 0.51378256
503 0.35472503 0.14327575 0.41631886 -0.23589042 -0.5298536 -0.0960005 -0.10056434 -0.36003777 -1.4726053 -0.060150914 -1.37284 -0.2579567 -1.6840286 1.3360201 -0.734287 0.122375004
1322 0.2111057 0.4744842 -1.6024369 1.4714397 -1.015196 0.6930953 1.1948315 1.2141995 -0.97368 0.7424539 0.32151446 -0.5547737 -0.9387547 1.3604571 -1.0430481 -1.1041831
622 0.7115568 0.6626634 0.49999407 0.004240316 -1.5683682 -0.50341684 0.010359221 -0.9766823 -0.7906362 0.18056543 -0.08134518 1.0176449 -1.1755646 1.4846822 -0.45776752 -0.10106727
471 -1.889965 0.5717949 -0.50146526 0.09807121 -1.3736043 -1.428068 -0.24061927 0.1874262 -0.14130619 0.53652626 1.8736666 0.098889805 -0.79737836 1.0803862 -0.5696833 0.9486216
684 -1.835543 0.61519 -0.5392751 0.091041744 -1.017118 0.5368448 -0.5401445 0.33956948 -1.4929191 -0.33469647 -0.6606736 0.29062468 -0.4712979 0.27250743 -1.5173583 0.18277381
1402 0.22793517 -0.59248245 -0.36480084 0.46914244 -2.0137837 0.007742142 -0.25294128 -1.150093 -0.1797273 0.6814289 0.8345813 -1.0439324 -0.51873106 1.0279583 -1.7480377 1.9900467
1896 -0.18242349 1.7709297 -0.8755312 1.544216 -1.355483 -1.3219196 0.62445635 -1.2904137 -1.5826434 1.2877414 0.5112669 -0.41528493 -0.93867433 -0.3565725 -0.65569097 0.69871104
206 -0.73554856 1.5990995 -0.7356761 -0.79299736 -1.2547789 0.08476304 0.8979222 -0.22625168 -0.79774815 0.5370124 -0.36328083 1.04035 -1.2961462 0.7980989 -0.14334688 -0.37413424
1893 1.0968689 1.0900178 -1.0825661 0.049427908 -1.6554618 -1.1000613 0.100668356 -0.1450058 0.043364458 0.19215478 -0.8069934 -0.8570234 0.00868308 1.5709884 -0.61026573 0.46731704
66 -0.60502386 1.5298042 -0.94494873 -0.82501477 -1.233141 0.3009692 0.8392617 -0.2809302 -0.6467476 0.5973193 -0.36334503 0.96416193 -1.3976411 0.78265214 -0.22022288 -0.1291946
54 -1.906749 0.47689098 -0.7381279 0.05612611 -1.2392997 -1.4377906 -0.2177295 0.13524123 -0.097532734 0.5628122 2.0163507 0.21519831 -0.8202745 0.976094 -0.7098887 1.0155798
569 -1.4975753 1.4431828 -0.48557153 -0.49100643 -1.1685274 0.3121437 0.94951874 0.047755565 -0.8616602 0.53136504 -0.7338487 0.996776 -0.8650718 0.750989 -0.42142072 -0.28824592
1582 0.19902074 -0.47597983 -0.4095182 0.4014597 -2.1158612 -0.07063971 -0.29266202 -1.2001975 -0.20339067 0.68169135 0.79509896 -1.1888688 -0.44006455 1.0673305 -1.795482 2.0228968
1464 -1.4137287 -0.3068734 -0.09577811 -0.10524284 -1.1727561 0.7064474 -0.6439476 0.21499896 -1.3615776 -0.6559048 -0.61755604 0.21140116 -1.161152 0.57090545 -1.4984801 0.44276702
1650 -1.6961192 1.165125 -0.5182047 0.26506504 -0.6451059 0.29383883 0.50619847 0.7778421 -1.151501 0.109028004 -0.9085872 1.2088282 -0.59841794 0.46153653 -1.3496819 0.26621526
415 0.9760337 -0.38422567 -1.0842698 0.2885593 -0.8012984 -1.104789 -0.020659758 0.6104915 -0.9644558 -0.5121248 -1.3671979 -0.3851196 -0.77953607 1.4445862 -0.97397673 0.710623
649 0.09238579 0.5398378 -0.88825756 0.4992122 -1.1428468 -0.5580913 0.69648916 0.07650079 -2.2654803 -0.7968741 1.8303694 -0.6127798 -0.5223714 0.9293388 -0.1524719 0.88627064
617 0.38457453 0.28633904 -0.58827037 -0.3224246 -1.5791249 -0.39618182 -0.18258025 -1.3482621 -0.48238948 1.4065197 0.39455095 1.3082246 -0.14696267 1.1415535 -1.7805499 -0.5628704
630 0.50536 0.16369751 -0.5097587 -0.28850323 -1.5783021 -0.22544369 -0.27833787 -1.1684545 -0.50042343 1.3343672 0.45114952 1.4166416 -0.2898857 1.0391105 -1.6292359 -0.48548877
1624 -1.7328676 0.03377854 -0.4760083 -0.045400605 -0.68312943 -0.48733783 -1.1569368 -0.12474105 -1.3650941 -0.07473273 -0.95386356 -0.48133683 -0.5975845 0.5134355 -1.7170966 -0.28036788
1750 0.38202688 0.7836323 0.7839866 -0.097579546 -1.3399954 -0.32801852 0.10919272 -1.1994731 -0.6225319 0.1574024 -0.35741675 0.47104913 -0.9411549 1.8774941 -0.49739257 -0.049664192
1410 -1.6223816 0.242096 0.27474526 0.19112684 -1.312934 0.21264759 1.2919973 -0.19393174 0.13672969 0.9659163 -0.14464134 -2.098363 -0.35016984 1.3903437 -2.4386868 -0.3306991
297 1.0879127 1.1936452 -1.1544714 0.122302935 -1.6357957 -1.0800318 0.34574187 0.07385484 -0.026835032 0.10646995 -1.0769744 -0.8581756 0.122499086 1.6228108 -0.74745274 0.48178348
1706 -1.4359156 0.67126507 -0.6167353 0.17619686 -1.0608467 0.66279596 -0.20917124 0.5152544 -1.0038992 -0.41477653 -0.77701056 1.0218405 -1.1448795 0.3078125 -1.3853707 0.6091006
665 0.53897476 0.4017592 0.01641468 -0.30703354 -1.7497137 -0.5155536 -0.5964778 -1.3344514 -0.5825787 1.4283767 0.086431764 0.69697285 0.06147182 1.416913 -1.4167703 -0.34571388
1726 0.043247122 -0.58932984 -0.51105183 0.549613 -2.0536053 -0.0030643754 -0.24660473 -0.9936222 -0.2721918 0.6658701 0.9024485 -1.2167919 -0.4677127 0.87485325 -1.8972162 2.1163402
1867 -0.16180432 1.1514056 -0.8432447 -0.849626 -1.2482225 0.30285844 0.48680347 -0.47709164 -0.75963223 0.4565126 0.030219143 1.1127424 -1.8270413 0.7992897 -0.23691635 0.030301899
702 0.7736156 0.5099559 -0.10900644 -0.37122768 -1.6437862 -0.41538453 -0.1666185 -0.91805774 -0.6003209 1.0040681 0.46631032 1.3599433 -0.8240927 1.3029034 -0.65876365 -0.003271372
398 0.25721797 1.3052057 -0.081953384 -1.0328048 -1.4715022 -1.4543538 0.8182201 0.7789593 -1.3330835 -0.28786796 -0.008235181 -0.4547133 -0.58848935 -0.82563204 -1.8118198 0.748661
1127 -0.4559359 0.22212604 -0.50127095 -0.45712692 -0.53017753 0.29766732 0.013004271 0.12472068 -0.6053354 -0.6092748 -0.6304807 1.0638657 -1.9191486 1.1743791 -1.0215288 0.7379767
758 -0.09268633 0.6780086 -1.2839032 -0.058498695 -1.9519565 -1.0531733 0.73894644 0.9185738 0.085104845 -0.19604361 -0.6786652 -0.051388253 1.2163401 1.7375761 -1.3479537 -0.17499225
480 0.17199397 0.45257232 -1.4982452 1.5503234 -1.1224076 0.6547736 1.2069961 1.1681815 -0.97038573 0.59272546 0.403115 -0.5190137 -0.96499866 1.46307 -1.0779659 -1.1279829
1677 -0.37484124 -0.22436377 -0.9143017 1.5730114 -1.3848572 -0.55090636 0.48386362 0.10888509 -0.7155926 0.65079945 0.3373841 -0.7681693 -1.81489 0.9679317 -0.9660258 -1.7913877
1414 -0.28303748 0.6593091 0.022403194 0.3529676 -0.6584997 0.21244843 -0.38285476 1.6984814 -0.55876833 1.9674371 -0.09277394 -0.41200852 -0.21737301 1.7443936 -1.585968 1.2333809
1273 -1.5553381 0.9609808 0.14358944 -0.41025952 -0.6117011 0.752765 0.066041134 0.37398458 -1.6784649 -0.27810612 -0.29425606 0.57380736 -0.72257775 0.8623778 -1.1883215 -0.12246623
444 -0.9954921 -0.24427623 -1.4783775 0.25891384 -1.3282728 -1.3798119 0.62152636 0.7941176 -0.40554476 -0.010550963 1.7604154 0.30664068 -0.55335873 0.63227993 -0.6004077 1.1144857
383 -1.4208882 0.88033646 0.20071644 -0.50633335 -0.37784708 0.65064794 0.11688127 0.14448188 -1.4662926 -0.21430354 -0.51626474 0.70163727 -0.83456993 1.2012677 -1.3762767 -0.26984552
404 -0.37253574 -0.15664744 -0.9136338 1.6625243 -1.3473189 -0.40313977 0.61223006 0.18940075 -0.7369098 0.5043044 0.3869417 -0.72305626 -1.6852955 1.0758473 -0.92491645 -1.7348689
369 -0.45974997 -0.89910096 0.035019815 -0.2724143 -0.7653395 -0.1691557 -0.483048 0.106394604 -1.7176888 -0.2591929 -0.961984 -0.008580908 -1.6291672 0.9985917 -0.82423896 0.38957173
1069 -1.1216583 -0.78798133 -0.58422 -0.10964333 -0.70579237 -1.0660293 -1.2070805 0.031599905 -1.5647639 -0.104508996 -0.8673446 -0.41767147 -0.6408968 0.7023972 -1.413544 0.16598675
417 0.5555541 0.23679207 0.8409517 -0.058868367 -1.2996583 -0.88250804 0.8539328 0.52713 -0.9932888 0.016604006 1.266193 -0.399032 -0.8730748 -0.14086922 -2.384287 -0.1531015
20 -1.1777087 -0.17840798 -1.8461729 0.25739902 -1.4818264 -0.793772 1.2079648 0.047998037 -1.5363766 -0.8499564 1.315719 -0.33355907 -0.61824423 0.4113023 -0.29282302 0.77948815
277 -0.9702442 0.08649895 -0.66110635 0.56787676 -1.864161 -1.1161908 0.5171308 0.9067243 -1.1121765 -0.13147853 1.1957107 -0.14731571 -0.28134054 0.9268561 0.3294803 1.3282021
1841 -1.3815503 -0.14123735 -1.3730019 0.17424712 -1.2833548 -1.4556118 0.41744852 0.613247 -0.24258159 0.19596142 1.746915 0.2787952 -0.6678792 0.75514793 -0.56248534 1.1189932
1379 -0.18556358 -0.1570725 -1.150187 1.3493543 -1.3044263 -0.5117956 0.5676054 0.20093173 -0.83744085 0.8683633 0.109818995 -0.71005553 -1.7058946 0.7669544 -1.0054293 -1.8361725
238 -1.8107203 0.53886807 -0.5417606 0.0632609 -1.3254075 -1.4114412 -0.21170557 0.24445686 -0.09640462 0.49539363 1.9499137 0.11801976 -0.7440044 1.0371084 -0.5487221 0.98131436
280 -1.5731878 -0.0552713 -1.1496996 0.24016505 -1.5098382 -1.4731538 0.52579004 0.65922093 -0.5193596 0.036869287 1.3627992 -0.057275854 -0.53608775 0.83660316 -0.123900846 1.1681854
681 0.03595935 -0.57004917 -0.45769984 0.55068827 -2.0793378 0.05461944 -0.2383314 -1.0239103 -0.3060006 0.6186179 0.93389577 -1.1954701 -0.4657058 0.9069594 -1.9373378 2.1133795
1558 0.6471172 0.32468733 -1.4441636 0.14219256 -1.8256294 -1.1790621 0.34686676 0.29512873 -0.3650616 -0.113417536 -0.9873952 -0.29668748 1.1079276 1.7345529 -1.2282794 0.23690398
1593 0.4581907 0.22414373 -0.40096298 -0.18166684 -1.6699164 -0.42918748 -0.38201082 -1.4135407 -0.48515406 1.2928146 0.26902226 0.99755967 0.17073412 1.2314098 -1.7701267 -0.42824167
1491 -0.9296402 -0.115863375 -0.48955038 -0.57465625 -0.2357268 -0.3812542 -0.84690905 0.105565086 -2.113145 -0.0639109 -0.79323375 0.046985924 -0.75002444 1.1048795 -1.1623151 -0.6720694
1036 -1.7627465 0.6110005 -0.046853147 -0.124663234 -0.77505744 0.79862005 -0.2172776 0.41372597 -1.8463244 -0.3384266 -0.3235806 0.35478777 -0.45872766 0.6554079 -1.3254732 -0.10510442
967 -0.47721556 0.7960769 0.8767465 -0.30112177 -0.7457928 -0.8707229 -0.56855047 1.709943 -0.37138999 1.4024247 0.14970602 -0.6569554 -0.28319517 2.3973184 -1.6950583 0.8329848
1430 0.07077475 -0.14753455 -1.2304649 1.1874537 -1.0189828 -0.45215917 0.6745104 0.48010024 -0.98644006 1.5270572 0.06664807 -0.6252873 -1.6411713 0.8084818 -1.0525688 -1.8405257
1803 -1.4693482 0.3994215 0.060969025 -0.43414855 -0.598909 0.7124171 -0.4128167 0.11389895 -1.7839364 -0.287733 -0.35456616 0.20074278 -0.7818994 0.9171726 -1.4150128 -0.36356473
1662 0.4099557 0.9634584 -0.081672855 -0.50462675 -1.8136512 0.18226774 0.48101196 -0.70226955 -0.7345474 0.70458007 0.23595667 1.1325511 -1.5617808 0.9576321 -0.16607565 0.0024878113
1168 -0.42588696 0.78133535 0.042668797 0.25334433 -0.75536925 0.15422232 -0.4591007 1.7258672 -0.4790079 1.9019396 -0.19583991 -0.47896656 -0.31237134 1.9119587 -1.5613087 1.3872936
866 -0.38555107 0.027657323 0.13246869 0.58478385 0.13795629 -1.2308086 1.6919252 0.19298913 -1.5870686 1.7459041 0.7692904 0.45155782 -0.09754696 2.0066037 -1.1857315 0.40703398
1899 -1.0127755 1.4116118 -0.72015077 -0.7357868 -1.2256752 0.27822292 0.92205477 -0.24113138 -0.8462942 0.5673626 -0.5608507 0.95285547 -1.0635928 0.75575554 -0.19905685 -0.35334173
1062 -1.2758652 -0.4393729 -0.5699454 -0.16824622 -0.34776843 -0.3518416 -0.9952862 0.03953098 -1.7764652 -0.09277779 -0.7743774 -0.31498232 -0.6645278 0.89446336 -1.4811901 -0.36938733
862 0.28289264 1.2696072 0.055931546 -0.8963663 -1.2405322 -1.4968468 0.82335806 0.90048164 -1.3022937 -0.19023089 0.103602774 -0.41752708 -0.5558181 -0.7460084 -1.8473617 0.679262
1186 0.06673232 0.46087685 -1.0139999 0.56929576 -1.0865643 -0.4991415 0.7750358 -0.10569035 -2.2793937 -0.74431515 1.7834724 -0.6263324 -0.52200836 0.8500106 -0.17322737 0.91124576
1017 0.60158485 0.6332492 0.47112998 -0.23076656 -1.9428267 -0.49846035 -0.5016501 -1.2884027 -0.57512414 0.8301344 -0.3681421 0.5528171 -0.4713054 1.7258723 -0.700963 0.27995962
706 -0.10844187 0.3345263 0.05726714 0.4638589 0.047736138 -1.1203977 2.026866 0.51412076 -1.6399592 1.7864004 0.8391643 0.5049727 -0.22471486 1.9249294 -1.1694564 0.24057171
100 -1.466428 -0.5389965 -0.64191 0.020267734 -1.0052587 -1.1622868 -1.257601 0.26577803 -1.2652826 -0.2491172 -0.9345846 -0.2196497 -0.5584856 0.41131914 -1.7997614 0.5863532
728 0.48507243 1.032459 0.49386317 -0.5065138 -1.8324182 -0.020089304 0.06852995 -0.71784693 -0.81328726 0.6801738 0.19435044 0.8632526 -1.1535152 1.344074 -0.12985158 -0.044139683
572 -1.2330643 0.67266834 -0.2976163 -0.10654766 -0.8422306 0.57574964 0.33943322 0.58344245 -1.0166014 -0.3557318 -0.5139935 1.4638791 -1.54129 0.83302206 -1.1028858 0.5696405
1658 -1.0444355 0.02423806 -1.6859396 0.29111195 -1.3488531 -0.5061237 1.2213695 -0.30796963 -1.8894548 -0.9782259 1.2134027 -0.65487427 -0.69265956 0.5479869 -0.25623667 0.7996548
1171 0.2508179 -0.08589162 1.0583826 0.55512875 -1.0722991 -1.5181054 0.44694933 0.44390672 -1.185804 -0.039559104 1.1993635 -0.5475345 -1.2145225 -0.10917693 -2.2146769 0.036723554
1577 -0.110925 0.8593103 -1.1790795 -0.0072673513 -2.113386 -1.0371844 0.7885817 0.92137283 0.30641347 -0.13402443 -0.62256765 -0.071831875 1.1539165 1.6987684 -1.3520833 -0.1565834
1468 -1.0248162 1.572884 -0.3295495 -0.7044086 -1.0920196 -0.021751905 0.78627896 -0.38194123 -0.92646736 0.11508062 -0.5082504 0.77965057 -1.2171924 1.0200554 -0.072224244 -0.44851017
872 -0.002868446 0.0713508 -0.47556734 -0.4903453 -0.59842217 0.05210672 0.022314629 -0.21653198 -0.54909086 -0.52976084 -0.59694374 0.8596849 -2.09754 1.4696401 -0.7394484 0.8271827
199 -1.6908953 0.2465471 -0.91378266 0.065060906 -1.2244872 -1.4178255 -0.05359327 0.32926813 -0.007893856 0.4584304 2.0228753 0.19225585 -0.87916225 0.93472105 -0.79413164 1.0783017
247 0.0042144847 0.7836715 -0.35679227 0.68560666 -0.6848654 0.6816018 -0.17697114 1.4885459 -0.69979507 2.1268713 -0.39335135 -0.417813 -0.47004268 1.3528917 -1.9243261 1.4880149
1001 0.3646358 0.7843076 0.49292645 -0.39440283 -0.63295275 -1.3995548 0.9669914 0.6786748 -0.87394005 0.112089 0.3126079 0.041032102 -0.41385347 -0.26332757 -2.6014807 0.43564245
479 -1.3407328 -0.031002881 -0.5960743 -0.511984 -0.50684184 -0.44148722 1.7067611 -0.28472131 0.2531695 0.83476716 -0.21586175 -1.7677705 -0.95071876 1.3729044 -1.5838659 0.32375804
551 0.091094226 0.63425577 -1.0739253 0.44618425 -0.98498404 -0.40632537 0.7335652 -0.2492615 -2.336455 -0.84120345 1.8472596 -0.7543864 -0.61391574 0.8716696 -0.29598314 0.79548633
1765 -0.06271744 0.17854713 -0.18351859 -0.55518484 -0.5962191 -0.090489544 0.11355724 -0.35249367 -0.7121381 -0.30554113 -0.39094737 1.0806653 -2.0909638 1.4549454 -0.6533581 0.5780376
257 0.29164708 0.8793473 0.55082464 -0.34855628 -0.78419137 -1.690606 0.8075822 0.7801108 -0.9831006 0.06653389 0.26501104 -0.069643706 -0.57107496 -0.3956707 -2.29742 0.53327143
1721 -0.62133086 1.3224902 -0.26924238 -0.9015417 -1.2989483 -0.0066591995 0.61616474 -0.6617379 -1.0238993 0.501661 -0.030642712 0.97700495 -1.1411484 1.0165317 -0.18441916 -0.7927903
1681 -1.2677803 0.5571716 -0.14928004 -0.21827672 -0.68982613 0.7302148 0.14920646 0.54878366 -1.1381474 -0.47609684 -0.41918725 1.2238675 -1.4629358 0.89727354 -1.2202433 0.4718106
91 -1.1257586 0.9507882 0.066220336 -0.7223602 -0.40188983 0.24008672 -0.10721342 0.19143768 -1.8595304 0.15313494 -0.8296598 0.37710413 -0.7288127 1.0908575 -1.050411 -0.83991253
191 0.5069447 0.52607983 -0.16523029 -0.66793674 -2.1835818 -0.23966505 0.9627619 0.09621015 -0.7224467 -0.3916381 0.52726775 -0.80501664 -0.72744715 -0.69401395 -2.280013 -0.40600434
1428 0.49944115 0.17437872 0.54536164 -0.1335347 -0.8964372 -0.28440553 -0.07693151 -0.9723011 -0.8032648 -0.20001684 -0.717616 0.39538917 -1.4771525 1.7425852 -0.8135184 0.07287751
754 -0.03967468 -0.021613419 0.33863705 -0.506533 -0.50244296 -0.0017257014 -0.03345737 -0.38523954 -1.3967456 -0.40130275 -1.0627578 -0.17351253 -1.7433984 1.6987059 -0.6953516 0.26119828
378 0.17518252 0.57291454 -1.110062 0.5454955 -1.056752 -0.52096754 0.89145195 -0.121874645 -2.2886496 -0.7503339 1.7331241 -0.6173204 -0.6057934 0.77705616 -0.28896514 0.79822654
1037 0.5755583 0.47683445 0.8533127 -0.1218324 -1.4387257 -0.8779021 0.80375284 0.68167496 -1.0161419 0.0149200745 1.2816745 -0.54453856 -0.8749505 -0.2777097 -2.084556 -0.092369325
1397 -1.845379 0.07726801 -0.5412198 0.047980923 -0.83860576 -0.40436321 -1.0372181 0.04795116 -1.2069063 -0.13378946 -0.99729836 -0.31627288 -0.47060102 0.40764594 -1.7643604 -0.06154538
883 -0.6427821 0.04977738 -1.2242446 -1.372551 -0.4834879 -0.48638126 1.2180207 -0.29767472 -0.32926574 0.94426465 0.2687961 -1.9403522 -0.49335518 1.8733808 -1.0019555 0.1990345
1737 0.58648026 0.37870517 0.47305515 -0.23637651 -1.7066519 -0.5417506 -0.44913414 -1.4998032 -0.45080116 0.8130514 -0.25185743 0.1624064 -0.35713717 1.7509364 -0.7979298 0.2785835
674 0.31155634 0.13278295 -1.3832934 1.2109658 -0.86493963 -0.06831346 1.0468519 0.94660544 -1.0400591 1.3590271 0.16338514 -0.54401284 -1.2300153 0.9206885 -1.1187441 -1.564889
1383 -1.3215135 1.4891496 -0.23237212 -0.5635376 -1.1509076 -0.054406937 0.69605386 -0.11722058 -1.1716316 0.6565566 -0.89335597 0.86693215 -0.7124916 0.8577556 -0.3531836 -0.7472166
825 -0.68879133 1.4833196 -0.031051943 -0.79704463 -1.2277825 -0.14110905 0.41036987 -0.5570748 -0.9309801 0.2693565 -0.52920467 0.69874865 -1.175461 1.2054231 -0.054944143 -0.61654663
394 -0.6102984 0.8624599 0.3354641 -0.022107229 -0.7844545 -0.24476394 -0.5387665 1.8176469 -0.41414678 1.6437764 -0.096316166 -0.60865295 -0.37826604 2.2598808 -1.4006531 1.3585701
896 -1.4567301 0.7062083 0.09869533 -0.36232483 -0.62440157 0.88365227 -0.23107792 0.18284422 -1.8123381 -0.36541107 -0.31018302 0.3311742 -0.60889924 0.90695053 -1.3834368 -0.09524833
1923 0.66178596 0.24468032 -1.5548013 0.13553725 -1.775466 -1.1487564 0.38352033 0.19827633 -0.33249512 -0.1015325 -0.8485287 -0.25451958 1.0920929 1.7203285 -1.2275866 0.3178745
628 -0.67075837 1.474214 -0.68584716 -0.86929244 -1.1518776 0.24878535 0.64773315 -0.46509212 -0.6133626 0.11072453 -0.14202106 1.0523018 -1.7441764 1.0675275 -0.22752456 0.10308873
