3597 16
930 -2.1279986 -0.8460497 -0.5321305 0.52845424 1.2365211 0.5137819 2.1444204 -0.28686756 1.1734778 -0.71960115 1.9561334 0.59881747 1.0267751 0.028431507 -0.5497112 0.24410185
2818 -1.0916939 -0.08533446 -0.55018127 0.43311712 -0.99196965 -0.10635635 -0.20144045 -0.30381957 0.35803503 1.2507254 1.7383977 -1.026399 1.7791921 0.32850054 -0.8337907 -1.9088286
1004 -2.2007744 0.9577631 0.31143644 -1.280371 1.6664988 -1.2459242 -0.09917689 -0.29739988 1.2549574 -1.5161067 -0.5158122 0.20595886 0.3097716 -1.2860345 -0.8186261 -3.3479202
592 -2.1211612 0.95121056 0.35759917 -1.275958 1.6653498 -1.3272537 -0.10571218 -0.32818857 1.2954677 -1.5581563 -0.49027765 0.28541154 0.34610614 -1.3129795 -0.84326977 -3.3815572
3584 1.1317567 1.115766 -0.15567438 2.5892568 2.0034997 0.50331074 1.3427049 -0.68213993 -0.7663974 -1.7346754 1.1118906 0.5272712 2.2933645 2.466445 0.4135848 -1.0763286
2184 -2.1411362 0.9888442 0.3623819 -1.3024317 1.6843113 -1.2818295 -0.074066125 -0.36323422 1.2772698 -1.5633199 -0.5608162 0.2273263 0.40440112 -1.2608347 -0.81056255 -3.3893514
1491 1.1192868 1.1499295 -0.24631017 2.6060312 2.0546293 0.5758417 1.3285732 -0.6119011 -0.818478 -1.776225 1.1425387 0.61642784 2.3047037 2.4159617 0.4165692 -1.0929779
2091 -0.7873691 0.45764992 -0.83030015 0.2834518 1.8691399 -1.3122611 0.7871077 0.96752894 -1.485733 1.2602234 0.78374594 1.9018811 0.80518585 -0.46538788 -1.1598616 -0.38899672
2521 -1.1153064 0.24103661 1.6526601 1.5567503 -1.2417606 -1.2206643 0.28012514 -0.19317894 -0.38771924 -0.62670857 -0.40329614 0.4018167 1.0808687 0.5353301 1.0012782 -1.6687864
367 -1.0622462 -0.1812959 -0.5342735 0.3899371 -0.97756255 -0.011302011 -0.25683722 -0.36438257 0.30813083 1.2426991 1.8575736 -1.1080819 1.833478 0.36787573 -0.85993785 -2.0218394
2122 -1.2598604 -0.29417664 0.73189425 2.2997656 -0.54378146 -2.1533084 -0.121901035 -1.1509218 -0.1832079 0.593258 -0.17597657 0.6916808 0.5523783 0.72712004 -0.5199888 -0.8846576
1701 -0.03741386 -2.0871968 1.5069741 -0.0732445 2.5908575 -0.22591579 -1.2425991 -0.3707325 -0.50014395 0.13058722 -0.5452002 0.8323561 1.77613 1.9127775 -0.016708694 -2.093367
589 -1.4661083 0.2598041 1.9030358 1.6724334 -1.202366 -0.98569095 0.30803978 -0.0041957013 -0.5734047 -0.8519513 -0.4533971 0.5429384 1.2837507 0.53197616 1.0102036 -1.7261803
1370 -2.256016 0.8679687 0.29131156 -1.3009825 1.6212627 -1.2446446 -0.17769893 -0.3582812 1.2823298 -1.4749062 -0.48741227 0.21366116 0.3281933 -1.2049015 -0.85223114 -3.2112467
105 -1.922465 -0.67910594 -0.39164418 0.6753682 0.3855909 -0.4529417 2.0054398 -0.12179458 -1.0194529 0.6730546 -0.8931472 -0.48440006 0.24803308 0.04296704 0.89207447 0.11813045
3456 -2.0670562 -0.8102121 -0.652246 0.5751511 1.2714353 0.47755566 2.1886485 -0.28495982 1.3137381 -0.68029976 2.1838315 0.6592578 1.1856257 -0.062016886 -0.5696059 0.16089481
366 -1.009285 0.31366813 -0.966939 0.42115444 2.03762 -1.5900539 0.650848 1.1186149 -1.4124452 1.3433878 0.57340163 1.9286715 0.8151186 -0.49865723 -1.1167452 -0.4034005
266 -0.5911401 -1.8106451 -1.3095492 1.7015839 0.41717243 -0.26096404 -0.95673376 -3.0511997 -1.1247002 -0.48693013 0.936986 0.50313586 -0.25568548 0.58954114 0.08187025 -1.108323
64 -0.5937076 -1.7847288 -1.3254955 1.6735847 0.45353073 -0.3718983 -0.988911 -3.1600833 -1.1587423 -0.46552694 1.033267 0.519957 -0.2511168 0.5885222 -0.036323585 -1.1414489
2546 -1.0655472 0.093257524 -1.4307201 0.69405174 1.2536533 -0.6472282 -0.20126699 -1.0470194 0.16668777 1.1713872 -0.78764045 -1.2991558 0.523102 -0.16876514 1.1970947 -1.349967
3208 -0.55985546 -1.7635645 -1.2437356 1.6490271 0.36702704 -0.35453495 -0.8952937 -3.116429 -1.1263822 -0.46801826 0.9622957 0.48670414 -0.28459564 0.5930168 0.010853662 -1.0938774
1480 -1.1898594 -1.4154873 -0.8442335 1.3101773 0.4363261 0.65510666 -1.4168557 -1.2676651 0.3823996 -0.48476154 0.7196042 0.77282554 -0.10855245 -0.20903875 0.74994075 -1.2140197
2791 -2.067587 0.46771044 0.5989913 0.914209 -0.050833702 -0.45607704 -0.61644995 0.7934712 -1.0054306 -1.0448009 0.5165652 -0.1994255 -0.36020908 1.6906437 0.658538 -0.76854914
288 -2.2326725 0.7998113 0.26538813 -1.3080996 1.6849047 -1.3351419 -0.19650413 -0.20068446 1.2685729 -1.5858856 -0.48190078 0.23991622 0.34413415 -1.3173075 -0.8110015 -3.2863927
3231 0.02244086 -1.7772951 1.5889193 -0.20717272 2.8424406 -0.074564315 -1.1154729 -0.6097192 -0.4769586 0.08192977 -0.61559844 0.89536303 1.6113675 1.713792 0.04720961 -2.1254802
648 -2.0750864 -0.8880114 -0.6858221 0.54439425 1.3161492 0.48026538 2.180099 -0.24884525 1.3242421 -0.67442715 2.106395 0.704027 1.1645155 -0.091180585 -0.5593387 0.17807999
200 -2.2256403 0.90784866 0.26236814 -1.2178915 1.5384126 -1.188802 -0.119885676 -0.3744651 1.2630054 -1.5084643 -0.46571895 0.20099165 0.31234547 -1.1940897 -0.8597443 -3.2598898
1081 -0.9934118 0.092878155 -1.2885863 0.52713805 1.3254961 -0.70204 -0.17275059 -1.1346085 0.17816275 1.1151537 -0.74537706 -1.3237418 0.5662458 -0.2675791 1.2460856 -1.4941759
1970 -1.0623052 -1.6919538 -0.5823471 1.3047173 0.44688612 0.93602246 -1.2057729 -1.3349698 0.52513975 -0.4004153 0.7211761 1.2660207 -0.011987953 -0.21287626 0.88495535 -1.2444179
1882 -0.05812158 -2.066904 1.5325716 -0.09221892 2.6164765 -0.24472499 -1.1746552 -0.3656622 -0.47792336 0.14385042 -0.59841096 0.8036672 1.742484 1.9243283 -0.037045907 -2.0206656
1899 -2.1193502 0.45202607 0.5773248 0.9372314 -0.037555974 -0.42663786 -0.64213276 0.7603893 -1.0460451 -1.081076 0.47791636 -0.21947557 -0.34184614 1.699598 0.7073381 -0.80100596
3427 -0.47856906 0.47727126 0.6797228 -0.32203186 1.8779324 -0.7299464 2.3653433 -1.2838603 0.10162839 -0.1578589 -0.6361408 -0.11567519 -0.9502119 1.6721894 -0.29861134 -1.2561661
1072 0.14752465 -0.11084956 0.3561557 -0.38160342 1.0204903 -1.3933859 1.7393812 -0.9963605 -0.2323054 -0.08035968 0.07737218 -0.0570992 -0.80534506 2.337492 -0.16252683 -1.0753008
159 -1.0561541 0.18199684 -1.4377375 0.7067532 1.2446576 -0.65732795 -0.19304399 -1.1617804 0.15567867 1.1924944 -0.7479059 -1.3173772 0.65080416 -0.22140387 1.2212499 -1.4266186
2909 -1.7516028 -0.35834864 -0.80604184 -0.022609325 -1.1091291 -0.10599555 0.30239484 0.22479466 0.97297436 0.7442431 1.5166839 -0.5099305 2.2523937 0.763883 -1.0634779 -2.113733
467 -1.5916641 0.93453723 0.101451434 1.2631255 0.25734216 0.6137571 0.2857461 0.15305491 -1.0157243 -1.1667225 0.87704873 -0.40504336 -1.1472027 1.4378068 0.17685394 -0.75278676
2890 -0.14418589 -1.9581063 1.7030818 -0.18069535 2.909863 -0.17329396 -1.2078984 -0.64086545 -0.5426964 0.15406327 -0.7336843 0.9250044 1.6878097 1.9441168 -0.10041801 -2.1635916
998 -0.5343904 -1.8090819 -1.2550471 1.6832078 0.34454364 -0.33960834 -0.89347714 -3.163923 -1.2066993 -0.46495438 0.9438785 0.46049264 -0.29374805 0.5993801 -0.041348904 -1.139507
719 -2.1311395 -0.8518807 -0.42877015 0.49596113 1.2581786 0.31276053 2.2287803 -0.24658819 1.1801075 -0.8156415 2.055488 0.6847268 1.1550026 0.21462488 -0.54425937 0.3254215
61 -0.12122345 -1.9715195 1.7105021 -0.15844434 2.9143193 -0.060497403 -1.1902158 -0.63914233 -0.5740826 0.15602611 -0.68854815 0.886608 1.5713739 1.9132667 -0.04288506 -2.2030447
1162 -1.1504993 -1.669389 -0.73909897 1.3032117 0.55515385 0.8018517 -1.3215669 -1.3551803 0.4174472 -0.45209983 0.71212584 0.9775962 -0.08154765 -0.26520997 0.8838199 -1.2524103
727 1.1173741 1.1384912 -0.28998902 2.6378179 2.014171 0.57974875 1.3642313 -0.6048642 -0.85385793 -1.8468548 1.1552057 0.50538707 2.1965706 2.4594777 0.37587228 -1.0464138
506 -1.4048226 0.29319885 1.8916098 1.7624698 -1.2823615 -1.0847433 0.39378524 -0.067146875 -0.5400212 -0.7655775 -0.5458254 0.4873778 1.2701876 0.5278895 1.0339408 -1.7677274
3503 -2.4385462 -0.5527822 -1.711886 0.28064692 0.7252391 -0.34438902 0.4726096 -0.38800406 -1.1508346 0.6908826 -0.18882498 -0.9274448 0.3656454 0.9504631 1.0714232 0.17572951
496 -2.152541 0.9523877 0.23736997 -1.2060423 1.5277056 -0.9927114 -0.11452893 -0.24544634 1.1992774 -1.5341806 -0.5039831 0.21979696 0.28034958 -1.2506366 -0.8644063 -3.2888348
665 -0.7351741 0.5362324 0.7359407 -0.2967859 1.9858825 -0.6258293 2.292127 -1.4114507 0.031689666 -0.12721986 -0.7195922 0.0730026 -1.099502 1.5737872 -0.25922024 -1.1848701
2424 -0.13364501 -1.1088784 0.026682008 0.55527383 0.35820866 1.3071539 1.703615 1.1400636 0.3597059 0.7550805 -0.18954906 -0.97252184 0.287196 0.782537 -0.9287293 -2.3059008
256 -1.0492017 -0.8388449 -0.105019584 -1.5111982 -0.46971592 0.6546711 0.94069403 -1.4606932 -2.3945274 0.19296129 1.3737876 0.17422843 -0.15724288 -0.4976888 0.72201455 -1.5212488
1670 -0.42909563 -2.4066353 1.2952323 0.29925168 2.0800273 -0.6393916 -1.6521249 0.01793449 -0.6832223 0.11178825 -0.2781427 0.88362527 2.1069489 2.084535 0.087145776 -1.7276505
1402 -2.0842636 -0.7516163 -0.48393762 0.7549029 0.44935077 -0.56862175 2.2270725 -0.13896146 -1.0513566 0.7236963 -1.0011103 -0.49644917 0.27684942 0.10508987 0.954955 0.13769992
3084 0.8467553 -0.38746744 -0.36173823 0.78561985 0.10371575 -0.61411524 1.7220609 0.68872255 -1.514432 -1.2133086 0.78438735 -0.4417501 -0.24638307 -0.98421144 0.8294426 -2.2353015
2960 0.8078941 -0.31430715 -0.6121351 0.7934365 0.2140659 -0.9178584 1.3904537 0.8515954 -1.3382477 -1.197416 0.6145316 -0.31469223 -0.27832848 -0.9708917 0.8385061 -2.1231768
1539 -2.053898 -0.76512915 -0.1394567 0.39339173 1.22903 0.15857017 2.443264 -0.24717338 1.4265702 -0.8591066 2.4117234 0.6717967 1.0877105 0.29697636 -0.71360916 0.1486165
1231 0.6534109 -0.38864934 -0.5645891 0.67681104 0.33699006 -1.1241021 1.5867096 0.6581727 -1.6088402 -1.0646048 0.76218456 0.1414495 -0.35673288 -0.816685 0.61100817 -1.5347428
2218 -0.8345143 -0.7143483 0.27756694 -0.38704643 1.7365179 0.51299375 -0.17276636 1.2988485 -0.20549704 0.45132792 -0.5356317 0.94542 -0.26183325 -0.23138867 1.9489723 -1.6120051
1887 -0.21538778 -1.3106658 0.019348659 0.6578937 0.4517512 1.389448 1.8528719 1.2500294 0.3161651 0.7506823 -0.34365204 -0.85664314 0.2717102 0.9215194 -1.0222691 -2.2153978
1236 -2.4362614 0.66908956 0.09937322 -1.3665917 1.6250334 -1.176029 -0.3281481 -0.16041015 1.1904947 -1.6096432 -0.31125116 0.21566027 0.25702006 -1.4098992 -0.9171645 -3.365082
2862 -2.0922048 -0.6571271 -0.4290749 0.6729082 0.41155946 -0.52252567 2.071941 -0.13674322 -1.117656 0.7266283 -0.8894105 -0.46961406 0.28410026 0.07431075 0.9511231 0.15779305
2167 -2.0063467 0.98910487 0.26408324 -1.1942528 1.6586794 -1.1518896 -0.036163766 -0.16939698 1.2263483 -1.5837162 -0.54974383 0.20380811 0.4237725 -1.141065 -0.7114656 -3.30582
39 -0.9883845 -1.0278424 -0.1590043 -1.524816 -0.3945454 0.41106325 0.93319154 -1.580915 -2.2208326 0.40624556 1.5169221 0.2615389 -0.2638255 -0.55557567 0.9684588 -1.3914434
3209 -1.2610867 1.3990183 -1.7914356 1.8088529 0.57770455 1.2350415 0.8160444 -0.4392793 -0.18857612 0.042838596 -0.9453615 0.9547027 0.3293221 0.040390242 -0.46479592 -1.406337
2719 -2.1297772 -0.8282986 -0.7118587 0.6325252 1.3520597 0.4375388 2.0858283 -0.33242828 1.3251194 -0.64873713 2.023992 0.71065134 1.2386304 -0.042404674 -0.5710123 0.23249136
144 -1.6032487 -0.21265814 -0.51395917 -0.23524444 -1.0592393 0.08900574 0.23068824 0.3092205 0.9029253 0.8584765 1.1973761 -0.40287912 1.8705082 0.8561403 -0.9946688 -2.0318055
2463 -1.7963179 0.23643258 0.26445994 1.0744939 -0.113136105 -0.3938906 -0.5901135 0.7348358 -1.1782054 -1.1286585 0.844653 0.11305762 -0.55801636 1.6089654 0.38311377 -0.6429834
1410 -1.9056106 -0.77452356 -0.4293354 0.25405216 1.3022916 -0.2663656 2.0906239 -0.12044916 1.525035 -0.7293297 2.311555 0.7302631 1.379372 0.36031675 -0.4317648 0.09153498
3343 0.03717316 1.2418126 0.14846082 -0.34069434 0.7057788 -0.41165525 -0.076603614 -0.75219375 -0.3815024 1.990679 1.8543442 -0.39759418 -0.10445234 1.2450927 0.6456056 -1.4453483
498 -1.9470336 -0.3739755 -0.90258175 0.038920786 -1.1274611 -0.015514984 0.22494504 0.14597277 0.95803857 0.79408646 1.5839894 -0.5606611 2.4286697 0.76145095 -1.1702739 -2.2115722
1125 -1.0481614 -0.2131407 -0.33609 -0.31058457 -0.9428593 0.26793617 0.27120063 0.24372368 0.935235 0.92031497 1.3104268 -0.6164557 1.4042174 0.9805014 -0.6480292 -2.0834496
1271 -2.3325338 0.73275506 0.030523503 -1.3417383 1.6624922 -1.0960096 -0.2893883 -0.07044868 1.2715847 -1.5329788 -0.38505995 0.19659582 0.35307702 -1.3149378 -0.8269319 -3.308555
1371 -0.38389286 -1.5509301 -0.1179033 0.9287115 0.3594085 1.4302996 0.8595608 1.6818582 -0.41230497 1.4207959 -0.65455616 0.34189305 -0.14650272 1.6098742 -0.94682693 -1.5832556
1511 -0.13328673 -1.9573048 1.7132115 -0.23209526 2.9132328 -0.1272612 -1.1548413 -0.64816064 -0.48155028 0.16473967 -0.6923401 0.88385516 1.6096545 1.9014281 -0.052023854 -2.2440097
1133 -0.59367067 -0.060188033 -0.53628105 0.77012885 0.16411789 0.1857291 2.5271747 0.27158827 0.714996 1.8056889 -0.3268012 -0.0021766291 0.73217016 -0.0892547 2.5100205 -1.3437322
448 -1.9992651 -0.80454797 -0.4259234 0.5254219 1.2617891 0.41948664 2.5270712 -0.21602704 1.3804178 -0.738578 2.3956714 0.59337777 1.2239009 -0.051285245 -0.7259707 0.06644149
208 -0.8464309 -0.7648298 0.30282417 -0.41189045 1.7928841 0.53943723 -0.17923234 1.3510696 -0.2792276 0.31057408 -0.60060185 0.9906251 -0.27219018 -0.1418718 1.9854425 -1.6969864
167 -2.4473636 0.7074889 0.268397 -1.3321716 1.6654589 -1.2638435 -0.31802508 -0.28973314 1.1594641 -1.5904762 -0.4081711 0.27636054 0.20086688 -1.3472121 -0.9647748 -3.2773507
3350 -0.03687845 1.139776 -1.2151018 -0.8245819 -0.33970714 0.17150018 0.42777702 -1.2073852 -0.60185754 0.23592465 -0.7587735 1.4438431 0.3055297 1.5249248 0.91597486 -2.088718
2789 -0.5745772 -1.7841543 -1.2559716 1.685966 0.36079496 -0.3574072 -0.95216984 -3.1373556 -1.195411 -0.49534124 0.97185624 0.46165124 -0.2417715 0.6333005 0.0017008188 -1.12842
383 -1.1704441 -1.4974478 -0.79023933 1.3403002 0.5163828 0.63368 -1.3760904 -1.2689532 0.38188842 -0.50705 0.7245593 0.8682603 -0.1395121 -0.24565697 0.7739299 -1.1589551
3286 -0.46585026 -2.387942 1.2628981 0.31009552 2.0354328 -0.6385661 -1.6083248 0.11076715 -0.7547065 0.1519711 -0.29756272 0.85843927 2.2156303 2.0604985 0.11934075 -1.6797719
572 -1.3992456 0.26834223 1.9459175 1.7565378 -1.2228751 -0.9835284 0.38412088 -0.0060282312 -0.6172237 -0.7358306 -0.5697953 0.6210962 1.3346165 0.44238532 0.9410916 -1.7070478
1470 -1.9047719 -0.72168064 -0.4039896 0.21657301 1.2800863 -0.28954458 2.0569572 -0.1286975 1.4778315 -0.7225138 2.2524414 0.78857464 1.3767941 0.3792445 -0.36907455 0.10511953
2488 -1.0361184 -0.84933674 -0.107587725 -1.3758699 -0.44737482 0.71396077 0.96092093 -1.4381684 -2.3571854 0.10625308 1.382333 0.013578306 -0.12578955 -0.50298053 0.71049625 -1.5233568
1294 1.1414213 1.150727 -0.098907426 2.692185 2.1372218 0.43836313 1.3698605 -0.46679193 -0.7519027 -1.6362623 0.9308033 0.51462924 2.4846056 2.4810596 0.48621657 -1.1239898
1489 -1.0522764 -0.94625556 -0.10305584 -1.4444894 -0.5030084 0.6535752 0.99045444 -1.5197077 -2.4266188 0.1666469 1.3966038 0.18013883 -0.20425263 -0.5658175 0.7857982 -1.5599923
1119 -2.4390953 -0.6361406 -1.5899998 0.050568454 0.57033604 -0.40525207 0.64537024 -0.18884888 -0.99609596 0.81524163 -0.408906 -0.8434721 0.460534 0.72643566 1.1345345 0.034372993
803 -0.28138882 0.3729224 0.7236318 -0.31168392 1.6378356 -0.96934867 2.2710586 -1.163242 -0.043908417 -0.08208475 -0.5042324 -0.16015795 -0.9176434 1.8889242 -0.31356364 -1.1970582
3238 -2.0407217 -0.7128297 -0.46942285 0.7105947 0.4501935 -0.5148937 2.1332963 -0.10656294 -0.98991936 0.70491344 -0.95732164 -0.4278869 0.26305333 0.04041219 0.9180976 0.13417348
2299 -0.016569778 -2.0041344 1.6644291 -0.19142458 2.8337622 -0.16237561 -1.1537799 -0.65679777 -0.5293226 0.1165964 -0.61886746 0.8924556 1.6225995 1.8529546 0.0364343 -2.2166817
1643 -0.4890699 -2.3902037 1.298486 0.29859364 2.028354 -0.6082044 -1.6044279 0.07968641 -0.72151715 0.20342244 -0.27519047 0.83764184 2.1937938 2.1643896 0.041771587 -1.6742337
340 -1.0795584 0.17467837 -1.4710858 0.7900358 1.1925092 -0.58484024 -0.18964668 -1.0198424 0.12483443 1.147935 -0.7192748 -1.3931684 0.6070643 -0.1993531 1.2533652 -1.3549234
1329 -1.0224682 0.2570432 -0.9933038 0.47983167 2.0265558 -1.6293355 0.7218536 1.1719978 -1.3243227 1.3520222 0.53968465 1.9393845 0.8608203 -0.48918405 -1.1004783 -0.3591154
1074 -1.2639543 0.6905339 1.0819952 0.60379016 0.487285 0.48713738 0.976946 0.42637435 0.3893068 0.7839966 0.9283929 0.58143663 0.18298934 -0.7723793 3.0707111 -1.1792759
2118 -0.2518848 -0.6614669 -0.23624383 0.07017466 1.5699512 -0.7860048 -0.0017262404 0.6005143 -0.18322419 1.3877333 0.2480758 -0.62785816 -0.24346374 -0.31091127 1.1838859 -1.3111386
2614 0.049246475 1.1351804 0.17345646 -0.24710062 0.7225951 -0.44458595 -0.19741748 -0.64348775 -0.45340446 1.8866872 1.8684965 -0.33453232 -0.20577644 1.1293842 0.73851097 -1.3814448
66 -1.3975757 0.22793898 1.8744842 1.7284476 -1.255714 -0.939243 0.34014004 -0.05907716 -0.6492701 -0.66284186 -0.6087369 0.5916711 1.3195157 0.45583734 0.9412581 -1.5890212
2119 0.66067886 -0.4131719 -0.17771786 0.582349 0.09810642 -0.38130283 1.8069936 0.6115069 -1.5820475 -0.9908659 0.68291473 -0.3114206 -0.06367588 -0.94455254 0.58894706 -1.9295605
352 0.8311741 -0.4195524 -0.32645792 0.73389465 0.12910768 -0.5993682 1.8588936 0.6820513 -1.5861294 -1.1031506 0.7313513 -0.48404118 -0.18586582 -1.0586383 0.83474684 -2.2351468
736 -1.098438 0.24088816 1.4252483 1.5504631 -1.2094848 -1.3603475 0.13219716 -0.13482265 -0.3080004 -0.47771326 -0.3146523 0.25686204 0.9438772 0.55879956 0.83297914 -1.4987688
3107 -0.15944004 -1.2325107 -0.11691225 0.74482334 0.3947064 1.248065 1.4424067 1.3606064 0.13943198 0.8984271 -0.46657455 -0.7080646 0.17515244 0.978298 -1.0399635 -1.983006
1696 -0.11695135 -1.2042671 -0.2979521 0.70734274 0.27990797 1.0758656 1.1904628 1.2989395 0.127187 0.99865705 -0.29914925 -0.67840356 0.007665929 0.9609295 -1.1662037 -1.9243952
1430 -1.0947577 -2.0255804 -0.55366564 1.4276022 0.5697908 1.1276046 -1.2717752 -1.436602 0.41972557 -0.25410065 0.5376544 1.151196 -0.098516144 -0.3686697 0.9748305 -1.2768247
2869 -0.5551978 0.5310578 0.7231268 -0.2823169 1.8554263 -0.70183074 2.396079 -1.2665515 0.12908153 -0.12565896 -0.66304743 -0.11226445 -0.9297043 1.6969024 -0.30863658 -1.2272954
682 -2.3091643 0.7930387 0.5224821 0.9559405 0.13944681 0.11518216 -0.67973566 0.5862966 -1.1935658 -1.0774678 0.37516356 -0.47094026 -0.6035573 1.8583992 0.69053143 -0.99395484
2440 -0.5284909 1.0017014 0.6503453 1.3635288 1.474913 0.14532787 -0.5249412 0.18415068 -0.359457 2.1640823 1.2264555 -0.097239815 -0.9284438 -0.12229869 0.71982235 -1.0231422
1750 1.0823122 1.118641 -0.2236087 2.693287 2.0270014 0.5632581 1.4156336 -0.48327214 -0.69582224 -1.603785 0.94396657 0.5803637 2.4568844 2.452024 0.5248489 -1.0858095
307 -0.29648638 0.27845392 -0.18400753 -0.24244529 1.288159 -0.29177052 -0.4068056 0.09103089 -0.5199827 1.4639908 1.014532 -0.6453228 -0.42695868 -0.1570976 0.7477983 -1.2903578
1084 -1.0863565 -1.5978875 -0.8323802 1.3774517 0.4946807 0.7640636 -1.3112199 -1.3380699 0.39431936 -0.4938429 0.71939886 0.9353934 -0.16539642 -0.26743022 0.85821646 -1.2601783
804 -0.5595539 -0.32697976 0.74800366 0.052011758 0.3078144 1.3554507 0.65220076 -0.87328047 -2.5033753 -0.18425494 1.2263513 0.27533644 1.0903829 -0.26620364 -0.31040135 -1.5098128
3219 0.8046722 -0.366321 -0.29119185 0.5712661 0.048410963 -0.5310178 1.9315286 0.6085944 -1.6445785 -1.0878198 0.80204546 -0.36451927 -0.100726366 -0.99896383 0.7444547 -2.2218697
3042 -0.261619 0.31787014 0.73017156 -0.3824504 1.5961264 -0.95164853 2.1858757 -1.1508926 -0.034463603 -0.15652846 -0.38130456 -0.05505148 -0.86631465 1.8408253 -0.2632189 -1.1857767
1671 -2.2771654 0.90555125 0.3540881 -1.31639 1.7260063 -1.3167546 -0.11447274 -0.21133813 1.2219745 -1.6350155 -0.59218585 0.28122905 0.41058198 -1.2409697 -0.7776457 -3.3704953
1069 -0.20872146 -1.3275412 0.003826777 0.6669502 0.37059474 1.3654095 1.7419006 1.2615459 0.25213563 0.82165956 -0.451356 -0.7501214 0.18134904 0.983875 -0.9975908 -2.0868838
3091 0.82359254 -0.4104052 -0.4808533 0.7993529 0.24525283 -0.7884621 1.6140065 0.76671684 -1.422268 -1.21124 0.71049243 -0.32025653 -0.26193616 -1.0303999 0.8071942 -2.1585317
3399 -0.15183005 -2.2672193 1.3953059 0.08163168 2.3051107 -0.42187282 -1.4015719 -0.23108314 -0.5365847 0.123221636 -0.481967 0.76928395 1.8282485 1.9783466 0.012987609 -1.9195077
1432 -1.144908 -0.3834825 0.62184495 2.3111792 -0.49973357 -2.2436445 -0.16706486 -1.1217092 -0.18862917 0.6005605 -0.20223702 0.6780183 0.4116423 0.7487654 -0.50306314 -0.9046945
88 -2.0155706 -0.7630566 -0.3818824 0.73877376 0.444336 -0.45583037 2.1377263 -0.10212497 -1.1219909 0.6405037 -0.94245535 -0.42704573 0.29810762 0.045380305 0.8852374 0.08161525
1767 -0.24307972 -1.2974327 0.086059764 0.5733509 0.51174474 1.3474065 1.8945528 1.1669111 0.40622085 0.7292077 -0.44679633 -0.8687239 0.2762312 0.8315417 -0.87340605 -2.2637055
1725 0.4770331 -0.5670967 -0.05122274 -0.37196255 0.8972338 -1.7120746 1.5640603 -0.80168784 -0.28922096 -0.36280152 0.41640204 -0.028517954 -1.1928561 2.5027883 0.023441909 -1.4971871
230 -1.0738882 0.2607971 -0.8826678 0.3325777 1.9574755 -1.6216071 0.6414049 1.0685997 -1.4516916 1.2931902 0.37531605 1.9111571 0.7765576 -0.5818197 -1.0581769 -0.41092
1667 0.034369458 1.2738174 0.14406087 -0.24082322 0.74770325 -0.41776517 -0.16921905 -0.6789028 -0.46761113 1.9265921 1.9408888 -0.39802107 -0.19050401 1.233973 0.6979041 -1.4297143
2052 -0.83611035 -0.79840094 0.19848752 -0.38964194 1.5630273 0.35414383 -0.12141668 1.3705792 -0.1526885 0.57862103 -0.4204845 0.8061626 -0.21498989 -0.27161434 1.8486761 -1.4785426
1316 -0.053720795 1.0789572 -1.2268965 -0.809199 -0.3676767 0.17061825 0.44169042 -1.100755 -0.6119102 0.26263642 -0.7732215 1.422285 0.21973172 1.4334008 0.8628512 -2.1252606
2817 1.1280785 1.1220815 -0.10479518 2.6979356 2.0485468 0.49057987 1.332966 -0.5499313 -0.6884523 -1.6274017 0.96962535 0.5759616 2.3860066 2.433045 0.41300243 -1.1256676
1000 -0.29358095 0.13604943 -1.4590917 -0.36559784 -0.8139892 -0.068953946 0.3151855 -2.1279271e-05 0.58869994 0.44828415 0.03212701 2.4153476 0.0025776385 1.274726 1.0812557 -1.7587837
1242 -1.1806046 0.64758396 0.9537501 0.5080219 0.39435917 0.27845904 1.284809 0.2628757 0.42808163 0.8332282 0.759242 0.3612207 0.1979262 -0.8062028 3.309065 -1.3013262
3358 -2.6081755 -0.75084984 -1.4813211 0.15075909 0.6345475 -0.46981168 0.8376805 -0.28041258 -1.2587652 0.9020855 -0.43995827 -0.6864862 0.40747586 0.87397546 1.193994 0.22530238
1994 0.8373511 -0.4540187 -0.41821525 0.7591996 0.26976788 -0.7890893 1.7788026 0.7906401 -1.5944633 -1.1928886 0.68431634 -0.43606627 -0.2150329 -1.0982603 0.87860924 -2.2858324
2267 -1.0988679 -0.7156148 -0.11455534 -1.3199457 -0.3473626 0.7824894 0.8578113 -1.5174767 -2.3613548 0.02634561 1.4243126 0.0361425 -0.09305419 -0.44061744 0.6489437 -1.424634
1873 -1.8584344 -0.71778303 -0.36275697 0.25288153 1.2240968 -0.12113461 2.2928226 -0.13231866 1.5390741 -0.7151644 2.311513 0.76095355 1.341239 0.33513665 -0.5377592 0.04388231
2680 0.18569462 1.1263099 -1.1227719 -0.5358748 -0.33420494 0.37697223 0.6137321 -0.86108345 -0.072693124 0.4520234 -0.49665985 1.9349095 0.70390296 1.2975389 0.6724902 -1.8777145
95 -1.8826517 -0.66556513 -0.11729392 0.22900814 1.1730883 -0.081490494 2.372868 -0.09150354 1.4205084 -0.7089221 2.3363283 0.67563576 1.3035027 0.34398988 -0.47282308 0.055221427
2910 -2.1033943 -0.7849368 -0.6300707 0.42661276 1.3290782 0.053559758 1.9911451 -0.25011843 1.3310156 -0.7077922 2.0554583 0.7498615 1.29698 0.25516522 -0.46823353 0.2873307
585 1.1656799 1.1287925 -0.13078631 2.638175 2.099084 0.46981436 1.4147863 -0.46572688 -0.74986225 -1.6361119 0.96248657 0.48575786 2.342819 2.463123 0.49773526 -1.1269077
2468 0.48365408 -2.190979 0.19089375 1.5861844 -0.80930865 -0.45550972 1.8698623 -1.0924536 0.8297027 0.34812602 0.994056 1.4810545 -1.035885 -0.009130214 0.62431884 -1.6032733
44 -1.2100548 -2.122435 -0.2939853 1.6076434 0.62390876 1.3546839 -1.0752493 -1.484816 0.36437488 -0.1697636 0.4683445 1.3855002 -0.13460921 -0.41578513 1.1024113 -1.2411453
3259 -0.07541563 0.74566007 -1.6418574 -0.4864199 -0.4117137 0.19381002 0.41305006 -0.40553823 0.20176825 0.67574066 -0.48410064 2.2752516 0.24507461 1.4976002 0.93380505 -1.8044175
67 -0.9214618 0.4929141 -0.99423933 0.44709125 1.9341798 -1.4088366 0.6229339 1.0220343 -1.3541703 1.3407708 0.76080054 1.8593423 0.92916703 -0.49162605 -1.0850831 -0.39667267
1464 -1.1817323 -1.9619104 -0.31925958 1.4442381 0.5621619 1.2398292 -0.9978656 -1.5507332 0.44792303 -0.17355998 0.58198553 1.6044852 0.015734991 -0.2536554 1.0709314 -1.1679763
1883 -1.9415832 -0.692584 -0.38118508 0.6685646 0.39683324 -0.4694569 2.037852 -0.087160245 -1.0405082 0.6975366 -0.9094273 -0.5193652 0.25223255 0.0486282 0.9315249 0.09812066
1508 0.01712539 0.6138233 -1.095355 -0.27421957 -0.496878 0.3433249 0.3920246 -0.2535526 0.4027774 0.3819619 0.29295743 2.3787944 0.4191266 1.1952075 0.70899856 -1.6395067
2826 0.78897154 -0.36673188 -0.64908415 0.87711984 0.29954717 -1.0057744 1.4043353 0.86475474 -1.4167429 -1.1968987 0.62435824 -0.3399342 -0.28985646 -0.9885443 0.7812513 -2.0613937
1705 -1.860557 -0.8002311 -0.6239668 0.47574142 1.297534 0.3235417 2.1948032 -0.28976056 1.4078889 -0.6101797 2.2160103 0.6814473 1.2268617 -0.040245503 -0.5883381 0.08429243
2530 -0.10404792 -2.0973537 1.5820905 -0.15516746 2.7949333 -0.14960374 -1.2922628 -0.49642837 -0.45484903 0.0862316 -0.6211448 0.8367159 1.7093539 1.9714938 -0.059772633 -2.2168722
1907 -0.7175741 -0.107026264 -1.3554164 -0.24736272 -0.98967636 -0.36483166 0.21618706 0.3339589 0.46999782 0.28451914 -0.07824267 1.9060624 -0.6273425 1.247891 1.1019837 -1.608364
475 -1.1957291 0.122900635 1.2412825 1.5385749 -1.1632411 -1.5211028 -0.038397674 -0.23248033 -0.29871795 -0.4758636 -0.12455355 0.13148338 0.74751204 0.6757947 0.9951503 -1.4219478
820 -0.6757578 -0.052304983 -0.54349774 0.66396105 0.17995939 0.053808935 2.4100862 0.31849158 0.66063577 1.7750087 -0.35107478 -0.037451524 0.7914779 -0.05504322 2.4744515 -1.1892313
1438 -0.026204145 -1.9170341 1.703109 -0.25842723 3.0795865 -0.10584146 -1.1696044 -0.7897353 -0.4637131 0.11189244 -0.6848012 0.9697142 1.6506891 1.8485382 0.05058517 -2.4082983
662 -1.5362673 0.57403284 1.3808974 1.0056539 0.91797435 0.8249948 0.4334047 1.0506533 0.109798715 1.1513362 1.1650107 1.0850245 -0.09045944 -0.36585975 2.2283618 -0.5888235
1536 -0.5240042 0.91704935 0.6450291 1.3875345 1.3779628 0.1458137 -0.48718667 0.24076828 -0.41361868 2.2206235 1.0850779 -0.044216864 -0.8470786 -0.13075726 0.6620473 -0.9014113
1903 -1.8930131 -0.77802503 -0.4790535 0.45528054 1.1934596 0.25361356 2.4297802 -0.19247995 1.4581796 -0.7447223 2.3504937 0.6404601 1.2518352 0.0008675164 -0.6602826 0.021032607
2318 0.50398356 -2.1802423 0.13435787 1.6326791 -0.88395613 -0.5749624 1.8860378 -1.1405104 0.83527654 0.3598455 1.0530875 1.4730756 -1.0383166 0.008943916 0.6673615 -1.6133219
2203 -1.0771278 -2.015447 -0.4707831 1.5186136 0.6295748 1.1988103 -1.2012513 -1.430694 0.4161647 -0.20975478 0.52216697 1.298043 -0.07535766 -0.37659442 0.9837226 -1.2557799
3377 -1.0666231 0.1706767 0.2459614 -0.24984883 2.334072 -0.15916252 1.3563586 -1.3854287 -0.6747731 -0.30347452 -0.40228763 0.92169225 -1.7311099 0.71408707 -0.29621837 -0.9875394
744 -1.1621945 0.7056213 0.9277453 0.5009315 0.43877938 0.36766177 1.2492015 0.28781393 0.4970765 0.90420914 0.88782376 0.34295863 0.24970545 -0.8060053 3.2444422 -1.34018
2641 -1.0592909 -2.0210361 -0.31533414 1.4566573 0.5574748 1.2782807 -1.1178339 -1.3212099 0.33340645 -0.28091335 0.54057944 1.2767427 -0.08602024 -0.3733881 0.96834236 -1.2371645
2390 -0.37221906 -1.7555383 -0.0007468241 0.9878737 0.4631705 1.5617751 1.1249856 1.789755 -0.3711863 1.4602801 -0.71536934 0.36871612 -0.022820292 1.6885089 -0.82370824 -1.6541225
2096 1.1397703 1.13106 -0.20453353 2.6408737 2.0666223 0.56163955 1.3947084 -0.7941671 -0.97976 -1.8155001 1.2582597 0.5141496 2.2609441 2.4418654 0.4905428 -1.0950775
3341 -1.134125 -1.5115623 -0.79660666 1.3364849 0.47826618 0.787238 -1.3854983 -1.3175142 0.40129152 -0.4744767 0.71277326 0.8867972 -0.09270071 -0.19107254 0.84727174 -1.2417485
2368 -1.3535391 0.0364795 1.3910898 2.0572705 -1.0064459 -1.1320643 0.47586247 -0.78512627 -0.638268 0.5276799 -0.61147344 1.1831695 1.7264377 0.18464655 -0.27987212 -1.03384
3498 0.553768 -0.48017627 -0.5675444 0.6180772 0.31525028 -1.1478114 1.635831 0.6211774 -1.6495907 -0.9615988 0.7930489 0.23953083 -0.25520855 -0.8133638 0.53160584 -1.4103388
1958 1.0917907 1.1217452 -0.14182827 2.6017575 2.1069195 0.5497595 1.3843594 -0.5061393 -0.68880635 -1.6391363 0.9617068 0.4991853 2.36199 2.4590456 0.49160925 -1.102062
3325 -1.0034691 0.3037377 -0.8744494 0.3843454 1.7829385 -1.4928682 0.61778814 0.96428883 -1.4505078 1.1993272 0.49821144 1.8589768 0.7190991 -0.53157336 -1.0641363 -0.2966653
1589 0.1714239 -1.641996 0.3795688 1.254315 -0.3274911 -1.5530366 1.1240195 -1.1003227 0.3980776 0.7364457 0.81637084 1.66757 -0.432 0.21603134 0.4407031 -0.82309204
2277 -0.83694977 1.0104669 -1.6269653 1.5485619 0.48227215 0.95342267 0.99127203 -0.48382998 -0.2653575 0.26875737 -0.9508669 1.1048797 -0.70797235 -0.118010424 -0.2038224 -1.4479982
2904 -2.1499732 -0.9507819 -0.45356756 0.65452385 1.2525442 0.7188668 2.5912318 -0.25636747 1.3747952 -0.6991835 2.4242995 0.5590753 1.1296587 -0.17296264 -0.7948539 0.06179912
567 -1.024455 0.11237403 1.0606582 1.5273739 -1.0773412 -1.7466303 -0.21517885 -0.25579715 -0.29904744 -0.2892368 -0.04428456 0.09069696 0.6946845 0.75980514 1.0460073 -1.364141
1485 -0.9850592 0.24723284 -1.4501803 0.71238554 1.3874018 -0.5877298 -0.29355425 -1.2207235 0.14048535 1.1009147 -0.6596811 -1.3510079 0.6654608 -0.22661124 1.1915159 -1.4856973
1451 -1.692595 0.15495323 1.9291884 2.0155802 -1.2105303 -0.61166674 0.7412026 -0.5136109 -0.93300843 -0.068146326 -0.82153493 1.1225151 2.0464911 0.14731674 0.2943776 -1.2832817
621 -1.0362188 0.2828646 0.41180298 -0.17050157 2.286405 -0.07481209 1.570908 -1.6226841 -0.32959613 -0.30099028 -0.47679442 0.82936 -1.6092037 0.7501334 -0.28305104 -1.0482922
724 -0.08282005 0.80506104 -1.2452431 -0.36235455 -0.5834794 0.32634032 0.43746203 -0.23471166 0.29946247 0.4604528 0.20676208 2.4348347 0.46275592 1.3459058 0.70789385 -1.6688386
2447 0.5205832 -0.30327728 -0.95624423 0.88575745 0.41655558 -1.4722583 1.410949 0.8910018 -1.6857903 -1.1274216 0.8099455 0.3179691 -0.45475587 -0.86686933 0.7561314 -1.5818275
2265 -0.30674788 -0.27280065 0.671948 0.1359684 0.4196011 1.2606103 0.7108163 -0.68568856 -2.5270183 -0.059509113 1.1441244 0.3786574 1.0609095 -0.2679979 -0.5064243 -1.4528091
1192 -2.1285996 -0.70878446 -0.5125485 0.69169974 0.4470307 -0.6583986 2.163299 -0.19354129 -1.0675678 0.758786 -0.9579064 -0.42243898 0.22495513 0.13536713 0.90439105 0.20122878
1656 -0.5758849 -1.6495739 -1.3038086 1.6917408 0.3733674 -0.50254273 -0.99637526 -3.1141007 -1.1919363 -0.53276646 0.96579564 0.45180127 -0.20675483 0.62260485 0.033355474 -1.1724546
1922 -0.14829464 1.012727 -1.3223163 -0.25358936 -0.4513517 0.31926852 0.4488913 -0.33859667 0.22854836 0.4476154 0.03126113 2.532941 0.5737834 1.2828511 0.54687214 -1.7032502
3173 -1.2614142 1.3145474 -1.7388704 1.5758319 0.6680931 1.2777506 0.8266441 -0.38775647 -0.41782796 0.19456635 -1.1052823 0.91786546 0.21485047 -0.14919627 -0.34176293 -1.5220093
3278 -2.0078094 -0.7899695 -0.21914636 0.26107973 1.2342134 -0.0594449 2.216914 -0.12872557 1.3902603 -0.74424684 2.2514405 0.67538357 1.2295884 0.39092413 -0.4997534 0.19198352
2355 0.5785736 -0.269968 -0.98759353 0.86665624 0.5179083 -1.4937524 1.1603206 0.8223799 -1.5134355 -1.0825422 0.7260726 0.35352582 -0.36485633 -0.6932759 0.6509576 -1.4614662
844 -1.432589 0.057158854 1.205741 2.2164338 -0.7122353 -1.2563306 0.32587603 -0.95547676 -0.579605 0.77695966 -0.41792744 1.1447636 1.4877703 0.20358793 -0.6140113 -0.8643882
3181 -0.39207223 -0.40713376 0.70697147 0.051147684 0.4094163 1.135767 0.7026162 -0.6955181 -2.5306838 -0.114402995 1.1004976 0.34368816 0.9763567 -0.27026165 -0.46807152 -1.4058692
2408 -0.034812275 0.830891 -1.5708768 -0.43523464 -0.45553806 0.27514657 0.5183061 -0.49712434 0.2701113 0.65171367 -0.34708 2.4363356 0.442203 1.4835927 0.8451046 -1.8623669
1527 -0.97977984 0.052431922 -1.2374563 0.5500281 1.2900928 -0.6707297 -0.17002772 -1.0009229 0.16640957 1.0916586 -0.7787863 -1.3309067 0.54825985 -0.23327775 1.158365 -1.4219146
3215 -1.5081948 1.2591707 -1.788299 1.6271524 0.6632172 1.2267064 0.7041254 -0.3940349 -0.37956664 0.23111036 -1.0993252 0.9947045 0.5777201 -0.016767211 -0.48146933 -1.4076381
563 -0.9406552 0.31468838 -1.0054108 0.48430842 2.0225122 -1.5339423 0.68957245 1.111598 -1.306009 1.3256378 0.520193 1.877991 0.8071926 -0.40321094 -1.0840894 -0.40461162
721 0.680547 -0.34090647 -0.94148856 0.9128028 0.29316172 -1.269759 1.1504285 1.0658501 -1.4018815 -1.2675083 0.62580013 -0.1703261 -0.26254284 -0.8781853 0.7942038 -1.9872568
1307 -1.5036408 0.9723414 0.14144728 1.3122287 0.26572657 0.7327047 0.3445847 -0.005385103 -0.96953905 -1.2269336 0.8850298 -0.32545328 -1.1440878 1.413588 0.1421808 -0.78817993
2075 -1.9586133 1.0356612 0.44785148 -1.2360061 1.6689056 -1.2389592 -0.028770722 -0.37704638 1.2039016 -1.5586873 -0.4994558 0.20473793 0.42625737 -1.1750009 -0.7225181 -3.3647847
3262 -0.93975085 0.43899503 -1.0663142 0.47094595 1.9986008 -1.4215584 0.6661458 1.0309342 -1.2888641 1.308313 0.65040576 1.8582908 0.83384544 -0.45849845 -1.0965959 -0.4141059
1940 -0.467773 0.50586367 0.77279925 -0.3077493 1.7587686 -0.75143415 2.3554618 -1.2454419 0.063040115 -0.18721871 -0.5441396 -0.15487559 -0.90699196 1.7602615 -0.347351 -1.229816
294 -2.1324315 -0.75801665 -0.06638895 0.39487857 1.1779253 0.27350274 2.5531957 -0.18370996 1.4109564 -0.8179943 2.4707413 0.59687227 1.0578529 0.2969283 -0.7329333 0.09694998
198 0.06416291 1.0024983 0.09861289 -0.4169381 1.0383142 -0.52292085 0.1387676 -0.8067993 -0.27415434 2.1509988 1.3783722 -0.6590725 0.14114267 1.1864009 0.63044524 -1.4401602
1733 -0.80194795 -0.20366473 -0.6290745 0.5910765 0.1968232 -0.07613574 2.3713872 0.36607572 0.52914524 1.8269031 -0.3963744 -0.061293826 0.6929331 -0.101019226 2.4469497 -1.0740634
3367 -0.37031093 -1.4121178 -0.14257607 0.8765056 0.28507087 1.3486286 0.9866048 1.5915431 -0.39881587 1.3348626 -0.5697036 0.15932299 -0.1448546 1.4852847 -1.1174642 -1.5492208
1678 -1.0387073 0.17168367 -1.5417048 0.77555025 1.4076209 -0.59786844 -0.39315197 -1.0024009 0.07364582 0.9291079 -0.59567773 -1.355919 0.6414201 -0.1709988 1.2835488 -1.3613248
1910 -0.79838544 0.40165097 -0.88997966 0.34088644 1.9077117 -1.3995306 0.77382827 1.0200269 -1.3781954 1.1843066 0.6638147 1.8165852 0.76601046 -0.47907653 -1.1591016 -0.40581155
1942 0.051385842 -0.06397738 0.4732324 -0.38210192 1.1286396 -1.2348447 1.7204123 -0.8881565 -0.2845474 -0.16864388 0.014156585 0.013471443 -0.8162287 2.147225 -0.14740837 -0.9473346
3484 0.10371503 0.14599477 -0.23657168 0.17190619 0.4769754 0.06987081 0.9326903 0.05230735 -2.2038465 0.40834135 1.1229783 0.9733165 0.8463725 -0.483559 -0.74033475 -0.9806656
1720 -1.4190522 -0.27122363 -0.40427387 -0.33014315 -1.0560738 0.15410717 0.21361737 0.37523988 0.8873398 0.9867749 1.1463463 -0.3607172 1.5664532 1.0144292 -0.8650146 -2.0055037
393 0.001337605 1.0476457 -1.4237188 -0.34243017 -0.34229535 0.4573689 0.61091053 -0.6334596 0.13830326 0.5102673 -0.26115403 2.3745136 0.538465 1.3367639 0.68611634 -1.8243877
3448 -2.2592573 -0.8789677 -0.7174591 0.65449405 1.2780386 0.67302155 2.1796923 -0.3566003 1.249988 -0.738236 1.9811695 0.66640836 1.0982159 0.0138285635 -0.45927805 0.2513519
1246 -0.77384925 -0.6993622 -0.021004599 0.2617924 -0.73456186 0.7066199 0.4969403 1.0078532 -0.026376106 1.1438953 0.20646504 -0.24263796 -0.37743148 1.2667753 -0.8921368 -1.621035
2109 -0.8437053 -0.24141943 -0.21147202 -0.25172615 -0.90529704 0.31536996 0.30419493 0.26991877 0.87922865 0.91755676 1.2117748 -0.65263957 1.2347817 0.85547537 -0.5901224 -2.1451852
1962 -0.692156 -0.13432615 -0.33999258 -0.071855426 1.7241082 -1.4485706 0.8720021 0.5794739 -1.7231389 0.7558644 0.2656579 1.678305 0.05843032 -0.5759286 -0.93954235 -0.48229703
2690 -0.21233383 -0.9794265 -0.41002655 0.75496304 -0.13165979 0.80278003 0.3296649 1.4692338 -0.03100684 0.9912143 -0.04590481 -0.101481475 -0.55592495 1.0352209 -1.0473651 -1.6236861
1258 -1.7931656 0.18888241 0.08160649 1.0134963 -0.25069356 -0.31832036 -0.5654417 0.6967731 -1.1716369 -1.0776665 1.0030295 0.33701167 -0.6888384 1.5661112 0.21288878 -0.6289428
432 -0.06374358 0.8155253 -1.485762 -0.39970475 -0.3965164 0.3096562 0.4884305 -0.47386768 0.27769476 0.5985184 -0.2833253 2.3463976 0.38547677 1.3664541 0.83390725 -1.7664336
514 -0.29840794 -0.33830217 0.6280366 0.003967754 0.3505826 1.107259 0.75970274 -0.6063567 -2.5295913 -0.08821547 1.0591699 0.4365215 0.93285036 -0.28775615 -0.52960783 -1.4281967
2215 -1.2115791 -0.35043353 0.71569294 2.333003 -0.5149754 -2.2406719 -0.123105794 -1.2240415 -0.14045273 0.6735672 -0.17222026 0.7715741 0.55363554 0.7903306 -0.52502275 -0.97529095
3065 0.15604135 -1.6116471 0.34594822 1.2044272 -0.34915107 -1.568237 1.0830705 -1.1276096 0.36702174 0.74494493 0.93243986 1.7566903 -0.36378577 0.2093246 0.44745383 -0.80716705
388 1.0938154 1.0447825 -0.2518758 2.590971 2.0070996 0.5091884 1.3629359 -0.48844516 -0.7779336 -1.8511081 1.0067538 0.5425798 2.1541293 2.3571484 0.4727599 -1.0537679
1463 -1.0741711 0.18737745 -0.9154649 0.4365325 1.9403043 -1.6403695 0.61136067 1.0490776 -1.4143312 1.3179758 0.34110028 1.8796585 0.74948055 -0.608379 -1.0576811 -0.39378852
2244 -2.412179 -0.5261426 -1.7604772 0.08792567 0.69906247 -0.52408916 0.42560002 -0.15158841 -1.0419978 0.8336681 -0.25559238 -0.8900981 0.4324904 0.9007315 1.297976 0.026484465
2736 0.0124211535 -1.9731753 1.7348642 -0.19101733 3.008864 -0.117271625 -1.1315709 -0.71182305 -0.5045943 0.106675245 -0.6162867 0.9395411 1.5224041 1.8357224 0.10264006 -2.3006685
478 -0.550362 -1.752967 -1.3339024 1.631387 0.37249783 -0.39998287 -0.9662316 -3.239704 -1.2331984 -0.46867412 1.0112913 0.5181107 -0.1724483 0.646521 0.0047919177 -1.1908245
434 0.64844453 -0.062081188 -1.2411733 1.0999062 0.32955065 -1.3147779 0.40104097 1.0991293 -1.1250427 -1.2621994 0.78545856 -0.20990159 -0.07989912 -0.8506377 0.578538 -2.444044
2772 -1.5146372 0.5192729 1.3584979 1.060073 0.97244614 0.83395374 0.474354 1.0196162 0.07121888 1.199858 1.1631894 1.1895953 -0.12235321 -0.3251597 2.1730442 -0.56873006
690 0.060383998 -0.013478863 -0.025970194 0.008329855 1.4789935 -0.51153046 -0.100581184 0.21079594 -0.46605232 1.4996417 0.62962985 -0.77336156 -0.33941752 -0.3123197 0.836767 -1.4528872
2844 -2.6252882 0.7312687 0.16271101 -1.3725396 1.6123861 -1.2123685 -0.33479747 -0.31115943 1.1996641 -1.5696249 -0.40978473 0.22380705 0.2647887 -1.4020808 -0.9437667 -3.3084161
2419 -2.0970035 -0.39036828 -2.0806346 0.44381914 0.71097445 -0.40138638 0.09095109 -0.2772695 -0.92589474 0.7347252 0.008334714 -1.2585748 0.46638912 0.8130819 1.1783547 -0.21158266
2971 -1.2146057 1.2011205 -1.6197691 1.4078537 0.537215 1.0387373 0.77012354 -0.42218843 -0.4106992 0.2569369 -1.016785 1.1640592 0.09214654 -0.1147742 -0.28763455 -1.2830782
771 -1.6702747 0.60210645 -1.105269 0.54057515 -0.94849676 -0.35450915 -0.12590072 0.85421664 -0.4212339 -0.4760079 0.9865059 1.6235434 -1.1340927 1.1136452 -0.21325824 -1.2343845
183 -2.2323627 -0.83178395 -0.6808093 0.53627914 1.4292175 0.29186448 1.9403855 -0.30258858 1.3016646 -0.7170785 1.9427214 0.7964462 1.2158084 0.25417492 -0.37711692 0.36641628
1364 0.6097384 -0.41273582 -0.4636458 0.66174823 0.18936358 -0.9515258 1.610446 0.65111834 -1.5684339 -1.0806272 0.6734005 -0.04296341 -0.26109982 -0.8600077 0.6772641 -1.6747602
895 0.028056562 0.08083693 -0.11055811 -0.06411091 1.4046651 -0.373633 -0.15385064 0.18228832 -0.4796507 1.3929837 0.63573605 -0.848285 -0.2939623 -0.30191007 0.7845429 -1.4968343
3267 -0.5337127 -0.32466313 -1.0266485 -0.05880469 -0.8590424 -0.35294053 0.28620446 0.28477487 0.54508424 0.1796431 0.18571417 1.6370071 -0.6415534 0.9621997 0.938714 -1.2956539
284 -1.8332052 0.3903569 0.18459113 1.1227316 -0.026538068 -0.123489976 -0.3313375 0.69417065 -1.3481787 -1.0667907 1.0253819 0.2239405 -0.7567714 1.6621195 0.17140885 -0.51757234
2988 0.5646464 -0.28354168 -0.9546907 0.80126673 0.49123424 -1.5208554 1.3014723 0.8323705 -1.6128654 -1.0953581 0.8559654 0.3908367 -0.3898316 -0.7417611 0.6928409 -1.4687922
793 -1.8279946 0.2577085 0.3376138 1.0740501 -0.07404824 -0.4040358 -0.55152047 0.7793839 -1.2268393 -1.143869 0.7360772 0.11804507 -0.47118106 1.6253548 0.39183494 -0.6206188
1544 -0.03487415 -2.0559444 1.6483904 -0.10582989 2.6692352 -0.24850546 -1.2225487 -0.51678526 -0.55494547 0.039048754 -0.48592007 0.90211684 1.7358854 1.884288 0.00128416 -2.1462991
706 -0.21698947 -0.3158869 0.3315302 -0.02440712 0.18928188 0.9018026 0.9772289 -0.3985549 -2.3827846 -0.0806192 0.78180856 0.3069307 0.871724 -0.40931925 -0.5080558 -1.3188347
2278 -0.3975494 -0.2558137 0.6057666 0.08851297 0.3681535 1.362991 0.7651276 -0.7765811 -2.4053752 -0.12032572 1.1847976 0.2459647 1.0743675 -0.26250806 -0.41115746 -1.5149353
647 -2.0693922 0.9055841 0.2612774 -1.2647493 1.7102536 -1.1648558 -0.07106267 -0.18059713 1.2555872 -1.6177548 -0.57370484 0.22860485 0.5030536 -1.2035975 -0.7606377 -3.3358767
762 0.48542768 -0.71652645 -0.08712538 -0.34880045 0.74961466 -1.7010478 1.5706201 -0.76352745 -0.2960435 -0.4300689 0.5151783 0.021825738 -1.2264293 2.5299015 0.08709201 -1.5327009
1492 -1.0314807 -2.5070515 -0.27422026 1.8707948 0.75706995 1.4372324 -1.0093063 -1.4748331 0.047902994 -0.15523751 0.223666 0.8585557 -0.111334965 -0.50856 0.8732277 -1.3109072
1939 -0.53017956 -1.0295674 -0.22560267 0.5783143 -0.114591636 0.99524957 0.63554317 1.3243163 -0.249966 1.1030291 -0.32049674 -0.13922302 -0.3121232 1.2434149 -1.1509256 -1.4527881
1938 0.7239456 -0.13549283 -1.2067853 1.0933031 0.3322834 -1.1395502 0.52631974 1.1820691 -1.1072385 -1.2465795 0.6800906 -0.3445813 0.106871605 -0.9645792 0.656008 -2.4374347
2622 -1.7921201 0.105475284 0.04702626 0.9033319 -0.2367943 -0.45235208 -0.58744794 0.6918637 -1.1231999 -1.08022 0.9821683 0.3556166 -0.7248683 1.5705743 0.20645837 -0.6466628
438 0.8539654 -0.44142243 -0.3692873 0.7597286 0.20567432 -0.7235091 1.7317301 0.66863966 -1.4763136 -1.1891944 0.7266851 -0.47577733 -0.15159898 -1.0756142 0.8386955 -2.261463
2859 -2.4993484 -0.8917456 -0.70860106 0.5506716 0.43330458 -0.60542846 1.7226119 -0.33303568 -1.3782629 0.67017615 -0.87212247 -0.39734128 0.12523565 0.33767354 0.8015662 0.3899313
138 -0.24111848 -1.3758243 0.17245492 0.6073365 0.5945204 1.369267 1.9131163 1.2644356 0.28499722 0.70581543 -0.4541872 -0.8059998 0.26037863 0.92671865 -0.8356031 -2.0709858
891 -0.017774511 -1.2329953 -0.9145167 1.0352976 0.3680693 0.7308721 -0.34772816 1.9962457 0.28571966 0.81152827 0.36241582 0.3264051 -1.0100576 1.0385295 -1.1381272 -2.5081394
3031 -0.22339596 0.28902993 0.6335102 -0.29416987 1.5681335 -0.9855389 2.1454203 -1.0723407 -0.01915642 -0.048443362 -0.46780947 -0.16880609 -0.84557533 1.8361944 -0.22301665 -1.0564657
1425 -0.27316603 1.2453475 1.4818264 1.7309029 1.4823154 0.3155063 0.24621506 -0.14990655 0.13586834 1.979289 0.6824401 -0.16615625 -0.20974697 0.26588324 0.57017535 -1.0678498
490 -0.21443056 -0.65865636 -0.16025968 0.10012544 1.4772607 -0.8388537 -0.012691374 0.6258959 -0.113655746 1.3748093 0.26979342 -0.5709713 -0.20567727 -0.27886263 1.2334117 -1.2613345
1573 -1.0685409 0.17880496 0.26873976 -0.18671392 2.303191 -0.07421593 1.4434739 -1.5504934 -0.45646244 -0.26930627 -0.4964581 0.8750921 -1.6349194 0.6254617 -0.28018653 -1.0078309
1847 -1.635538 0.12114492 1.417368 2.3300214 -0.9451575 -1.1323223 0.5814208 -0.8529196 -0.8272385 0.7443414 -0.5911369 1.4012923 1.9626362 0.04097712 -0.5875547 -0.98676056
1103 -0.09259011 -1.2691242 0.07168892 0.6147236 0.49085614 1.3733096 1.8655322 1.2957423 0.23594509 0.81741595 -0.35777926 -0.8777749 0.18790898 0.9326254 -0.95223033 -2.2823334
2302 -2.0715187 -0.28584495 -2.1750321 0.62595564 0.9214154 -0.3321387 -0.00084206683 -0.3115554 -0.90216744 0.6680299 0.08618614 -1.5130584 0.503997 0.81905407 1.1046877 -0.35649198
916 -0.62733036 0.009965809 -0.5128505 0.7506374 0.18427086 0.22093317 2.5316594 0.27536392 0.7352366 1.8451899 -0.34778345 0.011706566 0.78964007 -0.08050843 2.5524068 -1.3030932
315 -0.15177284 0.515584 -0.50902164 0.06068347 1.2089212 -0.80120236 0.94598424 0.474953 -1.9470166 0.99712425 1.2786903 1.6959125 0.7701483 -0.5336531 -1.0141921 -0.6976604
922 -1.4600209 1.0139717 0.014681905 1.3460982 0.25033596 0.7924984 0.38269818 0.0018160496 -0.8517204 -1.1976968 0.86754787 -0.30212456 -1.2299323 1.3585685 0.14216465 -0.81278837
3319 -0.018800002 1.218625 0.1570133 -0.35095635 0.7308713 -0.47426233 -0.16206363 -0.7286194 -0.46648964 1.9807874 1.90695 -0.30516928 -0.08699561 1.2628232 0.7165207 -1.3871583
3213 -0.2123116 -0.26436272 0.48884857 0.10365159 0.4391916 0.9390074 0.7434185 -0.4619752 -2.5319755 0.025858395 1.0886629 0.5489308 0.9533962 -0.35459173 -0.608774 -1.3864027
1180 -0.26385856 -0.69546443 -0.23823127 0.12027714 1.5315813 -0.8400416 0.03894953 0.59320414 -0.09728689 1.4340314 0.21904266 -0.60070145 -0.16133249 -0.24891411 1.2091465 -1.2906905
639 -2.30508 -0.8200589 -0.7499026 0.4937691 1.3801922 0.36056674 2.0265613 -0.31034902 1.289003 -0.7438638 2.022734 0.8253667 1.114183 0.20037116 -0.4767033 0.32801634
701 -0.6783039 -0.7361112 -0.0025039753 0.3496221 -0.6132953 0.7806938 0.60216707 1.0041606 -0.1260702 1.1571084 0.13442825 -0.27692705 -0.4839084 1.2856277 -1.0081483 -1.5619694
1228 0.58547044 -0.4892648 -0.25359234 0.5815975 0.13692158 -0.6236418 1.8108395 0.61494696 -1.693312 -1.0109618 0.6699239 -0.1728721 -0.19014587 -0.91925174 0.54539984 -1.8104059
2566 0.5331302 -0.35166398 -0.109410815 0.51313365 0.085393235 -0.3782721 1.7107047 0.5145472 -1.6659633 -0.93367076 0.64356 -0.1544703 0.012263308 -0.87867314 0.44479454 -1.6910009
2729 -1.9889215 -0.76856107 -0.2098094 0.3656856 1.2039862 0.09625523 2.5282824 -0.17648551 1.4351473 -0.7495258 2.4338236 0.67051727 1.2373221 0.25459352 -0.7249205 0.0675138
696 -0.60038984 0.78647393 0.42242447 1.1047246 1.2195812 -0.1427359 -0.6259708 0.1341139 -0.47867727 2.2984147 1.4674563 -0.041620694 -1.1375651 -0.061367404 0.545667 -1.0029324
1921 -0.6789539 -0.7238908 -0.051950805 0.2948279 -0.78001624 0.80540234 0.49410892 1.0617769 -0.03834297 1.1940968 0.2601812 -0.23990835 -0.4596603 1.2908162 -0.85180825 -1.7322463
2594 0.4371593 -2.167028 0.062588036 1.5982599 -0.81401175 -0.6805198 1.9095799 -1.1090577 0.84960365 0.39875966 0.90473163 1.5323952 -1.0542661 0.014738662 0.6744806 -1.4716406
2474 -1.2644794 1.2402464 -1.6448439 1.5919632 0.60381377 1.2595749 0.8517429 -0.38243076 -0.4534986 0.21053672 -1.1537431 0.9317298 0.18798795 -0.17539127 -0.37369293 -1.4825789
1274 0.63275975 -0.48346227 -0.6950023 0.7127037 0.2971724 -1.1967915 1.6240557 0.8828194 -1.6192526 -0.8878866 0.89548993 0.074752174 -0.291339 -0.9702338 0.77764434 -1.5769174
1414 -0.82303154 1.15544 -1.6014956 1.7051953 0.49844807 1.120381 1.0044309 -0.49271977 -0.106689274 0.16780569 -0.8255539 0.8977353 -0.40261057 -0.17033876 -0.35133305 -1.5369186
1728 -0.7975497 -0.39989874 0.6674902 1.9391266 -0.51610607 -2.1374087 -0.3312285 -0.9402542 -0.12534964 0.3777632 -0.07607207 0.6375566 0.25384697 0.74329597 -0.1419326 -0.91864884
415 -0.9299026 -0.05487168 -1.1932693 0.43847933 1.058278 -0.8549769 0.057113115 -0.98476964 0.2891295 1.242839 -0.6622747 -1.2342608 0.62378937 -0.27674103 1.0453471 -1.3442662
1026 -2.500987 -0.9922857 -0.7321436 0.5979189 0.46639544 -0.6732649 1.7993134 -0.36935103 -1.4820024 0.68314666 -0.89059824 -0.36059374 0.10188204 0.39625886 0.7653276 0.38559148
1748 -0.73008215 1.0917722 -1.6393273 1.8102119 0.48938826 1.055106 0.9695122 -0.5217269 -0.03634972 0.10518051 -0.7393501 0.9733474 -0.7270003 -0.014059351 -0.24747486 -1.5646033
1366 -1.5219129 -0.16174938 -0.42999047 -0.3205217 -0.9732132 0.20357114 0.22210835 0.41101608 0.8743379 0.90198195 1.1000836 -0.3511934 1.6792732 0.9458303 -0.94283766 -2.0360627
1935 0.69077146 -0.13344975 -1.2476956 1.1188744 0.40952277 -1.3303007 0.46588314 1.1890825 -1.2187686 -1.2276396 0.68771887 -0.29432094 -0.020638298 -0.8551514 0.6487811 -2.3329186
3365 0.0019215094 -0.08127077 0.40502393 -0.39497617 1.0657845 -1.2659906 1.5596108 -0.8116525 -0.33377853 -0.1743163 0.048907537 0.16556811 -0.8993736 2.17216 -0.10467989 -0.89327306
2717 -0.48163033 -0.62396896 -0.37660873 0.15297581 1.5142549 -0.6141631 -0.1445023 0.620244 -0.03203258 1.1252078 -0.09961433 -0.724348 -0.26550415 -0.17837699 1.2784481 -1.315325
1106 -0.80331427 0.05972088 0.014899317 -0.18273975 1.9207301 -0.47827944 1.050717 -0.835524 -0.79017735 -0.3382968 -0.2712482 0.714652 -1.5725825 0.5807218 -0.17667557 -0.7397955
349 -0.9637479 0.08980463 -1.4250332 0.6921469 1.3840351 -0.5445939 -0.35133284 -0.9320829 0.029225616 0.97992545 -0.58365417 -1.3810061 0.57636505 -0.22860353 1.2309557 -1.390296
1561 -1.1762203 0.14333187 1.2745479 1.4773958 -1.1441112 -1.4045001 -0.016963657 -0.05589087 -0.31768426 -0.5795212 -0.1736622 0.17869993 0.8072227 0.6537149 1.0655365 -1.4455464
978 -0.8696628 -0.116840266 -1.1680311 0.2439598 -0.7904375 -0.52798754 0.3345709 0.20459731 0.49567983 0.03740323 0.13156743 1.1580957 -1.1706625 0.8194095 0.7729717 -1.2097576
425 -0.7578207 0.11625513 0.2837186 -0.27433884 2.0936756 -0.36231184 1.4305098 -1.2023066 -0.45420772 -0.26599842 -0.36695468 0.83999336 -1.5084924 0.84431446 -0.26917946 -0.88917595
3 -2.6358624 -0.76526123 -1.3799465 0.10437899 0.5720711 -0.47036067 0.89081866 -0.2661068 -1.2201388 0.84486526 -0.4833258 -0.6418381 0.333251 0.8328455 1.1244926 0.21182641
2345 0.3969101 -0.51301223 -0.008144438 -0.5403043 0.84324044 -1.6921955 1.6506253 -0.84721196 -0.236909 -0.25537154 0.55441904 0.089311786 -1.2263198 2.7379963 0.0142630795 -1.5148748
3505 -0.1443809 -1.210068 -0.09940218 0.64216465 0.2914297 1.1963432 1.5581005 1.2314959 0.28749922 0.8339835 -0.30657795 -0.8461454 0.21670821 0.84961635 -1.0061612 -2.1380186
462 0.06479083 1.27478 -1.0965899 -0.8567347 -0.3520953 0.21357869 0.538619 -1.3838187 -0.7641764 0.23700407 -0.6648577 1.3226899 0.43962675 1.3987349 0.9075726 -2.196
3282 -1.4496062 1.3316755 -1.8083273 1.556269 0.6484576 1.1592879 0.6772125 -0.37178302 -0.41784942 0.25126362 -1.015973 1.0078403 0.57307446 -0.0039383676 -0.4633693 -1.3460237
2631 -0.99156964 -0.86359125 0.33789042 -0.44743076 1.8932247 0.6304582 -0.15879366 1.490643 -0.2966686 0.22417527 -0.5542785 1.2012982 -0.34416682 -0.16632164 2.1756063 -1.7346852
1850 -2.1145453 -0.2836084 -2.2952752 0.6266278 0.93549377 -0.28918082 -0.012590527 -0.3411001 -0.9441327 0.7399312 0.08928399 -1.4090784 0.4871514 0.82741845 1.0840453 -0.30326486
1951 -0.6696947 -0.017937222 -0.6027558 0.7761605 0.25872362 0.18546283 2.6962228 0.26914877 0.7035406 1.9501573 -0.45053467 0.0001414375 0.7684488 0.001700035 2.567724 -1.3396219
376 -1.1437057 -2.0451884 -0.3142317 1.4387609 0.71212804 1.2231063 -1.1150615 -1.4359853 0.44644204 -0.18095075 0.50007993 1.318005 -0.06133507 -0.37140256 1.0743337 -1.2299554
1014 -0.5994923 -0.01434972 -0.5202821 0.7379839 0.20198616 0.23617418 2.5446517 0.24953271 0.708396 1.8013705 -0.2960909 0.025931545 0.7524108 -0.18125495 2.5513048 -1.3252754
2199 -1.4213426 0.93866634 0.045894172 1.3269964 0.29939625 0.7977806 0.4122057 -0.06649562 -0.87154466 -1.1972313 0.8748355 -0.3083032 -1.1426977 1.2754434 0.15428291 -0.7752317
1273 -1.020614 -0.15803114 -1.4096919 0.61936647 1.3512064 -0.62172914 -0.3172348 -0.5396363 0.050033886 0.9115117 -0.7875715 -1.2648804 0.3736861 -0.14310624 1.1753458 -1.2635943
3005 -0.14138924 0.34121692 -1.4323277 -0.45652416 -0.7111585 0.030989785 0.37336218 -0.16644868 0.52271307 0.59817547 0.011966125 2.5229456 0.20133258 1.3473024 1.0965168 -1.8206956
3323 -1.9774051 0.9535204 0.21000566 1.1758537 0.04147307 0.40745288 -0.2642944 0.42344248 -1.1124122 -1.1549106 0.5247401 -0.46286675 -1.1042349 1.844463 0.5863115 -0.9855608
395 -0.30932254 1.3343984 1.5721658 1.7380764 1.5396211 0.31968346 0.24097973 -0.19569676 0.19655405 2.0484405 0.7207882 -0.22285333 -0.26108083 0.26217672 0.6180664 -1.1465937
3514 -1.855083 1.0428319 0.061092127 1.1873093 0.16220838 0.5487357 -0.047858387 0.25232834 -1.0913934 -1.0962921 0.5113813 -0.46596956 -1.2142783 1.6848617 0.49144128 -0.91295403
3413 -0.53443825 -1.8280321 -1.3269335 1.6388669 0.2997279 -0.4215294 -0.96168786 -3.272903 -1.3419416 -0.44667855 1.0395474 0.4962167 -0.2659607 0.754748 -0.023831788 -1.2445127
1866 -0.6192477 -0.46011445 0.84650373 -0.038602836 0.30385652 1.3452966 0.6253131 -0.8924271 -2.5234296 -0.14872277 1.1734275 0.16679679 1.050001 -0.22076514 -0.24478893 -1.4443731
2386 -0.69414306 -0.77074313 -0.14178798 0.5030308 -0.6377278 0.86491483 0.47534847 1.3014282 -0.12239747 1.1056015 0.028093873 -0.17499201 -0.52995646 1.3437302 -0.95882183 -1.6780708
2753 -1.9601798 0.44266504 0.2876702 0.93803304 -0.071726434 -0.17248228 -0.5201831 0.6965825 -1.1274477 -1.1571835 0.72795844 0.06227479 -0.6444533 1.7510425 0.38168097 -0.6612013
1210 -0.7132804 1.1389648 -1.5901526 1.7947444 0.44594243 1.0313423 0.96066445 -0.47031462 0.06347007 0.046065312 -0.65380424 0.7983833 -0.5016249 0.0453446 -0.26931632 -1.516419
1098 -0.5011259 0.15603645 -0.20835261 0.5472198 0.09143829 0.3092933 2.2874854 0.12704045 0.75015664 1.4343176 -0.07390704 0.051040217 0.6585665 -0.29693455 2.6590075 -1.3392063
3443 -1.3693275 0.7694882 1.3196388 0.63090616 0.4995576 0.49984246 0.93998057 0.518973 0.42126298 0.8003937 1.1284137 0.6447724 0.14719333 -0.6976046 3.249 -1.292696
992 -0.6579677 -0.09742254 -1.3258783 -0.31283996 -1.0347879 -0.3666865 0.23652403 0.30855966 0.48919937 0.30969793 -0.032538805 2.1151543 -0.4393005 1.2884902 1.0384332 -1.6738551
2821 -0.5235138 -0.0113424575 -0.4919413 0.745401 0.20165439 0.37265787 2.5544765 0.2847206 0.7602475 1.7952131 -0.33310542 -0.017525198 0.7040751 -0.1311886 2.5906613 -1.4556347
3379 0.8857032 -0.36169282 -0.43979502 0.7728157 0.18219292 -0.8264564 1.6283761 0.7485175 -1.4888839 -1.2211171 0.72288424 -0.446045 -0.24906124 -0.9998825 0.92943645 -2.23913
1756 1.1600131 1.1607467 -0.074727744 2.6676297 2.1294994 0.48865446 1.4443002 -0.5673872 -0.68706 -1.6813172 0.9549357 0.5049042 2.4445746 2.4708097 0.46516034 -1.1765193
469 -0.15618347 1.1593031 -1.0496143 -0.58194077 -0.19090495 0.12442891 0.3541707 -1.1812181 -0.78559315 0.31824404 -0.89311934 1.048791 -0.002385154 1.432912 0.7237346 -1.926109
2558 -0.9173555 -0.06395522 -1.3411059 0.05679492 -0.83325255 -0.488058 0.26219672 0.2807161 0.54320025 0.17730823 -0.10867581 1.3868029 -0.95285124 1.0186392 1.0182368 -1.3993238
396 -0.76384705 -0.7197402 0.20704208 -0.28358394 1.5773908 0.33341143 -0.09774515 1.4068907 -0.1642724 0.5730303 -0.3740147 0.7597269 -0.2358355 -0.2099984 1.8030078 -1.4358312
2057 -1.0153433 -0.07220522 -1.3034915 0.5607084 1.366711 -0.6481568 -0.31175274 -0.66384166 0.10242912 1.0873542 -0.82081586 -1.2473046 0.41598368 -0.09865877 1.1753384 -1.2874708
610 0.89097166 -0.46674943 -0.32708612 0.72415936 0.1492553 -0.7051992 1.8647351 0.7302794 -1.5471599 -1.1396792 0.7078885 -0.52715427 -0.21251436 -1.0795705 0.9035595 -2.387433
942 -1.344234 0.6995002 1.170786 0.58013135 0.48536894 0.36508593 1.0841333 0.52730495 0.43013644 0.90129244 1.0061206 0.52183443 0.19207074 -0.7778397 3.360729 -1.2704344
2927 -2.3263652 -0.6773819 -1.4671613 0.033426117 0.44321457 -0.5145188 0.7197562 -0.08859358 -1.0072671 0.8035594 -0.44807392 -0.768865 0.43997046 0.6598774 1.1326264 0.028926985
1839 -0.9337144 0.19489376 0.11722984 -0.22257657 2.013028 -0.34406143 1.0963103 -1.0225477 -0.73925793 -0.38823876 -0.29491535 0.7792457 -1.5720115 0.64333755 -0.23230205 -0.75497615
2483 -0.81632376 0.9947642 -1.5807364 1.4125599 0.48380813 0.9579255 0.92676556 -0.541273 -0.29478133 0.45162794 -1.0870904 1.0891632 -0.4956589 -0.16201118 -0.24310914 -1.4738693
2397 0.00031355929 1.3053936 -1.149047 -0.89139086 -0.34263536 0.22734642 0.43381506 -1.355622 -0.74816936 0.20529453 -0.69449186 1.2797658 0.35399312 1.4766034 0.90679765 -2.2233925
530 -0.7560231 0.030503916 -0.4736558 0.3816242 1.6189923 -1.4378167 0.6736085 0.7493295 -1.7948625 1.093665 0.26807976 1.7888882 0.5381507 -0.7668853 -1.042431 -0.4465126
2899 -0.58406824 0.45740974 0.6408733 -0.2601438 1.8356183 -0.6773008 2.2126987 -1.1808357 0.014555661 -0.09466824 -0.6877933 -0.049239658 -1.0514225 1.5695348 -0.3097121 -1.0564348
2784 -0.47377965 0.16660477 -1.6879963 -0.47093636 -0.8236533 -0.16989379 0.30315685 -0.09884288 0.4060174 0.63545257 -0.5361604 2.151543 -0.1487202 1.4100492 1.2294548 -1.8150905
1782 0.43310565 -0.47461843 -0.83450186 0.65926206 0.5274052 -1.4548712 1.5019883 0.8216739 -1.6666424 -0.7889894 0.797606 0.45800936 -0.41518366 -0.8184055 0.6387261 -1.1906358
3466 -2.3726306 -0.6418212 -1.3324394 0.12175419 0.5374527 -0.38284558 0.72490275 -0.14530866 -1.0274951 0.7994147 -0.45797303 -0.7906778 0.47535023 0.63110614 1.0765692 0.09017962
3320 -1.8774747 -0.8311874 -0.43518674 0.41047186 1.2258265 0.21312459 2.3035824 -0.21455653 1.4467074 -0.715954 2.3219538 0.66766596 1.2948538 0.06462715 -0.633713 0.104281105
190 0.96467364 -0.3622708 -0.5145045 0.8193392 0.20620108 -0.64315206 1.5460759 0.7930349 -1.4725606 -1.2135029 0.7549677 -0.64416736 -0.06524891 -1.0676317 0.92317826 -2.480727
2727 -1.1677407 0.43569753 0.47416845 -0.2711711 2.224859 -0.04765732 1.6645706 -1.603967 -0.21718721 -0.2002171 -0.6911571 0.7002925 -1.5380398 0.8726919 -0.16832611 -1.0482196
3462 0.47910655 -2.1463902 0.14251058 1.562725 -0.80174536 -0.48822337 1.8933115 -1.0673989 0.8620606 0.40955806 1.0200663 1.5221437 -1.0468518 0.015424209 0.6855934 -1.5727756
85 -0.12471252 0.9222472 -0.080254756 -0.40338683 1.0332776 -0.46328473 0.013998366 -0.7028598 -0.27991688 1.9835775 1.2825494 -0.7115651 0.23290296 0.9816807 0.644439 -1.2925241
24 -2.032733 1.113626 0.46376175 -1.2118305 1.689312 -1.2577364 0.0142822545 -0.44252735 1.2728622 -1.5716734 -0.49202055 0.24331383 0.38134688 -1.1694604 -0.782827 -3.3273306
3077 -0.13067664 1.0361962 -0.008789788 -0.4614197 1.0193678 -0.54296255 0.013933203 -0.7389477 -0.36578965 2.0455568 1.4573969 -0.6759454 0.27675572 1.1308812 0.6733739 -1.3881541
2941 -1.0525868 0.27829126 0.36207893 -0.22765872 2.2514536 -0.034015886 1.5207367 -1.5317723 -0.302747 -0.3017447 -0.52457076 0.83586013 -1.5933907 0.6822176 -0.25445238 -1.049608
2163 -1.3844961 -1.397645 -0.8770337 1.3033515 0.45025095 0.61918545 -1.4686462 -1.2165796 0.3598805 -0.5620557 0.81021273 0.88650686 -0.10854128 -0.1655364 0.74812615 -1.2002646
2519 -1.1729887 0.34470427 0.4594414 -0.2185589 2.3039484 -0.10704863 1.6899052 -1.6454737 -0.28009367 -0.2743327 -0.5971554 0.8206473 -1.6111758 0.8689953 -0.26135963 -1.0722826
2973 0.036819313 -1.4800891 0.336475 1.2159069 -0.27431825 -1.5697532 0.83264685 -1.0742421 0.33716083 0.6747394 0.82565176 1.5970206 -0.24108043 0.21385606 0.36600956 -0.72026724
328 -1.1094937 0.01723304 -1.3459076 0.30868608 -0.78532046 -0.5210964 0.2542023 0.36643326 0.4747917 0.0023484062 0.13837008 1.2298604 -1.288615 0.94907105 0.78525466 -1.2762927
1460 -0.14988735 1.1391373 -1.0798842 -0.56576747 -0.23852655 0.2004983 0.36365342 -1.0770743 -0.6613758 0.39482415 -0.8644982 1.1139436 0.11281366 1.2668383 0.643678 -1.8126227
3019 -2.4218495 -0.7045454 -1.3728533 0.08893645 0.525609 -0.33264685 0.80431104 -0.19242819 -1.0641642 0.8131738 -0.47694954 -0.77139956 0.43016687 0.5907269 1.0443616 0.0812682
3444 -0.70639884 -0.7806799 -0.09564602 0.45583442 -0.61017776 0.8809099 0.5341735 1.0721264 -0.10180434 1.1342617 0.06817172 -0.2220048 -0.5395875 1.30377 -1.0213844 -1.6932473
350 -0.9865659 0.015618834 -1.2027853 0.40215674 1.0887156 -0.77082133 -0.0021246758 -1.0923035 0.3180299 1.2500215 -0.6477778 -1.2723787 0.6163901 -0.24043915 1.0446986 -1.4001284
491 -0.5674569 0.12616575 -0.32672656 0.6880482 0.10727668 0.34307015 2.3376257 0.118348695 0.7713067 1.5553186 -0.20158516 0.086965196 0.6195364 -0.14849494 2.5465999 -1.2711483
1777 -0.943258 0.018730475 1.0670025 1.6028719 -1.1090623 -1.8361257 -0.23382822 -0.3248039 -0.30013812 -0.32381603 0.0011191156 0.085867986 0.6435945 0.71173215 0.8835302 -1.3957703
2855 -0.25788525 -1.364954 0.15815642 0.5412309 0.5260498 1.2914832 1.9676021 1.2191626 0.42520857 0.595188 -0.39542776 -0.8605382 0.295788 0.7902486 -0.8411224 -2.19931
1431 -1.9927504 1.0535061 0.47487134 -1.1458533 1.7516805 -1.2604856 -0.031238861 -0.34749997 1.1925569 -1.5644914 -0.57958657 0.191914 0.4145375 -1.1283216 -0.73071885 -3.3097742
2348 -0.8752156 0.2660926 -1.3836871 0.6098776 1.2113463 -0.69732136 -0.0994072 -1.4196587 0.24200617 1.1880406 -0.5433852 -1.4017513 0.7265579 -0.26896504 1.1796062 -1.5625811
3194 -1.0357444 0.19370945 -1.3714257 0.6741166 1.1807636 -0.6520359 -0.12737174 -1.28186 0.20386934 1.1977788 -0.6539068 -1.3903816 0.64887154 -0.32693827 1.1789958 -1.4530487
839 -0.9540832 0.3830461 -0.9652473 0.4350453 1.87973 -1.3683696 0.62654144 1.0260956 -1.2708635 1.2507417 0.63170946 1.8024071 0.88064855 -0.41598988 -1.0725152 -0.35068184
1137 -0.14346725 0.81486726 -1.5714393 -0.3282092 -0.43183497 0.25385436 0.360041 -0.36586216 0.24514328 0.4920846 -0.28110498 2.3517432 0.39508057 1.3434473 0.7301237 -1.6672845
769 0.5636175 -0.35409862 -0.8728569 0.7996201 0.41022864 -1.3881685 1.4662108 0.9343727 -1.6504707 -1.0550754 0.8106041 0.16427714 -0.37146145 -0.9834403 0.7416533 -1.6483968
3535 -0.94524467 -0.21940364 -0.19743846 -0.22521429 -0.94714004 0.32323775 0.3287767 0.26354268 0.8612586 0.86514103 1.3033482 -0.6827397 1.3678778 0.8053527 -0.6621327 -2.1584632
3144 0.4449508 -1.739314 0.4050191 1.4140508 -0.3837026 -1.3028021 1.3645201 -1.1550385 0.5631141 0.59141874 1.0091338 1.6161044 -0.6912837 0.08518612 0.48742652 -1.083272
1353 -0.57223517 -0.10104273 -0.60236686 0.735929 0.20755164 0.15284687 2.5005999 0.2941838 0.78045124 1.8927943 -0.3473716 -0.105057046 0.73286325 -0.047786374 2.5859685 -1.4123782
2304 -1.026826 -0.15668334 -1.2490702 0.52763504 1.3572482 -0.6690269 -0.27062014 -0.6050048 0.027265545 1.0403097 -0.83023417 -1.2324952 0.30800113 -0.10576907 1.177208 -1.245363
1005 -0.14073804 1.2979454 1.5244488 1.712104 1.5026579 0.19295378 0.30291793 -0.25107312 0.20852362 2.0801463 0.62636393 -0.46703345 -0.23361035 0.3557842 0.55025077 -1.3006151
3166 -1.4096884 0.5915413 1.3633612 0.7838942 0.6593953 0.5879007 0.7836245 0.78200185 0.23195532 0.9260888 1.1034322 0.852785 0.044218868 -0.57403994 2.8803353 -0.9090422
335 -0.24068917 -1.4165946 0.046368554 0.6987829 0.5246858 1.3878666 1.8059542 1.3845472 0.15237129 0.8627787 -0.48265648 -0.6861132 0.18467562 1.0506148 -1.0518804 -2.0165207
3576 -1.0496453 0.5376316 0.5260683 -0.32885715 1.9845973 -0.18987267 1.9283452 -1.591361 0.0023521595 -0.2523058 -0.6977325 0.5234048 -1.4110328 1.0936816 -0.22470514 -1.0905399
2907 -0.9902651 0.35360223 -0.92373455 0.49244866 1.8250793 -1.4228975 0.57588696 1.0058154 -1.3118447 1.2708359 0.61111623 1.9034755 0.90668595 -0.45037347 -1.0187583 -0.34659085
1936 -2.3140473 0.98889554 0.38020086 -1.2407832 1.5702378 -1.2244136 -0.15224394 -0.41913614 1.2068938 -1.543869 -0.48688433 0.21548569 0.17772253 -1.2995813 -0.9073956 -3.2839556
32 -1.2295218 0.57062477 -1.3665376 0.68163776 -0.43849534 -0.24895243 0.30407268 0.12789649 0.43409908 -0.25296935 0.022260757 0.7477978 -1.4476935 0.6810265 0.63968104 -1.2744054
409 0.04206025 0.31334943 -0.34514132 0.066562735 0.76185346 -0.42693856 1.0940146 0.27666917 -2.0481493 0.69031394 1.1120036 1.4462808 0.6964228 -0.48628512 -0.8762347 -0.7713247
279 -1.1572636 0.10301267 -1.2660182 0.27820125 -0.7348214 -0.57329917 0.21127589 0.33769637 0.42464063 -0.03884458 0.1392236 1.1953216 -1.2741476 0.86854064 0.7130849 -1.1905719
1600 -2.3108118 -0.7804613 -0.27747574 0.6177508 1.2254542 0.4681069 2.2268612 -0.27139837 1.1577346 -0.8934872 2.029942 0.5037648 1.029989 0.30414817 -0.63351494 0.30504104
1175 -1.4439453 -0.1895896 -0.3894457 -0.35931802 -0.9794035 0.21413976 0.21387708 0.323572 0.8212255 0.95048976 1.0792688 -0.2808471 1.7118621 0.8844508 -0.9712753 -2.0094476
1020 -2.007106 -0.7357272 -0.35722688 0.75076205 0.47031412 -0.4044468 2.1023486 -0.11167667 -1.093339 0.64699525 -0.9872138 -0.45580822 0.27557194 0.059671227 0.91458666 0.10758483
2813 -0.99996823 0.14847313 -1.4414574 0.70934236 1.1929991 -0.70490783 -0.19860102 -1.2596077 0.2455621 1.1965605 -0.64148366 -1.33414 0.67296016 -0.3116598 1.2311002 -1.5027072
2651 -1.148788 0.5615787 -1.3191234 0.66959196 -0.43583047 -0.21661448 0.2630447 0.10348274 0.38829157 -0.29078376 0.0033868689 0.8317954 -1.4011605 0.704723 0.6074744 -1.2349454
3513 0.008775924 -1.5052127 0.32304063 1.2514377 -0.23529057 -1.6763526 0.8377142 -1.0571007 0.28086913 0.6803285 0.7870945 1.7003869 -0.28362384 0.22742075 0.36859164 -0.7109722
877 -0.68401784 -0.6533293 -0.02264646 0.2865666 -0.7514976 0.74456185 0.42819703 0.97369397 0.007852467 1.1543608 0.36026406 -0.3294101 -0.314513 1.2058921 -0.7852287 -1.6500193
822 -0.15557057 0.21478224 -0.15622245 -0.1635431 1.3448861 -0.33072937 -0.31512398 0.09326089 -0.50002235 1.4506572 0.90658885 -0.7109391 -0.42712304 -0.22835074 0.71888286 -1.3816524
26 -0.7428867 -0.5181533 0.61912245 -0.4211575 0.09648955 1.2182351 0.6852947 -0.9803037 -2.3587153 -0.20172292 1.0877911 -0.1031507 0.7116144 -0.3414878 -0.020653348 -1.3133632
1437 -0.537863 -2.5003328 1.1475536 0.4522551 1.9272845 -0.88164294 -1.7232331 0.34176013 -0.82943135 0.10535405 -0.1820466 0.88265747 2.403798 2.26487 0.15614578 -1.6097361
1216 -1.3684163 -1.3106972 -0.9086899 1.3308009 0.45736626 0.5278545 -1.4738986 -1.2019758 0.34371582 -0.6040609 0.8202939 0.8478497 -0.10703739 -0.2004236 0.7412043 -1.2017581
1198 -1.1016858 0.022436593 -1.337391 0.29747888 -0.7687992 -0.565975 0.23522073 0.27604204 0.5058953 0.0071133464 0.1088584 1.249051 -1.2853688 0.9173955 0.80268985 -1.3104289
789 -1.0744209 0.7260377 0.84106094 0.4535454 0.304953 0.2762435 1.2929655 0.25834242 0.5320213 0.8819 0.7965563 0.2897104 0.29792434 -0.7278956 3.2253685 -1.3673285
2800 -0.3425503 -0.3067832 -0.13010262 -0.07167361 -0.67184675 0.34479812 0.51920825 0.1725098 0.91110224 0.8542637 1.0653347 -0.84726363 0.93949485 0.6446598 -0.45064577 -2.2575855
1723 -0.114356264 1.0029554 -1.1900352 -0.72475386 -0.33703822 0.15347868 0.32206747 -1.013193 -0.6684582 0.33266014 -0.87641805 1.3597703 0.011108536 1.4540232 0.86047417 -1.98898
1731 -2.2297597 -0.7408786 -0.66911286 0.46734196 0.41922858 -0.5438499 1.8099718 -0.17401999 -1.1829406 0.69385314 -0.80765843 -0.4976313 0.18372943 0.24037561 0.88803405 0.2832505
35 0.29327613 -1.612584 0.36238003 1.2473764 -0.32881907 -1.3123211 1.1788347 -1.1050934 0.46987104 0.66065335 0.95607555 1.6592453 -0.46423125 0.10903983 0.4010884 -0.89960414
18 -0.6492854 -0.76305294 -0.10371291 0.4964899 -0.54541063 0.85310775 0.48727986 1.2686782 -0.10668724 1.1657282 0.038621712 -0.1670126 -0.5167671 1.2778561 -0.958946 -1.6650839
25 -0.96434766 0.8712219 0.92206305 1.6020437 1.5769192 0.46062905 -0.35196617 0.37258908 -0.36192417 2.3983085 1.1449965 0.28550074 -0.91387326 -0.0933995 0.6711397 -0.7845961
2743 0.062406898 1.241079 0.21335295 -0.2545862 0.6789665 -0.43712974 -0.1634173 -0.7301097 -0.4647181 1.8410248 1.8191972 -0.36122066 -0.17574199 1.220676 0.7121178 -1.4012594
1092 -0.81781906 0.8597239 -1.5369732 1.0739926 0.398242 0.84575486 0.8355029 -0.6802415 -0.4877943 0.43917316 -1.1356697 1.2575912 -0.4106364 -0.15907101 -0.120987706 -1.3825014
584 -0.21049738 1.0260943 -0.012027557 -0.54428583 0.973936 -0.60147864 0.016564695 -0.73851 -0.32840803 2.01162 1.4061292 -0.7280856 0.29055184 1.0941862 0.6920837 -1.3180778
275 -1.5747828 -0.2412468 -0.5261462 -0.3061768 -1.1214328 0.18216687 0.26044357 0.37651247 0.92930716 1.0020785 1.1608689 -0.28346512 1.6930927 1.0013263 -0.86126184 -1.9880913
906 -0.5989178 -0.31335205 -0.10225889 -0.107743025 -0.8249819 0.36313668 0.40798518 0.22080451 0.97036546 0.95479316 1.1880618 -0.83513254 1.0697585 0.8600569 -0.4921696 -2.3513315
483 -0.72177225 0.69721043 0.4954127 1.2016331 1.2862656 0.09788252 -0.50461024 0.21261346 -0.44160518 2.3592417 1.3242198 0.10427347 -1.2015862 -0.0997189 0.60033303 -0.92629313
2337 -0.11280891 0.8964148 0.21118343 -0.08974574 0.6701993 -0.49066994 -0.5592046 -0.4598815 -0.55988806 1.936615 2.2973354 0.08338947 -0.845448 0.8147666 0.6536683 -1.2431127
2007 -1.7285467 0.3960196 0.110790186 1.0690345 -0.036856942 0.071438946 -0.22220421 0.50301707 -1.2464907 -1.1351144 1.0268317 0.08812978 -0.97177774 1.5644641 0.027732994 -0.55836713
1427 -2.136009 1.0224717 0.21465582 -1.2049975 1.7011708 -0.94837 0.029329438 -0.0689283 1.294689 -1.6216881 -0.5902515 0.21586576 0.47415006 -1.1257977 -0.77840966 -3.4314926
643 -0.13346022 1.297025 -1.0307101 -0.736633 -0.24689844 0.32280385 0.45928532 -1.3540477 -0.78162664 0.2507739 -0.83069193 1.0775073 0.28996423 1.3182197 0.80623925 -2.184451
3029 -1.0074279 -0.81681156 0.2375142 -1.1214834 -0.29025275 1.1688004 0.9978213 -1.418518 -2.5799315 -0.19594605 1.1778337 -0.002993923 0.31683448 -0.5211044 0.36755255 -1.749689
308 -1.1003516 -2.0502288 -0.5060455 1.5207492 0.65476334 1.2345895 -1.1639689 -1.4366608 0.38398564 -0.2666985 0.48580813 1.2163204 -0.0894812 -0.3755709 1.0007343 -1.2571559
2634 -0.09830358 0.9366294 -1.4554746 -0.29315212 -0.39562795 0.41390026 0.5014382 -0.42425054 0.24664442 0.45441273 -0.16859998 2.4769578 0.5260388 1.3383145 0.6434514 -1.7390912
379 0.14943835 1.1958127 0.20462202 -0.20294018 0.7014001 -0.42572436 -0.14398564 -0.6885852 -0.4111496 1.869892 1.8843724 -0.36328146 -0.2629167 1.2218252 0.63579553 -1.4614385
1478 -0.16761638 -1.3623345 -0.9183446 1.0340695 0.44098735 0.757272 -0.492378 2.093221 0.23062506 0.8031196 0.43567684 0.5140166 -1.253846 1.0970006 -1.1856406 -2.5389268
2195 -2.0260742 1.0413659 0.43873668 -1.1945938 1.7260206 -1.2746607 -0.041831765 -0.3865835 1.1993046 -1.634891 -0.5631878 0.19010603 0.4605576 -1.1646584 -0.74472135 -3.3893054
33 0.71066684 -0.0983022 -1.2560416 1.1290971 0.29500023 -1.2042621 0.39304653 1.1663626 -1.1250255 -1.3147972 0.96059036 -0.49623716 0.14219719 -1.0680815 0.652497 -2.8579473
2249 0.48708963 -0.57577336 0.028191755 -0.3394022 0.74736583 -1.5332937 1.6056257 -0.7986538 -0.18102631 -0.3578059 0.435515 -0.15454522 -1.0843073 2.3925319 -0.094731204 -1.4781939
675 -1.7515727 0.3251293 -0.9565008 0.6675104 -0.9826612 -0.48842365 -0.16776836 0.8910118 -0.62994576 -0.5572109 1.0053029 1.2077774 -1.1929061 1.0370874 -0.20462887 -1.0841416
869 -0.46398342 0.87659526 0.5033676 1.1431398 1.1499308 -0.11122498 -0.6578103 0.0018472703 -0.51605546 2.0866587 1.4612261 -0.022105416 -1.0229884 -0.10304365 0.5629109 -1.0141321
1085 -0.5405032 -2.489446 1.1001455 0.46010655 1.9090133 -0.8277277 -1.704829 0.26924786 -0.81184226 0.08585474 -0.20961481 0.8423331 2.387476 2.137079 0.16328694 -1.6785394
1842 0.9159783 -0.3284538 -0.5668306 0.7812551 0.111102365 -0.64297235 1.5173094 0.73908085 -1.4108741 -1.165584 0.76711774 -0.6783191 -0.047913477 -1.0663519 0.90627754 -2.5168955
529 -0.23636553 0.23508322 -0.16744915 -0.15256034 1.3285688 -0.31010142 -0.31109858 0.11860597 -0.51759166 1.4817426 0.9436762 -0.6454607 -0.43024695 -0.23305868 0.7426935 -1.309315
1161 -2.301632 0.8272908 0.47014114 0.8880973 0.062414974 0.00572154 -0.5755953 0.5591621 -1.1141315 -1.0153341 0.25663057 -0.5354423 -0.6763954 1.9274236 0.7626066 -0.9808515
1659 -0.05387803 1.1707798 0.1146512 -0.26115337 0.58319217 -0.46416557 -0.32881907 -0.6293513 -0.5207174 1.8896892 2.0691712 -0.27205682 -0.29271594 1.2627863 0.7667896 -1.4302878
1689 -0.1981244 0.14463118 -0.15396953 -0.11105257 1.4641538 -0.36816835 -0.2477863 0.1399392 -0.497861 1.4788884 0.78664917 -0.7688656 -0.39356723 -0.33085862 0.8637205 -1.4695283
382 -0.96467304 0.3201761 -1.4784249 0.7256858 1.2623268 -0.6542635 -0.1446271 -1.475847 0.20126608 1.1182692 -0.538451 -1.464752 0.80237657 -0.27310196 1.2220898 -1.5499141
2434 0.03433866 0.43401012 -0.33372852 0.18656626 0.7201365 -0.36307207 1.200587 0.2504014 -2.128424 0.71196645 1.3105756 1.4886588 0.7778041 -0.49672335 -0.8765774 -0.8456468
2316 -0.7446954 0.9675864 -1.569328 1.6570934 0.37706897 0.7984336 0.80351955 -0.36213878 0.05427837 0.12511364 -0.6252834 0.99622685 -0.9857447 0.11180226 -0.034003336 -1.3659118
351 0.05124455 0.47495103 -0.3854143 0.1245846 0.7287098 -0.37676957 1.0656372 0.17024451 -2.1454322 0.644839 1.316504 1.4168564 0.9209499 -0.47709402 -0.8673243 -0.8781552
2774 0.19237716 1.1773037 -1.1704724 -0.628737 -0.3207505 0.3803531 0.629618 -0.9783293 -0.21350545 0.40526968 -0.55797213 1.8618155 0.7635931 1.3842721 0.777894 -1.9964105
1943 0.41751754 -1.6919625 0.40634456 1.3243638 -0.375762 -1.2550969 1.3084271 -1.0980042 0.53905076 0.59954864 0.97826916 1.6271989 -0.59829843 0.09817641 0.47332042 -1.0275048
6 -0.062360667 -1.9922681 1.7073439 -0.22877267 3.0843089 -0.09518497 -1.23257 -0.7681767 -0.5015932 0.1439774 -0.6610058 1.0075729 1.5731134 1.8466936 0.02853731 -2.4035075
399 -0.022083469 -0.15742548 -0.17360203 -0.027388139 1.5088506 -0.5638921 -0.11322029 0.25675038 -0.44537592 1.4516611 0.5712399 -0.82951176 -0.23352988 -0.31007308 0.88713807 -1.4316052
1298 -2.1926491 -0.74389285 0.05626753 0.40690118 1.2131823 0.22252095 2.5708942 -0.15257344 1.3714545 -0.83350587 2.4396865 0.56504995 1.0741037 0.37000448 -0.6764318 0.14846872
3566 0.12744154 1.1943077 -1.3627615 -0.3864684 -0.32170665 0.44856903 0.6486408 -0.7185632 0.09585308 0.59448075 -0.24742867 2.3746147 0.6541546 1.3946882 0.66534704 -1.9768864
123 -2.1579292 -0.6236779 -1.3697785 -0.021716096 0.3587999 -0.5576281 0.7385391 -0.051576592 -0.7157992 0.86844933 -0.46022588 -0.59527665 0.45319062 0.64438945 1.1934794 0.017962264
3414 -0.33486295 -0.526755 0.6519308 -0.10528824 0.2747524 0.919771 0.7981146 -0.5728495 -2.6070313 -0.050600518 1.0291806 0.39299697 0.90234655 -0.37084794 -0.42548358 -1.3807424
2327 0.09847641 1.0905463 -1.3510898 -0.35775417 -0.39081416 0.4778779 0.6397577 -0.73641443 0.19430345 0.56739795 -0.1504935 2.3645794 0.636611 1.3083842 0.68266124 -1.9096079
2018 -0.99332577 0.30169955 -1.4356077 0.68168914 1.2293586 -0.7330484 -0.15396628 -1.5335277 0.26902944 1.2535661 -0.65880215 -1.4326029 0.7643996 -0.30912957 1.2406201 -1.6126746
2252 -0.52086854 -1.725273 -1.3370061 1.6141236 0.3590357 -0.4504434 -0.87085474 -3.2163835 -1.2912356 -0.5578716 1.0099081 0.52413225 -0.26422834 0.681884 -0.01761178 -1.1914535
2160 -1.1126904 -0.91242737 -0.10210402 -1.4880182 -0.46503115 0.66565573 0.95832837 -1.5233701 -2.2834804 0.16464601 1.3317847 0.18746486 -0.17481613 -0.4930802 0.7288941 -1.5427549
199 -0.13789713 -1.9211197 1.6846181 -0.18954329 2.926879 -0.092758656 -1.2178771 -0.6247072 -0.51258653 0.15485339 -0.67543566 0.912733 1.6743784 1.9823908 -0.05668711 -2.123772
2900 -2.5499976 0.667258 0.06787846 -1.4161941 1.6253463 -1.1660157 -0.33345053 -0.14903705 1.2350248 -1.6108699 -0.3494147 0.2293723 0.2279467 -1.4101557 -0.9409299 -3.462881
3104 -2.3964381 -0.6170337 -1.3831612 0.04389672 0.47149363 -0.40435377 0.7870499 -0.14088412 -1.0026196 0.7788107 -0.5617814 -0.750211 0.47378334 0.58532876 1.0981938 0.04524772
125 0.11657428 -0.006756321 -0.16851069 0.10348707 0.40704438 0.11175104 1.1559073 0.05892587 -2.278337 0.30600163 0.99814147 0.9093336 0.69544244 -0.56837314 -0.70289326 -1.063659
1240 -0.13822576 -1.2981678 -0.98648536 1.0746515 0.392128 0.7824164 -0.48548502 2.0697787 0.26631722 0.7672533 0.49071267 0.4261091 -1.2377725 1.1485392 -1.1970978 -2.6530256
1194 -1.9556379 -0.70832103 -0.33147576 0.7582823 0.44060653 -0.41649112 2.1283252 -0.026213575 -0.99485415 0.6801435 -0.9069019 -0.5040062 0.31956995 0.011615676 0.94893324 0.058146015
628 -0.25776035 -1.3720727 0.13382846 0.5826803 0.57289845 1.2629138 1.9286889 1.1981637 0.36267477 0.6365223 -0.4245756 -0.81778735 0.27231938 0.8025221 -0.875633 -2.2044847
1504 0.55236864 -0.7841269 -0.22511421 -0.28404152 0.6840136 -1.6915032 1.5195147 -0.76939034 -0.3234527 -0.49997997 0.62900716 -0.050825354 -1.291378 2.4597535 0.014439721 -1.6341206
2716 -1.1876361 0.12658481 -1.3634129 0.3035881 -0.6945741 -0.5392047 0.22933172 0.32138148 0.42758325 -0.07030924 0.1310631 1.1997184 -1.3397828 0.91486746 0.74839944 -1.3097261
1038 -2.133641 -0.37317514 -2.1206865 0.42629132 0.75170225 -0.4291853 0.10312324 -0.24025969 -0.9837685 0.8061884 -0.057439066 -1.2219211 0.5090833 0.8564194 1.2239964 -0.2257116
2311 -1.0321211 0.18510097 -0.84714144 0.3225286 1.877846 -1.6485741 0.60455024 1.1149977 -1.4166988 1.2834244 0.35300887 1.8587005 0.78406626 -0.5815683 -1.029524 -0.39027753
1849 -0.596238 1.2050083 1.1599122 1.6729645 1.59083 0.41009566 -0.3430239 0.14815804 -0.18952218 2.2428424 1.1038929 0.07589266 -0.6176102 -0.046885874 0.6754049 -0.9875693
1904 -0.53066957 -0.6674858 -0.13669251 0.39057615 -0.6632513 0.8107952 0.53329194 0.9917705 0.025571411 1.1511322 0.26466778 -0.2753379 -0.507939 1.2748129 -0.89495075 -1.7117124
1570 1.1161553 1.130958 -0.27337298 2.701789 2.035624 0.610147 1.3830781 -0.72930014 -0.8703523 -1.7710322 1.2336152 0.5326974 2.3365283 2.4120488 0.46844223 -1.0857904
3327 -1.4492149 0.87057114 0.030117108 1.3320254 0.26511464 0.6464152 0.31264943 0.06754784 -0.91764 -1.101744 0.85511035 -0.33606714 -1.100117 1.3234954 0.09496482 -0.6795534
1208 0.14925365 -0.2543583 0.30113915 -0.56034154 0.89464945 -1.3180678 1.5002654 -0.7740845 -0.40919974 -0.17969637 0.20495212 0.23930511 -0.8840495 2.4126284 -0.07207107 -1.0857252
2505 -0.51626426 -1.002056 -0.18177831 0.55319005 -0.15200943 0.923246 0.647002 1.3083421 -0.30994654 1.0815724 -0.37060183 -0.06762847 -0.36087728 1.2922827 -1.0945688 -1.434289
2539 -1.041099 -2.5307717 -0.27686763 1.8148003 0.7153879 1.5269617 -1.0175213 -1.4544759 0.008734671 -0.13170764 0.22875316 0.8631465 -0.12144571 -0.5124376 0.8877145 -1.3329731
2482 -1.4955615 1.4249915 -1.8717474 1.7239338 0.5966722 1.2967908 0.75682944 -0.33009738 -0.23444936 0.11761214 -0.95240843 0.93973714 0.76429474 0.08407062 -0.43207827 -1.4488913
278 -0.9375475 0.40352193 -1.0786885 0.5401542 2.0404813 -1.5142853 0.6880044 1.0518934 -1.3077567 1.3316883 0.57837546 1.8591313 0.8812194 -0.47314522 -1.0194501 -0.39036587
1654 -0.14649801 -1.3380738 -0.94580436 1.0365535 0.41349587 0.7295391 -0.42780334 2.0483057 0.25742543 0.7303777 0.42074728 0.41260725 -1.1427935 1.112237 -1.1714219 -2.567783
2911 -1.9417187 -0.40838066 -0.9063519 0.108822785 -1.0675341 -0.066052444 0.20870012 0.17983137 0.978658 0.7530106 1.5878298 -0.6343319 2.5673635 0.7545576 -1.1870373 -2.2724285
1821 -1.140073 0.9207496 -1.2328261 0.2534688 -0.97053 -0.14282964 0.109448045 0.5932529 -0.20873618 -0.2988604 0.78112686 2.2294142 -0.452777 0.94219357 -0.041244082 -1.4025682
2201 -0.21827342 1.2092868 1.6113579 1.6673971 1.381364 0.27742285 0.40639913 -0.23406371 0.22484936 1.9667987 0.6278468 -0.28008258 -0.15254529 0.2949581 0.6365164 -1.1390215
1195 -0.9654266 -0.10371098 -1.2292093 0.49048707 1.4135107 -0.63449204 -0.21583109 -0.7476717 0.1199579 1.0452377 -0.82446873 -1.2679086 0.42352986 -0.1410817 1.109822 -1.3750807
2359 -0.17469689 0.20828928 0.6598668 -0.39547238 1.5622623 -0.9244211 2.0299149 -1.0198433 -0.21338242 -0.20185016 -0.23471694 0.1954256 -0.868766 1.8672683 -0.30968788 -1.0285311
2955 0.048764337 0.92544645 0.020243734 -0.43292496 0.9429692 -0.54831177 0.14183907 -0.74564236 -0.28906113 2.0588694 1.3172232 -0.6095539 0.23797953 1.0906978 0.664102 -1.3703129
1293 -0.4986528 0.07806761 -0.29306749 0.24155506 1.505521 -1.3441088 0.91081405 0.6167316 -1.8210224 0.98192805 0.49950948 1.8940206 0.55450046 -0.7129329 -1.08449 -0.493376
3362 -1.0721463 -0.21419652 -0.20253673 -0.31794178 -1.0529296 0.38557646 0.21576121 0.41828924 0.69170487 1.0453222 1.0223963 -0.37348193 0.9334001 0.9575973 -0.6853972 -1.8806422
1395 -1.8068534 -0.8088792 -0.57898784 0.49741504 1.2412714 0.33841825 2.3277752 -0.25917283 1.4234357 -0.6331607 2.2694674 0.605851 1.3563967 -0.027326554 -0.61864376 0.06450515
2935 0.7686727 -0.22800148 -0.90536857 0.9720197 0.27329785 -1.0262067 0.99476904 0.9444823 -1.2515643 -1.2872136 0.58777237 -0.3889818 -0.21440126 -0.997019 0.7284796 -2.3019173
2294 -1.7264792 -0.76586324 -0.5087513 0.25559613 1.256848 -0.32823715 1.9028646 -0.025566561 1.5943086 -0.6571858 2.1645112 0.760135 1.2937955 0.30714285 -0.30897254 0.0518078
2497 -0.42133722 1.1922758 1.1237684 1.6164992 1.5853355 0.3007222 -0.29359773 0.11885215 -0.19403963 2.0762637 0.96012855 0.027928323 -0.46126714 -0.033132154 0.62742174 -0.9895565
3431 -1.2895879 0.74596477 -1.2357632 0.36210787 -0.77008015 -0.19924317 0.034307357 0.5738666 -0.06861703 -0.24123952 0.51156384 1.9147387 -0.7101977 0.9127528 -0.07152792 -1.1688423
258 -0.52492994 -0.8040873 -0.17800684 0.4161509 -0.45444453 0.79737467 0.6340114 1.0372648 -0.18502574 1.0738696 -0.08582099 -0.27034062 -0.3038816 1.1750944 -1.1409134 -1.5960422
616 -1.4451632 -0.36287862 0.6798595 2.4470584 -0.575723 -2.142645 0.010181489 -1.072606 -0.30550382 0.6329532 -0.4495017 0.6639112 0.47342888 0.6805536 -0.65566367 -0.9131273
2450 1.1254593 1.1139386 -0.13990073 2.5986655 2.083486 0.53991896 1.3387015 -0.7452737 -0.90867615 -1.814036 0.99830776 0.48803693 2.2139854 2.4920466 0.48430803 -1.0654796
3398 0.52730155 -0.7706362 -0.13233118 -0.42156628 0.78617173 -1.7181163 1.6442194 -0.81640273 -0.20493306 -0.43856046 0.4849725 -0.028662719 -1.1930225 2.5986 0.09317458 -1.6370231
485 -0.3869662 -0.76866925 0.6220653 0.5288125 -0.24859774 -0.34742868 0.2242943 -0.33292124 0.8703891 -0.35141537 2.3370106 0.96200323 -1.461607 0.26947096 -0.5938379 -2.1227705
2670 -1.476971 -0.24354464 -0.4441766 -0.32739756 -1.0927755 0.123266906 0.2080053 0.33322006 0.89678246 0.9973747 1.2238458 -0.4048869 1.68805 1.044595 -0.7940823 -2.0296774
3000 -1.2049121 0.1752273 0.19037805 -0.21880917 2.3627818 -0.052167673 1.4008188 -1.3606833 -0.6253386 -0.34622422 -0.44580272 0.90280694 -1.709434 0.5635174 -0.29773942 -0.96178514
2760 0.07971499 1.1197246 -1.3559186 -0.32083157 -0.33332655 0.48695636 0.59007525 -0.6526427 0.15828541 0.5612023 -0.13263758 2.3834255 0.7038032 1.2615869 0.6056406 -1.85801
1878 -0.797379 1.0147905 -1.5050136 1.7797081 0.31567538 0.7989723 0.8037343 -0.36705765 0.29097784 -0.13152179 -0.45736256 0.91944486 -1.1843649 0.38165864 0.111347586 -1.3105431
568 -0.6808948 0.75570357 0.33578432 0.57972413 0.9328536 -0.2546837 -0.7241131 -0.08555752 -0.67624503 2.2311974 1.8752437 0.21387228 -1.1124179 0.08893101 0.49956936 -0.99924064
3020 0.045165643 0.49921033 -0.4864295 0.18020351 0.79104865 -0.26644257 0.89164007 0.15930271 -2.0876033 0.68934804 1.3685526 1.2975552 0.94657826 -0.3822639 -0.7739099 -0.7513546
1160 -0.82011276 1.2374362 -1.6395811 1.9729117 0.39280903 1.0392944 0.94745964 -0.49243104 0.21455753 -0.14199212 -0.4151448 0.92114145 -1.1053976 0.30353996 -0.05288201 -1.5428674
549 -0.7150606 -0.14167488 -0.3573385 -0.045373928 1.7132909 -1.5124712 0.87777245 0.6420486 -1.8052416 0.6964465 0.30736008 1.7671583 0.09909822 -0.6450331 -0.93379647 -0.5189539
2314 -0.39526024 -0.4310329 0.702326 -0.07708462 0.345542 0.97865814 0.6322366 -0.6051809 -2.54362 -0.09770878 1.0267818 0.36022922 0.9715379 -0.33298877 -0.41975182 -1.3644905
783 -0.33496416 -0.37305003 -0.24615577 -0.13012016 1.6272764 -0.527409 -0.21073359 0.48155612 -0.3785584 1.3205372 0.40638575 -0.74163157 -0.34607518 -0.2974806 1.0568949 -1.3949021
2604 -0.84918475 0.037739918 0.9884016 1.7963529 -1.0382997 -1.9512395 -0.238184 -0.54640085 -0.17328975 -0.09460675 -0.014478737 0.14526503 0.553995 0.7818969 0.597978 -1.3623536
3192 -2.014354 -0.2832408 -2.1827455 0.72421455 0.992239 -0.2636073 -0.0007233423 -0.2979941 -0.844998 0.7061437 0.109978095 -1.6020236 0.47650138 0.7838374 1.2020721 -0.4037057
686 -0.96245587 0.08586052 -1.232281 0.5146067 1.127684 -0.8690235 0.05330858 -1.2280746 0.3073959 1.3422645 -0.64466 -1.330569 0.68805563 -0.34444016 1.1688268 -1.5596178
2313 -0.0639408 -1.2353858 0.030510671 0.5287916 0.45865712 1.1938794 1.8165323 1.2108757 0.35631117 0.7792002 -0.31335938 -0.82132703 0.22548781 0.89078236 -0.8200371 -2.137252
548 0.039194003 0.37077942 -0.42426908 0.05723979 0.8416778 -0.6329548 1.1901143 0.32328135 -2.0310183 0.7320287 1.1511992 1.5263283 0.70076245 -0.52275014 -0.9141976 -0.7737646
3074 -0.23229134 1.2806097 1.5619751 1.6727797 1.4915979 0.33345932 0.29926655 -0.14888608 0.15602985 1.9530675 0.6844219 -0.1756957 -0.2217198 0.24259542 0.7003071 -1.1176885
3313 -1.0497811 0.15095049 -1.394652 0.64865553 1.1777985 -0.8235737 -0.046084985 -1.443175 0.32953152 1.3472494 -0.69225425 -1.3244488 0.6936572 -0.37332445 1.2230272 -1.5602007
3246 1.1651638 1.0944825 -0.16300106 2.651988 2.121424 0.43833438 1.443636 -0.43162686 -0.67850477 -1.6591905 0.9263315 0.454565 2.4972641 2.4056897 0.5759191 -1.1143937
2159 -1.0598091 0.104753174 0.14644995 -0.23997727 2.3210418 -0.06833236 1.2620233 -1.3309487 -0.66649073 -0.35091373 -0.37794942 0.9844906 -1.674248 0.5873122 -0.44337183 -0.93895775
1819 0.043241087 0.31980264 -0.37195355 0.07723684 0.6986706 -0.52358794 1.2038683 0.2906919 -2.034275 0.69311297 1.0771841 1.4670049 0.7396282 -0.5257809 -0.90528166 -0.86450624
3237 0.004725203 -0.014039031 -0.13552694 -0.09691455 1.4809164 -0.44831043 -0.16640319 0.24604766 -0.4839745 1.4224372 0.69886357 -0.8453746 -0.30448177 -0.26825854 0.89506894 -1.4914596
2831 -1.026749 -2.6466575 -0.30350143 1.9739745 0.7728893 1.4672332 -0.9836971 -1.5169047 -0.08065096 -0.17100747 0.215381 0.88856965 -0.14964435 -0.42594308 0.8173424 -1.3416244
1765 -0.2932597 -1.0652161 -0.437191 0.8338511 0.03386646 0.8343872 0.32852918 1.5336375 -0.03591752 0.9763851 -0.21010642 -0.06480429 -0.45404428 1.0818125 -1.178697 -1.6191612
2606 0.4028174 -1.6146955 0.45901346 1.3308462 -0.35156202 -1.3179678 1.2465074 -1.1184698 0.46300605 0.61587656 0.976106 1.6093365 -0.54946256 0.055402 0.4929378 -0.98310554
36 1.1104032 1.1111265 -0.12026151 2.6962025 2.0570543 0.4443568 1.4327301 -0.40894726 -0.7184107 -1.6604031 0.9032976 0.5190907 2.5354173 2.429276 0.49500364 -1.1435372
2473 -0.23211022 -0.17293073 0.4660495 0.19648805 0.42088348 1.1644752 0.8600119 -0.5306117 -2.4428654 -0.1136831 1.1230183 0.33555406 1.0446128 -0.31511852 -0.5335649 -1.4328951
3375 -0.5208822 0.5437388 -1.1358737 -0.19880514 -0.8333591 -0.05468976 0.30140594 0.31077957 0.1805333 0.15827732 0.26338968 2.2978258 0.06553257 1.0755599 0.50653905 -1.3403686
2404 1.0483357 1.1338491 -0.17347385 2.560641 1.9902437 0.5589075 1.3906217 -0.7696999 -0.8932501 -1.7538773 1.2460548 0.5590733 2.3123565 2.4164667 0.48874307 -1.0204003
2370 -0.33263275 -1.2798927 0.050539162 0.5407885 0.47896585 1.4737388 1.7615845 1.1748384 0.40085432 0.78466165 -0.40588874 -0.8602024 0.24535337 0.9049908 -0.9611637 -2.227305
3494 -0.13162546 -1.3222209 -1.0855523 1.0693443 0.3931598 0.72756207 -0.57319593 2.0705168 0.24595813 0.78692746 0.52286565 0.46583876 -1.2742144 1.15946 -1.2134484 -2.6213617
1881 -0.20281455 -1.2477003 -0.1579551 0.6646456 0.18287238 1.1049666 1.3297302 1.2224844 -0.039826244 0.9858403 -0.47029936 -0.74707067 0.107757516 1.0087318 -1.2489449 -1.9894754
1645 0.031881895 0.5519932 -0.4714513 0.0821232 0.80017227 -0.47298726 1.088454 0.2042803 -2.0730093 0.7281397 1.3385551 1.4597936 0.86665803 -0.48559904 -0.9035102 -0.8673378
1948 -0.21934259 -1.2015542 -0.42108542 0.8000789 0.12334726 0.9095593 0.79107517 1.3150783 -0.083925486 1.0430356 -0.4704952 -0.3596083 -0.21031244 0.992434 -1.2088698 -1.6599523
2340 -0.024004491 -0.20711589 -0.21220876 0.20276287 -0.34696302 0.34170806 0.0018185705 -0.2920902 0.41913882 -0.21789798 0.8012863 1.6635733 -0.084968105 0.52693665 0.42909938 -1.1297634
1851 -1.8122809 0.4466801 0.1397023 0.87153584 -0.24959415 -0.18550576 -0.47666806 0.6165212 -1.0541475 -1.126836 0.753065 0.08466837 -0.8731443 1.8380619 0.3284876 -0.7084651
1054 -1.8078781 0.16649188 0.07195004 0.92201394 -0.29356876 -0.5191537 -0.5132894 0.7616493 -1.1058946 -1.0948688 0.87443286 0.28732285 -0.8046007 1.6732332 0.24920996 -0.66580456
3111 -1.9992715 0.47583267 0.3399001 0.8235289 -0.25668955 -0.34127668 -0.5994059 0.6607039 -0.92854893 -1.0055655 0.5499031 -0.16880354 -0.6603387 1.8591473 0.6584109 -0.7977704
1528 -1.6555837 0.47516546 0.04774444 1.1009972 -0.03734886 0.17289385 -0.16361396 0.45743147 -1.1731926 -1.0693123 0.9374488 -0.020700771 -1.0108676 1.5714779 0.042195134 -0.5651169
807 -0.5080182 -2.5156763 1.0988678 0.41646543 1.9852673 -0.7817543 -1.6460674 0.24443562 -0.7547387 0.06695068 -0.20179778 0.858536 2.3961518 2.1175327 0.12629625 -1.6124109
1024 -1.4144279 1.1223495 -0.0728759 1.2702858 0.24749677 0.6832263 0.17862743 0.0071911374 -0.6358807 -0.99294204 0.5277761 -0.2821792 -1.2863201 1.2965094 0.42859796 -0.85686296
1890 -0.8291375 0.033473738 0.9159056 1.6318132 -1.0704654 -2.012838 -0.24711432 -0.45665264 -0.22999083 -0.10692168 0.0046788873 0.26273796 0.5678524 0.7979285 0.8444327 -1.3618578
2863 -2.0614798 -0.8751675 -0.7408694 0.34873787 1.3087505 -0.037275497 1.9579514 -0.18495469 1.4288473 -0.68041366 2.1111672 0.71370757 1.3041502 0.30408892 -0.4315785 0.24091622
2071 -1.0599998 -0.78872126 0.20576769 -1.2011251 -0.34201625 1.0538158 0.98233217 -1.4131287 -2.4896262 -0.17717247 1.1673393 0.07456394 0.23730917 -0.5269406 0.42937723 -1.6831567
601 -1.3997467 1.4477141 -1.8029431 1.6878082 0.6013694 1.1929435 0.6973244 -0.3416351 -0.24661668 0.032055933 -0.8910457 0.9271268 0.6198756 0.11019972 -0.41395473 -1.3987672
2027 -1.014839 -0.4205736 0.73306155 2.2179782 -0.487488 -2.2919924 -0.25012326 -1.2199941 -0.0773178 0.48974437 0.07251877 0.80662465 0.37334296 0.80863035 -0.31411827 -0.94545287
369 -1.0106208 1.1862683 -1.4088876 1.6940441 0.25132266 0.74334484 0.66848755 -0.3048696 0.3034099 -0.34113836 -0.14056459 0.73106694 -1.3399465 0.6874045 0.24680738 -1.2076726
371 -1.8272796 0.29723406 0.10206337 1.0533745 -0.06421442 -0.12696975 -0.4645928 0.62242264 -1.312493 -1.1001915 1.0368929 0.21513513 -0.8557854 1.6588928 0.18766949 -0.5761663
1155 -1.560765 1.3777612 -1.90331 1.7193785 0.6382533 1.2846164 0.75162935 -0.29680076 -0.32010022 0.14338657 -1.091313 1.014755 0.7600358 0.013300818 -0.4339933 -1.4734843
2312 0.07922054 -1.5518328 0.3237271 1.1606311 -0.2836196 -1.5968834 0.9831542 -1.1326739 0.29698196 0.7575743 0.82168883 1.7271909 -0.24615827 0.23985407 0.415341 -0.7428285
2240 -0.992831 0.7818754 0.8678686 0.50528055 0.36531898 0.4547395 1.1413519 0.23515345 0.47824085 0.711421 0.8564334 0.35414082 0.07495966 -0.7864618 3.1742249 -1.4232624
776 -1.0952941 0.1647046 0.0806109 -0.22461148 2.3263042 -0.08844636 1.2228472 -1.2712821 -0.66051793 -0.32098562 -0.3963537 0.9911155 -1.5999994 0.42900312 -0.38696462 -0.95651966
2025 -1.8533099 0.3694383 0.9515001 0.9781915 -0.3591634 -0.74089634 -0.5023763 0.7571595 -0.7887193 -0.9468632 0.16693752 -0.30602804 0.29514283 1.1891112 0.86485827 -1.0948344
156 0.62014174 -0.19821166 -0.89708555 0.900816 0.41282842 -1.3631319 1.2288947 0.92848796 -1.5701104 -1.2004215 0.6984748 0.12764117 -0.33959782 -0.7800599 0.7236221 -1.693386
2856 -2.4029393 -0.55770856 -1.7429708 0.037771054 0.6925885 -0.62382764 0.4297796 -0.16550365 -1.0364757 0.88261133 -0.28988218 -0.8075342 0.46080434 0.883365 1.2832983 0.02794728
2959 -1.1559476 -2.2674205 -0.25505736 1.72683 0.61096483 1.5322518 -0.9958991 -1.3752867 0.21747914 -0.075141296 0.3240819 1.2567874 -0.13011053 -0.45457527 1.0582889 -1.2906435
3199 -1.1446388 0.27127808 0.45506093 -0.23142213 2.318818 -0.03350532 1.5844662 -1.6358589 -0.21069106 -0.25135556 -0.5828238 0.8943978 -1.6117901 0.7632687 -0.24862203 -1.0977817
3441 0.5551906 -0.74272084 -0.17624344 -0.28342158 0.73503155 -1.6371571 1.5238874 -0.79114485 -0.310722 -0.4642755 0.6450223 -0.027329536 -1.2578568 2.5245779 -0.02991719 -1.7049611
97 -1.0064536 -0.0015895122 -1.2099961 0.51023006 1.2571713 -0.7259889 -0.14884219 -0.95945 0.18190166 1.2052968 -0.8234775 -1.338859 0.5646239 -0.1828476 1.1740417 -1.3983974
538 -0.027134296 -0.044904597 -0.041296035 -0.005769954 1.5190148 -0.51776624 -0.12721208 0.32943144 -0.40415093 1.5204529 0.64870703 -0.6966609 -0.38778302 -0.34415534 0.8778709 -1.4301506
809 -1.7494494 -0.2909637 -0.73659706 0.001507487 -1.1350319 6.4533786e-05 0.25816733 0.2840186 0.9419674 0.8438874 1.4172404 -0.53335625 2.1499763 0.8531284 -0.9366947 -1.9981254
868 -1.0205315 1.0407511 -1.519047 1.1516281 0.5154518 1.054771 0.84480935 -0.5158943 -0.543593 0.4994046 -1.1672543 1.191021 -0.20238416 -0.24187021 -0.17399877 -1.3923934
2577 0.71819717 -0.34407505 -0.623936 0.86001295 0.26940784 -1.0215989 1.3597639 0.8599113 -1.4162418 -1.2219726 0.6089149 -0.24603015 -0.28603753 -0.9214845 0.7577373 -1.9616477
2372 0.6379349 -0.111097254 -1.2798942 1.0953686 0.31317613 -1.3468486 0.20032163 1.2383356 -1.0413606 -1.312931 0.9862115 -0.4366621 0.14628285 -0.87186205 0.6770244 -2.7566185
1746 -1.6695777 0.6287873 -1.03523 0.59432465 -0.95201266 -0.3009652 -0.076115124 0.77369505 -0.47692373 -0.43915668 0.9820034 1.5320616 -1.065121 1.0489786 -0.22742105 -1.1700727
1608 -2.094822 1.0014677 0.117469646 -1.2255908 1.6228992 -0.9403193 -0.10101295 -0.18803309 1.2454286 -1.5642757 -0.5493477 0.20638189 0.41102228 -1.1683387 -0.7957889 -3.3492923
1914 -1.8302599 0.112141185 0.008719122 0.98618716 -0.40663084 -0.42168906 -0.5203562 0.7861292 -1.1699224 -1.0578171 0.8948186 0.38881046 -0.81864345 1.5975643 0.21263874 -0.6905319
2439 -1.3179449 -0.22576205 0.8313617 2.4615343 -0.51856446 -2.1877096 -0.014049455 -1.373129 -0.22585063 0.7629187 -0.19834879 0.9159875 0.7727464 0.60521644 -0.613978 -1.0034429
165 -0.99199784 -0.7249727 0.054734137 -1.2664732 -0.3587728 0.97588617 1.0033209 -1.4981633 -2.528309 -0.07223388 1.2880852 0.0011023602 0.0052346927 -0.48708707 0.5133731 -1.6366414
215 -0.35857314 0.4143545 0.70320225 -0.3267086 1.7171228 -0.8902604 2.3560224 -1.1374153 0.0410682 -0.090613134 -0.5398294 -0.2362163 -0.80454206 1.8182324 -0.36805344 -1.1830633
1350 -0.7532653 -0.15482064 -0.2585436 -0.22062081 1.8557768 -0.61727965 0.6629357 -0.46350446 -0.9683004 -0.35209188 -0.13297276 0.84684676 -1.3637083 0.31525537 -0.35111958 -0.68938774
1981 -1.8569261 -0.73664165 -0.38459554 0.12249916 1.2519709 -0.49841642 1.9935081 -0.0018175651 1.5155783 -0.68027186 2.2891378 0.75171113 1.4680314 0.53375953 -0.17384824 0.06771368
3311 -0.98435414 0.009876441 -1.2474852 0.5197561 1.0747246 -0.8028716 0.044239726 -1.1226838 0.31447628 1.1920432 -0.813138 -1.3401264 0.60400265 -0.18166478 1.0976816 -1.4246541
2326 -2.3818204 -1.3487662 1.2345386 -2.1467462 -0.60599715 0.7209058 1.8547331 -0.89318883 -1.9442974 0.556261 -0.21630272 0.6503727 -0.616933 0.25071758 0.65081847 -1.6763113
1381 -0.61610776 -0.67668635 -0.10123638 0.34335992 -0.64069355 0.7303867 0.54935974 0.97179174 0.011276782 1.1383134 0.15314889 -0.32788408 -0.39992693 1.241993 -0.896424 -1.5863581
2997 0.41964144 -0.30955642 -0.88224816 0.73354185 0.5690158 -1.4625793 1.1869171 0.7469765 -1.5883921 -1.0144538 0.7385632 0.4403198 -0.44703397 -0.50555366 0.5862284 -1.2062557
2746 -1.1031089 -0.8167066 0.10560844 -1.1761107 -0.36194652 1.021974 0.9553541 -1.5100204 -2.5265694 -0.1490003 1.2586284 -0.05415267 0.15942752 -0.5503952 0.5013384 -1.670393
1265 -0.9792948 -0.69233745 0.2690217 -1.0782571 -0.29949734 1.0191921 0.9291863 -1.3111597 -2.4554873 -0.15190424 1.102136 -0.011692861 0.30657828 -0.503438 0.33025137 -1.5940006
2181 0.12049416 0.741069 -1.211917 -0.21036051 -0.44352552 0.40070274 0.45098907 -0.37527156 0.43579414 0.44145298 0.23370747 2.3944814 0.5299199 1.2037438 0.7071282 -1.6984534
2770 -0.65582293 0.7304975 0.4517726 1.1433667 1.1818517 -0.019839063 -0.5586735 0.18463507 -0.4188942 2.3027062 1.3960924 0.14623281 -1.1431494 -0.056001704 0.5656648 -0.8479404
1834 1.1024475 1.0975775 -0.2533086 2.6060593 2.0765514 0.48476437 1.3981642 -0.55445105 -0.7851918 -1.8028104 0.992537 0.50706494 2.2814443 2.4806643 0.33576557 -1.0169634
1721 -0.29160294 -0.3703026 -0.25026572 -0.12459676 1.5234385 -0.59913015 -0.1875902 0.38683096 -0.27636185 1.2626399 0.43095928 -0.7681096 -0.3503306 -0.26651758 1.0352423 -1.3624688
3315 -0.31528047 -0.29429114 -0.0950623 -0.14014968 -0.61974746 0.4012453 0.60471404 0.09734901 0.8070461 0.8594945 0.913291 -0.77917534 0.81212777 0.6856381 -0.51545125 -2.2408721
1318 0.8418912 -0.38445663 -0.35793698 0.67349046 0.07677288 -0.46573082 1.8283081 0.5750123 -1.6051397 -1.1620711 0.77327406 -0.59442604 -0.18522598 -0.98919815 0.8300267 -2.298262
794 -2.247012 -0.7996212 -0.4616208 0.7187194 1.2510157 0.5814824 2.2043188 -0.34562367 1.1157944 -0.7288056 1.9600154 0.50300974 1.0567583 0.10195085 -0.5893617 0.27714646
2198 -2.1731517 -0.26095995 -2.2846563 0.7549559 0.98706126 -0.2588656 -0.0284261 -0.36949965 -0.951206 0.76296526 0.17330544 -1.6212686 0.5279213 0.83796924 1.1525356 -0.33964646
1625 -0.007908192 -1.5365276 0.3559233 1.1950485 -0.22049662 -1.6724912 0.94715446 -1.1313729 0.30344987 0.7215097 0.8245262 1.7469002 -0.30311185 0.27107996 0.44236535 -0.74482095
3394 -0.64959335 0.044364356 -1.6211486 -0.25156084 -0.8385905 -0.2658708 0.36946303 0.13848116 0.41918385 0.48338625 -0.57342875 2.027334 -0.36726075 1.3500749 1.2044142 -1.6822325
302 -1.2942821 0.7147535 1.1280578 0.62459165 0.5075166 0.34979308 1.0363213 0.46062937 0.37901822 0.7966746 0.9908285 0.5391386 0.1253572 -0.76424825 3.1709833 -1.1891465
1284 -1.928261 0.9433191 0.08820731 1.0530561 -0.009186303 0.3252972 -0.22466734 0.40442458 -1.0338081 -1.0846015 0.4886772 -0.41851482 -1.1817546 1.8013376 0.58812857 -0.93581575
338 -0.65639085 1.1536524 -1.6418499 1.9101859 0.49794662 1.0252159 0.98934156 -0.5297097 0.09593704 0.022125222 -0.67846096 0.7732562 -0.7191219 0.1175827 -0.26794952 -1.5426931
3178 -1.0536726 1.4168397 -1.2809031 1.986839 0.41048074 0.9640995 0.7359691 -0.36798263 0.117606536 -0.5104453 -0.06280879 0.58058095 -1.3244007 0.8181365 0.13730347 -1.2892416
976 -0.042846035 -1.2020849 0.061795752 0.5808203 0.42850035 1.2675238 1.7283067 1.207448 0.22627364 0.73462015 -0.3163869 -0.84527344 0.22444578 0.84372526 -0.9194562 -2.1711853
1257 -0.02730983 0.7285533 -1.577255 -0.47217742 -0.4402517 0.1592546 0.4676185 -0.4144715 0.20060767 0.55141217 -0.3468944 2.3573613 0.37396923 1.4071479 0.89568186 -1.7938263
2919 -1.2353696 0.80253065 1.3131975 0.6317862 0.48040166 0.5119328 0.81471944 0.4432773 0.3833761 0.75653833 1.0969491 0.6143559 0.14074488 -0.7033118 3.1040866 -1.2867124
3421 -1.0858943 1.3641502 -1.2878897 1.8133557 0.20087974 0.75105995 0.6553178 -0.23786098 0.24532953 -0.42395633 0.0009033423 0.660039 -1.3759142 0.832462 0.21836625 -1.188626
1029 -0.7168977 -0.086755976 -1.5819111 -0.3124943 -0.8917354 -0.29770347 0.2967242 0.21667431 0.43522808 0.3851076 -0.51404953 1.9864717 -0.4667616 1.3124859 1.210247 -1.6951375
175 -0.67049754 -0.8249533 -0.08599882 0.5354595 -0.46995035 0.81991243 0.39742896 1.2957821 -0.17071623 1.0157441 -0.09573058 -0.11982819 -0.5137161 1.2447238 -0.93196553 -1.5570194
260 -1.3691115 0.25347805 1.5662789 1.44167 -1.1241297 -1.1045454 0.1577673 0.043205444 -0.41275343 -0.7247389 -0.27325395 0.21537097 1.0150766 0.53099734 1.0508177 -1.5461297
2771 -0.9942147 0.24042669 -1.5353419 0.7668868 1.452572 -0.6247449 -0.3406419 -1.1438848 0.11705245 0.9882853 -0.6367377 -1.3672104 0.63301504 -0.16609646 1.2240974 -1.4580331
1792 -0.73212177 1.2106655 -1.6480988 1.9273933 0.39999038 1.0123378 0.91303885 -0.41727436 0.24088542 -0.09525115 -0.49196622 0.8006222 -0.7569769 0.23699313 -0.12853964 -1.4789542
1252 -1.154548 0.66274273 1.0102012 0.51701325 0.32263198 0.29546133 1.1739688 0.33651978 0.38403675 0.8677397 0.83934176 0.3774873 0.30655444 -0.7313298 3.1846733 -1.2162911
3295 -0.8670448 -0.78182 0.31709352 -0.37072274 1.7744349 0.5903659 -0.22780252 1.3704083 -0.3044456 0.22376595 -0.56820995 1.085039 -0.31381252 -0.160217 2.0549264 -1.6738373
