3597 16
930 1.7269125 1.4744185 0.3822601 -1.2486095 -1.1258402 0.39072415 1.1723375 -2.0733697 0.8593768 1.2575655 -0.17090076 -1.2985926 -0.22360127 -0.13021827 -0.42326877 0.2385536
2818 -1.8277686 0.19526702 0.5920126 0.8877758 -2.3051944 -1.2630025 0.9349119 -0.49013892 0.97004473 1.5463033 -0.3265526 -0.30676046 -1.4109046 -0.21994302 0.48631486 0.67939013
2184 -1.7274662 1.0313443 0.36479634 -0.62079555 -0.88593554 -1.8875564 0.6778073 -1.1261462 2.2436306 0.24657516 1.8341407 -1.1979842 -0.15058427 0.21888213 0.33155456 0.48730665
3584 -0.06933187 -1.0026035 1.5580555 -3.1342287 -1.6522509 -1.0235717 0.0010090421 0.55838454 0.7078099 1.3445323 -0.52653825 -1.7091649 -0.88810205 0.2205584 -0.60244346 -0.6919468
1370 -1.6581608 0.8895028 0.37887013 -0.97890466 -1.0389495 -1.829636 0.824808 -1.2188181 2.103681 0.27911237 1.9673766 -1.1578795 -0.12634592 0.038699612 0.33170506 0.41085893
3231 -0.22701944 0.818055 0.5867955 -1.7426624 -1.7246108 -0.31685597 2.0251281 -1.8631046 -0.077219985 -0.83816946 0.58486384 -0.6037656 -0.9253059 1.3846047 0.6222186 0.99242723
367 -1.8984039 0.17911069 0.49592364 0.7987586 -2.3886738 -1.1766919 0.8466441 -0.5274793 0.91076136 1.4215328 -0.3200411 -0.3930441 -1.4550356 -0.29089084 0.55041826 0.70734894
1004 -1.7354033 0.98562443 0.41361493 -0.75542617 -0.931726 -1.8462775 0.7429922 -1.1251137 2.2220485 0.26607376 1.9243752 -1.2283703 -0.10473276 0.10885195 0.37472737 0.48514032
592 -1.6726289 0.9702254 0.38826057 -0.7384094 -0.9365832 -1.8474149 0.7271452 -1.1450077 2.1788666 0.22475259 1.8797494 -1.1915615 -0.13676846 0.15604845 0.32052225 0.5015768
256 -2.0512645 0.7036871 2.0241733 -1.4893402 -0.8756098 -1.5077727 -0.049249623 -0.7485271 -0.59514356 0.76243496 0.06503126 -0.01369688 -0.77289706 -0.06706534 -0.7884582 -0.8005919
2122 -0.54384494 0.6196188 0.89764595 0.95081913 -0.9379979 1.454309 0.95448864 -1.4289992 0.7884511 0.53286886 0.367882 -1.6664678 -1.6479636 0.7496434 -0.32291868 -0.23442608
2521 -0.7673026 1.4824196 0.8827134 0.6580435 -1.3050373 0.74272436 -0.3939628 -1.1446718 1.1971965 0.17508402 0.2559371 -1.3938695 -0.6778606 0.6682792 -1.4195672 -0.98005384
2091 -0.11766949 0.7597895 1.4251469 0.24247019 0.529669 -1.8384657 1.1342599 -1.491703 0.76804173 0.46672258 -0.15528306 -1.8740671 -0.72987497 -1.0089557 0.35377026 1.084087
200 -1.6154541 0.98433584 0.30643576 -0.7464487 -0.9306648 -1.8310033 0.78315324 -1.1289304 2.1859615 0.23996297 1.8960255 -1.2297847 -0.13579488 0.11195913 0.29952666 0.4460089
3427 0.5952177 -1.2115316 0.9055414 -0.90373236 -0.9917535 -0.77598333 0.20547323 -1.3328586 1.1692731 -0.07622777 0.6203417 -1.3595723 -1.9271773 1.6372794 -0.17450286 -0.5931429
1970 -0.7997255 0.066128604 1.1257356 -1.6641911 0.33435985 0.2569575 1.5388805 -1.0857323 2.17556 -0.040415287 -0.65839374 -0.9173649 -0.1142798 0.33825198 -1.1191862 -0.2796784
1491 -0.0288584 -1.024371 1.5035566 -3.080268 -1.6221234 -1.0923574 0.02836292 0.57875955 0.75219756 1.3395394 -0.5102215 -1.807215 -0.76912254 0.24567129 -0.5712991 -0.6912411
2424 -0.6439362 -0.35516733 1.0385973 0.41444513 -2.361833 -1.5262548 1.1722492 0.5619996 -0.5333863 0.6224066 -0.07024517 -1.5570424 -1.2144221 0.39153424 0.028105037 0.036451545
2909 -1.3380613 -0.46966395 0.5971161 0.31541532 -2.3676188 -0.78855276 1.2477843 -0.5871291 1.4737881 1.2960466 -0.5101213 -0.2983983 -0.93279994 -0.5487124 0.09282686 -0.16996117
2488 -1.9204806 0.5699767 2.1216261 -1.4093409 -0.692207 -1.6242157 -0.0720082 -0.6100587 -0.55675 0.8434411 0.18807805 -0.08907556 -0.9050621 -0.1899373 -0.7941028 -0.81891686
1081 -0.36418185 1.0639191 1.6005477 -1.0779258 -0.6792706 0.16474943 0.9135869 -0.36264303 -0.530473 1.7413225 -0.109943785 -1.7840164 0.7101461 -0.09445016 -1.057126 0.9047253
648 1.7168583 1.6443981 0.05763294 -0.9926282 -1.1559812 0.13488714 1.1382952 -1.9038643 0.8270648 1.2326672 -0.65706813 -0.9617445 -0.72160554 0.5819931 -0.7791401 0.010989626
1371 0.5592815 0.442259 1.4754511 1.3537579 -1.7044861 -1.6041031 0.503285 0.62261635 0.29402673 0.8144105 -0.18227075 -1.806496 -1.1738936 0.41184402 -0.9934428 -0.099273704
366 -0.09845875 0.35000983 1.4041538 0.20526716 0.4550929 -1.7291955 1.3532299 -1.4460578 0.9748394 0.5652018 -0.19449475 -1.8179826 -0.80156255 -0.98383427 0.5795296 1.3749586
496 -1.5615344 0.90660363 0.38446024 -0.9218647 -1.0118834 -1.7968607 0.8934444 -1.205437 2.1486847 0.24369644 1.9400581 -1.1743892 -0.068743795 0.08069477 0.31631747 0.46836716
1432 -0.5591934 0.54056776 0.7187556 0.84935474 -0.8373538 1.4907314 0.9702681 -1.3661597 0.7776427 0.5664243 0.29397213 -1.6663213 -1.7277216 0.8017072 -0.3771038 -0.026450424
3456 1.7180238 1.801672 0.0955885 -0.9036936 -1.099711 0.058440093 1.152526 -2.0990028 0.9397689 1.3702753 -0.562514 -0.9777332 -0.6777154 0.610543 -0.7401697 -0.06860389
1887 -0.57808 -0.4391736 1.1934144 0.5093153 -2.2680473 -1.4540285 0.9633778 0.5920751 -0.5394285 0.6973893 -0.11807067 -1.6189269 -1.2721076 0.39171204 -0.19077763 -0.0013030093
144 -1.2192811 -0.4816954 0.7040193 0.37350333 -2.398234 -0.9623663 1.1976075 -0.08172538 1.4064324 1.424334 -0.23209484 -0.66214335 -1.0763061 -0.5612969 -0.0254092 -0.7130237
589 -0.6872512 1.5165646 0.8706819 0.42667654 -1.6596267 0.44625056 -0.5113237 -1.3358762 1.238529 0.14220718 0.5767798 -1.3534427 -0.22321406 1.168588 -1.0303637 -1.0432806
2890 -0.23601082 0.85863584 0.56355876 -1.5937101 -1.6572213 -0.32725716 2.0935838 -1.8050057 0.011829646 -0.8170842 0.5595198 -0.5827533 -0.902151 1.4199331 0.64266866 1.0765314
3181 -1.2748046 1.3809053 1.2569572 -0.4787664 -0.29062283 -1.6302997 0.042745132 -2.0560658 -0.8774176 -0.10751357 0.29991564 -1.0752498 -0.9214317 -0.16697589 -0.14013708 -0.45058694
3503 0.5774067 0.4214371 2.545055 -0.99469614 -1.4060746 0.4271287 0.49441418 -0.61819804 0.034461413 0.8381263 0.020190801 -1.9405138 0.07338619 -0.57328403 0.9176617 0.089593634
1701 -0.22711557 0.7591111 0.57384235 -1.5066482 -1.510746 -0.4902998 2.2147014 -1.6619078 -0.012406728 -0.6961306 0.60474616 -0.6649198 -0.75466216 1.5501482 0.6099968 1.1100286
159 -0.33500785 0.8707764 1.672286 -1.0304556 -0.79342467 0.10411184 0.8145898 -0.36109015 -0.44028082 1.8685615 -0.10766798 -1.7938454 0.69582576 -0.24687763 -0.8782973 0.9413823
724 -1.4120843 0.7479563 0.6635566 -0.3819811 1.1104538 -1.0120713 0.21227188 -0.49149868 1.3240665 1.3706787 -0.96574134 -0.61532634 -1.5101197 1.3287455 -0.5322178 0.069971755
3343 0.35036927 2.0176485 0.8038735 -1.3978148 -0.7938216 -0.43087322 0.6041301 1.3893855 1.4224098 1.6625744 0.025104182 -1.0032903 -0.42103583 0.5990897 -1.0456921 -0.56297123
64 -0.96900797 0.33457723 1.9510728 -1.0220901 -0.17272085 1.7351619 0.8004275 -0.9607227 1.4915096 0.098933145 -0.76901436 -0.9748057 -1.4664347 -0.19379126 -1.430428 -0.20384851
2791 -1.7280612 0.7023024 0.22853336 -0.8486737 -1.1980872 0.6737494 -0.3766569 -0.9266552 0.76088476 0.49811015 -0.10226945 -2.2224896 -0.095182516 1.2457647 0.18686277 -0.6711051
266 -0.99814284 0.46887675 2.060049 -0.9374466 -0.24937905 1.7393866 0.74604493 -1.0528812 1.46835 0.0025837272 -0.6357375 -0.8998782 -1.3835593 -0.11208896 -1.4997692 -0.393513
1125 -1.2822207 0.14437498 0.33857363 0.486928 -2.316415 -1.2202363 1.5011169 0.17781994 1.0824919 1.669879 -0.07127073 -0.53710693 -1.0448225 0.01125133 0.118271686 -0.48649323
288 -1.6506051 0.87859464 0.40037474 -0.9654738 -1.0306554 -1.7631426 0.7878866 -1.2430594 2.0689034 0.34622124 1.9454004 -1.1400652 -0.11064497 0.014934636 0.4113318 0.4111973
3208 -1.0428694 0.32629272 1.808089 -0.85731095 -0.20798542 1.7942264 0.7177681 -0.8919699 1.4383825 0.07963589 -0.6095537 -1.0856011 -1.5228084 -0.25517473 -1.4456215 -0.2037796
804 -1.2963597 1.5327882 1.2251124 -0.5979394 -0.47209275 -1.7234424 -0.012682056 -2.0685549 -0.9631398 -0.082762554 0.26743492 -0.88259125 -0.7226765 0.08893037 -0.32302362 -0.52969563
719 1.6782533 1.7949809 0.108866334 -1.1844236 -1.0650845 0.13331431 1.0424615 -2.0350702 0.9345829 1.299461 -0.3333074 -0.9615861 -0.8073115 0.39692295 -0.695309 0.27763912
1480 -0.79872465 0.15515617 1.1415718 -1.7064344 -0.06543456 0.7900815 1.4320477 -1.2061138 2.1514194 -0.113029994 -0.51228195 -1.1990883 -0.07472281 0.22082007 -0.93174475 -0.67852414
2719 1.6918166 1.709243 0.1576303 -0.85489786 -1.2186393 0.026145922 1.2094351 -2.010453 0.8606274 1.3835734 -0.6629672 -0.91709214 -0.6111933 0.51652056 -0.71421105 -0.07305756
2278 -1.258422 1.6344137 1.1989731 -0.4282186 -0.36257213 -1.8164158 0.0051358207 -2.0375845 -0.8346278 -0.048156083 0.28334805 -0.9647725 -0.62627244 -0.076330274 -0.28026763 -0.5547833
2789 -0.9359166 0.388542 1.9109803 -0.99396414 -0.20741463 1.9062824 0.68030596 -0.96805614 1.5214081 0.11095327 -0.56239796 -1.1135453 -1.6453284 -0.2300053 -1.3961189 -0.2325827
1316 -1.5207522 1.0456223 1.8208843 0.01236846 0.43345854 -0.78529596 0.59960246 -0.9179397 1.4047599 0.82655215 -1.6153798 -0.14614306 -1.0123221 0.97867256 0.90085936 -0.5193695
3341 -0.8362275 0.06310476 1.2402301 -1.7569566 -0.030538736 0.6218895 1.4353924 -1.1193833 2.083452 -0.20559075 -0.526638 -1.0673583 0.062060885 0.18199317 -1.0389489 -0.5017395
1162 -0.7898158 0.082202084 1.0916793 -1.6642979 0.19852674 0.43998617 1.5212694 -1.2717818 2.183964 -0.039807245 -0.60701483 -0.9162712 -0.082195915 0.27631736 -1.0458906 -0.5584194
448 1.5667523 1.9841613 -0.012470414 -1.0827284 -0.71292746 -0.10760991 1.0004808 -2.1209242 0.92750657 1.0822718 -0.07204744 -1.0450511 -0.74767584 0.6493267 -0.78141433 0.15164605
1410 1.2205198 1.820071 -0.29358378 -1.1567739 -1.2620775 -0.28444272 1.0446647 -2.1065824 0.65433407 1.3216943 -0.08049479 -0.7886446 -0.9394169 0.114619225 -1.206239 0.19776377
2218 0.007986802 1.7347943 2.4393117 -0.38380077 -0.6814731 0.23973338 0.17269443 -0.25311202 -0.5721116 0.1822643 -0.5747624 -0.7634179 -0.28538853 1.6179312 -0.36125454 1.1690583
105 0.8814572 1.3335934 2.0276911 -0.7217125 -1.7905152 -0.2064462 -0.73814857 -0.6856299 -0.24717416 0.4738465 -0.47138658 -1.2573119 -0.6490206 0.47946984 1.1917765 1.0913812
2167 -1.7640122 1.0163971 0.30670312 -0.55905914 -0.88084275 -1.9532762 0.6484689 -1.168999 2.2943177 0.18057634 1.7501959 -1.2791921 -0.19041444 0.29793972 0.274422 0.5526122
3065 -0.7733267 -0.2493879 0.37955484 0.041007616 -0.6083348 0.78838664 1.0937799 -0.19272543 1.3053457 0.54615754 -0.03709016 -1.6922456 -1.9001088 0.4346606 -1.7349305 1.257806
3209 0.17544822 0.86143225 0.47991228 -0.950769 -0.26396778 -1.9439452 -0.17949797 -0.9409114 1.5944324 1.3324628 -0.8653307 -0.74574614 -1.0051937 0.7461301 1.1921049 -1.0275258
1670 -0.12043373 0.52103364 0.6348471 -1.2397951 -1.0754566 -0.96228415 2.4772992 -1.3781748 0.05298272 -0.21936347 0.70877546 -0.9390505 -0.4217508 1.9178957 0.50604117 1.3090012
1511 -0.1843037 0.861946 0.5939115 -1.6675316 -1.6964198 -0.33320493 2.0702057 -1.8630695 -0.019900775 -0.8376086 0.60078526 -0.6435131 -0.8893148 1.4394994 0.62201023 1.0077752
3448 1.820434 1.5390146 0.2851676 -1.0197029 -1.2660038 0.2645733 1.1767125 -1.8279406 0.96423656 1.2743697 -0.7557597 -0.9882805 -0.6558851 0.6310143 -0.5905893 -0.0019733412
3286 -0.13927269 0.54230064 0.6636054 -1.2632002 -1.060107 -1.0007851 2.476056 -1.3792596 0.03971367 -0.20359264 0.7247165 -0.99275357 -0.42433804 1.9275075 0.49990728 1.2990439
744 -0.21234003 0.88171 1.0522153 -1.1242905 -2.4409397 -0.29491583 -0.14105289 -0.010566309 1.6518524 -0.31400862 -1.1251056 -0.54220384 -0.038447283 0.8105114 0.2030979 1.5867443
1489 -1.9121523 0.50359577 2.073306 -1.4098496 -0.5850328 -1.4226916 0.04349736 -0.63493955 -0.48775145 0.8316807 0.14231461 0.07746568 -1.0047822 -0.28333518 -0.803036 -0.66129726
1072 -0.011692222 -0.9975003 1.3810012 -1.0019424 -0.84295017 -0.80806047 0.09258239 -1.0809457 0.83732533 -0.5259466 0.6914261 -0.7864455 -2.437571 1.4223268 -0.4555441 -0.80229366
2546 -0.35820487 0.86326337 1.6565926 -1.0597144 -0.7940742 0.11419865 0.76505613 -0.32581988 -0.59786683 1.7970842 -0.09085759 -1.8670189 0.6203687 -0.20742494 -0.8403124 1.0466042
2390 0.3032375 0.48900717 1.3654885 1.2573189 -1.7133825 -1.514533 0.35725754 0.7706324 0.16611283 0.63205624 -0.13229367 -1.9656063 -1.3181856 0.3693935 -1.0098972 -0.10444073
383 -0.96266544 0.11905724 1.1559567 -1.832939 0.08732524 0.672768 1.2703847 -1.2251259 1.9819947 -0.09241723 -0.5857385 -0.98663265 -0.09693093 0.19814652 -0.9007783 -0.5609773
1589 -0.76406384 -0.21859068 0.41965073 0.037362114 -0.5259098 0.7943558 1.1942204 -0.10922144 1.4082339 0.6729864 -0.009074159 -1.8386042 -1.8494971 0.38703045 -1.7460054 1.2173067
39 -2.1520944 0.40744385 2.0642953 -1.4476327 -0.798109 -1.3690373 0.13122597 -0.6588464 -0.37895706 0.61704654 -0.08063749 0.20715153 -0.86931515 -0.033325423 -0.979619 -0.58341795
498 -1.3859677 -0.5189432 0.67783636 0.25028005 -2.4110768 -0.7891645 1.2221507 -0.6511858 1.4668247 1.3224308 -0.55424887 -0.33193943 -0.9815554 -0.57509357 0.115145035 -0.14428325
727 -0.07125113 -1.0474178 1.4360974 -2.9970748 -1.6140147 -1.1129831 0.105700694 0.4943412 0.72896093 1.2951434 -0.49964514 -1.6406116 -0.82841045 0.2417327 -0.59691983 -0.6605769
66 -0.708698 1.5057113 0.72032994 0.55586296 -1.7397143 0.37920815 -0.44247714 -1.2923696 1.0401871 0.19807142 0.6689722 -1.4799625 -0.2760531 0.9773796 -0.96873915 -0.99674034
998 -1.1379867 0.27073795 1.8506936 -1.00236 -0.27454165 1.7708216 0.7397532 -0.89527786 1.5577352 0.17473938 -0.6696741 -1.0770257 -1.54676 -0.23329666 -1.6009161 -0.06622439
2862 0.6978979 1.3188083 2.102098 -0.72504866 -1.7936037 -0.16408516 -0.7250097 -0.79635847 -0.23290251 0.5623588 -0.4374176 -1.2785325 -0.5239023 0.42689013 1.1186459 1.1851555
1464 -0.57959294 0.14634494 1.130392 -1.737152 0.56132245 -0.18301994 1.732822 -1.2964718 2.164664 0.1495045 -0.42988852 -0.62957036 -0.1474098 0.3990449 -1.1834425 -0.2840465
1882 -0.21782689 0.71702707 0.62829715 -1.5976881 -1.5566885 -0.49375734 2.18195 -1.7358235 -0.044005893 -0.6555378 0.6381866 -0.6790122 -0.8055889 1.5093988 0.5810908 1.1011268
35 -0.8712439 -0.22133891 0.20878766 0.07333445 -0.48264575 0.52307075 1.1283505 -0.1458984 1.3390452 0.59175855 0.13130668 -1.7759358 -1.8833491 0.5821293 -1.8398422 1.1935029
1539 1.4880891 2.0635433 -0.09850445 -1.3050408 -0.7407297 -0.08175497 0.85395736 -2.1636708 0.90640527 1.0766968 0.17408228 -0.9883742 -0.824045 0.49590245 -0.87117845 0.43517104
44 -0.49311265 0.08171313 1.1647569 -1.8022059 0.59505844 -0.074854344 1.641208 -1.2145044 2.0138586 0.22061653 -0.27138838 -0.5530908 -0.39593613 0.26529515 -1.2365278 -0.2131902
1430 -0.5306163 0.026570609 1.2009573 -1.8205206 0.3611865 0.3079908 1.5450776 -1.1984175 2.0982158 0.113686025 -0.2600021 -0.76460344 -0.23999995 0.19302136 -1.0902313 -0.28085095
2463 -1.5733863 0.59510183 0.012995753 -1.1446247 -0.6992746 0.7292332 -0.1428276 -1.1415606 1.1247195 0.45980158 -0.3272075 -2.2277563 -0.08624771 0.7696678 -0.013860047 -0.80750376
2971 0.21965446 0.84253776 0.67781043 -0.8942105 -0.056738645 -1.7344877 -0.088385634 -0.9552969 1.6561449 1.2768277 -0.85202074 -0.33346507 -1.2132825 0.7888635 1.1599897 -0.76867473
1643 -0.12824866 0.5319047 0.6359557 -1.2785268 -1.1161696 -0.9412419 2.423069 -1.3983524 0.049473714 -0.25295871 0.69243395 -0.9179043 -0.4528344 1.8770856 0.52182895 1.2805485
1544 -0.21481816 0.82293326 0.5961264 -1.5650998 -1.6188673 -0.38127524 2.0737789 -1.81623 -0.03091352 -0.77952904 0.58226275 -0.6892424 -0.8325289 1.4421912 0.57934445 1.0727007
1866 -1.4115283 1.3287654 1.2728821 -0.5973989 -0.47450382 -1.6609001 0.008115998 -2.121132 -0.96005136 -0.04186504 0.31954134 -0.9643065 -0.68963236 -0.030146401 -0.2548503 -0.49545276
167 -1.4368144 0.835598 0.4803142 -1.1872653 -1.1160146 -1.6223818 0.95856714 -1.2342044 1.9826324 0.40077227 2.0207736 -1.0995084 0.04023768 -0.18056506 0.3845902 0.35453558
1873 1.3235067 1.8678622 -0.21255402 -1.1608166 -1.0054798 -0.27026933 0.93528444 -2.1449714 0.66987437 1.2091832 0.087788634 -0.8284574 -0.8595471 0.16580583 -1.0673018 0.31191885
820 0.21958669 0.9256454 0.83622235 -1.3624022 -2.5168192 -0.90281844 -1.3879393 -0.55093706 0.84637743 0.41199857 0.17420495 -1.0720158 -0.12336415 -0.09824393 -0.11777059 1.3543273
2299 -0.229086 0.8914593 0.5713376 -1.6345425 -1.695275 -0.27674726 2.0350163 -1.8512124 0.017342106 -0.88210076 0.51844794 -0.6323641 -0.92044276 1.4008937 0.62674683 1.0385077
340 -0.37049136 0.9343127 1.7632388 -1.0271981 -0.7052832 0.20622148 0.92461354 -0.31798258 -0.42794693 1.7790909 -0.13941512 -1.7703066 0.65676534 -0.19662058 -0.88775575 0.84530705
3399 -0.19623391 0.63391143 0.61069036 -1.4017527 -1.3704929 -0.6652658 2.3040667 -1.5682704 -0.056751516 -0.48446304 0.6389606 -0.75375384 -0.62987596 1.667901 0.54336876 1.2105812
393 -1.0476798 0.90599746 1.0881947 0.011881001 0.9510316 -0.8396266 0.29624322 -0.5544777 1.2502548 1.5368873 -1.0621102 -0.36619776 -1.7748284 1.3249009 -0.088907 -0.34456366
3513 -0.7770632 -0.16008957 0.43875247 0.24789985 -0.53214353 0.90823936 0.95046794 -0.2165465 1.5030453 0.74741024 0.22463451 -1.959675 -1.6674234 0.47838572 -1.8285168 0.9502251
1402 0.82432663 1.2900182 1.8765062 -0.70333636 -1.8282894 -0.183945 -0.7318193 -0.8480189 -0.24089947 0.7498298 -0.3611461 -1.2377037 -0.57633567 0.36815178 1.1181184 1.1455342
3107 -0.263045 -0.0926679 1.2716094 0.6173277 -2.1725435 -1.6151199 1.140577 0.52587104 -0.6871687 0.64814544 0.06127511 -1.4800531 -1.1094531 0.65469617 -0.51983935 0.073250055
3278 1.3847812 1.7607021 -0.17657155 -1.4345342 -1.1676464 0.002256344 0.9538951 -1.9952943 0.64084756 1.1193057 0.010909451 -0.9139393 -1.0231273 0.17807007 -1.0767084 0.43664962
1536 -0.5816777 1.5488 2.1237228 -1.027139 -0.70711046 -0.17350432 0.9549454 1.4402078 0.76712894 0.25588122 0.8120145 -0.31481764 -0.81897503 0.9439156 0.1263158 0.5368795
2265 -1.1038377 1.5727932 1.2179133 -0.4282245 -0.21258296 -1.7842298 -0.07141075 -2.0217156 -0.72518057 -0.09592095 0.32028818 -1.082475 -0.724564 -0.17408383 -0.2624938 -0.4459608
61 -0.20475428 0.84463704 0.6004115 -1.6086748 -1.6753547 -0.32440135 2.0856144 -1.8431399 0.0058587035 -0.79808265 0.60125643 -0.6285938 -0.8973627 1.4390372 0.6711834 1.0825084
1470 1.1004922 1.7294072 -0.40417665 -1.2177905 -1.2438242 -0.34659052 0.94784373 -2.0878792 0.5883387 1.2545431 0.013499822 -0.72932154 -0.96198624 0.0918542 -1.3262922 0.31957632
2910 1.541927 1.5686611 -0.03354744 -1.0251878 -1.4180423 0.016592138 1.1306014 -1.9338706 0.8070033 1.3928583 -0.6768795 -0.71541035 -0.81330353 0.42250782 -0.93095636 0.16185907
1074 -0.3091308 0.83858234 1.1119127 -0.97197694 -2.3996532 -0.17734595 -0.07732625 0.059822727 1.7151705 -0.38687354 -1.0373644 -0.50426453 -0.089265905 0.82723 0.27100468 1.593566
3084 0.15868224 1.2422919 1.431507 -1.0393698 -0.67813617 -1.52421 0.369971 -0.21433774 -0.2590757 -0.7457795 -1.19094 -0.5279835 -2.3122418 -0.84904397 -0.47078067 0.30652082
3238 0.82863915 1.1974534 1.8981117 -0.7662868 -1.9321973 -0.2950296 -0.6760447 -0.67832863 -0.22827242 0.6589975 -0.40881863 -1.3529019 -0.5776633 0.38897783 1.2576773 1.1999793
736 -0.8727967 1.5559207 0.7567936 0.6867678 -1.185367 0.76610684 -0.32513407 -1.14971 0.96675074 0.5150502 0.3068154 -1.5128099 -0.8003075 0.8483107 -1.2957833 -1.0694414
1910 0.1314606 0.41344285 1.430869 0.1515866 0.48130178 -1.7298018 1.2883577 -1.349516 0.94717234 0.41604257 -0.23086454 -1.8126358 -0.8953095 -0.99167836 0.39204332 1.3845702
475 -0.96307445 1.2729882 0.86597806 0.41387552 -1.0744611 0.95168585 -0.4028535 -0.9684151 0.94068563 0.5692432 0.2982716 -1.5331951 -0.7764854 0.7259629 -1.4869523 -0.97144216
762 -0.23362203 -0.4105631 1.7735347 -0.8904973 -0.7835611 -0.80983096 -0.28959903 -0.44874713 0.95576644 -0.9720846 0.8800604 -0.38880032 -2.3074903 1.0426124 -0.89360857 -0.27166772
434 -0.22345857 0.8107947 0.5832968 -0.9091337 -1.0837117 -1.306218 0.96478164 -0.1300377 1.2734345 -1.1989554 -0.60455006 -0.25902027 -2.5280256 -0.77678716 -1.0249834 -0.03467506
1899 -1.7446253 0.69255096 0.26718524 -0.84500134 -1.1552626 0.74353987 -0.4117586 -0.9017131 0.82824504 0.42542937 -0.13242316 -2.0695634 0.035627842 1.405502 0.04508469 -0.5732209
506 -0.703279 1.5230634 0.93415916 0.4998965 -1.5450295 0.5302431 -0.48753208 -1.1514207 1.1759918 0.16821657 0.5201874 -1.2869034 -0.38350797 0.9591719 -1.2929215 -0.98595804
2960 0.22874881 1.0393203 1.0702616 -1.0361387 -0.84331393 -1.3865076 0.4778761 -0.33897826 0.1730426 -0.9680328 -0.981183 -0.33186093 -2.3926158 -0.6848411 -0.46012777 0.18652457
3367 0.5182938 0.21982959 1.5258794 1.2352834 -1.8382825 -1.4896809 0.6594587 0.5542954 0.2248818 0.805943 -0.14073017 -1.6209887 -1.0847561 0.2505585 -0.894995 -0.21947977
1883 0.8545206 1.2165852 1.9682705 -0.7393914 -1.7954978 -0.2818129 -0.7036767 -0.729768 -0.22400829 0.48788196 -0.38498384 -1.2028878 -0.52287745 0.47367603 1.125503 1.11666
1696 0.06788658 -0.16217928 1.2736886 0.5707806 -2.3940434 -1.6030996 1.4126956 0.39781854 -0.5086741 0.72076744 0.08712565 -1.2246138 -1.0254812 0.48810127 -0.46832162 -0.043933053
1137 -0.9694164 0.88841546 0.7232483 -0.21531771 0.7879895 -0.6775734 0.2201522 -0.6088963 1.2953962 1.6465423 -1.3783749 -0.38370073 -1.8639438 1.0884768 -0.05229559 -0.06905309
1750 0.032794412 -1.0185376 1.521209 -2.9507403 -1.5439676 -1.1121057 -0.02466503 0.5979231 0.8363599 1.2951118 -0.5365753 -1.8237995 -0.75786334 0.20601042 -0.6199465 -0.6474914
2160 -1.8311497 0.68621486 1.958353 -1.4109186 -0.8095105 -1.4181075 -0.008335999 -0.71037215 -0.6812118 0.84130555 0.17962456 0.060259502 -1.0209225 -0.12649518 -0.75806844 -0.77940756
3320 1.4421992 1.8385391 -0.05831675 -1.0275874 -0.95743287 -0.2414449 1.099315 -2.1627972 0.79082566 1.2781847 -0.1215234 -0.91146815 -0.72947526 0.34002483 -0.9076125 0.16988854
1667 0.29466954 1.9597523 0.8793175 -1.4256623 -0.77160066 -0.3998043 0.7531611 1.4344941 1.4222479 1.6752989 0.12055563 -0.9015949 -0.5510318 0.5581227 -0.85429853 -0.59623605
803 0.5820769 -1.166058 0.9773705 -0.9432881 -0.9770894 -0.74074286 0.19128108 -1.3417777 1.0393456 -0.06912266 0.58369184 -1.1517622 -2.1436355 1.5199028 -0.12078965 -0.6365539
3350 -1.527937 1.1624228 1.7863919 0.099646926 0.49548867 -0.8025185 0.6045541 -0.85974306 1.4452546 0.91482884 -1.5590245 -0.24296223 -1.1079042 0.9895944 0.88445306 -0.604311
2203 -0.41237178 0.13577986 1.4562111 -1.781114 0.43445963 0.090727106 1.7161417 -1.3172327 2.0466723 0.08897268 -0.28502294 -0.49559838 -0.25947157 0.16795534 -1.1905086 -0.24357663
572 -0.64669025 1.5402352 0.7455601 0.6853642 -1.7630546 0.3491621 -0.3948349 -1.4131169 1.166855 0.28213063 0.7474841 -1.4862293 -0.32611662 0.9348023 -1.0757579 -0.9852205
2075 -1.798528 1.014298 0.32017526 -0.54788274 -0.86981547 -1.9547698 0.6295361 -1.1209677 2.2597198 0.18712159 1.7795793 -1.2110887 -0.17828165 0.2406507 0.30401367 0.50550437
208 0.067120574 1.7584432 2.5179803 -0.38760775 -0.721857 0.25022858 0.14748366 -0.4705955 -0.5657073 0.06539183 -0.6971879 -0.8103422 -0.24505536 1.5846524 -0.3192599 1.1612062
2249 -0.08063744 -0.51290184 1.8242724 -0.8687853 -0.7280141 -0.79977596 -0.27606255 -0.5547941 0.92960536 -0.6481265 1.060312 -0.5394812 -2.306542 1.1674124 -0.66121066 -0.27072212
2736 -0.18280548 0.9236156 0.60980266 -1.6630089 -1.7450297 -0.26166672 2.015324 -1.9534351 0.035485394 -0.9268552 0.538117 -0.63847214 -0.93755347 1.3957453 0.6126081 1.029653
2817 0.043764595 -1.0081775 1.6392798 -2.9855945 -1.5479978 -1.11769 -0.11266472 0.72242236 0.9322759 1.3181384 -0.4788271 -1.9553207 -0.7149498 0.29489836 -0.60521585 -0.6491273
567 -0.91534954 1.2988095 0.77696824 0.52125746 -0.990101 0.9838788 -0.42843926 -0.90042484 0.9504554 0.7258668 0.23358828 -1.8379495 -0.8859336 0.80584717 -1.5633818 -0.9776334
1294 0.006445938 -1.0603389 1.5033107 -2.958743 -1.511985 -1.050484 -0.069382645 0.6372589 0.8079213 1.2695632 -0.48127148 -1.7958146 -0.7306006 0.22469512 -0.6247914 -0.6476774
1084 -0.7935734 0.077864185 1.2597549 -1.8743023 0.123622164 0.5332542 1.3720144 -1.1232523 2.012481 -0.1303684 -0.54019 -0.9906877 -0.12376218 0.1403638 -0.8495283 -0.4894065
1725 -0.112182185 -0.4666211 1.8179257 -0.8669046 -0.70378834 -0.8285497 -0.3030834 -0.5516654 0.75492096 -0.7602343 0.83571607 -0.43356445 -2.4510412 1.0934719 -0.70360017 -0.3171956
2440 -0.6404186 1.6365596 2.113725 -1.1079737 -0.7493778 -0.27629012 1.0395471 1.4244298 0.78530246 0.23703939 0.8801638 -0.2561996 -0.8427017 0.92369956 0.18278019 0.62253
1002 -2.1802604 0.30049753 2.019372 -1.5416948 -0.98250604 -1.1316819 0.19845235 -0.8699809 -0.42998487 0.6986657 0.009220018 0.25813684 -0.7492607 0.07419726 -0.8575818 -0.5801194
1962 -0.45562717 -0.48766938 1.522087 -0.036799017 0.3514028 -1.315386 0.75190973 -1.85119 0.26335162 -0.27900147 -0.21844956 -1.9003719 -1.391274 -0.6694576 0.18271962 0.67531604
1451 -0.394353 1.3494443 1.0157256 0.9232812 -2.204087 0.6416227 -0.008110223 -1.9067601 0.89192677 -0.19181633 0.6816904 -1.3427488 -0.8266937 0.67362213 -0.42082837 -0.8731238
514 -1.2828711 1.6328402 1.1523349 -0.39576697 -0.20765725 -1.6230031 0.07612291 -2.1069765 -0.87007606 -0.13718036 0.28121594 -1.093973 -0.87109226 -0.21070516 -0.18490402 -0.2946816
2911 -1.3516698 -0.4784037 0.63483965 0.2013658 -2.435453 -0.7281392 1.25276 -0.7135577 1.5977039 1.2862216 -0.5499188 -0.27941173 -0.93854 -0.62659085 0.037762392 -0.1982519
230 -0.22610746 -0.08473978 1.4240402 0.030728325 0.37951773 -1.7265012 1.2459688 -1.5223802 0.7180959 0.5836319 -0.20026745 -1.79332 -0.93710333 -0.8301993 0.6122719 1.2226838
563 -0.002275196 0.38217023 1.4132023 0.17257829 0.44108224 -1.7721773 1.2915717 -1.3508595 1.0972346 0.563575 -0.2095806 -1.8562559 -0.72008574 -0.9362759 0.5275934 1.3912996
2447 0.22309926 0.618732 0.88355035 -0.74220496 -0.640237 -1.2845681 0.5764885 -0.74700683 0.40894836 -1.2318869 -0.5538001 -0.70408416 -2.75851 -0.54303133 -0.38380945 0.5388799
1133 0.25556445 1.0865347 0.9460757 -1.3928031 -2.4811792 -0.9200989 -1.4624956 -0.7282813 1.0241452 0.27328688 0.28064173 -0.9685898 -0.34766644 -0.0028817602 -0.039287724 1.2196944
7 -0.808859 -0.116941385 0.45031714 0.18581067 -0.59037054 0.95558083 0.90794176 -0.2417777 1.4158735 0.7094535 0.13577347 -1.9517804 -1.736411 0.31338936 -1.7499981 1.0601804
1777 -0.9333417 1.1702574 0.7597293 0.30121967 -0.9842415 1.0572212 -0.38591343 -0.90012324 0.97044367 0.55341554 0.04394958 -1.6582364 -0.8132143 0.60005146 -1.4714887 -0.9665784
1192 0.8965028 1.1631892 1.9123203 -0.7170588 -1.7906749 -0.38099435 -0.635924 -0.6654169 -0.32234603 0.7450022 -0.27749714 -1.3697343 -0.6303445 0.3890691 1.1554197 1.0945948
2614 0.3977283 2.1028194 0.8166729 -1.5358092 -0.84690326 -0.5579208 0.66269904 1.4717866 1.5964788 1.4900708 0.09183914 -0.8149011 -0.5518781 0.6799592 -0.9140473 -0.6009798
1119 0.21779338 0.7882854 2.4986022 -1.0929581 -1.4754406 0.4828308 0.029657116 -0.89778423 0.34386328 0.665956 0.067295454 -1.6792734 0.40565956 -0.6076554 0.8278418 0.6294114
662 -0.89165074 0.90342945 1.6887782 -0.6907171 -2.0061142 0.47114936 0.012623794 0.9184376 1.5757776 -0.17848879 -0.89425665 -0.44474298 -0.7005369 1.0128284 0.28010562 1.3282526
3175 -1.253741 -0.2742044 0.63048166 0.2632873 -2.3124194 -0.84136313 1.4596373 -0.5627916 1.6346873 1.5129735 -0.52243006 -0.11621517 -0.784512 -0.40006194 -0.12735929 -0.33764964
352 0.08829947 1.3753946 1.1736649 -1.0622957 -0.7819725 -1.5349545 0.7036713 -0.29216272 -0.30022195 -0.7907099 -1.2913767 -0.49164024 -2.067402 -0.8203703 -0.6039813 0.54233766
1508 -1.2612119 0.7785507 0.5991087 -0.35009888 1.010776 -1.0419724 0.40534195 -0.4764284 1.2839961 1.0090249 -0.9849947 -0.4837506 -1.5468059 1.5462415 -0.7331949 -0.030423155
3173 0.3124641 0.92725366 0.66480434 -0.95240027 -0.27413037 -2.0013187 0.036965534 -0.90672827 1.551136 1.1368091 -0.7361452 -0.55934346 -0.9845078 0.6634073 1.257211 -1.0689135
2577 0.41697195 0.89662623 1.1011239 -0.925754 -0.71495146 -1.2857419 0.56607044 -0.42195976 0.18235213 -1.0242745 -0.8476745 -0.44675642 -2.5803401 -0.60677016 -0.34784538 0.44694385
1438 -0.23833373 0.92277336 0.61575145 -1.7537607 -1.8458163 -0.17109191 1.9097505 -2.0252976 -0.005138114 -0.95040685 0.53785944 -0.61744255 -1.0336252 1.3359231 0.60460377 0.9696162
3194 -0.51700383 0.7106671 1.7484738 -1.0086302 -0.7154052 -0.02820816 0.8977033 -0.21306412 -0.2524218 1.8924587 -0.10567111 -1.8808753 0.77847594 -0.2751563 -0.927128 0.93581116
1329 -0.09166868 0.39774308 1.4689176 0.1028609 0.45389777 -1.6777068 1.326183 -1.2631192 1.0179182 0.6116442 -0.23014992 -1.8035848 -0.85479265 -1.0104157 0.51973015 1.3942807
3101 -1.0069499 0.15318304 1.0214738 -1.6502496 -0.048113957 0.465761 1.3767025 -1.2455343 2.13409 -0.09151871 -0.56240946 -1.1879026 0.18915255 0.21711525 -0.9981293 -0.6649275
467 -0.95276475 0.9530629 -0.03448962 -1.5849568 -0.7093077 -0.29103574 0.30604395 -0.6442916 0.7615519 0.081639566 -0.4364978 -2.39384 -0.059895474 0.9167217 1.0923556 -1.1919434
3091 0.19767067 1.0543866 1.2079698 -1.0794469 -0.7198922 -1.3949057 0.49654076 -0.343147 -0.1719334 -0.8795224 -0.9712079 -0.48928034 -2.310947 -0.7201947 -0.46797284 0.50978947
1231 0.31175405 0.8379127 1.1640254 -0.7611282 -0.35684225 -1.252733 0.4039393 -0.8180555 -0.03195084 -0.9600886 -0.47318998 -0.63676095 -2.6383817 -0.5683056 -0.32795227 0.6208391
1265 -1.4696025 0.93383753 1.8392993 -1.2753896 -0.57004595 -1.7154258 -0.2059372 -0.8773589 -0.976571 0.7103099 0.3453214 -0.47718072 -1.2526441 -0.34376708 -0.59291095 -1.0069381
376 -0.3895694 0.065019354 1.2173464 -1.8952237 0.4335887 -0.013877102 1.6143988 -1.2215134 2.099381 0.12829606 -0.23449627 -0.65260947 -0.22035372 0.2283589 -1.102589 -0.16890949
328 -0.80954194 0.95541847 -0.6197437 -0.6910034 -0.02518672 -0.48386344 0.39543375 -0.23833759 0.71280754 0.9422044 -1.7967688 -1.7332686 -1.3289303 0.6964363 0.182891 0.8255689
478 -1.113927 0.27186632 1.8089778 -0.8441954 -0.38372526 1.852112 0.7609859 -0.961876 1.4842699 0.03289774 -0.6327191 -1.1447859 -1.4197503 -0.13955835 -1.3995222 -0.25547314
2468 -0.90206176 -0.16824785 -0.17571642 -0.7387622 -0.16097428 -0.42003405 1.3069996 0.21231808 1.2475245 0.37887514 -0.8378018 -1.5610287 -1.2400937 0.58612835 -1.8246326 1.212162
3319 0.35498357 2.004462 0.86609685 -1.4317846 -0.788545 -0.4069502 0.77738875 1.3830913 1.3804313 1.6634017 0.022486815 -0.90715706 -0.4691063 0.4772651 -0.97554904 -0.6128496
294 1.4395833 2.0333402 -0.047540348 -1.2708927 -0.60183924 -0.12228024 0.8632926 -2.153819 0.92134035 1.0309407 0.21238619 -0.9940112 -0.7837215 0.49638817 -0.84028053 0.42137668
2622 -1.534402 0.5376517 -0.061046664 -1.3773987 -0.48853958 0.8026712 0.13143979 -1.2556772 1.2397345 0.5257741 -0.4036342 -2.154563 -0.24434997 0.509662 0.086545564 -0.78939056
2855 -0.85855633 -0.37170234 1.0780814 0.5363696 -2.3194108 -1.4775649 0.70514715 0.7731519 -0.3908743 0.6799024 -0.2937127 -1.8383434 -1.4769261 0.25919956 -0.27069747 -0.024584346
1720 -1.0565238 -0.048524138 0.59370625 0.6077173 -2.2756898 -1.0879165 1.1715277 0.22904468 1.4532216 1.7209183 -0.1615592 -0.70143235 -1.059252 -0.31640592 -0.11736603 -0.79502386
1527 -0.28378427 1.0912752 1.7662375 -1.004841 -0.7006882 0.17649886 0.68050736 -0.46039742 -0.6305464 1.6511686 -0.218423 -1.8668641 0.62410545 -0.017047487 -1.0775956 1.0202607
639 1.6535122 1.5354038 0.03985424 -1.0578834 -1.3346093 0.09094734 1.1309031 -1.8922608 0.8150869 1.3241693 -0.7049787 -0.816994 -0.8305305 0.45915046 -0.8710468 0.08708488
2729 1.3402927 2.0792272 -0.14295913 -1.2037739 -0.65679246 -0.19231983 0.9045371 -2.2176335 0.9156676 1.1017963 0.23670888 -0.9455301 -0.80238277 0.4392208 -0.89959455 0.41254964
2680 -1.2671603 0.72052985 1.4883565 0.13060999 1.0054331 -0.8556837 0.29000553 -0.47623664 1.343819 1.5103855 -1.0224861 -0.46672523 -1.5517935 1.3372339 0.18454239 -0.49077213
2606 -0.9239742 -0.15214805 0.1367502 -0.11072387 -0.3641725 0.44286966 1.2453365 -0.064776964 1.3115774 0.50786954 -0.05036588 -1.8227596 -1.7197045 0.5596917 -1.9096719 1.1042244
2973 -0.6956203 -0.1287718 0.42687935 0.21468045 -0.49784 0.8867944 1.0005611 -0.31493002 1.3823239 0.7644693 0.21352248 -1.8081274 -1.8373028 0.40875107 -1.7485788 1.0285543
3535 -1.4418433 0.14535087 0.22701313 0.3753853 -2.267942 -1.2320751 1.4058043 0.31351307 0.7958792 1.5158617 -0.10182386 -0.6396404 -1.2509257 -0.056397762 0.29159883 -0.4080901
2109 -1.3780744 0.25125614 0.24737298 0.46542984 -2.239805 -1.2906462 1.4158981 0.3928191 0.8078555 1.544047 0.0659285 -0.6864156 -1.2920132 -0.026470767 0.14231727 -0.5054955
665 0.63632387 -1.2454664 0.8856369 -0.8019383 -0.8737901 -0.94947606 0.24076685 -1.3480767 1.259321 -0.1591598 0.54052544 -1.6505936 -1.6981117 1.6517043 -0.20747717 -0.45678845
1005 -0.2293746 1.9113666 1.9420928 -0.4199551 -0.9265568 0.052983843 0.37116385 1.0747805 2.0254302 0.79098225 0.54432124 0.07142016 -0.9882149 0.2094735 -0.26235995 0.6779901
771 -1.3413416 0.4494643 -0.50213337 -1.5918748 0.16019341 -0.30566365 -0.4804033 -0.77270705 1.155 1.3733667 -0.8372177 -1.5812024 -1.2990175 0.36892092 0.07373412 0.36556283
464 0.04771219 1.7967541 2.5474803 -0.32740283 -0.72580826 0.36652103 0.34808227 -0.4315554 -0.56262845 0.19259024 -0.7293663 -0.73095447 -0.28444523 1.521583 -0.28907448 1.1252667
916 0.3624705 0.91680634 0.8368377 -1.3093518 -2.5052133 -0.9911478 -1.3422395 -0.6414605 0.8721612 0.28029191 0.21295515 -1.0579472 -0.30723113 -0.10846272 -0.04094756 1.2456825
1020 0.7181957 1.3020519 2.0272856 -0.74597895 -1.777401 -0.07041162 -0.57569414 -0.7196389 -0.19734403 0.44010636 -0.58855057 -1.2479575 -0.5686937 0.48288083 1.2497586 1.1161373
1605 -1.3998114 -0.00892508 0.34947982 -1.045209 -0.5418604 -0.83093953 0.76592237 -0.1939353 0.38689646 -0.0786811 0.07773283 0.013963137 -1.9480637 1.1858228 -2.0394754 0.12110067
3259 -1.0117434 1.1585978 0.8787088 0.12483194 0.76340955 -0.58718425 0.48990598 -0.5526843 1.0071241 1.504184 -1.60174 -0.3464355 -1.8142236 1.2529634 -0.17083906 0.049269896
1850 -0.003040544 0.06660341 2.5455794 -0.8671208 -1.1573278 0.53713244 0.95175064 -0.38996702 -0.021636633 1.022739 -0.263736 -2.2372937 0.36510727 -0.4394868 0.53150624 0.3729788
2419 -0.023876548 0.40957674 2.5612266 -0.9816335 -1.3404295 0.72025704 0.6887699 -0.5840791 0.14938354 0.821465 -0.04154831 -2.008203 0.45120496 -0.62582344 0.5302028 0.51306254
1958 0.048154082 -1.0163449 1.5618256 -2.9564812 -1.5390991 -1.1125906 -0.04616538 0.63657415 0.8960613 1.3183721 -0.4851803 -1.9122702 -0.7185686 0.24967524 -0.59481436 -0.63155264
1258 -1.4234933 0.4445238 -0.052777793 -1.3023951 -0.41017988 0.8333118 -0.026835032 -1.3336382 1.314528 0.6223723 -0.23584035 -2.152684 -0.30499414 0.5671181 0.044682458 -0.7794422
1366 -1.1040134 -0.25577828 0.6507602 0.41679907 -2.2567923 -0.955803 1.1691611 0.026533036 1.4349691 1.5607356 -0.19946466 -0.57784307 -1.0271703 -0.51325166 -0.026674813 -0.7486808
2800 -1.522088 0.18224554 0.13967286 0.27767065 -2.275983 -1.5880226 1.6282848 0.41333455 0.3243934 1.3087322 -0.16077276 -0.73145866 -1.1547397 0.33992967 0.2249801 -0.10804997
396 0.08624289 1.7747905 2.429957 -0.5883142 -0.7132982 0.06565707 -0.027307695 -0.23989294 -0.3495251 -0.06157208 -0.49897194 -0.767123 -0.10933716 1.551875 -0.43995786 1.2438447
1705 1.5427064 1.8502511 -0.03777689 -0.9294341 -0.96381503 -0.1489641 1.1255534 -2.107517 0.85274845 1.2722632 -0.32896808 -0.92130387 -0.7063699 0.48447922 -0.8832854 0.002388288
1242 -0.21522792 0.73200125 0.99601465 -1.1236366 -2.5253482 -0.31585002 -0.2861296 -0.12950878 1.6184502 -0.4029615 -1.0351557 -0.59800905 -0.16074614 0.81505823 0.24807595 1.5687134
909 0.13558736 0.33998805 2.5463011 -0.8868419 -1.1772457 0.6663374 0.82228535 -0.5139015 -0.07031263 1.0977534 -0.3602981 -2.000894 0.3255378 -0.45530584 0.6256986 0.34221146
2118 0.003612598 1.8484083 2.0513496 -1.2282372 -0.5674362 -0.44881088 0.24612732 0.4246661 0.038037784 0.06595695 0.16440158 -1.0931085 0.43469337 1.0448997 -1.1237123 1.1069287
643 -1.3170758 0.9215579 1.9404334 -0.0532741 0.41739786 -0.9948329 0.5536972 -0.82197803 1.6215037 0.655711 -1.2690861 -0.19196631 -0.995048 0.96846485 1.0592922 -0.88162345
2312 -0.7575665 -0.21698649 0.44589406 0.15615885 -0.64388406 0.8030774 0.9488106 -0.14394583 1.4779521 0.7700105 0.03204083 -1.9926767 -1.8008878 0.38719317 -1.7706451 1.1562934
1038 -0.009946712 0.40232167 2.4514863 -0.9567736 -1.3175899 0.5871216 0.6565803 -0.4742835 0.04885837 0.87449765 0.014354905 -1.9596293 0.4685792 -0.7251076 0.49104664 0.43150347
1069 -0.4043594 -0.41542473 1.33973 0.42756808 -2.192608 -1.7564738 0.9365196 0.72234344 -0.6560786 0.7402064 -0.23667969 -1.7493317 -1.2576737 0.6082923 -0.16140348 0.0033058827
3215 0.1507868 0.7574283 0.60473406 -1.2696841 -0.10105614 -2.0556471 -0.14067821 -1.13213 1.6905942 1.3413413 -0.6430401 -0.434196 -1.0140253 0.6285115 0.9340815 -0.93886817
415 -0.3002945 1.1294302 1.4557301 -1.0666044 -0.9236985 -0.07561121 0.3765079 -0.29095724 -0.3307447 1.8012779 0.093052566 -1.7252907 0.6878832 -0.30696926 -0.9827377 1.1656121
1098 0.16327824 0.8813827 0.87796783 -1.2586793 -2.496567 -0.79021126 -1.2255136 -0.48271173 0.98322934 0.07824617 -0.1254223 -0.8872185 -0.22959399 0.22467697 0.008059909 1.4307528
1728 -0.6577008 0.67590195 0.5947689 0.86810905 -0.76458734 1.3856125 0.7435323 -1.1858691 1.0625653 0.45977288 0.26256424 -1.8533744 -1.5659118 0.72963613 -1.0905614 -0.11538994
462 -1.5669253 0.9035115 1.8898857 0.07071563 0.572981 -0.85480374 0.55776644 -0.7825548 1.5340675 0.83274263 -1.2500775 -0.31894073 -1.0383976 1.079819 0.8161847 -0.67688096
2195 -1.7548023 0.9360954 0.2836556 -0.4976528 -0.820653 -1.9486592 0.56060475 -1.1121219 2.246057 0.1782029 1.8005458 -1.2050548 -0.2780419 0.32932508 0.23632216 0.52046174
67 -0.32061744 0.7640404 1.4906896 0.22860083 0.509773 -1.8088719 1.2671896 -1.5303053 0.7861182 0.75396985 -0.14156143 -1.8355336 -0.6878034 -1.0184222 0.5428657 1.1804223
3210 -2.1039972 0.60954964 2.1211522 -1.2944441 -0.8623431 -1.6634362 -0.12414605 -0.73155814 -0.43066946 0.80722255 0.1178744 -0.1401568 -0.44376585 0.01564612 -0.8205659 -0.91249853
1485 -0.33891812 0.96212 1.698957 -0.9185744 -0.3887241 0.050590113 1.0889498 -0.044520978 -0.434733 1.8497022 -0.42402703 -1.7265774 0.6253596 0.06532742 -0.9856758 0.5939336
2716 -0.8098163 1.1084293 -0.5975379 -0.68396604 -0.041579198 -0.46447572 0.2921599 -0.31785092 0.65298355 0.921132 -1.7950536 -1.7945691 -1.2892389 0.79418075 0.34595865 0.84055483
2302 -0.085649334 0.2265292 2.5577013 -0.8338098 -1.1405432 0.70782214 0.9012691 -0.469533 -0.15928468 0.97542447 -0.38045144 -2.113095 0.37674457 -0.34530005 0.47986317 0.4969809
3282 0.08071351 0.69611794 0.7355707 -1.1598754 -0.0061421897 -1.8464806 -0.1477069 -1.1667548 1.4469846 1.5498973 -0.7934902 -0.5328952 -0.9248515 0.71922326 1.0623477 -1.0037131
438 0.15365914 1.2442403 1.2854276 -0.9656826 -0.64632946 -1.5705454 0.6343549 -0.2910621 -0.15160085 -0.8276006 -1.090437 -0.52023923 -2.1294262 -0.8108671 -0.5277912 0.59390277
2748 -0.6738613 1.4839718 2.1497104 -0.66327167 -0.8144055 0.25803152 0.95981467 1.4917654 0.8539541 0.33930615 0.327738 -0.36248502 -1.1696773 1.2047919 0.2622234 0.5302623
2267 -1.8729718 0.71293896 2.1526592 -1.3090748 -0.8054488 -1.6924386 -0.23498712 -0.76929617 -0.6197674 0.8153287 0.22739285 -0.29865086 -0.7115739 -0.12383376 -0.5907091 -0.97327614
165 -1.548101 0.797676 1.924799 -1.4454194 -0.7860631 -1.5790921 -0.28993785 -0.68042046 -0.82309175 0.8507464 0.29468498 -0.18366127 -1.1632031 -0.23213103 -0.5532956 -1.0410359
2327 -1.0500447 0.8033406 1.1031272 -0.1409096 1.0526539 -0.9082978 0.2814313 -0.63070196 1.2861674 1.533042 -0.9323533 -0.36479878 -1.6314617 1.4134973 -0.199957 -0.28907105
1756 0.033349477 -1.0102862 1.5420743 -2.9257674 -1.5703664 -1.1536776 -0.020054553 0.649891 0.9210261 1.2904981 -0.5294984 -1.8640242 -0.71748143 0.22892521 -0.60315275 -0.6183828
3212 -1.4141643 0.930534 1.722067 -1.3009342 -0.5651906 -1.6640404 -0.22242118 -0.81033707 -0.8910075 0.747176 0.3583391 -0.41687858 -1.2508566 -0.31121668 -0.5411928 -0.96569157
793 -1.5399382 0.44683936 0.09425027 -1.2734097 -0.64251477 0.7721398 -0.07277749 -1.270273 1.292205 0.4082919 -0.15256268 -2.2805486 -0.07362928 0.7581943 0.08674889 -0.84089446
2904 1.7598556 1.9216635 0.14960648 -1.0055264 -0.6571701 0.019637903 1.0785109 -2.0401714 1.0912966 1.096258 -0.17740002 -1.1138307 -0.6898807 0.7540333 -0.59982646 0.14055398
2859 0.93192655 1.0362909 2.1265528 -0.8859465 -1.5995337 0.025395786 -0.45647857 -0.7760702 -0.23571315 0.7976679 -0.2872609 -1.4736863 -0.78555554 0.0011172178 1.4332843 0.56403244
1014 0.26150724 1.2287375 0.97202593 -1.2900131 -2.4217565 -0.99981886 -1.5179635 -0.6684703 0.84309584 0.26775244 0.21194577 -0.89442736 -0.3867593 0.19750865 -0.09038061 1.3023987
696 -0.49586666 1.5433391 1.9203248 -1.372309 -0.545692 -0.23134947 1.1371328 1.5817406 0.5184198 0.5182459 0.48333022 -0.4478739 -0.92372566 1.1991807 0.22749466 0.22787851
3267 -1.1712663 0.77818024 -0.33642167 -0.55314595 0.33110496 -0.6342164 0.5478111 -0.29539168 0.95705146 0.6759528 -1.7579631 -1.320541 -1.2525837 1.1486771 -0.46583867 0.85472506
2439 -0.3052934 0.66723526 0.89323133 1.0833254 -1.1344833 1.3091954 0.8847421 -1.5889869 0.7429494 0.5323646 0.30027434 -1.600588 -1.7965277 0.7007097 -0.30316165 -0.1747281
585 -0.01728514 -1.0251019 1.5880191 -2.9290128 -1.5182663 -1.1366806 -0.05793846 0.6783589 0.88645923 1.2854944 -0.4965824 -1.8683379 -0.74759674 0.24538547 -0.59780866 -0.6376817
754 -0.10693854 2.011964 2.0170822 -1.3152167 -0.38531983 -0.8255297 0.58399177 0.726459 0.41474846 0.4530524 0.67795146 -0.92765385 0.42054492 0.6653817 -1.1285292 0.8887407
706 -0.8568431 1.7456231 1.2799485 -0.59219116 -0.05786147 -1.5603304 0.06427674 -1.5252099 -0.6632654 -0.07437611 0.16106808 -0.80834264 -1.2034554 -0.7770638 -0.36827198 -0.402938
2988 0.17268752 0.5553189 1.0258023 -0.76405436 -0.61816 -1.274292 0.57007474 -0.8306586 0.46720114 -1.0871742 -0.18233244 -0.4380759 -3.091701 -0.61109054 -0.28229427 0.5792623
1460 -0.93186164 1.0120153 1.5904799 -0.12481541 0.2640474 -0.87296116 0.59303415 -0.8937073 1.4681249 0.5362046 -1.5886487 -0.087497465 -1.073275 1.0079796 1.2011794 -0.60759854
183 1.7423654 1.4789137 0.07590044 -1.0752019 -1.5226365 0.1697297 1.2277822 -1.90321 0.83486766 1.4272038 -0.72414696 -0.9201429 -0.81870246 0.23484941 -0.7824889 0.018575883
1228 -0.032055553 1.0765371 1.3470515 -0.83341175 -0.36147863 -1.4855435 0.47004238 -0.632756 -0.47554898 -0.68968135 -0.9164872 -0.68785983 -2.3786132 -0.85821146 -0.43869412 0.45240507
308 -0.5127785 0.05085033 1.2003468 -1.7545187 0.51326424 0.14160787 1.641651 -1.1630934 2.0485141 0.13007711 -0.28249156 -0.7144581 -0.316345 0.24930947 -1.161149 -0.22749004
1903 1.4438235 1.896971 -0.07666757 -1.0223151 -0.871021 -0.20760895 1.0326155 -2.1954687 0.8519323 1.2103053 -0.11037189 -0.9667806 -0.68836266 0.50618833 -0.89774793 0.1402817
546 -0.593053 1.1314085 -0.6854696 -0.4780335 -0.17535572 -0.771037 0.21945684 -0.16694504 0.74981934 0.93233037 -1.7076235 -1.825171 -1.2798342 0.76105624 0.6028602 0.60821235
2753 -1.6646184 0.66040653 0.09733238 -1.2814382 -0.88343525 0.7268182 -0.13652168 -1.0217521 1.0176402 0.35102138 -0.5616313 -2.126185 -0.10875368 0.8160412 0.35010308 -0.7535397
2294 1.0941187 1.780168 -0.35789216 -0.9249391 -1.2480165 -0.47329146 1.0590397 -2.1921117 0.64108884 1.3792964 -0.17590663 -0.6524815 -0.8272821 0.15037517 -1.2716405 0.12544826
3283 -0.8360469 1.5120746 0.8699869 0.5417876 -1.3044436 0.6359075 -0.5034386 -0.95368177 0.94501734 0.44831228 0.58994806 -1.5262188 -0.52521825 1.266094 -1.1652297 -0.97632784
3484 -0.559047 1.7644922 1.458091 0.071798064 0.36191136 -1.6300685 0.36801535 -1.5126604 -0.15306722 0.13982736 0.16178414 -1.3164462 -1.1637669 -1.154192 -0.24616803 0.10536606
45 0.4189173 2.024092 1.072994 -1.3161613 -0.6424304 -0.60475254 0.39809203 1.2016488 1.526755 1.5164682 0.03088435 -0.8681978 -0.14467792 0.45049405 -1.1346219 -0.2410667
3462 -0.7289151 -0.1328889 -0.049782522 -0.6527896 0.056023344 -0.26978862 1.4496067 0.11847912 1.4334601 0.40777507 -0.97153395 -1.5182003 -1.1251105 0.7383705 -1.7322714 1.2063932
3219 0.07167436 1.3476189 1.3527305 -0.93144315 -0.48445427 -1.6636566 0.4378555 -0.36895537 -0.42401725 -0.65752673 -1.071017 -0.6415627 -2.0290399 -0.8432354 -0.6276061 0.37515724
2539 -0.1237005 0.20379901 1.6900028 -1.8829479 0.68851215 0.44784802 1.6916637 -1.1852757 1.8553511 0.33426392 -0.09333439 -0.40604225 -1.0633786 0.096411094 -1.3622496 0.006431245
844 -0.1892306 0.8203923 0.83677155 1.1831362 -1.8720859 1.038019 0.6244 -1.861719 0.78881514 0.13454002 0.67610574 -1.5950464 -1.4956439 0.6301212 0.009986518 -0.15520968
1848 -1.3066049 0.031641018 0.3606868 -0.92483187 -0.40857965 -0.8645503 0.8620234 -0.16006169 0.51272994 -0.22009432 0.12554795 0.07969716 -1.831169 1.1065224 -2.1010764 0.021943146
1671 -1.5914466 0.87433845 0.3761265 -0.78534156 -0.96520346 -1.7591403 0.67313296 -1.1199211 2.1091373 0.25171277 1.9181972 -1.1738123 -0.15080436 0.09457368 0.33839875 0.46446016
2314 -1.2916862 1.3512927 1.1102288 -0.46111685 -0.29199988 -1.5109698 0.18239036 -2.0912375 -0.8540494 -0.1374108 0.30363026 -0.8862585 -0.9882536 -0.25416306 -0.16189449 -0.3881636
895 0.13755503 2.2049785 2.214421 -1.1845798 -0.24533556 -0.66432863 1.101378 0.75167745 0.4453955 0.286765 0.2998515 -0.7936269 0.44525245 0.62003917 -1.0419775 0.34152117
2641 -0.53780484 0.05370369 1.2323616 -1.9136381 0.52757734 0.14733338 1.6247511 -1.1086451 1.977341 0.15164982 -0.20642999 -0.66040105 -0.5080223 0.23208158 -1.3099194 -0.042582147
2826 0.35415652 0.97529405 1.2131704 -1.0141203 -0.7365256 -1.3008661 0.6332675 -0.32256493 0.0882123 -0.932589 -0.94567436 -0.31911963 -2.4758072 -0.68115664 -0.40600598 0.49911404
3042 0.4435885 -1.1924608 1.0636889 -0.93762493 -0.9230865 -0.75514984 0.087222345 -1.383159 0.919531 -0.08292963 0.6359413 -1.1953053 -2.01151 1.5049292 -0.11898009 -0.6177627
2955 0.43475527 2.1124525 1.3210164 -1.1053782 -0.48160127 -0.6637981 0.42544517 0.98129606 1.562145 1.6901884 -0.22821072 -0.98008883 0.12252198 0.10171173 -1.4523338 -0.30771026
2760 -1.0641403 0.81115067 1.0204911 -0.07181219 1.0350959 -1.0416349 0.1902791 -0.5308385 1.3452557 1.5006323 -0.8232206 -0.42830878 -1.7291653 1.4664035 -0.18601076 -0.3905501
95 1.2005981 1.9623256 -0.35296392 -1.2671261 -0.8258635 -0.358762 0.86510205 -2.181922 0.7740602 1.069479 0.339603 -0.83134323 -0.97527695 0.2783167 -1.186191 0.42301497
1940 0.68453944 -1.2102444 0.84247535 -0.91150045 -0.9851816 -0.7741165 0.23966515 -1.3711065 1.1780685 -0.07832442 0.6371009 -1.3277287 -1.8996475 1.5590218 -0.15894513 -0.6136472
88 0.75309986 1.2828126 2.122217 -0.7187733 -1.7361054 -0.008073412 -0.6288238 -0.76515836 -0.24329008 0.4826167 -0.44291094 -1.1801444 -0.67812264 0.50268155 1.189032 0.9306104
3505 -0.3715944 -0.3363992 1.2261794 0.47709224 -2.3372092 -1.5668936 1.270154 0.5637998 -0.53567713 0.67311895 -0.016943699 -1.5050935 -1.1690525 0.38241538 -0.2153672 -0.12892523
1391 -0.6948321 0.71122336 0.67430437 0.748428 -0.6564488 1.4539186 0.6864462 -1.0815954 0.9381496 0.6323293 0.2987171 -1.8837659 -1.4889597 0.8878195 -0.90192974 -0.2520435
2444 0.18704623 1.9146466 2.5488715 -0.5337881 -0.4965022 0.17638545 0.33742997 -0.34420574 -0.61069876 0.2388648 -0.5392926 -0.84885937 -0.14649655 1.53794 -0.53180075 0.93173635
2784 -1.0094047 1.2367795 0.46539986 -0.058963712 0.41853017 -0.61440504 0.7383072 -0.7195837 1.0411206 0.8417957 -2.130501 -0.46951348 -1.4773865 1.2270716 -0.13938192 0.5344535
2071 -1.4983337 0.9377779 1.8544514 -1.3991829 -0.626346 -1.6775056 -0.16556655 -0.7520033 -0.9466525 0.8838052 0.32657918 -0.3869546 -1.2141649 -0.32383677 -0.53302896 -1.0134429
1942 -0.071331166 -1.0709412 1.2671322 -1.0400419 -1.0107182 -0.794669 0.039397407 -1.1777283 0.7783837 -0.6497034 0.46855608 -0.7754178 -2.2841945 1.2811204 -0.4243221 -0.66634953
1914 -1.4283104 0.4731107 -0.22975431 -1.2061491 -0.48988062 0.7407926 0.011589122 -1.2905829 1.1570472 0.5442379 -0.46063375 -2.1724946 -0.34278566 0.36035657 0.012951318 -0.68015945
1236 -1.3716146 0.81531024 0.46925828 -1.0766801 -1.0896115 -1.6214652 0.918222 -1.1793863 2.002947 0.31404966 1.9528867 -1.1508528 0.07963812 -0.13196622 0.39359778 0.40287197
647 -1.7440315 0.97765684 0.27672547 -0.6676672 -0.8860996 -1.9162434 0.67727506 -1.1486424 2.218808 0.17032656 1.8185626 -1.1821296 -0.23574607 0.24371544 0.26377603 0.5381418
2345 -0.3731881 -0.6428175 1.6990137 -0.96731615 -0.822044 -0.7459633 -0.24124187 -0.59772027 0.8872292 -0.83470136 0.84760433 -0.50927186 -2.2573586 1.2967964 -0.80877626 -0.46958783
2318 -0.77140766 -0.104632765 -0.13699846 -0.6529739 -0.0896143 -0.3879929 1.342384 0.21448432 1.191161 0.36822167 -0.77744615 -1.5077157 -1.2993529 0.62394106 -1.7504725 1.3069927
1767 -0.6001625 -0.484504 1.186496 0.42251655 -2.361031 -1.4410655 0.8844844 0.63662446 -0.47066692 0.61193115 -0.13708152 -1.7162536 -1.3371376 0.28045374 -0.20725183 -0.060484048
3019 0.5240465 0.8436476 2.432673 -1.1489712 -1.4633027 0.526951 0.032008767 -1.0466614 0.37143204 0.5628731 -0.049558595 -1.5560635 0.28957084 -0.47740024 0.9167371 0.5405599
2733 -0.16992426 0.8596106 0.96898973 -1.1692137 -2.5462134 -0.3625586 -0.2889956 -0.19070351 1.606492 -0.38328388 -1.0104561 -0.6402829 -0.05252146 0.8970661 0.17760842 1.6412444
1936 -1.581617 0.85530376 0.35248974 -0.90990293 -0.97358966 -1.7564754 0.827096 -1.1705611 2.0600219 0.2583075 1.9600887 -1.1416718 -0.11326172 0.04041529 0.30837387 0.39959508
1981 0.9589835 1.7037998 -0.38173646 -1.1995049 -1.3647535 -0.42812398 0.9596126 -2.1307309 0.53003335 1.3643113 0.044978987 -0.60061365 -0.99943477 -0.04563802 -1.3853749 0.35232124
274 -0.12263707 1.3329488 0.759879 -0.97457755 -1.0260335 -1.3471646 1.0428904 -0.005645772 0.86119324 -0.88614404 -1.0825117 -0.110823184 -2.081548 -1.0869832 -0.91217273 -0.04194873
3074 -0.20523974 1.7853786 1.8044915 -0.46616027 -1.0749265 0.12709945 0.38898757 0.99842674 2.0988722 0.5631784 0.5730433 0.17768705 -1.0449067 0.26158002 -0.05253353 0.8209392
1907 -1.0172017 1.4593081 -0.13539663 -0.50337607 0.40940318 -0.80376285 0.40276614 -0.595538 0.92855275 0.7159417 -1.9331121 -0.7734612 -1.4064416 1.2566297 -0.2810387 0.68527085
721 0.2966723 0.9662958 1.0563183 -0.8317081 -0.7464002 -1.2627174 0.8202496 -0.29801175 0.554249 -1.2030367 -0.5971534 -0.36502185 -2.604398 -0.66387534 -0.5545338 0.40896437
839 -0.23612954 0.6770938 1.4054731 0.11716079 0.46590975 -1.8048071 1.2975202 -1.3212731 0.78800243 0.66793525 -0.21384428 -1.7083946 -0.7614303 -1.0232133 0.64221895 1.3589225
598 -1.4599396 -0.23242521 0.83920646 -0.62391865 -0.38283184 -1.152133 0.7022305 -0.00982399 0.37367862 0.04023659 -0.043344118 0.033698276 -1.4449071 0.8280145 -2.1703398 0.26930216
2322 -0.35953385 -0.7448628 1.804762 -1.0414389 -0.9722908 -0.7108388 -0.09966119 -0.76777464 0.6627382 -0.85047364 0.72955406 -0.47411582 -2.239009 1.3387262 -0.7547709 -0.56593305
1935 -0.18529226 0.6854264 0.57804215 -0.8654942 -0.97268003 -1.2750582 0.91226315 -0.2151427 1.2296871 -1.1090858 -0.5255326 -0.3477339 -2.4933004 -0.9046634 -0.9040472 -0.12718977
3144 -0.89066774 -0.12935722 0.104925014 -0.09562057 -0.37699774 0.32989532 1.2591585 -0.028955428 1.235477 0.43618217 -0.14755169 -1.7661645 -1.536056 0.60001457 -2.0055113 1.1687434
942 -0.24440533 0.8155803 1.0874012 -1.1607753 -2.4993334 -0.15415296 0.047468275 0.015463685 1.8044623 -0.32561097 -1.1603029 -0.53016037 -0.2592756 0.84098047 0.52841216 1.6005362
2482 -0.0040248167 0.7398268 0.65343904 -1.2308865 0.010511419 -2.0142002 -0.274636 -1.1989963 1.4714433 1.5789454 -0.6125718 -0.6043794 -0.84644204 0.6952181 0.98626477 -1.1901593
1271 -1.4260154 0.8409068 0.48337954 -1.0195451 -1.0222099 -1.6077768 0.87287366 -1.1397315 2.0502877 0.27660778 1.9705321 -1.151512 0.034017183 -0.048091386 0.30257827 0.50482243
2163 -0.87627476 0.28689298 1.0637246 -1.5583154 -0.0140630035 0.6769166 1.3168075 -1.3104562 2.131708 -0.13916852 -0.41613957 -1.163621 0.1313308 0.29980606 -0.97339743 -0.76428527
3 0.8578306 0.83496773 2.3512425 -1.1530775 -1.4065621 0.25617296 0.060770895 -0.8235126 0.2842122 0.6254028 0.3134668 -1.6397442 -0.04584155 -0.69623446 0.9650307 0.047913995
578 -1.3761096 0.075380914 0.6226427 -0.37537035 -0.25696102 -1.0004877 0.7702232 0.08597202 0.7308676 -0.26474857 -0.10875206 -0.1864879 -1.6554823 1.0371926 -2.1918797 0.25137582
760 -1.3616176 -0.4688529 0.6372438 0.19808623 -2.4251013 -0.7312634 1.3587765 -0.7289531 1.47914 1.2454704 -0.5563893 -0.21449223 -0.8860522 -0.5400045 0.020067593 -0.14868325
2690 0.44728512 0.23581165 1.4301494 1.0938321 -1.8017459 -1.6020792 1.6996145 -0.008531123 0.23923565 0.77287376 0.21532178 -0.6485499 -0.8907031 0.666875 -1.0810927 -0.0400942
2119 -0.034652974 1.39987 1.5000458 -0.84398484 -0.42832693 -1.433917 0.28680617 -0.35801232 -0.4600507 -0.6233423 -0.94995916 -0.6419828 -2.1783864 -0.97126263 -0.47075158 0.3828427
2530 -0.22490591 0.77912897 0.5755361 -1.5588993 -1.5659009 -0.41133633 2.131371 -1.740746 -0.04088824 -0.7071092 0.59752685 -0.6458421 -0.8313017 1.4780957 0.6329252 1.079207
628 -0.848189 -0.3075393 0.98532075 0.48163074 -2.2253468 -1.4868612 0.7165667 0.8283833 -0.53433406 0.6457113 -0.10518712 -1.8630227 -1.4545872 0.3773349 -0.21693517 -0.023833118
603 -0.2835786 -0.15643042 1.4896948 0.09817399 0.43360695 -1.345578 1.1140572 -1.735635 0.59320503 0.12343158 -0.09591748 -1.8412342 -1.3703854 -0.76594126 0.52820534 1.0816717
1389 -0.18658112 0.938265 0.5849591 -1.7455468 -1.8428233 -0.13991904 1.958535 -1.9841025 -0.00851489 -0.9729111 0.5045778 -0.5772682 -1.0568801 1.3472179 0.6304947 1.0051435
2631 0.0048088143 1.8208474 2.6386342 -0.34565413 -0.81315464 0.35722503 0.1362294 -0.42803347 -0.49802914 0.108534925 -0.5937722 -0.81996495 -0.34931287 1.5301963 -0.22593458 1.2159309
1395 1.4856418 1.9676925 -0.07619926 -0.9684679 -0.8951135 -0.1755889 1.072927 -2.1645608 0.92355263 1.2256557 -0.2088087 -0.9436266 -0.65112257 0.5587398 -0.89467853 0.1283209
1414 0.31043816 1.1788783 0.20123059 -0.6523844 -0.52310705 -1.6972013 0.17930524 -0.60839427 1.7743486 0.7104551 -0.94340813 -0.84564364 -1.116315 0.75672925 1.445569 -0.8500898
3325 -0.47418025 0.15587346 1.3880265 0.048911367 0.41511384 -1.6902568 1.2331238 -1.6525456 0.5520375 0.7105486 -0.07577999 -1.7363628 -0.9042606 -0.87166977 0.74055797 1.1050628
123 0.25347856 0.9219485 2.2602067 -1.2181981 -1.4960756 0.1987881 -0.17311196 -0.9365522 0.30351645 0.7614946 0.48784044 -1.6924927 0.5360567 -0.65519756 0.60350573 0.9223622
395 -0.2358914 1.8006309 1.8595624 -0.48423347 -1.0113196 0.09796239 0.4727606 1.0239435 2.090351 0.6837865 0.53515035 0.088303305 -0.9986841 0.25591722 -0.06274609 0.866765
3137 0.1299663 0.39137086 2.5566156 -0.8922642 -1.2974199 0.66653425 0.63897127 -0.5332581 0.0026994173 0.8891344 -0.19261615 -2.041253 0.31315392 -0.56531304 0.6101371 0.41928038
1731 0.82603776 1.1574486 1.987128 -0.8788519 -1.7469698 -0.09168772 -0.5609866 -0.84988385 -0.13990699 0.88723904 -0.09791631 -1.3489112 -0.4725735 -0.018539462 1.3173492 0.90015197
2355 0.071964845 0.3136986 0.9507403 -0.7003665 -0.64647955 -1.264862 0.63485914 -0.7513755 0.59519804 -1.1686337 -0.35644037 -0.5432188 -2.8863802 -0.5981422 -0.33181384 0.2967135
2927 0.36864847 0.9314849 2.2425156 -1.1692779 -1.4282694 0.36847174 0.04024083 -1.1699463 0.41550785 0.701374 0.46036434 -1.4417214 0.4192953 -0.55175036 0.88980854 0.5677995
129 1.0152851 1.6919612 -0.34499428 -1.0672361 -1.2907295 -0.4703567 1.0225085 -2.2121863 0.59445983 1.3941315 -0.1432913 -0.5502378 -0.8342892 0.08719939 -1.3547015 0.31070793
138 -0.7535061 -0.3358474 1.1393521 0.5554014 -2.1373 -1.5002099 0.67846906 0.809438 -0.44059438 0.59515065 -0.2442869 -1.8910446 -1.4071376 0.33961555 -0.33848238 -0.10527372
2348 -0.46616372 0.91463727 1.5956031 -1.0199411 -0.6042323 -0.18746576 0.84603256 -0.077849194 -0.2529152 1.9904032 -0.14878 -1.7666315 0.72628456 -0.18122086 -0.96366364 0.8518345
1257 -0.99804425 0.88524604 0.851704 0.05204615 0.7819382 -0.72356707 0.6127773 -0.5257212 1.1309423 1.3284953 -1.5086412 -0.42735878 -1.6072699 1.2519597 -0.28053898 0.024679167
2215 -0.4525994 0.63005793 0.7490626 1.0344584 -0.8977314 1.4374611 1.0254046 -1.4944226 0.8058138 0.5817641 0.24289484 -1.686195 -1.7893028 0.7512432 -0.44556466 -0.19172493
1318 -0.14797612 1.4181916 1.2058458 -1.0626731 -0.7458025 -1.5367975 0.48157373 -0.34283838 -0.53134453 -0.68582433 -1.2090789 -0.49676204 -2.1732428 -0.8364914 -0.59891826 0.2571071
1678 -0.36604485 0.92169124 1.9084376 -0.9343935 -0.44231153 0.18683216 1.1906581 -0.096624896 -0.60510045 1.6398243 -0.37592006 -1.7877818 0.61554503 0.111419685 -0.7455592 0.64660263
2408 -1.040434 1.0002711 0.9560323 0.06823709 0.79616207 -0.7984965 0.48203406 -0.5399638 1.125858 1.3647631 -1.4581493 -0.3159326 -1.7925272 1.3511151 -0.18909554 -0.036526777
1210 0.3879549 1.2570496 0.034400966 -0.4325345 -0.57492775 -1.617102 0.12387384 -0.53156763 1.82016 0.6409507 -1.0137547 -1.0019228 -1.1713461 0.7719268 1.3329581 -0.79375774
3377 0.17062224 -1.1182412 1.0830245 -0.6303822 -0.7338526 -1.3302767 -0.008554271 -1.7188524 0.54661655 -0.86710095 -0.23806883 -2.200109 -1.0594794 0.95037204 -0.51064557 -0.13022384
1216 -0.8576004 0.23267193 1.0836445 -1.7078615 -0.026904315 0.64862025 1.3515718 -1.2771478 2.127256 -0.18468517 -0.45224634 -1.3089747 0.14256857 0.1955357 -0.8868286 -0.82098824
3187 -1.4790577 0.663737 1.947665 -1.5145705 -0.6803997 -1.3616204 -0.09936646 -0.73435694 -0.9472121 0.9527196 0.21231394 -0.15277365 -1.3409234 -0.29532844 -0.4878503 -0.9379951
3014 0.26168388 0.8802764 0.49097863 -1.1094375 -0.24282148 -2.1328967 -0.12365511 -1.0687748 1.4407282 1.2903615 -0.6029368 -0.7809482 -0.85525936 0.68999124 1.0387869 -1.2512641
1425 -0.25806892 1.7880296 1.8145903 -0.5684419 -1.027701 0.17398535 0.4733922 1.08716 2.058073 0.73028904 0.45248255 0.13338633 -0.96841395 0.31360254 -0.065189995 0.8443339
2821 0.2842697 0.9967363 0.88814735 -1.3365006 -2.5602996 -0.99381346 -1.4603422 -0.6386071 0.98214984 0.3690963 0.25384703 -1.024373 -0.37624717 -0.0041881017 -0.025660414 1.1937948
530 -0.796275 -0.14976399 1.4464334 0.016868247 0.4634025 -1.3292168 1.045075 -1.8532804 0.04898872 0.4391931 0.0011060371 -1.7187314 -1.3582078 -0.86520517 0.5139844 0.7313048
198 0.4669184 2.107974 1.4278569 -1.0711775 -0.47426856 -0.7669955 0.26895326 0.921396 1.5251806 1.5679809 -0.09733284 -0.9291452 0.13246053 0.15053043 -1.4002836 -0.30229738
1298 1.4514608 2.0527427 -0.09739457 -1.3750714 -0.6152278 -0.074374214 0.8175293 -2.1524715 0.9703456 0.9854202 0.38924015 -1.0383333 -0.88316745 0.43737125 -0.840767 0.53116244
1723 -1.247193 1.0395087 1.7277867 -0.05728902 0.40603387 -0.87108994 0.7052302 -0.8347807 1.4363887 0.7049928 -1.6677094 -0.078854196 -1.1328999 0.93350405 0.99972177 -0.5679711
2052 0.11822524 1.9532583 2.4261742 -0.5248977 -0.65970284 0.11488657 0.12200827 -0.08726545 -0.46358296 0.043202374 -0.57651156 -0.80641836 -0.15207857 1.5645603 -0.48035383 1.0430816
869 -0.40740794 1.6373585 1.7341131 -1.4189017 -0.64177334 -0.43487206 0.9444356 1.5518763 0.719036 0.37564898 0.7513562 -0.37834033 -0.82735884 1.0738829 0.16160297 0.23917317
3166 -0.61635876 0.8190633 1.4066079 -0.97159636 -2.1933093 0.14397761 0.045536336 0.41800642 1.7434597 -0.32642213 -0.9882158 -0.4935842 -0.44707885 0.79694134 0.51427144 1.4990749
2863 1.4327468 1.6328113 -0.08941749 -1.0939332 -1.3955712 -0.023112036 1.1052365 -2.0351908 0.7109537 1.4208615 -0.4246183 -0.8052261 -0.8442278 0.15358952 -0.9796271 0.13053237
2771 -0.34823734 0.79511034 1.8474276 -0.9572103 -0.40352732 0.0934364 1.1488942 -0.09591977 -0.5314361 1.8058496 -0.3883717 -1.832467 0.5834379 0.07842852 -0.86783224 0.6484429
1839 0.3178558 -0.9865469 0.81854385 -0.61211383 -0.5369001 -1.4884726 0.13038096 -1.7257069 0.64147556 -0.95255065 -0.3736167 -2.197575 -1.4223222 0.69181955 -0.4170167 -0.073577136
2604 -0.76984787 1.2274128 0.81938654 0.5899725 -0.7607236 1.2233108 -0.12300459 -1.0452319 0.95150733 0.66486603 0.016454732 -1.6914154 -1.2026628 0.72936505 -1.484588 -0.86986816
1939 0.45789412 -0.032026365 1.5716267 1.177723 -1.7918715 -1.709495 1.097376 0.20801708 0.60681057 1.1027298 -0.23619969 -1.01517 -0.71409285 0.36013108 -0.8477468 -0.29539597
491 0.25493154 0.97931427 0.78169376 -1.34853 -2.5936105 -0.85731524 -1.1982116 -0.5500731 1.0178272 0.16838853 0.07150106 -0.9397176 -0.30709466 0.10824162 0.033811428 1.2825445
3518 -0.20444617 -0.3168734 2.0148563 -0.87898165 -0.64876866 -0.8310281 -0.40407366 -0.53880715 0.72198015 -0.90248 0.99287075 -0.51378614 -2.3905106 1.01443 -0.83312947 -0.23077735
1573 0.11732395 -1.2175744 0.9643221 -0.51015407 -0.8370913 -1.365806 0.1902067 -1.7482578 0.69098043 -0.7138707 -0.21834096 -2.191972 -0.8348604 1.2405663 -0.6588049 -0.21286689
1000 -1.2854121 1.1502506 0.33519205 -0.36697203 0.7713578 -0.83611935 0.60343546 -0.66741943 1.1955136 0.80850786 -1.5768342 -0.4563537 -1.3079743 1.4293158 -0.6956144 0.41756746
32 -0.5948088 1.1304042 -0.64962065 -0.6181657 -0.19599977 -0.7481225 0.14350177 -0.2345776 0.8596294 0.90788835 -1.5668379 -1.7743846 -1.2714515 0.79225403 0.74017185 0.38037395
2057 -0.24120419 1.2911879 1.9694482 -1.0213987 -0.6842033 0.47273234 1.0032293 -0.5432835 -0.7037478 1.3445506 -0.1797719 -1.7427782 0.60984063 0.07112861 -0.9034451 0.9269691
3213 -0.9554001 1.640185 1.094588 -0.19451389 -0.049561977 -1.6508812 0.17703679 -2.052858 -0.57167816 -0.13087077 0.24388264 -1.1806562 -0.7943539 -0.40363613 -0.19165905 -0.21184278
682 -1.6623617 0.9728278 0.2349807 -0.89971066 -1.326235 0.4001898 -0.32915795 -0.68525344 0.51050675 0.35955054 -0.47158316 -2.116043 -0.10192674 1.349303 0.59492135 -0.73445374
2199 -0.73708737 1.0974312 -0.062756516 -1.5829048 -0.7569121 -0.62311083 0.25045997 -0.7116549 0.9537167 0.018791724 -0.5331847 -2.397013 -0.020040957 0.79208195 1.1235875 -1.23019
199 -0.24639553 0.86541337 0.57713586 -1.6097791 -1.6751974 -0.26413622 2.0520718 -1.8219954 0.010307053 -0.8089095 0.51249874 -0.6023691 -0.9381459 1.3362441 0.65359086 1.0307444
2450 -0.08460065 -1.0076333 1.4127061 -3.0591033 -1.6512029 -1.0336219 0.08379117 0.44260064 0.6027958 1.312747 -0.52816075 -1.5749568 -0.83907914 0.22518551 -0.5970493 -0.6775309
414 -0.28442982 0.84264326 1.2946924 -1.0262011 -2.3674269 0.0005830668 0.02364038 0.27573764 1.6362376 -0.2988771 -1.070223 -0.54507816 -0.3228787 0.7259433 0.6768624 1.6148517
1493 0.55567217 0.5374586 1.5513313 1.3901498 -1.6638272 -1.4843283 0.433998 0.623652 0.1526556 0.6458462 -0.13547847 -1.8983067 -1.328549 0.4561197 -1.0862405 0.112187594
1208 -0.23438868 -0.94136 1.3895245 -1.185798 -1.0280337 -0.85826236 0.0113252625 -1.0237308 0.52744555 -0.78934497 0.40356395 -0.70355105 -2.2903607 1.3976945 -0.69385755 -0.75760585
3240 -0.11632458 2.131458 1.9851102 -0.64896864 -0.6698993 -0.14350665 0.5496222 0.9100021 1.7741462 0.7649452 0.546041 -0.032481328 -0.47524428 0.10781426 -0.647511 0.8002298
978 -0.8165557 0.8616813 -0.6128481 -0.5420671 0.00892577 -0.5272085 0.4863055 -0.119171746 0.95667464 0.7396994 -1.764588 -1.6585106 -1.3200864 0.7543012 -0.017713802 0.8215229
1463 -0.36402723 0.01939095 1.4678371 0.06951858 0.412069 -1.5287884 1.332299 -1.5053651 0.72339654 0.6496313 -0.21569774 -1.7733575 -1.0151453 -0.90993726 0.7103692 1.2726327
3498 0.090554975 0.76148176 1.3659852 -0.87112397 -0.3342775 -1.5242316 0.26133797 -0.7878698 -0.2527888 -0.93198395 -0.4384167 -0.54436505 -2.631654 -0.52015084 -0.32710055 0.66162753
2497 -0.50448763 1.6891625 1.9550308 -0.79953045 -0.99008363 -0.057247423 0.8433452 1.267882 1.3721515 0.43190777 0.81541514 0.045965355 -1.028557 0.46649912 0.23586354 0.6713564
922 -0.90115726 1.0729022 -0.0072569074 -1.7631502 -0.7260656 -0.54002565 0.22627461 -0.5630304 0.94634396 -0.014650021 -0.523804 -2.41098 -0.0155381 0.8992923 1.1497018 -1.1370149
3323 -1.3954437 1.0045595 -0.10978153 -0.93462294 -1.1413962 0.027366081 0.028871402 -0.6502826 0.3990315 0.3577158 -0.5699016 -2.2484658 -0.2471025 1.0775518 1.000151 -0.80394936
3421 -0.47067592 1.393397 -0.6724314 -0.75925654 -0.7468478 -1.3028961 -0.24478288 -0.570471 1.1093075 0.7078931 -1.0556884 -1.6947485 -0.9913996 0.58791286 1.1505048 -0.68146086
1733 0.28285605 1.0278904 1.0423347 -1.2870697 -2.2588098 -0.9952788 -1.2518864 -0.48832825 0.6647803 0.4255094 0.32837877 -1.1873659 0.025762292 -0.12226184 -0.14622866 1.4301325
1364 -0.0031292771 0.79499656 1.2516637 -1.0010413 -0.5226585 -1.3811566 0.41106445 -0.53756243 -0.27574405 -0.6925167 -0.65265596 -0.32643113 -2.5421526 -0.6336681 -0.41786122 0.37633774
2856 0.30765226 0.5852334 2.3562357 -1.1020888 -1.5546145 0.47429278 0.29555422 -0.8431169 0.4094161 0.6665516 0.37993574 -1.7695676 0.41159958 -0.8011834 0.6856262 0.44437394
3280 -1.3911816 0.79303837 0.42173854 -1.1642623 -1.0782325 -1.6578598 0.9978357 -1.1522161 2.0176294 0.26753244 2.0167015 -1.1519588 0.018462125 -0.13717104 0.3066526 0.42523447
1938 -0.1460985 1.071225 0.6075188 -0.8906711 -1.037064 -1.3119062 0.9450993 -0.120913714 0.99589044 -1.014953 -0.81375855 -0.19304483 -2.3616896 -0.9883711 -0.855919 -0.14201273
3514 -1.3602988 0.9329868 -0.079358324 -1.2841524 -1.0780948 -0.2149032 0.110214725 -0.4999719 0.4470399 0.21809033 -0.56018794 -2.3470054 -0.18950003 1.0475987 1.1894578 -0.70916027
2541 -1.4837487 0.8265643 0.46207076 -1.1500702 -1.0754503 -1.6933401 1.0283885 -1.171748 2.0054088 0.30704474 2.0360465 -1.1945348 0.037505537 -0.084459074 0.35303596 0.39419034
399 0.083102845 2.075719 1.9285836 -1.3125831 -0.40735322 -0.75342137 0.7812743 0.69452304 0.23862514 0.3528963 0.3449096 -0.9716697 0.48479015 0.71985114 -1.0288408 0.76243496
2397 -1.5886813 0.933059 1.9468436 0.09818396 0.5761511 -0.8542699 0.4983853 -0.7475976 1.5821693 0.8548181 -1.1919314 -0.29429752 -1.1836 1.0187494 0.88226557 -0.70582336
2244 0.34830368 0.6258337 2.2597203 -1.0774078 -1.4671847 0.55116934 0.32937926 -0.8198017 0.31060487 0.8841843 0.2847992 -1.7361327 0.32516223 -0.81071186 0.66084886 0.40275663
3327 -1.0016631 1.071728 0.02821563 -1.8437274 -0.646853 -0.4860043 0.1562469 -0.6178938 0.96830755 -0.017304478 -0.46114898 -2.4362788 0.033749092 0.853677 1.0232723 -1.1891787
3466 0.32982135 0.7655652 2.5613208 -1.0559304 -1.3921075 0.31427947 -0.05713626 -0.94371724 0.27602565 0.4457846 0.14776734 -1.6243275 0.3594891 -0.32882494 0.8934672 0.74345225
2474 0.2832535 0.9873803 0.6616974 -0.918739 -0.2304781 -1.9940045 0.050043024 -0.9108053 1.6090733 1.0997572 -0.62975436 -0.48887104 -1.0262187 0.66072595 1.2006906 -1.1307781
3170 -1.1218458 0.7882745 1.223152 -0.06801293 1.0511589 -0.8503244 0.22558157 -0.6611945 1.3139004 1.6436558 -0.9721696 -0.44579625 -1.6399543 1.3746009 -0.16325058 -0.30560538
2770 -0.606954 1.3628874 1.8824033 -1.168039 -0.6640589 0.052534096 1.0718958 1.612175 0.5291391 0.37567887 0.22568882 -0.52763397 -0.9726583 1.3436292 0.29684156 0.28170794
3224 -1.2894347 -0.5947029 0.70236456 0.17652753 -2.4561124 -0.6893197 1.3019605 -0.7380073 1.5577488 1.1704555 -0.45461592 -0.27815965 -0.85962504 -0.65376294 -0.023898315 -0.27732784
2691 -1.364868 1.5066041 1.326359 -0.48019633 -0.37707946 -1.8534317 -0.042383626 -2.029987 -0.9315936 -0.11201116 0.31152788 -1.1590908 -0.5159361 0.10191876 -0.35060245 -0.48911577
1994 0.36473572 1.1433395 1.3082894 -1.1258152 -0.7555431 -1.5216527 0.63893557 -0.25809819 -0.26271838 -0.7520581 -1.2445865 -0.4181195 -2.322808 -0.69361866 -0.4477476 0.61029625
1943 -0.8565837 -0.14757676 0.16846265 -0.120875135 -0.32461536 0.38755175 1.4308468 -0.119553 1.2683735 0.3815394 -0.07715073 -1.6819383 -1.5742906 0.65322876 -1.9423734 1.1116755
3365 -0.025204932 -1.1056165 1.3624564 -1.1738383 -1.0183698 -0.7847502 0.089819126 -1.284752 0.5903201 -0.6191171 0.44713667 -0.7734662 -2.3564312 1.2262211 -0.39376312 -0.8116067
125 -0.5675954 1.7003485 1.6103605 -0.048335824 0.34393924 -1.492794 0.16945642 -1.3153857 -0.33028346 -0.114223436 0.12172454 -1.3837346 -1.3949296 -1.1716027 -0.4505445 -0.06967389
1226 0.40529218 1.1842911 0.7956335 -0.42521548 -0.20785634 -1.6505213 0.3203178 -0.69570154 1.6545068 0.80959815 -0.90336543 -0.40525982 -1.3018707 0.9999605 1.3991026 -0.8660108
2201 -0.18230955 1.8263824 1.7171972 -0.5797325 -1.0894718 0.098883994 0.2898233 1.0188824 2.195397 0.7337642 0.41802758 0.10006428 -0.86118287 0.23914847 -0.19628647 0.8871815
279 -0.74140674 0.91512877 -0.6275696 -0.8376854 0.029348603 -0.5544008 0.3086099 -0.2122433 0.8263888 0.97529626 -1.7930677 -1.6940885 -1.3670058 0.51935655 0.2662371 0.78828734
2240 -0.47137034 0.7215145 0.8979359 -1.2122303 -2.4945283 -0.2696336 -0.14946797 0.0406881 1.8078789 -0.39052272 -0.99405175 -0.5441535 -0.14511326 0.83235145 0.073303185 1.5533181
3262 -0.078341976 0.49865955 1.460095 0.06827957 0.46750793 -1.8456703 1.2976804 -1.3108957 0.92506087 0.723398 -0.24731532 -1.7606846 -0.75964195 -1.0459384 0.5849769 1.3974608
2277 0.366651 1.237433 0.38726884 -0.40517485 -0.4097739 -1.4669678 0.4907629 -0.54612464 1.747178 0.5048908 -1.2452077 -0.8124694 -1.158931 0.91771096 1.5638335 -0.6665982
992 -1.0928652 1.4150896 -0.22134382 -0.602361 0.43788594 -0.74890846 0.53234017 -0.59459937 0.80385387 0.597084 -1.881619 -0.7802968 -1.2807821 1.3132389 -0.42108658 0.6894839
1431 -1.7615695 0.98537564 0.30296084 -0.4871843 -0.84328604 -1.9264535 0.63805884 -1.1222073 2.2660232 0.13533224 1.6946899 -1.227385 -0.20443091 0.2831618 0.32167765 0.5160441
823 -1.6262654 0.749337 1.811093 -1.5325242 -0.6084286 -1.5775956 -0.0003311492 -0.55840224 -0.8471649 0.86164916 0.22789593 -0.15098579 -1.3472803 -0.2944205 -0.7644528 -0.80802304
1161 -1.5945474 1.0334959 0.08338993 -0.6018101 -1.3387829 0.31706554 -0.26516697 -0.52340907 0.35196194 0.43333364 -0.3571936 -2.2159736 -0.29563367 1.4850984 0.78090554 -0.6670681
3414 -1.3014392 1.340059 1.0987539 -0.6295412 -0.18889812 -1.4641478 0.19808349 -1.9614879 -0.9372079 -0.051359914 0.23053364 -0.904812 -1.1054566 -0.38816604 -0.25794712 -0.37843326
26 -1.4988964 1.0672348 1.5036741 -0.7928499 -0.5571894 -1.7273272 -0.19676283 -1.6015798 -0.97884506 0.07357419 0.40746245 -0.7438726 -0.79896915 -0.10112136 -0.37028685 -0.8385049
493 -1.4730337 0.41809034 0.1414926 0.39125186 -2.2091284 -1.4921297 1.772359 0.3097684 0.552491 1.5762589 -0.04149205 -0.58235335 -1.0955797 0.3297374 0.18907677 -0.25362176
33 -0.3497108 1.3304172 0.6624113 -0.9446321 -1.0107439 -1.3200629 1.0920388 0.01571187 1.1766607 -0.822994 -0.8519572 -0.14786702 -2.1755545 -1.2414049 -0.97234803 -0.21803546
789 -0.24908371 0.86535543 1.0040895 -1.1271263 -2.5022023 -0.3189146 -0.23954324 -0.0896305 1.6826407 -0.35985202 -1.0116055 -0.55968213 -0.15677558 0.87644315 0.2995257 1.5834738
2813 -0.5105527 0.6754221 1.585531 -1.0494512 -0.7265226 -0.124973126 0.8747802 -0.26742646 -0.42352906 1.9244056 -0.14898999 -1.9465761 0.71120703 -0.22066927 -0.9150951 0.9690666
3005 -1.1610057 1.1161735 0.505859 -0.13341583 0.8073142 -0.7995403 0.5813457 -0.49972785 1.044941 0.9255332 -1.5271512 -0.49733534 -1.5312183 1.4370244 -0.7363449 0.32113722
2148 -1.5070695 0.83621323 1.6608737 -1.4526819 -0.62569016 -1.3686024 0.00596062 -0.9722934 -0.98324156 0.83880115 0.2855188 -0.17786878 -1.3366828 -0.3269457 -0.47625858 -0.8283971
3000 0.15819597 -1.2259877 0.9715986 -0.53722614 -0.7164911 -1.3725902 0.18493241 -1.7807056 0.6795594 -0.7099715 -0.270856 -2.4053893 -0.7807861 1.0917822 -0.5208075 -0.04081263
549 -0.42290086 -0.48484263 1.4861225 0.014220209 0.35764122 -1.2857833 0.77814233 -1.911469 0.33883432 -0.3016707 -0.16560091 -1.9173226 -1.4064856 -0.59504247 0.2737246 0.7517319
166 -1.2576709 -0.09234446 1.0861219 -1.6690276 -1.1977814 -0.3185103 0.38879207 -1.4215028 -0.8091949 0.5229339 -0.0010024298 0.19222568 -1.8953487 0.37257352 -0.47670528 -0.69611776
2594 -0.79568875 -0.072013505 -0.17031376 -0.651433 -0.05686675 -0.31709847 1.1745664 0.18364969 1.3167263 0.5236747 -0.9084219 -1.68503 -1.347522 0.65586 -1.6831605 1.3316723
906 -1.5546043 0.4220647 0.11282206 0.34293747 -2.260572 -1.4700116 1.7586215 0.30439797 0.5101322 1.5446882 -0.06797785 -0.53902775 -1.1227112 0.2614084 0.13829945 -0.17438838
1086 -2.1385994 0.29403582 2.1140387 -1.5161744 -1.0470294 -1.0811893 0.21059084 -0.9629609 -0.4640049 0.7379223 -0.048647076 0.30003408 -0.73042405 0.043133892 -0.666568 -0.583174
6 -0.18268812 0.91904676 0.5569724 -1.7533516 -1.7884445 -0.19796307 1.9883857 -1.9353746 0.017006699 -0.9626668 0.52422416 -0.61338526 -1.0061128 1.3097239 0.65781045 1.0164597
1307 -0.90627795 1.1235458 -0.057317063 -1.6800898 -0.67443466 -0.61555135 0.3377796 -0.5789341 0.977078 -0.08197298 -0.6835353 -2.4126716 0.010943062 0.8774659 1.1245767 -1.0904247
1198 -0.70359063 1.0744224 -0.6211781 -0.7128833 -0.06688922 -0.44907543 0.28162384 -0.37309524 0.84351 0.9314881 -1.8702785 -1.5927418 -1.4281232 0.6932378 0.2488633 0.90817
2311 -0.29852715 -0.006952883 1.427432 0.07188233 0.4022162 -1.5519913 1.1982269 -1.6191323 0.6948693 0.54109323 -0.08877817 -1.7596995 -0.9717238 -0.7748454 0.5660096 1.1216697
432 -0.8619127 1.070672 0.9508812 -0.06251765 0.85061055 -0.750794 0.44290695 -0.73070174 1.13046 1.583434 -1.4622201 -0.24459612 -1.7728481 1.3633136 -0.24675551 -0.053172875
1488 0.18826039 1.0463285 0.07860715 -0.8860438 -0.6168083 -1.7396063 -0.081735775 -0.86049294 1.5222039 0.90653026 -0.9465527 -0.96255815 -0.9656023 0.65810317 1.4230655 -0.9892336
1748 0.2971837 1.2816886 0.12298592 -0.42744523 -0.4936911 -1.5459337 0.24816456 -0.4789469 1.8316227 0.59297836 -1.016547 -1.0878376 -1.1722372 0.81487703 1.476126 -0.8159209
25 -0.68316466 1.5433003 2.2345884 -0.6248379 -0.9087322 0.21032074 0.7900714 1.4639001 0.88163716 0.26238456 0.43117332 -0.3188787 -1.1382515 1.131213 0.22952764 0.6594359
1656 -0.99999505 0.5548038 1.7884396 -0.7845655 -0.2420614 1.7230525 0.6828547 -1.0707865 1.4227654 -0.0151061155 -0.6491871 -0.9917118 -1.3815181 -0.07797067 -1.4315014 -0.46494097
1792 0.15689026 1.3325723 -0.17866206 -0.5800925 -0.6773497 -1.505715 0.18241653 -0.5283297 1.8306035 0.55515546 -1.0668685 -1.1764793 -1.2281067 0.76945686 1.4666319 -0.7846496
2774 -1.6316024 0.73593 1.7005457 0.10493719 0.9365734 -0.8512075 0.32406124 -0.5862941 1.4349446 1.1981058 -1.0179663 -0.43432146 -1.3979024 1.2803187 0.34189978 -0.5973133
134 0.0714251 1.8092624 2.4862611 -0.60298735 -0.6640026 0.12495752 0.14158177 -0.062851116 -0.4508117 0.06122093 -0.4779032 -0.87335205 -0.14585957 1.4985156 -0.4665946 1.0314897
1799 -1.2460024 -0.07661207 1.1501817 -1.7688868 -1.3496902 -0.32519618 0.37577745 -1.546209 -0.7487118 0.6190795 -0.04161763 0.20338829 -1.7943258 0.37353933 -0.31329313 -0.7341959
809 -1.1949761 -0.28855085 0.73259455 0.47741136 -2.2527273 -0.8583156 1.2545599 -0.5553723 1.5754967 1.4887747 -0.40293968 -0.19962585 -0.88497907 -0.5275531 -0.028306013 -0.20588028
586 -1.3897387 0.104213536 0.5760964 -0.6584244 -0.46507725 -1.0599753 0.8725087 -0.008989807 0.6991871 -0.31079668 0.06587756 -0.15797974 -1.5023022 0.98330116 -2.2859025 0.21890941
1194 0.5477582 1.3327036 2.1341555 -0.697113 -1.8185662 -0.12914269 -0.769302 -0.80587846 -0.1776626 0.5700444 -0.33303213 -1.2293793 -0.4942422 0.45287487 1.192621 1.3489913
3199 0.17295712 -1.3056492 0.8979074 -0.5456286 -0.83254266 -1.3444103 0.20761518 -1.796017 0.76008296 -0.47176942 -0.08250452 -2.262029 -0.7575862 1.4510933 -0.6272456 -0.26486978
1356 -1.9685962 -0.012600063 0.829388 -0.7909689 -0.32035965 -1.2465339 0.5775115 0.14294592 0.5075022 -0.0033091276 -0.025258016 -0.12435278 -1.3081204 0.5799318 -2.2246218 0.15535857
3419 0.43420327 2.0545614 1.2481893 -1.142916 -0.567724 -0.656384 0.57545066 1.0538359 1.3159759 1.5767318 -0.42207792 -1.1223503 0.25498408 0.2663717 -1.4360753 -0.37036222
1289 -1.5581832 0.963943 0.0038833816 -0.73560554 -1.2739431 0.27774984 -0.05172666 -0.56747323 0.36705613 0.26054746 -0.4963579 -2.2271564 -0.21290591 1.3943768 0.8075277 -0.6545944
3310 1.1651835 0.84246165 2.2561064 -1.0215408 -1.4704136 0.00543286 0.027264727 -0.57602346 -0.030467618 0.7493375 0.022752523 -1.7033893 -0.4166862 -0.49636132 1.129492 -0.026069593
1561 -1.0287015 1.3956475 0.7119882 0.5003675 -1.2492621 0.79719484 -0.4464527 -0.8982112 0.986393 0.43767223 0.2990575 -1.6061579 -0.6306671 0.8357947 -1.366402 -0.91438484
2811 -1.2573296 1.0785903 1.8546491 0.02846189 0.2994858 -0.8053318 0.7386113 -0.89671963 1.4734967 0.49471095 -1.505724 -0.12955223 -1.0488702 1.0031276 1.1802087 -0.68120325
3029 -1.4737458 0.96283627 1.8013295 -1.3716164 -0.7378195 -1.6040697 -0.2886592 -0.6885904 -0.8974933 0.8427459 0.3233238 -0.41160005 -1.1869391 -0.25955236 -0.5734064 -1.0586901
828 -0.82286227 1.3967023 2.0163162 -0.91542244 -0.78223723 0.19866562 1.0273309 1.5447333 0.6549777 0.35788503 0.39325267 -0.4549439 -1.0484388 1.1945074 0.26878747 0.5159994
485 -1.3888192 0.03409449 0.46353173 -0.5747376 -0.40914863 -0.97802 0.80691504 -0.013497751 0.6153065 -0.097105935 0.036382172 -0.30041698 -1.5770234 1.1313461 -2.2704382 0.26898396
601 0.04818323 0.82486594 0.4708874 -1.2987362 -0.11559029 -2.0734577 -0.32086787 -1.2306523 1.4866961 1.5193131 -0.6152184 -0.6750059 -0.82367235 0.7837437 0.90551805 -1.244228
335 -0.3760763 -0.22500461 1.2969979 0.5622339 -2.2322013 -1.5449878 0.7875941 0.71878105 -0.57335615 0.7286502 -0.10462566 -1.8237554 -1.2805924 0.46182033 -0.34434178 -0.093638785
1608 -1.5636662 0.89255404 0.33681726 -0.78861475 -0.93833154 -1.806224 0.8382909 -1.1661305 2.1806524 0.20057294 1.8848433 -1.1989144 -0.056683145 0.1140804 0.30615413 0.48610994
2435 -0.19057827 0.8913714 0.5647346 -1.7019162 -1.7450289 -0.20711136 1.9336787 -1.9572514 -0.025421109 -0.9082969 0.53701276 -0.5847858 -0.9568048 1.3254025 0.6445972 1.0227178
2404 -0.013687746 -0.9761259 1.4074831 -3.030549 -1.6218057 -1.0879452 0.1088941 0.5083905 0.69011915 1.3181174 -0.5047505 -1.6440294 -0.8275758 0.1973461 -0.5920705 -0.6767595
307 0.14947328 2.0636234 1.899927 -1.4578028 -0.35415038 -0.7121617 1.185042 0.9386593 0.111427374 0.52511007 0.022590846 -0.869524 0.35457566 0.8605896 -0.7656259 0.27401578
3443 -0.34578776 0.97051233 1.139961 -1.0376433 -2.317614 -0.018007755 0.089793146 0.20437771 1.840353 -0.33679834 -0.958244 -0.43158248 -0.25179854 0.773229 0.35528758 1.5496949
1625 -0.5444856 -0.2209275 0.5174243 0.22156212 -0.64519495 0.91291183 0.86188865 -0.1768523 1.4905943 0.8815058 0.10214212 -1.8915596 -2.0121708 0.2319293 -1.6402699 1.2051182
792 -0.43945658 0.7597214 0.6122071 -0.8032687 -0.9429485 -1.3939443 1.0839851 -0.07679175 1.338673 -1.0974995 -0.57319427 -0.15323907 -2.5723147 -0.8423303 -1.0463054 -0.13131678
2941 0.13702297 -1.2812763 0.9140164 -0.6079971 -0.91962534 -1.2814825 0.14982753 -1.8234266 0.6320385 -0.69970816 -0.2254955 -2.2621598 -0.881486 1.2718894 -0.65179104 -0.3123492
97 -0.45459282 1.1107168 1.6112549 -1.0850037 -0.72175115 0.19233416 0.8576771 -0.4290921 -0.6779395 1.5391707 0.0006338369 -1.720446 0.59171546 -0.029700866 -1.0605383 1.1286336
2844 -1.4304069 0.8442385 0.4330766 -1.2388867 -1.1260761 -1.6314007 1.0275755 -1.2046949 1.9048094 0.41161245 2.084159 -1.0797303 0.020510534 -0.17434756 0.4251598 0.28455293
1881 0.15852803 -0.24261986 1.4599555 0.5957556 -2.2265792 -1.7553425 1.3404335 0.48990262 -0.38337463 0.84676933 -0.03604983 -1.4170332 -0.91663784 0.529217 -0.354298 -0.24186754
3444 0.016723206 0.20481047 1.4312297 1.1346202 -1.5265963 -1.9392142 1.6190088 -0.013226564 0.7400727 1.3704897 0.022014456 -0.52702457 -0.46792796 0.8533428 -0.8244277 -0.28237635
2187 -0.48161045 0.27361238 1.4621487 0.9301358 -1.9786762 -1.3943403 1.273432 0.28354967 -0.33644423 0.17351477 0.4870989 -0.9667241 -1.329931 0.7151557 -1.947193 0.3467885
2079 -0.94834095 0.14477311 0.45369875 0.4080897 -2.3211432 -1.5606414 1.653586 0.40362015 -0.3246925 0.8055594 0.16455689 -1.0960834 -1.1591413 0.34863943 -0.012536433 -0.06907242
1951 0.32484272 1.0467994 0.9058421 -1.3340433 -2.4803987 -0.9943632 -1.4339864 -0.6708199 0.93093234 0.3201631 0.25103664 -1.0267551 -0.34275424 -0.035070974 0.04684277 1.2234687
1921 -0.17898187 0.2029768 1.3188391 1.2102 -1.5446429 -1.9786961 1.6594167 -0.08025928 0.9831217 1.5852269 -0.11788552 -0.4667768 -0.36725962 0.8785396 -0.6654429 -0.06951775
3358 0.71298397 0.573242 2.313194 -1.0128354 -1.4981129 0.2612149 0.1897268 -0.67108333 0.23259872 0.6600623 0.27307674 -1.662784 -0.044791598 -0.66144866 1.0795019 0.07197734
3581 1.059064 0.885657 2.4082386 -1.0209934 -1.456992 -0.027638098 0.066859365 -0.5922323 -0.096223295 0.83014137 0.009411129 -1.7995387 -0.5546077 -0.45962688 1.3339269 -0.015210629
497 -1.4406929 0.25327247 0.32460314 -0.6479955 -0.36182347 -1.0853168 0.8169051 -0.042464696 0.6859324 -0.20925225 -0.050014623 -0.22187194 -1.6421633 0.99240446 -2.1468184 0.17337437
3506 0.6237751 0.79839635 2.5263891 -1.0294964 -1.4622691 0.20115629 -0.14690092 -0.80571216 0.22856627 0.45383516 0.10294114 -1.543885 0.023303648 -0.36881202 1.1496487 0.4164877
36 0.022077186 -0.98762745 1.5536789 -2.9050632 -1.5160706 -1.0968286 -0.070069894 0.6721996 0.8736754 1.2749033 -0.49025255 -1.8452253 -0.710474 0.27787444 -0.6396104 -0.61602217
548 -0.29050007 1.4213343 1.6166097 0.28376016 0.5591518 -1.2805066 0.5126818 -1.4466413 0.30479476 -0.124373026 0.1992515 -1.5527465 -1.3072406 -1.2259492 -0.47003534 0.3807806
2772 -0.93709433 0.9028902 1.8438627 -0.6203389 -1.7922684 0.53405595 0.24284706 0.83598864 1.6690444 -0.2751772 -0.83624834 -0.42954966 -0.65040064 0.98431736 0.2697235 1.3184837
1246 -0.122295156 0.28533357 1.2643805 1.217415 -1.4917874 -1.9743193 1.5692543 -0.020048495 0.93716604 1.5124245 -0.019641265 -0.6019691 -0.4141958 0.7790128 -0.6934766 -0.20757529
2304 -0.21599069 1.2343732 1.9489039 -1.0345176 -0.71237314 0.47393212 1.005703 -0.5247844 -0.8541687 1.2412376 -0.15230082 -1.7673783 0.62583786 0.10528282 -0.8889665 0.9017672
2368 -0.4239831 1.0552834 0.94559425 1.0800198 -2.0459406 0.9565533 0.25643733 -1.9734068 0.5896233 0.008474939 0.39294097 -1.5406318 -1.4487569 0.15754679 -0.3209406 -0.6734651
1274 0.3801344 0.837371 1.1527615 -0.7479892 -0.3974883 -1.3269978 0.48905766 -0.8297533 -0.11279949 -1.1816263 -0.6378467 -0.71140516 -2.4380224 -0.4268624 -0.46466804 0.70603454
2982 -1.6349152 0.806764 1.8476478 -1.5269681 -0.6837719 -1.5314231 -0.032032438 -0.7177589 -0.9096879 0.9753193 0.26029497 -0.16050515 -1.2789817 -0.19038127 -0.6796087 -0.8404722
1659 0.36741108 2.0037804 0.7982 -1.6174957 -0.858679 -0.5631812 0.87989944 1.4684875 1.4088229 1.5831467 0.0711493 -0.85822237 -0.5975869 0.6616381 -0.8082201 -0.6548317
1492 -0.17952003 0.2757495 1.8649628 -1.8321002 0.74523914 0.3933565 1.6183075 -1.2447594 1.8644832 0.3976348 -0.19755687 -0.19355233 -1.1650351 0.082617 -1.3429061 -0.055051774
2254 -1.4114863 0.20025855 0.4646569 -0.66320413 -0.32274434 -1.0287632 0.882522 -0.081973076 0.7058075 -0.3742296 -0.047484558 -0.15861116 -1.4199829 1.0203056 -2.2235684 0.072327696
891 -0.4957657 0.48944643 1.4772404 0.85087234 -2.005009 -1.2821163 1.7485087 0.06747553 -0.41664982 0.14384449 0.6707008 -0.68849874 -1.3560603 0.6844694 -1.9773818 0.506211
621 0.17216896 -1.2585219 0.849851 -0.6232599 -0.98152524 -1.3773603 0.19500035 -1.8334659 0.7395549 -0.6989632 -0.22864138 -2.2672086 -0.84819347 1.2669276 -0.6555899 -0.35282487
1049 -0.21403319 1.6213723 1.6781286 -1.5143584 -0.5694051 -0.4201413 1.2385275 1.536025 0.52954453 0.5981686 0.5613492 -0.37140548 -0.7966363 1.0682293 0.2935648 0.03131539
3237 -0.00041477673 2.1314924 2.1788476 -1.2364461 -0.29134282 -0.680694 0.97087115 0.87138957 0.3660586 0.45031968 0.18247448 -0.8923526 0.3565288 0.6919549 -1.1422454 0.5646965
616 -0.56884795 0.51992166 0.5007613 0.9141815 -1.2942822 1.3415812 0.9318069 -1.6280577 0.6243607 0.6242535 0.4581731 -1.973568 -1.6271685 0.7435575 0.08996989 -0.06701134
1473 0.1851475 0.5295893 1.4099332 1.2698476 -1.6417747 -1.455941 0.28897318 0.8018119 0.005258331 0.5429302 -0.12224923 -2.0424669 -1.4393493 0.4706332 -1.1070266 0.053491347
24 -1.7133061 0.95263344 0.34798366 -0.6123393 -0.84926534 -1.8505872 0.6435111 -1.1343784 2.1679215 0.21841405 1.85494 -1.1291956 -0.21887822 0.2263679 0.3376169 0.43276983
1726 0.09534412 -0.9457263 1.1555083 -0.48350102 -0.23721857 -1.3163699 0.22462004 -1.6089222 0.47095552 -0.9481954 -0.37099463 -2.1013994 -1.4762571 0.32337254 -0.20980616 0.32285902
2198 -0.12025754 0.0053988453 2.5946882 -0.8717802 -1.1627277 0.48351303 0.8658905 -0.3971778 -0.09563483 1.0671076 -0.34678537 -2.1675708 0.3735571 -0.36477497 0.64430785 0.47166848
31 -1.2664064 0.17810614 0.56397784 -0.34818652 -0.40954575 -1.1345264 0.864483 -0.002537491 0.73441744 -0.24387585 0.0743538 -0.2608601 -1.3497161 1.1666421 -2.3230705 0.19224627
483 -0.6200824 1.4414781 1.9992639 -1.1412851 -0.7073323 -0.06791382 1.110482 1.603255 0.53740937 0.19876 0.24116863 -0.5035029 -0.95374364 1.370867 0.29022235 0.29314265
1333 0.6895236 -1.2002927 0.9992064 -0.8645783 -1.0798105 -0.7437501 0.12591854 -1.190673 1.3787872 -0.052035846 0.7125923 -1.3964727 -1.6691159 1.8902217 -0.22483845 -0.6138525
1397 -0.16902854 0.855689 0.6146473 -1.6490268 -1.7651277 -0.2567505 1.9860617 -1.8988038 0.0017056143 -0.8877063 0.525866 -0.5999013 -0.907947 1.3299598 0.64039165 1.0104394
786 -1.3514142 1.0509535 1.8445146 -1.3269851 -0.6294685 -1.6498449 -0.28471738 -0.7502403 -0.94366276 0.7826985 0.28346482 -0.45355457 -1.2004302 -0.32721683 -0.52865356 -1.0124173
258 0.24993578 -0.19880791 1.5619574 0.98765445 -1.7256854 -1.8584372 1.3828714 0.15315504 0.5670055 1.246954 -0.15091756 -0.73597836 -0.6210718 0.5978971 -0.6983716 -0.37303886
2025 -1.4205608 1.0114228 0.54175633 -0.45134547 -1.3264251 0.58650196 -0.56301636 -0.78630596 0.7774663 0.5102196 0.5427192 -1.9369437 0.024925586 1.6434497 -0.20023148 -0.84418935
529 -0.038543895 2.0838492 1.8483149 -1.4577543 -0.39340335 -0.6539156 1.2047695 1.0958121 0.1878378 0.4606898 -0.00854923 -0.9670853 0.33530915 0.9341491 -0.8455931 0.33606988
350 -0.446536 0.94333476 1.5335714 -1.0815334 -0.7933494 -0.18689005 0.59745455 -0.2605356 -0.3729626 1.8349776 0.09377892 -1.857861 0.6658751 -0.22503637 -1.0430862 1.2061946
2018 -0.3404407 0.8359573 1.555925 -1.0153325 -0.60166514 -0.18953593 0.82570225 -0.060109388 -0.18671085 1.9882605 -0.16212381 -1.855082 0.76894456 -0.3088559 -0.967805 0.76619893
2024 -0.44255376 0.84542316 1.6577195 -1.0341488 -0.5468516 -0.16324137 0.98992807 -0.008712238 -0.2324461 1.9860379 -0.1728157 -1.8607619 0.72219104 -0.19247812 -0.9634307 0.7586784
2935 0.17047584 0.9483053 0.95793116 -0.99335074 -0.9484016 -1.3349776 0.7549715 -0.07091332 0.6026729 -1.0022098 -0.91832304 -0.27663052 -2.4243689 -0.761763 -0.7316144 0.16286787
2743 0.41896412 2.0196865 0.886704 -1.4071536 -0.79815876 -0.47860843 0.6293808 1.3727187 1.6148711 1.5168287 0.042584714 -0.867465 -0.4949372 0.56834424 -0.9493246 -0.58152795
1273 -0.2566353 1.0619136 2.0349507 -0.94786924 -0.49097022 0.3998378 1.0935367 -0.35805693 -0.72622466 1.2338604 -0.2989695 -1.7950506 0.57629806 0.18536663 -0.78900796 0.75842136
2058 -1.3726878 1.5215297 1.2286048 -0.59620446 -0.4209988 -1.7269839 0.013182043 -2.1615932 -0.94419235 -0.13830443 0.3786351 -1.070496 -0.6982361 0.17564934 -0.40246475 -0.5708052
2869 0.57809377 -1.2179592 0.8596239 -0.8552666 -0.90519994 -0.79153126 0.225247 -1.336422 1.1772503 0.042299002 0.6691147 -1.3308984 -1.8536322 1.6986378 -0.20335189 -0.5616187
2746 -1.5784264 0.91310364 1.8046557 -1.3276392 -0.73427224 -1.6307787 -0.2917554 -0.73319525 -0.88704073 0.87424856 0.36213392 -0.34442925 -1.1192973 -0.15128002 -0.54254967 -1.0590682
207 -0.8338359 0.02168199 1.3883741 -1.8345624 0.08777794 0.95549184 1.3529984 -1.0953414 1.9455608 -0.07113789 -0.70604354 -0.98832184 -0.40177852 0.11558195 -0.9227026 -0.41076994
163 -1.175571 -0.5922422 0.73939073 0.22101347 -2.4224007 -0.75269496 1.3091843 -0.6374387 1.6866977 1.2289073 -0.34625718 -0.33866575 -0.85399413 -0.6280399 -0.055732965 -0.5454411
3123 -0.9537024 -0.72491294 1.2065438 -0.9270955 -0.28500426 -0.9005115 0.008504961 -0.25585678 0.8180806 -0.6630541 0.25702465 -0.35703602 -2.172007 1.7841331 -1.477192 -0.075417235
2898 -1.1361036 0.75626826 1.5953839 -0.058456153 0.7796245 -0.9858197 0.22229198 -0.7572427 1.5291039 1.3803577 -0.89769936 -0.24708194 -1.4161767 1.2255582 0.59518635 -0.73590386
2181 -1.1160347 0.69326687 0.6488332 -0.34264237 1.0784379 -0.91760325 0.57084674 -0.5705922 1.2766609 1.0960753 -0.9280318 -0.35561106 -1.4502556 1.4407191 -0.751058 -0.06671361
994 -1.3784049 0.9116629 1.943622 0.0013536591 0.33900434 -0.8610756 0.57319117 -0.87865597 1.5667589 0.6488067 -1.4012841 -0.20728606 -0.9833873 0.93910867 1.1632248 -0.78801423
2937 -0.8296025 1.3560357 0.82118183 0.79192656 -0.85972494 1.0682764 -0.12257899 -1.1000944 0.9529242 0.6558747 0.08404573 -1.6395433 -1.1489267 0.66209906 -1.4196534 -0.9080699
3565 -1.6663636 0.39789167 1.5182312 -1.5371847 -0.95930594 -0.7365014 0.25602502 -1.1907153 -0.89892334 0.6960279 0.07887613 0.28658503 -1.3325919 0.03136739 -0.57082677 -0.6745812
3031 0.5994938 -1.1573402 1.041004 -0.9379251 -0.80111825 -0.7188444 0.016541215 -1.3053302 1.020948 -0.14707418 0.67608815 -1.1867663 -2.2505744 1.3220272 -0.0009335873 -0.43343613
584 0.40809074 2.0003536 1.2153131 -1.1639003 -0.50640506 -0.600075 0.6151875 1.0976771 1.371644 1.6820239 -0.44459334 -1.1234822 0.22745173 0.17719252 -1.3547529 -0.4068709
2907 -0.32193002 0.5884645 1.4246435 0.18759373 0.46822417 -1.749682 1.3324388 -1.4322414 0.7260782 0.7440303 -0.19749793 -1.7928624 -0.7324824 -0.9977183 0.6177129 1.2775882
538 -0.06799871 2.0308435 2.2224874 -1.27988 -0.37906107 -0.64439255 0.8632956 0.84381145 0.2477277 0.35129267 0.4130164 -0.81667095 0.3519174 0.7289046 -1.0491632 0.70247614
3379 0.16239 1.2687101 1.3328266 -1.0976106 -0.7618253 -1.3301413 0.4228715 -0.2378789 -0.14290275 -0.87004566 -0.9694281 -0.36835435 -2.3754246 -0.7057805 -0.55238473 0.27404052
2981 -0.85296804 1.4086498 0.5829566 0.58256453 -1.6501484 0.5273594 -0.35661384 -1.1010296 0.7782924 0.54289407 0.80269855 -1.7098284 -0.42134884 1.238333 -0.6969812 -0.91488045
1260 0.054711703 0.7723777 2.4550555 -1.0731238 -1.419609 0.7280079 0.34580854 -0.97038305 0.37914404 0.7398387 0.19620737 -1.7439289 0.55281746 -0.65538794 0.6023459 0.6834891
1528 -1.1889925 0.70075834 -0.15249331 -1.4952407 -0.5380316 0.27317524 0.0035348658 -1.0391681 1.2007334 0.3651395 -0.41491613 -2.3028944 -0.32285362 0.43322313 0.6018137 -1.1874689
1026 1.118047 0.99131346 1.9915859 -0.81644046 -1.7494087 -0.20059426 -0.37073612 -0.6355539 -0.3535917 0.86970145 -0.2709145 -1.5145879 -0.8386499 0.03440117 1.3321637 0.48689598
3295 -0.05712093 1.6428446 2.5792336 -0.3324712 -0.6837267 0.40466496 0.34913293 -0.399792 -0.5521524 0.07012362 -0.7054132 -0.82699686 -0.27278453 1.5542808 -0.29791746 1.1248492
2519 0.2959302 -1.2512096 0.789757 -0.5772697 -0.9300986 -1.3689567 0.23714891 -1.7542945 0.785669 -0.55058867 -0.18797272 -2.2266848 -0.81360096 1.4186405 -0.653737 -0.3116896
2372 -0.45157254 1.2587712 0.5486683 -0.87945694 -0.9797321 -1.4235833 1.0762573 -0.055400465 1.328857 -0.9443768 -0.7301721 -0.08310477 -2.242018 -1.0026438 -1.178939 -0.21165445
85 0.41345072 2.0674756 1.5092272 -1.0440747 -0.4159822 -0.7055773 0.4745739 0.913053 1.3843366 1.5463493 -0.3968663 -1.0519215 0.27104515 0.08346757 -1.3939704 -0.3081037
690 -0.046171743 2.0969353 2.0786073 -1.2550391 -0.34985366 -0.69527435 0.88666105 0.8164483 0.31591672 0.3537547 0.5182657 -0.81295717 0.33493716 0.6211648 -1.0510182 0.69013757
750 -0.041904416 0.8999904 1.0361253 -1.0149472 -2.4810052 -0.29561085 -0.2815718 -0.17836101 1.5063611 -0.26210797 -1.1357023 -0.6456927 -0.070324115 0.79345953 0.3499424 1.6882792
1353 0.21887799 0.94216895 0.786378 -1.4473386 -2.474521 -0.971531 -1.277202 -0.5904583 0.9297462 0.3496219 0.30420327 -1.11936 -0.1255746 -0.092036374 -0.1662058 1.2342062
3313 -0.50669974 0.83758616 1.557785 -1.0212424 -0.6885812 -0.08588366 0.8044562 -0.32248366 -0.34794003 2.0943775 -0.15680344 -1.8980539 0.7189862 -0.32810545 -0.95877147 0.9777554
2899 0.790414 -1.2140982 0.8342948 -0.9030085 -0.8034771 -0.86681294 0.20439988 -1.304342 1.2544199 -0.16484404 0.5651679 -1.5351927 -2.12221 1.4521524 -0.026932737 -0.3493115
2976 1.8886722 1.6708068 0.22810248 -1.0608995 -1.0510164 0.27101377 1.1484188 -1.866728 1.0272099 1.2491648 -0.5802042 -1.0288273 -0.7929279 0.6093325 -0.5472391 0.090452954
1178 -0.5674075 1.4091867 -0.6479438 -0.5103504 -0.44473225 -1.1206869 0.044423386 -0.37383953 0.71519536 0.76316303 -1.3524815 -1.9180592 -0.92796564 0.99291664 0.9533984 -0.08405471
1427 -1.6409111 0.94024324 0.27490318 -0.6238714 -0.8547772 -1.8622406 0.73476803 -1.1197623 2.229943 0.13733435 1.813763 -1.2244611 -0.14383054 0.2249035 0.24960326 0.53291607
776 0.21987374 -1.1065414 0.83860636 -0.5369882 -0.6803178 -1.3967888 0.20774062 -1.7676264 0.64339876 -0.78608984 -0.3868985 -2.2958434 -0.94538826 0.89113057 -0.49910125 -0.023959775
3413 -1.0168679 0.3915933 2.0972657 -0.91123533 -0.24331006 1.8012472 0.696329 -0.8897821 1.4951912 0.08772708 -0.8125703 -0.9226067 -1.6440187 -0.28864697 -1.5513542 -0.19739564
1582 1.4391915 1.4297637 -0.005748891 -0.9504078 -1.5767059 -0.077875145 1.1254805 -1.9567304 0.6774344 1.4910122 -0.64336294 -0.6224267 -0.7465537 0.11944701 -0.91204786 0.12826177
2505 0.47735244 -0.059963662 1.6508647 1.1575631 -1.7016613 -1.7235112 1.0776688 0.17983271 0.4594369 1.0655128 -0.17843093 -0.9692965 -0.7229749 0.45457017 -0.8436522 -0.24738486
284 -1.4721975 0.72620124 -0.0021474324 -1.6330864 -0.5156926 0.3923434 -0.3323961 -1.1120818 1.3277382 0.3564664 -0.44573203 -2.1209056 -0.06401234 0.54763454 0.20462954 -0.8988621
2370 -0.6764702 -0.5224568 1.3195829 0.49500686 -2.2318685 -1.5134125 0.9100639 0.61635774 -0.5228343 0.7530264 -0.20466684 -1.6327232 -1.2718986 0.43820587 -0.2377564 -0.056315556
181 -1.178183 0.17401968 0.8340274 -1.7499759 -0.11010711 0.86228174 1.1439165 -1.0587875 1.8767716 -0.30638605 -0.58171505 -1.3162595 -0.1110606 0.34884152 -0.9502691 -0.611418
3047 -1.5238007 0.4770381 0.10231369 0.404511 -2.157697 -1.566336 1.7529114 0.1633589 0.5414079 1.5716584 -0.11890487 -0.44832724 -0.9356389 0.41424444 0.27825427 -0.00827121
3398 -0.24651513 -0.5161365 1.9472771 -0.8718439 -0.77296513 -0.6162993 -0.34310886 -0.56188774 0.8126233 -0.7133484 1.0111831 -0.47332197 -2.315114 1.053998 -0.5726085 -0.26327875
1654 -0.35355374 0.518987 1.4947451 0.9081829 -1.8622336 -1.2482574 1.635419 0.115068845 -0.18977171 0.12571053 0.5960227 -0.8413273 -1.3802849 0.63499224 -2.0941122 0.5132965
560 0.2416531 0.9766839 0.725421 -1.4072071 -2.56943 -1.0616248 -1.3618454 -0.5788704 1.0414668 0.29947937 0.25883418 -0.99621594 -0.33596838 0.033132184 -0.17961323 1.2283318
2676 -1.1250334 0.052201375 0.60555243 -0.4066313 -0.3906352 -1.0995198 1.0174366 -0.08830279 0.48598078 -0.1788814 0.059288207 -0.112961814 -1.5131817 1.1290549 -2.3105853 0.07141894
515 0.21039182 0.9536417 0.993683 -1.2938175 -2.2875173 -0.8763694 -1.2124394 -0.5458398 0.68094724 0.46394205 0.1904677 -1.1596458 0.008671229 -0.13230607 -0.19339985 1.3976463
1195 -0.32236254 1.0948186 1.7974774 -1.0641605 -0.63766783 0.2918465 0.95817184 -0.2409464 -0.7574177 1.2436717 -0.2723719 -1.7557662 0.59385526 0.1864289 -0.94250816 0.92017126
769 0.2173096 0.65418833 1.1002154 -0.80439264 -0.57113516 -1.2768081 0.64820397 -0.65316457 0.24084024 -1.0658766 -0.48090783 -0.4492362 -2.6761117 -0.4451987 -0.4131948 0.65406513
2421 -1.0485979 -0.44858438 0.7824448 0.42345452 -2.2967582 -0.99790543 1.0941763 -0.09080391 1.5240206 1.4617876 -0.19832906 -0.67684764 -0.996409 -0.5133907 -0.0098252185 -0.7992514
338 0.23991157 1.2612597 0.091974065 -0.42796934 -0.6485586 -1.6429725 0.17106779 -0.5388636 1.8115753 0.5856257 -1.0821962 -1.0361401 -1.1322093 0.8321964 1.4143245 -0.8543134
277 -0.9910018 1.3397639 0.6075332 0.04382339 0.45495927 -0.64058733 0.65321153 -0.6377951 1.1730535 0.89896625 -1.9710314 -0.34277847 -1.5664898 1.2642634 -0.011437457 0.14365442
1382 -0.9228667 1.191685 0.68581545 0.4494479 -0.9824388 0.9019618 -0.33940095 -0.99292284 1.0121018 0.6537975 0.26581538 -1.7920911 -0.71873564 0.7429384 -1.4600803 -0.967399
1337 -0.87756443 0.030325709 -0.11540667 -0.5784505 -0.004620036 -0.3831831 1.3467884 0.18952252 1.2823939 0.32877022 -0.9822412 -1.5483276 -1.2082615 0.6275379 -1.7563727 1.2077588
2756 -0.37963554 1.0144969 1.694873 -1.0834033 -0.8109376 -0.021664137 0.5617491 -0.41639686 -0.3777368 1.8451333 0.1508373 -1.8485608 0.6692384 -0.29871747 -1.0101286 1.188675
1614 -0.48890674 0.80646294 0.9916346 -1.20402 -2.3659925 -0.24327216 -0.03666185 0.1834016 1.8208976 -0.30485746 -0.94556946 -0.46979764 -0.06606693 0.8473739 0.15384348 1.5383128
2303 -0.6684861 -0.28945023 0.4616585 0.1200952 -0.5091182 0.9388001 1.0470797 -0.24185833 1.4359379 0.82782125 0.06740358 -1.9308381 -1.8556107 0.3276368 -1.592921 1.1552191
1252 -0.09544277 0.9685861 1.1198694 -1.0381446 -2.4621577 -0.2119318 -0.17630464 -0.0893896 1.5363065 -0.34428114 -1.0678957 -0.56838363 -0.16053544 0.7664255 0.40255186 1.722432
1922 -1.1520348 0.77011883 0.7057437 -0.38698027 0.9130226 -0.89614666 0.11473193 -0.5350145 1.3673694 1.5326841 -1.0135458 -0.3131875 -1.8464553 1.2184684 -0.39259988 -0.09378524
3104 0.32245797 0.8882611 2.5513413 -1.0703284 -1.4144039 0.40467787 -0.07981499 -1.0733111 0.32393917 0.61873645 0.30050117 -1.5939584 0.37531817 -0.49981555 0.79217654 0.67336273
1042 -0.092667766 0.13053352 1.7916034 -1.8157856 0.61141294 0.41852158 1.7700763 -1.1918899 1.826496 0.33790144 -0.2263369 -0.31593874 -0.9729051 -0.0076552443 -1.2412665 0.007324896
3467 -0.81126606 0.15587752 1.1809021 -1.8987206 0.10138629 0.62566954 1.4627967 -1.177199 2.0295756 -0.14849755 -0.51794064 -1.1073903 -0.0646913 0.1966622 -0.89839256 -0.55226153
3046 -0.28476557 0.9213865 1.346769 -0.9813434 -2.2452943 0.08657286 -0.058223404 0.37389022 1.8065819 -0.18547773 -0.9819424 -0.47052494 -0.39976707 0.6398358 0.637258 1.5358877
3077 0.37784865 2.069927 1.3624338 -1.1216962 -0.4574124 -0.6272195 0.5250019 0.97948223 1.314146 1.6095713 -0.26852575 -1.0765016 0.19985057 0.11377275 -1.3819934 -0.33434603
1997 -0.51210916 0.57974815 1.4745913 0.31210747 0.5397502 -1.4637567 1.1188964 -1.765286 0.4136196 0.49437007 -0.055090643 -1.7906195 -1.0404881 -1.0769926 0.33003244 0.823212
955 -0.2715128 1.0026697 1.1972744 -0.9688619 -2.2546706 0.078604534 0.09505809 0.12057808 1.9314698 -0.2437635 -1.0894659 -0.43189472 -0.280187 0.72677076 0.3615228 1.5777597
349 -0.28584573 0.844003 1.8727814 -0.98391557 -0.37464416 0.1897554 1.2422553 -0.06804658 -0.57404 1.597321 -0.3627236 -1.8274833 0.6026032 0.18618158 -0.7532585 0.528451
278 0.010840204 0.3862713 1.4034443 0.09636371 0.46722558 -1.8735762 1.3632928 -1.2978635 1.0857453 0.6083956 -0.29241207 -1.7734534 -0.7404593 -1.0075412 0.62081856 1.493199
1024 -0.77174455 1.1949759 -0.2767692 -1.1844659 -0.88021445 -0.6994645 0.186221 -0.50892466 0.7339358 0.27723294 -0.78520054 -2.2753541 -0.22784126 0.93580484 1.3422151 -0.9371711
1217 -0.6886098 -0.08447573 0.84745127 0.49368948 -2.290772 -1.5356797 1.0962979 0.67128253 -0.67481256 0.5952475 0.055094678 -1.6204197 -1.2905495 0.55020565 -0.2539167 0.06949512
1948 0.49034333 0.039064772 1.378106 0.84696865 -2.0611506 -1.6345588 1.3382206 0.33297876 -0.077174746 0.7625684 0.10525671 -1.2059858 -0.9110213 0.45145178 -0.74278086 -0.13942014
1146 -0.40662637 0.11465476 1.513129 -1.8903995 0.37409624 0.39611107 1.4779087 -1.3304837 1.93964 0.10574183 -0.051996026 -0.5581631 -0.3446241 0.12713908 -1.0101657 -0.44400007
11 -0.11789941 1.3578113 1.0986968 -1.0195005 -0.8540519 -1.3988903 0.64758927 -0.20027077 -0.035217557 -0.6991325 -1.1844618 -0.31189966 -2.0692565 -1.090529 -0.64038074 0.12928192
976 -0.80641574 -0.18328148 0.9367966 0.49874622 -2.2765324 -1.5153619 1.0366346 0.6689864 -0.7113233 0.64296937 -0.043361913 -1.6120845 -1.3465006 0.5295965 -0.17123406 0.13137533
783 0.2134352 1.8687981 2.0604212 -1.3806636 -0.4680958 -0.50041395 0.67422616 0.5614226 -0.06280506 0.15942322 0.08463114 -1.1029482 0.4916139 0.9456541 -0.998975 0.6478687
