32 128
1 -0.435682 -0.234658 -0.234219 -0.282556 -0.360611 -0.208511 -0.079501 -0.254979 0.446180 0.358282 -0.217540 -0.072077 -0.676624 0.197489 -0.459396 0.329422 0.322157 0.082518 -0.175142 0.085558 0.495601 0.486182 -0.507248 0.365171 -0.318351 -0.405669 -0.229778 0.286935 0.017658 0.516430 0.564589 0.130879 0.219229 -0.023800 -0.254552 0.500768 0.400136 -0.192121 0.053638 0.620466 -0.447491 -0.171562 0.067804 0.152361 0.468650 -0.940706 0.677416 -0.973514 0.004432 -0.431948 -0.308220 0.142615 -0.598643 -0.442573 0.679796 -0.072397 0.143098 -0.035719 0.430616 -0.122556 0.349802 0.268749 0.089211 -0.852622 0.222435 0.534510 0.231238 -0.702954 0.031657 0.448903 -0.066904 -0.038703 -0.047553 0.852525 0.079103 0.140461 0.046556 0.532183 0.024426 -0.196824 -0.025130 0.651218 -0.499970 0.185589 0.081890 0.509684 0.253012 -0.397431 -0.543022 -0.497857 0.555726 0.150004 0.339407 -0.033196 -0.609218 0.694130 -0.353348 0.852229 -0.289024 -0.181732 0.406769 0.089842 -0.186691 -0.360544 0.081466 -0.468147 -0.362977 0.298111 0.223193 0.727318 -0.144208 0.029657 -0.702786 0.089449 0.516470 -0.287754 -0.286942 0.026693 -0.142706 0.155006 0.354632 -0.583331 0.435223 -0.001637 -0.357160 -0.167474 -0.235042 -0.510052 
3 -0.103977 -0.048369 0.449513 -0.257552 0.138622 0.155795 -0.867877 0.418019 -0.053677 0.352360 -0.470241 -0.567276 0.340145 0.509135 0.451213 0.204163 0.236121 -0.040657 0.227976 0.122960 0.411395 0.618718 -0.687007 0.161928 -0.349254 0.088677 0.073516 -0.025045 0.125194 0.062614 0.096511 -0.635802 -0.246145 0.002853 0.472631 -0.007506 -0.199543 0.544832 -0.703972 0.518050 0.201488 -0.309403 -0.431734 0.002531 0.340050 0.023544 0.058368 -0.023880 -0.499832 -0.341420 0.687069 -0.353553 -0.792720 0.018663 -0.125009 -0.143664 0.494854 -0.392627 -0.299683 0.748482 0.814618 0.078976 0.545189 -0.263286 -0.114234 0.316328 0.110934 -0.425835 -0.070080 0.200279 0.091599 0.264020 -0.577510 0.254315 0.268677 0.403377 0.059683 0.128698 0.014812 -0.221672 0.204156 -0.024309 0.025750 0.327758 -0.204598 0.020154 0.950738 -0.059265 0.148634 -0.108232 -0.136852 0.094366 0.324557 -0.110921 -0.597809 0.148543 -0.336845 0.092321 -0.546608 0.423348 -0.100295 0.519782 0.254133 0.044509 0.160330 0.284899 -0.679497 0.191628 -0.568525 0.341106 -0.108432 -0.036250 -0.212680 -0.254568 0.373832 -0.584890 0.642411 -0.746459 -0.172972 0.707452 0.046954 0.044918 0.036827 0.388615 -0.230587 0.221106 0.239019 0.150311 
2 0.317805 -0.165077 0.055786 0.189779 0.028828 0.215857 -0.695455 -0.071839 0.406493 0.363903 -0.622412 -0.665009 0.261499 0.604990 0.375573 -0.349067 0.339771 -0.605298 0.865252 0.253541 -0.041278 -0.156159 -0.590258 -0.546610 0.691841 0.327946 -0.334818 0.110275 -0.399736 -0.061387 -0.017570 0.332375 0.014235 0.041073 0.609843 -0.055350 0.428716 0.056053 -0.563197 0.232676 0.335450 0.155388 -0.198270 0.275300 0.312196 -0.871159 0.816484 -0.449630 -0.427250 -0.702565 0.059491 0.305237 -0.358463 0.076376 0.171459 0.140610 0.425761 -0.347327 -0.033531 0.224071 0.349162 -0.046706 -0.232062 0.201283 -0.174366 0.098945 0.360451 -0.282417 -0.188242 -0.043126 0.369194 -0.021967 -0.016457 0.796496 -0.256423 0.235006 0.447206 0.461241 -0.435541 -0.304947 0.407426 1.196497 -1.030140 -0.111249 -0.133605 -0.260696 0.771194 -0.031500 0.033141 -0.694802 -0.323260 -0.274936 -0.099924 -0.015896 0.266597 0.380188 0.084257 -0.071166 -0.070135 0.831174 0.628404 0.063631 0.893322 0.062943 0.928881 -0.742705 -0.100933 -0.443656 0.050612 0.473175 0.036247 0.032599 0.431383 -0.268202 0.382117 0.099890 -0.284876 -0.342410 -0.613834 0.019500 0.962042 -0.110105 -0.232280 0.619668 -0.316712 -0.640723 -0.623456 0.075262 
4 0.265495 0.230055 0.408104 -0.245433 -0.169147 0.116908 -0.690891 0.138795 0.139306 0.461028 -0.187839 -0.422623 0.311339 0.585741 0.225833 0.212245 0.138379 0.108388 -0.013514 0.042012 0.527040 0.638356 -0.610692 0.102595 -0.331589 0.142177 0.194112 -0.003643 -0.262987 0.366917 0.128932 -0.328161 0.033424 0.250478 0.065082 0.275096 0.108162 0.167705 -0.492448 0.344558 0.278522 -0.475228 -0.678934 0.128292 0.399156 -0.393908 0.324709 -0.494323 -0.272058 -0.121779 0.397297 -0.199068 -0.589159 -0.294106 0.143563 0.015121 0.340634 -0.413994 0.008216 0.372889 0.701932 -0.087537 0.201040 -0.178148 0.282128 0.015511 0.060726 -0.104226 -0.168311 0.490761 0.085479 0.042259 -0.614686 0.609382 0.002228 0.158092 0.134287 -0.005384 0.121839 -0.059344 0.068181 0.500053 -0.361936 0.137800 -0.435684 0.073204 0.412322 -0.201133 0.100683 -0.046366 -0.532056 0.180474 0.328991 -0.212427 -0.265095 0.460498 -0.246513 0.264189 -0.299949 0.210932 0.129263 0.180487 0.437068 -0.158557 0.356884 -0.059046 -0.396277 -0.200160 -0.352064 0.224698 0.090973 -0.145775 0.016665 0.026260 0.079758 -0.374674 0.216331 -0.468158 -0.104853 0.316860 0.454551 0.204240 -0.019722 -0.269295 -0.326573 -0.026127 0.164887 -0.167260 
6 0.040300 0.243243 0.253451 -0.528779 0.118736 0.434707 -0.742996 -0.352322 0.836616 0.322263 -1.105937 -0.045504 -0.168280 1.152189 0.427552 0.220061 -0.087791 -0.302625 0.145576 1.036178 0.082010 0.287672 -0.927905 0.436506 0.036130 -0.156082 -0.221554 0.175916 0.628232 0.111353 0.161270 -0.479681 0.187674 -0.471614 -0.353698 0.372169 0.881864 0.397429 -0.179006 0.361660 0.453240 -0.076884 -0.432530 0.484742 0.102873 -0.297499 0.570492 -0.423488 0.106624 -0.200067 0.430901 0.354940 -0.751904 -0.170334 -0.112657 0.283242 0.320409 0.105378 0.322750 -0.173860 0.450693 0.273620 0.364206 0.139863 0.147926 0.197891 0.048651 -0.201676 0.245580 0.486024 0.062857 0.190510 0.236404 0.040636 0.155108 -0.119142 -0.553125 0.007494 -0.236212 0.096327 0.693719 0.765385 -0.380442 0.421708 -0.625754 -0.009371 0.111754 0.486258 -0.270536 0.031529 0.229595 0.097107 -0.009361 -0.095249 -0.486124 0.977471 -0.302657 0.495313 -0.389415 0.474845 0.531462 0.009753 0.822774 0.062048 0.422238 -0.285478 0.327142 -0.466378 -0.388111 -0.002720 0.043790 0.357602 0.058046 -0.329588 0.335009 0.028715 -0.490663 0.081702 -0.337282 0.308366 -0.046490 0.708703 0.179745 -0.137460 -0.201645 -0.153812 -0.161476 -0.649956 
7 -0.059065 0.022608 0.418302 0.322403 0.332694 -0.083764 -0.707035 -0.387103 0.441523 0.166486 -0.449471 -0.207906 -0.042968 1.038140 0.388011 -0.222431 0.095027 0.215459 0.059368 0.569258 0.626707 0.302125 -0.551960 0.396742 -0.546400 -0.098010 -0.242077 0.169157 0.247593 0.364280 -0.475514 0.182674 0.361977 -0.323993 -0.596377 0.417967 0.701430 0.298151 -0.753095 0.479386 0.118949 -0.619796 -0.361179 0.266631 0.278824 -0.528283 0.796915 -0.551638 -0.727066 0.237021 -0.191057 -0.196125 -0.410427 0.411217 0.046316 -0.247460 0.771674 -0.492709 -0.072514 0.207376 0.124337 0.502532 -0.210501 0.022189 -0.309761 0.342501 -0.133449 -0.345651 -0.749021 0.488677 0.515619 0.589432 -0.552385 0.472285 -0.095162 0.161051 0.058554 0.217497 -0.265539 0.138315 0.346329 0.210548 -0.422105 0.668142 -0.221237 -0.299348 -0.021708 0.051254 0.492834 -0.381594 0.231202 0.491440 0.301634 0.123429 -0.421684 0.095703 -0.143559 0.664556 -0.261299 0.336405 0.344877 0.117617 0.306265 -0.509181 -0.184934 -0.161594 0.031131 -0.011655 -0.112797 0.075846 -0.365363 0.258073 -0.405091 -0.120021 0.402384 -0.041058 -0.355487 -0.165590 -0.894787 0.088017 0.442590 0.018337 0.362021 -0.389605 -0.267472 -0.359788 -0.745372 -0.093351 
5 -0.060461 -0.008642 0.414345 -0.306064 0.025061 0.414904 -0.410067 -0.524703 0.588424 -0.086308 -0.685493 -0.683357 0.376185 0.636108 0.282484 -0.600045 0.244448 -0.431053 -0.016691 0.890659 0.424370 0.530594 -0.268626 0.381100 -0.371171 -0.021474 0.093139 0.464977 -0.591969 0.178210 0.011434 -0.264600 -0.376990 0.251898 0.059909 -0.029116 0.716370 0.172862 -0.761204 0.201841 0.067208 -0.124317 -0.246601 0.137369 0.271717 -0.382613 0.118906 -0.789344 -0.663071 -0.229393 -0.090300 0.304679 -0.725995 -0.022766 0.337077 0.662314 0.151563 -0.263597 0.184255 0.035603 0.454104 -0.210619 0.150679 -0.305782 -0.142514 0.256501 0.533644 0.126384 -0.029163 0.063224 -0.133219 -0.160137 0.040632 0.446800 -0.290091 0.207535 -0.290268 0.176215 -0.712640 0.541736 -0.205052 0.054385 -0.791862 0.203768 -0.389157 0.170287 0.253069 -0.179696 0.309466 -0.567795 -0.182599 0.358068 0.480428 0.228317 -0.691000 0.221443 -0.317981 0.192066 -0.081423 -0.104042 0.197907 0.508728 0.733098 -0.651060 0.121590 0.293576 0.083649 -0.491580 -0.239042 0.241798 0.051666 -0.029646 -0.035421 -0.179114 0.326686 0.581072 -0.168175 -0.078800 -0.873854 -0.055385 0.675940 -0.135104 0.153877 -0.132041 -0.536232 -0.377961 0.119073 -0.701256 
8 -0.052381 -0.066804 0.197512 0.090516 -0.395328 0.277998 -0.421483 -0.042703 0.382113 0.781634 -0.459796 -0.287348 0.170518 0.623163 0.597422 0.349947 -0.145750 0.019027 -0.133190 0.375780 0.721835 0.810104 -0.808048 0.136352 -0.488819 0.152333 0.247657 0.014009 -0.081348 0.424406 0.306381 -0.521116 0.182585 0.236651 0.036511 0.284139 0.101183 0.125649 -0.387280 0.436355 0.315776 -0.216946 -0.769089 0.014749 0.299167 -0.489753 0.311803 -0.857317 -0.317533 0.045017 0.097392 -0.063731 -0.311294 -0.401442 0.234347 0.064945 0.349507 -0.610963 -0.016109 0.198711 0.827805 -0.134158 0.255550 -0.156927 0.255340 -0.112142 0.058722 -0.188908 -0.239229 0.355411 -0.037154 0.141589 -0.622915 0.737652 0.111647 0.119485 0.257536 -0.246958 0.378155 -0.275355 0.273603 0.635594 -0.275103 -0.006269 -0.093773 -0.269255 0.286128 -0.247827 0.143429 -0.039011 -0.189175 0.326898 0.104761 -0.064203 -0.575082 0.360316 -0.274713 0.185891 -0.216034 0.132754 0.056858 0.302056 0.498928 -0.416205 0.193366 0.178549 -0.358747 -0.258071 -0.714127 0.014877 -0.034419 -0.493156 -0.363479 0.302524 0.299260 -0.316098 0.477082 -0.228937 -0.337545 0.557662 0.295033 0.487610 -0.097755 -0.360553 -0.185412 -0.302453 -0.173790 -0.414999 
9 -0.291059 0.042345 -0.164209 0.212606 0.069570 -0.324467 0.349814 0.020481 -0.196471 0.084823 0.252262 0.013867 -0.415695 -0.261426 -0.076055 0.107938 -0.161876 0.265612 -0.497119 -0.323969 0.038381 0.423975 -0.044405 0.502195 -0.592902 0.035261 0.387282 -0.061426 0.100761 0.349713 -0.187810 -0.047648 -0.085277 0.328581 -0.036908 0.147469 0.322117 0.344639 -0.287739 0.103639 0.311145 -0.368735 -0.352029 0.252321 -0.044782 -0.117679 0.248833 -0.252385 -0.147301 -0.217361 0.206679 -0.058853 -0.212088 -0.066030 0.191492 0.249016 0.267733 -0.267732 0.108046 -0.278205 0.106215 0.310478 0.099195 -0.141178 -0.163552 -0.022710 0.218201 -0.045710 -0.245841 -0.143127 -0.029274 0.148771 0.145721 0.405852 -0.199136 -0.213818 0.231985 -0.331521 0.301170 -0.332244 0.093218 0.330807 -0.189554 0.110079 -0.212191 -0.207546 0.096761 0.134300 0.216499 -0.123722 -0.161080 0.145918 0.066596 -0.040729 -0.105528 0.173169 -0.027448 0.052540 -0.003917 0.185978 0.065245 0.020562 0.297130 -0.083276 0.036201 0.046631 0.145518 -0.124620 -0.124199 -0.019471 0.093851 -0.037894 -0.071432 0.033789 0.139842 0.007523 -0.021622 0.084513 -0.242745 0.084663 -0.019792 0.068518 -0.001327 -0.223381 -0.021887 -0.106495 -0.163564 -0.080551 
10 0.273727 0.257537 0.423266 -0.248853 -0.152297 0.095138 -0.711528 0.130371 0.134922 0.469003 -0.196430 -0.451787 0.290902 0.623752 0.233899 0.219859 0.137751 0.113644 -0.020180 0.046630 0.584850 0.687749 -0.670722 0.104657 -0.355571 0.165659 0.204795 -0.006185 -0.304950 0.405210 0.131930 -0.358614 0.040029 0.271486 0.053903 0.303559 0.112993 0.178454 -0.537354 0.350125 0.306827 -0.517117 -0.759955 0.125870 0.441798 -0.422496 0.337566 -0.540265 -0.290631 -0.112313 0.425751 -0.209053 -0.632972 -0.313173 0.146036 0.017545 0.364055 -0.452225 0.010385 0.410819 0.765678 -0.108604 0.209630 -0.176716 0.295274 0.011177 0.079706 -0.102530 -0.198792 0.531239 0.094807 0.051644 -0.658964 0.672726 -0.015373 0.160604 0.162559 -0.032724 0.136015 -0.072613 0.062753 0.535619 -0.399625 0.153889 -0.477287 0.084340 0.428356 -0.217800 0.113374 -0.047703 -0.578755 0.174382 0.365072 -0.231181 -0.286672 0.486716 -0.263902 0.285509 -0.328130 0.237094 0.150908 0.186506 0.497122 -0.171918 0.393248 -0.062554 -0.414790 -0.229743 -0.385462 0.242947 0.106618 -0.148990 0.040231 0.018925 0.078583 -0.391259 0.213753 -0.508984 -0.132572 0.330204 0.508133 0.224933 -0.030923 -0.304495 -0.352843 -0.036523 0.171611 -0.182419 
11 0.277434 0.260956 0.433045 -0.265484 -0.145966 0.075511 -0.716821 0.135966 0.132327 0.468923 -0.177579 -0.459250 0.295455 0.629291 0.214361 0.221576 0.149861 0.122312 -0.017020 0.044261 0.574747 0.685785 -0.670971 0.108549 -0.343643 0.156061 0.192535 0.001805 -0.312214 0.402321 0.125242 -0.344466 0.043394 0.272503 0.041000 0.302557 0.109731 0.162783 -0.538157 0.356737 0.297558 -0.531945 -0.755271 0.129155 0.452533 -0.424500 0.346648 -0.536608 -0.278432 -0.103252 0.429227 -0.213892 -0.638219 -0.329368 0.143028 0.009399 0.353515 -0.432676 0.007304 0.417931 0.761833 -0.119285 0.201969 -0.174410 0.314621 0.013576 0.065220 -0.088357 -0.193528 0.550008 0.095733 0.045601 -0.666883 0.678686 -0.012487 0.167207 0.157973 -0.022871 0.135733 -0.056539 0.048851 0.535815 -0.402160 0.160179 -0.491982 0.111378 0.424460 -0.234076 0.100892 -0.043956 -0.592492 0.165423 0.374180 -0.238301 -0.281038 0.493780 -0.262217 0.292462 -0.319227 0.218751 0.129846 0.168000 0.480125 -0.158981 0.393900 -0.062402 -0.433078 -0.224407 -0.361500 0.250552 0.111125 -0.145087 0.050489 0.032124 0.062585 -0.421231 0.220984 -0.514201 -0.090259 0.320235 0.507629 0.214278 -0.021153 -0.310940 -0.369265 -0.010379 0.212834 -0.176987 
13 0.256213 0.264754 0.417602 -0.261704 -0.140264 0.072763 -0.714386 0.132897 0.129561 0.463194 -0.187498 -0.461480 0.274800 0.614956 0.208811 0.222325 0.149720 0.125172 -0.027095 0.044566 0.573715 0.695014 -0.672005 0.132555 -0.361378 0.147107 0.203104 0.002321 -0.297852 0.412678 0.121102 -0.347647 0.033343 0.260326 0.047080 0.303738 0.129557 0.181855 -0.547232 0.373782 0.296860 -0.536208 -0.744228 0.139803 0.455113 -0.424545 0.352690 -0.530221 -0.286300 -0.104013 0.434533 -0.215578 -0.647181 -0.323908 0.141487 0.007326 0.354082 -0.438246 0.009059 0.427632 0.767373 -0.119690 0.206671 -0.179942 0.311185 0.014690 0.067351 -0.097885 -0.189699 0.549044 0.093652 0.048769 -0.673095 0.674601 -0.011188 0.168013 0.155135 -0.016783 0.129592 -0.051409 0.052615 0.522590 -0.392793 0.160542 -0.495590 0.114215 0.428069 -0.232393 0.105847 -0.036898 -0.592470 0.170537 0.375803 -0.241464 -0.283487 0.498810 -0.266322 0.294923 -0.328097 0.213586 0.129374 0.173498 0.473945 -0.163245 0.391756 -0.060650 -0.445714 -0.215546 -0.372873 0.253929 0.111546 -0.148891 0.041692 0.033709 0.062799 -0.430598 0.234404 -0.526758 -0.081546 0.324430 0.505333 0.214753 -0.015900 -0.312592 -0.372509 -0.003134 0.222917 -0.165144 
14 0.128380 -0.180446 0.187259 0.239064 0.060959 0.048438 -0.381068 -0.157233 0.120948 0.201384 -0.665198 -0.500062 -0.369502 0.586280 0.355047 -0.259797 -0.025111 -0.393307 0.161588 -0.132841 0.229818 0.015354 -0.697042 0.089186 -0.132777 0.422111 -0.215009 0.159563 -0.246913 0.301083 0.016532 0.208447 0.307738 0.031961 0.456324 0.261294 0.507879 0.240393 -0.769852 0.012002 0.259533 0.046566 -0.682872 -0.056400 0.281261 -0.939685 0.823909 -0.635468 -0.696980 -0.778786 0.000141 0.297092 -0.452111 0.201306 0.193483 0.238294 0.603281 -0.684205 0.075166 0.021901 0.681363 0.261951 -0.095178 0.020288 -0.380670 0.215128 0.467255 -0.362158 -0.553295 0.115782 0.561364 -0.047535 -0.196971 0.717830 -0.520499 0.197237 0.318444 0.093947 -0.463404 -0.499371 0.251626 0.865631 -0.992970 0.000944 0.109702 -0.351008 0.634045 -0.148311 -0.031015 -0.636754 0.006363 -0.223151 -0.019197 -0.156891 -0.025597 0.122827 0.196056 0.113486 -0.364859 0.508756 0.257720 -0.092105 0.644175 0.150111 0.432655 -0.515174 -0.548555 -0.367093 -0.128030 0.749984 -0.190153 -0.223215 -0.262179 0.315313 0.666266 0.099916 -0.136467 -0.269039 -0.633143 0.206434 0.315316 -0.489224 0.500026 0.518829 -0.206958 -0.394457 -0.692083 0.336321 
17 0.301080 0.271229 0.446407 -0.273792 -0.150021 0.090535 -0.748258 0.145887 0.131586 0.480987 -0.187537 -0.469213 0.319320 0.648438 0.230163 0.220142 0.150783 0.117731 -0.017733 0.043298 0.580151 0.696684 -0.682401 0.113862 -0.346385 0.163835 0.204945 0.001138 -0.306370 0.412696 0.119435 -0.356248 0.030454 0.268835 0.052980 0.304666 0.118986 0.181014 -0.548113 0.367015 0.313967 -0.532757 -0.765005 0.135781 0.461285 -0.422088 0.354067 -0.528970 -0.293363 -0.120041 0.450882 -0.219437 -0.661079 -0.323733 0.142247 0.014171 0.373770 -0.449222 0.008943 0.429553 0.775545 -0.112210 0.209205 -0.175036 0.307463 0.012034 0.079423 -0.099903 -0.190820 0.543238 0.098964 0.049091 -0.674383 0.685734 -0.013419 0.163499 0.161564 -0.021860 0.129255 -0.062259 0.062960 0.541244 -0.408661 0.163816 -0.508301 0.100131 0.442972 -0.220193 0.111789 -0.048069 -0.603782 0.170506 0.379601 -0.241830 -0.285575 0.507771 -0.271193 0.294417 -0.334152 0.238540 0.148299 0.185049 0.508058 -0.163155 0.413111 -0.063640 -0.435403 -0.234359 -0.377411 0.253974 0.117897 -0.145145 0.055458 0.029141 0.066839 -0.420447 0.222770 -0.533001 -0.099923 0.333058 0.522020 0.229973 -0.029109 -0.317803 -0.374206 -0.012482 0.209987 -0.174415 
18 -0.001531 -0.000296 0.001910 -0.002709 0.002711 -0.002810 0.000032 0.000514 -0.003058 -0.003342 0.000413 0.002362 -0.002114 -0.000791 -0.003664 -0.003877 -0.001170 -0.001873 -0.003285 -0.001480 0.000872 0.002324 0.002648 0.002839 -0.002702 -0.002727 -0.000393 0.002365 -0.002982 -0.000302 -0.003495 -0.001802 0.001133 0.002886 0.002252 -0.000751 0.002928 0.000121 0.002322 -0.001196 0.003501 0.000317 -0.002186 -0.002039 -0.003861 -0.003242 -0.002362 -0.002180 -0.002435 -0.001644 0.002894 -0.000521 0.001066 -0.001604 -0.000945 -0.003777 -0.000072 -0.002021 0.002845 -0.003036 0.003061 -0.001799 -0.000263 0.002802 0.003752 0.000162 -0.001358 -0.000792 0.003099 -0.002852 0.000659 0.002908 0.002202 -0.001930 -0.000925 -0.000626 0.002158 -0.003786 0.002800 -0.002482 -0.003745 0.000492 -0.002692 -0.001562 0.001215 -0.003623 -0.000677 0.003234 0.002512 0.000592 0.002130 -0.002622 0.001245 -0.001389 -0.000984 -0.002406 -0.001488 -0.000654 -0.001108 -0.002831 0.003225 0.003895 0.002857 -0.002800 0.000857 -0.002269 -0.003616 -0.001212 0.000319 -0.002422 -0.003803 0.003030 0.002711 -0.003277 0.003395 0.003212 0.001317 -0.003736 0.003451 0.000433 -0.002762 -0.002700 -0.002536 0.003605 -0.000617 0.000929 0.002157 -0.001800 
20 -0.453931 -0.249691 -0.255644 0.447184 -0.232990 0.009472 0.375759 -0.097631 0.166242 0.497254 -0.112424 0.079928 -0.279039 -0.085746 0.380549 0.229949 -0.386900 0.120956 -0.467255 0.104074 0.256799 0.559984 -0.256158 0.329216 -0.555127 0.047071 0.363816 -0.050028 0.206428 0.281736 0.059621 -0.271141 0.068051 0.289868 -0.012624 0.109269 0.272559 0.249270 -0.190967 0.234588 0.334735 -0.128365 -0.409510 0.166002 -0.099572 -0.236728 0.238544 -0.578831 -0.198319 -0.069909 -0.058433 0.054929 -0.007071 -0.192247 0.277423 0.255495 0.265379 -0.437583 0.063364 -0.346076 0.278579 0.186751 0.150794 -0.127045 -0.086367 -0.132332 0.144387 -0.123565 -0.225367 -0.195508 -0.140977 0.202027 0.039152 0.508969 -0.011122 -0.182727 0.274111 -0.419664 0.462219 -0.427325 0.309888 0.507378 -0.134842 -0.061186 0.067089 -0.495963 0.060465 0.059800 0.259709 -0.108333 0.071250 0.324475 -0.128041 0.093656 -0.373749 0.143745 -0.120530 -0.011552 0.048396 0.165819 0.051253 0.187979 0.389693 -0.347292 -0.041039 0.207430 0.128933 -0.204468 -0.487663 -0.197420 -0.021630 -0.354378 -0.376882 0.259006 0.338529 0.021954 0.282786 0.255641 -0.421210 0.329692 -0.095269 0.373527 -0.096328 -0.261166 0.053051 -0.370778 -0.421367 -0.330426 
22 0.010583 0.931666 0.092035 0.151846 0.189747 -0.386635 -0.054889 -0.487615 -0.358469 -0.103470 -0.219773 -0.407687 -0.441714 0.512305 -0.019537 -0.272002 -0.109920 0.004028 -0.458909 0.083343 0.579300 0.410643 -0.851659 0.629936 -0.845279 0.494729 0.633093 0.249037 -0.139127 0.852946 -0.464439 -0.054851 0.183879 -0.422562 -0.243657 0.416065 0.419833 0.246951 -0.306775 -0.037140 0.521096 0.149536 -0.690451 -0.029300 0.663955 -0.383467 0.375708 -0.546682 -0.536103 0.152572 0.187383 0.107234 -0.584096 0.152987 -0.276248 0.344828 0.553087 -0.698414 0.144965 0.567514 0.499789 0.110650 -0.034791 0.297412 -0.114005 -0.013671 0.582643 0.217514 -0.587391 0.425414 0.095488 0.135260 -0.297637 0.372976 -0.687956 -0.025127 -0.017364 -0.295734 -0.544755 0.153100 0.251399 0.111471 -0.425779 0.182820 -0.440205 -0.044473 -0.115532 0.067034 -0.079472 -0.204748 -0.090798 -0.229942 0.408767 -0.095626 -0.382066 0.148926 0.091152 0.389574 -0.547945 -0.028978 0.555853 0.165369 0.880546 -0.132603 0.275418 0.032045 -0.258592 -0.321947 -0.491379 0.179432 -0.185222 0.014506 0.049004 0.247590 -0.049793 0.621465 -0.599677 -0.658328 -0.356357 0.250309 0.442395 0.264220 0.386580 -0.437614 -0.329008 0.202477 0.060860 -0.299194 
24 -0.303149 0.019685 -0.175463 0.215754 0.070516 -0.316188 0.333960 0.022674 -0.165404 0.101260 0.249992 0.001633 -0.395136 -0.261012 -0.070905 0.090363 -0.157221 0.277539 -0.499709 -0.339777 0.013549 0.449471 -0.027998 0.511904 -0.596132 0.025726 0.404423 -0.065677 0.102690 0.338398 -0.201999 -0.040513 -0.080799 0.345012 -0.043743 0.129013 0.351932 0.355969 -0.309745 0.127990 0.315033 -0.386505 -0.340598 0.282559 -0.049536 -0.142188 0.282167 -0.277364 -0.179882 -0.269130 0.215633 -0.055611 -0.241141 -0.066042 0.205058 0.254729 0.286138 -0.273614 0.109411 -0.293022 0.112016 0.313616 0.084028 -0.143364 -0.160112 -0.009144 0.219122 -0.046635 -0.238046 -0.117425 -0.010961 0.155338 0.147951 0.405912 -0.200595 -0.193802 0.212099 -0.305291 0.260281 -0.306009 0.120514 0.385681 -0.229515 0.109701 -0.238201 -0.218169 0.136314 0.146159 0.226624 -0.162225 -0.160953 0.146502 0.069449 -0.020641 -0.110881 0.200974 -0.050611 0.071432 -0.004501 0.231824 0.075900 0.012771 0.319143 -0.094764 0.037818 0.046413 0.139559 -0.116133 -0.121015 -0.002108 0.085861 -0.035086 -0.117709 0.077558 0.183360 0.006282 -0.021005 0.099341 -0.255209 0.093058 -0.027181 0.042621 0.036232 -0.212205 -0.056099 -0.107259 -0.167986 -0.079333 
25 0.029315 -0.198089 0.654612 -0.677258 -0.087900 0.949148 -0.949024 -0.038773 0.297443 -0.470993 -0.819890 0.231382 0.028958 0.662340 -0.099329 0.112620 0.340443 -0.152181 0.352742 0.165473 0.391808 -0.308219 0.139345 0.021358 -0.265192 -0.398254 -0.812073 0.024166 0.337640 0.016645 0.551025 -0.107493 -0.310032 0.464448 0.372793 0.558216 0.474840 0.609704 -0.577910 0.186895 -0.101666 -0.751931 -0.375445 0.091360 -0.103363 -0.304531 0.098041 -0.029610 -0.215255 -0.738138 0.675926 -0.471917 -0.948248 0.031881 0.493645 -0.006664 0.367583 -0.251400 0.296839 -0.132532 0.564288 0.632272 0.538152 -0.964714 -0.372765 0.605340 0.233572 -0.812011 -0.186228 0.499251 0.325609 -0.022091 -0.471995 -0.135239 0.052479 0.113232 -0.348923 0.116828 0.156873 -0.178060 -0.369586 -0.005122 -0.203933 0.671202 -0.208945 0.098350 0.560928 0.058466 0.371498 -0.153365 -0.452405 0.956690 0.479138 -0.651832 -0.199692 0.759043 -0.218353 0.413861 -0.536368 0.068844 0.288954 0.409985 -0.203309 0.070674 0.196396 -0.611836 -0.033701 -0.224393 -0.051469 0.539984 0.026930 0.233480 0.184324 -1.204026 0.079677 -0.439029 -0.087191 -0.359269 -0.948356 0.065338 0.501311 -0.022529 -0.414286 -0.031687 0.438506 -0.442502 -0.484245 -0.246366 
26 -0.002610 0.002685 0.000851 -0.002516 -0.001580 0.001931 -0.001282 0.003165 -0.001352 0.000039 -0.000982 0.003130 -0.003270 0.003479 0.000406 0.003849 -0.000864 0.003094 0.001541 -0.003835 -0.003289 -0.002457 0.001080 0.002176 0.003738 0.001107 -0.002320 -0.002902 0.003247 -0.003182 -0.002190 0.003029 0.001710 -0.001040 0.000129 0.002999 -0.002217 -0.001624 0.003293 0.003479 -0.002064 0.001537 -0.001853 0.003125 0.000827 -0.000713 -0.001027 0.000596 -0.002701 -0.001905 -0.003385 0.002360 0.001636 -0.003380 -0.002455 -0.000738 -0.003131 0.001330 0.000418 -0.002227 -0.002719 0.003071 0.003892 -0.003451 0.001529 0.000500 -0.001188 0.002060 0.000457 0.000085 -0.000540 -0.002662 0.000536 0.000486 -0.003319 -0.003334 0.000422 0.000359 -0.003056 -0.001299 -0.001227 -0.001640 -0.001093 0.002100 0.002059 0.000961 0.001227 -0.002293 0.001124 -0.000995 0.002561 -0.000195 0.002438 -0.001037 0.001566 -0.000760 -0.003154 -0.000509 -0.003100 0.002479 -0.001371 -0.000753 0.002844 0.000368 -0.001366 -0.003113 0.002432 -0.000622 0.003329 -0.001117 0.002133 -0.001836 0.003559 0.003891 0.000603 0.003198 -0.002019 0.002754 -0.003499 -0.002490 0.000878 0.001945 -0.003705 0.003196 0.003094 0.000119 -0.001356 0.003288 
28 0.023891 0.931555 0.096665 0.150096 0.193856 -0.387567 -0.054739 -0.491818 -0.366467 -0.109610 -0.222884 -0.407818 -0.440951 0.516822 -0.014402 -0.277025 -0.118852 -0.005394 -0.459290 0.090885 0.583656 0.394050 -0.863496 0.629400 -0.837751 0.508679 0.636122 0.258466 -0.143657 0.856113 -0.469667 -0.052893 0.184682 -0.428939 -0.247830 0.414739 0.409417 0.249263 -0.304553 -0.041652 0.522932 0.152270 -0.696567 -0.033354 0.662605 -0.379333 0.375540 -0.543310 -0.534335 0.148451 0.189884 0.110678 -0.581862 0.151741 -0.278432 0.347644 0.554869 -0.690377 0.141670 0.564713 0.501367 0.113841 -0.025316 0.297086 -0.119842 -0.012706 0.583797 0.209020 -0.581724 0.415987 0.096815 0.136756 -0.287454 0.377424 -0.680819 -0.029645 -0.006448 -0.301860 -0.535276 0.142541 0.250757 0.109061 -0.422538 0.186374 -0.439671 -0.047940 -0.116195 0.067452 -0.076995 -0.205548 -0.091361 -0.236906 0.404801 -0.094527 -0.381900 0.144478 0.092921 0.381640 -0.547971 -0.032310 0.553452 0.169560 0.885511 -0.130843 0.281233 0.037578 -0.255144 -0.322156 -0.493215 0.175994 -0.184502 0.015819 0.049852 0.250604 -0.055946 0.630743 -0.605581 -0.664736 -0.351721 0.252236 0.437915 0.266634 0.382495 -0.433797 -0.331724 0.208428 0.066324 -0.301163 
29 -0.232880 0.491034 -0.261285 0.199228 0.002547 -0.483773 0.518583 -0.230842 -0.346427 -0.057031 0.302112 0.021499 -0.608847 -0.227177 -0.332161 -0.060299 -0.153001 0.247723 -0.684564 -0.390536 0.188100 0.373970 -0.248660 0.572503 -0.746149 0.172098 0.633194 0.082216 0.026254 0.628020 -0.294023 0.142620 0.121347 -0.052380 -0.257383 0.278736 0.381076 0.118457 -0.022743 -0.027290 0.282570 0.001051 -0.268006 0.187604 0.287023 -0.331789 0.284750 -0.421388 -0.165289 -0.054544 -0.030188 0.095595 -0.246092 -0.040801 0.041488 0.254543 0.188036 -0.356843 0.231121 -0.042367 0.086510 0.206074 -0.130843 -0.005038 -0.022418 -0.037363 0.401093 0.117599 -0.282857 0.093608 -0.049446 0.069227 0.118922 0.411423 -0.459990 -0.249389 0.043471 -0.249267 -0.077575 -0.045883 0.136329 0.283624 -0.272997 -0.010281 -0.277388 -0.009959 -0.187852 0.137501 -0.090056 -0.132239 -0.012595 -0.103551 0.235680 -0.026491 -0.156517 0.170500 0.015385 0.295324 -0.182304 -0.148888 0.350074 -0.076829 0.314780 -0.097625 0.000636 -0.038674 -0.113588 -0.060253 -0.142146 0.122513 -0.093153 -0.015197 -0.231011 0.439261 0.062251 0.356303 -0.380554 -0.060164 -0.053697 0.036410 -0.001522 -0.068976 0.426567 -0.408887 -0.182527 0.179106 0.030277 -0.160734 
27 -0.143319 -0.173801 -0.006368 -0.262966 -0.278502 0.538357 -0.800701 -0.425718 0.684777 0.125115 -0.663399 -0.169869 -0.039174 0.546675 0.071192 -0.307551 0.178064 -0.309181 0.543527 0.795229 0.505125 -0.286663 -0.338058 -0.211397 0.421946 0.033186 -0.662483 0.440455 0.130924 0.347714 0.337617 -0.162993 0.006074 0.163434 0.266503 0.192080 0.370095 0.485561 -0.209310 0.427601 -0.065280 -0.173365 -0.229750 -0.232974 0.399574 -0.225445 0.367083 -0.247886 -0.374949 -0.681032 0.214217 -0.059728 -0.590205 -0.157306 0.112513 0.051290 0.515404 -0.333272 0.167410 0.108694 0.361971 0.227548 0.004160 -0.148471 -0.260094 0.475086 0.299322 -0.254924 -0.422312 0.499883 0.197515 0.213440 -0.351908 -0.077622 -0.239855 0.367996 -0.130154 0.037831 -0.181347 -0.151950 0.214773 0.116724 -0.341359 0.320119 -0.122730 0.087317 0.318278 -0.056106 -0.070812 -0.448740 0.323153 -0.006668 0.211538 -0.040245 -0.408268 0.374961 -0.108206 0.346554 -0.492780 0.202171 0.445704 0.192623 0.425183 -0.194640 0.333040 -0.350038 0.302699 0.089192 -0.131949 0.303796 -0.023114 0.027239 -0.246791 -0.290248 0.340775 -0.162586 -0.371726 -0.393695 -0.810454 0.331680 0.583251 -0.147057 -0.464654 -0.047189 -0.184601 -0.207434 -0.370549 -0.368668 
30 -0.034447 -0.531955 0.243234 -0.157968 0.505351 -0.408388 -0.467873 -0.137085 0.426528 0.264494 -0.161078 -0.525123 -0.344539 0.652892 0.173833 0.112647 0.096023 0.031159 0.217420 0.719704 0.141212 0.520786 -0.763444 0.678690 0.084527 -0.054865 -0.579623 0.265482 -0.325776 0.350193 -0.164968 -0.393179 -0.189504 0.260275 -0.362769 0.131436 0.180485 0.463046 -0.715355 0.716883 0.148889 -0.766599 -0.715515 -0.041497 0.303674 0.005666 0.788102 -0.664121 -0.157164 -0.109049 0.262779 0.103887 -0.421091 -0.140551 0.152995 0.237287 0.678891 0.167256 -0.016895 -0.066399 0.294554 0.276684 0.315017 -0.021664 -0.270607 0.267057 0.216466 -0.181940 -0.391509 0.047472 0.070543 0.376659 0.135731 0.741163 -0.219860 0.291455 0.578962 -0.014609 -0.064741 -0.311391 0.036448 0.294623 -0.488815 0.742455 -0.233458 0.149074 0.542735 -0.383379 0.046828 -0.670348 0.304411 -0.371839 0.070487 0.212996 -0.564829 0.327901 0.077285 0.419899 -0.223411 0.464946 -0.282307 0.072377 0.590546 -0.110067 0.312397 0.326650 0.300139 0.105350 0.302603 0.284155 0.278776 0.242661 -0.080742 -0.065668 0.249471 -0.216592 -0.241407 -0.039209 -0.130407 0.169513 0.182385 -0.244599 0.084582 0.242725 -0.588828 -0.040861 0.076375 -0.146940 
31 -0.728670 -0.137932 -0.081991 0.222750 0.504870 -0.225660 -0.364460 0.041397 -0.113303 0.201431 -0.613845 -0.656179 -0.396938 0.158989 0.342177 0.051470 0.037580 -0.031900 -0.025914 0.149272 0.264446 0.697751 -0.822774 0.813238 -0.671511 0.068163 0.164345 0.266894 0.314166 0.311353 -0.066154 -0.524932 -0.323846 -0.326323 0.392783 -0.102476 0.135209 0.651583 -0.800716 0.677401 0.056640 0.012773 -0.262730 -0.152942 0.293328 0.080787 0.318775 -0.068557 -0.737951 -0.484583 0.613968 -0.031137 -0.783518 0.408124 -0.070367 0.061741 0.787249 -0.446953 -0.271901 0.537615 0.601722 0.462738 0.675720 -0.287596 -0.673287 0.451370 0.488583 -0.591217 -0.238870 -0.211968 -0.016452 0.381286 0.003682 0.091581 0.030659 0.354910 0.045076 0.039253 -0.411749 -0.307217 0.335789 -0.364386 -0.022411 0.406096 0.037114 -0.178184 0.892687 0.027699 -0.027035 -0.588392 0.625570 -0.038245 0.039210 0.130270 -0.867426 -0.017150 -0.203855 0.198388 -0.602016 0.387848 -0.117624 0.555869 0.387934 -0.081240 0.061514 0.409522 -0.457330 0.227603 -0.567273 0.317605 -0.312847 0.097306 -0.626724 -0.200139 0.698773 -0.089959 0.236867 -0.681339 -0.490845 0.742210 -0.172592 -0.087791 0.270394 0.673904 -0.339361 0.139084 -0.057471 0.128902 
32 -0.256480 -0.105635 0.170137 -0.005140 0.073493 -0.008749 0.253271 -0.032454 -0.196097 -0.182860 0.021014 0.190358 -0.502728 -0.015551 -0.008175 0.092690 -0.212756 0.260731 -0.619501 -0.420440 0.215907 0.144718 0.067147 0.528629 -0.777067 -0.035136 -0.012093 -0.041111 0.268446 0.300619 -0.015252 -0.118356 0.059433 0.502923 0.012937 0.366974 0.400904 0.479849 -0.512366 -0.204666 0.207091 -0.565459 -0.543161 0.143294 -0.201087 -0.159822 0.141734 -0.158599 -0.245441 -0.427006 0.305419 -0.183625 -0.424492 0.086568 0.165670 0.158677 0.274028 -0.375716 0.170949 -0.442062 0.276672 0.519479 0.219041 -0.359025 -0.397218 0.160133 0.287980 -0.210069 -0.430555 0.093086 0.235337 0.146702 -0.004302 0.167116 -0.276916 -0.158079 0.053795 -0.513903 0.345099 -0.485483 -0.149171 0.064785 -0.216034 0.339921 -0.195428 -0.170197 0.154137 0.179901 0.321754 -0.050002 -0.141461 0.340842 0.212733 -0.267238 -0.197495 0.171502 -0.030004 0.136134 -0.210385 0.091890 -0.069309 -0.069083 0.077406 0.125132 -0.164204 -0.046180 -0.100112 -0.138297 -0.146834 0.259562 0.026010 -0.000743 -0.292602 -0.060557 0.293752 -0.153261 0.092169 0.054648 -0.476308 0.116032 -0.268465 -0.230783 0.243898 -0.235706 0.183565 -0.079498 -0.326234 0.137090 
33 -0.349540 0.495520 -0.241129 0.004888 0.160924 -0.617553 -0.147979 -0.164970 -0.350636 0.046340 -0.312745 -0.507103 -0.579746 0.152792 -0.280554 0.201425 0.167929 -0.051731 -0.055414 0.123026 0.350722 0.425630 -0.815868 0.550879 -0.481016 0.111227 0.379944 0.322054 -0.078112 0.525719 0.072243 -0.094595 -0.025803 -0.862188 0.042158 0.256515 -0.021057 -0.057358 0.128169 0.446540 -0.192374 0.453414 0.097762 -0.253899 0.716229 -0.311317 0.332206 -0.264863 -0.258406 0.085869 0.190587 0.051430 -0.574283 0.051019 -0.025669 0.053385 0.417799 -0.256505 0.086328 0.837555 0.364586 0.039281 0.322595 -0.205660 -0.089266 0.353307 0.352187 -0.339298 -0.070677 0.155730 -0.275479 -0.058780 -0.129034 0.168715 -0.003796 0.225169 -0.013900 0.384433 -0.573822 0.075085 0.142629 -0.415078 0.133846 0.121953 0.072479 0.268750 0.231060 -0.206662 -0.555776 -0.314122 0.477145 -0.165223 0.182902 -0.030554 -0.483708 0.114145 -0.059700 0.418869 -0.555700 0.034595 0.523740 0.570518 0.363948 -0.239571 0.313308 -0.083155 -0.350042 0.093187 -0.280697 0.287103 -0.280052 0.138981 -0.013365 -0.416427 0.035304 0.351057 -0.445232 -0.885266 -0.011979 0.414741 0.554913 0.124333 0.125156 0.378262 -0.244547 0.182903 0.112858 -0.382101 
15 -0.164510 -0.370002 -0.002272 0.098521 0.411481 -0.518830 0.143492 -0.015092 0.070873 0.139296 0.300616 -0.190755 -0.419360 0.025471 0.039643 0.092229 -0.121415 0.261408 -0.233410 0.139867 -0.101798 0.464882 -0.256039 0.669514 -0.171738 -0.016468 -0.107415 0.055355 -0.161040 0.291092 -0.340198 -0.230031 -0.188948 0.429081 -0.327903 0.025058 0.221173 0.456430 -0.519307 0.391462 0.292834 -0.705707 -0.546200 0.147178 -0.011518 0.156868 0.501221 -0.381294 -0.075237 -0.099865 0.215482 0.037871 -0.123781 -0.096507 0.133453 0.297015 0.434696 0.087919 0.002887 -0.375868 0.008058 0.301681 0.139520 0.063787 -0.237130 0.009934 0.150355 0.069161 -0.331692 -0.195325 0.003165 0.316584 0.320608 0.538393 -0.273290 -0.033473 0.497114 -0.314987 0.193081 -0.329300 0.033068 0.276978 -0.288882 0.433141 -0.242164 -0.091421 0.222520 -0.086166 0.229389 -0.376157 0.068033 -0.223802 -0.030930 0.191544 -0.239759 0.129308 0.115551 0.143447 0.044766 0.324003 -0.323021 -0.106418 0.417144 -0.043691 0.057502 0.375112 0.401578 0.044188 0.233821 -0.003179 0.277568 0.120711 -0.092591 0.177497 0.146748 -0.096819 -0.101035 0.255609 -0.029176 0.020810 -0.162666 -0.156414 0.093189 -0.017742 -0.332488 0.007461 0.049685 0.010229 
19 0.000795 -0.000970 0.001965 0.001424 -0.003692 0.000416 0.003371 0.001881 -0.000269 -0.000025 -0.002878 0.000573 0.003372 -0.002169 -0.001035 -0.002378 -0.000459 0.001917 0.001210 0.000963 -0.003826 -0.003270 -0.003834 0.002906 0.001203 -0.001981 -0.000419 0.003571 -0.000873 -0.001908 0.003763 0.003082 -0.002120 -0.002929 0.001023 0.001560 -0.002416 0.002891 -0.000705 -0.000873 -0.001639 0.000049 -0.001298 0.003719 0.000333 -0.003520 -0.000636 -0.000168 0.003623 0.000118 0.001405 0.003213 0.000539 0.003273 -0.002867 -0.001641 -0.000983 -0.001747 0.002297 0.001018 -0.000822 0.000808 0.001393 0.003498 0.001145 0.003245 0.002355 -0.001890 -0.002774 -0.002125 -0.002507 0.000600 0.003170 0.000444 0.002555 0.003279 0.003474 0.003262 0.002037 -0.001545 -0.001742 -0.001361 0.003873 0.001877 0.003271 0.002322 0.000374 -0.001961 0.003010 -0.001192 -0.000526 0.002691 -0.002404 0.003844 0.001295 0.000329 0.002777 0.001927 -0.001853 -0.001113 0.003049 0.000991 -0.002036 -0.001512 -0.001465 0.001159 0.000869 -0.000747 -0.002831 0.002552 -0.000830 0.001306 -0.000926 -0.002519 0.000803 -0.003046 -0.003442 0.001693 -0.001924 0.001946 -0.002442 -0.000317 -0.001075 0.000779 0.002194 -0.000612 0.003472 0.001386 
21 -0.017939 -0.576050 0.262600 -0.157682 0.516912 -0.398993 -0.477438 -0.134755 0.437168 0.264293 -0.154057 -0.517976 -0.332565 0.651596 0.188810 0.110454 0.093612 0.039517 0.220998 0.732004 0.127322 0.514622 -0.747855 0.679711 0.095989 -0.058566 -0.590435 0.259925 -0.319774 0.346403 -0.170468 -0.392569 -0.198359 0.278431 -0.360040 0.126714 0.185668 0.475563 -0.727376 0.715875 0.154205 -0.778801 -0.719453 -0.035190 0.290375 0.000589 0.780106 -0.656460 -0.168093 -0.116351 0.271982 0.097143 -0.409470 -0.133323 0.153313 0.235603 0.680499 0.161174 -0.017066 -0.077108 0.292021 0.284233 0.313529 -0.019923 -0.269668 0.265090 0.214551 -0.180879 -0.391160 0.054927 0.076618 0.377917 0.126331 0.719563 -0.218500 0.290048 0.563679 -0.015182 -0.069474 -0.300257 0.037994 0.284961 -0.483323 0.738824 -0.234876 0.137073 0.540617 -0.371203 0.057209 -0.662304 0.297149 -0.359478 0.073157 0.206353 -0.558293 0.325367 0.072757 0.417476 -0.217732 0.462890 -0.288552 0.072293 0.581833 -0.108783 0.298051 0.330847 0.296158 0.103069 0.293153 0.278533 0.273673 0.238774 -0.088958 -0.054947 0.251482 -0.220267 -0.226069 -0.033623 -0.131636 0.173582 0.170365 -0.241633 0.090163 0.241454 -0.581587 -0.040176 0.073616 -0.144304 
34 -0.134333 0.073161 -0.127099 0.061613 0.013059 -0.108969 -0.041886 0.044042 -0.080641 0.026035 -0.003206 -0.092278 -0.102394 -0.091123 -0.093063 0.057570 0.076557 0.047579 -0.013131 -0.154120 -0.105264 0.091817 0.117436 0.065692 -0.103744 -0.038098 0.193801 -0.064798 0.040474 0.043987 -0.040065 0.078694 -0.239850 0.156979 0.227004 -0.011400 0.169612 0.189307 -0.067455 0.149339 0.133553 -0.150450 0.071823 0.212623 -0.067478 -0.038627 0.099974 0.075939 -0.042733 -0.173292 0.202862 -0.087386 -0.199353 -0.043649 0.174965 0.124983 0.166520 -0.084193 0.067470 0.018806 0.020853 0.134746 0.103023 -0.180022 -0.110950 0.071865 0.131187 -0.149642 -0.025946 -0.171657 -0.099927 0.011429 0.110554 0.210009 -0.008098 -0.120040 0.135213 0.004286 0.158671 -0.172083 0.073252 0.225483 -0.077964 0.038378 -0.148128 -0.113296 0.196580 0.111448 0.154353 -0.132932 -0.257399 0.219977 0.036285 -0.082554 0.088545 0.229366 -0.070725 -0.018829 0.004284 0.322692 0.298622 0.228838 0.247938 -0.106367 0.257025 -0.207774 0.263026 -0.150867 -0.033625 -0.040345 0.107501 0.076678 0.311034 -0.476728 -0.036264 0.040079 -0.128196 -0.140182 -0.261029 0.022691 0.388731 0.205262 -0.371839 0.027976 0.054063 -0.223882 -0.171461 -0.205974 
23 0.001274 -0.003467 0.001229 -0.000193 -0.003512 -0.000355 -0.001640 0.001493 -0.001383 -0.000919 0.000757 -0.002144 -0.003448 -0.000641 -0.002688 0.001225 0.002623 -0.002818 0.000354 0.000491 -0.002093 -0.002933 -0.001225 0.000172 0.002547 0.003532 -0.002908 -0.003030 -0.002378 -0.002347 -0.000180 0.003216 0.003274 -0.000425 0.003665 -0.000011 0.000581 -0.001813 -0.002484 -0.000383 0.001872 -0.001993 0.001518 -0.001196 0.003853 0.003551 -0.003253 0.002068 0.003226 0.003711 0.003347 -0.001700 -0.003303 0.003003 0.002396 -0.000171 -0.003407 -0.001869 -0.001590 0.003359 -0.000380 0.001426 0.003719 -0.002219 0.002481 0.001777 -0.000598 0.003237 0.001881 0.003703 -0.002213 0.000807 0.002335 0.003906 0.003393 0.002820 0.000548 -0.000909 -0.002703 -0.001834 0.001038 0.001587 -0.000359 -0.000824 0.000507 0.000286 -0.000683 0.002553 0.003472 -0.000296 0.000842 -0.002811 -0.001174 -0.003454 0.000919 0.003225 -0.001104 0.003141 -0.003747 0.001741 0.000388 0.000566 -0.000828 -0.002748 0.000005 0.001153 -0.001431 0.002090 0.002264 0.001604 -0.001040 -0.002669 0.003869 -0.001375 -0.002951 0.003119 0.001524 -0.003270 -0.002648 0.000532 -0.000254 0.000438 -0.003425 0.001898 0.003051 -0.001360 -0.000767 -0.003889 
