34 64
1 0.20312108 0.34171546 -0.17684756 0.113263845 0.059059847 -0.11988862 -0.04256949 -0.022757135 0.007441045 -0.16988482 0.11864247 0.14728077 0.11206188 -0.029570825 0.3150545 0.12554877 0.1450288 -0.08568681 0.07564962 -0.12318516 0.026193758 -0.21019605 -0.17880496 0.011367402 -0.19185852 -0.10105714 0.23770307 0.036247518 0.084395036 -0.0048271343 -0.22987835 -0.22442435 0.19186893 0.09426947 0.006301441 0.09348634 0.055804245 0.061087348 -0.16828275 -0.19006413 0.022635192 0.19761248 0.22900139 0.14847203 -0.11496105 0.032485146 -0.11190447 -0.21603756 -0.044218488 -0.13799219 0.2671003 0.044774357 -0.004543805 0.2704421 0.21256617 -0.11710048 -0.06559915 -0.21062014 0.18055983 0.17540832 -0.018433519 -0.46938202 0.2167781 0.11948511
34 0.10215623 -0.002555392 -0.32695922 -0.26333916 0.14833029 -0.06994652 0.010640454 0.20685491 -0.048347484 -0.036535308 0.010863929 0.33495063 -0.02658544 0.019454759 -0.017922489 0.0899067 0.058023613 0.1806864 0.28322014 -0.109285094 0.27677044 -0.2355961 -0.17151949 -0.19493043 0.21720913 0.30284584 0.18453774 -0.1010878 0.17112811 0.1804155 -0.19374064 -0.25826567 0.07206807 -0.066989206 -0.24192947 -0.17517267 0.13050392 0.2074172 0.10277472 -0.30193922 0.07316874 0.21121249 -0.15364847 0.36814135 -0.19500417 -0.1026051 0.021784257 0.14142077 -0.024975784 0.04593545 0.32055223 0.16272989 -0.08314694 -0.14522348 0.011324502 0.009933946 -0.14510407 -0.13947232 0.16663797 -0.05044611 -0.19847886 -0.19754374 -0.11777982 0.1460616
33 0.084096156 -0.05326489 -0.26691112 -0.2902534 0.15583125 -0.04349767 0.024296997 0.18516439 -0.05636063 -0.1094545 0.008767163 0.30112544 -0.054073855 0.044030357 0.002732775 0.13125436 0.096961826 0.11848061 0.31312504 -0.0830461 0.32758883 -0.2174557 -0.17188714 -0.25153175 0.23283663 0.31585595 0.17926241 -0.088026516 0.19246471 0.1390786 -0.14309813 -0.22338553 0.08460273 -0.13985057 -0.21744369 -0.15348147 0.1218942 0.19837716 0.09496241 -0.28874737 0.12768738 0.2046303 -0.24472886 0.33151224 -0.17053583 -0.078011215 0.055762365 0.15394439 -0.06427845 0.059018187 0.28224555 0.17574891 -0.0966317 -0.15849634 0.0069098906 -0.044371378 -0.14715631 -0.16317846 0.17103103 -0.023278357 -0.2162085 -0.22014551 -0.17757331 0.1305122
3 0.19238535 0.034152437 -0.22741549 0.05668967 0.16149488 -0.017642682 0.022562668 0.021505682 -0.061096348 -0.031309757 0.11764313 0.31826204 -0.019567948 0.008920379 0.08038973 0.13208851 0.056110118 0.026154349 0.118098564 -0.041019052 0.05530554 -0.23392998 -0.26017147 -0.14258973 -0.0013707152 0.027652359 0.16770391 -0.10118477 0.27626085 0.12813677 -0.2568784 -0.28055623 0.20376551 0.10261791 -0.23618914 -0.104502045 0.085615456 0.1371345 -0.06047486 -0.22837971 -0.0104820505 0.26654112 -0.020362087 0.26422185 -0.1770367 -0.08475727 -0.0992624 -0.12231668 -0.03816153 -0.008023567 0.33347023 0.12157449 -0.012026826 -0.0056161587 0.0012949249 -0.030889936 -0.015676076 -0.22616644 0.19323009 0.023053007 -0.1195494 -0.31260982 0.042289477 0.18896864
2 0.25488272 0.09622062 -0.16356438 0.24412382 0.16226907 -0.018681822 0.005558742 -0.114792846 -0.08503736 -0.08022327 0.18517563 0.28639525 0.017963786 0.0016347397 0.15806374 0.16843094 0.104110576 -0.083234176 0.033913568 -0.031269725 -0.058340047 -0.23615415 -0.29148898 -0.12650491 -0.14625795 -0.12348161 0.19629535 -0.074956745 0.32703152 0.05063206 -0.291009 -0.29329732 0.2644859 0.19332752 -0.1931716 -0.037011184 0.07494293 0.07239069 -0.17572665 -0.20138551 -0.024697125 0.30995962 0.085949264 0.19810513 -0.1460597 -0.031419106 -0.16430554 -0.26781118 -0.08795098 -0.06157797 0.34797806 0.07486712 0.04681876 0.14336601 0.06296389 -0.07662409 0.024863377 -0.29319426 0.23584105 0.10767304 -0.081768095 -0.43193543 0.13298745 0.19272882
4 0.26470134 0.103669465 -0.17595448 0.28061858 0.17124291 -0.015619812 0.014888071 -0.11293361 -0.08050041 -0.042668898 0.19021322 0.30762815 0.018669521 0.004208953 0.16947223 0.16019498 0.07646729 -0.08051048 0.020656884 -0.006730666 -0.099299364 -0.2455705 -0.3197393 -0.108653836 -0.16406839 -0.16828513 0.18074569 -0.09305401 0.35136032 0.06989161 -0.3176477 -0.3264234 0.29871577 0.23942685 -0.19602998 -0.043422952 0.052700184 0.0780051 -0.18992095 -0.19860175 -0.044876687 0.31122595 0.12032982 0.19158694 -0.17803654 -0.07081548 -0.17274383 -0.32295665 -0.06396593 -0.05965107 0.36916247 0.09160363 0.046033207 0.14296177 0.039942972 -0.060006954 0.055544224 -0.3018704 0.22539313 0.10967205 -0.065242685 -0.43405238 0.18919554 0.22022307
32 -0.033721827 0.25145257 -0.42633626 -0.1400355 0.102512896 -0.12068857 0.013220641 0.26169953 0.0282296 0.07636324 -0.17513104 0.37188175 0.15139799 -0.08370168 -0.016669994 -0.039898105 0.09367143 0.25684595 0.19718195 -0.19900683 0.1591588 -0.15685469 -0.04156174 0.06820014 0.15882103 0.2760269 0.15028316 0.07856571 -0.008349172 0.25719592 -0.12268838 -0.11410305 0.04060148 0.11801517 -0.10070402 -0.21027139 0.2517286 0.22030476 0.113740444 -0.4125462 0.0699527 -0.049124453 0.1541848 0.3018452 -0.2789626 -0.15527888 -0.00857491 0.098193064 0.09581816 -0.009187999 0.11679727 0.20987457 -0.0056198537 0.09620961 0.2631548 0.0926692 -0.19125429 0.04882935 0.17717132 0.088383846 -0.16580352 -0.2163895 0.026475927 0.13376643
14 0.17710567 0.15433516 -0.19080454 0.06480097 0.1096512 -0.05682527 -0.005249864 0.018566944 -0.030122962 -0.11463343 0.10611703 0.24824944 0.022409236 0.002861707 0.17179254 0.12710695 0.09897989 -0.019240446 0.11553898 -0.07420781 0.08162339 -0.20646861 -0.21856976 -0.08652217 -0.06502166 -0.013279547 0.18938091 -0.040239036 0.21038121 0.07520356 -0.21082999 -0.250572 0.19159445 0.067965984 -0.13220623 -0.023428354 0.07288465 0.113509454 -0.07492828 -0.22369696 0.027120559 0.23356141 0.040733952 0.23537946 -0.14756373 -0.034605734 -0.09092278 -0.15783134 -0.0377788 -0.058476187 0.291892 0.10968404 -0.0057776356 0.11340216 0.089752644 -0.09510292 -0.040449303 -0.21843103 0.20552269 0.09024071 -0.09307656 -0.37277526 0.09596072 0.16480727
24 -0.020294823 0.05655295 -0.42799005 -0.22175848 0.15271668 -0.0687073 0.042767376 0.27570978 -0.015837995 0.10620363 -0.15089215 0.46570268 0.056511503 -0.037359223 -0.1367268 0.0016164026 0.078419074 0.3144398 0.26996017 -0.160636 0.23098782 -0.16601188 -0.079271935 -0.082187794 0.27808875 0.40596384 0.14446768 -0.0034367773 0.09630365 0.28930172 -0.1201012 -0.14591256 0.0360803 0.07249986 -0.22013995 -0.29443243 0.25279105 0.24069197 0.17364009 -0.44025537 0.082019195 0.037335895 -0.03633887 0.38444874 -0.29085964 -0.2025396 0.017719528 0.19088341 0.06828601 0.06512986 0.18273415 0.24463333 -0.019958809 -0.06570546 0.13392742 0.101597175 -0.19928575 0.02492729 0.19193569 -0.007981644 -0.22855952 -0.14617118 -0.111949556 0.1609629
9 0.102431476 0.081580564 -0.26581943 -0.17476304 0.12498004 -0.08152259 0.0048246616 0.15013433 -0.033130173 -0.08190349 0.036017004 0.26935214 0.0034757052 0.005849874 0.069272496 0.102665775 0.092609905 0.11433236 0.23337594 -0.10455371 0.2212568 -0.21333748 -0.15405571 -0.14484009 0.10891269 0.20217885 0.18905546 -0.054918114 0.14040735 0.1197631 -0.18030933 -0.22521007 0.082383044 -0.035575993 -0.16645181 -0.09972425 0.121428594 0.16525523 0.035520963 -0.26467195 0.07652795 0.18999358 -0.0745523 0.30028945 -0.1610584 -0.05628261 -0.012191166 0.058780298 -0.038964596 -0.0055932784 0.2766411 0.14243954 -0.04863321 -0.029156744 0.0672886 -0.028255643 -0.1307762 -0.1474659 0.16263396 0.0017104185 -0.16206922 -0.2692226 -0.041749656 0.12426405
8 0.26021555 0.10012771 -0.19645303 0.19100703 0.15188234 -0.029193128 0.004690343 -0.06983684 -0.08161233 -0.07631523 0.19255003 0.29941228 0.0027460258 0.010204566 0.17757352 0.14701797 0.06475732 -0.06463497 0.056861922 -0.020223578 -0.025053518 -0.25143397 -0.29951075 -0.12426194 -0.11081388 -0.09906881 0.1775858 -0.11291346 0.33091247 0.082897976 -0.3068976 -0.32693204 0.2803292 0.17457591 -0.19677414 -0.03104039 0.034906544 0.10241077 -0.14412266 -0.19571039 -0.03537964 0.31876773 0.06307929 0.2253621 -0.15222901 -0.05506282 -0.15003946 -0.2642529 -0.05874499 -0.06616519 0.3818195 0.088321686 0.0115538305 0.09269702 0.014025025 -0.077535845 0.027287936 -0.29797292 0.21905239 0.061573833 -0.09068148 -0.40303928 0.15467198 0.21848829
28 0.017897809 0.136366 -0.4259304 -0.084624514 0.13785282 -0.08344831 0.030119421 0.19720459 -0.0072468333 0.13241945 -0.13998441 0.43735194 0.11095964 -0.06562281 -0.06375681 -0.033144336 0.05918086 0.25479785 0.1780595 -0.16412656 0.11245785 -0.17317104 -0.0721643 0.016495597 0.15466745 0.26409915 0.120648436 0.007945763 0.084538 0.28674138 -0.18373314 -0.14538124 0.09568218 0.1704196 -0.18034388 -0.2560019 0.22681534 0.21072058 0.094031215 -0.40028843 0.020362273 0.015209812 0.12007293 0.30899134 -0.27033436 -0.18594879 -0.05437729 0.066044204 0.089915924 0.026439687 0.19244643 0.18692975 0.003289589 0.031961527 0.17993023 0.10957713 -0.14832723 -0.0037745687 0.19278438 0.048140462 -0.1655449 -0.17499466 0.008225105 0.1757262
6 0.20021401 0.6930533 -0.18442723 -0.007472049 -0.018754464 -0.25568464 -0.08654784 0.009020352 0.12804554 -0.46612886 0.06064725 -0.028079938 0.24008328 -0.041919075 0.60604113 0.18945275 0.33958635 -0.19639619 0.18923283 -0.26133317 0.20624502 -0.24523976 -0.11320837 0.12639162 -0.3230119 -0.14887144 0.36443025 0.2524228 -0.15418147 -0.11539493 -0.1689183 -0.1919059 0.1779032 -0.1133315 0.26446402 0.30847713 0.07379521 0.07359008 -0.23343319 -0.19460668 0.20351255 0.11610771 0.38790426 0.065658756 -0.08260979 0.1729652 -0.04761506 -0.21839605 -0.045561526 -0.2550641 0.23341595 0.05367847 -0.07354211 0.5110746 0.517183 -0.29917878 -0.14929824 -0.2464157 0.23038886 0.42491314 0.0533647 -0.7156228 0.2906223 0.053313117
7 0.143285 0.6680865 -0.2210111 -0.1385849 -0.05615113 -0.2597333 -0.08599939 0.11686433 0.14325362 -0.4592437 0.019219566 -0.02569888 0.22839643 -0.03516603 0.55714136 0.15884762 0.33631074 -0.1276486 0.23708497 -0.28332505 0.2869728 -0.22274892 -0.08713503 0.12607747 -0.23468317 -0.03366112 0.37121594 0.25950438 -0.19254816 -0.090622835 -0.11213981 -0.15789114 0.11657901 -0.1954693 0.23590454 0.28029075 0.08293451 0.11762085 -0.14836673 -0.22942936 0.22614598 0.088241465 0.31418803 0.13105538 -0.082050666 0.16775684 0.0033878577 -0.1108845 -0.025704918 -0.22995506 0.20534045 0.070897125 -0.08457936 0.46041745 0.4990498 -0.29005894 -0.19674899 -0.18467999 0.2040069 0.37552193 0.03853215 -0.64578557 0.21660022 0.036656342
31 0.13144559 0.0026211336 -0.2618204 -0.10429301 0.1460237 -0.029480506 0.0148642715 0.11149951 -0.05125796 -0.051864818 0.05129665 0.31767386 -0.033298463 0.021141842 0.01699931 0.10581442 0.057514574 0.09733718 0.20909375 -0.06723787 0.16850755 -0.21035291 -0.19131249 -0.17424771 0.12315152 0.182241 0.16782574 -0.08685285 0.21572495 0.14986572 -0.19466852 -0.24775045 0.12758927 0.006714222 -0.24217182 -0.15432945 0.1275329 0.16937998 0.04204629 -0.26832828 0.03930842 0.22515988 -0.11007772 0.31517294 -0.1613737 -0.08634154 -0.02309455 0.022890069 -0.034784496 0.023794018 0.3108499 0.13699411 -0.036732107 -0.073229045 0.022551607 -0.027974846 -0.084152624 -0.1665164 0.18168496 -0.01351744 -0.17476097 -0.24302171 -0.05395024 0.14632368
30 0.028013295 -0.0071506943 -0.396462 -0.3120627 0.18009944 -0.07192309 0.016640456 0.27494785 -0.04371249 0.045689642 -0.10156206 0.45018074 -0.011779171 -0.019949172 -0.12459578 0.039066292 0.061836105 0.28445855 0.32885203 -0.15136412 0.29886094 -0.19698346 -0.11385927 -0.17610101 0.31893334 0.42716104 0.15871893 -0.07621839 0.114518404 0.24246357 -0.15610519 -0.20180608 0.020547073 -0.02653574 -0.26302478 -0.2796846 0.21858254 0.23552665 0.17750974 -0.40505698 0.09638854 0.12295681 -0.12736769 0.39886546 -0.25831044 -0.18035759 0.042484704 0.23954926 0.018697299 0.077303894 0.25774026 0.21395956 -0.06842979 -0.15560962 0.06756942 0.09046349 -0.20860556 -0.052261207 0.18420511 -0.057915192 -0.23965104 -0.14924446 -0.16578163 0.15782133
25 -0.06599952 0.22734459 -0.5147531 -0.11375012 0.14927463 -0.1113064 0.037745286 0.30166018 0.030672196 0.22233513 -0.25332218 0.497428 0.1735672 -0.11077779 -0.13738884 -0.09928452 0.06642641 0.3631236 0.19125779 -0.20844364 0.10820871 -0.15965955 -0.018898008 0.10960722 0.22495727 0.37022212 0.12185953 0.08004548 -0.010404364 0.36558288 -0.13669896 -0.089843616 0.031265344 0.23781699 -0.1629375 -0.33424646 0.32403204 0.2530831 0.16354655 -0.49588284 0.024326816 -0.114908345 0.21215278 0.34302562 -0.3451554 -0.2407467 -0.033615187 0.14413388 0.13952622 0.010721071 0.095748134 0.24556647 0.02712509 0.07917151 0.27363938 0.19610007 -0.20655969 0.13069583 0.1846691 0.06307132 -0.19801278 -0.14667313 0.024907537 0.15493648
29 0.079585366 0.074582286 -0.30351374 -0.057595015 0.1390187 -0.060304046 0.025306266 0.14167123 -0.03280173 0.007828768 -0.023649197 0.34620357 0.033761825 -0.02748404 0.004439486 0.0692282 0.081896365 0.14234051 0.18481527 -0.086006545 0.11923676 -0.17874141 -0.16489786 -0.07679182 0.11370272 0.17538197 0.15349716 -0.034615334 0.1624131 0.17608637 -0.18588655 -0.21696685 0.10560087 0.08394936 -0.19101174 -0.16303116 0.1622071 0.17253485 0.02857726 -0.29593924 0.054766264 0.14204106 0.010565056 0.29140666 -0.22877893 -0.12353063 -0.03714116 0.0099770175 0.013134037 0.017725356 0.24007866 0.18049951 -0.01245171 0.0067448 0.07893425 0.034789693 -0.09606591 -0.10694563 0.18233784 0.029886523 -0.14696187 -0.24826221 -0.004204757 0.16661403
5 0.19919664 0.5958469 -0.15366867 0.011440156 -0.026927788 -0.21648958 -0.07417756 0.020093696 0.09672252 -0.42827898 0.1134115 0.0017779062 0.17618309 -0.02076934 0.568811 0.18563728 0.2925469 -0.18870364 0.15937148 -0.20787749 0.17703414 -0.23841108 -0.15256557 0.0747907 -0.29109937 -0.1386317 0.3501047 0.18920214 -0.0706813 -0.10798444 -0.16826518 -0.20591296 0.19496368 -0.099270865 0.18758984 0.28463113 0.030101964 0.074227534 -0.20823266 -0.17999768 0.16017056 0.16970418 0.30463648 0.111151546 -0.08597102 0.16545473 -0.051378604 -0.23656636 -0.05368884 -0.23522411 0.24825408 0.058749326 -0.063170135 0.45065668 0.40542915 -0.29352215 -0.13575903 -0.2513602 0.2179438 0.33363363 0.033899423 -0.67127347 0.2705701 0.07280463
11 0.21142718 0.6111426 -0.12874414 -0.06338612 -0.052248634 -0.20181866 -0.089304835 0.026785227 0.12346781 -0.50465345 0.10759641 -0.045374382 0.17252709 -0.01249971 0.5993236 0.20432585 0.32439503 -0.21335734 0.18692829 -0.22061095 0.26405022 -0.23025423 -0.16371985 0.058846764 -0.29022172 -0.11993119 0.38049686 0.20567302 -0.0842896 -0.13391094 -0.13312782 -0.20439328 0.17962152 -0.19428267 0.20389183 0.32095745 0.02571583 0.086506106 -0.20523125 -0.18437251 0.20625041 0.18173227 0.23951447 0.121374644 -0.045909252 0.18658283 -0.025168287 -0.20421802 -0.06353662 -0.22535339 0.25953022 0.05954792 -0.08498682 0.4445637 0.41163164 -0.36194146 -0.14594214 -0.26979 0.21218617 0.36522135 0.041832913 -0.68116623 0.23352754 0.059463885
26 -0.086325556 0.22335365 -0.5694385 -0.14706443 0.16044588 -0.12047175 0.039049678 0.335727 0.021551643 0.26009795 -0.28751525 0.54641783 0.1957708 -0.116425864 -0.16284071 -0.12512222 0.055846646 0.40653986 0.21135093 -0.23515745 0.11584433 -0.16047908 0.002453678 0.12311446 0.2650021 0.40878415 0.10742574 0.064941525 -0.017440727 0.41090927 -0.16456957 -0.09632434 0.044663463 0.25064102 -0.16813965 -0.37583917 0.34774247 0.27059457 0.1869613 -0.5404549 0.028759975 -0.1364336 0.20944288 0.3616722 -0.37379882 -0.27115893 -0.040650897 0.15944031 0.15810817 0.041078717 0.10728038 0.26743373 0.014073914 0.049808387 0.27923042 0.21355835 -0.22442757 0.14134088 0.19028868 0.054303724 -0.21572037 -0.11948024 0.00034858406 0.1895861
20 0.19071633 0.1633472 -0.21394435 0.05880546 0.112999275 -0.059767637 -0.011705324 0.0089455545 -0.03233371 -0.113399595 0.09832423 0.23661146 0.040580336 -0.0120819695 0.17406003 0.11752155 0.10026052 -0.017207285 0.11333364 -0.07798172 0.07444573 -0.21794261 -0.21195382 -0.08031233 -0.046688657 -0.0069878018 0.18794698 -0.036974445 0.18879096 0.06762018 -0.2393648 -0.25906247 0.18566845 0.08376823 -0.10792648 -0.026345262 0.076992474 0.10645485 -0.09353539 -0.22188872 0.03372715 0.2216959 0.07252767 0.2102744 -0.15207344 -0.027373811 -0.08614571 -0.14580193 -0.05043229 -0.05612974 0.30720496 0.10381504 -0.017568534 0.101416074 0.09891629 -0.08328833 -0.052525394 -0.22094634 0.19600831 0.08854549 -0.081813045 -0.3667841 0.0965667 0.15333435
13 0.23044951 0.17022811 -0.20331667 0.19924912 0.14325497 -0.04746867 -0.012191611 -0.050189957 -0.052092794 -0.061519407 0.15015209 0.28140402 0.04873975 -0.012338257 0.2025268 0.12595937 0.08932341 -0.050740242 0.048852026 -0.055361327 -0.022454396 -0.2251422 -0.26651108 -0.07070758 -0.12979096 -0.102067545 0.20067303 -0.05962625 0.27180272 0.072310634 -0.28896397 -0.28908622 0.26164547 0.19655654 -0.13002859 -0.022409033 0.05950648 0.094186656 -0.1517155 -0.2351021 -0.03002303 0.2671145 0.13859645 0.20475319 -0.17958742 -0.050389253 -0.14013419 -0.26735243 -0.0484078 -0.081471965 0.32861602 0.08382471 0.019940894 0.16171688 0.08158856 -0.06744071 -0.0053562126 -0.25238618 0.22575608 0.10576153 -0.080121726 -0.4189244 0.1851869 0.19961746
22 0.23975222 0.23705503 -0.2011185 0.16346507 0.108783916 -0.07012177 -0.012230289 -0.0638447 -0.015380401 -0.1325849 0.12624688 0.22137015 0.07496567 -0.017750595 0.2346511 0.124257065 0.12413974 -0.07705541 0.070597515 -0.09151299 0.001247083 -0.23139364 -0.21885368 -0.024083378 -0.14505813 -0.108719096 0.20372918 -0.0023597532 0.17889284 0.06150654 -0.26946834 -0.25549874 0.24457912 0.14611535 -0.06626557 0.02759903 0.06784041 0.0752716 -0.16577838 -0.20467207 0.0099739395 0.22700147 0.17639333 0.15458144 -0.14567389 -0.009016613 -0.12711741 -0.23739693 -0.046104778 -0.10179996 0.32090676 0.07028029 -0.0066965837 0.20433468 0.1570507 -0.111191906 -0.011864789 -0.25209448 0.21644145 0.15387625 -0.04187962 -0.43416724 0.18025802 0.16486028
18 0.23674816 0.24827209 -0.1901632 0.16929771 0.10116814 -0.06974379 -0.009329581 -0.061141353 -0.017145956 -0.15311751 0.13749161 0.22414277 0.074026905 -0.0109712845 0.2635389 0.1463658 0.1423754 -0.09294764 0.06219589 -0.08074441 0.015814237 -0.23612128 -0.23710163 -0.031464558 -0.16612889 -0.11170751 0.21858583 0.006079013 0.21615316 0.049498204 -0.25500953 -0.26934654 0.25655776 0.1343634 -0.06867676 0.04226894 0.05956969 0.09261688 -0.17750865 -0.22163822 0.0117027555 0.24756671 0.1610469 0.16790737 -0.14769818 -5.105546e-05 -0.12526207 -0.26737207 -0.053272814 -0.10802463 0.32103708 0.08459811 0.0054571056 0.22545876 0.15465415 -0.1348902 -0.016431354 -0.2631289 0.22842456 0.1634122 -0.05627076 -0.4661579 0.18704085 0.1766786
17 0.18356098 0.7451175 -0.13574974 -0.19435698 -0.08196224 -0.28835106 -0.112691104 0.074818835 0.15814997 -0.66089547 0.07544159 -0.13518278 0.2087752 -0.0057266345 0.707129 0.2386621 0.42460904 -0.25560784 0.27880666 -0.28429076 0.39589807 -0.24978781 -0.11574864 0.08761499 -0.31032392 -0.07830311 0.43522364 0.2984485 -0.21667148 -0.19867209 -0.08463385 -0.18179141 0.13844454 -0.34855366 0.3251505 0.41748047 0.03280038 0.10034599 -0.21000646 -0.15824397 0.3099467 0.13745107 0.27416044 0.088289194 -0.016776375 0.26840273 0.032338187 -0.12504904 -0.0818612 -0.26618063 0.2439613 0.05694683 -0.12727465 0.5068984 0.5392575 -0.42848143 -0.21082258 -0.283342 0.22675125 0.4542024 0.06781838 -0.7825236 0.21532372 -0.0051740697
23 0.047729418 0.018676225 -0.32194543 -0.25453302 0.16505264 -0.058765054 0.019500576 0.20762195 -0.038607836 -0.013494074 -0.021166861 0.37363583 -0.023746455 -0.0047579934 -0.06534912 0.068393506 0.06638958 0.20935825 0.2886096 -0.12740397 0.2718183 -0.21371473 -0.12473941 -0.17730871 0.23566236 0.3365281 0.17292202 -0.07705289 0.14410377 0.20105499 -0.15743285 -0.19809505 0.038276516 -0.027025472 -0.24926735 -0.20957662 0.19694819 0.21667385 0.12816851 -0.33714202 0.070279494 0.14659965 -0.13688932 0.3568154 -0.20069143 -0.124628685 0.019623248 0.17401709 -0.01011889 0.042404167 0.25152156 0.17551905 -0.041627675 -0.11783146 0.05101657 0.034861907 -0.17511396 -0.08092502 0.16889548 -0.045957066 -0.21600491 -0.19962685 -0.14271593 0.12557523
10 0.14838572 -0.030063566 -0.2783272 -0.047712125 0.18130933 -0.018400675 0.025867272 0.10107125 -0.06772698 -0.007898194 0.05608247 0.36933646 -0.029773567 0.019202266 -0.020352937 0.1034509 0.049798995 0.11592013 0.19322282 -0.054940756 0.13013265 -0.21233957 -0.21855412 -0.1910916 0.12391233 0.16566612 0.15743172 -0.11905371 0.26109955 0.1783678 -0.22463752 -0.27971444 0.14240779 0.07383364 -0.26495498 -0.17820616 0.11519163 0.17007431 0.023983568 -0.28536174 0.012186669 0.24881358 -0.08899536 0.33221558 -0.20351657 -0.1202072 -0.041214786 -0.011201821 -0.024153588 0.043569557 0.3396636 0.16015221 -0.022111755 -0.08985047 -0.023303537 0.015365792 -0.05876952 -0.17688993 0.20126742 -0.03491575 -0.17102547 -0.23379135 -0.03133385 0.18318568
15 0.016592551 0.05907735 -0.29693675 -0.32967004 0.11775709 -0.08560674 0.016841667 0.23751548 -0.019899966 -0.10406758 -0.03616362 0.3058396 -0.020263597 -7.757502e-05 -0.006884431 0.08574524 0.11459514 0.1841612 0.32955796 -0.12596296 0.34052888 -0.20051008 -0.10512078 -0.17331943 0.234205 0.35054106 0.18529157 -0.035423014 0.08586155 0.15544005 -0.106075205 -0.18651089 0.020638565 -0.12690407 -0.19207007 -0.16129975 0.17400399 0.21887133 0.13741207 -0.30933934 0.14124914 0.1271104 -0.1661183 0.34677306 -0.17619754 -0.08744946 0.05886555 0.2016982 -0.0037816768 0.03504156 0.23542014 0.19236551 -0.0724049 -0.09465402 0.078672715 -0.015670301 -0.1900113 -0.08213833 0.16575004 -0.004877013 -0.19404148 -0.21353841 -0.15125796 0.1065646
19 0.047807325 0.03135319 -0.31883222 -0.28268993 0.14087158 -0.07540907 0.015024364 0.23476031 -0.035204306 -0.05554559 -0.012206486 0.3479 -0.028562766 -0.006033893 -0.01678034 0.0932621 0.06878133 0.20518187 0.31465068 -0.13877161 0.3074942 -0.20541604 -0.13378637 -0.18286596 0.23101754 0.3298064 0.18481496 -0.07829796 0.13049345 0.17853886 -0.15087277 -0.21452664 0.029932605 -0.07586519 -0.23648676 -0.18739676 0.16873352 0.21589024 0.13088447 -0.3346308 0.0852231 0.18078698 -0.15505579 0.38256493 -0.20433572 -0.10851649 0.023250272 0.17034334 -0.00089510053 0.037925422 0.2647515 0.1771531 -0.05934457 -0.10768439 0.047014814 0.0214651 -0.18657659 -0.08700668 0.1660441 -0.046092987 -0.21683878 -0.21891582 -0.13156392 0.11854675
16 0.040986747 -0.02862419 -0.31453317 -0.3772099 0.1469742 -0.051714394 0.015528602 0.2641606 -0.02976797 -0.07761332 -0.034892768 0.34700555 -0.05695209 0.0133481 -0.062945805 0.09723977 0.074871786 0.2239851 0.36574146 -0.11991014 0.3712227 -0.20827635 -0.118489206 -0.23149274 0.29900217 0.40624905 0.17823981 -0.08602945 0.13322069 0.18263176 -0.12082643 -0.20977561 0.01612678 -0.16084893 -0.26004037 -0.21227714 0.17620912 0.24383146 0.17254594 -0.33666503 0.12962717 0.17586868 -0.25624713 0.39784652 -0.1791602 -0.098971166 0.078158066 0.25750265 -0.01720805 0.07452347 0.27632076 0.190132 -0.09006778 -0.19142473 0.018751608 -0.0054374496 -0.20279117 -0.087379165 0.16729689 -0.07292217 -0.22991028 -0.16200346 -0.22529946 0.117487416
21 0.07036952 -0.012750217 -0.26516306 -0.28291965 0.14326005 -0.05803371 0.02787432 0.1824924 -0.045588113 -0.10182 0.017199578 0.31392705 -0.056832068 0.03418556 -0.012674905 0.1177285 0.09806048 0.16532567 0.3123491 -0.11426431 0.31606674 -0.21612875 -0.1465134 -0.23550048 0.2180946 0.31557688 0.19226845 -0.06411327 0.16146818 0.14471777 -0.1316115 -0.21548326 0.053682 -0.12985452 -0.23484462 -0.16514182 0.14243719 0.2044412 0.10675412 -0.30050832 0.11145563 0.20415603 -0.20759265 0.35826355 -0.16148755 -0.06677744 0.0334785 0.1610596 -0.04685654 0.052392617 0.29014325 0.17533202 -0.07706706 -0.13560477 0.020757936 -0.039334558 -0.15192673 -0.12788028 0.180644 -0.026555425 -0.19315317 -0.21763542 -0.17257133 0.1057588
27 0.06829375 -0.045725197 -0.31696513 -0.305369 0.15329877 -0.05086105 0.020550722 0.22140893 -0.059612665 -0.04011261 -0.016280448 0.39210922 -0.0586076 0.0035555176 -0.07087133 0.08434525 0.06018202 0.21862377 0.31747368 -0.11240752 0.3140107 -0.2042855 -0.1466516 -0.23611945 0.2627871 0.36211878 0.16263676 -0.097767554 0.17459206 0.17940272 -0.15846886 -0.2277106 0.047273926 -0.08254987 -0.273991 -0.20485823 0.1504644 0.22170979 0.14294818 -0.34047264 0.09666433 0.20727423 -0.20522171 0.3997165 -0.20211604 -0.13454062 0.030593127 0.17957951 -0.0100608105 0.068461925 0.29041514 0.18498997 -0.063306965 -0.15839691 -0.007002064 0.014136451 -0.17897443 -0.12823723 0.17301059 -0.07133831 -0.21113297 -0.17808668 -0.17233577 0.15132655
12 0.20426661 0.3241209 -0.1621157 0.14189447 0.056432094 -0.09788215 -0.034527592 -0.03157863 0.012885291 -0.19969286 0.12568061 0.1425812 0.09635311 -0.01431181 0.34497887 0.14348884 0.1656339 -0.12469279 0.06214311 -0.0992638 0.033053864 -0.21638753 -0.21056531 -0.0053865896 -0.19567043 -0.13280956 0.24684829 0.040127907 0.13172136 -0.0072088307 -0.22976638 -0.23362784 0.23433957 0.07423639 -0.0049164766 0.09987093 0.04672494 0.0755624 -0.17624891 -0.20135409 0.041082546 0.21142654 0.20146088 0.14816162 -0.12484441 0.0397742 -0.11548256 -0.2617076 -0.05037155 -0.14225869 0.26937404 0.066192605 -0.0145558715 0.28397283 0.2017627 -0.1660327 -0.04518096 -0.2313506 0.20069413 0.20040974 -0.012408074 -0.48816162 0.21873683 0.14526896
